0.0
0.0804986623112955
0.0
0.0
0.0
0.0
0.07351113682102053
0.0
0.0
0.10367172221952657
0.0
0.0
0.14641044703864847
0.0
0.12608019545568494
0.0
0.0
0.0
0.03235332762892682
0.16311236917241495
0.0
-0.0460558838108526
0.0
0.0
0.0
-0.030383298294397763
0.0
0.025603900872421523
0.0
-0.06296605820369955
0.0
-0.05490351469440435
0.0
0.01611176556505563
-0.054340956712849574
0.0
0.0
0.07222148418736189
0.06192446442931993
0.0
0.0
-0.15534878332264918
0.0
0.10918833225760897
0.0
0.0
0.10364576994807281
0.0
-0.02441482588565328
0.0
0.0
-0.09149117648075056
0.10928576325533612
-0.020846080120839695
-0.06110373837459528
-0.245577533404426
0.2196847973589926
-0.046076981427958325
0.0
0.0
0.0
0.0
0.037161444704666834
-0.18420157700418777
0.0
0.02723705096231043
0.0
0.11183710167632104
0.01677432531381486
-0.0038083850452225697
0.0
0.0
0.14084461890578348
0.06419623420768009
0.034725329584307685
0.0
0.06135998529963235
0.12250716220473043
0.09635607744536923
0.0284002766170209
0.024401799642462585
-0.04512050240090155
0.11057771095337876
0.1299585108233679
0.0
0.12426525285306823
-0.12075383778626343
0.0
0.0
-0.0021075129914443734
0.0009530238161441947
0.18902775298435276
-0.017016002917238333
-0.1024505886632001
-0.008688965761102488
0.0
0.01851767670991789
0.0
-0.23076554935037202
0.00019465147933914645
0.0
0.0
0.08388402227797676
-0.07513050365957388
0.0892292505893297
0.06538622176031576
0.0
0.0
0.0
0.0
0.0
0.0
0.0
0.0
0.031717654935074696
0.0
0.0
0.0
0.0
0.0
0.0
0.0
0.0
0.0
0.0
0.02548228681277908
0.12603128101363
0.0
0.0
-0.0488692599994688
-0.03978550061505143
0.0
0.0
0.0
-0.09013033855556014
0.0
-0.07170448374724316
0.10042934334363317
0.0
0.0
0.0
0.0
0.0
0.05344792834205116
0.0
0.0
0.09585553934750912
0.032700773263600554
0.0
0.0
0.0
0.0
0.3100400570379785
0.0
-0.027050880887588637
0.0
0.0
0.03155271761706962
0.0
0.0
-0.05095609981055455
0.0
0.006473692657854385
0.0
0.0
0.0
-0.023934118394184196
0.0
0.0
0.0
0.0
0.0
0.0
0.0
0.0
0.0
0.0
0.0
0.0
0.0
0.0
0.0
0.03076277604210019
0.0
0.0
0.0
0.0
0.0
0.0
0.0
0.0
0.0
0.09738879238619777
0.0
-0.02562311200173556
0.0
0.0
0.0
0.0
-0.03597807520449194
0.1835371876758484
0.0
0.0
0.0
0.0
0.08650228934655299
0.0
-0.04358353937678095
0.06824458475383309
0.042163094541840834
-0.06614671795375744
0.00623492932317176
-0.025142234008608457
-0.16516868187464073
0.014660594210570652
0.0
0.059441545743454366
0.0
0.0
0.012165380324872938
0.0
-0.002419860573972166
0.09486044939204301
0.06540679034639613
-0.10442645678640525
0.0
0.0
0.18152178233299188
0.0
0.1395775313312462
0.12222786040355303
0.0
0.0
0.0
0.0
0.0
0.015071670828571804
0.0
-0.06720548624072378
0.0
0.026750988620820895
-0.07741089163060244
0.0
0.0
0.0
0.05321091533474208
0.04316876239331884
0.0
0.0
-0.1761528415417461
-0.0074987436111419534
0.0
-0.011265927533685974
0.0
0.030046785776374315
0.0
0.07819719451645005
0.07027768568223472
-0.026678450143880025
0.13983789199325777
-0.09335129992820188
0.0
-0.02582339960689718
0.0
0.0
-0.1329934636994102
0.0
0.04751862425488061
0.0
0.0
0.0
0.0
0.19305150576766764
-0.09085059654404576
-0.01725417521461651
0.0
0.0
0.0
-0.06782387291199943
-0.033645793031853735
0.0
0.09203767467824436
0.0723289921620225
0.12528310316354332
0.0028029634365180135
-0.05938273701821327
0.0
-0.0882785911878261
-0.034553112282887224
0.05040867779623664
0.031878759565583614
0.0021318440697913285
0.0
0.0
0.0
-0.012518534811102724
0.13282924542841562
-0.008123321797528069
0.11057966479218533
0.06020780130054567
-0.01859377759612172
-0.09148542668236016
0.08975622573885281
0.14443525014923259
0.13561089864658052
0.05225379550598256
0.03451203985618273
-0.010988377027943447
-0.058937481153422525
-0.19786326543087793
-0.08329953662368042
-0.06338653840423425
-0.24853385278849308
0.0
0.08470906688003425
0.22638665030701782
0.0
0.05272059892947633
-0.14547731209638104
0.001114243706588821
0.047916923578929016
0.07434143750432143
-0.18377287879847878
0.0
-0.04778886225686555
0.20888796835482282
-0.03231534865319183
0.26867712764779184
-0.016279070283255884
-0.13776588125153347
0.0
0.0
-0.05453368603367569
-0.0798644474682653
-0.12934972177988202
-0.008372530349361036
-0.15392726058917983
-0.21721663527873783
-0.03888193427190441
-0.11717227665917332
-0.08209549941821018
-0.05431141107728353
-0.0429631422335293
0.19806236551122353
-0.3186656042272548
-0.26320927151105555
0.16970158061087173
-0.11708671551968086
0.0
-0.024767214159332047
0.12140026071364468
0.0
0.0
0.0
0.0834520116970223
0.0
-0.055395961095373536
0.0
-0.030717266123420756
0.0
0.0
0.0
0.0
0.0
0.0
0.0
0.0
0.0
0.0
0.0
-0.025934939187917158
0.0
0.0
0.1433574618348325
-0.0658175296232463
0.06148514003864235
0.0
0.0
-0.06389059411510818
-0.03910704782246008
-0.09117311482079851
0.0
0.019030338518063725
0.0
0.0
0.0
-0.02228012867644707
0.0
0.0
0.0
0.0
0.040257649979964824
0.0
0.0
0.0
0.013138938823918046
0.0
-0.06663783454229866
0.04025045231657412
0.0
0.0
0.0
0.0
0.0
0.0
-0.09187023990629507
-0.01779788289951879
0.0
0.0
0.0
0.0
0.0
0.0
-0.0804817011444466
0.0
0.0
0.0
0.030328623917892036
0.0
0.0
-0.13257949814249947
0.0
0.0
0.0
0.016965588298493848
0.0
0.0
0.0
0.0
-0.061275527689407694
0.0
0.0
0.0
0.0
0.0
0.0
0.0
0.0
0.09794001740078845
0.0
0.0
0.0
0.0
0.0032599696814950307
0.0
0.024591187254743973
0.0
0.0
0.0
-0.015404936704793688
0.0
0.0
-0.08743363971948599
0.0
-0.027284963953448337
0.0
0.03520976116047131
0.0
0.0
0.0706963898254259
0.03184437049242346
0.06491808781592677
0.00548048284628283
0.1097390902282568
0.277937812504009
0.0
0.0
-0.02965851402057238
-0.07551023152027528
0.0
-0.07091257489612407
0.0
0.0
0.0
0.0
-0.14346636463062104
0.02888973448304742
0.06637244005287304
0.08176361767831505
0.1827541216619593
0.0552229379829531
-0.023913210777514734
0.19755014947575658
0.0
-0.08565797309269371
0.05630735280618468
-0.04769370998394914
0.11789496886521432
0.0
0.061521483662947594
0.0
0.0
-0.06826402791031352
0.07248997387827896
-0.07742930075403943
0.0
0.22643122632109597
0.0
-0.005841755746687549
-0.006219777227954213
0.056909008912432
0.06315213620862142
0.0
0.2712970323726648
0.0
0.06592515688672208
-0.09669582092937547
0.0
-0.016681523927553364
0.12936449425022709
0.0810441459568365
-0.31765355775710713
0.0
0.15112297731650468
-0.035751815483599736
0.0
0.02863208826845433
-0.06667511912469515
0.017364259883082277
-0.0649810556603135
-0.08889324098447242
0.0
-0.1736359993036578
0.0
-0.11572756975753762
0.0
-0.07199074800395486
0.07172172546730378
0.002262894566072239
0.023955099119858905
0.0
-0.07676760091031898
0.07260996304280852
0.08446099365954171
0.05900931926210167
-0.0828388889721721
-0.026421649653344346
0.0
-0.05519718318713612
0.0628992943423588
0.13574836372255997
0.0
0.0
-0.08555682009557299
-0.041872073170109894
0.25008896879249143
0.0
0.03785573471789322
0.0
0.1501871417523907
-0.02761401983669154
0.19462918468045556
0.1553825193600805
0.12426887695578116
-0.09200263082235507
0.3344219129423728
0.0
0.0058825369623546064
-0.027100786617726337
-0.016341389526716238
-0.03634451204063477
0.0
0.009500651595210484
0.05638082019253348
-0.056953356247782735
0.12788888912784935
-0.03306457827243437
-0.021034780427425778
-0.10471931926431971
0.20581586155682785
0.1512829629779921
0.30675494526488134
0.16837311691619253
-0.043646299242192106
-0.06043690348672362
-0.14038362813108135
-0.015850574719016925
-0.2734915284793123
0.0007181475398002346
-0.05033320346654117
0.10257423150490436
0.05018836075245078
0.01599645518645937
0.2058510168184478
-0.0029130139253634585
0.09936472834117263
-0.02598459895515244
0.10655152838565891
-0.14441465420441946
0.027484668523699095
0.06282004551095845
-0.15786251923615854
-0.006169058364682568
0.0
0.17628411936116095
-0.11566567064986923
0.0411714668588819
-0.31285264015929254
0.07780321217526277
0.01030654496938642
0.05800586616881282
-0.014996279972429746
-0.08328690411947312
0.03968067310419953
0.0
-0.07173397926036774
0.0
0.012617793750669631
0.10449783094754454
-0.03334076744281472
-0.00047675252136998483
0.09037186400421196
-0.031616064919654116
-0.11922061560491644
0.09823883929898687
0.0
-0.09223917842856935
0.0
0.005841686626051906
-0.11888640176847544
0.0
-0.008392400200522551
-0.03964210756187711
-0.03491354198862336
0.18992711868521928
0.0033931551322478395
0.022671461251080438
0.0
-0.00936745010985993
0.0
0.0
-0.005242711844656343
-0.23499614662901444
0.0
0.026566418609284173
0.0
-0.03629871144730197
0.00811527495076109
-0.21919670349886394
0.0
0.019794325889309378
0.15491572702599174
-0.1684806856163581
0.04604357133093302
0.0
-0.04503916646424443
-0.12318798083545975
0.0
0.0004900539084799582
0.0
0.0
0.1548459814001
0.0
0.13938383412890043
-0.03680652926204798
-0.009947139654459357
0.06494785455172065
0.06879914444703632
-0.17621404318891903
0.13516354990769264
0.06911493467920765
0.0
-0.2547087179252115
-0.12958811944088647
-0.15833774974586456
0.016772432091560503
0.043957343691887835
-0.06381829751439955
-0.03605044536805398
0.07830313104536842
-0.09113220657282259
-0.09550929088967924
0.020250655637878368
0.0
-0.04850999780279112
-0.13188367075977386
0.0716494525163485
0.10591698145869978
0.015510274249737306
-0.0024358942855315967
-0.014262375029598026
-0.22039168677868134
0.1349178007140967
0.11275823457966688
0.11874179926050359
0.0
0.09505605078427401
0.014945822780859075
-0.07357090531614902
0.0
-0.22481889282109746
-0.04515575039130499
0.07378601601662133
0.08361691126687931
-0.09657056489741479
0.03491272717376801
-0.029022715643387948
0.056044327211991395
0.16870672098553335
0.10299795778124074
0.010475458869991417
0.0
0.0
0.0
-0.1606608275708657
0.0
0.00826039617847699
0.0
0.0
0.0
0.0
0.0
0.0
-0.15618082600149977
0.0
0.0
0.0
0.0
0.0
-0.03861577293000057
0.10034432515545458
0.0
0.0
0.0
0.0
-0.062473685018743404
0.0
-0.05455533985412403
-0.04411825785019911
0.09086863604464217
-0.036732707208778186
0.0
0.0
0.0
0.016789872284795605
0.0
0.0
0.0
-0.09217930759822394
0.0
-0.03286932755236368
0.0
0.0
-0.07702258719229273
0.031915586534797404
0.0
0.0
0.0
0.07991441898859884
0.0
0.0
0.028777625979542098
-0.03871525120897876
0.0025707853823059294
0.0
0.0
0.0
0.04722233421647482
-0.19335905659409294
0.0
0.0
-0.25281450290679064
0.15124927473499378
0.0
0.0
0.0
-0.009174586619113183
0.06502069064603427
0.04739220524604981
0.0
-0.014516968190409152
0.0
-0.012845309981245168
0.0
0.0
0.0
-0.11746470228740041
0.0
0.0
0.08169608989897784
0.0
-0.09123729493670911
-0.06619858012063283
0.0
0.0
0.07010383521680051
0.0
0.0
0.0
0.16899506802867198
-0.01539125959156161
-0.06835576490439262
-0.015480809965076243
0.08430105737749742
0.058664491801130085
0.0
-0.05298512806787204
0.08796686208784546
0.0
-0.010952863696569497
0.06044153127032896
0.0
0.0
0.0
0.0
0.0
0.0
0.0
0.08601171031487401
0.0
0.0
0.0
0.0
0.0
0.0
0.0
0.0
0.0
0.0
0.0
0.0
-0.017037089925228212
0.0
0.0
0.01714618831439252
-0.05414003586624553
-0.027445080016562866
0.0
0.041559658078507776
0.0
-0.1209984844421374
0.0
-0.0357574096772986
0.0
0.06973786131947185
0.0
-0.03291026637297859
0.0
0.03983806887390379
0.09782031475303204
-0.009952938570177521
0.0
0.0869494624004494
0.0511490362227314
-0.07371826699517005
0.03344736757366084
0.0
0.0
0.0
0.0
-0.010099542952816789
0.11165090772385187
-0.1679566435405925
-0.052883592446948256
0.020742336109631856
-0.08708066968392668
-0.15143713872354217
0.1243631901343326
-0.0911440316600064
-0.23948729127472604
0.0
-0.17623462340322013
-0.07789170338718206
0.0781360211503541
0.0
0.08178008719748146
-0.13080621126544342
0.0
-0.1301279280036871
0.003909663554425749
0.0
0.16303162556073936
-0.017814562408836596
-0.01782412592689917
0.04404166505749042
-0.16433328105525644
-0.04454705617149981
-0.009004242386942219
0.0640100454122863
-0.14157431507936574
-0.03853730811901984
-0.010359102986439304
0.0814810748033033
0.07105337767675621
0.0
0.17093916061000997
-0.02847901592845727
-0.04312887349215
-0.016529460773065906
-0.06555628857538706
0.216236569130914
-0.02823001030797635
0.0
0.17375121943407673
-0.11643405910341484
-0.03473180655339506
0.03272668962367451
-0.23227217380204893
-0.20312134991461142
0.0
0.07767182598882473
-0.0456005251558892
0.13691396033410608
0.0
0.0
0.05877750808758146
0.07567836781277186
0.09571535287672198
-0.049630598199167715
0.026465188759682054
-0.10927173834935304
0.0
0.1178879749084822
0.06258899299026324
0.11233453025476532
0.03451134715027275
0.0
0.0
0.0
0.0
-0.18036021113781087
-0.08043177052506129
0.0
0.045674066973776545
-0.07655553745465846
0.0
0.04800046606280752
-0.019040119827299855
0.0
-0.005741372692485258
-0.11713142292156503
0.1795731489029206
0.06186347508851537
-0.13129937098735484
0.04313208935423712
0.0
0.0
-0.10020213038270476
0.0
0.033694100039915756
0.11592260720862535
0.0
0.0
0.11063835172655517
-0.32660614687896405
0.0
-0.03363021905264048
0.052244792299757536
0.21093644584380206
-0.17477169397552753
0.0
0.0
0.06354163012659184
-0.09796305457286762
-0.09948161542648185
0.0
0.041624239872934725
0.008875338343410767
0.0
0.0
0.0
0.0
0.0
0.0
0.0
0.0
0.0
0.014007884316935445
0.10393149402560076
0.0
0.2356565756958554
0.03007969600287124
-0.09042128701503561
0.0
0.0
0.0
0.04482348895957621
0.0
0.0
0.153892637740325
0.0
0.0
0.0
-0.01681641561998923
0.0
0.0
0.0
-0.1410462520131506
0.0
0.0
0.0
-0.08630211304169827
0.0
0.0
0.0
0.0
0.0045069411460855816
0.15990017569960785
0.0
0.0
0.15398892519858268
-0.31886156527578136
-0.13384628312254973
0.07225466334024827
-0.09554384013416295
0.1437388519817782
0.14293298530413778
0.02680919212212424
0.10046933320118014
-0.06470849671102782
0.09309806189975588
0.02999740896538991
0.0
-0.04267338858022709
0.057043703220208894
0.0747131519848753
0.0
0.02744199680305351
0.0014391046390437338
-0.10186887766749397
-0.018638636004078925
0.01657728535908583
0.0
-0.04206898220793799
-0.04248621553130913
0.0
0.025245168277521733
0.0
-0.020660553670586737
-0.11450909225885633
-0.128872320387551
0.0
-0.05496431464506102
-0.09075430123899227
0.04072839243909841
0.0
-0.14946633832207457
0.0
0.0
-0.07748455675278143
0.0
0.030250275028372228
0.09669755014164663
0.0
0.0
0.18603936078780944
-0.027982164454259065
0.06494802423568967
0.03283148524063599
0.1873769399419351
-0.02270675425246339
0.0
0.0
-0.1520668651308186
-0.09791902388683331
-0.07485639384620049
0.005877769900807919
0.0
-0.01861290035017338
0.13484702272699284
0.06716826314915757
0.042086028832213025
0.0799301703973339
0.0
0.0
-0.21932783676234874
0.001753415175412988
0.08189471925594892
0.0
0.0505578141212215
0.0
-0.04082016500096431
0.0
0.18422012103476224
-0.04846001939673812
0.0
-0.0025432537928053024
-0.08777691643255547
0.0
0.007554381737632232
0.0
0.0
0.10467556150676682
0.0
0.011546699930890955
0.040700613344482856
-0.03320063432845173
0.01105056181465516
0.004614414410122912
0.19710083901536263
-0.11578747078509322
-0.0802982846424908
0.00194670267824775
-0.0935106136383504
0.0
0.0016904280667191483
0.0
0.0
0.06047482110640296
0.0
0.0
0.0
0.04039961162335613
0.0
-0.04768548983915943
0.0
0.0
0.07643154764362106
-0.12313035346827095
0.04434908562492227
0.07864689638503673
0.0
0.19061488543191737
-0.04947759301122249
0.0332993933276303
0.0
0.0
0.0
0.08696550049563535
0.0
-0.07567377975349981
-0.008351623546211833
0.0
0.0
0.0
0.0
-0.015419541700780363
0.10853460052082063
0.04934386753270193
-0.04434025535732755
0.0
0.023020078321044204
0.10530691669303954
0.0
0.07845156084541909
0.0
0.08127883755943105
0.0
0.0
-0.09125551190060664
0.0
-0.002952169214774557
0.0
-0.0315248017519214
0.0
-0.04012004103453501
0.0
-0.05177879006027981
-0.0421486056490427
0.0
0.037307646113771346
0.06404034320864958
0.0
0.023601734190226008
-0.005211346039815892
0.0
0.016629638439643803
0.0904369336529205
0.0
-0.07687463614690106
0.0
-0.062074635387752805
0.13005939935075816
0.0
-0.037147259053354816
-0.021389979941776445
0.0
0.0
0.0
0.0
0.050153862946850945
0.0
0.0
-0.000928677544793241
-0.024348705240805985
0.07408760182723147
-0.04779496352013227
0.16888122935952102
0.0
0.0
0.0
0.0
-0.028737467267267464
-0.010242814739671056
0.0
-0.06894765939547676
-0.028877106153018063
0.0
0.0
-0.014168325157005487
-0.13534569015533443
-0.028808833196872982
0.0
0.0
0.07702041678912123
0.10422453726817912
0.0
0.0
0.01912111968330654
0.01896171059242418
-0.04952333559315877
-0.0031688075964773762
0.0
0.2499557232648563
-0.042233910788688586
0.0
-0.13700391365459785
0.0
0.05001871154352311
-0.021715130070431923
0.0
-0.040462317020602316
0.0
-0.025713761133044133
0.019448453630641113
-0.003790587347818337
-0.06672807623115032
-0.1360001534318942
-0.12972530562019016
-0.09575459983335352
0.07610022357157831
0.0
0.024503904405044685
-0.040459781549078325
-0.009392268839570717
0.0
0.013106235361306241
-0.13657633117065232
0.0
0.0
0.012629781121318701
0.1451272601588813
0.0
-0.06939837441407215
0.04377978965404905
0.06510602626222955
0.018340964727024345
0.08533732786642409
0.0
-0.06370475895548261
0.0
-0.07121545049273661
0.1281835524225352
0.0
0.0
0.13860215660865774
0.07149569289660317
-0.0907798362015177
-0.09655525433093005
-0.023261317737649875
0.10818987042050977
0.01899031879593577
0.060672658553489425
-0.04054864856013442
-0.005906621086645702
0.0
0.16985968190179182
-0.240172357848996
0.0
0.0
0.0
0.0
0.19937960968525895
0.0
0.07299966413413995
0.0
0.0
0.20037945351739994
-0.13412141890217552
0.1517974891721757
0.0
0.0
-0.003729147911444495
0.0
0.0
0.0
-0.03350534683449174
0.06575708030529326
0.0
0.0
0.03311554141341813
0.010204395072233868
0.0
-0.011636967612216222
0.1388676220477249
0.0
-0.06770425346587182
0.0
0.0
-0.016242827482009264
0.0
0.0
0.0
0.0
0.13991564458655925
0.0
0.0
-0.051233479642030566
0.0
0.037632324008280316
0.05882994800069919
0.05137787008110744
0.05220032747593394
0.014194101722461439
-0.2747203264432012
0.0
0.028024312484868447
-0.09732953709412423
0.0
-0.18602839656510547
0.05135401198870072
-0.12799427021280835
-0.05368972283958015
-0.1241766943804308
0.0
-0.045429327258878
0.0
0.0
0.3740517767650855
0.0
0.1406460558366519
0.0363851193358225
0.0
0.0
-0.08597683831769337
0.03331350403640093
-0.14765354039955159
0.19055683705022924
-0.054385490924278516
0.0
0.24415403865120697
-0.08505195512783882
0.0
-0.037621588986375326
-0.057032794344566755
0.0
0.11701084672238016
0.27202087764639055
-0.027982223090157646
0.0
0.1148872866792533
-0.1661300073060649
0.0
0.03790656848442961
0.04168223956301401
0.0008680948727075255
0.0
-0.03468457589146663
0.0
0.014782505422550652
0.0
0.0
0.0
0.0
-0.10755173486879346
0.0
-0.02702533853154636
0.0
0.0
0.0
-0.02795750412475022
0.0
0.0
-0.0867815712857023
-0.07097781682679663
-0.008989282396039036
0.0
0.05778587989574013
-0.006903404921875626
0.03849769733181754
0.0
-0.16328798300755876
0.02622438774349771
0.0
-0.0008427295259239802
0.05500342301531252
0.03355592416862871
-0.0740099172832389
0.0
-0.06661216244872742
0.0618072605444917
0.0
0.0
0.0
0.23741294033298782
-0.00655106226308329
-0.005282138489205399
0.03900101306271145
0.15955100442762865
0.0
0.0
0.0
-0.08997079319974137
-0.07773694532302416
0.0
0.0
-0.07580219909452533
-0.015801147908298244
-0.05028553478884118
0.0
0.0
0.0
0.0
0.0
0.0
-0.124467883349906
-0.18699196700402076
0.05784184006670639
0.03519267666919403
0.0
0.0
0.0
0.0
0.0
-0.03304216174385846
0.0
0.04560402907407024
0.0
0.06503715375205496
0.0
0.0
-0.10653325450886843
0.11724001849012056
0.0
0.17715086700898777
0.0
-0.04177791350564178
0.0
0.0
0.0
0.1226324201076083
0.0
0.0
-0.0003623403244835434
0.0
0.02579057648948738
-0.07851255431205441
0.0
0.0
0.0
-0.07251478461532716
0.0
0.04266504436819133
-0.03494291540624314
0.014704887651471828
0.0
0.00012271463445795439
0.0
0.0
0.03036918237135473
-0.018795753324196435
-0.08345548130186313
-0.06956744500073915
0.0
0.0
0.0
-0.1290527138791922
0.0
-0.06445456041739411
0.0
-0.011598438151918942
-0.05116850302578763
0.0
0.0
-0.08816320844918174
0.0
0.0
-0.10626763141470705
0.0
0.0
0.0
-0.04547242578426808
0.0
0.0
0.04413822502167019
0.0
0.0
0.015721508415154926
0.0
0.01899029081575665
0.008817551952272877
0.1373497865537841
0.0
0.0060677381423243125
0.12211555905774932
0.0
0.0
0.10157384172769214
0.0
0.0
0.0
0.13136581500851413
0.0
-0.07215819407616969
0.0
-0.02797225860048968
0.0
0.0
0.0
0.0
0.06075589769236919
-0.15462343192552852
0.0
0.03188002703462114
0.1260884135802277
0.11490342358556632
0.0
0.0
-0.04761094379629711
-0.12691716536957984
-0.13906938960086057
-0.021718534915270045
0.10668518395557199
0.0
-0.007412191448260357
-0.12411826332350359
0.07607102555321256
0.12391359067065202
0.0
0.04625591367080774
0.10568851903111642
0.0
-0.050803921548049656
0.0
-0.07930720466862151
0.0983062324557105
0.2312437481544933
-0.03380950550753515
0.13429225190572142
0.07853872203463898
0.02571189832894391
-0.23905797354619795
0.03928513626682178
-0.05969624684390823
0.0
0.0
-0.06309275426164085
0.0
-0.039331379334349076
-0.03733864045861127
-0.160519229143296
0.0
0.04160642065774523
-0.15951854074966343
0.1347782990510865
-0.07382947467878319
-0.013550488055540167
-0.011826607860518718
0.10201655687989783
0.05746827456296291
0.0
0.0
0.0
0.0
0.0
0.0
0.0
0.07555933189956562
4.188134184549515e-05
-0.07838728103100012
0.0246224879514758
0.0
0.0
0.0
-0.027216091877857302
0.0
0.0
0.104828785945226
0.19585471206805674
-0.08406560678343546
0.0
0.0
-0.11148358544362186
0.03393176588320518
0.0
0.0
0.0
0.04313182670140073
0.11031950649754645
0.0
0.0
0.0
0.0
0.0
0.0
0.0
0.1753996674392259
0.011337205556480384
0.0
0.11901562499826504
0.0
0.14793771077532142
0.0
-0.060233197704180584
0.0
-0.022170546023565194
0.0
0.0
0.0
0.0
-0.032769118257792926
0.0
0.0
0.0
0.0
-0.23661554148857467
-0.07326071366177578
0.0
0.0
0.06903907009278032
-0.13319145180533487
0.0
0.0
0.0
0.0
0.0
-0.036058624803276346
0.0014281624530076782
0.0
0.0
-0.02017432052185212
0.030834416578591206
0.0
0.0
0.0
-0.050333150509472326
0.0
0.15221669824658302
0.0
-0.007410703870354825
0.0
-0.028629135216681072
0.0
-0.007184928851541643
0.0
-0.08511999556590313
-0.1832439246753351
0.0
0.0
0.0
0.10757610337037228
-0.017330298703954167
0.0
0.0
0.0
0.0
-0.03868472666225124
0.0
0.0
0.02517549362606384
0.16533090178541743
-0.00270923417976378
-0.11217255712739355
-0.04043905137050395
0.21273187993680892
0.0
0.0
-0.09219754215498961
0.0
0.047446561738457065
0.0
0.0
0.0
-0.06631815594211031
0.0
-0.029335789800203255
-0.2576000105456077
-0.07630024952636989
0.0
-0.014295802936766314
0.0
0.16837518561460127
0.0
-0.1035087607901884
0.0
0.0
-0.09224276194031732
0.0
0.0
0.0
-0.12313776597664651
0.06393649276622523
0.010025830511919085
0.0
-0.020914849181386027
0.15417127165629624
-0.012205866373077492
-0.11720918473188985
0.0
0.11081129049555628
0.0
0.0
-0.1048459311609934
0.10546919334941975
0.040984952581177556
-0.25551616724906234
0.11184902525175618
0.05365845747775728
-0.018928173772879656
0.0
0.0
0.0460024429199322
0.0
0.0
0.0
0.0
0.0
0.0
-0.018427387462984682
0.0
0.0
0.03344541286495778
0.0
0.0
0.0
0.0
0.0
0.03345514750769205
-0.08274422294576878
0.0
0.0
-0.003624671655373734
0.0
0.0
0.0
0.0
0.0
0.0
0.0
0.00224753366187072
-0.02539146414950083
0.0
0.02071950480917069
0.0
0.0
0.0
0.0
0.0
0.0
0.0
0.14692599193443895
0.0
0.07627213320994286
0.017366896013249825
0.0
0.04445437806207887
0.0
0.0
0.0
0.0
0.0
0.11138262392382293
0.0
0.0
-0.11743243011943397
0.12558359092930685
0.0
0.023441933734424318
0.14875896755743181
0.0
-0.06700182836273406
0.0
0.0
-0.019358640986305325
0.048527880795966656
-3.534399150142975e-06
-0.07473301321235575
0.10802000090975147
0.16060315070446912
0.0
0.03938904863017682
0.17718287421133982
0.0
0.0617290460312172
0.0
-0.04881396763813088
-0.19131895732010273
0.05462009876464242
0.13453767415028542
-0.061998072633066344
-0.006388467582310963
0.0
-0.02017116947922045
0.0
0.039041545197643024
0.0
0.0
-0.1590574468585021
-0.018547324910082263
0.11327735527484764
0.0
-0.09019589583954199
0.02697759612691498
-0.18475574664127453
0.19642773735408992
-0.04440349534439163
0.0
-0.11660668473104574
-0.04007054532294763
0.05849103917990757
-0.05885352038761469
0.0
0.0
-0.12553660522985152
0.0
0.0
0.0
0.0
0.0
0.04409820963549459
-0.03178125018991211
0.0
0.0
0.0
-0.016591422507624253
0.0
0.11592166456207412
-0.08678912249423651
0.032243366250113724
0.0
0.0
-0.2238077623932583
0.0
0.00672794267579552
0.0
0.007123701415965398
0.0
0.0
0.0
0.0
0.0
0.0
0.0
0.029110230009318012
0.016769171916349253
0.24643625248646156
0.0
0.0
0.0
0.0
0.11391285471577266
0.04467601538462783
0.0629588911189392
-0.05244826872008962
0.0
0.04042827685606361
0.0
-0.03206337487926357
0.1397641064873157
0.0
0.0
0.0
-0.02470326000004341
0.0
0.08055803157292762
-0.13112278351433854
-0.025277999739538103
0.08544981764727845
-0.038694148649822055
-9.852799743870428e-05
0.3070913697480968
-0.0464961171471252
0.0
-0.03456104607396554
0.0
0.09066803032374995
0.04461246787470592
-0.1049904990368962
0.0
0.0
0.11971505460734017
0.0
0.0
0.0
0.00585290126073021
-0.07622549151485238
0.0
0.0
-0.06310987594162691
0.0
-0.010830279949990591
0.005788296125292805
0.0
0.08347897508340812
-0.1520938863575955
0.0
0.0
0.0
0.0373005141467033
0.0
0.0
-0.10445190956821922
0.0
0.0
0.0
0.0
0.0
0.0
0.04566002461584922
0.0
0.01713640633888189
0.10379260257523637
-0.01151453090929359
0.07988946439239784
-0.027919314863872963
0.0
-0.10406653024637344
-0.09205457338456235
0.04835303212394319
-0.08820480026404587
0.0
0.32438609171506705
-0.10937892801613978
0.0
-0.09239930092891048
0.0
-0.15849022491056836
0.09762830074506401
-0.10614866680269686
0.05872959735493915
0.0
0.04616026620423441
0.09402245230406855
0.0
0.17073961186194933
0.0
-0.019701151735273006
0.09320080897998573
-0.12002948189854001
-0.1489919105400313
-0.20171173602077042
0.05002197036637293
-0.05728371652413024
0.021200633241811317
0.038020039390873006
0.04729723198199778
0.08327585266088817
-0.04742237267681812
0.06926982529074689
0.0
0.01355508846168458
0.04331568957237511
-0.10213111048933525
0.09738238619747483
0.0
-0.178162266477478
-0.12797678371692542
-0.06604709464079664
0.00721660646783561
0.04900151675673615
0.043107673636104925
0.0
-0.0092736636950614
-0.006110327207142673
0.0182848672624423
-0.05006220224287676
-0.09657696324411427
0.0
0.0
0.03061047201695589
-0.09774255421363132
0.0
0.0
0.0
-0.09668461642460595
0.0
0.0
0.0
0.0
0.0
-0.09431567899381299
0.09769524196288684
0.0
0.05314784074544261
-0.012579907686558006
0.0455756423139621
-0.20480697056551742
0.07165466706797005
0.12463596999564054
0.27230759711406227
0.0
-0.03500761855794501
-0.1188664444915131
-0.0047420476444630065
-0.05181252833063772
0.31328506621704133
0.2290402849599833
-0.022503976595322567
0.0
0.0
0.11774143015190319
0.18493249553414404
0.09589737800476567
0.0
-0.03441592011540291
0.0
0.1576071002216026
0.30582246837348215
-0.16638386475997446
0.0
0.07296432205753528
0.08854628259336726
0.0
0.00743876431187952
0.0
0.0
0.0
-0.06033373137100583
0.05055005449862422
0.14729252198130832
0.0
-0.07611918744635175
-0.016710840758377084
0.11972540367232304
0.035819521271472476
0.0
-0.08774470019326984
-0.06904233894585085
0.0
0.0
0.025737616875468165
0.10079138283962535
0.0005786213317307415
0.039409099760893705
0.0
0.0
0.058519234284008695
0.0
0.021936461970942994
-0.02632477313378477
-0.01773849597499705
0.1692174869382307
0.0
0.0
-0.0552951475475387
0.06257020719867057
0.0
0.0
-0.17631495982395998
0.06733727939521617
0.03529726456870319
0.0
-0.0462772102600441
0.0
0.07790246626553282
-0.06848188939604341
0.0
-0.0631532647725697
-0.028585515890073143
-0.1733044226961034
0.0
-0.009949470637336904
0.0
0.2108125681273916
0.0
0.0
0.0
0.0
-0.08129451353016683
0.0
0.0
0.0
0.0
0.0
0.0
0.0
0.0
0.0
0.0
0.0
0.0
0.0
0.0
0.0
0.024514991251098222
-0.05455485622956566
0.0
0.0
0.0
0.0
0.0
0.0
0.08936665553299786
0.0
0.0
0.0
0.030026713284641106
-0.10086804246955727
-0.12551768013857204
0.0
0.06946109625564871
0.0
-0.09512417810412285
-0.035688161776573225
0.0
0.0
0.0
0.0
0.0
0.0
0.0
0.0
0.0
0.0
0.0
0.0
0.08046679968040117
0.0
0.0
0.0
0.0
-0.0011908561837146443
0.0
-0.04404393499747882
0.0
0.21030228084542393
0.0
0.0
0.0
0.0
0.08854258760356994
0.0
0.0
0.0
0.0
0.0
-0.05047878222700283
0.0040228642704794
0.0
0.0
0.0
0.15760959828914517
0.1329992657963825
-0.036435575456937416
0.0
0.0
0.0
-0.014587463865696246
0.05458669736213774
0.0
0.0
0.0
0.02966313322283477
0.0
0.0
0.0
0.0
0.0
0.0
-0.00902371478628022
0.0
0.07670384670255294
0.0
0.032080645702216345
0.08018434533576922
0.0
0.0
-0.04570559831687856
0.11481323087812817
0.0
0.0
-0.011822093251265643
0.0
0.0
0.0
0.06819662088962171
0.0
0.0
0.0
-0.0014873586058818703
0.025997720974314742
-0.021767425755328175
0.16125739625372493
0.0
0.0
0.0
-0.05242656809171174
0.0
0.0
0.059527309122234556
0.0
0.0
0.0
0.2352372416349104
0.0
-0.12710109940013561
0.0
0.0
0.1148451484851017
0.0
0.0
0.050756087773002084
0.04814730052512443
-0.03447274903994428
0.0
-0.021575469061208743
-0.05103040728324576
0.0
-0.023388406215673806
0.06974413345332114
-0.08699468873591867
0.048005336422352565
-0.034196538337436605
0.0
0.0
0.0
-0.05707903931678239
-0.08763913007575415
-0.011694062515927212
0.0
0.0
-0.22206548533552692
-0.004114609324000632
0.0
0.0
0.0
0.0
0.0
0.0
0.0
0.0
0.0
0.0
0.11896709789012543
-0.10552935332921774
0.0
0.0
0.0
0.0
0.0
0.0
-0.008612564211461872
0.0
-0.15818383688808876
0.0
0.0
0.0
0.0
0.0
0.0
0.0
0.0
-0.03405491592825979
0.0
0.0066847214570260206
-0.03204928240246703
0.0
0.04884921052791266
0.0
0.0
0.0
0.01691582094607257
0.005577042967120152
0.004984395844875125
-0.10191223753723687
0.0
0.0
0.06226442781724841
0.10800706186383922
0.0
-0.13921931785297542
-0.11002925737481029
0.0
0.0
0.028509572952085983
0.04444603489711074
0.0
0.0
0.2267055109694536
0.0
0.0
0.053646832623796346
0.0
0.11943075638776449
-0.10835574371208209
0.028838863796938754
-0.0013104001147857469
-0.15360765782080327
-0.001010966105632317
0.09033344061003383
0.0
0.12745471142588388
-0.1607632558646677
0.03256434332615591
0.25140634901986725
-0.08841511106743624
0.0
0.10008864697785676
0.0
0.09555366410171498
0.09567398347855617
0.0
-0.03417285406481521
0.0
0.0
0.20688795122433995
0.04586802221566656
-0.13872942561739685
-0.0038399975523658613
0.11812803519783749
0.0
0.0
0.0
0.0
0.0
-0.020629886670466852
0.07408838403079795
-0.06988396229135731
-0.16787762778023838
0.0
0.0
0.0
0.010727271071450129
0.0
0.0
-0.026284400336701933
0.0
-0.108495974884588
0.0
0.0
0.0
-0.030161477050355552
-0.06645188769970686
0.10914248154483691
0.1225843252121779
0.0031677701061358964
0.01666992759389085
0.0
0.0900561299750947
0.0
0.004627814860896292
0.12284788928286627
0.0
0.0
0.0
0.0
0.0
-0.10190755781302593
0.03085229747049083
0.0
0.0
0.06050928855365721
0.0
0.0
0.0
0.0
0.01039971614432774
0.0
-0.06664204477274088
0.0
0.03549739540605979
0.03214872932817415
0.0
0.0
0.0
-0.33052809541109257
0.0
0.0
0.0
0.0
0.13269827251501076
-0.01684163509059658
0.0
0.0
0.0
-0.0390543740241783
-0.047888764107894596
-0.02939288111804353
0.0
0.0
0.0
0.0
0.017628363022661207
0.0
0.0058974832095804106
0.0
0.0
0.0
0.0
0.0
0.008013824511155024
-0.14377049712195325
0.0
0.0
0.06706560140086623
-0.1703438044209846
0.0
-0.014672137313336891
0.0
0.0
0.0
-0.08419049358855722
0.0
0.0
0.0
-0.23876130249483452
0.0
0.05981023761920095
0.05432222207729353
-0.1820709487015288
-0.018243383833433865
-0.051738739091540475
-0.16826010781335923
0.24357525821605408
0.0
0.11430006488958167
0.0
0.0
-0.038272724374172576
-0.011320239347122315
0.004309116138514254
-0.03071007342317528
0.0
0.0
0.0
0.0
-0.1372124323575202
-0.06541882749708625
0.08495213911991874
0.0
0.0
0.0
-0.1854673135747989
-0.05564800768817849
0.0
0.0
-0.019896786472640513
0.04570334535820183
0.0
0.0
0.0
0.07356299761571058
0.0
-0.09079358390798563
0.09419477506906455
0.0
0.0
0.0
0.0
0.0
0.0
0.03294894727371584
0.0
0.04275734947466437
-0.04512775651780344
0.0
0.0
0.0
-0.0912171629336641
0.0
0.07745974424661013
0.0
0.0
0.0
0.0
-0.03595047524015595
-0.014389953568855725
0.0
-0.0007291449986694645
-0.0006646930094615644
-0.07984487678870417
0.0
-0.15941024162197034
-0.03866470232887065
0.0
0.09706016870166308
0.017014195331643424
-0.0755509462714877
-0.10358884418747728
0.06645248326033856
0.0
-0.0016638987423289037
0.0
0.0
0.0
0.0
-0.02617073225928542
0.0
0.0
-0.0013329289436687308
-0.0032005670744852627
0.10301820575552176
0.0
0.0407409678950333
0.17985865229639517
0.0
0.0
0.0
0.07068042661248744
0.0019914970777958783
0.0
0.06933738137712402
0.26009532372417676
0.18053710400867268
-0.029703067863083094
-0.008257348500323992
0.11394803295776562
0.0
-0.03214483870448074
0.0
0.02234779063536483
0.02605581555327778
0.13140256826887398
0.0
-0.08444143264997768
-0.13621978294955997
0.10830366256785014
0.0
0.0
0.0
0.0
0.0
0.0
-0.10819902554077107
0.0
0.028954859964484863
0.0
0.0
0.0
0.0
0.07603878849732706
0.0
0.0
0.0
0.0
0.0
0.0
0.0
-0.04636240865208803
0.0
0.0
0.0
0.012064198468942841
-0.05549525621834787
0.0
-0.014390152945086086
0.02874337471715216
0.0
0.0
0.0
0.0
0.0
0.0
0.0
0.0
0.0
0.0
0.0
0.07384558683675749
0.0
0.0
0.0
0.005249833040140859
0.0
0.0953152366516927
0.0
0.0
0.0
0.0
-0.05249186334170311
0.0
-0.0641275487976628
0.0
-0.04387712063030931
0.0
0.08528430926427
0.08704229856892773
0.0
0.11015243631928405
0.0
-0.019299382160507625
0.0
0.0
0.0
0.0
0.0
0.0
0.0
0.0
0.0
0.0
0.0
0.0
0.0
0.0
0.0
0.0
0.0
0.0
0.0
0.0
0.0
0.09974103723097066
0.0
0.0
0.0
0.0
0.0
0.07539340290746029
0.0
0.19700343620445326
-0.09022238249914641
-0.023402137831902314
0.0
-0.1843514616436881
-0.12311345338528963
-0.04940705230494093
0.20355643067941187
-0.023611522166858086
-0.13262342749450257
0.020119420150399345
0.011846678611574398
0.047321721293178645
0.08489421825165704
0.03400160276483166
0.0
0.043303510271478565
0.0
-0.18803885096056755
-0.04975787838989919
0.0
0.2568420646408005
0.0
0.19633714365066524
0.0
0.0
0.0
-0.17127765348332596
-0.12743441028373242
0.0
0.05457121743002096
-0.02955226365448851
0.008385711934086347
0.015301130865944184
-0.12269260408924824
0.02017142584815211
-0.03162391439161159
0.05955357717580306
0.0
0.028650766956544938
-0.14568509655436412
0.027133834592153724
-0.046533275441587404
-0.008420637090360159
-0.035236221056007634
0.06889239552356775
0.11021302392679941
-0.014983893301141867
-0.006406498750622179
0.015067402592215558
0.0
0.0
0.0
0.0
0.0
0.0
0.0
0.0
0.0
0.0
0.11652792162021804
-0.06792721242925322
0.003944194685605213
0.0
0.0
0.0
0.12922321667552744
0.0
0.0
0.0
0.030401266836259364
0.0
0.07196483809733874
0.0
0.0
0.0
0.0
0.0
0.0
0.0
0.0
0.0
0.0
-0.052525791488072314
0.0
0.0
0.0
0.0
0.0
0.0
0.0
0.0
-0.015777731646703
0.0
0.023849155889586394
0.0
0.0
0.0
0.0
0.049336884633837015
0.006366331751506333
0.07936042707875611
0.06454999095638476
0.051302896882866406
0.025376188770591925
-0.06727218178460329
-0.10289572809422358
-0.17007428980522613
-0.06722375226726401
-0.08649388689669929
0.0
0.02758979267818432
0.015603939348753641
-0.0911925946480172
-0.18396549316772923
0.0
-0.019647083121350085
0.0
-0.04067183217368581
0.06662352391865453
0.064658289480026
0.09799865541241283
-0.08499196038038787
-0.054307727141061635
-0.1727748980536718
0.0
-0.15490068838572812
0.00775398503535682
0.014622204487152065
-0.11324952654438779
-0.08956755516300778
-0.09213031045180192
0.1491468147571485
0.0
0.0
-0.009819647798383657
0.02288522787081307
0.0
-0.0651327319479361
0.0
0.0
-0.1809727300255588
-0.033314090325162436
0.0
0.030652767317641612
-0.010041647239752831
0.1448686947643305
0.1306929011949597
-0.02854905539431936
-0.1490559519606851
0.0
0.0
0.0
0.0
0.08702843951916993
0.0
0.0
0.022491143904491962
0.0565931306412111
0.0
0.0
0.08369397454267719
-0.07541310486901376
0.03627801788465791
0.0
0.043494843904417164
0.0
0.0
0.0
0.0
0.15844021120149576
0.04938228754737589
0.0
0.0
0.0
0.0
0.0
0.0
0.17278975608663288
0.0
0.0
0.0
0.0
0.0
0.0
0.0
0.0
0.0
0.0
0.0
0.0
0.08547489938963242
0.0
0.0
0.0
0.0
0.12360934564293216
0.0
0.0
0.03729998473036354
0.10442145805167645
0.2173587500196851
-0.14788697170085785
0.0
-0.0657930933738025
-0.00014129397179878916
0.0
0.0
0.0
0.1281439086921947
0.0
0.0
0.13473756510689364
0.07586090695892331
-0.11399668270996312
0.0
-0.14746540761245072
0.10695900790095589
-0.0505607033368089
0.0
0.023657210797309088
0.07494446301072565
0.09599421902275401
-0.0024750655391552133
-0.19641065468594465
0.048776196652669315
0.0
0.07596451882264392
0.0
0.0
-0.2715657911422596
-0.02477405289680843
-0.03674507561070001
-0.010792215563494488
0.0
0.0
0.0
0.0
0.0
-0.009636877000068513
0.111238073770233
0.010395470902810362
0.0
-0.01806943643858013
-0.02334217470638024
-0.0427188614776118
0.0
0.0
-0.007494860216004163
-0.07376556059330543
0.022040790030806626
0.12898004860550275
0.0
0.0
-0.06798661739290825
0.0
0.0
0.0
-0.02993340532256201
0.0
0.04051592712403537
0.0
0.025059360605994715
0.0
0.0
0.0
-0.018490478407811494
0.021525976354736142
0.0
0.0
0.0
0.0
0.11111464218210726
0.0
0.22958621360285922
0.0020146869855015475
0.0
0.0
0.0
0.0
0.0
0.0
0.0
0.0
0.0
0.0
0.0
0.0
0.0
-0.08116152842907678
0.0
0.15802762996513994
0.0
-0.12595166719951384
0.0
0.0
0.0
0.0
0.0
0.0
0.0
0.0
0.0
0.0
0.0
0.0
-0.10445914930078062
0.0
-0.11409356515444972
0.0
0.0
0.0
0.0
0.0
0.0
0.13918255804378482
-0.004976669560818981
0.0
0.07458862841878956
0.0
0.0
0.0
0.0
0.0
-0.0009209075246715016
0.0
0.0
0.00984417840790819
0.0
0.0
0.0
0.0
0.0
0.0
0.0
0.0
0.0
0.0
-0.008018574098274871
0.0
0.0
0.0
0.060655715257012494
0.0
0.0
0.0
0.0
0.0
0.0
0.0
0.14697010616843534
0.0840401757547597
0.2164548204816199
0.13011446502897847
-0.0709275542636117
-0.0591965794993512
0.19877251014534716
0.08527840426999378
-0.16128435578048314
-0.10576810895160385
-0.05252717663127325
-0.0021144704569987577
0.15518136515695882
-0.01823624524617108
0.08744081803914783
-0.21592280179888704
0.00014020498587138247
0.07826504020233971
0.034894750515376105
-0.16705892951790946
-0.03410209758036949
-0.018872287822797207
0.21062275261787314
-0.22877238645278355
-0.13781875540277017
0.03573957302650689
0.11952435063011692
-0.03399021107773071
0.03234704206725798
0.1509893790350722
0.060745742004454095
0.014848312581696332
-0.1273741393993011
-0.10315941914690707
-0.1845926465903332
0.07332125487260144
0.15599723558038464
0.08759780202598674
-0.128367218389335
0.0034364588175267025
-0.0805780257522744
-0.1670432835033278
-0.09766894555408075
0.07902458492808129
-0.08758540397794196
-0.016485429728681042
-0.007421174565839805
0.17739365146947256
0.13697017026993047
0.2749354548254998
0.051337812288954725
0.0
0.0
0.0
0.0
0.0
0.0
0.13228401592560204
0.08368744372292598
0.0
0.04164670238328929
0.06686230149147765
-0.039700080510491155
0.0
0.0
0.11526581802486954
0.0
0.0
0.0
0.0
0.0
0.0
0.0
0.0
0.0
0.0
0.0
0.0
-0.014949867077132866
0.0
0.0
0.0
0.0337482468071558
0.0
0.0
-0.0006242979070318189
-0.015338760457263572
-0.1096257010160309
0.0
0.0
0.09297689871006762
0.0
-0.048021468489310444
0.0
-0.2564297458057246
-0.10867275748015909
0.0
0.0
0.0
0.0
-0.01326985962750777
0.0
0.0
0.0
-0.12971367286428914
-0.040513795804539135
-0.004521634130492467
-0.07144522616318957
0.17776248844178474
-0.1535064965507498
0.0952418262668504
0.13087050033815903
0.0
0.0
-0.020837233562623556
0.0
0.0
-0.11884134633240619
0.026784737998642148
0.0
-0.04564285761586981
-0.014632892418006667
0.023331213322159323
-0.008884502842880065
0.05879631565199297
0.0
0.08415800362919867
0.0
0.0
0.15310810760354956
0.0
0.0
-0.055455923536675444
0.0
0.0
0.14088702584282314
-0.08426821863562069
-0.1463289014025669
0.0
0.0
0.0
0.11042027380963342
-0.10778539833369755
-0.0017618985297641213
0.25719811737999915
-0.057881748948651
0.0
0.13448312837434181
0.08377674540104847
0.0
-0.07316773613950793
0.0
0.12930652611190882
0.05865967892276293
0.0
0.13782392600401558
0.0
0.0
0.029645677290744864
0.05604418136735958
0.010414946625485817
0.23916270889959762
-0.03998964280123149
0.025535144486755323
-0.030130410087390154
0.03507906805889703
0.03282628366809946
0.0
-0.029614582036841038
0.0
0.1918922779777243
0.044663014850063416
0.39679550901129657
-0.16795684782740217
0.09316937469607287
0.0006459713748189627
0.10755493723913971
-0.0888185407821726
-0.015377684062218962
-0.027389265634916518
-0.05042967082430042
-0.01653367006145859
0.0
0.0
0.09099275759197928
0.14639670555628304
0.06262399260166666
0.0
0.1595532320932807
0.16289527594395842
0.0
-0.014005660336918399
0.1503361957928953
0.0
0.09457998326921317
0.12544330375705304
-0.010376294598213483
0.0
-0.009577856821970182
0.03272673217302942
-0.9116467781362709
0.5482696229836921
-0.2788703654368221
0.12810152953052517
-0.6082606318057036
-0.6083436578169369
-0.9742623856263397
-0.8169305291885589
0.0768904484022957
0.6795513231507507
0.5155611748629103
0.7416584600850319
-0.11408090477259857
-0.08467713948689251
0.03852091307957665
-0.25469517445919787
0.69337017648859
-0.06251238687033431
-0.16905515023091267
-0.7264860906451381
0.30074280049641666
-0.6895297593094861
0.04538360393587451
-0.6162534889626267
-0.2780075888142918
0.04765309261559969
-0.6481762375703715
0.7840125273314341
-0.35282310624268437
0.7851332373600111
-0.23856591237310032
-0.8902348963385059
0.39808668487167853
-0.073615393172252
0.0017702075577467336
-0.13456632837488222
0.8637775568384578
0.8442746137529037
-0.22537924953837202
0.4379641719378212
-0.8941400028839372
0.023858794674305628
-0.40353145625180187
-1.0891241706637698
0.44574160556174997
-0.3721268609003432
0.8118867081980532
-0.2677269199244832
-1.1767940036995186
0.3490503908364653
0.0
0.0
-0.09790399283773689
-0.09388687829436415
0.11584504734075987
0.0
0.0
0.0
0.00433896587950328
0.06521489281495993
0.0
0.0
0.0
0.08561096636537242
0.0
0.0
-0.1234850754240356
0.0
-0.24760228226276437
0.02547571549077571
0.0
0.0
0.0
0.0
0.0
0.09482589631158689
0.0
0.0
-0.21396977575350917
-0.003143768803720873
-0.14419342747487096
0.1297670807926338
0.07946619613001461
0.0
0.0
-0.050213846054494325
0.08634809237760316
-0.05775467205111608
0.0
0.0
0.18299379434685475
0.0
-0.07222470193317798
-0.009017118876198573
0.0
-0.09534085320284867
0.0
0.0
0.0
0.042782202934629705
0.2889913226274532
0.30238779347216466
0.06787792287477817
0.07313598101733611
-0.059856450056886924
-0.14157170661420962
0.07518659932786359
-0.2328916163211866
-0.1110270545890119
0.18592915984848307
-0.09671040230670733
-0.01871463487606813
0.0
0.09997902484302262
-0.19390315525169743
-0.11470771236168738
0.05377255378305809
-0.1375294539980283
0.21897874997403077
-0.14999672300834296
0.007357751699313752
0.0
-0.1744887041531638
0.09918770586857896
0.08867532332049013
-0.11514047011331602
-0.10578210461367456
0.0
-0.08065948624119498
0.2360701512040113
0.09041612985491981
-0.010331554139848313
0.0
-0.05694610807613572
-0.03565235296622991
0.10071006746914768
-0.07655328894943039
0.1108174678064219
0.0
0.10397983430166605
0.1152218116831385
-0.07826161800154857
-0.0482146454404056
-0.09747305217754966
0.0825638262272697
-0.15103000693136331
0.05770237911304957
0.08858669738648028
0.037648144856803664
-0.08694600962647676
0.0
-0.022639302555480058
-0.03501032066798958
-0.06666108390292604
-0.0475667339160738
0.0
0.026291022795599823
0.0
0.09136001827993168
0.0
0.0
0.0
0.06937613059290768
0.11732619764044473
0.0
-0.03537249887832784
0.06826546205061221
0.15019392877400708
0.0
0.0
-0.039241109362657185
0.0
-0.00607248315837473
0.002766825917604844
0.0
-0.19106450560313384
0.0
-0.15089638985623866
0.0
0.0
0.24570998450478576
0.0
0.018423370342742107
-0.09077533335235632
-0.04857180922205234
0.0
-0.024690962246233083
0.0
0.0
0.0
-0.06749106151142568
-0.01157662551581804
0.016943178858772556
0.037398991575147075
0.0
0.02513678268075419
0.0
0.0
0.029533429396562845
-0.14168404787122396
0.05334407874644207
0.16147642314555996
0.04682106318449204
0.3247160008805135
0.018128783961074684
-0.10949216367577952
0.0053448274911675996
-0.24299632816956387
0.015354156437662164
-0.015630374415445843
-0.09690583316456385
0.09866148798552679
-0.024890131384416
-0.05471725320577135
-0.0568659524383751
0.09425816667600392
0.1370765086655618
-0.13244918051965004
0.0
0.059850618246409935
0.01716331860026931
-0.15187418811071615
-0.14952203272618692
-0.0044933277905703254
0.18587951459174085
-0.03393598216034123
-0.06621844248896575
-0.042429158058043176
-0.062094750665273014
0.2518703122492312
0.05478745539348234
0.0
0.0
-0.05886344387467321
-0.04218266209654706
-0.03566025988920755
0.02701858334630938
-0.14180562044491998
0.18171714077867215
-0.2596314238263493
-0.1873839388812087
-0.07480380089250646
0.16753820574480918
-0.04543214854330864
-0.1318912607844976
-0.12007473346984587
0.03710704246207799
-0.1482864931833493
-0.1107649298258836
0.15053193665093534
0.0
0.009635435620312638
-0.001701255352187185
0.14127402300846378
0.0
0.0
0.0
0.05673970698689909
0.0
0.0
-0.020616053638725408
0.0
0.0
-0.14446615599559934
0.0569850066683389
0.08050944467071781
0.027062140885525655
-0.00554057468184415
0.0
0.0
-0.060632192210502533
0.04119430617412067
-0.07651268336017979
0.0
0.0
0.015737102494343347
0.026014197156046838
0.0
0.03677746332175148
0.0
0.013049114058212019
0.09715850209386036
0.0
-0.011775496056814619
0.0
-0.05555360252640874
0.0
-0.029167976240153496
-0.1126979302365301
0.0
0.0
0.021610850897105745
0.0
0.0
0.04987900648236382
0.09273527955175173
0.0
0.0
0.008159161594787216
0.0
-0.024716003053426347
0.011592786903987313
0.02817009998895436
0.0
0.06330798000293907
-0.03037757703928176
0.06024510217792936
-0.029035645919380265
-0.07892580252925557
0.0
-0.03822605448828283
0.0
0.0
-0.042963044823187885
-0.09723236210998
-0.09448343458347015
-0.003914661280178625
0.0
0.0
0.06701011007954437
-0.21865597132201176
0.0
-0.0694128648375368
0.0
-0.19425560585383184
-0.021127103382906093
0.007329096490692308
0.06226607512048935
0.04827997892202296
0.07294197338221543
-0.03474660798813531
-0.07137650990380098
-0.08437972955341523
0.08615212996648981
0.0
0.0
0.0
0.032686579758317014
-0.09886531335606405
0.05622110525632697
0.0
-0.04093219676500333
-0.045576842395783884
0.0
0.14409347187913585
-0.01869213907692814
0.0
0.0
0.017284643022323094
0.050518370778975585
0.0
0.0
0.0
0.09268034772422849
-0.07879700720888455
0.0
0.0
0.0
0.0
0.0
-0.18056893172097843
-0.058277819319743074
-0.038994357997906216
0.0
0.0
0.0
0.0
0.0
0.0
0.1881200107842252
0.0
0.02974164292903842
-0.09753425060748981
0.11980645468818586
0.0
-0.11635142750281392
0.0
0.0
-0.0899373924624884
0.0
-0.01760150135547716
0.0
-0.02949041435291151
0.05795440504528239
0.0
0.18960656662294043
0.10714188030571173
0.05351935683234571
0.0
0.0
0.0
0.0
0.0
0.0
0.0
0.11199861961373009
-0.008776380170970597
0.0
0.08240017977368118
-0.04033682147274127
0.0
-0.05607258621248871
0.0
0.08451822216873757
0.0
0.0
0.07652021299446025
0.10377554129647477
0.0
0.0053834730100084625
-0.09528263806410973
0.0
0.11696784843763157
0.0
-0.11689997089183153
0.06560927302963906
0.0
0.026553039706608543
0.03986517410329868
0.0
0.0
0.0
-0.0655661943636603
0.06283102093884475
0.0
0.02665144502294454
0.0
0.0
0.08825105178511626
0.0
0.0
0.0
0.0
-0.009439981975728005
-0.2658761471207005
0.0
-0.0032889753161476653
0.0
0.0
0.0
0.0
0.0
0.0
0.0676393044692701
0.0
0.0
0.0
0.0
0.039509019246635496
0.0
0.0
0.0
0.0
0.0
0.0
-0.10010393813410794
0.0
0.0602761088266043
-0.04417571863747714
0.0
-0.06475779260339705
-0.15209101499328662
0.0751085905481193
0.0
0.0
0.07719076457956353
0.012768321336690234
0.0
0.03438974582246431
-0.0010521057802349238
0.0
0.04234820782826446
-0.07892293604909897
0.0
-0.04752597216290932
0.0
0.0
-0.07654624993723519
0.0
0.044869410629826384
0.0
0.0
0.049825149307490796
-0.09292489516972662
0.017376686657774924
-0.19654992355328535
-0.10714682450933909
-0.0882506695429463
0.009573461941892408
0.0
0.0
0.0
0.0
0.0
0.0
0.0
0.0
0.0
-4.828242754447734e-05
0.08156236600065414
-0.0332903794253168
0.0
-0.0010475049374349676
-0.16063113467465168
0.022787958063016936
-0.07197728912416507
-0.060937926459366305
-0.05903169725479293
-0.05546751439991071
0.23614645494202682
-0.09141299126526853
0.039241328939900455
0.0
0.022481136552689636
-0.09175703722834393
-0.06929758462219603
-0.019897276393864887
-0.161357356040645
-0.11201856758185331
-0.09562936686843211
-0.11325355248067674
0.16535599260572098
-0.11384177132752987
0.21297998770706164
0.051175308789769614
-0.0971770192108531
-0.03961293643714717
-0.28707411478014166
-0.04102744314881218
-0.2108009032368675
-0.009130289022890758
-0.056389081339152235
0.0
0.02244808324618742
-0.030429295865039046
0.023479745581202402
-0.23504742176616145
0.33952231986871556
-0.005613123937145929
-0.0054894102145922035
0.0
-0.1415681293707989
0.012899171514500008
0.16759893292286332
-0.11525362052743301
-0.07236921268118708
0.0
0.0
-0.28606698813982084
0.0
-0.13542039240692394
0.0
0.0
0.0
-0.11145643752008773
0.0
-0.18631291573188585
0.0
0.006932372885795249
-0.14565457454720998
-0.002618722368780191
0.0
0.0
-0.10503707002737299
0.0
0.0
0.0
0.08676353044448679
-0.023068733461205776
0.09529229710527119
0.3540592445823896
0.0
0.0
0.0
-0.16982448439069434
-0.0549640352617372
0.0
0.0
0.00046424498803670014
-0.039772934196410724
0.0
0.0
0.058601858342988956
0.11665205694691233
0.0
0.15051943686379654
0.178462085102117
0.0
0.0
0.0
0.057872480327216015
-0.07027596514572765
-0.031793862293225235
0.05528471674762557
-0.0606035966410743
0.16766581849461826
-0.011935439076522947
0.0
0.04167892825401443
-0.050114750324827984
0.0
0.0
0.0
0.0
0.0
0.0
0.0
0.0
0.0
-0.026979840469464698
0.0
0.0
0.0
0.0
0.0
0.0
0.0
0.0
0.10839452955463513
-0.062024066394379185
0.0
0.0
-0.1150204085185592
0.0
0.0
0.0
0.0
-0.037228482255870575
0.0
0.0
-0.03784523380444018
0.0
0.0
0.0
0.0
0.0
0.0
0.0
-0.10290063491926152
0.027333635022808368
-0.0057832331973798135
0.0
0.0
0.0
-0.021825078459564898
0.0
0.0
0.0
0.0
0.0
-0.16912333043139294
0.0
0.0
-0.25591794973235704
0.0
0.02277815286531137
0.0
0.0
0.0649776074093415
0.0
0.0
0.0
0.1335073657714283
-0.02412789976064782
0.0071084793313234175
0.24312246480189936
-0.05460627263226805
0.0
-0.036523348966195295
-0.1051604325706149
0.1371155534683128
-0.03249768109244372
-0.059944087584928474
0.0
0.0
0.0
0.0
0.07801072335549916
0.08229455554869404
-0.14116871617486426
-0.08637740799525127
0.0
-0.08712319641466015
0.0
0.0
-0.04266760150876629
0.0
0.0038532879079934274
0.0001602776646808273
0.0
-0.05008878382674183
0.0
0.07515571219235372
0.04159798800836645
-0.07658994354145128
0.08710829738832347
-0.05269708436447621
0.0
0.14790337273652024
0.0
0.0
0.0
0.0
0.0
0.0
-0.00616017565573346
0.0
0.0
0.0
0.0
0.0
0.0
0.11292440575208973
0.0
0.0
0.0
0.0
-0.0751765935554277
-0.02078047457082372
0.0
0.0
0.0
-0.15991391513344247
0.0
0.0
0.0
0.0
0.0
0.0
0.0
0.0
-0.08469662675747283
-0.15343851359509494
0.0
0.0
0.0
0.0
0.0
0.0
-0.008930901819067643
0.0
0.0
0.0
0.0
0.0
0.0
0.0
0.0
0.0
0.0538382420684461
0.2628743264548401
-0.34994476037954597
-0.15729694362459015
0.022344869715664163
0.018686037697106708
0.017634913951787776
-0.0925706731555059
0.08313218486222475
-0.15214689934396056
0.18003553132594116
0.11214435229025213
-0.1690875842455329
-0.010161722969324974
0.031951371770621365
-0.006726985415702672
0.0
0.07486999415150578
0.19225999235131225
0.13697651106964692
-0.18209225245019334
-0.13703398714150455
0.05937273609343532
0.017029010671112815
0.0
0.12391589872131453
-0.006893641342171964
0.11528933265074232
0.2305032570214954
-0.22339004078585323
0.1630015200174565
0.0
-0.15789409660807552
0.0
0.14288623758646524
-0.002285851232691338
-0.08556850336300655
0.057287707750118
0.15476918078773788
0.0
-0.09903109912406148
-0.003901673279708598
-0.12426977871700165
0.07581597474961678
-0.24649667285543986
-0.03447213663473017
0.0
0.17690171502251592
0.0
-0.06790619072609962
-0.026111183100401322
0.0
0.0
0.0
0.0
0.0
0.11756860774569194
0.0
0.0
-0.022632707470646933
0.02652075072246232
0.08547468004031059
0.0
0.0
0.0
0.0
-0.0020377918667431605
0.0
0.0
0.0
0.0
0.0
0.0
0.0
0.0
0.053869184698390166
0.0
0.0
-0.06463603064429209
0.0
-0.04515449884245205
0.0
0.0
-0.04612410523183079
0.0
0.0
0.0
0.08758883587182231
0.0
0.08002826681008159
0.0
0.07595728815614138
0.11841101830452694
-0.07828203260887673
0.0
0.0
0.0040616547061700144
-0.004317918405818165
-0.013820462233077035
0.08872500737274433
-0.048467885987171874
-0.40337783877911504
0.0
0.0
0.14256777554132988
0.0
0.03405302237625874
0.0
0.08133486043142872
0.0
-0.049148653459208096
0.0
0.0
0.0
-0.10445268106237512
0.0
0.010242639027750002
0.04125373941139317
0.0
0.0
0.0
0.0
0.0
0.015492819159972564
0.1502599584644937
0.0
-0.04286117249654975
0.17408880754674122
0.0
-0.034758628714718055
0.0
0.17311953370433814
0.0
0.0
0.0
-0.14016478005496213
0.0
0.0
0.0
0.026508221986147357
-0.025953748427102078
-0.11935582872759078
-0.023307438546789024
0.0
0.016617006705499166
0.0
0.035837399516589784
0.0
-0.017765560836778854
-0.021627918654753917
0.03253095270602821
0.0
0.0
0.0
-0.13628917621114778
0.0
-0.01838240202497016
0.0
-0.004707931057066349
-0.04899123423970204
-0.019002883006708163
0.03501203271750588
-0.07842409592248617
-0.02237343714223312
0.0
0.0
-0.08545112394944651
0.015381443128569774
-0.016412053003706392
0.0
0.042569412923083506
0.0
0.0
0.0
0.03434836439767242
0.0
0.17957952498226973
0.0
0.0
-0.06513391641945146
0.0
-0.11826759410383521
0.0
-0.03468992194882899
0.0
-0.027617839099765888
0.0
0.1741714481676419
0.0
0.0
0.0
0.0
0.0
0.0
-0.019352379004348323
-0.055200771834950556
0.06914180980754955
0.0
0.009377258583758935
0.0
-0.1667496434230663
-0.10744097535525915
0.0
0.0010714815924254314
0.0
0.0
0.0
0.0
-0.010756934156031963
-0.14396745091204943
-0.021574120101506257
-0.0756017774387393
0.0
0.0
0.0
0.0
-0.02171378845208738
-0.0019466298971339915
0.0
0.0
0.0
0.0
0.0
0.0
0.001975503593881045
-0.19130588110230184
0.0
0.0
0.0
-0.35733809571701847
0.011236903462202085
0.0
0.05574162920421956
0.0
0.0
0.0
0.0
-0.0017405267313142098
0.0
-0.016287468376756948
0.04715540959824623
-0.036554334305451706
-0.16234802767910878
0.1029079142290316
0.0
0.0
0.01595181261591655
0.0
0.11016969487501951
0.0
-0.07955281613915685
0.0
-0.05074970698956013
0.0
0.0
-0.12045450130887261
-0.04390153351000887
0.0871326112216797
0.0
-0.1171234231962692
0.0
-0.08412953930878415
0.1362364158006473
0.15817039701726152
0.15015399673089563
0.0
0.022193223775721985
0.0
0.030015310758613002
-0.06970814230793805
-0.02223071759401729
0.013589273088674308
0.0
0.008058983055802518
-0.10997839485469985
0.024498586962728656
0.0
-0.08421892029038118
-0.09427578143813485
0.0
0.0
0.07160694353517506
0.0
-0.1778082234115401
-0.023084677198547825
0.11252380940560161
0.0
-0.23384232614220518
-0.02195320159374968
0.0
0.0
-0.07819984760317014
0.0
-0.06214682817708202
0.0
0.016022526325128083
-0.054211885043475995
0.0
0.019927517595554042
-0.09351374201024922
0.0
0.036935302073719915
0.0
0.0
0.036675446206409876
-0.11348439904474666
0.0
-0.07854687622880888
0.10886976999794218
0.0
0.10564941235706077
0.0
0.0
0.0
0.0
-0.18067648496993774
0.0
0.0
0.03133987422349989
0.0
-0.006381552356914691
0.0
0.0
0.07354798242065966
0.0
0.0
0.0
0.0
0.0
0.0
0.029441223012969732
0.0
-0.07180596332048512
0.0
0.0
0.025479333314845937
0.0
0.23102253920230043
0.0
0.0
0.0
0.0
0.0
0.0
0.0
-0.10851763257969807
0.0
0.0
0.0
0.0
0.0
0.0
0.0
0.11995884458193777
-0.06789648149511891
-0.09288780698448135
0.03469915199122265
0.027902516956440443
0.0019032880557015887
0.0
0.0
0.0
0.0
0.1274055246398041
0.0
0.0
0.0
0.014910880736022569
0.0
0.0
0.0
0.0
0.1137107039004599
0.0
0.0
-0.03326500888595185
0.0
0.0
0.0
0.0
0.0
-0.03178941077614527
0.0
-0.03477574831421563
-0.11641565119809537
0.008370615737832474
0.0
0.0
0.0
0.0
0.0136961951343853
0.0
0.0
0.0
0.0
0.0
0.0
0.0
0.08528307973395854
0.0
0.0
0.07648447605212089
-0.05641712201677409
0.015480753196131854
-0.007885043598436541
0.0
-0.07909910115634305
0.0
0.0
0.0
-0.1016890325104687
-0.14734981502088268
0.0
0.0
0.0
-0.06280678587579133
0.0
-0.22447385117520216
0.08533192054603245
0.0
-0.08428472319281086
0.04485845725756207
-0.035802812848928785
0.0
-0.007862156373813912
0.0
0.0
0.0
0.051436549773185715
0.0
-0.05131476631177493
-0.2992607113955263
0.11312316881058224
-0.23606519237041024
0.0
-0.032493255407874025
0.1478854646508854
0.0
-0.05741145824461953
0.0
0.040498182163590926
0.0
0.11225090786763263
0.015473444379607817
0.30779677005751344
-0.08230708864662858
-0.03757385482700876
0.0
0.0
0.0
-0.008720189758421289
-0.0748280405071265
0.0
0.0
0.08573523440169976
0.004977351234758451
0.07650742487910855
-0.11594093741604179
-0.033326886946100316
-0.013080027995635892
0.0
0.0
0.0
0.13948281002990656
0.03888146413529553
0.001722905413139572
0.0
0.0
0.12366263599824566
-0.14723014683460636
0.0
0.0
0.0
0.0
-0.1613122821860352
-0.07142615129170107
-0.031247332284398292
0.0
0.0
0.0
-0.0075663643675478315
0.0
0.12239261431819158
0.0
0.0
0.0
0.0
0.0
0.0
0.0
-0.05337976652413403
0.0
0.08603149136895206
-0.06321817325331887
0.07097471883590072
-0.08161818609967467
0.0
0.04485459185202821
0.0
0.0
0.0
0.16663411782806395
0.0
-0.05270089249473465
0.0
0.0
0.06328355239315704
0.0
0.061640488690733033
0.005414507578654525
0.0
0.0006289972964076832
-0.07067503302378463
-0.11322814757240282
-0.05552274916637383
0.0
-0.020747011221932943
0.0
0.0
-0.02679491476518682
0.0
-0.043523233806750564
0.11564939110770647
-0.018109404977442446
0.0
0.0
-0.041530049024269405
-0.12554585388908115
0.02808366444934408
-0.01173083340952779
-0.0020089445105514613
-0.08274928987850261
0.030455613699314786
0.0
0.0
0.0
0.0
0.08156220825012479
-0.055023980543219685
0.0
0.0
0.0
0.0
-0.014831849374465246
0.0
0.11168082687948434
0.0
0.0
0.0
-0.009644281242203456
0.0
-0.003528571736202892
0.10721352210905602
0.05707008210808754
-0.07616212516451938
0.0
0.0
0.004572055987775158
-0.1121584191898008
0.004020919718574642
0.12684690299761664
0.11244947663585068
0.0
-0.19541544191386997
0.0
-0.12218943035868936
0.14393125482125746
0.127444270373788
0.0
0.0
-0.15989781684203713
0.13435070733568732
0.09018733061771883
-0.16198724563219016
0.0
0.0
0.054984992052306156
0.0
0.0
-0.186919687998972
0.0
0.046868436015781854
0.017529837165247364
0.0
0.0
-0.061482911116490326
0.21262434145623332
0.0
0.009575776701903203
0.0
0.0
0.12915970881792524
0.0
-0.09846819825043716
0.0
-0.2506223058669349
-0.03666974914173165
0.0
-0.15877598076552737
0.0
0.033903095247989005
-0.2696870080433372
-0.019307358183903202
0.03272609048392671
-0.2515274997791809
0.0
0.08678594591964099
0.11751636089001995
-0.13915882730636747
-0.08705747557973957
0.10933521002790501
0.00890449241338984
0.0
0.03849016827412613
0.0
0.02568481647832432
-0.1565171644744715
-0.1643843600976386
0.05149497753951064
0.009243955481194976
0.2066117609476034
0.0
0.03504850531514268
-0.025943238685615957
0.0
-0.08575117760026825
0.11284290607145989
0.18061549075543723
0.0
-0.04758125646769527
0.08649975450664153
0.0
0.0
-0.020886185730356936
-0.03070230521918695
-0.016925759392624
0.0
0.030529254133125138
-0.008555713454001385
0.07713601213838014
0.0
0.11031731018179375
0.004820298492573915
-0.0597138211642487
0.0
-0.08132555885369713
0.009785641725005786
-0.13422468198944937
-0.042278989940517805
0.03194959642811362
-0.04011761585192459
0.061237521154583745
0.0
-0.04388663369328645
-0.025777507163048552
-0.026480005072101832
0.11030876849289369
0.18717048640718045
-0.022512274524126456
0.0
0.09192985223450287
-0.030904936453980847
-0.15556731837202306
-0.07545527790149711
-0.07497867679446742
-0.013320014181776668
0.01786484755579352
-0.11084317301302624
0.0025965950094312823
0.0
0.0
0.0
0.033807466835806196
0.0
0.022381111484660328
-0.10311634253704414
-0.053043009422190895
-0.1966762007739865
-0.205438197267901
0.028180371341417553
0.0
0.1588703086083597
-0.021284365822669613
-0.13004284453918652
-0.04119163083869366
-0.09953115061534758
-0.07947197107636962
0.00793101330254813
0.12321123539862416
0.22030140103933032
-0.07576741230683078
0.0812326505934394
0.0
0.0
0.35385553983506257
0.0
-0.1434587875854026
0.003170519114115769
0.07957370989089414
0.0
-0.09187259739923148
0.0
-0.1272830454963844
0.23097259429470693
0.09669309536451881
0.0
0.06249142337831752
0.23545781532258298
-0.0824654282194628
0.0
0.0
0.033609875743288435
0.0
0.0
0.0
0.10016305689138603
-0.2492785428998178
0.0
0.0
-0.008127218232833222
0.0
-0.21377459345659836
0.0
0.0
0.08467238335057418
-0.17743702057457006
-0.16698022519242656
-0.11964316060755806
-0.046485158065853585
0.0
0.24183153273724803
0.0
0.039606571363738366
0.0072841800649911725
0.0
-0.026230834296611886
-0.21677002638737047
-0.17553461494917838
0.010010957717373224
0.06731768470203969
-0.1474596178326472
0.010385952038151638
-0.02574690287156277
-0.040759771999856365
0.18388954802713006
-0.017935165577526273
0.15780050907543733
0.0
-0.0690577636608373
-0.015400233514794429
-0.08629153109725515
0.06272735931769854
0.08904933061362763
0.0
0.0
0.0
0.0
0.0
0.0
0.0
0.0
0.0
-0.06938386205875303
0.0
0.0
0.0
0.0
-0.14385621695052947
0.0
0.024316756008165945
0.0
0.0
0.0
0.008842815939008984
0.10224114337473202
0.0
0.0
-0.04588630669917468
0.0
0.0
-0.14218172497611745
0.0
0.0
0.1649548109963018
-0.0763010888221988
0.0
0.0
0.0
0.026217166716790676
-0.03591125042872757
0.0
0.08665898182702142
0.0
0.0
0.0
-0.0015578888383513203
0.0
0.0
0.0
0.0
0.0
0.0
0.03841024089948023
0.0
0.0
0.0
0.0
-0.11637466253978257
0.0
0.0
0.01987538416342138
0.0
0.05237917528343062
0.0
0.03362330861070849
0.2207617101232972
0.0
0.0
0.0
0.12596660637559567
-0.007489989183608863
0.0
0.05995806545767364
0.0
0.0
0.0
0.0
0.0
0.0
0.0
0.0
0.0930732352050566
0.0
0.0
0.0
0.0
0.0
0.0
0.06469995711244712
0.0
0.0
0.0
0.0
0.0
0.0
0.0
0.0
0.0
0.0
0.0
0.0
0.0
0.0
0.0
0.0
0.0
-0.17334581424638223
0.0
0.0
0.0
0.0
0.0
-0.23904084894807257
0.10225359250085637
0.11453275084933068
0.0
0.0
0.0
0.0
-0.20374280695204686
-0.10927367311213367
0.15691893524669862
0.08087053881619548
-0.08786763543950867
0.04566705693521655
0.0
-0.05566396191025513
0.19617634703029463
0.0
0.0
0.0
0.0
0.0
0.0
-0.12582603013446794
0.0
-0.028429569750568873
-0.11147867246596421
0.0
0.0
0.0
0.05181672890431155
-0.2071047026328252
0.0
-0.04060054842849116
0.0
-0.10018322156666283
0.0
0.0
-0.04182961791015766
0.07123870587915324
0.031355489192161815
0.050072158032397576
-0.02306797782723486
0.0273600569244687
0.0
0.18386665715833697
0.11548354651627929
0.0
-0.03353430849124313
-0.28522498882914277
0.0
0.0
0.0
0.0474253479638036
-0.05146100066132671
0.014759456909195959
0.0
0.0
0.0
0.0
0.0453145226425293
0.06544148835247222
0.08182806609875218
0.0
0.03913994547245346
0.0
0.0
0.0
-0.08000418950411987
0.0
0.0
-0.07762168976083196
0.0
0.0
0.0
-0.039331976341443246
0.0
0.0
0.0
0.06246698034702209
0.0
0.0
0.0
-0.09037840410523208
0.0
0.0
-0.004944107858466701
0.0
0.23960756725268373
0.0
0.0
0.0
0.0
0.0
0.012257242857268851
0.0
0.0
0.03206817014062818
0.0822387480232546
0.0
0.0
-0.03543832705359012
0.0
0.011209650182076052
0.0
0.07295974813198415
-0.024674837227251188
0.06972433057238756
0.16072785913630813
0.06879900058733973
0.09193585003522284
0.0
0.04981096403518753
0.0
0.09626597575791207
0.0
0.05413312002517111
-0.02787737103298117
0.005958157956800553
0.09396332486424651
0.1338826299057834
0.0
0.0
0.0
0.0
0.0
-0.10686182529263864
0.145819345372916
0.0
0.0
-0.05071868532321659
-0.07493297103879534
0.0
0.0
0.0
0.0
0.0
0.060319954913592246
0.0
0.1403101512081257
-0.16874672729401918
0.0015008954682120218
0.0
0.0
0.0
0.0
0.10845354688059525
-0.020031254495885432
0.0
0.026363932374618593
0.15318602444050125
-0.01210299707063604
0.0
0.0
0.07598623880261496
-0.14589857063092498
0.11393155964617463
0.0
0.101028056384567
0.0834965970596398
0.0
-0.09385464230643253
0.0
0.0
-0.21172860492328693
0.30031795589672433
-0.08619708166850817
0.0007124823005340232
0.19363243566612523
0.0
0.050084456217565805
0.132163670424845
0.0
0.005687164756983054
0.07593404510317153
-0.1863051805009545
-0.10043797603005243
0.0
-0.1073799847902471
0.06557609394378988
0.09081332144025593
-0.026813123492264748
-0.21518845891435995
-0.12380217007543141
0.13689000746814578
0.03751907258636256
-0.10909678422665517
0.0
0.04997697057850976
0.06985021633969214
0.0
0.00019035340532184058
-0.08194123912423917
-0.09380057113748713
0.07584140144101269
0.09690169451785006
0.0
0.0
0.08139613672591763
0.0
0.0
0.04105505195854379
-0.023875319697446447
-0.14855235335435965
0.10074666477090143
0.04830168443082458
0.01972264654297011
-0.00973168505614045
-0.08373525573365469
0.09232357293278334
0.041846815021695905
0.011672835719671983
-0.0362772377829336
0.13941107796663846
0.0706743253168611
0.07322668596122864
-0.0857607943495568
0.007961936813633554
0.028678902987202534
-0.07815377045077601
0.030718654052656065
-0.29900941584215446
-0.1117842927791114
0.06606699154091664
-0.027536061793127502
0.0
0.06311166239053292
-0.035889271763159585
0.01900970042732772
-0.05893421718806626
0.0753655697939506
0.11714207732959009
0.0
0.052316904268338064
0.0
-0.011769141721156047
-0.08503293900394804
-0.08025629272441612
-0.05013113217053315
0.06136133355158571
0.0
0.0
0.0
0.0
0.0
0.07631769001914765
0.0
0.0
0.0
0.0
0.0
0.0
0.0
0.0
0.0
-0.07843238500835184
0.0
0.0
0.0
0.0
0.0
0.0
0.0
0.0
0.07803474413796299
0.0
0.003043488802444598
0.0
0.0
-0.002070895652261441
0.0
0.0
0.0
0.0
-0.08857926676639293
0.0
-0.05643169932809714
0.0
0.005890395511966972
0.0
0.0
0.0
0.035417330784432204
0.0
0.0
0.0
0.0
0.0
0.0
0.0
0.24469048639755772
0.0
-0.08601553058938148
0.0
0.0
0.0
0.0
0.0
0.0
0.0
0.04267331872557899
0.0
-0.08757752096116424
0.0
0.0
0.0
0.0
0.0
0.0
0.0
0.0
0.16042383453770243
0.0
0.0
0.008696072536456932
-0.024308613554420856
0.0
-0.008621670091339264
0.0
-0.11360924063815547
0.0
0.13906059983104055
-0.06507369851545386
0.0
0.08554285908607817
0.0
0.0
0.0
-0.08537897022628244
0.17411589982652753
0.0
0.0
0.0
-0.0389927032981093
-0.028604985433032325
-0.05741063220930192
0.0
0.023794302172486126
0.0
-0.07831332329245726
0.0
-0.15833587041973782
-0.08757966068680209
0.0
-0.03511363853429296
0.0
0.014465524910963062
0.0
-0.19064101648403436
0.0
0.029863137147651455
-0.2195549480757718
-0.12259858341833263
0.06354656895619483
0.0
0.0
0.0
0.014471906168907986
0.16463827582375068
-0.09280106600797605
0.0
-0.08113239320678917
0.0
0.0
0.050376452705155866
0.0
-0.08409679703387105
0.0514240877894167
0.0
0.18870464427673622
0.0026332969624452843
-0.09196179700463511
0.0
-0.1489487289795713
0.17524244397273997
0.0
-0.08664414606817056
0.0
-0.08854493090014989
0.19415651574345216
0.0
0.1671083053351718
-0.027343194443879164
0.05216710813835924
0.0
0.0
-0.19671248776250813
0.0
0.0
-0.0845225369981522
0.0
0.0
0.0
0.0
0.0
0.0
0.0
0.0
-0.017829239876608793
0.0
0.0
0.0
0.0
0.0
-0.05855301120247836
0.0
0.0
0.0
0.0
0.21331182127826015
0.0
0.0
0.0
0.0
0.0
0.0
-0.10969979385494676
0.0
0.01801215324107999
0.0
0.0
0.0
0.0
0.16423572996071556
0.0
0.0
0.03471794337394166
0.0
0.03265649240455029
0.0
0.0
0.0
-0.017540846905645405
0.0
-0.1725560821575015
0.0
0.0
0.0
0.0
0.0
0.0
0.0
-0.1859510319265099
-0.026608015095132206
0.0
0.0
0.0
0.0
-0.01692034301650503
0.008085588882560954
0.0
0.0
0.0
-0.07274684773525074
0.0
0.0
0.0
0.0
0.0
0.03019981731742187
0.0
0.0
0.0
0.0
0.0
0.0
0.0
0.0
-0.08145393528413683
0.0
0.0
0.0
0.0
-0.06510168039127391
0.0
0.0
-0.04613791938544073
0.0
0.0
0.0
0.0
-0.0667819835175757
0.0
0.0
0.0
0.0
-0.07567609741480585
-0.08547184304448313
0.0
-0.0048627580493889495
0.026730504770310717
0.14034596784038786
-0.2796789067608699
0.027987822227010954
0.14526004252956182
0.0
-0.07789298967117347
0.0
0.0
0.0
-0.07577617305378845
-0.06284676962649756
0.0
-0.17466467414259285
0.0
0.0
0.0
-0.032322660189830835
0.0
0.06686117102373441
-0.027344136098885228
0.0
0.11280830716369139
0.015511650718240975
-0.18229421621340597
0.0439192152648227
0.0
0.01545845965175647
0.08089616589835125
0.12528371828744128
-0.09037649314470583
0.0
-0.08411429675094188
0.0
0.09249930027329854
0.022734809760590464
0.0
0.16651240448905036
0.0
0.0
0.0014195147364130087
0.0
0.0
0.0
-0.10536326060818638
0.0
0.03844737293622452
-0.04506964916006333
0.0
0.07542166648834499
0.0
0.14218040585681455
0.0
0.0
0.0
0.0
0.053843649061832054
0.045366713005282354
0.0
-0.1821965459620054
0.0
0.0
0.0
0.1130119578756187
-0.08266321968365042
-0.01443256671965472
0.21056342389652444
0.0
-0.014846199663643986
0.0
0.0
0.0
0.089086807141729
0.12289397692061335
0.0
0.0
0.0
0.0
0.12256549005429632
0.0324246259537375
0.0
0.0
0.0
0.0
0.0
0.08938977245820111
0.011511253706101825
-0.006433076455294285
-0.013889069242254325
-0.08511953021956133
-0.09438606100114344
0.0
0.09509404263943588
0.056265544653168076
0.0
0.011040920453980585
0.0
0.0
-0.13329850087555603
0.0
-0.07177105411271362
0.12349502596953749
0.0
0.09093710015580247
0.0
-0.10181362301425971
-0.06564894631389093
0.0
0.0
0.0
0.0
0.0
0.0035163971282530966
0.0
0.0
-0.08072148357471547
0.03141073519682654
0.0
0.0
0.05009907259635951
-0.03650025359526567
0.014913310643385722
-0.18602296876339236
0.0
0.030612318473593404
-0.05238990356677345
-0.011562839102678002
0.0
0.0
0.20299203425069395
-0.34679574417375775
0.0
-0.08264487191639891
0.0
0.11463097476936981
0.0
0.2023267320855869
0.0
0.1078827341338835
0.0
-0.06509986102241674
0.0
0.0
-0.012641055998791909
-0.09284202590517031
0.0
-0.02999454571807357
0.14281606655140033
0.04318904576696241
0.002159660925576053
0.0
-0.08074356533686848
0.0
0.0
-0.03056728700860543
0.0
0.0
0.0
0.09951448614720285
0.0
0.1494673747422778
0.0
0.0
0.0
0.0
0.0
0.048479106731300084
-0.07326903671972582
0.09863855137521724
0.02637726882670638
-0.03968879188786043
0.0
0.0
0.0017997428277157273
0.0
-0.00822132616753398
0.0
0.0938243241448048
0.0
0.0
0.04691920927943862
0.0
0.0
0.0
0.04484564900477133
0.01515412738394041
0.0
0.0
0.0
0.0
0.0
0.0
0.0
-0.04507974868050908
0.0
0.0
0.0
0.0
0.0
0.0
-0.06798701888662602
0.08596899212622543
-0.013820120392783334
0.0
-0.001261084392653225
0.0
-0.1102586240925845
-0.12756408338970043
0.019389027831160695
-0.05248276951315962
0.0
0.0
0.0
-0.06806067932757981
0.0
0.04619850894580419
0.0
0.050292506984172744
-0.05844174018046745
0.07405849152838649
0.0
0.23301557146023155
0.0
0.20570712448667888
-0.034982063316934646
-0.15315967094190236
0.20164796037335653
-0.09350746151838885
0.030443434976707377
-0.13176970282351
0.12569306139318193
0.0
0.0
-0.0015356906530911568
0.0
0.0
0.0
0.0
-0.10799494526492989
0.011171489113600953
0.1783600292227256
-0.09901686892528186
-0.013603356381617469
0.0
-0.013600604100102167
0.01329177709515364
0.0
0.06072967402661293
0.11929123332370717
0.0
-0.1775576433949319
0.11813504913320694
0.0
0.1652296097919672
0.0
-0.08119061227348326
-0.09660665867567451
0.04335363253268623
0.11335769012196538
0.0
0.0036817500826296407
0.0
-0.028735807248186335
-0.0887892012058283
0.1793250834807799
0.0639574904242933
0.0
-0.2987706624541792
0.0
-0.10335474755149497
0.0
0.0
-0.04281763747153002
-0.0825240318901262
-0.12266794727069018
0.0
0.0
0.0
0.0
0.013994713637367505
0.0
0.0564719230731699
0.0
0.0
0.059489464118446356
-0.039326730230617155
0.0
0.009186069701709317
0.0
0.0
0.0
0.0
0.0
0.0
0.0
0.0
0.024904641439038974
0.08970076456977709
0.06389769085980315
0.0
-0.04288070270063735
0.0
-0.10417699086045644
0.0
0.0
0.10711184320465447
0.0
0.027086183911823228
0.014603239284295256
0.0
0.0
0.0
0.0
0.0
0.0
0.0
0.0
0.0
0.0
0.15087931212155858
0.0
0.0
0.0
-0.005738564263129774
0.0
0.0
0.0
0.0
-0.035159612626601396
0.0
0.05234177780799651
0.08440333838372835
0.0
0.0
0.0
0.0
0.0
0.0
0.0
0.1987480484933319
0.0
0.008680960787352475
0.0
0.0
-0.04133412656334501
0.0370905720960756
0.0
0.0
0.0
0.0
0.0
0.0
0.07023891146328194
0.021223152139281602
0.03905957005629053
0.1872962801966348
0.011550126894728814
0.0
0.0
0.01314082871248474
0.0
0.0
0.0
0.0
0.0
0.0
0.15731240994671594
0.011224084737564085
0.0
0.0
-0.1180614638838563
0.0
0.1749727202151291
0.0
0.0
0.0
0.1149071711330033
0.0
0.09517378296711647
-0.04759345994701319
0.0
0.0
0.24048480200320752
0.0
0.0
0.0
-0.06296188825387256
0.0
0.028458411921179677
0.0
0.0
0.0
0.0
0.0
-0.08619337188529219
0.0
0.0
-0.018149098491120938
0.0
-0.15224080940954893
0.0
0.08449803951639777
0.0
0.0
0.13611363720303854
0.0
-0.14249502271544667
0.05550327836654081
0.0
0.0
0.0
-0.044747009815852355
0.0
-0.0167835421706615
0.0005786871182030113
0.0
0.0
0.0
0.04747168211627409
-0.08841983323358553
0.0
-0.14431631470957657
0.0
-0.07721880890796423
0.0
0.0
0.0
0.0
-0.05092126724106526
0.11732176516475327
-0.015491039224777967
0.03315366910216224
0.0
0.0
0.02453847440879331
-0.18738659837693056
0.08344092542408621
0.0
0.0
0.0
0.0
0.0
0.0
0.0
0.0
0.0
0.0
0.0
0.0
0.0
0.0
0.0
0.04442904978862357
0.0
-0.017841180101630737
0.0
0.0
0.0
0.0
0.0
0.16874939534862493
-0.17533518375137438
0.032587327533251255
0.0
0.0
0.0
0.0
-0.03590581309679
-0.09021450361230211
0.0
0.0
0.0
0.0
0.0
0.08072873211739465
0.0
0.0
0.0
0.0
-0.04924476487491481
0.02148527047244175
0.16020884925514678
-0.27001224537022417
0.013216734571528539
0.0
0.0
0.0
0.0
0.0
-0.025325320659068954
-0.01195262864162077
0.05455999325194543
0.0
-0.03702686181562714
0.0
0.0
0.0
0.0
0.009651961527999664
0.0
-0.13972823315822594
-0.0030100051512735853
0.012973146332214006
-0.05881050568324324
0.0
-0.09973020655474807
-0.01870101034284988
0.21279108052150186
-0.021882018028936058
-0.08558521183154458
0.04081874710682483
0.0
0.17296421706623732
0.019638134121634693
0.0
-0.023363323298029565
0.0
0.07413823049444436
-0.12087420329082074
0.0
-0.21536825600598397
-0.028487977816593277
0.02589764956808703
-0.03845003019599379
0.006102518805678617
0.04900744590076559
0.0
-0.19128222832921335
0.0
-0.12843349109080726
-0.012842106555425852
0.12963663996497019
0.2646106999110338
-0.035205917902711006
0.11900208025911146
0.0
0.017869630933781466
-0.13084606556078568
0.0
-0.052381487637680246
-0.07591708503612274
0.0
0.16047819185955198
0.05415776723630948
0.0
-0.06637071585213583
0.0
-0.025728550588191
-0.09171997299399992
-0.06186008774384849
0.0
0.17225428079252153
-0.009837726992150169
-0.13506545178578006
-0.05947633569013358
-0.023332306809540834
0.021397055478801608
0.0
-0.13086964797816344
-0.1968736298167145
-0.003828601181967351
-0.05214654778945609
-0.11028753642283068
-0.17857807290127636
-0.029583206177766067
0.0
0.05816099477278515
0.18995676003796577
-0.0639925936489195
-0.00505052003918427
0.014630469584146827
-0.029123485406258524
0.056797214567615883
-0.06524776790065717
0.057668191848459095
-0.05575289443113965
-0.1386516472242343
0.03364679097362125
0.061800207479304495
-0.061324463056558684
-0.08258596718866536
-0.011447052486163041
0.11995479933872281
0.04613675023528095
-0.013357924557806593
0.05557560303370967
-0.12193180608570509
0.22008069460724247
0.16991107334904113
0.01484897358682785
0.31683868047458014
0.17026435207743687
-0.3573611562947835
-0.08285777695706652
0.08896974024210848
0.19534693444659212
-0.05962659712603076
-0.08921085972963197
0.17004820930752076
-0.07972031823368533
0.047819393411525954
0.0
0.0
0.0
0.0
0.0
0.0
0.0
0.0
0.1072620680273371
0.008165336441042644
0.0
0.0
0.0
0.0
0.0
0.0
0.01701572119471343
0.0
0.08262739778501996
0.0
0.0
0.0
0.0
-0.09366449615266577
0.09324306817984916
0.0
0.0
0.0
0.0
0.0
-0.049573140447568664
0.06030410118085867
-0.0049198047777676505
0.0
0.0
0.0
0.0
-0.0001374000987715556
0.0
0.14730876733380333
0.017340853058778787
0.0
-0.10983723981471409
-0.1975389911551475
0.0
0.0
-0.02005764060743734
0.0
-0.14336556136074335
0.0
0.0
0.0
0.0
0.0865852590064854
-0.1926152455621143
0.06512480834210738
0.09710445842891034
0.0
0.0
-0.09692600553497795
0.09465595487778718
0.0
0.0
0.0
0.12338349244733451
0.0
0.23607475324528454
0.0
0.0
-0.07163931437921078
0.0
0.0
0.0
-0.08112287457863632
0.0
0.013748650717869982
0.0
0.0
-0.02896412628237288
0.0
-0.09892907186701776
0.0
-0.06717742287260081
0.0
-0.054706030145630184
0.0
0.0
0.0
-0.013317020825628736
-0.02179521798261936
0.0
0.0
0.08670351460674561
0.0
0.0
-0.018422669614559465
0.0
0.0
0.0
-0.09621720696399225
0.0
0.14299113158637008
0.0
0.0
0.0
0.0
-0.038391847776484696
0.0
0.20500138434144005
0.0
0.0
-0.04231485223025001
0.0
-0.2533687141866444
0.014672362981943486
-0.061217711559244256
0.014837061696423163
0.0
0.0
0.0
0.0
0.0
0.0
0.0
0.0
0.0
0.0
0.0
0.0
0.13806628054162495
0.0
0.0
-0.031850117919902644
0.0
0.0
0.0
-0.02369083894666419
0.0
-0.022715843634310263
0.0
0.0
0.0
0.022899407293650056
0.0
0.05838781648052261
0.0
0.31611245038404073
0.0
-0.011091696320760036
0.0
0.0
-0.12104792885741739
-0.056968990996750776
0.029451019124556374
0.008310061433152454
0.0
-0.11842451619605916
0.0
0.0
0.0
0.0
-0.05646132711659457
0.039167189486216586
0.0
-0.01555253320205263
-0.0936942944706693
0.0
0.03591491954944187
0.0
-0.2720878696482069
-0.12246674438934392
-0.09605921899667084
-0.004447059158523667
0.22261407877655665
0.0
-0.020420416319543576
0.0
0.0
0.02879858056918059
0.0
0.0
0.0
-0.030969720443522766
-0.054262953981471775
-0.05590142682889954
-0.032474262563448625
0.0
0.0
0.08056735896435029
-0.07559869966179793
0.0
-0.09862501878482481
0.0
0.0702044777458499
0.0
-0.12849820332572753
-0.1597988464486084
0.0
-0.05161454390149692
0.0
0.0
0.013255230538513843
0.0
-0.0831067708700788
0.0
-0.2323695398302328
-0.2189734488961315
0.0
-0.12447858742338924
0.06868423261709368
0.0
0.0
0.04776808935128173
-0.10280868157017924
-0.003942477919317714
0.0
-0.06093472681603365
0.07332037053184837
0.0
0.0
0.0
0.07635634595543286
0.0
0.038901205762590936
0.0
0.04153337917510312
-0.022397059269657772
0.0
0.0
-0.009579987087725275
0.0
0.0
0.008056934461361605
0.0
0.0
0.18223618286753954
0.0
0.2016955002806083
0.09659391041995213
0.0
-0.02893467164104115
-0.15242680955259516
0.0
0.0
-0.05796610988959859
0.0
0.0
0.0
-0.022978338926482073
0.0
-0.04790926371882333
0.061446903068137944
0.0
0.0
0.12256257976639451
0.0
0.0
0.05823934777739204
0.1346647336338899
-0.07525404407698834
-0.1601368138895944
0.0
0.0
0.1485862491542831
-0.014354622752976942
-0.008909678251520711
0.0
0.0
0.0
0.0
0.0
-0.08845587724964175
0.0
0.015477591857558173
-0.1210148717421325
0.0
0.0
0.07488967782354218
0.0
0.0
0.0
0.0
0.0
0.0
0.0
0.0
0.0
0.0
0.0
0.07359058534623662
0.0
-0.056694628750786874
0.0
-0.018626889629514292
0.0
-0.03686014376733264
0.0
0.0
0.006155457403985307
0.0
0.0
-0.16777413686271347
0.0
0.05268916355277294
0.07569443090351247
0.0
0.0
-0.08474304815219263
-0.09155868621915016
-0.14385015604356474
0.0
0.0
0.13909826856958665
0.036416711168768615
0.08297441907248002
0.1170165040847893
0.0
-0.03887855800148729
-0.11867051391243119
0.030694569440582492
-0.041724493444992364
0.11065267031199799
0.02191504614518966
-0.08926273889994916
0.10088311000914632
-0.1541399718042568
0.0
0.0
0.004606641585241086
0.054574113329027854
-0.2934388213050535
-0.03510326781394978
0.042075518099676745
0.024450637043646254
-0.01249818170021297
-0.13716791439341394
0.04217437305075344
0.0
0.17871125040182054
0.09149040222635797
-0.17613755226332192
-0.25544042230809955
-0.05209479930870896
0.0
0.0
-0.06378525594515554
-0.07351599453101622
0.029262971654039988
0.0
-0.16915817216319748
0.0
0.0
0.20383594505667968
0.06447072163980413
0.0
0.01686525008683879
0.0
0.0
0.0
0.0
0.0
0.0
0.0
0.11662641392286949
0.075166802029085
-0.08891114175434395
0.0
-0.08547828600497562
0.2082699435518296
-0.08563828259213016
0.0
0.0
-0.10293597828896714
0.10183639899023891
-0.06080509201473615
0.0
0.0
0.0
0.0
0.0
0.0
0.0
-0.009693670060187717
0.0
0.0
0.04828445143583972
0.0
0.04773792706260219
0.0
0.0
-0.013809708428840916
0.0
0.0
0.16231713551291127
0.0
0.0
0.0
0.03009415969559254
0.0
0.14431717604028088
0.0
0.0
0.0
0.0
0.0
-0.0429683218642218
0.0
-0.16843213122725506
0.0
0.0
0.0
0.0
0.0
0.0
-0.08629178176520362
0.0
0.12015016999716412
0.07116051524364352
0.0045548488880030194
0.0
0.02061185355940144
0.0
-0.059944918777099156
0.0
0.018306205993723124
0.0
0.0
0.0
0.03533231289528449
0.0
-0.07515375090145782
0.0
0.0
-0.08830496537231357
0.0
0.0
0.0
-0.0848242496171947
0.0
0.0
0.0
0.09032903247333783
0.0
0.0
0.01894896361639875
0.0
-0.008821113571939286
0.0
0.02953974654512051
-0.07613628529360257
0.0
0.0
0.0
0.0
0.17735208792218524
0.0
0.0
0.0
0.0
0.0
0.0
0.0
0.0
0.0
0.0
0.0
-0.011817635000131575
0.0
0.0
0.0
0.0
0.0
0.0
0.0
0.0
0.0868510946824971
-0.09693241805093669
0.0
0.0
0.0893706843296522
0.0
0.0
-0.015201367223485739
0.0
0.0
0.0
0.0
0.0
-0.11598931857729695
0.0
0.076189742357898
0.0
-0.11824981860659813
0.0
-0.058729889474878755
0.0
0.0
0.0
0.0
0.0
-0.026445723557651526
-0.1487488466933685
0.0
0.0
0.002130754767835724
-0.029910636404538123
0.0
0.0
-0.07575500137809335
0.22997912917217225
0.07452964577787372
-0.15205124525076552
-0.13401664647753347
0.0
0.0
0.0
0.012224091294405267
0.006296588905740406
-0.016553410681518787
-0.07733524731017878
0.09821000554225856
0.0
-0.22893426003606557
0.0
0.21845484296629625
-0.10353365815020608
0.0
0.05280596719228241
-0.07489538101273267
-0.03498668415942137
0.044740929328432086
0.0
0.0
0.0
0.0
0.0
-0.05260468508359546
0.0
0.026936600740597
-0.032715949187201505
0.0
0.0
0.01283718064015003
0.0
0.0
0.0
-0.03596885835769435
0.08971672536097773
-0.10948272369468656
0.0
0.015293694693893436
0.05321789135011581
0.0
-0.07635700236143493
0.0
0.0
0.0
-0.08852103990920902
-0.15627646983389223
0.04906266986706774
0.0
0.00363341226725394
-0.019004644011540207
-0.04480256683509397
0.006924696317905592
0.01992288522999916
-0.07188277785812022
0.0
0.06537340983222335
0.0
0.0
0.007025339523488383
0.0
0.0
-0.019679693008952115
0.0
0.0
0.0
0.0
-0.053826348022106674
-0.00024314938843338074
0.0641991080620913
0.03170365144110863
-0.029045948741752425
0.08918797254139756
0.0
0.024567044280432562
0.0
0.019509975770876205
-0.19363638483542062
-0.0277436650163327
0.0
0.014765921708457162
-0.0006221560935349112
-0.0666877967470186
0.1079275384135064
-0.1384934598032209
0.17276732847363602
0.0
-0.1075565889469986
0.0
0.0
0.0
0.0
0.0
0.0
0.0
0.0
0.0
0.0
0.0
-0.1049006622708325
0.0
0.0
0.0
0.0
0.0
0.0
-0.0233358424295791
0.0
0.0
-0.12792837949136387
0.0
0.06642471262964052
0.0
0.0
0.0
-0.1151235187296536
0.0
0.03752421677368929
0.0
0.0
-0.014681565112211508
-0.09768513687281885
0.0
0.0
0.0
-0.13526437037907718
0.0
-0.05042758141848612
0.05226406224138874
-0.06205494718220268
-0.017063145075843486
0.0
0.0
0.0
-0.023283489958040984
0.0
0.0
0.0
0.0
0.0
0.0038459312204726314
-0.0320306383062425
-0.03605460659643807
0.0
-0.05514695133299715
0.0
0.0
-0.13355678822334482
-0.07124969248678042
0.0
0.0
0.0
0.0
0.04730168246652319
0.0
0.0
0.0
0.0
0.0
0.004445498018044773
-0.061744540034170285
-0.030579562953261665
0.0
0.09064960198847959
-0.017181611747111882
0.0
0.0
0.0
0.0
0.0
-0.11796028749163831
0.0
0.0
0.0
0.0
-0.17212946196615492
0.0
0.0
0.0
0.05864514124446449
0.0
0.0
0.0
0.0
0.2277752868725353
0.0
0.0
0.0
-0.09744397293432241
0.05836176077111252
-0.0008558445404913308
-0.0008533206782409637
0.0
-0.16280717980394152
-0.202439071420173
-0.061652409783587415
0.0
0.0
-0.06974138145942067
-0.02222786021019589
0.08562381025912724
0.031913757819757346
-0.03328339586112297
0.0
-0.017950664278631706
0.0
-0.0374721104638671
0.1741434475854758
-0.007060118091867933
0.0
0.0
0.0
0.05276508885682372
0.10349162840208537
0.12407691032368423
0.0
0.0
0.09276098135414335
-0.05211152810940844
0.0
-0.055639627189954494
0.07763278325409224
-0.048858349329411965
-0.09922077584969223
0.011159795674223441
0.1411044736539511
0.0
-0.019697623216318086
0.0
0.05663708943850357
0.0
0.0
0.011758250203892151
0.0
-0.03484543017719851
0.042354519054448814
-0.015185428950653926
-0.14574906895621387
0.0
0.031596334185386515
0.04887015896917399
0.0
-0.03038155300211079
0.3239447765486281
0.04357919585723788
0.27530969916609604
0.03339027370165753
-0.12484463075317546
-0.18646464070048085
0.0
0.0
-0.005046260369827997
-0.09967968489821956
0.12289312970337729
0.0
-0.013153653971003524
-0.08827495762729273
-0.1619666160727873
-0.19367444905875514
0.023429186926881337
-0.21409474184728802
-0.05751044840621784
0.0
0.0
0.14378498790809796
0.0334335511067058
-0.08303335867492063
-0.09928314553558487
0.0
0.12016523563703445
0.0
0.12960174508164768
0.1440484087308088
0.0
0.0
0.0
-0.05168636142737653
-0.08293154327295832
-0.044488594491997914
0.11593955112847543
-0.015541851254779563
0.0
-0.15926401863051073
0.06746238642684346
0.04554372152138783
0.08934013856290896
-0.10390374250813413
0.0
0.0
-0.091878424825155
0.0
0.0
0.0
-0.043773501625591675
0.0
0.0
0.0
0.0
0.0
0.0
0.0
-0.06546158606753823
0.0
0.0
0.0
0.0
0.0
-0.09167291273528974
0.18368905179757572
-0.0535881669221612
-0.10402568128973544
0.0
-0.050685966106489344
0.0
0.0
-0.03828153413858437
0.0
0.0
0.0
0.0
0.13683968066377916
0.08292189302230597
-0.07075575469739008
0.0
0.0
0.0
0.08177263286618924
0.026003370469173285
0.0
-0.026690878229002315
0.0
0.0
0.0
0.0
0.0
0.0
0.0
-0.0810865367535484
-0.25679279294726376
0.2675401703207809
-0.23613801921848615
0.0
-0.14179906822165145
0.02729746044592583
0.01642812799904248
-0.18855650915758537
0.0
-0.1353082588920271
0.12271563030599114
-0.09972324905096315
-0.10264395923337888
-0.04922664138775058
0.11716093374165727
-0.03453974780364272
0.09987954723535353
-0.002751863010591235
-0.09124773571791359
0.008125435483632176
-0.006960072451872572
0.03902536108201163
-0.21329163333080384
-0.1692003230979024
-0.020762774654631735
-0.0606483039169313
0.2077387472395021
0.08681379611287027
0.08455869096061
-0.08787370765477012
0.0006299051371322344
-0.07657451871696241
0.08204024208526066
0.1604978154182965
0.0
-0.01242756581678392
-0.24410729152749122
0.06289131068118567
0.23313163677893958
0.0
-0.14813708118416663
0.0
0.08253768955404375
0.0352834486774502
-0.019036770368248135
0.05892806554680827
0.0
0.0
0.10190081367173372
0.0
0.0
-0.08421472886736721
0.0
0.0
0.0
0.0719411997118062
0.0
-0.12735357671503347
0.04672780422720581
0.3420995012035407
0.0
0.0
0.26219024460810575
0.0
0.0
0.0
0.0
0.0
-0.10871662150400017
0.0
0.03659038899538337
0.0
0.005041441259252024
0.0
0.07156548088916702
0.0
0.0017717183932335991
-0.0814533699434042
0.0
0.0
-0.034700419172452986
0.0
0.0
0.0
0.0
-0.071051224162935
-0.08763973278053772
0.0
0.0
-0.12135790923254212
0.1687608675926922
0.0
0.0
0.07621875375628923
0.0
0.0
0.0
-0.0013409610907041472
0.0
-0.10778099256947708
-0.09148147413406237
0.0
-0.12798671595421132
-0.4719953896914896
-0.010428550779903414
-0.05361165957266063
0.05633419578223288
-0.10368188515004673
0.002847621535937838
0.16209769991817524
0.0
0.06390240468619751
0.05340892652614363
-0.05930518220163105
0.0
0.21111313680638347
-0.11411168790010806
0.09753369182219818
-0.04674032937364368
0.12175511917892723
0.06588140236502729
0.07813637075795693
0.0
0.0
-0.0034527029477533916
0.146078115913588
0.12836517070343134
-0.061470116369545136
-0.04960111069858107
0.0
0.0
0.0
0.0
0.0
0.0
0.002019174497383533
0.04100741623637323
0.05607172552307157
0.0
-0.07549714214665282
0.32169330611535796
-0.03074693802691095
0.0
-0.044543182722854215
0.0
0.0
0.047687237145066674
-0.04971502883272603
0.0
0.0
0.0
-0.3382434678467344
0.0
-0.16387477437508546
0.0
-0.054308173975582304
0.14625376282023425
0.0
-0.1502115778531156
0.0
0.0
0.1166024400592437
0.0
0.0
-0.05045296372233899
0.0
0.0
0.0
0.0
0.0
0.0
0.0
-0.027348295753526243
-0.027916283977437915
0.0
0.0
0.0
0.0
0.0
0.0
0.05618913612794718
0.0
0.1135708999151644
0.018142188067993392
-0.15478080206941822
0.0
0.0
0.0
0.0
0.0
0.0
0.0
0.0
0.0
0.0
0.0
0.0
0.0
0.0
0.027841038873521934
0.058555377687664424
-0.14434330318545135
-0.07646110216121348
0.14181678475214904
0.271195894945302
0.0
0.0
-0.06399774710854464
-0.02061439597429996
0.0
0.01610559939292656
0.09985487391170869
-0.1600968591387953
0.0
0.16206382554972004
-0.006249062891127578
-0.1625121613217953
0.00377176765673993
0.1236667098593715
-0.05628444221905075
0.008678693336910322
0.02667678193364647
-0.06729360161991749
-0.114567900446257
-0.07882138755325366
-0.13066671903575017
-0.08090149550108704
-0.08021043769831081
0.1095127549799058
-0.1559431829026025
0.10024035438644786
0.0
0.06293680927949652
0.01937328799090532
0.13635055692101217
-0.027497949070552644
0.0002487888052568545
-0.0874006484267833
0.0
0.0
-0.03359356608883844
-0.033013156997722774
-0.064647868521985
0.0
0.0008672524853558031
-0.11021298026104727
-0.271544046371693
0.04985602284543534
0.0
0.025952978317227746
0.061001332614193444
-0.1729392910202039
0.1927537531168511
-0.044455379566389126
0.009465914187832289
0.07055478885915531
-0.14621336189689954
0.13801953244691412
0.0
0.20532017623200058
0.039589522027650606
0.12467065918978465
0.05405727718826095
-0.1399467123345139
0.0
0.0
0.05888075253220148
-0.09090447343347749
-0.11691475757243709
-0.0074498902651864716
-0.022003305508338716
0.12184225253839069
0.0
0.1353953025172348
0.0529311906786201
-0.022251307909066376
0.14312898608283892
-0.13847369526834866
0.07088925146156705
0.19322930271788685
-0.052944382107640964
-0.3403836245273978
0.2464718202534316
0.0
0.19220866440072523
0.0913479191873178
0.22595274383759947
-0.01551650455429747
0.08376604797889703
0.0
-0.036745428171801306
-0.21935019744691628
0.0
0.015109771430905465
0.04437643434790886
0.19447942908540572
0.16928917243321057
0.1269405588832046
0.007056135473876537
0.0
0.0
0.0
0.0
-0.14080587643454834
0.025157795238984895
0.0
0.0
0.03803513392644822
0.0
0.0
-0.004772855012366621
0.0
0.0
0.0
-0.004516634923238422
0.0
-0.0009485327057560803
0.1046619574388152
0.0
0.0
-0.05128705030723624
0.0
0.0
-0.11227407965432917
0.0
0.0
0.0
0.028386147841407174
0.0
0.0
-0.05783462399461144
-0.12327427207517451
0.15548564913921978
0.0
0.0
0.0
0.0
0.0
0.0
0.0
0.031345853520253875
0.0
0.0
0.0
0.0
0.06476649692887347
0.0
0.0
0.0
0.0
0.0
0.0
0.023260486775151044
0.0
0.0
0.0
0.0
0.003654420302369149
0.016155473899977867
0.13568588093413259
0.0
0.08172487449569074
-0.027396635399273263
0.06059161944293934
-0.25656905680829983
0.0021741642916839232
-0.09125867878466801
0.0
0.0932182868961184
0.0
0.0
0.0
-0.040044084659074025
0.006580004412799198
-0.05013814944377942
0.0
0.0
0.0
0.05098948716475797
0.0
0.0
0.0
0.0
-0.07045408337591504
0.0
-0.02840175049798073
-0.038044411773375815
-0.05199313635616135
-0.1162448032542347
0.0
0.06078324008153508
0.0
0.0
0.01677812504874018
0.0
0.0
-0.08509883135951811
0.06744388241755615
0.0
-0.06688536737776943
0.22388076149911357
0.0
0.03582411925343667
0.0
0.0
0.0
0.0
0.0
0.0
0.0
0.0
0.0
0.0
0.0
0.0
0.0
0.07216597074543972
0.0
0.0
0.0
0.0
-0.035529219872533685
0.0
-0.053387054654198504
0.0
-0.024653207888961526
-0.03732640698419089
0.0
0.017881314029508374
-0.02484585403188861
0.0
0.0
0.0
0.0
0.0
-0.1775259172740154
0.0
0.0
0.0
0.0
0.0961068748675594
-0.030382010540355768
0.0
-0.05319238165509506
0.0
0.0
0.0
0.0
-0.010926311949549903
0.1703465491824199
0.0
-0.0521603676899164
0.0
0.0
0.0
0.09341538755738091
0.0
0.2351279495912475
-0.03995016041578876
-0.02922435495380488
0.01607858225599931
0.045004051528396975
-0.026588738583840567
-0.062278056899778625
0.0
-0.09066287219944712
0.030650111297541062
0.0
0.0
0.0
0.0063929625754652886
0.11872052080925811
0.0
0.0
0.0
0.08544751179852425
0.04318835134253985
-0.07371907293737735
-0.13379412864105655
0.09265738796503004
0.06712321097526772
0.0
-0.040406062048218575
0.17192266152133057
-0.14682183834428125
-0.04026280063019365
-0.34242820646808464
0.0
0.0
0.0
-0.10784547976168884
0.0
0.06553546735090146
-0.06650452368390984
-0.017093012141769576
-0.04233733973300542
0.0
0.15707812626124557
0.07111889329558363
0.0
0.0
0.022292471645877696
0.0
0.0
0.0
0.0
0.10446275486046812
0.0
0.0
0.0640688789086587
0.0
0.0
0.0
0.0
-0.08474820132528774
0.04534289469717078
-0.1354535896221066
0.0
0.0
0.14825773314550084
-0.04834003291831177
0.0
0.0
0.0
0.0
0.0
-0.03279591652227478
0.0
0.009163383339278448
0.0
0.0
-0.06842114811727984
-0.053293544435938575
0.0
-0.05935447683025814
0.0
-0.004491497751131217
0.0
0.0
0.0
0.0
0.0
-0.18713100768468421
0.0
-0.04600121175825181
0.0
0.034029581328871066
0.0
0.0
0.0
0.0
0.0
-0.05029340131443987
0.0
0.0
0.0
0.0
0.0
0.0
-0.03889264574062324
0.0
0.0
0.0
0.0
0.0
0.0
0.0
-0.007349907852619387
0.0
0.0
0.0
0.0
0.03077750841857594
0.0
0.0
0.0
0.08597254175128337
0.0
0.0
0.0
-0.169826171002697
0.0
-0.04080368525724544
0.0
0.038693333499574434
-0.08738730833812224
0.06285654665226777
0.0
0.0
-0.031678431851846794
0.0
0.0
0.0
-0.08308514588561139
0.0
0.0
0.0
0.0
0.0
0.0
-0.06263569094571773
0.0
0.0016380188250393743
-0.044688447880310234
0.0
0.0
0.0
0.0
0.0
-0.012235136922234515
0.0
0.0
0.0
0.030715817420192075
-0.08382710333699085
-0.04287047925312994
0.0
0.0
0.2221146501161349
0.0
0.0
0.0
0.1152542636303925
0.11480699525788599
-0.06892973275617528
0.031937675649160696
-0.10466040429302023
0.036294160257719324
0.0
0.0
-0.10355880838788456
-0.026396334238676093
-0.0742725423621345
0.0
-0.00710872532181293
0.029582331790472365
0.0
0.0
0.0
0.0
0.02577909581403274
0.06796496413286025
-0.024215326017152344
0.0
0.03721727497674435
0.04054427420735377
0.0
-0.2064940722559257
0.0
0.0
0.0
0.0
0.0
0.10938981541365653
0.061386581505577804
0.0
0.04056884321463425
0.0
0.0
0.0
0.0
0.0
-0.08491791431191927
0.0
0.0
0.0
-0.09526931719834596
0.09172877528560476
0.0
0.0
-0.04243685757793865
0.0
0.0
0.0
0.0
0.009926152683609416
0.0
-0.048236807275038304
0.0
0.0
-0.03356356128474037
0.20589510049287169
0.0
0.0
0.0
0.0
0.05517508573784778
0.0
0.0
0.0
0.0
0.0
0.0
0.0
0.0
0.0
0.0
0.0
0.0
-0.038201885166630256
0.0
-0.07613064596308546
-0.03567740117679557
0.0
0.0864708011251017
0.08353713892735337
-0.016860712724036338
0.0
0.06850792709712089
0.0
0.1402020994657301
0.0
-0.05150432758173423
-0.10692644773791138
0.0
0.0
0.0
0.0
0.0009640885283552939
0.0
0.0
-0.16189651510334685
-0.00016862206691836852
0.014182328363979297
-0.1335389003703559
0.0
0.0
-0.16615612917427836
0.004277180157180961
0.08662673474961835
0.0
0.0
0.0
0.0
-0.026434642852460513
0.0
-0.11813568888899903
0.0
0.0
-0.12592843700779446
0.0
-0.0705822400939503
0.0
0.06040448450012885
0.0
0.0
0.0
0.0
-0.05885625768944944
-0.03557056841946535
0.0
0.13777178577254137
-0.09592182077570001
0.0
-0.052135551997997215
-0.046564903526195675
0.14086089995225692
0.0
0.0
0.004274165411871333
-0.2628540206915215
0.0
-0.09473714681436213
0.0017885717340719622
0.038014674444281985
0.0
0.0
-0.07613898572698302
-0.0053202702852646055
-0.11474323943305592
0.0
0.022250379574886382
0.0
-0.05213485333298594
0.09317279450970974
-0.16316451038387367
0.0
-0.07968639163622326
-0.05149722115545836
0.0
-0.04051657591969059
0.09874760906570985
-0.04635322589531895
0.1355484486211851
0.09468825194021843
0.027842365484929674
0.048784964757357024
0.1574356352457806
0.07432263476827924
-0.06561149275022499
0.0
0.10714638235817539
0.0
-0.20763414072483405
0.0
0.0
0.0
0.0012918008642304208
0.0
0.0
0.037181686742851536
0.0
0.0
0.15102916770759958
0.0
0.0
-0.062956408698806
0.0
-0.1745863032886179
0.0
0.015802740835140907
0.0
0.0
0.0
0.0
0.007114619591102961
0.0
0.10582181454373112
0.2464278426698692
0.0
0.013646144468177683
0.0
0.0059288748649130585
0.17553241301766337
0.0
0.0
0.050319318321777114
-0.12306670626757457
0.13354885273513717
0.0
0.0
-0.04750859564370601
0.09330994961777099
0.0
0.08497406428135862
0.0
-0.1408327631265226
-0.01080181146719832
0.0
-0.005107486390782868
-0.046444188369894786
0.0
-0.07023326614490251
-0.095954899760823
-0.022451086306310267
-0.06863240366063159
0.08203050708562373
-0.14526497692171972
-0.06580233092691011
0.0
0.0
0.0
0.0
0.0
0.05089699040056149
0.0
0.0
0.0
0.031066832421437613
0.0
0.0
0.0
0.0
0.0
-0.07270723511174976
0.0
0.0
0.0
0.0
0.0
0.0
0.0
0.0
0.0
0.0
0.0
0.0
0.0
0.0
0.0
0.0
0.0
0.0
0.0
-0.09489179944849088
0.0
0.0
0.0
0.0
0.03547400350085773
0.13362052491294088
0.0
0.0
0.0
-0.12322845628088507
0.0
0.0
0.0
0.006122426106287979
0.1652634822499883
0.017224844084614405
0.16588595063902256
0.0
-0.021375174076916578
0.0320620448238598
0.0
0.0
0.0
0.0
0.06694107062274951
-0.10457756177738117
0.25032645410120036
-0.12395723101701915
0.0
0.03168417735792813
0.1282925093276903
0.11651466886374164
-0.07507879912249907
-0.014981752999956592
-0.14524152157855338
-0.05727381636800478
0.06931553671557525
0.0
0.07075698709189428
-0.11042272817566641
-0.04587771821504781
-0.2127357550978414
-0.026264258710142672
0.0
0.02685526225798385
-0.023659222633902605
-0.10827702152708403
-0.07434102143360406
0.0
0.20360601190814726
0.17075492997383418
0.24532261422972076
0.0
-0.09792117056827172
-0.07881186129703956
-0.050099429099858886
-0.12532969162350913
-0.03864052158614878
0.1537053808097964
0.30225878952449875
0.0
0.010330737697976834
-0.13890397431524484
-0.07705923402404062
-0.015119097957211475
0.0
-0.09338740167431145
-0.01990613996737078
0.0906995759023679
0.06251735397761288
-0.042087037388138876
0.3088381894114755
-0.11735250678111386
-0.1807597366068086
0.0
0.006749454299089174
0.2246887654137552
-0.047571357157202385
0.3519152194404204
0.12953856752044957
0.0
-0.12655160497587276
-0.19673736303151051
-0.005948689626117623
0.3465455580685883
0.04044487497507153
-0.050261353789229954
0.06491469729738825
-0.0766297141127291
0.13007066454311939
-0.12194962114952482
0.0
0.0
-0.14045910097176437
-0.021371312459838837
-0.3795101310408208
0.0
0.16788387591095066
-0.07384486763477535
0.06791798140177444
-0.04075504166006502
-0.1427207000988445
-0.21110256413968695
0.0036753501855661015
-0.14873038475895284
0.147425489738171
0.2220987315723268
-0.019683170055133876
-0.014875397826417948
-0.10320135109931786
-0.0022993051177683244
0.0
0.0
0.24415061251314732
-0.04336015043939662
0.0
0.0
-0.014568567338071693
0.0
-0.17067697128340803
0.0
0.0
-0.024633114446911318
0.037241048783057555
0.0
0.0
0.0
0.0
0.0
0.0
0.0
0.0
0.0
0.0
0.0
0.0
-0.039878625340256886
-0.1638825454987268
0.0
0.1049926408980323
0.0
0.0
0.14696918967731337
0.0015109078415116901
0.0
0.0
0.0
0.0
0.0
0.19323206260781983
0.0
0.0
0.0
0.054260112733446046
0.0
0.0
-0.01637627760158808
0.0
-0.026465633906119158
-0.04656181046973588
0.04065274032158323
0.0
0.0
0.0
0.0
0.0
-0.143819289211531
0.0
0.05436800139515864
-0.1420380465181039
0.0
-0.09174008607931748
0.10381199484194863
0.0
0.0
-0.014389400335763747
-0.16817605581330655
0.0
-0.022869383302272436
0.19543700584529516
0.0
0.0
0.0
0.0
0.0
0.0
0.10885701397180846
0.0
0.0
0.03973258401262875
0.0
0.047669361207668556
-0.013735610459837205
0.0
0.055588063664448406
-0.01982215232365198
0.03784483733633101
0.06944842273287825
0.0
0.0
0.0
0.023780817883416763
0.12952409376003968
0.0
-0.0034187072832032174
0.02227519262076525
0.0
-0.10260626859458206
0.0
0.02433498232735719
0.0
-0.12128565382152529
0.0
0.0
0.0
0.0
0.0
0.0
0.0
0.0
0.0
0.05216209212391419
0.0
0.0
0.0
0.0
0.0
0.0
0.0
0.0680960719225309
0.0
0.016458558745841793
0.0
0.0
0.0
0.03447407571632944
0.0
0.01723494022130658
0.0
0.0
0.0
0.0
0.0
0.04655469890776231
0.0
-0.14663005737190746
0.0
0.0
0.0
0.0
0.0
0.0
-0.028923959361602948
-0.004191472191470691
0.044610198048341196
0.0
0.0
0.17892724830872253
0.0
0.0
0.0
-0.0629444871906895
0.0
0.0
0.0
0.0
0.0
0.0
0.0
-0.026529454284389114
0.0785959894835431
0.0
0.0
0.0
0.14711661968232215
0.04937487490586103
0.16561318960801963
0.0
0.09032821068653014
0.0
-0.03874080431591817
0.020939791447582543
0.04909132941788972
0.0
0.0
0.0
-0.23330745684397125
0.0
0.06252547979934071
0.07964309956892054
0.052087858425741075
-0.00936841880348672
0.05996238037270023
0.0
-0.0847218853731539
0.0
0.0
0.05435269404870047
0.0
0.0
0.0
-0.020591820412366565
0.0
0.10827669156368011
0.0
0.0
0.0
0.0
0.1296434388854165
0.0
0.0
0.11939399477810238
0.0
0.0
0.031514967045046575
-0.0412887108742999
0.0024633496301582555
-0.16324797292844842
0.0
0.0
0.024997697730888446
0.13076297762381278
0.0
0.0
0.12286908343794287
0.0
0.09876524537237621
0.026281158571749244
0.09184391533824589
0.0
0.0
0.0
-0.044991690728127955
0.0
0.0
0.0
-0.006051140127708569
0.0
-0.12030014569554395
0.0
0.0
0.0
0.04546533158427066
0.08518662104034076
0.0
0.12159469631356251
-0.038955904370867225
-0.011138274953847725
-0.008763248004363969
0.0
0.16666424656355727
0.13095807811877713
0.09029872768432314
-0.03669712102541206
0.0
-0.12097227059490001
0.015811847301798614
0.13960046785063657
0.007328961621305925
0.0
-0.014864295159853845
-0.07400768969288697
-0.0077397314249095656
-0.1835640825101223
-0.22032525285692967
-0.010982445155801532
0.0
0.0
-0.03911003430626329
0.1776149879003541
-0.04409139817855883
0.0
0.0
0.0
0.0
0.04230938368831705
0.0
0.012765687020763049
-0.005212575571893059
-0.005193928474089098
0.0
0.0
0.177412745170136
0.0
0.0
0.04289281764563933
0.0
0.13117893820500368
0.0
0.0
-0.11941246829026511
0.0
0.0
0.0
