-0.8517964117785712
0.16405215466144077
-0.2981853477817182
-0.6155600332091107
-0.9536537506232892
0.4450888331771985
0.6465200519198706
-0.4678143682486162
-0.6416362179393107
-0.7619728729986817
0.792534690249575
0.14366249565875977
-0.2567539467881428
0.2938935323577874
0.6813438516805723
0.7954200262538842
-0.45805588312748236
-0.11907981565895209
-0.27713201571866963
-0.23639898668211456
0.0
0.0
0.0
0.07036693784657248
0.0
0.0
0.0
0.0468122890190839
0.0
0.0
-0.25632337429602114
-0.36038738269056414
0.6268401494077078
-0.20708661872627143
0.13026525276441747
-0.8801046143232192
-0.1900424498262685
0.7743693753232881
-0.5591131180576352
0.7403001309857284
0.00034202057229859584
0.9010407659635293
0.5417128649932219
0.15079661373436837
0.01317224059846557
-0.9299955701341636
-0.34159429910077765
0.06126957660731292
-0.07446029135436905
-0.4556295993636743
0.11606769402170003
-0.5601727414083932
0.6280937958816228
0.37135142978258084
-0.057618514771556786
-0.8188651448078397
0.9996471619762588
-0.7911511858640756
0.21378096446248174
0.13548009646157633
0.0
0.0
0.182013027409867
0.0
-0.2027329221861967
0.021073228167885146
0.0
0.0
0.0
0.0
0.09358249313615634
0.0
0.0
0.0
0.0
0.0
0.0
0.0
0.0
0.0
0.0
0.0
0.0
0.0
0.0
-0.06309612256611268
0.0
0.00793933023479486
0.0
0.0
0.0
0.0
0.0
0.026554282055303607
0.0
0.0
-0.02367520277408791
0.0
0.0
0.0
-0.04262531845953846
0.0
0.0
0.0
0.0
0.0
0.07246404408549849
-0.05267837628044226
0.0
0.0
0.0
0.0
0.0
0.0
0.0
0.0
0.0
0.0
0.0
0.035148712876498164
-0.04196689141256771
-0.6457320988859884
-0.06450737580917809
-0.5508739684812933
0.5709764450357657
-0.6080087132448408
-0.6923477599752097
-0.886628862859356
0.7660603538666144
-0.2528882250161522
-0.8572172912954399
-0.6330147878774538
0.15271352586907438
0.3261104564750752
0.970872086727689
-0.730707802356779
-0.9229671948144063
-0.9910095928912463
0.15198694320546435
-0.2348366640907833
0.1624239192071859
-0.5119467968199966
0.40733166707303115
-0.273268075357181
-0.6188325884627028
0.4885008774620607
-0.6017798970899975
0.8365926971100655
-0.14996071082712126
0.8667814428275882
0.6849324451459455
0.7359887742587838
0.35164808180892204
-0.7559885129491235
0.5838843670752758
0.15025603165773302
-0.850428959537858
0.8760203346379039
0.5447669906745103
-0.20520720417857674
0.1791499192320578
-0.15432062645457112
-0.3046691557730974
0.8677399697112286
0.3775363482522278
-0.7123399158990698
-0.49777982414665467
0.5227986628390517
-0.45125087673069064
0.0761079073718649
0.8830774882336891
0.6492529039316028
-0.6670882970560499
0.7575102627867765
-0.960992975490067
0.9341706111488686
0.7997268791073469
0.0977199053546762
-0.04354252375929546
-0.7370669552864147
-0.971376813805636
-0.7952671260750331
-0.4294572142889257
0.2293115701289571
-0.5244620667443962
0.3241651118378275
0.1389674027161112
0.7581746445821023
-0.419671023872609
0.6370096074886082
0.3470339730770222
-0.2944913285448387
-0.8076967778104154
0.9920634151234894
-0.6687317265552324
-0.3476358958369923
0.05743331132780405
0.25628047383111463
0.10335232618931411
0.522055440675872
0.0
0.0
0.0
0.0
-0.17472230300574784
0.0
0.0
0.0
0.0
0.0
0.9297686796288318
-0.1541793369037916
0.8446281630741022
-0.8313348911357878
-0.9763296961378112
-0.14987963221732148
0.7414366543732669
-0.8030286320874911
0.9190120424753456
-0.4317967083346266
-0.10294426501698717
0.32456678438157294
0.1892922812873054
0.7478386359790903
0.805697953741648
0.21110680811197802
0.24743835518928603
0.06396452542417475
-0.08424201590735114
0.7729111862018552
0.8007656320805898
0.8122242708368128
-0.16570994288147434
0.6212516304911525
-0.8740562538734888
-0.6946626392092339
0.15370385362832306
-0.1387371365793033
0.5440448387777039
-0.6469059037027349
-0.9904345728146726
0.15858491519601747
0.5427568921723633
-0.9667318854788632
-0.8094172404486115
0.9314162067884202
-0.2805456056445077
0.44635747101530887
0.9891246477666975
0.38527677282964823
0.5415301459080506
-0.31574674889580656
0.1271553794805913
0.6283183582776306
-0.46320375002972836
0.5410878113714935
-0.6392436554557388
0.3295415473415981
-0.6159014219982066
-0.5604715749216342
-0.89100036270479
-0.41865847302751646
-0.8103203949936928
-0.49117254223259366
-0.26208197221625684
0.9538553036512423
0.634469304811697
0.5522444104364179
-0.47915047542551653
-0.9244377860116249
0.5757024922589395
0.16272741666576618
0.5596766645949425
-0.2327505545585269
-0.8315339029785189
0.2454432914623522
0.9026388191962509
-0.18800102887606407
-0.8847398860729181
-0.4866422112494555
0.8775722298034041
-0.08385121767104864
-0.43829283688425846
-0.9478443039848659
-0.4618617017960409
0.928124224848009
-0.548087925645915
0.2800944659963651
-0.10927577639841402
0.5512510920325251
-0.4600098144326943
0.6082158769344213
0.09784063238539886
-0.9717209746352165
-0.15889615765802612
0.8214117429916229
0.4138045817066536
0.1595589706457332
0.3542567388384694
0.24787882023181562
0.0
0.0
0.0
0.0
0.0
0.0
-0.060751661209734305
0.0
0.0
0.0
-0.08363712029043313
-0.2202272469571398
0.8156349933620173
-0.7700547134970175
-0.11156875354048101
-0.5141433073074424
0.8542452975363317
0.699518463642913
-0.8223098696083528
-0.34138687206987894
0.0
0.0
0.0
-0.07777289327866731
0.0
0.0
0.0
0.0
0.0
0.0
0.6975188822817255
-0.7753905257374751
0.006649622756018658
0.11132369455728974
-0.5385108021526492
0.7003945251998236
-0.7444024469960675
-0.638063689473624
0.16386792742272127
0.31994339146006423
-0.46603015891143773
0.027333411490795934
0.7481463108632505
-0.7290032774349502
-0.004352817168467249
0.831146280785261
-0.26298699156685434
-0.47642765749380467
0.3703192943692335
0.24582594538365155
0.07712705819218524
-0.3134463165592607
-0.9369884564234174
0.07585049598356508
0.39599894701138694
-0.3931006761065745
0.7086233228702281
-0.16788275039200307
-0.8261174301036789
-0.3717541793865209
0.07689053523030176
-0.28582270135995147
0.6242323510168515
-0.3471942655864151
-0.9239054849055597
-0.6997633414644793
0.24431908973546257
-0.44546267022326924
0.06300382592865672
-0.041262216227237136
-0.9934723939750114
-0.891609030560955
-0.7504478466607669
-0.9764514669492572
-0.6357316120706351
0.6422868560013113
0.2643023989688509
0.5213564206478956
-0.5339343078224086
0.23938677801935238
-0.26454176655793904
0.6660816964827985
-0.21913487481499952
-0.8705693290749151
-0.4597400037935486
0.6144661120277641
0.14071461548063247
-0.09062535350938816
0.9827346289302797
0.7289578911012691
0.12219022379222633
0.6283698590005673
-0.35320957332329384
0.7812338751898955
0.17748790012032134
-0.16120395872685633
-1.0084614444534854
-0.9476137722664075
0.46853175175262285
0.4200663615656097
0.4841792511893397
-0.6335681131792592
0.28396383241665485
-0.5783332043864622
0.011831671502707364
-0.8370112560877705
0.7826065549892178
-0.8155185284745254
0.10623877089093448
-0.3119370304871907
0.5082202442134045
-0.299562715990105
0.12482175029603337
-0.5965994604355824
0.4470314569086511
-0.4649144468434876
-0.2762885109177846
0.03280650693450182
-0.9444301279748375
-0.792440019596726
0.6253395902487942
0.34066039623962774
0.9223045732934922
-0.452338968301605
-0.660006150854554
-0.8666446460818844
-0.3644639204986421
0.3520759848830779
-0.34706150317618367
-0.005508712347535694
0.0
0.0
0.0
0.0
0.0
0.0
0.0
-0.07120639961918619
0.0
0.0
-0.29572372937236113
-0.49749360705795587
0.646072921669649
0.05182777087451185
0.2906603287929601
-0.3020425070128674
0.19115047836724774
0.455564539861264
0.6195295898707025
0.33019722655457595
0.0
0.0
0.0
0.0
0.0
0.0
0.0
-0.07059798883556845
0.0
0.0
-0.2494638973357064
0.8464418020406743
-0.4171803823426399
-0.961530510897397
0.14552790684967842
0.8752273095196212
0.7865711630733756
-0.022426085438405075
-0.15565674009619923
-0.905774712642204
0.10389534678941104
-0.4951419647761268
0.9629713356749015
-0.985319159095922
0.22476513932673647
0.7587028281057204
0.6644328658166296
0.6857558391539492
0.9334866547017262
-0.6677034587892094
0.08202246962506621
-0.409768156319241
-0.26720846361251116
-0.8555948081798113
0.8760194440437572
-0.7343867286878869
0.3894775668495376
-0.24854511472867236
-0.2027673136139756
0.11854127106346547
0.9516793511469723
-0.2982268542745605
0.07899273335225265
0.19995119625102054
0.3725527889628395
-0.4567708951974798
0.8934296445668022
-0.2802889421422141
-0.17415282142437571
-0.2238532868791461
0.505413723711428
0.09242471941574482
0.11414551689285757
0.7051500256532381
-0.009944192154089038
-0.726221064625973
-0.853991843725445
-0.7178075397311612
0.835080524630039
-0.0811795464976528
0.8463987999047229
0.08235832798157908
-0.036299483574701696
-0.8648096405951982
-0.028319824717061293
-0.9535125248528449
-0.17505141741642327
0.6452538150542011
0.15796267103116376
-0.1537034584649044
-0.06833162853584684
-0.3338723369727441
0.5863874852603141
0.6484327730166608
0.4381644809117373
0.697403916259727
0.20525538061554383
-0.6213151217555275
-0.4871711983219553
-0.5447605474532307
0.5661100572420195
-0.27719774936538366
0.7636839990126756
0.5073046852637804
-0.37830175006995237
-0.21787714185394536
0.8377557083483029
-0.1726473612048256
-0.5281282709338977
0.5295390948884688
-0.08341872678742157
-0.8293683461530761
-0.06878613364837372
-0.20190933663874203
0.23774577319505674
-0.7494784085832698
0.4437115494936753
0.09884156019143808
0.32278198010749676
-0.552065809659027
-0.29958343906282114
-0.4469660907390556
-0.2143953329261057
-0.21063399455454745
-0.045161434119478816
0.20362069884074496
-0.3550360924464997
0.829124946138369
-0.501155742706171
-0.478295357811116
0.11298602019554911
0.09396115101074999
0.0
-0.030649813026483414
0.0
0.0
0.0
0.0
0.0
0.0
-0.8406188853451302
0.8736430477056012
0.9719271455869467
-0.6256992418681779
0.12931206355602654
0.49669601994678714
-0.4552576958470984
0.7267383443144387
0.48731389098574196
-0.9822936286821762
0.09993815125569028
-0.657208478390217
-0.14718438099582998
0.7516344650643183
0.3726321055680277
0.828894561995211
-0.7385072557996031
-0.994634713527542
-0.9289334368380764
0.1897851733408733
0.0
0.0
-0.0647224618692444
0.0
0.0
0.0
0.03144614856043818
0.0
0.0
0.0
-0.6165061102672362
-0.3420949836279634
0.8245109829683925
0.6758204189800725
0.0204049121691825
0.49079710033290036
0.23560023896396864
-0.6745335277651114
-0.9175209543381613
0.5251095055205283
-0.7179547651932137
-0.22495368373586921
0.5482680899088259
-0.7474411475449853
0.7715036257334147
0.6932549236733645
0.1316252008102825
-0.1490372219049753
-0.7848914059194371
-0.6265436723257927
-0.6538643175471011
0.8611857500080689
0.2383900664455898
-0.47681957414177745
-0.5891248309349744
0.6481472196214986
0.12983719501211732
0.5081119776123268
0.15742880540886994
-0.5105905736964746
0.1819490601482192
0.7754423233627452
0.789296714759897
-0.35500232873120674
0.09579610197571387
0.594714176489398
0.9311691793585004
0.5105504414817355
0.6126840220409056
-0.5279521814814965
-0.29969382462426375
-0.998306393711814
0.950365880841977
-0.9538751499108249
0.11425360954164132
-0.004331600422435633
0.9351871999883803
-0.9206568394798387
-0.12341857591244709
-0.8515352618350074
-0.731839720601545
0.4532619330682084
0.0507315586372723
0.7427185410673924
-0.06700413720086101
0.319283815691207
0.9365149376458686
0.9871418839614876
-0.8113672350915142
-0.4367796172066394
0.0
0.08719418552561478
0.04836948914363062
0.0
0.0
-0.07066585632365453
0.0
0.09490481308383152
0.0
0.0
0.03872839882137513
0.999159951673676
-0.20938086287358693
0.24406164609037884
0.7385298891815482
0.17323185721257595
0.4677079170530651
0.012900344051458568
-0.1886853907044354
0.8395952321300391
0.25143332501359494
-0.6831458119998557
0.3479831482679132
-0.7726055191691179
0.08338374387181469
0.7999623490302616
0.474432788624255
-0.3640928203183922
-0.15406715400682922
-0.9534795157952967
0.6969019820332021
0.002163485802289644
0.3608938977146887
0.6406561280521847
0.11842009895743266
-0.9241079085125832
-0.4551295023745572
0.03607932926875512
0.7402026937738544
-0.6605333306108307
0.29054577593972564
-0.7694137984640377
0.7631609278892422
-0.770903800790283
0.16068084931098459
0.7734329672304592
0.023573346634887304
-0.3189185815366167
-0.4628457859188173
-0.7476801054826419
0.9616674830630907
-0.7242715768911212
0.4967005224217289
0.8282597844426887
-0.016313504504204213
-0.91711944082822
-0.1876598680338466
-0.34511108026248905
-0.6051587306060748
0.6496204951929307
0.1227727008929771
0.28456570425365735
0.20992875793707233
-0.843663549613801
-0.6224163208426621
-0.7158708022828639
0.1515845854342477
0.876788601558413
0.07820176445546469
-0.3292659896927794
0.05421867981269573
0.05020869564063389
0.0
-0.08369819593895081
0.0
0.03140380864961167
0.047113540934646994
0.0
0.0
0.0
-1.0788406604523681
-0.01609355238370369
0.8923065703937831
-0.49239183674832865
0.6898211034763619
0.44878005598163906
-0.9071548164467877
-0.925976079979157
0.9532830645262996
0.08935382740962061
0.0
0.0
0.010676938073855701
0.0
0.0
0.0
0.0
-0.08737016441436991
0.0
0.0
0.5774354805543263
-0.8133564504138333
-0.21930239505533547
0.04002796759555494
-0.028209006493620015
-0.7213763159420449
-0.8085055386964128
-0.06060925799306771
0.5391303975403279
0.24330696443780653
-0.22727073964423905
0.851962589157704
0.2848962630526253
0.5669618810702839
-0.40497490822529847
-0.3364806367397033
-0.7783976842453015
0.9959583114123898
-0.20067851309242157
0.7412267942439574
0.6589991268066404
0.9130905181419395
-0.994764323494685
-0.23623925276909707
0.10706126354215706
-0.6160258657547137
-0.798789204807498
-0.9698424555301886
-0.9413959716520457
-0.7329862633338171
0.8706289224044755
-0.7595143295169073
-0.9297366062040231
-0.3359065800025447
0.5504907530847125
-0.30831660917240966
-0.7558489948454876
0.9750966933340373
0.7374919922675052
-0.21748612759815544
0.0
0.0
0.0
0.0
0.0
0.0
0.0
0.0
0.0
0.0
-0.21617200195123357
-1.0391375361095352
-0.5964549994018356
-0.029822678073754494
-0.8699239082387273
-0.40153057179534235
0.3409279433720631
-0.08296638689153424
-0.31020946234386515
-0.40107782634841627
-0.5548961578215366
0.3369193374081878
-0.3524705639071988
-0.9744916856999075
0.6073675395521024
-0.5602739475692848
0.37965422715628216
0.06862061397288426
-0.001274334137866262
0.2440034981587474
0.4204701424983943
-0.8173734667261878
-0.8366402108908619
-0.3620846676995295
-0.3812104821918123
0.9589196683478294
0.8693847276980022
-0.4411891691860925
0.27817802989285734
-0.9314980111938549
0.0
0.0
0.0
0.016214317664326926
-0.015080735604129756
0.0
0.0
0.0
0.0
0.0
0.46318196365182174
-0.5324165370746454
0.9199671668236271
-0.7191900581987474
-0.587155398812929
0.899673036008009
-0.9419486512427049
0.5470762886172028
0.7317398513977783
0.7916412643196096
0.9897118946515855
-0.8646431111079805
0.02584583785144101
-0.35726824423208403
-0.5441011769607909
0.9621406971552351
-1.0729769092244745
-0.615041402740313
0.27239468823328594
-0.33111184622811507
0.06442269603552808
0.8856427412899337
-0.6059633464038507
0.1696557102690932
-0.7999367575042688
-0.31708760661700874
0.3031249803174141
-0.18057448321614605
-0.41414427935851417
-0.328681550425715
0.5394185284382891
0.08802914629927439
0.30874254915692445
-0.49435853903140314
0.2704743317797156
-0.6900438473675043
0.08364619644982207
0.8896128362905695
0.5027295355479897
0.4596475009840659
-0.5185097036915682
-0.5637028276176835
-0.4747207521579935
-0.18074222192499123
0.2280673751086435
-0.1865092246637805
0.5981219645039975
0.26506673664078106
0.3077018633790034
0.8544498233505877
0.0
0.0
0.0
0.06782972552606278
0.0
0.0
0.06255219441726792
0.0
0.0
0.0
-0.36672255215903893
-0.9369711896202246
-0.8557688526932667
0.9415725050295773
0.5789919509625286
-0.8232279306914225
0.03935126604036676
0.9960726336068986
0.46163351749171233
0.07872527977437804
0.0
0.0
-0.03184145399924399
0.0
-0.05289638324428362
0.03287710755476385
-0.007848434375802276
0.0
0.0
0.0
0.5811287877118374
-0.9988628710547423
0.8832028013209514
-0.5608239152753023
-0.760314205370314
0.3170493342788654
-0.7546068386882148
0.902744514283883
0.7341135477178793
0.036988961443920054
0.0
0.0
-0.025627466441376767
0.0
0.0
0.0
-0.01909177469006312
0.0
0.0
0.0
-0.7177424092272349
0.42509295552528825
-0.2201721137485393
0.8346615575093117
-0.402117490848628
0.11479307551337103
-0.13223008976232453
0.2609242828737469
-0.7801035423111351
-0.5409954402047854
0.7027229244961466
0.15547108004463683
-0.3852666983352464
-0.13320459407577379
-0.21757135041068532
-0.6117945966783345
-0.485250101665603
0.7726600792229994
-0.45546840139696537
0.985794228543381
-0.4359068630123337
-0.44070948703053237
-0.5124655655197987
-0.8456663515875413
-0.907200727671607
-0.5445613017870787
0.7438252324610877
0.32266207091959775
-0.3320890219364483
-0.5965458616411705
-0.5945376503152868
0.03566047294527541
0.34482897945036184
-0.7987372930880046
-0.9667987408813548
0.6303867124501839
0.5767089095772175
0.16904728704671013
-0.33879165381578513
0.6546390916459726
0.0
0.0
0.02785695065246105
0.012609899026349463
0.0
0.0
0.0
-0.005225374549090406
0.0
-0.13344236663738637
0.4182246522777149
-0.5161127407837243
0.003816761028260899
0.3306899850159759
-0.9687559614892898
-0.12651058963218195
-0.30594538213576383
-0.41992648212757633
0.6225053356596455
0.6358085246000944
0.0
0.0
0.0
0.0918471438388361
0.0
0.0
0.0
0.0
0.0
0.0
-0.49278073007079204
-0.07173173387833748
0.7631372105255969
0.6744963904809658
0.8207545474504343
0.10275217335466685
0.4618758159754772
-0.09308760140236494
-0.01892176515010191
0.13668620715336788
-0.5806787889773868
0.7155413845155653
-0.3090147661689886
-0.09923984020325283
-0.5278548683329571
0.343243887026774
0.5560536798932625
0.0523510124522133
-0.6036422987330577
-0.49228054843125024
-0.2684967220234382
0.3534118203155827
0.4747723617175341
1.0233494346845535
-0.15599101920916425
-0.9211542787331619
-0.49456360878473293
0.8476696570468012
-0.3665935969127503
-0.240329287909818
-0.037780920873432544
0.4087255613735461
0.7866165638113147
-0.6879289932020085
-0.6874745325150402
-0.6723739395845496
-0.040514081079221276
0.6053326784863331
-0.840039338206076
0.32120162465636515
0.058353704241041325
0.0
0.0
-0.03941626847057617
0.0
0.0
-0.004045272085003608
0.0
0.0
0.0
-0.5505046968563232
-0.6156072652415512
0.8705847211043634
0.8712394710877875
0.2178020000539862
0.583441189971674
-0.7116691317270574
0.1256228638207693
-0.8432826890812144
0.542158628163601
0.0
0.0
0.0
-0.053999807350450554
0.0
-0.0704717528093908
-0.15976656410746692
0.0
0.0
0.0
-0.9479889891727054
-0.6778920385091955
0.4019150525484383
0.10898141826446328
0.5538254058087737
0.685143299905761
-0.657548594919894
-0.7162928407731313
0.6070546506565547
0.8874971226193722
-0.15283954952098888
-0.16870538811595281
0.9700520973294253
-0.390930392132937
0.048931156119322194
-0.16332098660814975
-0.19665558772283265
0.058719038515496536
0.184946468510363
-0.6544391135791423
-0.014289273349679554
-0.6420650125246086
0.09685998257380746
-0.5285490038850649
-0.1840123963261231
-0.7587214894268857
0.6360897399702501
0.07513125494889428
0.4485636379411499
-0.887856094380433
-0.33604960011999463
-0.6094391205590757
0.3024123843611919
0.9489255374680852
0.40164946217948616
-0.9775242500311976
0.3999512940592844
0.9464573935986256
0.8062107358917967
-0.8040538972593516
0.03227573566742148
-0.4792069925481588
-0.29755101264041794
-0.9854784657535209
0.019127454816196154
0.6784824480216904
0.5124514543207404
-0.5481875266742249
0.07595300987137121
-0.750057853940229
-0.33239484918169193
-0.18290661269049435
-0.8329852680169831
-0.6991549009581566
-0.21378726949899574
-0.2673994225145544
-0.9201249855130214
-0.01952820404062261
-0.17417740434363846
-0.2960967643753267
-0.8154469446525154
0.871524923598765
0.2378507634286795
-0.8085807020815656
0.8772011517226501
0.5832714940994059
-0.49895353497747563
-0.7860434419822326
0.4162053098488714
0.4474957064183043
-0.33405837805791283
0.057764120023387155
-0.8364116520865341
-0.4345226172366097
0.5687449617202571
0.370728318818508
0.1281973046338376
-0.24572344181586106
-0.3005108139285835
-0.03921707284582965
-0.6590032528850929
-0.9372060743488708
-0.640323517632124
-0.5277643031969568
-0.8996449689770403
0.7625647312499169
-0.18307473460562784
0.5625585962676036
0.08830745685364239
0.7640431297691843
0.15598347784530286
-0.9035831345779743
-0.6856142987409966
0.8189060787925988
0.4060001416797514
0.3355175612602648
-0.9569347081058117
0.043376689593425555
-0.9270215293855258
-0.04630538924880412
-0.795227212343306
-0.7693445247842732
-0.802415679779171
-0.37019805706548636
0.00785939398321811
-0.3535136443376121
-0.908668926776568
-0.6543141880363346
0.9451255715479026
0.8494222130041804
0.41347364709518575
-1.0331308909981023
-0.1814634034963094
0.3003367650126658
0.05564802284099531
-0.7993205311055818
0.8386592905575545
0.7060057508892075
0.18890924520004973
-0.7530989478989052
-0.6548222060315948
0.8233624007932536
0.8876820384088568
-0.745724763472241
-0.6985096546756182
-0.8272390654112228
0.11317801869921312
-0.5014216397564526
0.5222221889637344
0.4807744054476988
0.34825648079905247
-0.10411090343305363
-0.9645437573117317
-0.5766068642841649
-0.6704309474844488
-0.015690538337864934
-0.5066005213435554
0.5035107959458178
0.7435820574581842
0.9171366684181121
-0.534898342052186
-0.049628802734190014
0.6258320227481207
0.9049034262701321
0.7380502616278459
0.7944289409214571
-0.6463476299594699
0.20882353204958032
-0.9233808316628309
-0.9019716926690962
0.15051244769130712
-0.8230325986639873
-0.8754682491738939
0.10287673495816718
-0.6771239429617579
-0.29677813183480706
0.16966880277564855
-0.35937338904551464
0.22291718325882792
-0.2218906541407597
0.02623344819047012
0.9821004737959436
-0.650288311871092
0.9376319506161592
-0.7949265371890779
0.6462947508645704
0.3929591528155725
0.44678922471559424
-0.5694534932510615
0.24377437659772538
0.20792080267030544
0.5264823667239305
0.8495032104729032
-0.4229852848381237
-0.11347613536560397
0.24402671170614476
-0.23050455540370995
0.5214151666234843
0.4060413716038851
0.7936566218252921
-0.687064865497699
-0.4707943448268679
-0.8700666858539521
0.5473212230286923
-0.37949529764289236
-0.28887163619759715
0.12992907600045034
0.26650888936438455
-0.14884875175795634
-0.40332484810239455
0.23481240522357427
0.988499765418932
0.13073787071064502
0.12979125463719243
0.8359805271003196
-0.29598311182106074
-0.18472551082043864
-0.6956558338143501
0.02029496752840365
-0.29285895459265987
0.0
0.0
0.0
0.0
0.0
-0.09801937979409311
0.0
0.0
0.0
0.0
0.7125029594398473
-0.10811380366264745
0.08380842191668103
-0.019404119778894335
-0.012171154684203156
0.556302430060425
0.7451361773886167
-0.9876643422100697
-0.647466840219624
0.9659701060975265
0.46865486972583015
0.3629374862219443
-0.5482410432590745
0.7781669335484025
0.41330665905919783
0.9626025937299691
0.13440201265352192
-0.4131268546611626
-0.351652344569652
0.03040566696092628
-0.9852614193796227
-0.623684317460041
-0.2954385089763216
-0.7791629165729286
-0.23958661675075432
-0.19996368911846085
-0.7563525429558073
0.6545009121174565
-0.509698359569603
-0.3546177154362671
0.967281707650832
-0.18119610858099633
0.245174796624112
0.6504259048611822
-0.23007122970757488
-0.747184464567525
0.052922225310777726
-0.8434065437751224
-0.22147766917427703
-0.4211818888473431
-0.6578079307483513
0.6177219992489433
-0.6977142617783276
-0.07038556451071543
0.015588357306795642
0.41711091349005125
-0.6645327879515892
-0.791829653355536
-0.2813441651027082
-0.626678666307656
-0.3906326342878512
0.0618881476552106
0.20722515299994004
-0.1044739131296295
0.644609558271547
-0.5286119761377909
0.9432744515563718
0.747612922730076
0.003787932508863223
0.43458397860351106
0.23916834586370594
0.02730599467517747
0.034373714371890074
0.6719300334967211
0.5803133896743717
-0.7760361869445926
-0.5386373990763753
-0.27041341241441375
-0.11421413705956507
0.17184624993831285
0.6289055303048638
0.5138220769922222
-0.591424150330891
0.5864754331205503
0.7848518294690756
-0.9679117761666562
0.9022150632726482
0.33523172306218507
-0.12808156894827039
-0.01555272733355384
-0.2365972836715997
-0.6733141182904816
-0.6968795131013645
-0.26565389518634586
-0.9888559136938448
-0.46461380933405483
0.11718227030974337
0.6334733321665534
-0.30509941351885356
-0.17473700673587556
-0.1379734426960748
-0.0035271996977821463
0.20753583134876782
0.5079480093729893
-0.3997715497231363
-0.800892442205536
-0.6532938864500208
0.3409918299674164
0.4967965011502469
-0.970316778274946
0.14938395069164906
0.5415795957410763
-0.5346507541703762
0.724601420198806
-0.2921380502250548
0.7982090539849689
0.6824301755044084
-0.4329102486869103
0.7434794276574845
0.22071508247097338
-0.9079128110207504
0.9558112414384713
0.60747248116064
0.35560624393731577
0.09076362657697624
0.48155569937113096
-0.4108895045216896
0.12362000654115213
0.3352010497417861
0.43316250848527815
0.3692881959830996
0.16102507706612612
0.18013609947730647
0.31762742817131673
0.4582075626883866
0.7051898478750191
-0.37496677808392653
0.08945423586990553
0.891082148587435
0.5962560853867229
-0.7869686663386277
-0.18477980779479708
0.497438818513281
0.6756580969194539
0.4005027928342235
-0.9641038781135285
-0.6483824340767395
-0.9165971715818138
-0.5985054709345397
0.6400289295421013
-0.45994647659715393
0.9672627824332185
-0.9335361827057991
0.29059588459293684
-0.6648512167648966
-0.34402951827439066
0.9589561717775217
-0.6621907335029342
-0.577065393494526
0.158297143834901
0.41818111926933976
0.6163754939758517
0.9185526127686496
-0.20228426656369525
-0.7680915452301662
-0.5939885523765287
0.6726646090853374
0.09336697856561105
0.7120885326880821
-0.8833456872109424
0.018235396312891394
-0.5205688745359811
-0.34235882652309674
-0.0694142034855254
0.25083500268209735
0.13251656751773755
0.9931610329295366
-0.27482461540234127
-1.0303174273844597
-0.5777973316329826
-0.5150576262313247
0.6586829318309608
-0.23778555102197396
0.8597335200276974
-0.18424795947981498
-0.43007591601544504
-0.09311457152986735
0.22366797260614746
-0.45819386734503453
-0.8892844153317945
0.35235404333095355
0.37374974721149945
0.8710660928191973
0.5284258094555434
0.17762402810492173
-0.08688049331951953
0.2185310271039851
-0.94988446248525
0.17432888767299626
0.11738379170244806
0.09524265604976478
-0.22422590536185366
-0.8019773488901725
0.46179594983227323
0.6142619465008214
0.4392298405061972
0.39517254576369076
0.3055135418961408
-0.7296322918527125
-0.5503417306986775
-0.5765091438324548
-0.33929930708985645
-0.9580883562644882
-0.2897832922870025
-0.2010775532543061
0.23726806372687714
-0.7619375656501355
-0.1279314258591702
0.9595659211771594
-0.12609398246097414
0.0
0.015720458494413506
0.026640302553637567
0.0
0.0
0.0
0.0
0.0
0.0
0.0
-0.057153587814605666
0.5616782655368115
-0.7168211828313762
0.6814665518748582
0.6447485131970312
-0.31169241056181085
0.45995459309345477
0.9915036625769771
-0.780484124244105
-0.7545119781727285
0.0
0.08304184027210378
0.0
0.0029206256832726976
0.0
0.0
0.0
0.0
0.0
0.0
-0.5526408547612769
0.09922000880540138
-0.4831702249751204
-0.05400496053602244
0.05247759954525333
0.5066520660957339
0.2055645544753757
0.6447317543279201
-0.5709941232685201
0.6116113770186533
0.787211482719306
0.4139273194088946
0.31007721270996735
-0.7920476150113178
0.7710709327691829
-0.22589528928283964
0.6226984573353236
-0.12206864026151676
0.41794948009368293
-0.1007426790899324
-0.9592195314359646
0.7175517220801895
-0.4319980969459918
-0.6970224212200342
-0.19946559099740907
0.8878531252327182
0.6027099533491422
0.9059651927554897
0.1385003853081808
-0.9784857667067914
-0.0920046315536691
0.0
0.0
0.0
0.0
0.0
0.0
0.0
0.0
0.0
0.4948663210639501
-0.38912983106674925
0.9468359750116544
-0.886907735361764
0.9315113688287051
0.41956321235418104
-0.3412608116503313
0.7031310196347469
0.2592874314330862
-0.9196878361256844
-0.7379620139498466
0.4433491003220347
0.7643387423907433
0.6411973106541173
0.17867524955458935
-0.6883414078159171
0.7460371613794481
-0.9767245914998677
-0.985213586330328
-0.9060378077604141
0.217610372395052
-0.3936819224307091
-0.28401912732166207
0.9265634003658008
0.18585825660208388
-0.005061693252127908
0.8419291361058199
1.0614876877679114
-0.09272345026774587
0.7058492115557495
-0.8641721399326592
-0.9340596309867406
-0.8053013188470395
0.04086882550818638
0.6403457885466699
0.8960214819464312
0.9819385288328553
-0.554673638750085
-0.2595035409161881
0.15674635384293098
-0.2357337359179501
0.9165299939783764
-0.6106955877023954
-0.5304701528295988
0.5209275065915626
0.11145871736604285
0.7974125319886941
-0.392543898084871
-0.1753596402634936
0.37429968465853825
0.0
0.0
0.0
0.0
0.0734641777160618
0.017062309566782317
0.0
0.0
0.044061231205918754
0.0
0.7003785323269973
0.7414141827878082
0.49572828528457213
0.9192659779505705
-0.6169894738246509
-0.6868921094117059
0.1815347632982216
-0.2410502301637376
-0.3479671834912761
-0.38671838225866056
-0.8336188071015223
-0.9486792444047123
0.8741267946306257
-0.6709777560771825
-0.009745749151917726
0.34323409870491495
0.5389200924736741
0.19889360975567438
0.09620341036264168
0.7299944075218514
-0.4080701151239725
-0.06217709322564868
-0.1815443446081455
-0.980643296630378
-0.2545944318949465
0.9808799400260788
-0.7069885005774108
0.9889963124672387
-0.9978094975996274
0.0008486560771823193
0.0
0.0
0.0
0.0
0.0
0.0
0.0
0.07949293533930342
0.0
-0.10003808679456318
0.2845188252335802
0.608142687827905
-0.5456023831437009
-0.30366270432235276
-0.9976363149645955
-0.9367304774984606
0.12778902814743165
0.10290787447489147
-0.808820168210032
-0.7287561828294207
-0.42824033444338094
-0.05519484014184057
-0.06930282152092393
0.13299455451438807
0.5744313486138513
0.9560702305249482
-0.4908237852291689
0.7513469225406991
0.25798459229753967
0.03422865613106431
-0.12060951032958234
0.904067155044374
-0.8072920898701049
-0.19064540679480912
-0.5708137101614379
-0.7032797252588432
-0.8284453052550322
-0.8545646875277219
0.6883660334729476
-0.46968665450867136
0.4191273216419735
0.5706407108312914
0.5964852419622204
-0.17692865252450662
-0.41768659500371763
0.8459219347330109
-0.45867173553351465
0.026100475221059113
0.03734039061448735
-0.4264305169862497
-0.44480062722873215
-0.7361420818048736
0.6490291026204564
0.37701434236982445
0.2648574076056063
-0.08452197931520877
-0.6348992364684274
0.8522496453741997
-0.30511968624120667
0.4501786028203061
0.5563777903798035
0.7830259462780473
0.22457081152082137
-0.5532377678766576
-0.14660367737440544
-0.312787656064208
0.9522253553316755
-0.4251553100290859
-0.7047566478507787
-0.8270093682641533
-0.5734320756674243
0.16606434967777206
-0.14667320300642772
-0.39449112102894135
0.8424677854247797
0.5853476683249685
0.8936597517991784
-0.47982592846458316
0.4300873815965762
0.5855273977161026
-0.22052140239816298
0.7414617544207076
0.9087594636455176
0.9583721485923322
0.8143846654285023
0.36030626660031273
0.6025305168798492
-0.5676661581612701
0.9676929158549659
-0.4834477019160841
0.0
0.0
0.0
0.0
0.0
0.0
0.0
0.026228802302560143
0.0
0.0
-0.8282675819137102
0.0364316232992401
-0.5983646626413648
-0.6363363463072589
0.10738812586310481
0.7129871104974745
0.30953371108638383
0.5186148224936491
-0.6515052921317732
-0.0728243314234831
0.0
0.0
-0.062481671505148065
0.0
0.0
0.0
0.0
0.0
0.0
-0.0329086063223167
-0.1414446780241752
-0.08901415152020165
0.27831804801216675
-0.9679171016919192
0.4202174186553409
0.5118536025685527
0.6484503256300556
0.24456103167313126
0.30775191464959195
-0.8427272844979294
0.05084719620406064
0.743087381438311
-0.5450166788916719
0.4225800365875967
0.4961111241224798
0.4025679533031139
-0.41974925001593316
-0.172400866118678
-0.5714753781997628
-0.042270221608672554
0.8656341529446712
-0.16473720541403014
0.7494494885245588
0.740315842735709
-0.5812239875805243
-0.4327961283055559
0.6316731605793471
-0.3229267691302795
-0.5765242558057952
-0.48782733033149484
-0.6036415379606985
-0.24306969866458616
0.12395495924197508
-0.7208762714474433
-0.2518383205697967
0.5610378117561532
-0.11884105928438604
0.3789844924982684
-0.23579637012303167
0.0802026662606683
0.6570715365004942
-0.8581782918812288
0.30173184782732615
0.2315113376653517
-0.8699335263764716
-0.5699705190841295
-0.773928808109702
0.21457112194051997
-0.8904801014858758
0.2719647236835525
-0.13423252310670342
0.3527592532674062
0.17074603981845238
0.538890852836631
0.24216073023285056
-0.40363151210373927
-0.9750508576872772
-0.46405446003608564
-0.8168010587749097
0.23927894932874216
-0.21237327954108176
0.4238191460042511
0.34201012689118127
-0.6401488460254456
0.912695720438705
0.27258845008205657
-0.6547316307691278
0.17296664487616398
-0.5535635169314868
-0.14576976352223892
-0.3711640741104294
-0.7698587048247918
0.8602558836281904
0.8798775421641274
0.3643909538534815
-0.21543656570281855
-0.01376553103856315
-0.3027408857988918
-0.7741618697551722
-0.45380883319749654
-0.4036549871228512
-0.8308961976270495
0.11100971584314645
-0.31318341260863525
-0.8727884940668891
0.05257459363438449
-0.6056817826116194
0.14105731047741912
0.8502250514907286
-0.81503872751859
0.0
0.0
0.0
0.0
0.0
0.027853484242126973
0.0
0.0
0.0
0.0
-0.886568457136433
-0.6742638365737064
0.7485227531782883
0.6538274607576451
-0.9167378558757566
-0.927579388637999
-0.93288640292043
0.5076157383813433
0.9719912453870878
0.974968904587167
-0.6343816695146538
-0.6514124613225525
-0.7034468673811436
-0.4359312551847552
-0.7576260880691132
0.6723098054551853
0.5517912635795184
-0.5609949297986463
0.20175014864998753
0.1095331645648161
-0.016924522177651845
0.0
0.0
-0.030739391876162425
0.0
0.0
0.0
0.0
-0.07050070892086685
0.0
0.3622778887743544
0.6858407289780573
-0.5151165673512439
-0.7660836767419339
-0.5272864908116301
0.8408556393663624
-0.10348944410046412
-0.5759141492289301
-0.6800532633947878
0.8042015340063764
0.0
0.0
0.0
0.0
0.0
0.0
0.0
0.009691963757331968
0.03754660030273234
0.0
-0.4057063102497971
-0.4246013698434987
-0.5368308739675229
-0.45152655289306254
0.5158087663419495
0.9178558451342465
0.7102189811017552
0.3071743767576235
0.5096991862478779
0.6626473807255839
-0.7116965189779769
0.8696314580673867
0.3521134253806426
-0.3994014078491418
0.6601335036740545
0.22228033815239234
0.7058433432933799
-0.7158320566460286
-0.4784225349390334
0.9430946260622111
-0.4196208707553757
-0.553405320297883
-0.645360220149833
0.7421769896505452
0.5338206079082015
0.8082707093568451
-0.14826916035656135
0.9226803663061385
0.4955653491404566
-0.10913692172133449
-0.20911569733391744
0.8878240665803943
0.5066835859526518
-0.5343539070698646
0.3313217939923909
0.7803637670162593
0.15058282924186983
-0.5644617435241088
-0.7771011989019967
-0.005594336371991249
0.3311287339868052
0.9267279493341756
-0.3695802256271217
-0.3705250151726831
0.1513515284444742
0.3515538770105475
-0.7467471939097521
-0.2977632110227446
-0.1474209375892226
0.0874878479897272
0.8851929751258082
-0.5948664141363424
-0.6859387245276378
0.019615547491721008
0.7551385819976908
-0.17857667538005217
0.989761545388897
-0.3197043272962732
0.9573543147946946
0.6393033648078689
-0.15768986474842123
-0.2716374735306124
-0.6751964920900759
-0.8920798285356188
0.10739484602921401
-0.7473168449176657
0.8086637880759562
-0.6692132727695974
-0.9511575566340442
-0.2693097887496887
-0.36061936509601655
-0.6028144428793893
0.8972096598317649
-0.9186357503547267
-0.46768100702837234
0.5589663225852028
0.25479074700340476
-0.8012366616796331
-0.9573475404100984
-0.4474444047734709
-0.13068012358656067
-0.1928330317470175
0.7679174614661148
0.08965284379043559
-0.23683786963106956
-0.1359978023796038
0.9324126993789394
0.35944672169508496
-0.3296250998166572
-0.5760271455970223
-0.45052884758217115
-0.2251903140144753
0.1628448606943016
0.9381366029140905
0.7019643366423498
0.1520542451105057
0.914983970342284
-0.2813896450778223
0.09338429330010256
0.12585598560483868
-0.5816746470531045
0.4582890619575062
-0.36822360029685774
-0.7990288915874568
0.9093524500461099
-0.1240827330059886
0.7014131433602604
0.7282258997741611
0.3746795591675167
0.2695281105854459
-0.061588692761106234
0.3839052543020649
-0.2889218556120279
0.9867802786108788
-0.5250869406115428
0.8776213500836483
0.4345785168226819
-0.3917431591037528
-0.6271218912777401
0.5821252296205721
-0.23644286608128962
0.667517253774953
0.08955099502844677
-0.08546907604603438
0.7937548396129055
0.2011965574197756
-0.6742467944345856
-0.34561111979091375
0.38366885996960565
0.19586277665617668
-0.6379826450781376
-0.8157181608588204
0.4304587323084892
-0.9011471909092217
-0.6578378404102849
-0.3824698964293156
-0.4186719699086596
0.020278243332870094
0.806211358458393
-0.015135403924664281
-0.9535826471400854
-0.052074878371549005
-0.2226510549056278
0.49331128273332325
0.24744769659612698
-0.5570912277277991
-0.1673642130712032
-0.5566407531513551
0.8221830465575741
-0.10318594668755998
-0.9595950467536185
0.7100300016655963
0.15206582074977448
-0.9161011502444525
-0.5895700173426834
0.19609519426251604
-0.48996168052734346
0.9286741825148397
-0.5434276002052669
0.7265841063776743
-0.1127371226670113
-0.4432198598892614
0.780314434665168
-0.03376780078728303
-0.9014412232001392
-0.38019273515139607
0.13482855090679724
0.890192043995958
-0.775434451097293
-0.6042238103954176
-0.6754234690819285
-0.6445388115040381
-0.8409925536981653
0.04077784778344684
0.5671955770483543
0.13903955334472662
-0.5004739908519866
-0.9039574753173558
0.8684494084406249
0.3048104710252213
-0.16876491429387475
-0.9846476335597676
-0.12474461603937104
0.4195591240393932
-0.3201925084321484
-0.2431648107025719
0.2978579262076546
0.9056875074338189
0.600261718508493
-0.38688819487543213
0.6592684988109454
-0.38113092505770685
0.36777991964691203
-0.36303860693921797
-0.8061066278998414
0.6511662291783993
-0.7909275136634129
0.04290501201104924
0.6553650642742983
0.5314858614144895
-0.10234628544089874
0.6514762254779849
0.31268515451529355
-0.8958339549275536
0.40725642718120647
-0.8013974220528275
-0.7482987084591723
-0.6994795259674849
0.9685332280942665
-0.5860320252734001
0.0
0.0
-0.00262624775920146
0.0
0.0
0.10235870687248903
0.0
0.0
0.0
0.0
-0.09376961048542798
0.18644062308419018
0.21636297757523912
0.3796192829526691
0.9304809727526548
0.6837278918630381
0.24631176895671691
0.028573475060396758
0.7716972935029816
0.5222851855565012
-0.16173708237099738
-0.9135544263878863
0.34427987842136876
0.23868266496033108
-0.40552427546708647
0.9665066024126059
0.6320009021124673
-0.8120640312437408
0.5589357099443832
-0.24006360735837623
0.0
0.05414932201583512
-0.027525384102726626
0.0
0.0
0.0
0.0
0.0
0.0
-0.01646697960918393
-0.40338301570600965
0.5309903497353188
-0.8771437882680162
-0.31013446157478497
-0.7315652987192074
0.5050575097207315
0.35983795750563274
-0.26464500813892733
-0.6495047980916568
-0.11859087993139387
0.061712863200295676
-0.9916012860038949
-0.20222150885456375
0.19009861129670494
0.4585724480544726
0.25855789136465
-0.3500896724875098
-0.0029395740955682204
0.8726311726095715
-0.10446989286720854
-0.9910274234152587
0.6823983599773753
0.955353221726992
0.81383267116908
-0.7029366361456746
-0.9789958591631907
-0.9169903443242451
-0.7646443169246739
0.9244032326802112
0.7435642592889156
0.141387139430293
-0.9724020994788647
-0.8033463198333972
0.35598242247972633
0.4714001470525868
-0.8377385214717302
-0.6679691804726573
-0.29304594264820727
-0.845761259574539
-0.4630667088611764
-0.10441388232901887
-0.22110344914948787
0.6118762852997939
1.0013530753054367
0.9564112748617404
-0.8955673646278555
-0.5224393986191573
0.04121408982510766
0.38666316896618264
0.8687414006724212
-0.9558518968906555
0.7613506185417717
-0.7297405127756931
-0.3626366845438419
-0.9624984296607406
-0.28416242442099615
0.48555173254807427
-0.8554044057896959
-0.4271867330246277
-0.5709267992289433
-0.61585942181846
-0.5276790779169804
-0.5494910537727162
0.2928162917491206
0.049881996442841636
-0.17903474748068415
0.6180269029808747
0.9955748497800652
0.5810647074301285
-0.09231573188930087
0.12050922332069303
-0.7049672809706794
-0.9095169092453079
-0.09094642045312273
-0.12646622873889024
-0.3359764682067661
-0.6818995719707135
-0.06468117859470346
0.1263323364899696
0.9393798873191326
-0.5952122650427347
-0.018719352717397886
0.7064690052561393
0.7001306872912525
0.04886786816652311
0.4434522796872271
-0.11641585869137505
-0.43705612811940153
0.11200715468850198
0.38706931766313235
-1.0247617502600461
0.012429034531729
0.31762556502122274
-0.9005801969741971
-0.8457304924470472
0.6179712296601743
-0.8417054659198235
-0.2839973118035589
-0.4773171543169128
0.7864540553166779
0.4826133996097641
-0.5451151571986961
0.6703192038767158
0.14640304264680326
-0.8121715457657344
0.4162467469410476
-0.05970435897131625
-0.5906893732721796
-0.8292111246531149
-0.0640989366636997
-0.6557456500455312
-0.45662509600659984
0.8140237121361551
-0.9191022496395665
0.723514113050066
0.40306986073326323
0.5100094976003995
0.0326997060306613
-0.3907556833668857
0.7171947619472099
0.0
0.0
0.0
0.0
0.0
0.0
0.0
0.0
0.0
0.0
0.4176007729759701
0.2722588048389303
0.4809541209377808
-0.7964587602832158
-0.10564949056864315
0.7126265601668447
0.6093626108465453
-0.4641030441866537
0.11480014039375308
0.6336299381243686
0.0
0.0
0.0
0.0
0.0
0.0
0.0
0.026170937529162556
0.0
0.0
0.27515086968046654
-0.3821895360645233
0.5102635981649477
-0.23880319856097398
-0.37045391356228086
-0.6318531246790281
-0.8417644832860438
0.936889233066067
-0.3845893607651618
-0.922175241384444
-0.9202218698283933
-0.6438643162515731
-0.07350589612204517
0.7856869119572982
0.2328661354576126
-0.022859779724284435
0.4793115320504253
0.6107778550125504
-0.5827386525577525
-0.5252121666526652
-0.07807210646944886
0.0
0.0
0.0
0.0
0.0
0.15217031838693937
0.0
0.0
0.0
0.20561826363990865
-0.5849779682819558
0.7296822704472863
0.4831749735971935
-0.17337758866348651
0.4998990697166159
0.8507853762007271
-0.5935165417038932
-0.4405048595766945
0.9323594599034679
0.0
0.0
-0.12173732912575522
0.0
0.0
0.0
0.0
0.0
0.0
0.0
-0.748168568340956
0.41402422147681617
-0.8183542599116704
0.9978091365430335
0.41211546566464197
-0.8657288323587122
-0.743889277039304
0.1537148770798033
-0.5520713125382652
0.4493339864537522
0.014248022195615162
0.8841430477879373
-0.015624167384591381
-0.036862708714681114
-0.7744508730796222
-0.4691353744280886
-0.647939689484059
-0.2206431951016572
-0.48331307589805395
-0.6289419108008909
0.0
0.0
0.01030727902620443
0.0
-0.07694935986473274
0.0
0.0
0.0
0.0
0.0
0.0
0.07758898053176758
-0.05650662998779786
0.0
0.0
-0.019019693118589427
0.0
0.0
0.0
0.0
0.454330072569113
-0.6850484220774271
-0.8731059672064763
-0.6608040819038871
0.8452828457320924
0.08139257639224029
0.3513874443932583
0.48359336178068046
-0.5004811880887909
-0.8307493571424818
-0.31713356985955077
-0.16120459631749995
0.09188683240130116
0.742274647819001
0.583939364334588
0.1757768497897194
0.5089922754575429
-0.2646823257835127
-0.8695001476714175
-0.41830830659575335
0.760551527031391
0.5197600533774145
-0.2662181034322604
0.4968890059567028
-0.06968933052165438
-0.4221541493570975
-0.6167524307142456
0.9307515663584911
0.6365396859723114
0.6827008730575626
0.5839770396273098
-0.379800954635661
-0.22234968469820984
-0.777856840310651
-0.91878297838321
0.9805748157938035
-0.2864667879017395
-0.15451510563811421
-0.37707250745961507
-0.36748930031842897
0.0
0.0
0.0
0.032665092947405355
0.0
0.0
-0.06139468241487992
0.0
0.0
0.050141896917352144
0.4724530824136375
0.027411994463476974
-0.4721624646115692
-0.8022320289400977
0.12195403964044702
-0.8152910069435195
-0.7686336291266731
-0.5051980709494253
-0.6729497399179998
0.15863423690586842
-0.7836363790737704
0.45487087267506787
0.0342494410606109
0.6694179317576832
-0.8136381014521814
0.46923101029761827
0.7715129048584006
0.3200518781253989
0.697114291374066
0.2816448604698592
0.03832893874369803
0.8718622309475494
-0.8932705517986996
-0.739408067089627
0.18391673089124794
-0.45566219658124574
-0.21272616305624537
-0.9815510458625575
0.664918195169359
0.27429023727568014
0.5923102861442371
-0.46092241078451757
-0.5552683912831756
-0.5742616546477304
0.5060554269760147
-0.044546908262769636
-0.05189642647356088
-0.5993748912252563
0.02855482556839828
-0.05003873816628879
-0.6494453893345742
0.47359404903775726
0.40735421937672367
-0.9251005730829183
-0.5866838802781662
-0.3405166406921978
0.9215602198204982
-0.6675846448833527
0.7210679062264822
-0.6579850175824562
0.6629954126124092
-0.3300506245432133
0.4419901732717386
-0.5453618994913663
0.9118311403462098
0.4697015106547313
0.4288519112520017
-0.16183874627529393
-0.7300108556815907
-0.015804623175445398
-0.3899158534631362
0.23256540999525321
0.5063591419454669
-0.6580027995345497
0.7701732734621407
0.9017163029351982
-0.23604362011738117
0.8078748975472599
0.9589363851042156
-0.2770728221735286
0.9593569497939192
0.7068814833205557
-0.02214700633049419
-0.04021408908824379
0.5478296480732989
-0.3644175988936318
0.7251502629318418
0.9688152407764254
0.28260507216489195
-0.494685364694522
-0.6296497495274824
0.10811695569052171
0.7505985545958378
-0.18071054671989084
0.6025811398835637
-0.08290771671534619
-0.9948708205211045
-0.8470983621893189
-0.5676011729115576
-0.41361001820144505
0.22217994328296342
0.29842521616458906
0.18458570379242678
0.4878978047465778
-0.6200871709155132
-0.062247247337741785
-0.011361528248925001
-0.38567265840373943
0.013190176344293647
-0.7169554524188804
0.0
0.0
0.0
-0.004472146778912943
0.0
0.0
0.0
0.0
0.0
0.0
0.053217397500247454
0.3327142638752565
-0.7621251838160672
-0.5331745149103233
-0.2344071280519704
0.6565445690414247
-0.16225655761731908
-0.02083739986338462
0.7982399861053302
-0.8342125307391255
-0.9928285788594988
0.8042273695745912
-0.8512835639010752
-0.8826818237436003
0.685003308084144
0.5806946476794976
-0.9815701816084876
-0.956375765814029
0.9834591235766856
-0.6283310451439006
0.29570533987360537
-0.973578329336694
-0.46732182772658337
0.2248470279161974
-0.5629695013962981
-0.0879792227600611
0.8857775155875263
-0.899572099560617
-0.381116369626628
0.6959845207672384
-0.11434902196968189
0.24389540312734082
0.0003170855362799596
-0.612429215549023
0.04957423138761641
0.6981227530403001
0.8294002891459342
-0.8258967386771401
-0.9276893124209288
0.7862720855757162
0.7647871579154926
-0.27462495372161544
-0.33029028528735055
-0.4779348402488126
0.5955534782619694
0.6336364898164561
0.5156485461392746
-0.12294890292010281
0.3383079851122699
-0.807256779740054
0.45913933052411116
-0.7194181018808193
-0.3613761512531856
-0.5473535787480395
-0.7786090595533035
-0.8132990188782987
-0.2938143816590937
-0.36309234474776364
0.18212875052405653
-0.15295413983643555
0.9281843025995784
0.511945244235035
-0.7121392319565263
0.7061011045516625
-0.5759993221791537
0.43184376988154116
0.4497996401415463
0.39171973807809035
-0.08197282154341368
0.09269098378698493
-0.24347315211122744
-0.31573475219596414
-0.5977852101683802
0.5246636749812086
0.2805846294962704
-0.9400108260944187
0.9244020394689076
0.6153158826292748
0.9963763225014456
-0.19280860712067763
-0.2598041369644374
-0.46909979572023275
-0.09771086521214278
0.239035507853256
-0.9241206321088546
0.13930272895759632
-0.690655194290055
0.2614887369890846
0.05337403910912286
0.2704334958681367
0.67460926398071
0.1514118700814316
0.09118026229084752
0.1753545387500055
-0.21695555243514053
0.8058980209631013
0.9361169134383418
0.18377267265366592
0.3411707283042029
-0.8017130103775281
0.6905095964814068
-0.2942346380074172
0.5622722683736339
-0.8769508088693168
-0.4444513212521848
-0.586470397302449
0.2180551317952275
-0.36963251011812415
-0.8350191829926592
-0.26535901547526186
-0.8846783326023018
-0.4611549808213973
0.70835360279877
0.3493827964378344
-0.6144621323069361
0.9788788973549148
-0.4600822113429046
0.3474001111884537
0.9097031875406917
0.32939498414837026
-0.9339152221227023
-0.9859098662805847
-0.05371579054384368
0.4133014707248692
-0.03186088129939435
-0.6406741769405329
0.4401359118955359
0.656426634044929
0.1818818609805044
-0.6632321062541005
0.27765459249160385
-0.5895977703488362
0.5285323196795009
-0.3747166734380192
0.6625451170420555
-0.7391898978241074
-0.15070879055256348
0.4091532379512788
0.7048228208155312
-0.744067562893566
-0.6288585321018754
0.5745615982749781
-0.4458089261368392
-0.09648476732510858
-0.3610787034581133
0.5699424893562892
-0.07645731867753591
0.821953205408589
-0.09145521293639147
-0.4052870377966995
0.4874913193982513
-0.20884439439858338
-0.6104815672266031
0.02226601646441151
0.1224925936893384
0.8481353162749048
-0.8722855457143734
0.8215708930541641
0.48994104617381296
-0.0533914882648272
0.25746014554383057
-0.27743486764242675
0.6795476237998019
-0.7893706462412857
-0.5340574305431138
0.9518731669297107
-0.9319961320546397
0.13959919793855224
0.5587849614878249
0.40585487612030535
0.7315512461979622
-0.01761017433721257
0.43899619690056824
-0.44331695371240976
0.07062065485775149
-0.2889703337947401
0.6769648577762846
-0.20258902532609824
-0.5057573632688841
0.9591930664836792
-0.6096005912408218
-0.5497680906029883
-0.2934464506927832
0.5546395084225799
-0.451802692321412
-0.4016869253348936
0.37836999191801257
0.32241619518686515
-0.15313852088639401
-0.1030087739235439
0.0
0.0
0.0
0.0
0.0
0.0803880678536901
0.0
0.0
0.0
0.0
-0.5677369688057876
-0.10365100710038506
0.5017950157534723
-0.45042182793104923
0.1871542772741268
0.9312793400461916
0.7555432210622204
-0.1980185360704112
0.05926855547145515
0.8076461848861747
0.2951209899466367
0.9495991090904279
0.6598633486600374
-0.11111038426907682
0.9718478981455816
0.4089799746017202
0.8567849083368777
-0.10265640635393347
0.8947044677092866
0.214720646180093
-0.6897904854258665
-0.13234525083787152
0.3376982421762599
-0.38992714547211493
0.41988088322768685
-0.526741063352052
0.38739726116005646
-0.6029110040703554
-0.037164259221532214
0.5520335197932218
-0.922550568889227
-0.666424866886951
-0.6683017132439784
-0.36866961024482053
-0.02727858009401274
0.5246666219501213
-0.1716447512543687
0.7239963999057066
-0.43316759501236457
-0.13020429453866367
0.8702523358259064
0.8069139219349006
-0.2742629902338727
-0.1589291573895779
0.6434493989584353
-0.15603812557126662
0.26909261803730433
0.8970334877210424
-0.46961678821443753
-0.07072244243821824
0.6566364663758035
-0.19396557924527333
-0.24788745498243236
-0.37299750725820857
0.7101298472480639
-0.9771815997345269
-0.36717135093428666
-0.11246023239179648
0.659406576234846
-0.9361430435107219
0.4338741073397425
-0.10743544589063259
0.23917643253551946
-0.9043480545195661
0.026649075522946486
-0.9496742566297127
0.11528295873215155
0.45342529533866816
0.9396886730429399
-0.4341158870750234
0.7241664269816217
-0.275865894998371
-0.9969315856241412
-0.8664199676606776
-0.30584534963982124
0.1797549634339741
0.4914927217611147
-0.048393218142080086
0.5853829442881096
-0.8616615578643798
-0.6182473958736153
-0.5140120145748528
-0.37307852076403303
0.521885953023504
0.8381215963257569
0.23772134092043173
0.24682885588969244
-0.1873231360179619
-0.1997373430152074
0.06754912908978061
0.5799568471109049
0.5306681785719267
-0.9605421060078776
-0.312139566654968
-0.5067189482538386
-0.9192098596486906
-0.5111020738368517
0.26883101101314266
0.7575720947525897
-0.6101497032788232
-0.6372044127026044
0.01497626398014118
-0.8021127408970804
0.5474383624206008
-0.1504571138971822
-0.4903963730014509
-0.2844355144555555
0.2529767053964562
0.05852327817211522
-0.4913145633108094
-0.8297471865219819
0.9345521232903478
-0.3804126595868027
-0.5782973512465664
-0.5311917394935275
0.3341153191301871
-0.2908542271473762
-0.5583049853029682
-0.41727006171537684
0.9736323137652718
-0.3216894622479378
0.412598634536246
0.6233107643810634
0.7332977532652762
-0.042876246437595744
0.45253688662815006
-0.5937432249152546
0.7617958513444432
0.7446119472981712
-0.3775569084167806
0.0
0.0
0.15170200062301137
0.0
0.0
-0.07899681189086064
0.009930901988344428
0.0
0.0
0.0
0.1234120280841331
0.8816803631952146
0.7498124024826025
-0.02652148575319635
0.8251592950415421
0.5769042437337186
-0.6170156487915452
0.6873206542986534
0.10836577588870552
-0.25233869055125746
-0.39697603322313535
0.7681614395666848
0.7533845260939795
0.4269496454893118
0.18181542047248478
-0.48526229592814996
0.6326244863797761
0.04776586203560629
-0.37163844710584626
0.6570305481527097
0.7642403198972101
0.4010876146451441
-0.7162821250526419
0.9869965824695006
-0.951331904960363
0.6988434247529478
-0.6248565329930729
0.41086360617044804
-0.4754157429514376
-0.9250136163895593
-0.07307578057579987
-0.31507742591085974
-0.007756838807428501
-0.7370788786602147
-0.7422222463521526
-0.19531772630099686
0.7528333950379977
-0.14515994160254664
-0.5554856165866486
0.05978606087100169
0.9640723849466604
-0.2790499424091122
0.9122083060286266
-0.48355584319947886
-0.21368679450411676
-0.845453753098125
0.1263308530827234
-0.9792829855769596
-0.22053264372008252
-0.22679057388360113
0.0
0.0
0.0
0.0
0.0
-0.1475124244503929
0.0
0.0
0.0
0.0
-0.04139264132194533
0.24906433377813597
-0.7943705075874028
-0.060232924412422006
0.21046693139520123
-0.13163892085458295
-0.3028090578718255
0.9034015486623146
0.9114819753167145
0.31228628906670974
0.0
0.0
0.0
0.0
0.0
-0.09728377932012076
0.0
0.0
-0.06416620259040083
0.0
0.0
0.0
0.0
0.0
0.0
0.0
0.0
0.0
0.0
0.0
0.5823167588677223
-0.1822485780469547
-0.24341793188014915
-0.9293236301355505
0.5098080887862191
-0.5549881930947854
0.48516758283581485
0.9574182018972419
-0.6533717197835294
0.322355958027845
0.49168066474410477
-0.5383272117525357
0.16024978248646282
-0.8728790723760842
-0.3561392923834432
0.5525686941641388
-0.9191478539950095
0.5947333516939379
-0.24898802904134287
0.566362666853578
0.3708261778379238
-0.6001137811193324
0.7392800568433326
0.3788814634626425
0.37002338471302565
-0.5474281804229888
0.33197960543780813
-0.8936107129349242
-0.6062724787092517
-0.9271569002904516
0.0
0.0
0.0
0.0
0.0
0.0
0.0
0.0
0.0
0.0
-0.5076221452907341
-0.39464417029723675
-0.2092618247750373
-0.0386546802415315
0.26569985210107805
0.1189247836887366
-0.35872746446845705
0.3092488802317709
0.768706540729341
0.3765423615126493
-0.0438451425992102
0.0
-0.04062860151951082
0.0
0.0
0.0
0.0
0.0
0.034685048658427
0.0
-0.04331275832756054
0.10306002577647047
0.3395476754370508
-0.851090688540074
0.0695771827328786
0.23513777561914528
-0.48569450302376005
-0.8121982330388129
-0.3553402760783191
-0.8445284591767959
-0.8349605129796238
-0.22833787697389973
-0.003065383922271972
-0.4582818073589525
0.19090906255099616
-0.7748191504837016
0.6338861151727677
0.4412349819636521
-0.0983926801783841
-0.34686322443690853
0.0
0.0
0.0
0.0
0.0
0.0
0.15632074530420245
0.0
0.0
0.0
0.0
0.0
0.0
0.0
0.0
0.0
0.0
0.0
0.0
0.0
-0.07988972575060316
0.6917104125441365
0.9196030818289067
0.1131354907662303
0.7091588253432253
-0.49183891090963017
0.8243056023248221
0.5013238133382187
-1.0036021848505028
0.5484211083299193
0.0
0.0
0.0
0.08285057076270501
0.0
0.0
0.0
-0.10106247480324004
0.0
0.06723243833406002
0.6411109279898952
0.48544731842186695
-0.4976462649105057
0.8050793903971485
-0.1426557148292813
-0.7131470392638402
0.031932806145667625
0.5497218375495272
0.22095954477966262
-0.3108829095818997
0.05176470057209004
-0.5306029903524925
-0.08925479867157729
-0.8584230932039065
0.09614985896618555
-0.0855716709717802
-0.46997731476004145
-0.7593032297712646
-0.049386745221349004
0.6248855929021284
-0.29353122295537903
-0.6871371974972444
-0.3517621774640929
0.6815985814240484
0.04584579720459003
-0.10430096005108158
0.7145075329549779
-0.9790613101365508
-0.7572661268287
-0.6871660292003996
-0.8641111913445598
0.9395589095509906
0.5098403431065206
0.9930711111238506
-0.08864321688570942
-0.056663231081336196
0.25896027806316124
-0.9646716594238527
-0.9318149992082065
-0.03853633937715495
0.5450291204436328
0.1230758041654112
0.4873860395224936
-0.5138584137018349
0.9967394277968682
-0.16415964216838597
0.772957486784448
0.8486549985989396
-0.5900632438762846
0.9473554817124534
0.24391127501776533
0.4200215013483226
0.48481019607276843
0.30725101001559274
0.7280337538536905
0.2420314555913215
0.9286872749858872
-0.04949439629484842
0.9362387121171056
0.07897694458350624
-0.83310807813333
-0.9586589555711369
0.767983039736901
-0.808999566304043
0.6375544561266313
-0.037551086722040106
0.07435904684779526
-0.049478808869826585
0.9853882674655716
-0.7413451721685145
0.15964091076603215
0.5490046659153331
1.0516753011367714
0.8242033459873128
-0.46185014174299277
-0.30457593414421424
0.6461401032349681
-0.6972245220831021
-0.8157091573881019
0.07065128318779501
-0.8137026843253747
0.1903181324820029
0.1203332579064964
-0.8280982178405429
-0.899451515582038
-0.0037810231011565776
-0.08373979004511889
-0.5304574952461689
-0.12121225545978276
0.2605529474887418
0.0
0.0
0.0
0.0
0.0
0.0
0.0
0.0
0.0
0.0
0.0
0.08005031441671072
-0.1904954944644467
0.0
0.0
0.0
0.0
0.09125276756487254
0.0
0.0
0.060408234462993704
-0.8471396389776271
0.04496506855540727
0.8458352714258697
-0.13245962281878865
0.248620940036405
-0.9012280605325675
-0.9979945583068588
-0.46756846370594507
0.17213329196041083
0.008263186490347962
-0.7950679555220608
-0.1969060481852853
-0.5119569927378851
0.2709223250422259
-0.4425157848177981
0.10530061018275627
0.6217105746993943
0.9773481177731862
0.18192379638464584
-0.4048861341150056
0.6594613472162056
0.3078983966550277
-0.4263490962732577
0.7016720856038563
0.42447902654586533
0.11908377867082032
0.4509872115850432
0.4911848768348624
0.9233919541057789
0.19564783139672226
-0.5219801701407306
-0.4899675037812725
0.6272365436577639
0.9265722911733252
0.8549444928886691
0.3351820240188119
-0.12978988567447503
0.19224113223314476
0.787237192216808
0.6168348363705576
-0.6777063507247685
-0.1532580766216376
0.5893009873075032
-0.7227551162701058
-0.22421072656127183
-0.738285263690502
-0.1894500251443949
0.8147463902083818
-0.7437519603833656
-0.2784096345710899
-0.7337871689613258
0.026931545102217624
0.9904479321918092
0.16855794191210838
0.8897555339895982
-0.5825407936822902
-0.9598026887242057
-0.22668534432887943
-0.9716921757350985
0.22552927752386243
0.4205394519138361
-0.8097195915593245
-0.7692528994425731
0.04535572366389928
0.30894454036235297
0.7155371160734358
-0.38117652790074485
0.20618417511020026
0.10103296490632596
0.6754816022529038
-0.03400151468601176
0.8600147813479984
0.28470232907071136
-0.34435663245899306
-0.6631078938082275
-0.07230510839479787
0.4272896006973468
0.5484297554103528
0.3556533361452938
0.8449523895726327
0.9247774334993637
-0.9343326695183218
-0.21995952050558332
-0.2545846472075764
-0.598422662781352
-0.3178584791237577
-0.8935082163411268
0.039834759845272405
0.31922884272915875
0.958619481051108
-0.8879244511321926
0.37019202880465296
-0.22953093531861968
-0.5877293502912175
-0.15581796334792408
0.11377478471052238
0.191758736248548
-0.7376368749394004
0.30312193013014666
-0.5260655088666397
-0.3811072861178406
0.697925924421831
-0.9425612856110437
0.08731469419136695
-0.7259569688796024
0.07491388665361343
0.264387387539031
0.36654300268995543
-0.608259064063073
0.0
0.0
0.0015896663462953383
0.0
0.04312358422365943
0.0
0.0
0.0
0.0
-0.038954429606851776
-0.3914606660225717
-0.10720559895117418
-0.06944191246777098
-0.2478781309556819
0.874288846115197
0.9002573789937409
-0.6052432019407914
0.38051676639124565
-0.812916476537717
0.14513970698865974
-0.8321585440999582
0.39717865373044137
0.6416017724117364
0.009140808886315632
-0.45971920065841476
0.3643074138523654
-0.9369952030533197
-0.2625835584791476
0.1805353324136756
-0.6297512059323864
-0.6981654956283303
-0.42078923260133183
0.5969655669506277
-0.9910819113667351
0.18490162039760014
0.3196090308629884
0.5865068143148808
0.2224261247622314
0.9225427016142509
0.28998459934570264
-0.05693767446937841
-0.16803039739647457
0.0
0.0
0.02799455534638386
0.0
0.0
0.0
0.0
0.10551330907838466
-0.20687491747930853
-0.10142820403532626
-0.9512427498588554
0.6166514168578583
-0.7757929552039169
0.4849213854181207
-0.7399356957582979
-0.06294116487930308
0.953254320825184
-0.9299081206059165
0.8385661747085043
-0.8324002053876541
0.5311890389849234
-0.060853215473096745
-0.6391635283370425
-0.6591247280471553
0.7197319065126957
0.7316114998135435
0.2583566012380323
-0.007663900446430283
-0.3347492326160211
0.5053667407354105
-0.7335143922932448
0.5745041730125211
-0.1747627858666223
0.4189575062657327
-0.7319061197274876
0.5124405772012317
-0.9744076061011973
0.06071017737787554
-0.8225446055372339
-0.9505903469626231
-0.34717452513673
0.581325097222025
0.8407838446427278
-0.7706817497505405
-0.5492259844072866
-0.07353518522830571
0.19760932268535947
-0.1979398400604997
-0.910725152806229
-0.6036702698950335
0.4139868268103686
-0.1502542883892175
0.575937594867129
0.3473592527868812
-0.4529561557273327
0.12234299066334603
0.2691313535457469
0.744562072384424
0.3899236368978014
0.9813569092641219
0.2960669167032206
-0.5698232802824654
-0.17055737804369264
-0.5058545746086254
-0.7469587144661458
-0.8837020041883921
-0.28084559905708883
-0.973156315715767
0.2931208573237869
-0.2308591000377478
0.32036581062031066
0.782076965016637
-0.8047706293927406
-0.7966581781970612
0.15321034257593613
-0.3503129210870122
0.5910968115849728
-0.16624294315904994
0.2666026395079229
0.20421508509619102
-0.9214786570553675
-0.3563707732953849
0.6996659734854506
-0.09655129283887876
0.8874160481868496
-0.2772638037475845
0.06934393915266934
-0.8273722663482463
0.4600107798225247
0.9995458295848832
-0.610644359891666
0.6333679441922531
0.6136467755934922
0.8236585982127991
0.08687481415206255
-0.6768475563382854
-0.6417190075303778
-0.7826966419133381
-0.42658288470057504
0.17171168288034044
-0.2941700381889858
-0.0930657820693006
0.5345994017783098
-0.7767033011372825
0.953501501837027
-0.7577873353710067
-0.8612302835163372
0.6472717506047205
0.33864893311108335
-0.8419936828146632
0.23357279701629308
-0.687910243143822
-0.31191721626516156
-0.8210573027810886
0.6192965316827904
-0.0894767223024604
-0.10851481455917722
0.051950461242537216
0.0
0.0
0.0
0.0
0.0
0.0
0.0
0.0
0.0
0.0
0.5417373794211587
0.7137543313960575
0.5911640017142956
-0.8186568453778205
-0.5141185524785261
0.22346912315490775
-0.04894541744017711
0.8792564217605983
0.5370294683424583
0.8760106349410586
0.01979633675744529
-0.023500502168908113
0.0
0.0
0.03382529128714387
0.0
0.0
0.0
0.0
0.0
-0.5868031583907523
0.21269040533023897
-0.45049394710315727
-0.7543865895898318
-0.5479462349523427
-0.30586797120072395
0.651649973317955
0.7319519643186274
-0.185394706585843
-0.13320706143654215
0.1322344703538838
-0.8313708724576212
-0.4997838317201422
-0.8769150330600284
-0.5242538342382395
-0.7075489115672031
0.44150484128084644
0.6311173650088768
0.17270277088180674
0.7943755774435222
-0.5290443088656867
0.952917193815735
-0.5978825513977137
0.04598746904760409
0.7821425682905441
0.30928459184634965
0.1251156518801444
0.7581687460321556
0.775238746292449
-0.5013090754067688
0.0
-0.1547816554058417
-0.01211394818674129
0.0
0.0
0.0
0.041679286718159736
0.0
0.0
0.0
0.5619589037732251
-0.49602040612247467
-0.2015079602523322
0.548502121194754
0.1952649615538622
-0.6337628258446948
-0.26084907063494045
-0.4058835627355881
1.008164183963369
-0.35271289885557255
-0.6746754928656835
0.4061448125034983
0.5653068601600328
0.8942004697258988
0.5898885502976372
0.9680086130927532
0.8592783681976401
-0.4633445055701136
0.08769381184050959
-0.2755633330970175
0.528356854232201
0.4406953715836235
0.10105247947393647
0.5466566775329612
0.4536499698231331
-0.853651384579388
0.6710751349334754
0.26080637548924596
-0.6692811673993093
-0.11900783477323418
-0.664291520364765
0.9174327623441332
0.8530700910979649
0.8840013897822167
-0.7224086264110423
-0.6626051678767063
0.20144757574994232
-0.0829024409393968
0.1368073145421873
-0.6388035895087241
0.0
0.0
0.0
0.0
0.0
0.022657389885520355
0.0
0.0
0.0
0.0
0.2363319752042079
0.7265308339501537
0.37384548042110244
-0.9385990495181309
0.9593542941194637
-0.931628923272459
0.046358994725883756
-0.20812623161505206
0.7671423040010397
-0.789470696346668
0.0
0.0
0.0
0.0
0.0
-0.24904815463343957
0.0
0.0
0.0
0.0
-0.739196057872948
-0.277561027685163
0.41431210454928746
0.12840732221956963
0.9949230091009478
-0.9225162857592879
-0.2622636785379098
0.4693171819960755
0.392226796226931
-0.3276150617695808
-0.6459927013296023
-0.4124326642310294
-0.4981905283409289
0.2917254374196623
-0.8470094173969365
0.344027065243917
-0.2593535163797356
0.7337697710062524
-0.8038433921801758
0.6366770700606932
0.12781264783359736
0.5730835468941585
0.40225939635672003
-0.8849394066952319
0.03573037218981456
-0.7741544394292608
-0.1823581191468644
0.288036391225837
0.9578107519673908
-0.9454098280510712
-0.8859146178696193
0.2652559100202707
-0.5682868871053215
-0.09217467582760097
0.2738351069812563
0.7094651125283826
1.0864715964000269
0.2182763833264778
-0.42010845017903753
-0.6424396779873789
-0.31277683830893177
-0.24145869600505443
0.24447222923672673
0.623518423150613
0.09929557884804607
0.037273644123028984
0.8709005322274006
0.5820119560288851
-0.5765618578557887
0.5185996151413854
0.0
0.0
0.0
0.0
0.0
0.0
0.0
-0.04404931252787569
0.0
0.0
0.651724858094925
0.3001383923312577
0.6876478844316987
-0.39394759683178554
0.8459668372002829
-0.8626159128838657
-0.2836015474608389
0.2164288953415363
-0.6679653543183333
-0.7128084596904156
-0.08784294150968552
-0.6751850435388647
-0.29746408094846744
0.043350085073966316
0.6572476479256866
0.9921114353790881
-0.7652212911157117
0.45959337739061157
0.4505039029300505
-0.5341101738453927
-0.25480504170429863
-0.08623540366086857
0.1493042133644067
0.48980956597837544
-0.8512049720475596
-0.6135906835114724
-0.013024054515841543
-0.8080719895785564
-0.44971032880624207
-0.029842507941196583
-0.35433863520836706
-0.7974916467832216
0.5256422749264005
-0.7216698408092947
-0.22324686373398284
-0.6900411289045223
0.5046991398169858
0.5342571337053648
0.6795432401263763
-0.05366858714618811
-0.09687671521220875
0.5375909783484105
-0.5459104040350224
-0.840617145264537
-0.39413659961543557
0.7481716034268047
0.12678022635619834
0.9005777173780449
0.01791063355986907
-0.6881991899689011
-0.4852650739392381
-0.8195491839006299
-0.4569197834743435
0.7385558462948147
-0.5582316107655909
0.9812090167085321
-0.8723710919004162
-0.7397133065426917
0.3386110851686772
-0.9292821771382944
-0.08836843595793842
0.8453479086019664
0.30335220407727226
-0.4888605231818146
-0.8710799659213052
-0.7349172588063462
-0.20915876948330436
0.7349476190608395
-0.3397145506958412
-0.5386022018401394
0.3364135198879816
0.3613225068405428
0.048566339882571974
-0.9746631458115365
0.10000851323475857
0.24657579168326826
0.6529687174150549
-0.8964596538548817
-0.8998359830679763
-0.44950652335321095
-0.3850002129401411
-0.060560690236263426
0.34022743208574435
0.27904384118090375
1.1121196905577722
0.15359399455946066
-0.15532078005660382
0.16085756354928438
0.7374352193197007
0.9803493786648854
0.6928471695665281
0.683640931150453
0.37959072529699234
-0.4919429855365063
-0.08263570731853376
-0.6173131783904569
-0.791646311844036
-0.8734810042375221
-0.7115601426548344
-0.23606135245813295
0.38137941736897374
-0.12820177296139867
0.6888789531253685
-0.24638258859681672
-0.4894752065293637
-0.7651589920969922
0.6595432593212713
-0.28913844862145316
0.37478034912938263
-0.07011225323436553
-0.7532320783377753
0.6530329616286101
0.04964870557525902
0.11619512226892613
0.20980619970126946
-0.7283228510184273
-0.8664184010642026
-0.8190586023110824
0.7475882457724359
0.6479404915526171
0.7857291495670502
0.846769365944507
-0.5404108225609106
0.5187021707581698
-0.6072954035281015
-0.5476232151111602
-0.6684828930357278
-0.0504017670104997
0.7464347268069054
-0.5704150706459508
-0.4579557343496752
-0.8046970468556147
-0.4123998774948534
0.3259144191274259
0.8821394512956586
0.5793346503011887
-0.5234530651560438
-0.22440448167632
0.042595580226865284
0.6833630583157986
-0.4114236286562871
-0.43266145445585247
-0.9062151471727067
-0.6266487513873316
-0.30198365522101533
-0.8023134715719156
0.5024977840812603
-0.45050393738858396
0.6076797718737472
0.293685239065276
-0.6145875875820344
-0.6724586210215293
-0.0398257075669195
-0.6738766569913139
-0.16489750280834503
0.2546144117310265
-0.07605758153767939
-0.20560481353820625
0.1999197431310875
-0.09758413625951134
0.13453501120974276
0.7619409855284428
0.7377730280793597
0.205699831070137
0.6979118423101061
0.16735290687220816
0.5974448977063389
0.8710117486254514
-0.3581547095284443
0.15357539567417233
0.5975549882516462
0.004317332194277948
-0.8677156965845632
0.8421909688762157
0.3205583259410614
-0.07063916576631413
0.32993523819355164
-0.6425841715211216
-0.897798751933025
-0.11007355808217814
0.19640121739444605
0.8954496874933535
-0.9349462219959159
-0.4792822230791769
-0.5973179636574006
0.2277116891239994
0.46014503886099256
0.17449005809147322
0.8975215366389584
-0.365365656185741
0.8544160797570757
-0.13369622448272556
0.8485428896023688
0.4530795715081555
-0.2906291773840086
-0.5980685886924926
-0.8789885946070912
0.41459160682260876
-0.7229637314921367
0.9713089743017203
0.2009691216045827
-0.39676717234661885
0.6028025987992973
0.39049409864651774
0.48854342186219557
0.7987576796550022
0.887987978914133
0.1717046188946243
-0.01523971653255618
-0.5377160868811917
-0.9533333046748067
0.8735988617885098
-0.10781915903811612
0.11863065468200018
-0.7024730307442382
-0.3915625423545388
-0.8410893950712099
-0.6003823824749288
0.8561364627242872
-0.7344084994266251
0.9586799835453579
-0.8958831583664255
-0.8046536792928245
0.32233872240690875
0.8252574029967845
0.1078755050031388
-0.34393329060837496
-0.6869367856153823
-0.20977511405398586
-0.7955182516443118
-0.31776512453482764
-0.5857181196507539
-0.9366715858084549
-0.5788954758296008
0.21473976364550929
0.6405969869846915
-0.1010227450033041
-0.058210533332616346
-0.7681699570630562
0.8322166226133743
-0.25062113413094544
0.14969899707901413
-0.6861255612798738
-0.585671591825946
-0.1752280825969914
0.8192670152831609
0.10050907179364854
0.5334956248617955
0.11984767271615904
0.007396581480492159
-0.6894272169321465
-0.6977540671394167
0.40367546717673486
-0.42228185269738794
-0.8338626687055029
-0.3504920702769738
-0.2993653978123185
-0.7861398455238839
0.23676901850763166
0.9999185927501189
0.0
0.0
0.0
0.0
0.0
0.0
0.0
0.0
0.0
0.0
-0.2511896927897495
-0.5620225144216515
-0.7004345349968433
-0.2600223375278503
0.11716623577275276
-0.10937191417005399
-0.3610303579884776
0.4756104470941216
-0.14449189690643682
-0.7237379458824125
0.0
0.0
-0.08962201287981836
0.0
0.0
0.0
0.0
0.0
0.0
-0.0879308340804112
0.015162230083222775
-0.06395507689757399
0.0
-0.046161913026300405
0.0
0.0
0.0
0.0
0.0
0.012921263792159406
0.7757850876922229
0.6797100280374639
0.2796526094535976
-0.2527354850000759
-0.8398978562342729
-0.7327760346446934
0.792622222157485
-0.2026662584945862
-0.6124656076206654
0.6123577223481549
0.0
0.0
0.01480102910698143
0.0
0.0
-0.11408119040380836
0.0
0.0
0.0
0.0
0.0
0.0
0.0
0.0
0.0
0.0
0.0
0.0
0.0
0.0
-0.8543378891528124
-0.006896893913809453
0.32851272574069523
-0.5859827316167221
0.31331731137382773
-0.5295029560841538
0.7794483926313176
0.035513222734297696
0.19022599278328683
0.7763267384335824
0.013498333937009638
0.8823480801136558
0.4150351709648614
-0.7036607367635535
0.7808570454288615
0.421773339068112
0.965129998982825
-0.41805404894577647
0.42722788320046723
0.14745897584506595
0.0
0.0
0.0
0.0
0.0
0.0
-0.05765487579709312
0.0
0.0
0.0
0.0
0.0
0.0
0.0
0.0
0.0
0.0
-0.016678883014200355
0.0
0.0
-0.41417849982610005
-0.8290612497813048
-0.7035038172282839
0.2798386103707322
0.5497340929003356
0.8780603165049568
-0.18482976346241253
0.0021795245906482894
0.3784578233394693
-0.4452960945039621
-0.8783215534884765
0.689263175869457
0.8324542077239651
0.5786070269026045
0.40222919285669456
0.06860358425978474
-0.00924635877061332
-0.6046843602676673
-0.8943740062778798
0.5488001370890323
-0.01329695190171809
0.5226056540531632
0.459954294081208
0.8650666177762898
0.8361186872811859
-0.5668051062245052
-0.4125659885601112
-0.5049535267535545
0.4370408659420919
0.7830858727654554
0.40073450700684377
-0.8190596366426334
-0.09361868180735744
0.9397326595863098
0.14058904392114635
-0.39241340901646177
0.24999007055997735
-0.011590325200126594
-0.7280302847636897
0.6453942187536679
0.6734846522795885
-0.6002255284688021
-0.24632676909391504
-0.812768185772796
-0.273235102806453
0.15005257696899
-0.4571565246079501
0.7544440801813188
0.5431534936294987
-0.8321797438217686
-0.8591731328317898
0.17355045503540034
-0.459883632072563
0.722267002784869
0.9988725310390294
-0.5290505733492947
-0.45744008463085817
0.17420703272276428
0.6370943278841086
-0.06193114472322159
0.7496640219325383
-0.29899610953491806
-0.3618523840813108
0.21701350145741627
0.0816975252556813
0.6367387742394433
-0.24983183310697932
-0.9754427629265248
-0.5515116237157283
-0.1934546186960484
0.0
0.0
0.0
0.0
0.0
0.0
0.0
0.06728033844258705
0.0
0.0
-0.8884027279757014
-0.8185026661357275
-0.13657021939081293
-0.5408997607093143
-0.199696315009869
0.3780956257433611
-0.4146862121558402
-0.6003898777282164
0.13799767714079647
-0.6366409941361946
0.0
0.0
0.0
-0.08556649258750736
0.0
0.0
0.0
0.0
-0.0478257759310833
0.0
-0.6296849479718072
-0.8778418324462247
-0.23264430117694523
-0.6584300883811243
0.64796506934599
0.8412098969392947
0.8553780555761104
-0.5088960044484625
0.5671365712605596
0.19361629783999668
0.5588649631098777
-0.8693267191219314
0.26913428788427285
-0.8411684261535337
-0.7752485118916472
0.08708267396165614
-0.22342300657493208
-0.2985677282190575
-0.20087468999054536
0.05244203704180639
0.7437073205398603
0.12388024883132953
0.04133604067422669
0.5952889245887776
-0.8837094620176744
-0.46084756425222495
-0.3006210704918364
-0.06375683189550374
-0.3462845606167424
-0.2709118902481593
-0.9169246320009787
-0.973944445648447
-0.6841365697782185
0.2179191700342043
0.8660640771965833
0.48903923330946
-0.26076972353477856
-0.0800833061337709
-0.17196095494969185
0.36693783254951784
0.0
0.0
-0.01179277234572314
0.0
0.012541514906870443
0.0
0.0
0.0
0.0
0.0
0.450091490936398
0.0741155076976987
-0.9897482691985051
-0.5766880890825508
0.8889616215443068
0.23827972405050146
0.7814781248785803
-0.9724317731277468
0.2108420098159903
-0.9307803147686873
0.3493169436328756
0.2163003459145485
0.8371609017599926
-0.4351078645244826
-0.34125605839653184
-0.2698271605379279
-0.9168108568777482
0.35662787327868894
-0.3018954441740844
0.644335615772041
0.0
0.0
0.0
0.0
0.0
0.0
0.0
0.0
0.0
-0.07846256112978424
-0.22137290731803594
-0.5572394763337782
0.9200978686345044
0.3556736571324459
0.49855114613638785
0.7572120816567726
0.4573890066672279
-0.9858805505470194
-0.6035454648914147
0.39682786452909125
-0.06294995278072012
0.7719174262536432
0.10275878247071235
0.9057009737721797
0.3654763885978958
0.8661886059370754
0.5197229578134177
-0.2611983373350042
-0.851658577037335
-0.6754098489076092
-0.5754109410141972
-0.23853052368030836
-0.7804441161270388
0.3307197623028404
-0.17442519656491687
-0.4363134373308204
0.8756060865829085
0.730352812102687
0.9143410470495854
0.3349707751889037
0.8112214266322046
-0.32124828563296925
-0.9830548354900924
0.48342677364054554
-0.26839773611065665
-0.5542713547938767
0.6671004496634437
-0.9114405054350114
0.1191806451349009
-0.6378192037818036
0.0
0.0
0.0
0.0
0.0
0.0
0.0
0.0
0.0
0.0
0.24377917787597236
-0.19763696121097296
-0.7193859177816098
-0.9380099052742277
0.7163313565245142
-0.3464370472983642
-0.6179951133607788
-0.5185068341726555
-0.4799450912548376
0.5490889775590362
0.02824521857081156
0.0
0.0
0.0
0.0
0.0
0.012440472929712188
0.0
0.0
0.0
0.047425547570719706
-0.37059052997765507
0.46114194100297845
0.7864602692318108
-0.18923856059656297
-0.225298636613961
0.6587397135554922
0.4008981243985503
0.6284213774546703
0.24363156688498133
0.40722279524094374
0.8111438508365627
-0.01100579211561703
-0.6903123404840388
-0.1482307844099493
-0.09169771902884594
-0.6943315703653676
-0.8454991059537611
0.7752156142828197
0.06325647257798961
0.4171090361283751
-0.10416910413546465
-0.7084928315143763
-0.2730052287297213
0.9394571107988489
-0.3559405885196487
0.9657296630351657
-0.8266176204401285
-0.6656738785575456
-0.8778355709940895
0.6799344520317854
-0.1182607716275573
0.8421543121696213
-0.3736299143417321
-0.8606399005313377
-0.36311925196709294
0.643975168664275
0.25571190540128774
-0.9375724413601128
-0.06749390067117345
0.14562430440031782
0.3557701175330006
-0.41840727925851273
0.7818391524320722
0.9150211649717912
0.18454965318797664
0.7285746267063142
-0.7632751835430085
-0.15691334665945766
0.2524065994687714
-0.06709820485129536
0.7430345505497411
-0.854690675651592
-0.3767541297444206
0.6668857612109602
0.4729020014474741
0.8917016758349172
0.9994180149815486
0.8204122856633878
0.8669567558191109
-0.47629028722253614
0.5066800083271061
-0.6139904341546034
0.4251768479736888
-0.16566400702767958
-0.4863060226692246
0.2786572760556546
-0.5226418745057275
-0.8458073984539352
0.03898430265528208
0.0
0.0
0.0
0.0
0.0
0.0
0.0
0.0
0.0
-0.01622984866877095
0.9101413051771783
-0.8060904577605653
-0.06816254253117893
0.9123833395801271
0.82390379759599
0.8613615188723496
0.06788263357650881
-0.08559086708457864
0.16087566785158547
0.9739525095740733
0.39677745935823205
-0.8533129119225387
0.4341222083898595
-0.24163968211805642
-0.06657768149748576
-0.41240908485894345
0.3784844082455847
-0.9916459525797342
-0.40107938503610985
0.7527468063584302
0.7616027110908812
-0.7462286513585195
0.7829859311215763
-0.2671160575465046
0.31653149704842853
-0.17078769192679277
0.19603398836979125
0.9344810416734164
0.3194362691052479
0.2463661203734
-0.5348050748971132
-0.46337029848646427
-0.6469413958413244
0.018829414965640057
0.5182818800993501
0.7978043731524991
-0.12433824941237748
0.4019272698049272
0.8271424465752912
0.792835123734835
-0.6137784310619027
0.1894342930119924
-0.6590138735976845
0.6635797383456967
-0.01150090116775182
0.9071248914849417
-0.5133674556126719
-0.9834468572580262
0.46679830577635695
-0.29335788827898224
-0.6713097832163806
-0.7545958835352733
0.7551182122611162
-0.7533493607386406
0.4372164861737111
0.1801515342251705
-0.7041999492352788
0.544765325534206
0.9098127697198519
-0.8997764162708757
0.3961218056472269
0.6220750678842344
-0.08316206030930684
0.41724469756589677
-0.17120191522048933
-0.7594007646483767
0.4648179951367317
0.9099808469803079
-0.2600863036438188
0.2639119280807578
-0.966210788490709
-0.4020246481236778
-0.7783923066730446
0.07523493173422335
0.6858350502747104
-0.8050962207225214
-0.41553824967020103
-0.6482250832150878
0.13061173087715439
-0.277996461772118
0.20345487373210225
-0.42080191367425623
0.828154753288362
0.5073411014653951
0.2191497660057864
0.7814990215770334
0.6742851748085945
-0.756260818016131
-0.10967609877367002
0.878989423916086
0.4887250038385913
0.6969356006893412
0.2664988862468052
-0.17906916526586647
0.4232472696796994
0.34617263206163673
0.5656274407327291
0.7672470457549219
-0.710030885471225
0.5657189461387184
0.5974753695137041
0.31384655558473484
0.9533028617291719
0.6411236859123508
0.8169946761824805
-0.9242298634361457
0.11093388236065457
-0.29961080275277907
-0.5051916528084249
-0.40471286621312297
0.8500892538617135
0.727130784039649
-0.6194312269540205
0.9694391865436593
-0.19217018897172866
0.24753380643720413
-0.9068814690640321
0.03557669732279667
-0.4454545049095596
0.43959925738006134
0.8389121616094706
-0.32947209414662026
0.6803481709736703
0.17005390908900897
-0.3242923583169002
-0.33924255151131244
-0.46547131422699817
-0.4982309951992425
0.7721643345828433
0.7228166602424126
-0.9966610763070487
0.38222507488372637
0.7389356113586366
0.44055291451854406
-0.3651383374401509
-0.47624366714617294
-0.2896793450511179
-0.9049820322864737
-0.4137028310863442
0.6876966193467688
-0.8234556561118864
-0.8399934019567692
-0.5683101450388233
0.11906144360980919
-0.16079695566213892
0.15038058786866415
0.024384173004547316
-0.1668396056557179
-0.480778810250575
0.9271089026533403
0.0
0.0783806106731845
0.0
0.0
0.0
0.0
0.0
0.0
0.0
0.0
0.46279147595969317
0.4281161346548963
-0.14590905608999782
-0.7152675766367895
0.8469863619086615
0.35773258525368723
-0.4613886100864084
0.5097208281266117
0.4425617960142456
-0.459171299484552
0.07954639722564782
-0.7874412712182499
0.6101528593842707
0.4001304135975201
-0.619416174079277
0.618826985148013
0.9406860338556793
-0.3103650067805478
0.9613501252084351
0.07488945986085804
-0.044123631390342144
0.8580133088724451
0.751296776415752
0.3886847757334402
0.9532093462948099
0.2859005086807359
0.6771912986034518
-0.1416462604750297
-0.44889753293690493
-0.8597401242320539
-0.6708574011151611
0.12518021810615787
-0.13921298645542302
-0.5049200638052558
0.10143906255730961
-0.32247324275956124
-0.2526307091395674
0.21905474665558788
-0.29314360911951565
-0.6608227177224446
0.6185256036158054
0.16580194028293627
-0.5829713556713332
-0.8904116127122863
-0.7339107367195998
0.44088822233459446
0.5518043414065525
0.923874026941502
0.11538083774448515
-0.6965511569492424
-0.49714684302212553
0.8438585096079159
0.446558697816001
0.6752743514788913
-0.1912416948249365
-0.04368492045148531
0.8385705934001704
-0.8925705302892828
-0.5425424014946698
0.6950964902173515
0.0
0.0
0.0
0.0
0.0
0.0
0.0
0.0
0.0
0.0
0.3886335517495958
0.1475096807152534
0.0941416088695719
-0.15144889859296917
-0.9933401913068443
0.8015844749004419
-0.3479692918496543
0.6440898726356119
0.7213891188933537
0.31228261701151494
-0.00914868743254682
0.05321321103887877
0.887065805108876
-0.7771345118616888
-0.817995427409814
0.9350041593893983
0.4996613474488889
0.7579934116478877
0.2301715002251996
-0.674042845499069
0.4212123632610467
0.07600830615345888
-0.7955172106935651
0.6830241869607181
-0.7006462613815778
-0.5582036297178148
-0.7060016920207426
0.41093508502417353
-0.2659347271411785
-0.07356346749277098
0.9058281391154249
-0.4672331146129953
-0.14792468119391278
-0.29147954750758687
-0.6992586235443017
-0.97402348401775
-0.33259249537166435
-0.31376293462674854
-0.27564751179596514
0.5403298797918794
0.9188907674367606
0.08528313827646272
0.1155649302612054
0.30677958170874287
-0.8638007946165867
-0.9485307645959729
0.4527245274190146
0.4576875641093531
0.026127767393349627
-0.7999087749036795
0.7358551685869701
-0.21842177986809697
-0.6979683886606476
0.3936717573897901
0.6852363377191528
-0.34426424193235383
0.2884446653685864
0.039536917754853684
0.6715102506532908
0.5791148738425542
-0.07703887880953669
0.5106424347597784
0.9375931902800221
0.05172448112764405
-0.41994005197269235
0.6836136896655731
0.706204496912411
0.2136778192114921
0.8363953725001425
0.9446969559019047
0.8047142559321143
-0.9157993413130683
0.928575150041288
0.8195042436804398
0.3306323232672115
-0.2020511244588623
0.26166891878918386
-0.045656962499083686
0.42950138623801437
0.9134444300240538
-0.774533291009692
-0.15008876973287233
0.5328300715615866
0.005827279556146481
0.5957342804843162
0.5418187484547541
-0.6288503390186944
-0.15208010327193144
0.8699312149059375
0.0970415667910255
0.134408218161437
-0.100574083584432
-0.6917660072231635
0.7491005565486416
0.08120946060508905
-0.20252355346391537
-0.7831036845875186
0.45172025816410843
0.9092481284120524
0.9785729825446305
0.0
0.12025732752562458
0.0
0.0
-0.07169810660232054
0.0
0.0
0.0
0.0
0.0
0.5353536889634161
0.569430050431575
-0.3693333787911912
0.08213284392220707
-0.1272958951138916
0.18327680619293885
0.8108748780530886
0.83671538116654
-0.023031589059090418
0.9188121616881302
-0.6602523232988873
-0.34447716108770376
-0.659230084005064
0.23860630681658757
0.8293494553544611
0.41701936103529613
-0.18765762774469086
0.07823087585905188
-0.029611601652144603
0.7200487991663087
0.0753221936205771
0.5272906250961911
-0.029602565345910214
-0.09343790948130737
-0.17424167216435987
0.9498296806529853
0.12401367405350383
0.31006753187748104
-0.8831207074464771
-0.35092146138363645
-0.661085443197986
0.35054752465600814
0.36824341529917914
0.028592169788739685
0.6458465362575312
-0.5559609108772668
0.29211664765777123
-0.10873908493106128
-0.6187215774759447
0.8091938602179425
0.0
0.0
0.0
0.0
0.08848250858251717
0.0
0.0
0.0
-0.0005727798101985745
0.0
0.32128766637182693
-0.3681768370413093
0.18210817085234415
-0.38948327770425784
0.5121634816822282
0.6547128188848583
0.5087258262728254
-0.5144942917315178
-0.006922857105589708
-0.008924408605562054
0.9703406548735098
-0.9976038526960835
0.9874914495893077
-0.372588666731525
0.43761733891907006
0.9556191207000562
-0.9081299841850543
-0.893444439529711
-0.7507344613859968
-0.2786988024919468
0.9822004393101271
0.08768095261090339
0.9225800839716682
0.5419896086043188
0.5931330843425204
-0.8022438582092422
-0.6089169790168615
-0.4580484049783551
0.5805755939813337
0.9186600212909157
0.8327198760500734
0.7982298248399284
0.2239561819736191
0.0802961325316156
0.9164815576109944
0.8833695111817834
-0.9148508900571846
0.4677377076261684
-0.33700543762653007
-0.9855391149293773
0.8281919579878074
-0.8885900014136905
0.7930083696972878
0.5558564484542732
-0.9337966857752718
-0.568533102094325
0.10696569170633485
-0.8338820137407981
-0.30678265494688994
0.19033563138348764
0.6947354878212513
-0.8495054307655157
0.31056103452217815
0.8682225502817777
-0.7898802715306361
-0.6438495425379988
0.2854775705507442
-0.25198599210258577
0.5515263170105528
0.18840627648449026
-0.32430032022470723
-0.7893060928190572
-1.044566155547931
0.8201909179162452
-0.14930560935011195
0.06955340465236937
-0.28945903554347996
-0.7194829818838582
0.17732194324196815
0.41246373355218147
-0.7053242381600695
-0.24790281729848096
-0.8205583146183569
-0.5061172017386024
-0.800648540475567
-0.25677052579090875
0.9429377766133769
-0.2007414285361493
0.7149501538807916
0.6097028159721515
0.9312106577807011
0.8841412752225262
0.6170241430987895
-0.1391029712248142
0.804484599505367
-0.7157051105970931
-0.006817198268169955
0.4626807443425107
-0.8699771273555581
-0.5498763556706263
0.8353627048694896
-0.9153629391679359
-0.042514419125605496
0.27873721693203257
-0.07186634966672324
-0.44469955180666076
0.6421420867912608
-0.6271928929752072
-0.9066907792402539
-0.9256182374898712
-0.14338669582719074
0.432263826273574
0.8971242019442207
-0.5090978778009485
0.3505997380589989
0.918309981527474
0.40155973881021345
-0.9348498362526729
0.8081358448675433
0.5849077307977559
-0.6347094724140352
-0.8414826780462095
-0.7471012527965143
0.3016511489323026
-0.12475705947580355
0.08882489534030458
-0.8964620334546431
-0.8302275951869466
0.1281255781774108
0.7011074423280923
0.9869723917487774
-0.5978326116991282
-0.5407817681560354
0.6536824981398244
-0.26365099598462316
-0.039417589240146045
0.7860676130715201
-0.019213445083620107
-0.540435268892246
-0.0021849909949702706
0.0
-0.0014740044108004613
0.0
-0.039317635922552725
0.1268504322134479
0.0
0.0
0.0
0.05396306038561468
-0.020005927173931223
0.0
0.0
0.0
0.0
0.0
0.0
0.0
0.0
0.0
0.009563690307338578
-0.49986142230855113
0.38468341778408877
0.6860185584574927
0.35381590943976815
-0.5639961756243062
-0.5779532375524414
-0.4073690945437789
-0.9266520653038604
-0.4825311296398369
0.5258022295258677
0.0
-0.058236525779555154
0.0
0.0
0.0
0.0
0.0
0.0
0.0
0.0
0.06690809248637264
0.09367734812149417
0.0
0.0
0.13568595425344765
0.0
0.0
0.0
0.0
0.0
0.5982799383692003
-0.331401015989373
-0.19789962289918184
0.23684610908002313
0.5407251128873725
-0.5558299531007715
-0.6754951963833589
0.8403911562668704
0.1396161002011902
0.4660947746636006
-0.04849669690122527
0.4842547100286785
-0.808501748537354
0.11301459689386117
-0.815917889750265
0.8560767895240002
0.19765298675283383
0.12207593037847464
-0.3899952995648355
-0.6632671522416396
-0.16627180258312535
-0.23836270090215228
-0.5413809016160267
-0.4436812665519163
-0.18373496960801305
-0.8523475880676903
-0.25544284247824556
-0.9579402865987717
0.6397346885776847
0.07887822336172001
-0.8995354782127689
0.4846353890069879
0.09781366387119401
-0.21563141759339177
-0.4193881030424154
0.9848186809790525
-0.5379853594688528
0.2449651272927127
-0.4915314052047549
-0.14881674484996865
0.9905029390774478
-0.9877129667514335
0.6308078061915008
0.88756481186766
0.7931920973933371
0.5180726276441276
-0.8393739276093239
-0.03407693596091613
0.16240300177923594
1.0024457201711514
-0.8477614887071114
0.9592893755133827
-0.3643276034406171
0.24847276191069304
-0.17501933275496673
0.7260138706383721
0.026771251236508364
0.47320208847768563
0.5653964804847289
-0.33712921245111716
0.0
0.09052018921974093
0.0
0.10083014522843653
0.0
0.0
0.0
0.0
0.0
0.0
-0.13261698743654615
0.40197678351597554
-0.12319914492712125
0.42972452747991374
0.8152805609604683
-0.1155276381452277
-0.12636025469752576
-0.46700896393158997
0.9417269644883492
0.8570205358116871
-0.5794808241526224
0.695666286276668
0.4410414865634926
-0.16235749618939677
0.1760212411029889
0.8276352584752589
0.6518996345479857
0.7177581570786136
0.8994983554007842
0.056913170612692854
-0.10058808807964992
0.3965903815713483
0.6360258728760642
-0.31063142200992044
0.3053428244330926
0.5597062038499101
0.6594643716152426
0.16614016206738458
-0.6483520765923552
0.9143921829851194
0.0
0.0
0.0
0.0
0.0
0.0
-0.028895403356720195
-0.1143360079863356
0.0
-0.02790127388977966
-0.14702588692600038
0.48152031367496284
-0.6344488025620483
-0.16737784106988207
-0.4741592579396098
-0.2603573540446358
-0.7322908675994726
-0.5678199059873081
0.30868201823195096
0.4511973440531283
0.58861340237288
0.362076342021904
0.002142150559342193
-0.8119098266052405
-0.6329308330099397
0.4365548200567235
0.43231865464535946
-0.5842647791184761
0.6642633635969929
0.36321640920457154
0.8143252942441579
0.6272241058455177
-0.31054225583370476
-0.2552597203951066
0.25793434496733036
0.3246654555857904
0.7031860384448749
0.33090094685752236
0.3005129686668726
-0.674576179733918
0.0
0.0
0.0
0.08598152543589768
0.0
0.0
0.0
0.0
0.0
0.0
0.0
0.015329802845985603
0.0
0.0
0.0
-0.028255828637840354
0.0
0.0
0.0
0.0
-0.4064867922440758
-0.47889419455855964
-0.9065899110496063
-0.49144659603411667
-0.9304551720398841
0.3002429995319622
-0.1529128877513466
0.6155297655819091
-0.9074384345983639
-0.45618409838261553
0.021918511712597954
0.38260421069925954
0.32031690861453654
0.8292784701527247
0.4397069245771308
-0.24027850629380287
0.16189451480853734
-0.33474048763844055
0.87864348554427
-0.38753697030196
0.834154421569443
0.3311432454328225
0.046483260636513535
-0.6814607975750044
0.5907768067319861
-0.8507248752386143
0.7932268678617005
-0.7670589342589256
0.893363324334078
0.05424482919210827
0.13958272502337854
-1.0632226215776275
-0.12086437893745194
-0.16993705912038104
0.9385477264020874
-0.3775083556325962
0.26922389142298186
0.1527613568895736
0.8461681087126445
-0.2796721997120306
-1.0338900259889943
-0.5230224357600509
-0.7166122555496979
0.9639167735159415
-0.5495141773526229
0.6966600992347873
-0.5165804471822522
-0.5304388389172268
0.48410063299415196
-0.23789101137186464
0.43337946751271605
0.10641563607339455
-0.5169108031521044
0.305299532432765
0.8615019640648767
-0.9470942694944338
-0.015843403487833863
-0.4761918309343438
0.3864954405981418
-0.21233152705859126
-0.027034602914262518
0.6977005508873577
-0.19018847453705498
0.44535160797379536
0.4095203822377729
-0.9424577667152932
0.642228508525402
-0.27921204052983617
0.49524959712906647
-0.7523473748643077
0.841650972115068
-0.46074834250914276
-0.4715633356907347
-0.10564662282871784
0.4358807276870562
0.8347471264540656
0.45391863578668823
0.8485979720366936
0.16192532300110535
0.626690565789346
0.46368850226606506
-0.9810276374921856
0.4493284768404716
0.6960134064951364
0.9377907910065901
-0.7910865299775576
1.0177899722071377
-0.7670153607071613
-0.752795264771065
-0.5283774623724592
0.031108348186722805
0.19161164073031434
-0.4602972707444415
0.8338140698021925
-1.0084113758601234
-0.42782912058638556
0.39901372451912276
0.5190049584371297
0.5923827233191766
0.4563721253758912
-0.9166661316787084
0.6121957711210677
0.2563626601437964
0.1327302791311491
0.9348149493957209
0.3603821358147552
-0.640811227448816
0.8707607996810287
-0.8608871237746509
0.007545813968964726
0.6575715234698875
-0.4674247614041629
0.02341413719011598
0.4744012796812811
0.7141208059718813
0.7986442671959849
-0.8088958098078001
0.7420506328062408
0.269990125945188
0.5152842104866453
-0.40127217685529537
-0.6786659183043589
0.7255332110912247
0.8352090267293946
0.3013587633954189
-0.13757636972708376
0.7792896725897256
-0.2281412044590745
-0.292615669410891
0.28014559197450595
-0.3116147198676427
0.9996314779639888
-0.22872769118988634
0.7963989831402728
-0.2574389154868899
-0.5953276726657057
-0.5552086122833046
0.23901568750687607
-0.42123789844734905
-0.6544434431648634
-0.942911734757194
-0.636480611861064
0.08096803475305947
-0.1900934910766523
-0.5210266851095469
0.36752142047598046
-0.756001329183555
-0.9498403458576588
-0.9090517849988127
-0.6061511186886689
0.4704927212359249
-0.5436540002423014
0.7392501123031636
0.6091094736609588
-0.4089623701690044
0.6618035070056543
0.3251468275854388
-0.21783387748151006
-0.058376475296426866
-0.6622958968980959
0.6833608444197046
-0.7342634308457099
-0.22966635893941123
0.5840113994916736
-0.6486959133782473
-0.3721337201764974
0.5532264325216127
0.7110237060218154
0.12499607616773378
-0.8224600849239454
0.0
0.0
0.0
0.0
-0.03209582947161938
0.022880859745349865
0.0
0.2230370311064786
0.0
0.0
-0.18942966772165537
0.7751421588699521
-0.31769360839881555
-0.8139442375504882
-0.8604158561482309
0.9165400729439086
0.6602329708299106
-0.39158883110555576
-0.23420274752206183
0.04085051037333816
0.5591386126260125
0.3756987153752236
-0.9603870063566744
0.42198417192070314
0.1295429370308243
-0.8969696396909352
0.2761256643624961
-0.9879793601911082
-0.16016893855172953
0.7911180272689629
0.0
0.0
0.0
0.0
0.0
0.0
0.0
0.0
0.0
0.0
0.05617962444732563
-0.31105699324184544
0.22074319858281777
-0.7265487980048426
0.5847950062294223
0.6789051452837382
0.5835086195958783
0.48211624145965076
-0.31371296571284524
-0.5348055225388233
-0.2217969558973485
0.9408077626392668
-0.5632800304712791
-0.8502396538634602
-0.3223890983017548
0.9564189454611665
-0.3100975438152038
-0.8243984634280471
-0.9815035866738578
-0.587657913863022
0.9189538943337622
-0.8075600521532367
-0.2546732515517174
0.141431760663564
0.4272338688048827
-0.21302746577131204
0.6143163384463952
0.3201381778839265
-0.8511564993162748
0.6809861852245024
0.6928647126647502
0.8927128887683295
0.6683567467885707
-0.4199425035684512
-0.5796548145466487
-0.015433400998862146
-0.9185806482589483
0.8001068078158544
0.2047848660165612
0.44882620442520893
-0.47079275072454085
-0.8555288810505067
-0.38407308658426587
-0.34365974990973713
0.42269853741646446
-0.06810090367711563
0.19290615155678525
0.6003571344495309
0.5567315656850531
0.13853132807141433
0.0
0.0
0.0
0.0
0.0
0.0
0.0
0.0
0.0
0.0
-0.5535299403037712
0.65715245234579
-0.26782644098147435
0.5738530426781256
0.3834982987602409
0.7709393918953453
-0.6025214240348504
0.5521708202716691
-0.7089481141257026
-0.6503494167880319
-0.9298179098388253
-0.33514525742933104
-0.5202119973705026
0.6954627821065811
0.5952269932378091
0.7950810379453284
-0.23063204633260947
-0.8219064733302642
-0.11262243105512493
0.06771310505767025
0.929148046557897
-0.39257764830744657
-0.8417336568209042
-0.4157524037780389
-0.3546943193780898
0.8262189989846715
0.5230355005301386
-0.4815298636889185
0.34127734599399595
-0.4905519528211333
0.0211118324678774
-0.6574072742390713
-0.24912885467486115
-0.6577892988288983
0.19081800122157166
0.939330573803596
-0.9712918495512768
-0.48417962968040906
-0.15245819156831808
-0.03305425010150653
-0.4761022478252841
-0.6844998987545619
0.04173643506189251
-0.4711629008091902
-0.841423535827728
0.21136662161138742
-0.45804397568414834
0.7303443184578775
0.6675335675720526
-0.6990722276283758
0.8267066526196138
-0.7211503937018071
-0.725424520928162
-0.6542921801079391
0.06434903302756267
-0.7690038675311992
0.31595943762308387
0.7480147577995284
-0.42597164387513775
-0.024930112182556127
0.1047482786869578
-0.5783884302460778
-0.5090865000611333
0.4148994368544412
-0.9063820589266012
0.9029987877422534
0.528368558022619
-0.2025015910163539
-0.5319374197974442
0.4014776560226541
0.12692075293746963
-0.8034190533948049
0.17487573319215954
0.5537764201300146
0.2591515597613072
-0.8466416726894699
0.8785499001231534
0.9636018314902908
-0.9887738418512533
0.5336821448897877
-0.3635461016449205
0.6728133674618733
0.4976465713237048
0.781843595347329
-0.2224356887548531
0.6183521498778211
0.8330430769533095
-0.32317865831512194
0.8522360414733978
-0.6671341818779644
0.2117118335788113
0.3547684151198425
0.15500405529460415
-0.3619017483541278
-0.4813749052365561
-0.8973287160361278
0.3539958153723972
-0.4680045728090252
-0.6188876920310546
-0.3568837704756156
-0.940180795996788
-0.7912771066098987
-0.4266254668559305
0.35112035473151315
-0.614303362681843
0.6510381212321092
0.8295233132370008
-0.010971718116991491
-0.4771531543510905
-0.2539552805832399
-0.23328864315800257
0.3921497605358031
-0.22419377916282102
-0.054628407022561554
0.3008223301255677
-0.18397120982526638
0.5087646379357256
-0.16381257813837236
0.9461703695433614
-0.3967500258549359
0.09175331650758117
0.44795527757967
-0.7959615683685324
-0.2465781491830511
-0.054526195325786064
0.21906094600446213
-0.5653812239164879
0.29228078868245144
0.4283240057773434
0.194768458434337
-0.9507750167452726
0.38779294104819945
0.6624501350985026
0.895733241937116
0.3965276290841926
-0.873251860752859
0.4304410381945072
-0.23951819571858302
-0.8259732354329623
-0.07242842748673284
0.8416922748897726
-0.09287553248929714
0.7233488636340646
0.015920333717454715
-0.8217434605721474
-0.09394373356616215
-0.6925100071681802
-0.5031394802113252
-0.20431265816058097
-0.18090463072737362
0.0
0.0
0.0
0.011359403125880685
0.0
-0.15151835970753913
0.0
0.0
0.0
0.0
0.936525018516299
-0.03951351303645176
-0.09031816163644704
-0.25943193083472676
-0.34291820187041444
0.33186274139527994
0.7835002847693078
0.1882602690870263
0.2976010708038661
0.17506379903141722
-0.09780321317078666
-0.3819539832040584
-0.428006607176159
-0.6263471817721735
-0.1291056666132957
0.2603887231798603
-0.12660932895923138
-0.7430163976330162
0.5610274777278823
-0.2332512368632691
0.9052681954094444
-0.4476637600697928
0.5114155466519461
0.2944775783929132
-0.6611688904548048
-0.318882921659442
0.17614610991985113
-0.25626619803804673
0.8317755432161973
-0.7602952973246395
-0.0692370370791597
0.4187792998931936
-0.5264361442114083
-0.08319685666382637
-0.8308242293506847
-0.49773128618590656
0.577430496180428
-0.10151965693679821
-0.4085274582322689
0.6591436040526448
-0.9351344519789853
-0.0010098666733568684
0.7090197066440665
-0.9044561127326869
-0.6334826728233364
0.9508577860631693
0.32541906543964405
0.4199777040740498
0.26829905786812097
-0.25604942739663367
-0.13491137728249458
0.9465928602241487
0.7402491565250686
-0.6946586332454348
0.8383705237387871
0.5245649956700147
0.3022593030991456
-0.6020528147320559
0.5606553736364472
-0.2967388435023328
-0.5906413346459856
-0.36618413585094456
0.06166486046111386
-0.5242154242844754
0.5174458107801487
1.0726753277911851
0.7636551894591539
0.2612029859453547
-0.902075040739867
-0.7187701442683136
0.5268429803293053
0.3569876014416282
-0.1516610306267836
-0.3171773695818181
-0.2542242535035992
0.05736163340169716
-0.6077584950907815
0.8299619535476594
-0.09884763401991159
-0.5867593464629437
-0.820993222275824
-0.334909285615431
-0.13900322106147422
0.1949209247407787
-0.4143263614345496
0.7804120041304805
-0.6352323215746825
-0.16311418673865985
0.5830978269302469
0.912116766369844
-0.6200735464490235
-0.692802486443648
-0.6378876235926823
0.5995539297250756
-0.7463675829200265
0.3129151416005067
-0.26760249776297673
-0.5109009955059014
0.054638648141258545
0.6393558190600317
-0.5315463304131474
-0.9684275559867423
-0.05762434065671873
0.5373705044633195
0.3572525681358676
0.5159594614340663
