-0.00040253859266103594
0.13842740338352866
0.030291082404404684
0.11149157898816615
0.07530247215690834
0.025115512890086955
-0.09743063105759486
0.07334281439608886
-0.049902807819618894
0.0
0.0
0.11962649480761067
-0.06871874381719151
0.06662765037662663
0.05843290352334177
0.14094085262714962
-0.004847728488006643
-0.22069966370470448
0.0
0.1316927188465821
0.10836471872364332
-0.06733909582088676
-0.2633778770578945
0.16313950134327074
-0.06037404730099749
0.2608345578904026
-0.34708025153094757
0.25728328001125944
-0.2869335342475281
0.1846171756751654
0.0
0.5078959587175664
0.1877699735513759
0.2931960478929824
-0.2031462798378127
0.12463603244065012
-0.29808360016294255
-0.01832255390368539
0.11928325871022909
-0.19736080500265707
-0.26528187759973554
0.16419044687614867
0.28011216245136106
-0.11343191641827763
0.040166889601735284
-0.39584078825638414
-0.14788092194947608
0.14584390396163247
0.08095063907490442
0.3989198311095645
-0.11158799102112754
0.1692720224381255
0.24276506709508358
-0.0807529110105747
0.0
0.07432945525366913
0.09127059514073953
0.11539061446038254
0.06199787420956216
0.18628268137283954
0.08234822460629512
0.07577714909599899
0.03079491703646724
0.034258279956840526
0.05048134737131707
0.04412303210907917
-0.07877131987096928
-0.08589679414924803
-0.08065844808376296
0.06618059608098228
0.4044407051768592
-0.07047314169840353
-0.06532902352863307
-0.39510818150038995
0.11656220628286905
0.32677307844428444
-0.15237801901856954
-0.47198010575818033
0.041741341339868746
0.4460458432627564
0.23066200419704597
0.13481748385621106
0.02154381196232437
-0.29869783728585575
-0.031417585770143266
0.18897328588776968
0.04155953059322933
0.07072419548915464
0.06572002524453129
-0.019584379992206986
-0.1920881391993901
-0.09578782002390382
0.07621710496864062
0.11417404489667907
-0.008663412827171424
-0.15560557890215237
0.0
-0.017220628158872067
0.22700333484381613
0.26878974580598847
-0.0523690239985476
-0.4992611264553102
0.07405230002767177
0.30512684314678884
-0.0016649174851781565
-0.30538831645681147
0.15097350381625915
0.08164378155439661
-0.006215208006427908
-0.19470629825694724
0.0
0.0
0.0
0.0
-0.06066425347476931
0.0
0.0
0.0
0.10522716689779353
0.012150912298264238
0.0
-0.018112659082405447
0.0
0.022738404263316393
-0.12665600874360047
0.3774433238773947
-0.10327167469277124
-0.0744034690261506
-0.2922260626990623
0.0
0.0
-0.14535458065059254
-0.08206084699126405
0.0
0.11812035611156094
0.0
-0.006771053109084914
0.0
0.12728193389278308
-0.10822585026917814
-0.13110034096321752
0.04793876324607453
-0.031683494897791785
0.15787009219652554
0.1480272522434884
-0.05157981549867072
0.08143234739422375
-0.08759288088939943
0.12384197374134068
0.15670170393118937
0.0
0.20488222800799077
0.012627931931381692
0.11393211300256406
-0.04273034437209447
-0.04460890251219682
0.1382163143412819
-0.22461338518491933
0.0
-0.20246901689679586
0.08003280054460321
-0.2235198532954186
-0.0199535090691168
0.0
0.09969715093464808
-0.08972024093602929
0.03143133819064225
0.08695121312898438
-0.12150276672219432
-0.018803679771417434
-0.04752705555857149
0.0
0.0
-0.0077239133713129455
0.0
0.0
-0.1252755538281372
0.06068330056859514
0.03928640281696719
0.0
0.09158933725920654
0.07030365611669312
-0.03233373100168039
0.09466221046783517
0.0
-0.03609403144709912
-0.2688100359328686
0.11608778769495298
0.41533448001084866
0.05285245340530491
-0.36854138464984604
-0.0411260441061128
0.10628037548226368
0.03976574322800153
-0.24536142417334394
-0.12050818215494992
0.20502120130506052
0.24691103730562314
-0.20151973583754684
0.22945670577728838
0.0
0.039028854249658025
0.0
0.0
0.0749134439063509
0.043639957326821924
0.0
0.0
0.09255705900358177
-0.024370383713438235
-0.05841103426401757
-0.06140806091792003
0.0
0.0
0.0
0.0
0.0
-0.1445530479130633
0.014184003392674147
-0.017920439073697673
0.11402293815043742
0.248263078545564
-0.07008804312446038
0.06305520403434271
-0.22857786293479826
0.08663292661646428
-0.18649636485695595
-0.16163466463740214
0.07670956950348512
0.10284477008869142
0.2115983633731332
-0.004274177065104384
0.1023949002603151
-0.1587919257318155
-0.26346683107049884
-0.03120698269067796
0.08523457411584144
-0.09885498794759663
-0.03443998808844428
0.2702186513349673
0.18261569993288773
-0.3802286485806241
0.2159720390991678
0.0
0.18655916390501662
0.0814110727745031
-0.21305105656115064
0.012438532200720094
-0.06884141760683833
0.11397821368937716
0.06400485304181372
0.3216154724047051
0.04048548956639679
0.04348523533070949
-0.055649612634956616
0.017745622385253495
0.004197353859058631
0.1852778341204687
0.4056920215704895
0.10492133471176682
-0.05048925055614285
0.0
0.0
0.0
0.04734804582671745
0.0
0.0
0.04774274618823717
-0.05569376547694572
0.0
-0.06113348068152229
0.07939782605371538
-0.22942992293780512
0.11586438554055696
-0.05817730072343481
0.1018725950695332
0.0878939321782361
-0.0967545380563612
0.10766339184965296
-0.07426239846745203
-0.007393293528288264
0.0
-0.02627369309821526
0.018167982973933915
0.0
0.0
-0.044980238731180275
0.3544316727211553
0.12073867240560188
0.0
-0.06652336272201324
0.0
0.15458773706830914
0.1281262709992663
-0.05181712738875652
-0.054522827912424854
0.06804227706702864
-0.007138763549436317
-0.09524729021807059
0.044502739291503536
-0.03346185939716702
-0.07658259914094866
0.20063675443008447
0.11028651995486383
0.04734036930367685
-0.1275134210266611
-0.29761128385646335
0.052357189604975894
0.09697130875404134
0.05905893750853053
0.09206116296267869
0.0
0.04901129161192392
0.0
0.1591876375977159
-0.048131329922465604
0.062260772144926896
0.0
0.0
-0.07327709998846071
0.06399166242767744
0.0964364515289893
-0.14806135685816849
-0.06135580437498814
-0.035678257445492384
-0.07179398495710387
-0.10432946412807
-0.11331445211091916
0.09463721277699724
-0.052143406371352584
-0.07404744488263179
-0.13801976339160718
0.0
0.055192400774687025
0.398019419498787
0.11940612259416891
-0.06908959955698393
-0.03483974846496782
0.039518353881422115
-0.23845084586723098
0.011903762290590566
0.0
-0.08518386983640658
-0.03983411813788959
0.10377446862017778
-0.11850377540393936
0.0
0.1316847408355003
0.0714299263960203
0.10073680117303123
0.04483172880551152
0.00838083433322222
0.02193063221705229
0.006355315189449334
-0.02820961353614969
-0.11138649450592542
0.03130739380897579
0.0
0.0824836583110066
-0.11853888822822205
0.4014889527744355
0.3427909569735309
0.019679257053534883
-0.14214067105950884
-0.22362896146794953
-0.054520485438087796
-0.08851901476839324
-0.0612913608642768
0.028553817883808175
0.1250313611316711
0.06324124078842684
0.1766883742433257
0.18167589697084036
0.29828391679519434
-0.019591582486335277
0.3215902629854699
0.12826722130354984
0.1703850152100247
0.05654784330917473
-0.3115034122263162
-0.1052682920418268
-0.00585537058847171
0.17468869920307234
0.0
0.05222846843599031
-0.11394393368450251
0.062298495170571386
0.10892494805520014
0.07598386465544472
-0.0039982876929420125
0.0405709012177995
0.0
-0.026875173308662292
0.0
0.14425286685170635
0.0
0.0
-0.08283521475741792
-0.0730901875278332
-0.03544886449509981
0.06351961779763216
0.30939300225062094
-0.03382140295601834
0.01529598937004212
0.06729822442466324
0.43024250959403515
-0.08208517603751056
0.12680472708632734
0.22463625196020948
0.07769353798425105
-0.008272318885478826
0.08661650141780267
-0.015523858356642092
-0.08323588680521349
0.002875276957607515
-0.03817677886560897
-0.03798639009417096
0.1506396838156429
-0.10635507775261863
-0.0054436723712752155
0.0
0.03309867813511176
0.08618887054755273
0.0
-0.05426473892782373
0.13723341296447075
-0.11670174071074577
0.04982296020811637
0.0
0.0
0.0
0.0
0.0
-0.08059791155417037
-0.03892142021170075
0.23606799851027627
-0.02099478436085083
0.03794079091186752
0.0
-0.059721792864055656
-0.04299112498611947
0.17428642609829162
0.0
0.0011601188261398387
0.04282672771601185
-0.05156753290973437
-0.018526562193746154
0.0
0.07108328893957273
-0.004502709087418979
0.23741793849105852
0.1250367582231249
-0.07511395678474628
-0.33674265367620115
0.05603948605180513
0.00936224069409454
-0.05489617270137334
-0.0004300590786701086
-0.3032501526488437
-0.024993370021260876
0.0
-0.09575890105020976
-0.18214975342519701
0.0
0.0
0.0
-0.14593681744450612
0.023570431455178804
-0.06326775714501866
0.0
0.13348353670046004
-0.35016634454052264
-0.020249848200555892
-0.06194268116503017
0.10614195293584398
0.2663032256459809
-0.027490773112419375
-0.3105662247074544
-0.1509532906081455
0.20455542066955745
-0.21202248084543057
0.08311713974518006
0.0
0.14245588556132918
0.0
0.0
-0.011995588116097666
0.06810830534759206
0.0
0.0
0.00828038958368034
-0.14035904370152624
-0.08225221893835466
-0.020857821269101528
0.02671501283473432
0.14768596941111709
0.17350582681012017
0.07895044820968262
0.23293410423263755
0.2794863799448676
0.0
0.10944787889959146
-0.14223117069353688
0.0
0.18644670361436577
-0.024276702588116587
-0.10560607185620255
-0.0687165442290226
0.03226632143266166
-0.050040654525976766
-0.07086108637427449
-0.2591920608378685
0.29716101360961844
0.13437999057607353
0.05430683515298082
0.2065480504596348
-0.4173000118876967
0.0027691063332708696
0.0479089010278692
-0.054578253792183916
0.11321026054951225
0.16679801467056962
0.006834723359807263
0.24378965845362743
-0.09546697200382934
-0.00010770160363041126
0.05231425125041347
-0.0223674266156092
0.0
-0.13616073286415387
-0.04586935046936036
0.2935206836891724
0.04979425447268971
0.027657629112505
-0.03608151476143556
-0.21139022330838164
0.06508235134368896
0.0
-0.3016037951875761
0.03500729191370872
-0.4518406399730354
-0.09434870074318033
0.05462709887373707
0.17236535273680528
-0.30264147280594955
0.622167380112303
0.03850093678391372
-0.15264684378992346
-0.24709775344439447
0.10999541526910517
-0.1604412979864941
0.11014719979307877
0.10127159085310775
0.0
-0.031074294876499195
-0.1522159219890462
0.04654449837737555
-0.0010458762892051332
0.0
-0.06529040390928763
0.0
-0.3119550455915444
-0.11715696413393004
0.0
-0.05906905934215702
0.08097279088477732
-0.09748924083222778
0.0
-0.08538927421307478
0.0
0.34324098694890576
0.0
-0.02893319401590685
-0.05245672180789021
-0.06110826385890792
0.05638844109094904
-0.0218638234663137
0.07516395741903883
0.30733622743855477
0.013063082257886834
0.07338303202297426
-0.026219376536038848
-0.152567154568254
0.004926344642389821
0.03417715387140765
0.03354362433129848
0.11293278333393339
0.20841608511789528
-0.10448666445363217
0.20637475143665593
0.0
0.07168626773719322
-0.027214414767066188
0.0
-0.02876515635976118
0.0
0.0
0.06376043136121683
0.1401697550519735
-0.13206472311256243
0.06236861303281228
0.01450107763272953
0.06312492349890761
-0.037859967903952074
-0.013224704543858122
-0.06406193108007988
0.09660922557598824
-0.3049208543789258
-0.3659861076386794
-0.007629882576915548
0.0
0.004871978697713011
0.0
0.05912494861819349
0.039091363019769745
0.0
0.01944343531219154
0.03418761702883431
0.0469731606329799
0.0
0.20272497912550191
0.1338882233461772
-0.10360973789898442
0.16522049240419479
0.017176531791528865
0.016464445346885674
-0.12438750974261764
0.004616793219527264
0.33505886251501277
-0.01992065206868023
0.1443526905673797
0.22417892674742318
-0.2649479444054468
0.002659688566570142
0.09879727573121463
-0.2955797403789455
0.005663715686244249
0.02061654944475975
0.11999838008328367
-0.12808824825478604
0.0857854567294131
0.07518806982850904
0.04804276676783409
-0.01997449114478965
0.14680506796234644
0.04471042607825845
-0.023741106239922503
0.0
-0.09038863070273802
0.0
0.21102568331328284
-0.052923646369025225
-0.08412364066874811
-0.011987267656408947
0.028426314927082114
0.014364005234912373
0.2041915763546552
0.06628163944732555
-0.021790365870775496
0.0
0.026459015159761495
0.1297792859248872
0.19317804740104488
0.2448309809765257
0.04938638167656935
0.12621170563062276
0.25278737351821073
-0.10984856923747807
0.027864983105705936
-0.14198820626472997
0.026601809995630357
0.002776835541623838
-0.07903028787105815
-0.18457535031671987
0.3835333207085928
0.0
0.02280867466765253
-0.03069500249159638
-0.09647169681772869
0.046386118454761746
0.0
0.0
0.0
0.0
0.0
0.0
0.010949558522899062
0.030349847626377362
0.0
0.0
0.0
0.0
0.135762172325537
0.021402790583617798
0.02053360198321412
0.0
0.0
0.0
-0.17512905266800455
-0.08713365515972898
0.014952276888580404
0.0
-0.1464866139730511
-0.012034588513512485
-0.013993735917272746
0.07580691179034593
0.12033077989217018
0.1286490450962997
-0.00685352455411435
0.10474105423683706
0.18031905192984932
0.10154797379902099
-0.09378715228172527
-0.10286028568556872
-0.2252882790488615
0.06642104888624623
0.18592917965028916
-0.03634797106769418
-0.04293302266872487
0.0
-0.035772524599469065
0.0014601962490147224
-0.20463209741125382
0.33882455405609835
-0.13899289894039282
-0.07006450893153858
0.03813751237312479
-0.0453583685813707
-0.16346502101297095
0.0
0.15912956742989232
0.03352894630821184
0.23287100002342553
-0.16162642401359056
0.054720090617885256
0.542634495703573
-0.16305614740571991
-0.47160306866186374
0.3329695918065778
-0.1601770138625673
-0.37679265037279197
-0.19276640196520659
0.11935589403033325
0.1271034346778118
-0.037446037511917454
0.02262729062914213
-0.03195522436656084
-0.3967382771492621
0.18246161020019444
0.2541454545938178
0.0
-0.045790988738215584
0.0
0.0
0.0
-0.3175239074820116
0.0
0.0
-0.1525121455824688
-0.041974754110024874
-0.0506062960243134
0.21065163805433318
0.14739870307918382
0.07850386528129842
0.11032975108559076
0.2894011498945752
0.13245556712566825
-0.006700916182046674
-0.14292545955378957
-0.011101456614717635
0.19766977154751403
-0.31012333887396926
-0.5583078331788852
0.0204682950297283
0.49730056012169793
0.11618277900499392
-0.2762459934914129
-0.20330663148429506
0.014128159771151678
0.0966050763982613
0.0
0.0
0.0
0.1525696823385413
0.024593719209124093
0.0
0.0
-0.08000794176182266
0.12599213782162977
0.0
-0.03079417211530038
0.06960839287508677
-0.24692539608717648
0.013399084980853538
0.0
0.0
-0.12025474613102229
0.0
0.15797354959986673
0.03211296716607617
0.0
0.0
0.0
-0.003194363449192419
0.04785572785116761
0.006452794311593997
0.0
0.0
-0.0032273405304718353
-0.012259509584389401
-0.021153641011010974
-0.17794682165841214
0.03396857767733129
0.008010052289089319
-0.12612305366689375
0.145386959684636
0.05292772368451834
-0.09484237655826494
-0.0663380006818881
-0.08664078130539764
-0.03372322858128073
0.3454376179600857
-0.0086658403801338
0.0
-0.1331712539111429
0.14989189108919032
-0.06555370788945998
0.09757877694827502
-0.027736775772533306
-0.11706314406706352
-0.08144519681983964
0.00023841988807962733
-0.07422052341717213
0.07613840764413274
-0.1019875399650856
0.06351070878224178
-0.15258227066878885
-0.17641123687680021
0.07058790233687229
0.17222571123531258
-0.3243509346775575
0.004402703307260652
0.07715730446656269
0.20698895221274044
-0.12479855049214822
-0.08097608484133154
-0.05272987389539358
0.33240622120262053
0.004453089754729203
0.045957996875594306
-0.24518369504228324
0.08130052739917595
0.3348304319352367
-0.11935152960757765
0.0
0.07446904115187565
0.0
-0.33018280023812613
-0.003510692084960264
0.0
0.09002211681532613
0.03222391931482725
-0.35753756494687
-0.11309190291904855
0.0766554925888809
-0.2388879522445431
-0.04472439187060422
-0.03744461940867717
-0.16038590820656917
-0.021591017838018756
-0.024808349617864395
0.011498570196095681
0.013886344280226542
0.12282619360697203
0.20752602291268663
-0.11668483662031587
-0.22181063181911181
-0.048721062421793325
-0.02708091647662328
-0.11563072066199669
-0.0776592703711784
-0.21168084893495653
0.10379405528663288
-0.8301274651881525
0.058048385807079196
-0.020856004673598827
0.0
-0.1481430620709363
-0.022971162975151546
-0.20356931921465826
0.0
-0.13448763866462218
-0.163908150929678
0.0
-0.03365504022396225
0.0
0.026317594711383
0.06242930693333229
0.0
0.06325032593154233
0.014365598464195002
0.0
-0.034214204822205205
-0.027538100963379684
0.055545903760442134
0.0
-0.030684796570876444
0.0
0.0
-0.1161246945749079
0.0
0.0
-0.11951542069480552
0.0
0.0
0.04554522412718765
0.04263905542347586
0.0299042273070263
0.0
0.03867187314229092
-0.10149906119141443
-0.16576813220151632
-0.05385967142530276
-0.049557310231518215
0.17342078710884784
0.15339978395897194
0.09483260296705406
0.36974174067943427
-0.07420201103662483
-0.12477165115267362
0.03297998305311456
-0.0039288609965009505
-0.06813090205189477
-0.08725303686328677
-0.015739264902477863
0.03988875348354029
0.08924465415845913
0.0
-0.030547429984586035
0.023004737340916317
0.17249867036386138
0.10403825791169806
0.018882165738012928
0.048832713803505914
-0.2595109553128379
0.030273524563271745
0.10795140344168727
-0.0038412858580875037
0.008131411453107102
0.0
0.42480193494855045
0.1563731972315056
-0.14385337088383174
0.1845586808201469
-0.0335324068432658
0.21737074485880267
-0.05128597432785488
0.2840748899094485
0.30792696257022373
-0.6514743180583512
0.0
0.029868892061481828
0.11055628149982047
-0.02000913823047872
0.0
-0.11765523374384779
-0.07970370751134104
-0.0483540051766009
-0.1735049252614577
0.0
0.10560412486796977
0.0
0.0
0.0
0.13548663883927126
0.0
0.0
0.009705242607333943
-0.02903169994602536
0.0
0.0
0.09668574107944355
0.08585503430233951
-0.03540141099820741
-0.09888438511342637
-0.06436556705461269
0.06328070019880054
-0.02098247458167392
0.04288356980087779
0.08915840341475802
0.009754174216421255
0.0
0.0
0.0
0.0
-0.051383856809886934
-0.0028072563234767464
-0.092733844231444
0.0
0.0633950299594304
0.0
-0.13475925657980486
0.0
0.0
0.0003507882623395159
0.06274728217683585
-0.15018152134063348
0.11834204803063568
0.0
0.0
-0.023270372677445913
0.19023250917472387
-0.048775579046984985
0.20456868748932452
0.3959188737376293
0.2846192479661573
-0.18136276973692322
-0.11266963392822395
-0.09982022285652975
0.11534335396447495
0.0
0.2703982962955377
0.09846847923046392
0.0
-0.012534250044574015
0.0
0.03366920116408357
-0.037492899549694446
0.0
-0.10714931147734587
0.026516151158139205
-0.07757563382370199
-0.20139782252313704
0.0011444659292463057
0.029358431308917805
0.12373951166472433
0.14832056811121125
-0.07580289968350276
0.3646969264253435
0.05085268763949337
-0.009635134961249979
-0.11668247915659383
0.0
-0.06456878270268782
0.0
-0.04692358914205362
0.02109052979353517
-0.13869088028655752
0.14039969359810756
0.0
0.0
0.0
-0.0343589625762274
0.0
0.0
0.0
0.0
0.0
0.0
0.0
0.0
-0.3264211316851827
-0.010801768631050958
0.06735513162220158
0.05946877327880474
0.11902127568315965
-0.10450798734018449
0.0
0.0
0.0
-0.008085299570694716
0.0
0.0
0.0
0.0
-0.1956158417841399
0.10979911402601104
0.0
0.0
-0.11667255111151574
-0.3576249967821501
-0.02096968514645889
-0.29061569014268346
0.3280928971917908
-0.16276878752891272
0.003525302335825361
0.08033060823771251
-0.12354580951486546
0.04766548404870423
-0.16357961275845184
0.1375393533315515
-0.0842531477399664
0.018308146669479955
0.21979537863985935
-0.16467335099836652
0.11854750564701362
0.08566312234928769
-0.028042966584270648
-0.05397485720007682
0.187387326728598
-0.2984702309471518
-0.011642839412680302
0.0
0.025019207973877175
0.1340811890148492
0.12087117718941544
0.0
-0.0646526005959959
-0.0792760153836877
0.0
-0.006746627514705679
-0.10873193833921216
-0.06324603021182858
0.0
0.0
0.0
-0.013477427476546955
0.0
0.0
0.1359479099701603
0.0
-0.053036085394955336
0.11325676917515304
-0.036263877924650204
0.0
0.08065433290333243
0.0
-0.18718283014601134
-0.0782947897361104
-0.08292922100395993
-0.061876670341825736
0.011883005451846604
0.09799565360752635
0.08590865906775427
-0.06926268033949372
-0.11161781251241283
0.17759774839475767
0.08753779109191516
-0.1263012575573775
0.006116319051385589
-0.0121836560793095
0.0
-0.011328928550089531
0.0
0.02971034182135044
0.0
-0.029624730355525673
0.0
-0.04499437444994996
-0.24325698276437246
-0.030344136178973767
0.09936026326312669
0.06753546111480174
0.011455155278011012
0.0
0.0
0.0
-0.014307835336437275
-0.05790723903634191
0.1560909518119581
0.0
-0.08979083058531265
0.05748437385731132
0.0
0.0
0.0
-0.11392578022362951
-0.15880960689920673
0.06473966974710962
-0.003835132929964041
0.2802296254398838
-0.00808816059799994
0.10246706780025852
-0.09884234840098174
0.0
0.25329076529637484
0.14169348473856969
0.06738007478198271
-0.1452156652966661
-0.3510958516990705
-0.051638678949511976
0.048480892225353026
0.0
0.0009107134540317224
0.0
0.0
0.0
0.03629922441650207
0.0
-0.03935620744268595
-0.07236398047717219
0.1837661942962296
0.042986553182254306
0.06434931914314629
0.0
-0.05023500752105606
-0.06167352167612206
0.0
0.0
-0.14792694808916582
-0.16288614283768488
0.04044333725895867
-0.038065039110955365
-0.18350675532753774
-0.34292386439564737
0.054810244497111735
0.28509072332898167
0.18507719291561858
-0.14957815290997667
-0.05947910011196915
0.2242823497028109
0.14959245074814193
-0.09162124108604112
-0.1186453508027488
0.08481995203783917
0.12860624099100004
0.22182489500270555
0.6624058889099669
-0.12998115781270075
0.13640244796650547
0.053336408115028676
0.21940520600252425
-0.049396665902676495
-0.04664837187670434
-0.123869070565514
-0.14688177685156376
-0.12407826264197272
-0.1625650718273482
-0.18570674828488629
0.0502631229951543
0.0
0.06313559246159652
0.1209975176534838
0.0
0.0752344102838619
0.0
0.0
-0.3166376215952433
0.0
0.025345664444737515
0.10622428222490676
-0.18259043985585463
0.08227313472452542
-0.011580692403353418
-0.14154496217165094
0.054150520254203124
-0.07658469771222387
0.23059526544167225
-0.22718677716047386
-0.014122766642460843
-0.04312312105869662
-0.02563259486650178
-0.1222598436927073
0.07680088559389124
0.256736672813315
0.07144939148941024
0.0
0.10319362533375424
-0.038008962998670445
0.4275357770611735
0.11651601817528001
0.07779514276544779
-0.008726686661872247
0.010023623289517794
0.0
0.0
0.01999794109687457
-0.021366233158990475
0.0
0.0
0.017571024248423946
-0.0020201240239808302
0.0
0.08212521483187339
0.12058065937833647
0.03125513468033473
0.0
0.0762507131326624
0.20826943050718608
-0.124257913789152
-0.0075724302718987386
0.07021289111775095
0.04906211524486616
0.24935448799375645
0.0
-0.2910909397600111
-0.20712540620008976
0.10508910816067993
0.07188574316358971
0.06377961220927207
0.16215058689448608
-0.06892071018891038
-0.026912302550003375
0.12966281981205607
0.12566140440027007
-0.1298898999952976
-0.1009637416509099
-0.07910608196812002
0.10166954242343702
0.03425319488415266
0.0
0.0008547800726449038
0.09508143086788347
0.1468042489376595
0.12241275892009781
0.009352365675383681
0.0
-0.038789497336746595
-0.040564286982434805
0.019174437582438406
-0.0030418915243190393
0.0
-0.21434478431695758
-0.0009099870011323591
0.05508490822746569
-0.1331966123600265
-0.2179236673069064
-0.041609680253103076
-0.08979078435013509
0.2442539907177172
-0.3588055637305654
-0.013798362246168538
0.09842775208209323
-0.17965200805284254
0.06753750421379102
0.011658081421873986
-0.12344878810272095
0.24731190719538262
0.0086033164119766
-0.04123672988221161
0.05793442968734703
0.0
0.1989616017290512
-0.32025234537336544
0.0025365372069776886
0.15843520643269818
-0.060967906031143174
-0.14714404868592382
-0.1424371252149979
0.08320929795297634
-0.09247185210696764
0.1061354567717186
-0.1621000397767019
0.005040443625916269
0.1992462167125143
0.24206069611502923
0.03499944114101828
-0.15705789607915496
-0.04007814342857803
-0.06869664668649036
-0.2555707775093977
-0.11194370736513824
-0.030874808733843736
0.06994938063780681
0.0
-0.133352954045674
0.0
0.005936353688631019
0.10099979761607805
0.0
0.004365644893052573
-0.02382508638309567
0.2890285901196519
-0.29797973165834624
-0.05802973950968596
-0.14996488511318026
-0.17876582535128432
-0.1996013241175902
-0.4597379684092039
-0.06417359052613371
-0.0888583315419855
0.08094514222091996
-0.015731206501750652
-0.3094708023858785
-0.09101052306434651
0.0984356924490105
0.01958189374232097
-0.33335667165537936
0.11219483702488028
-0.08504409461603389
-0.10258074909409101
0.2403624595726122
0.13262249229798934
0.3656352970722295
0.18005932192088797
-0.06748538261628703
0.07174203512433551
-0.10781792984162958
-0.0835234424642058
0.17037030056956834
0.08316994704767078
-0.06998996196649965
-0.10311679946740272
0.0
-0.18733270489757844
-0.17049225569923654
0.056169149666789646
-0.25725199280165983
-0.0036277185951519952
0.0
0.025136193842683938
0.07639398083039439
-0.0853582828603936
0.0
-0.03980068003506926
0.0172381574263758
0.0
0.0010661583634276313
0.006050051748449304
0.1322730065091089
0.0454784215775461
-0.5360239463232312
0.15440836490469523
0.42371686358526556
0.145529900702626
-0.06686770795355229
-0.11173836148629959
-0.004856583636219686
-0.10088385437744002
-0.12055999401037637
-0.12800535283966724
0.1912631970301637
-0.028964113754725684
0.03988261190263999
-0.12460376942853969
0.18720946611966538
-0.1351908634625018
0.026961893275690874
-0.019886961300161397
-0.12023856664022352
0.0
-0.13482310352196786
0.11289192709224852
0.06163945197201775
-0.006150742102786036
0.003499350281086909
0.038472295889353594
-0.06618757469348417
-0.11832897151967225
-0.05279737545430204
-0.1415544867552634
-0.06701032669193864
-0.30205580275225025
-0.00434431234261641
0.2897847745503573
-0.2878895339011045
-0.12767675330409492
0.18766934086814285
-0.13700232592396674
-0.3797845688549783
-0.3544005649129204
-0.07451433410562114
-0.0007533439778126746
-0.3428303228082565
-0.13480955237010758
-0.02057264072580259
-0.15385451716790127
-0.3313075854421749
0.1177535504768728
0.09592104487528409
-0.19816296640992495
0.06233482840440715
0.0
0.10491851213263145
0.0
-0.04906572034578671
-0.010769867582833211
0.054676303825425016
-0.2562523730812679
-0.05673071835696249
0.19532570036609587
0.0
0.03144779122024911
-0.2866252378770313
0.0
0.041158136839060805
-0.010962486996610794
0.09701852603110915
-0.07111489040254478
-0.004190321598729001
0.14993557809149843
-0.15110815979959225
0.13259667182911783
0.06702757020486183
0.2827641032076009
0.11600139200293935
0.0374829368792826
-0.03263740832590428
-0.4468917671599428
-0.1576862241995295
0.0
0.0
-0.18774892721967779
-0.08102580442302297
0.0
0.0
0.0
-0.06906418119690315
0.0
0.0
-0.13040142974082852
0.13610499893451555
-0.030875645062547884
0.06658606345293433
0.06427993937207628
-0.12432822149939993
-0.04656891627583024
-0.09390015392492237
0.0003919439878495301
-0.20917501645996334
-0.14132324272068902
-0.37880322125777455
0.11839630182473361
0.06742315247353374
0.05606253238352637
-0.06457390285945444
0.17923297750199382
0.07076296428725627
0.01563639717926868
-0.01743227081479136
0.0
-0.10005538822140314
-0.012386588458168299
-0.20607494330934933
-0.06411986032535877
0.1204835472468098
-0.12296901015524855
0.13169034812833408
0.0
0.14083040824735968
0.034787130715644224
0.05035821690408374
-0.11008007821777842
0.2439880925639455
-0.09643572609639506
-0.06835573606219955
-0.021496652077897895
-0.06418497385570085
-0.0116127680888595
0.15128058074561382
0.0
0.016614746085806122
-0.12735114388118546
0.04100638290950958
0.0
0.0
-0.09416646616953778
0.0
0.15447961168612936
0.13725418339604023
0.10338408728665888
0.0
0.0
-0.07249259530395538
-0.019664969576034932
0.0
0.0
0.0
-0.13358009291191042
0.0
-0.1827606765945096
0.10852974375797342
0.24620272638420865
-0.34608462213634916
0.014124648641816659
0.15879595525010817
0.12007278945110392
0.1549995940602382
0.02523699509622167
-0.01747819150629225
-0.44833051726616857
-0.5788564520414592
0.15155959892999807
0.061212921802401496
-0.23620760902556925
0.3086722591432769
0.052374586951173745
-0.026917458190557374
0.2726578181151714
-0.1649257736868674
-0.00954424867081013
0.0
0.0
0.0
0.0
0.0
0.0
0.031392600502344305
0.0
0.0
0.09356784283266396
0.0
0.16162667894636115
0.0
-0.16467995195689306
0.04321559404230689
0.11790111276074795
-0.04263137540699496
-0.07018073642487677
-0.196416230663429
-0.049562815716763964
0.050350047745894876
-0.354075122666125
-0.10487251619716571
-0.10555721831615411
0.016660233610472197
-0.008155586492661418
-0.0716205161339437
-0.01403640878127492
-0.18671657982922332
0.0438836618771809
-0.019724809197346923
0.08940668531690533
-0.037999842839423634
-0.06417015579903927
0.04255348951426902
-0.10579844011495736
0.2398884786931596
0.0
0.08233888677812676
-0.05548674548413791
0.11954614060038705
-0.021310004014500332
0.15512001558720598
-0.05148691434783254
-0.0833867289083321
0.0
0.16220394230780616
0.1111562706086086
0.07934834126782749
0.08450336842727255
0.185053946652778
-0.2752603537952362
-0.08057591220434546
-0.19867564443712898
-0.09107705934037749
-0.0723280341337861
-0.15360999893415714
0.13464006260431904
-0.06242469557034394
-0.02574601246244669
-0.042004845316140495
-0.12859825771221506
0.0
0.0
0.009329945629530462
-0.10425942175773288
0.0
0.0
0.03561541580616361
0.12294296586944785
0.10840342476948772
0.11991796648357958
-0.009381044809108091
0.1284975640806618
0.10051689103855482
0.04532899745369093
-0.10708190580211623
0.0942210892241839
-0.014314588553755628
0.011000208116005272
0.0
-0.17622256364548836
0.020671331537723964
0.0
-0.05034179838508356
0.0
0.0682324496978815
-0.13650305403229326
-0.013779009648706795
-0.1049857602801121
0.0
0.0
0.0
0.0
0.0
-0.09429543854854493
0.0
0.0
0.0
-0.0880374930657307
0.0013953724304622411
-0.0722182422342835
0.08138637569335819
0.3298464205139631
-0.26183908527563826
0.22050887522783527
-0.30822182384302116
-0.054640352966512776
-0.0878434807004891
0.08006423074560239
0.09263360168006823
-0.059760179024717246
0.019964533300557682
0.1390096122349409
0.1988992003345179
-0.23748536309083446
0.07198583126123614
-0.1855612048814959
0.046060142233546826
-0.10666306372702793
0.1227785797760299
0.0
0.05839254007412522
-0.06102926683788221
0.0
0.0
0.03311515364634168
-0.020832238653388593
-0.047082872944596794
-0.17246300429067535
-0.11399341252582976
0.033717841779960886
-0.027122626513804732
-0.15679297198685505
-0.11039847013611125
-0.15529331277937125
0.015316837129450804
-0.3977984442973025
0.005884432684972991
0.09876774926264273
0.026042341941780695
-0.19781354284892091
0.1645111023773856
0.16536145844154176
0.17014081241171233
0.1836553751820281
-0.2437306181656519
0.0
0.15991907732939034
0.00032407564901482756
-0.0016711442322769963
0.07993508771236246
0.0
0.0
0.03339280316196895
0.0
0.0
0.1642757494694243
-0.1046923227872018
0.10073922739496671
-0.012979566712921324
0.0
0.0
0.0
0.0
0.0
0.0
0.0
-0.02705614490496017
0.5763131586823358
0.1123999152635691
0.08198292702472318
0.0011358381960688557
-0.18013345722532983
0.05913316581461386
0.18061911044184265
0.2173069553220353
0.0072547732102995885
0.06235659187181538
0.0650439763526921
0.1677256030185925
0.16015269620518627
0.1840118180893016
-0.05098752710572172
0.03296553458911587
-0.00595641445233995
-0.04097417073411377
-0.06055360681644155
-0.029158764630229234
-0.09593006011208548
0.03426924418028215
0.006054542067237725
-0.4552616751304366
-0.06519554495593048
0.06976524282168553
0.22936483064854066
-0.2189301726610505
0.08673523745350267
-0.1309442701327867
0.0
0.08814526780239852
0.12029897478111476
-0.07445882754622624
-0.04040163267157521
0.0
-0.10762636851750937
-0.05332046098130865
-0.004600347822154224
-0.10833675255349778
-0.14623225075728805
-0.031095594156046902
-0.013815132739408301
0.047070526092875056
0.18029331593783066
0.14761578393949845
0.12395675985906437
0.0
-0.09807241082979579
0.0
0.0005806257367373287
0.13064965843604992
-0.30581335047053465
0.0260637437209121
-0.18571300491178502
-0.045306685840242646
-0.34871382560816977
0.09865296169688594
0.21193093043022135
0.1565801425947905
0.0
0.0
-0.036096709119059656
0.0
0.0
0.01426738141438042
0.0
-0.1537431457649167
0.00706369270394925
0.0
0.0003943042418198227
0.04227261065888983
0.1827975186329565
-0.17672087845339352
0.08072525672681134
-0.08208234453248524
0.21451437350544095
0.14235789476545854
0.0
0.040379156621316976
-0.3199049563463273
-0.19215429829457448
-0.014473078241470816
0.05907016711360963
-0.05280615762438018
-0.13932930579556435
-0.15173178494762216
-0.08859035555895367
-0.09133780412505833
0.20042413713371476
0.06674505354280927
0.01213463413296989
0.018047350199604104
0.02934301831583072
0.22217922107502774
0.09039688748449659
-0.27314910694629174
0.06852921240201418
-0.14454186982660513
0.22277420309007648
0.09248549580082074
0.0
0.032465440640295176
-0.047501809919219075
-0.07121713639937616
0.0
-0.13619256300136312
0.0
0.1012759078809714
-0.09972249500235102
-0.09355695603311695
-0.06051840898122515
0.16239117604341102
0.15186023208594246
-0.3678652380487274
0.026792934801835706
0.0
0.17118529431056653
0.4612535017657134
0.287964141377862
0.1578881112884405
-0.055632508983991476
-0.00978556147612035
0.0931744840542734
0.2991449894122692
0.08645863690082628
0.12399413160184966
-0.3410621154936563
-0.04559328247477266
-0.24651222592713887
-0.15803360310485404
-0.076402048412227
-0.152137531074907
-0.11747220734360665
0.03773826781193529
0.21975113823410267
0.17553868807028852
-0.26609336464526834
-0.118212513967471
0.004219406627401556
0.013457869959268332
0.0736035003200111
-0.039604033529462
-0.03451608585504935
-0.1124128585270876
0.03409918822717356
0.08242009660538852
0.10832805116915191
-0.005313429085843799
-0.14333417743124552
0.0
0.021616758493187966
0.0
0.04173819729877889
0.005057700360289765
0.0
-0.22339821590016284
0.06416757682642886
0.025395116811373564
0.0
-0.051424328706179995
0.0
-0.0771160143415022
-4.0548823353276446e-05
-0.0025327056318660774
0.033549190328182765
0.0
-0.03705089499320501
-0.09118790003716021
-0.12389294170011894
-0.025034272358061906
0.0319366798767974
-0.004155026480362561
-0.07654889669179687
0.0
-0.20228195643238026
-0.3424995285383896
0.0
0.0
0.035972631709529045
0.1490105285590762
0.0
-0.06971952594873919
0.00010534044853447415
0.0
0.0
0.0
0.0
0.18295828659022106
-0.09062239811802106
0.13231276422199123
0.07376126167709061
-0.06695309653365936
-0.11628058037953112
-0.06081538074152935
0.11285821507057796
-0.02058582209022619
-0.10883507450034345
0.05498611355860161
-0.18070844561098007
-0.0342283730491108
-0.28503412467281564
0.0
0.16555627435140569
0.0893767884186951
0.0
-0.05231694184177151
-0.028732425755064128
0.02049169491772243
0.06710295483793206
0.0
0.10270339695054517
0.03930260757134252
0.03372305496885149
0.1826158386893733
0.10736574646023848
-0.03956696111040691
-0.01351755682549402
0.028024600566449554
0.0014350001018690467
0.03816950918472854
-0.09794692730943938
-0.3141006056325921
0.1121441134478069
-0.3589718798914875
0.26245459965921974
0.06756867156113734
-0.12951966827141084
0.046250608875199016
0.012360123226197964
0.19906572307806056
-0.15844486881245337
-0.1255191423552536
0.026051281667555486
0.24230701492497336
-0.26125468951006653
0.003403497442853034
0.28271423703289295
0.21577227855113054
0.11684106202859282
0.022627221204984796
-0.0009284753043203031
-0.09590136228875755
0.0
-0.028186700893133906
-0.0834374874295052
0.013209956490778833
0.008312655524947003
-0.09268734541460283
-0.058553128249897786
0.01208936465439782
-0.04824535152949688
-0.16311770452177662
-0.12338681852517339
0.06908650924571971
0.0
0.0
0.08790331691126625
-0.13105540779716776
-0.0066661481060596986
0.0
0.0
-0.01864200266834929
0.022531422999144485
0.03912757323280349
0.0
-0.13037254336116147
0.030151097430449462
0.046211359720271065
-0.09849095027082692
0.16945717347871045
-0.024778132766861603
-0.2535921745128361
-0.060557732689210025
-0.13391342109118592
-0.2087016844003779
0.06546009712273927
0.36844743337030555
0.2951514899664248
0.16872225354140682
-0.06543562427300131
0.0
-0.0045855654402356056
0.0
-0.06289855331974595
0.0
0.10708981251054644
0.07710920344710755
-0.035453985268379326
0.03625981763001101
-0.12707614574292558
-0.18011530659453034
0.216352910344068
0.1515603887485395
-0.0953959804350111
-0.15835924708823004
-0.13125975654931085
-0.16925992420850608
0.07965697438064925
0.23024248769891853
-0.06781100743408126
0.08974771244137628
0.1870009126956766
-0.011265285301290666
-0.03447922522851233
0.0021692382927685702
-0.11827799822372956
0.22766343394754412
0.21083890215560522
-0.050166177314656696
-0.19062390071674293
0.22394780406942644
-0.13108783555378306
-0.0054294012116049605
-0.0720763298277382
-0.10670828720493755
-0.2507266717578649
-0.24700516877109205
-0.10575345518785895
-0.16417010017314285
0.0
-0.15919011863302485
-0.004008818693380984
0.007453916012224764
-0.049060858535271964
0.0
0.0
0.0
0.0
0.0
0.0
-0.11621964242568934
-0.09397942982372454
-0.1294815578478538
0.19332740766462636
-0.10763274521477889
-0.014373437972587286
0.1528225984466045
0.0
-0.1376310182405566
0.04713835435665832
-0.0036341967023866273
-0.11576856069638389
-0.08807537959618593
-0.013069291123739307
-0.08855500595454667
0.09541712617369434
0.05968707070441738
-0.0007879509294309998
0.25535160527246575
0.11582586451826463
-0.030819637454824952
-0.04239923645499563
0.07276803656406998
-0.2531057518657271
-0.12367983163448623
-0.03872027748717089
-0.02155593874949733
0.3724226163652374
-0.09896762218132767
0.05914098147032056
0.0
-0.1777992804940933
0.0
0.013973480875703707
-0.16524537127172148
0.14760497567912198
-0.09461072179493019
0.05425731170405853
-0.09003676647538346
-0.0564849647959255
-0.020069751850159405
0.0
0.029651229109818333
0.06359274800347613
0.004132045707381651
0.006744534531980026
0.0
-0.1922132482723826
-0.029278082208926526
0.1768233312144195
0.00344591851238929
-0.08638644354973332
-0.1313969747974204
0.11602266726089758
0.07660347016726388
0.3194961473800942
-0.07408014454690251
-0.3034164335839446
-0.19614109197884155
0.0
0.0
0.0
0.0
-0.08792439927568309
-0.010633020241888598
-0.018489348004510464
0.0
0.0
0.04378609194388929
0.06342861599926553
-0.15062947266705873
0.10485311621396136
0.018040424719522496
-0.003793956345074217
-0.17658355248235985
-0.04320654350061022
-0.0834005049064899
0.06536965963873935
-0.0017612821739723568
0.0
0.0
-0.038977193626643564
-0.054843912999459905
0.0
0.018534355870151294
-0.0020151731548370966
-0.05157777686301117
0.0
-0.06984705696725083
-0.14288479931582634
-0.002638940426102819
0.09693354381461232
0.0
0.03857767748299776
-0.45970051066201956
-0.08594322343750693
-0.21244261455343555
-0.2300189202152228
-0.17007061022042452
0.08688228951547615
-0.0336729028881674
0.0
0.10634314207813839
0.0
0.27681870836337324
0.06694633035779983
-0.095608735614458
-0.00941443791195562
0.0
-0.0805317485953673
0.05337199287682786
0.0
0.0
0.11520546450708588
-0.16522017408562834
0.0
0.09409907572297493
0.01356556052427879
0.08398025836128946
-0.21989419357081172
-0.11130848322392728
0.3111781392430411
-0.23197218270415723
-0.20988526632361593
-0.04132404570232812
0.010770449916296882
0.03921028442123639
0.3686020542513823
0.24694354485448755
-0.05434620277044007
0.08957767377447096
0.026703363107382732
0.0
0.07751701250132069
-0.03568698499958563
0.1053494109578623
-0.072409361113728
0.17928204857892568
-0.2193502405336053
0.015252731990131687
0.04581203570206335
0.011497568064471518
0.1353110295432838
0.0
-0.1913564386710575
0.05575770255394467
-0.056932204884944805
-0.0532427736456229
0.0
0.04122921267741571
0.05550963414355128
-0.218102564412606
0.0
0.0
0.0
0.06416865936314452
0.0
-0.1434689631315121
0.012601500089283473
0.0839740741569483
0.37657597361365763
-0.3201462258827076
-0.15274063654534287
0.12632208177155757
0.061954947079096254
0.17139957823637386
-0.07265669105119875
-0.10551792525410139
-0.192538826362437
0.045678308056425296
-0.31869459231535907
-0.5158779087924978
0.022905717894847438
-0.09208567438063228
-0.3607024455551741
-0.006749390394920458
0.35200253536919196
-0.20519061624097734
-0.13183757965541573
-0.08903309764349256
0.0004477177795801572
-0.08391830252037519
-0.01563211743966686
0.03115008205900614
-0.04502735927245164
0.12142273526235549
0.020033494131936783
-0.4074733341861411
0.09322347943481671
0.0
-0.00815075496323182
-0.10989345833758005
0.015514704280705048
0.012209317866290828
0.0
0.0
-0.13417806715122454
-0.09359374615359033
-0.14915415673387378
0.08660459833126613
0.0
0.09891574266667257
0.0
0.0
-0.04526136781954273
-0.03194927902008033
0.0
0.0
0.034077989849278095
-0.31379094745188396
0.2158035952886061
0.006743530733531483
0.1633942122400118
0.13860655872903255
-0.22844698695839846
-0.053834042701141005
-0.1251872527777742
-0.26602735699156466
0.22948850142176194
0.10427402246967993
-0.003452660150344719
-0.0246002051507862
-0.11025344428398581
-0.12815381905639886
0.0027593327219419556
-0.06574229221608838
-0.1811421212006102
-0.06336187206102051
0.3087299527456885
0.06472687271127815
-0.27654378446776035
-0.028087823188779983
-0.08346020503628601
-0.03716732638930622
0.10495072544950623
0.24683970203108385
-0.2589380973838451
0.13878154420714564
0.06551800569932327
0.11832933212297123
0.13483747535645083
0.12394345607286782
0.01832313709965947
0.017149465086579746
-0.14181400935637206
-0.03710526155105631
-0.22167637615181798
0.11986277751855838
0.13528152692373874
0.056615106392796696
-0.1356027429146598
0.0
0.12169288859227942
0.27885287529075625
0.08549985389492601
-0.1732012676688598
-0.10708412926556933
0.24677135954201881
-0.22595391431936848
0.31396536163172867
-0.09438259643643575
-0.03904684365938152
-0.0011634911090240008
0.1641576250894679
0.03722670179413445
-0.07003456526262844
-0.12980622844659243
-0.01959357205827917
-0.02161010355502893
-0.1130112054394391
0.10331202788178388
0.02057832530711067
-0.3797096728721793
0.034021535989357116
0.02653510268863346
0.056790269568992725
-0.08588569791434714
0.5283287560786785
0.11347764646708508
-0.03720682380007217
-0.0746242458556424
0.04221334241066387
-0.017179413991905604
0.03337875091667915
0.010108989717291362
-0.006679745116864282
0.0
-0.03246987011075067
0.0
-0.12227573024694857
-0.025584371425877897
-0.016153563369685056
0.08465398114892855
-0.2523056104994731
-0.19232213901114528
0.02287072313993454
0.0
-0.03410335327402085
-0.07911711334358462
0.02128360006508324
-0.08075181123875094
0.11012819406039809
0.0
0.04621178696961833
0.10521419815319315
0.0
-0.0007135994586111772
-0.03383700030498075
0.02637500396500734
-0.12751622407057867
-0.1133716272649889
0.13145158343652275
-0.1644807375115619
-0.029055010995887726
0.012736508107783463
-0.0023127871891727397
0.07964231852899938
-0.17347679611643385
0.15888112519716707
-0.04548842903130793
0.0
-0.05199565514399811
0.03489616155536147
0.22793806438936143
0.0
0.08027596746275496
0.0
-0.02241958335345873
-0.005631212376931635
0.5357644314286932
-0.44604330626936983
-0.22269320216650199
-0.3017560093696762
0.39982797532192726
-0.02355252812806058
0.01346282260400532
-0.0629926967261456
0.17490367589435693
-0.6035275901447354
-0.4329892959406491
-0.14152006385379792
-0.08904997760030464
-0.005257110206578142
0.004958555694748817
-0.25016676227894546
0.10602801521165321
-0.1560291636901865
-0.003930076046233834
0.21240004622938188
0.0
0.0
0.0
-0.0736454584977342
0.0
0.12013326461049395
0.0
0.0
0.07680024706552165
0.0
0.08816385390856177
-0.08039195494194804
-0.12448308688190954
-0.23691818843502208
0.29136929802637557
0.047173001360631774
-0.031303159847211354
-0.09354849123170664
0.08009957946506219
-0.03567621796151546
0.11192490832223492
-0.044369937222039496
0.0
-0.07643850858719456
0.13680337666128417
-0.19567777486110027
0.19003289677723662
0.12758387782619315
-0.08728865881010728
-0.01194560949685388
-0.037975313218464014
-0.017911709531635782
0.0
0.0
0.0
0.016295967604048296
0.0
0.10680341098741229
0.013123870162201418
0.0
0.00981460481614141
0.22212783800805658
-0.057243491897089445
0.0
-0.06284967971175476
0.13105181133225638
0.048368720819713364
-0.026422920232023937
0.022425730278125777
-0.04127100221748941
-0.11993992607995298
0.22750771278042228
-0.07522077292909699
-0.09013115026830618
-0.08036012374769597
-0.2609846868642345
-0.23157427203848274
0.2571981087632901
0.00257736376785189
0.21330139249966482
0.0
0.4144681836495682
0.06908574979055555
0.007843328859559212
-0.11001758204053164
-0.18918502023975667
-0.005746340681111294
0.01659064525723189
0.04071157892163072
0.0673336586036117
0.1291559294819733
0.2242592319898761
0.07971053701814379
0.08569898831753986
0.10775409399835256
0.2798857655724496
-0.14265677804363963
-0.15934265547994042
-0.007546998734880607
-0.34139918834781624
-0.12167760104603355
-0.15060063806762855
0.4744801230764339
-0.011371409541909575
0.11201140079695282
-0.015002601632784909
-0.04778576966603704
0.30242553876643496
0.2056296820550318
0.0
-0.01829880739576313
0.0
-0.18374054603154655
-0.3198368316676419
0.0
0.0
-0.006565980107205702
0.22306540646967216
0.17847954409206934
0.0
0.20747769751753473
-0.012994215031225713
-0.05859902169571152
0.05903687630270036
0.057919446357157706
-0.21605937249943685
-0.6075617572353648
-0.03275814067479614
-0.42611575225501375
0.0
-0.14055644326190259
0.08288262523409486
-0.06246558036573095
-0.09133407694444218
-0.22955737501395718
-0.21751013127696867
-0.059373986656193235
-0.03623655843520046
-0.27580954350352865
-0.21553403333361887
0.3110829793647676
-0.08282312550522287
-0.13778423783042296
0.11748068361000642
-0.38893194017934435
0.20236091000600057
-0.028358881610729383
-0.3148110229143185
-0.07342746736367456
0.056162708073559275
0.07736702165960108
-0.3922493274123125
-0.07740992259313613
0.11322600851615404
0.049400903333268895
-0.006237859792407359
-0.030105379318080647
0.01056359302368705
-0.15765598796414745
0.12207215112720522
-0.15277833648253844
0.38763521556854286
0.015387934342690087
-0.03769902746927904
-0.07868020821662693
-0.17531547581616325
-0.012818538056262548
-0.1660806387300661
0.05710943918636979
0.03987420526000143
0.20575752711346587
0.08388707008569458
0.29829968131384643
-0.11530220798644314
-0.057009319942805295
0.24276409491255546
-0.11573342208015638
-0.00272936053606785
-0.019882525502411777
0.08054862999147118
0.007629879534945195
0.07383469001885427
-0.024556363842386922
0.14599374252185507
-0.03980239513636214
-0.06889911933171869
0.08078661748230123
-0.025700333238736217
0.0
-0.12961019069504617
0.018301437330366307
-0.3351568806270448
0.10570098846121953
0.012881066637479469
-0.05602878430470716
0.07366821265086676
0.12972744199778322
0.1680518235544156
0.10076662141908806
0.054553902528266446
0.0644509494363272
-0.03478505430744368
-0.10626024167138097
0.0
0.09090776798534188
0.0
0.0656569080785805
0.05861194691362309
-0.09455933317129851
0.003540253675196753
-0.25921645485299716
0.18021668944127583
-0.2551831262365825
-0.3257725230559496
-0.09891415586473666
-0.2180965024258085
-0.7108279252175539
-0.17232682743576166
-0.031148509971243844
-0.3165970773706691
0.0
0.05521323945417069
0.0
0.13905222460729724
0.033765519963235194
-0.01395735756690984
0.0
0.0
0.019945008036736545
-0.014776516662582324
-0.0682308955389453
-0.08060436459636638
0.19442408160544689
-0.1707592163257564
-0.04118278330547276
0.15428741856634065
-0.17777120415439443
0.08190244621358564
-0.010151600494256466
-0.026985467954519143
-0.036747152543112685
-0.02044990640090267
0.0
0.0
0.0
0.17064089099906415
-0.10214267790595619
0.0
0.0
0.02203319075221854
0.012345698731522404
0.03004319818526996
0.03951577027533152
-0.06719585594629383
0.046628786596846154
0.027357872298432125
0.09640681686616515
0.0
0.0
-0.17065508184204542
-0.011514210291994842
-0.00580657046967718
0.08381437051247831
-0.03299809037146144
-0.050507690015514334
-0.0938697904213006
0.029205040108737645
-0.3349524892515367
-0.292720322015663
-0.11848369118048994
0.011124516481772703
-0.10284720501618347
-0.14852704704847522
-0.04113988497151807
-0.19817434488953603
-0.032405629321186034
-0.053738342610749536
0.1423054422582209
-0.027754664089167144
0.0
0.0
-0.04797830314595865
-0.007212452316207949
0.03014588665960965
0.01639725771683602
0.006471655642450296
0.06905880125082996
0.0
0.0
0.0
0.0
0.0
0.0
-0.02877410058217063
-0.02585867484003668
0.0
0.0
0.0
-0.03799951683285455
0.0
-0.018901031642634923
-0.18708047456638574
-0.2455413742157324
-0.11409343182196384
0.197445013650831
-0.11714140405067026
0.14027779197740267
0.07770353327547375
-0.22421274890608875
0.17868405584872293
0.03543041537440961
-0.008346954668763043
0.0
0.0
0.15259923239569553
0.0829036805178075
0.0
0.0075673943434445765
0.10431611048833586
-0.22582852468706752
0.030830590267093234
0.015100766582439407
0.04504582219360993
0.08561636954226451
-0.16492439510191276
0.03236148522437168
0.01224945894413406
0.03431689131471413
0.0428062608170415
-0.08566594933005356
-0.06910262056194799
0.31485318671400786
0.02203496175400523
-0.3074363220848243
-0.21109670718755605
0.06637519504701592
-0.03148143180236326
-0.001343898292715431
0.10976830638882124
0.0028858900607619253
-0.12085162488006884
0.2469175446684463
-0.07372887228631206
0.1844311610160556
0.11403538568346111
0.33596277606426195
-0.16466376421683418
-0.13608250071947306
-0.1255450497252917
0.052933968362029495
0.12837267607211106
0.19160513725335448
-0.09069113459412963
-0.019992502671868723
-0.05915145541022823
0.09736275196342939
0.04402228231993503
-0.2609636196307016
-0.19097005406391437
0.0789137418253402
-0.015583429887237215
-0.1926362431728596
0.2547213187712302
0.0
-0.033174415909596175
0.13985399437845064
-0.12378660626806248
-0.0428872339153245
0.0
0.0
-0.029713810629594925
-0.019983140133493803
0.13156020687238573
0.0
0.0
-0.09304395362922584
-0.05951711430975978
0.0
0.006890252882740909
0.0
-0.0947895999101096
0.00272023215536411
-0.14545455659572246
0.04071302562590516
0.21465760324033195
0.0
0.004067073995162136
0.29207834076014394
0.04233558535248502
0.0
0.27121458068178056
-0.012839502812980005
0.04089412964638223
0.10869797679840001
-0.3923431195318684
0.05809836490833888
0.1381770178485466
0.14086201143912994
-0.12180045804134595
0.13979690681291757
0.06052370563828419
0.0
0.0
0.0
-0.0839919719274992
-0.04486608556528554
-0.007009997828818582
-0.015895195842626345
-0.04833431553765223
0.008583960195768917
0.0
-0.05859296361800383
0.0
-0.013656408311339272
0.0
-0.020221984449204377
0.0
-0.10900897826800299
0.028666236553601263
-0.03832777578794356
-0.05702511284019462
0.0
-0.05135194439942019
0.0
0.02902739698021123
0.0
-0.11865797309343905
0.2976610162859424
-0.05491327661841504
-0.09180008977198088
0.0
-0.11346558267970455
-0.19743325100759027
-0.06543007434414147
0.0
-0.039738129034565674
0.0290152577219575
-0.027931940697350367
-0.1534335581186719
0.0
0.06237299030428072
0.003390232205713944
-0.17433694473536115
-0.01511814835498776
0.0
0.0
-0.1296213953491422
0.0
0.0
0.0
-0.016492085232573884
0.10951193474509584
0.05290363720606278
0.0
0.14755652017078633
-0.057985234925093575
0.011167942618837953
0.0
0.0
0.0
-0.21470126784641477
-0.02408588674545474
0.0403135962774428
0.1366217878047419
0.19778044065528047
-0.1549067415879743
0.04994978558875013
-0.032421104171751675
-0.1247514503946529
0.01548960527156458
0.010354364487962073
0.0
0.0
-0.03405438137911307
0.18335595820102293
0.056799893169877554
-0.06256056901170401
0.0
0.03476287003865504
-0.061474879870697205
-0.03498075617812177
0.026110559368465628
-0.014573632173288359
-0.035089449159808314
-0.19967186315234225
0.22252075514316164
-0.02892000789107691
-0.15108939692937895
-0.10565072109843746
0.1157681888273234
0.07883629907657921
-0.17001438125777918
-0.1847508771873022
0.4085949788113659
-0.13290378893253238
0.10948585324693326
-0.02262357225725294
0.0440579453286228
0.07002949517236744
-0.12635094975547012
0.0638227982080234
0.015136241181285578
0.25862775967607365
0.07918452252528338
0.7351735892729921
0.05674486599974952
0.24683053052251885
0.04079869690208435
0.2813982002858428
-0.1262731960773046
0.38798864580192854
0.2655237946983488
0.16958819053652338
0.35261413188800284
0.017608643884374504
0.14642190251218878
0.07891630330053213
-0.003950633603290448
0.08129116891602668
-0.14780366812098195
0.0
-0.13686060499501898
0.0
0.0
-0.0016524886130277947
0.0
0.0
0.0
0.009782260244657224
0.0
-0.192828796868687
-0.10921985774825738
0.21290509620739134
-0.03763696761724494
-0.2594417740981781
-0.062431494313888565
0.24622882140733177
-0.11520983653253998
-0.14955819102814133
0.06987576324953622
-0.04331593079401183
-0.2420706854171486
-0.45151242307805284
0.21530244112559177
-0.02788897971455992
-0.16660587680876437
0.25658191123847834
-0.7838617601892273
0.30953986083101814
-0.2295281172308048
0.021193428302292518
-0.1869264594440245
0.08356873820456293
0.0
-0.09563320971837756
-0.09394275004333523
0.0
-0.005056976598730073
0.034145691085627525
0.02209436420510526
0.0
-0.069401315279933
-0.06591904038511903
-0.0996407685163946
0.10515581453875326
-0.015803638901554624
0.05526137628917351
0.0
0.028080474773157442
0.0
-0.028490801243314108
0.2750524959218832
0.0
-0.07705766638651645
0.030328621899826047
0.12170893073277285
-0.011512543722114174
0.08873841964678601
-0.20863248357732075
0.12613784127534614
-0.1610394937319055
-0.08861029068227665
-0.03996531643857606
-0.06462388740889738
0.0
0.016681416279719058
-0.2042061635457957
0.0
0.16323320026126623
0.13489105556497
-0.06896483292771448
0.0417888911171427
0.1159823115994072
0.19654866754248268
-0.021616610873883075
0.0
-0.11956452997529537
-0.20565353296783123
-0.027081936015428854
-0.04547218917733776
-0.07668723939254175
-0.0594877666002068
-0.02283949334981877
0.04268621876096828
-0.12800168170853865
0.02533529447230741
0.0
-0.0336202092660901
0.006732315516726697
0.23833532341097471
-0.0420381415080098
-0.05308596030783934
-0.22341598256602097
0.056839767052786
0.05458019474505439
0.1764089697349508
0.006826060889908384
-0.0629888693474526
-0.16010971825809456
-0.1769309579719503
0.10171972033155653
0.0
-0.024253531358718154
0.0
0.0
0.01671160680473894
-0.10256312371935683
0.1824232697121254
0.11846735803471761
-0.21761012872996938
-0.08524838574957097
-0.02468396400428892
0.09783180503051218
0.14302521560110815
0.24911720728969372
-0.0382448395483027
0.18260707619634942
0.11050221720564944
0.09746392666642313
-0.06455914432705444
0.0
0.0
0.09642968982564293
0.0
0.0
0.0
0.0
0.0
0.0
0.0
0.07425245183437147
0.0308645350242268
-0.10889615628869963
-0.16290997154262046
0.22189764177258994
-0.24618189383267428
0.023877832627504203
0.14645942526139333
0.20244421514076535
0.0250128394123241
0.0
-0.11581236495600333
0.0
0.0
0.1044697074234231
0.2722659617930495
-0.022996877382765697
0.0
0.0
-0.15040982626293153
0.004158615788702046
0.12573010438584767
-0.05208522253400495
0.14662527955067722
-0.11705769237096451
-0.1977389139299325
-0.0859666184169663
0.0
-0.05883928048725347
-0.023326707699955897
0.137726826660716
-0.10076183711720019
-0.08060365708622108
-0.21342001602001856
-0.06293704229506128
-0.029491132803718983
0.02422958360267613
-0.27550768037771106
0.09527917903699011
0.25346269522530135
0.06975163622663366
0.06084807079788156
0.03195110124445089
0.1714533702689776
0.033346575310150235
0.23153116526669815
-0.2952102890051883
-0.04997286300456409
0.07227596112192596
0.09667321681503689
0.2888871625935767
0.0
-0.04282426831691526
0.04813829148942467
-0.1662312746065497
0.18387555177305404
-0.06710573528492655
-0.10444171187635219
-0.06750776561149849
0.05966616249463303
-0.5167773796158831
0.007912047264963197
-0.1446245848794902
-0.14328283243315085
-0.3212824338507034
0.5303674003965646
0.19778084469020263
0.0809921749264208
-0.1687146855400354
0.3822647719008141
0.0
-0.0835326885617268
0.0033720070812545996
0.08800313422293535
0.03646991435459694
-0.08497377319619838
0.052748397636750294
0.0
-0.0009727053757480407
-0.10969619618533052
-0.18043388315051134
-0.1188704773179044
0.12732992158455272
-0.2823680304176131
0.4161021016138673
0.05699359546126804
0.01586068176075328
-0.3457414016020945
-0.3031676908814243
-0.04542560114909819
0.032827277933606305
0.0
0.05869061097738912
-0.13224476035093297
0.0
-0.13087202492865171
-0.06085773935205222
0.023437078825151156
-0.0019515105887166783
-0.10043479828662555
-0.35858694778423855
0.04907522208316343
0.023528818728109642
0.043267944512113674
0.25897058729083694
-0.06834188811207
0.004816713979980722
0.12586284388874777
0.1445334987381076
-0.10920736166181558
-0.18310413534856845
0.0
-0.1505598418921429
-0.0626586078822067
-0.20463532451081526
-0.07687127230367907
0.0
0.0
-0.0036443603303535814
0.0
0.02380689060788249
0.05147756079518087
0.11047348659591238
-0.016020922707471172
0.24522062052283583
0.17336235839771874
-0.03931018257837389
0.07892434176057943
-0.04866764324581768
-0.1483804549648976
-0.06560543858709976
0.06937254096996817
-0.17544570599114562
-0.11553342344717804
0.13232156053147584
-0.103975300519164
-0.07958484632464705
0.05413429343886113
-0.07423931598435199
0.3029050114341143
0.18492518675877712
0.018190303980340397
-0.1337662517966453
-0.12150927170700722
0.0
0.03457169334498815
0.028486589373592525
-0.026575287992205605
0.3497988759292159
-0.11761737589620283
0.0006911398465331564
0.1907142800489141
-0.15751326124644596
-0.03502255816120907
0.24041654659555975
0.16542348915747782
0.05595021619542746
-0.06638569044971188
-0.3461525768245184
-0.04979255239624142
0.07797169950926501
0.0
0.0
-0.07797927240415956
-0.06260988051377882
0.10007618211110207
0.051772093109054784
0.0
0.18880368955761628
0.04138485724582729
-0.006798532142840118
-0.14256525567470443
0.012453695895173193
0.1436003360010324
-0.09477183661134048
0.24567808637572994
0.10920720930524125
-0.11657288207752953
0.1189432122801479
0.08507439330194354
-0.06865586685817696
0.06816251310242025
-0.06873028772351888
0.006052825234803466
0.02660461402079741
0.001964439666561832
0.100776219642689
-0.15433694841766118
0.29660791248473184
-0.22139512982496612
-0.03463598520518087
0.06575326801153894
-0.07478632366449914
0.14633648868638985
0.060482824137627386
0.4025362465074753
0.009780422349441556
-0.32238018282928965
-0.43486831531020204
-0.05445097670544159
0.06042968619298893
0.08189055430173482
0.02145397277964903
0.21772898069926672
0.12186848888671813
0.07532324234951941
0.0005896017943547609
0.0
0.0
0.0
0.0006417979828261067
-0.10928450536455478
-0.030008908985557657
-0.03803104131985734
-0.014437709763848724
0.09377418168725016
-0.07576654519303061
0.16989886057995862
0.10158370225819402
-0.16573485397880036
-0.022745119046287284
-0.13527436190634992
0.25406317126669675
0.06229886805887841
0.2523348485363753
-0.0959543927239353
0.010071233428651646
0.05046155815216706
0.2178770421453878
0.17528962725209296
-0.032566359066902584
0.009099969015222437
0.11847430667434224
-0.08785134079834639
-0.047684908463707834
-0.043642187637592575
-0.08633435405502574
-0.15957209041504633
-0.24239299471995712
-0.10365547173923677
-0.062305734013373464
0.10653569826063641
0.1495015830398404
0.06444502744696166
-0.07770396514603947
0.16267428421435337
-0.011771774578613765
0.04424074032280372
0.07853108823893087
-0.05389711256161215
0.26360094325457345
0.298283778259156
-0.16961045604552938
0.31247169696268334
0.08354692452028842
0.01784331763031039
0.1028509119126941
-0.1233542246122916
0.1346287973727765
0.08899174522279718
0.026100438395629685
-0.1484532773502
0.0
-0.020452965193296188
-0.009083276017514796
-0.09956776630826009
0.0695361165853603
-0.0296413591761514
0.013506387300373623
-0.03592226248208788
0.1431055497171609
0.03548353085291938
-0.1563011218184033
-0.255202183307098
0.01239253778503125
-0.36501163183137353
-0.17545661731307036
-0.31135537816266623
0.4639521778065019
-0.16520015746980882
-0.05329237569096442
0.1101543005430544
-0.08324748754193588
0.0
0.052983625430217604
-0.12346575450190797
0.0
0.0
-0.10511380505557681
-0.06893457412492811
-0.07477275363332418
-0.0998296762218731
-0.16756244018083494
0.19403753113232428
0.10718305699424671
0.1921844144098395
0.03813915169457535
0.004153034492516854
0.07995690225888016
0.0018374104405448899
-0.02549453897283381
-0.02652539005208857
0.08265504788291717
0.0
-0.016688296221909156
0.037614542490556714
-0.019416107629969905
0.1596863943167423
0.0
-0.07580398664060704
0.1369900185068607
0.014471516025640493
-0.04900322053478053
-0.05396500687065173
-0.35608109841397384
-0.11746155892843095
-0.11981171432935087
0.034005382927445926
-0.014166033992939572
-0.028849132840046317
0.05047442492723666
0.0021218397221394875
-0.15828745140626194
0.0896830432725013
-0.10205148194841837
0.06739358870002914
-0.03484900805939316
-0.06513306862580213
-0.09486982375532307
0.05112130274718852
0.22847977641482184
-0.035012353562508855
-0.1652622583223734
0.20972474883966
0.020830765076417054
-0.1375917942243564
-0.12753530802105967
0.09479111661015951
0.1406152029116468
-0.05613350868836649
0.04143154449016285
0.0
-0.0647645856172024
0.0
0.0
-0.005280842359106329
0.05803953604432935
-0.05543913239366185
0.11795380211893222
0.18198799385799075
-0.03186847881806594
0.025083910825674682
0.08978095740711091
-0.11947107407201576
0.12957143159849893
-0.10381121464218362
0.04746687761109822
0.07028185122730146
-0.06830526499602901
0.014867596877192071
0.03407690962760355
0.0
-0.1517841833235887
0.04978442576270377
0.007908044763614452
0.10320129864049875
-0.0870780281139286
0.010078088551073604
-0.1307754336559585
0.0
0.032649404563515914
-0.011399939177193799
0.13758311349567165
0.0
-0.14067803649096675
-0.014302800759493518
0.0
0.10541461978806126
0.006220816839070326
0.03525227012961854
0.11231702397722193
-0.16651414496348846
0.10745991852866785
-0.2843586342817792
0.057303396126230956
-0.14256716749461154
0.3710959805455838
0.1505954707584624
0.2026283260511904
-0.2801217179031933
-0.1746789908043393
-0.4214728232577093
-0.36249719051027973
0.10968711323607877
-0.2197261265844482
-0.14752786242738838
0.24290186437808414
-0.1704101158563719
-0.3564302251756934
-0.2784755627734923
0.09365202889081942
-0.010091031827507186
0.0
0.0
0.0
0.07869935864693671
0.0
0.0
-0.09596302449998134
0.11729948106250847
0.05831212069934576
-0.2957979878309745
-0.09266816211333598
0.2793831668536952
0.0010691512431219782
0.08804427291937961
0.09274528766578388
0.00925134288879595
-0.28771875474670044
-0.40796765406004587
0.04981032779768539
0.048054472558398446
0.25729922292620977
0.050695155934048955
-0.19780660408734058
-0.006906900492167221
0.07363372161580861
0.0928731850300942
0.5018327367678225
0.0
-0.02383843492552629
0.0
0.059474344969320636
0.045709985770488036
0.009217863745134258
0.0
-0.08055846492885026
0.0
-0.0650730866598842
-0.22347228295236932
-0.1530092503101595
0.0
0.040113148913009405
-0.006613518711663883
0.0
0.0
0.0
-0.10990015454078948
-0.18457277379428266
-0.032680917007707797
-0.3890395709981254
0.04145123050813912
0.17879252234183313
-0.12090022853211681
0.1764696915817915
0.14864828997895763
0.0
-0.2007821964576458
0.22028853072828675
0.02216866948858886
0.10251383053498747
0.07494944165485061
0.0
-0.11485846455668818
0.0
0.0
0.0
0.029177402773657612
0.0
0.0
0.0890832554282398
0.3065306304992701
-0.005291355203392634
-0.11501762673183231
-0.38380776266280237
0.24738399686925386
0.05289769552854081
0.1328195178410439
-0.16078543640628168
-0.029342852081245485
-0.09371922813852672
0.21478546079910205
-0.10851202279187586
0.08266326145464434
0.057372279301187754
0.0
0.017564496498249163
0.15938651791150746
0.022515040096028754
0.020257231605341867
0.03142647217273479
-0.14307275151717921
-0.03516033197024294
0.0008055087300483238
-0.06223176441614789
-0.10807711723069353
0.07550687419587561
-0.1744270284426675
0.11786654746613417
-0.19821307171308802
-0.10450232892530943
0.0
-0.03410434653584643
-0.03200954366179625
0.0
-0.10798109967278947
-0.27200417294627527
0.0
0.039019146334813216
0.0
-0.14566572482076157
-0.12976272002442385
0.2989909307724995
0.0067125022924480054
-0.1610914725691227
-0.1287306990398278
0.018918171629806482
0.0
0.05977596557089429
0.11313730114356638
-0.1972942776262601
0.13183612471238268
-0.13484411865563312
-0.06551689133813934
0.1662749378862894
-0.0032786320683660664
-0.022133072752301433
-0.04384679368627533
-0.22042461043334102
0.2786109146834988
0.013815261320290671
-0.437678455503075
0.1172999651491664
0.33451084643036294
-0.051784926749292
-0.42801323221295434
0.04099829290575614
-0.4118115533302773
0.0859059975272165
0.02465237236568127
0.0
0.0
0.0
-0.015050037518286763
-0.038564322488055046
0.13327939400722072
0.009626062000259094
0.0
0.0
-0.08949176136941452
0.07507314751393585
-0.21901292570219524
0.22500112862829225
-0.18808751576461694
0.06201481595947133
-0.005997808869415394
0.10500012114402006
-0.5129817361539761
-0.09106332030912243
-0.06854490827079467
-0.03499086444548195
0.0
-0.09526506072603397
0.0
0.0716259595382477
-0.0668299660953711
-0.07638038871412256
0.3112098765266277
0.06602282299513149
0.09735356950841682
-0.35297323378297074
0.0
-0.149084688433
0.0
-0.050170312418080835
0.09511637691297409
-0.11870654540016495
-0.14990120345427377
-0.05479204887013342
0.2741247477991709
0.15566448861329252
-0.03444571538484449
0.0
0.0
0.06357691263776796
-0.007059785745826647
-0.014432900087874071
0.042715263260623686
0.09265964220637496
-0.19687358712733652
-0.04421954377617809
0.0
-0.06648493060783991
-0.2096151441155828
0.08438169963273597
0.0
0.08488914144058031
-0.03052391023490392
0.0
-0.07191289566330726
0.04388122396298499
0.08964646689490728
0.15617724257954962
-0.05725736382790702
0.27497429712416727
0.027258099086075162
-0.0082006784697526
-0.006678011982772576
-0.1850471807196058
0.05654704047775476
-0.0950265235312423
0.0
0.09763248367313145
0.029443555885721073
0.0
0.09643371654927287
-0.14150524615750731
-0.12054843235167906
-0.1329517795460088
0.0
-0.05114419834311755
0.28443607250713465
0.1813717789085431
-0.1756056110965511
0.03502357996214602
0.3765060274748311
0.05651027119570079
0.06788018783652186
0.35324127037425235
0.29793172944725765
0.06532070109693415
-0.04401037672416593
-0.06610289297749355
0.043454068251296905
0.0
-0.02219035934481988
0.0
0.18232924990772356
0.052504316888669016
0.0
0.10588987643673847
-0.08006826862645938
0.12551051823810522
0.10384165151650655
-0.16360301017793083
0.02058520579230695
0.38088621008260515
0.12547279333368244
0.0522059898870513
-0.11174623208414972
0.12313253899288613
-0.08045841975238649
-0.006446443076046467
-0.23615277201924284
-0.04351038633651828
-0.007869241125066914
-0.0704259578699595
0.15310546310152723
-0.04043601656424986
-0.07392685827122858
0.2168623971963942
-0.1635972875113416
0.19387110212631398
0.008258049669571275
-0.1078816848433463
-0.11373061853001273
-0.05148588528407648
-0.07070253580429774
0.22470309631856625
-0.05164897301318047
-0.029085565526301475
0.0
0.12959149244289644
0.0016047790763445565
0.0
0.06686685674096333
0.029070392299378377
0.0
0.0
0.06724328104668202
0.012912333264086136
-0.04626834140185164
-0.07024430291852851
0.12062113268157992
-0.159188230787421
-0.32133369693141145
0.066945226196769
0.1722127618666132
-0.0530206384499007
0.0
-0.07686688052242482
0.269556401047633
-0.10800139008717743
-0.35735833146311263
0.19326884937290775
0.05800536355235535
-0.10891876934436967
0.2815307645700231
-0.002454808677563737
0.13615533293130455
-0.0861774426502926
-0.18143496310551932
0.4334820080200885
-0.3424552964409048
-0.31631653794135495
0.07382791051940743
-0.04336811349351808
0.17851497898607557
0.04307760290184766
-0.03210321525512881
0.0
-0.03299620065661591
0.0
0.0
0.0
-0.08985215015803412
0.041906141240986204
0.17939410728280417
0.07268326218866228
0.11858833692330106
0.10590326972867026
0.02842130435447114
0.03115189423800792
-0.009596669173548775
-0.008239074752555735
0.0
0.2275932641202732
0.024932573270336503
0.0
0.0
-0.1244616246158151
0.0697364061053293
-0.10277626928865531
0.05564492633453349
-0.1809692253912837
0.1020116282201399
-0.09984405363842169
0.09109104318955452
0.065996313729912
0.07982887541469523
0.019097147309335358
0.057807565783502005
0.1645890707930893
-0.17288421671015308
0.028183582896160075
0.08184209662636782
0.20083021953866803
-0.09633518246568323
-0.021065097305923472
0.04756322837563633
-0.14031425402827014
0.05455324661752422
-0.22445351870422325
0.23094119108753364
0.21841178725945087
-0.08738462076108017
0.23883245539770004
-0.0599138089748506
0.12182847582094278
-0.17277032137224485
0.0
-0.03613267278373892
0.0
0.0
0.0
-0.022320933511119436
0.0020391617190374765
0.0
0.0
0.0
0.0
0.0
-0.08589943406217627
0.0
0.07577484738416486
0.0
0.003059870757351775
-0.06963219058744899
0.0
0.12303425033005294
0.0
0.006371407001054164
0.0
0.0
0.09260296949367142
-0.029234407444758772
0.12458081283163687
0.0
-0.09918727763691443
0.0
0.22556080928315445
0.1671779444838723
-0.01389001807916544
-0.001654750063780873
0.01213531045594815
0.05506048816307762
0.056628386129215724
0.0401572807166639
0.0214694825173422
-0.01784551198778471
0.0
0.0
0.154042969632452
-0.09331125147977935
0.0
-0.07155665413517688
0.0
0.10756886995757713
0.0
-0.06897143724140131
0.3346796720147246
-0.04887709260246858
0.051223077005336
0.1193356993597199
0.01575504549606392
-0.10037249945114697
-0.03361823264102804
0.025983913909705336
0.06788894512349165
0.0
0.010326858828862997
0.05381501473066575
0.0067091521045656586
-0.017684116366310357
-0.009568964093388073
0.13721802030905964
-0.07829129019642196
-0.03712864269578621
-0.13949032197732095
0.1438877660730795
-0.02777513128157687
-0.06687570498580385
-0.10116828003070177
-0.13804091151562636
0.010295316713116717
0.23178321060440388
0.10898715685292301
0.0138669187684054
-0.09310609006524108
-0.09492589253087114
0.041454490947263965
-0.022996142413019442
0.027863916691638835
-0.018923479131575598
0.0
0.09614922258693544
0.0
0.0
0.13046210015387305
0.0071014714788381365
0.33582250692522164
0.19612612076565766
-0.29303692571369727
-0.21929122194857184
-0.052419549959422024
-0.10228662655815708
0.030154267505933426
0.34660989438776235
0.275841250072677
-0.05942880086652744
-0.1161414900065596
0.0
0.15778490632158224
-0.08250660230597084
-0.07320870582688097
0.2512400974519977
-0.13978226159637022
0.19452936872691112
-0.028303975663705738
-0.24727421895301332
0.11251283402053294
0.34521008299578265
-0.059292135660303405
-0.30777441615328677
0.2654640697578598
-0.10116041459823324
0.3728752601038959
-0.11032557606885404
-0.08088123943036706
0.1385884183074577
0.0
0.04194734609207266
0.0
0.01867597528035657
0.0
0.11092336393838821
0.0
0.0696712971943853
0.0
0.024431651492013283
-0.06750089233673809
-0.02759167788662062
0.0
0.16405780230232078
0.014691589717134523
0.11311078878815488
0.0881805512324697
0.08137055690735553
-0.006455725143919275
0.05701272178022025
-0.04125500285507049
-0.6774079262380815
-0.045089703244944816
0.1304679040685744
-0.17355034527835597
0.1644072018929514
0.017541131797059337
0.0335114532012426
-0.0628735168697894
0.0021621384701044667
0.13774929158460647
-0.1340564060931682
-0.03614409505188207
0.06141361320162313
0.022133267061643272
0.0
0.0
0.025684589895892236
0.0749373911588391
0.07090475478190054
-0.06267442593547345
-0.10012619764859379
-0.11433828831496767
0.02525226665016754
-0.14037015721901552
0.0
-0.047095459603082486
-0.17124224411640204
0.10395231593454715
0.01369602963351645
-0.050957374917818744
0.0904694841290245
-0.03581238609340193
0.0
-0.03750787077413696
0.0
0.0
0.0006651407230414586
0.0
-0.13380157698952716
0.20349338126183214
-0.11063096299765998
0.14293259693794802
0.1858716352095612
0.0
0.0
-0.014972204320396896
-0.11319853739272766
-0.3893265486207832
-0.0061643681831362665
-0.00264147080241713
0.11923754704192999
0.0468700229533137
0.0
0.06896624536017772
-0.10079258504730436
-0.015193652465531629
-0.058598218462001805
0.010358846083081193
0.4243078208730056
-0.005909792529607743
-0.06223493014037991
-0.10479914094010574
0.03276190235283113
0.3287609502538804
-0.05202680858132759
-0.2104400853934148
-0.051189451745401175
0.2890684630662136
0.4716669394670584
0.4932284612362837
0.1354014830992354
-0.40299019449033274
0.0
0.056749476820750044
-0.31697346604917237
0.030385320047765466
0.2751275164782032
0.18960623586684838
0.15210584394658527
0.0
0.02959828474035515
0.0
-0.26477412300021513
-0.12823932911785946
0.08059298187624567
0.18457500114940475
-0.0144606419899697
-0.0359687004773183
0.044842732639877106
0.17855001906664425
-0.07451137005276291
-0.3997407581612359
-0.047374752702110084
0.015389353139271963
0.05450799005681226
0.022898959460561003
0.09751030256475103
-0.08325016110741512
-0.07005419610290078
-0.03252885477767176
0.1494334397362955
-0.011737720942971472
0.0
0.24465827501615658
0.12666607530609036
0.04703036001814841
0.05425908368502344
-0.5612961051056488
0.08106027814052877
-0.025599808965037774
0.10289850779087033
0.033060549233013194
-0.01643284096253156
0.03465356583644942
-0.14679618400954
-0.1187856590081902
0.05850865544090153
0.02500804267832599
-0.03577172824863811
0.0
0.037503104404096495
0.0
0.0978349572257772
0.036837804038628255
0.15098328056378732
-0.07638829988993318
0.13816480981463336
-0.08516774135466801
-0.17646359052824875
0.24249364984882543
-0.10650067937515742
0.12416270724926597
0.1735230432097205
0.08291987139146667
0.0631924744721326
-0.1079667073908908
-0.20032387506282678
-0.09780778767918993
-0.10337986564610743
-0.009655241741913574
0.2228187350923007
0.10942605173423965
0.11232856863838421
0.26699512614503546
-0.16088389986233026
-0.08727300863555713
-0.08159556215631267
-0.09783803053235983
-0.0788985489907981
0.031301597099087614
-0.044842138388587874
0.0
0.0
-0.022886000662586815
0.1359509558540889
0.0
0.0
-0.03683704839088935
0.09210161599374049
0.18528468471463871
-0.09736264234635435
0.037721029317944035
0.1616015987150453
-0.11332450868892108
-0.3972839936903029
-0.16545758268158686
-0.3207705551901759
-0.15850252042108465
-0.21908439745257854
-0.07366546032516869
-0.1242764582449754
0.10820363138654393
-0.019075417688136725
0.0
0.06974647388339655
0.3575903686160248
0.0
0.0
0.04635771395700455
-0.0746724975027109
0.0
0.05136397126717415
0.04449384168388612
0.09470728007209539
0.14402814583414889
0.04367084427346897
-0.09474701706781904
0.10507882009858198
0.22544607229200822
0.0
-0.1308221868412834
0.1282704287202168
0.02574879335707203
0.0
0.03683081113222412
-0.11644279904450283
-0.08014976696216121
0.004263686108021178
0.06819527729830693
-0.0605411916315076
-0.16367494441991118
0.02947440965991671
0.018655231504179675
0.10905362866352789
0.0
0.14899555145372498
0.0
-0.08361940226762157
0.06400674093062235
0.0507999132403771
0.04107740591692002
-0.0009234402898548599
0.018946078024078248
0.046485784918557906
0.03278342854130622
-0.10913447339813295
0.24579980667974208
-0.17444737806225905
0.12256381290368046
0.3433510806705295
0.14132110520142602
0.0
-0.17253597250926622
0.06250870717667642
-0.2117032410335106
0.0041554250115454815
0.09551141444233777
-0.0558777618782799
-0.22874053565879837
0.05766840861169809
0.2589786447385991
0.04008470177739931
-0.24351685065741158
-0.06291526230967474
0.034218516146045236
0.061769446945144205
-0.3649519255673577
-0.4641571436711248
0.09611020890106717
0.015969349617177407
0.05092330077668747
0.14387592375852648
0.012369813085571498
0.09899283817531113
-0.03860245429193036
-0.13622475600023026
0.054504558613116205
0.2609525217790937
0.17614122727976278
-0.09234243331766276
0.18377679015305226
-0.11427604492010987
0.0
0.04148364976983062
0.0
0.07368815648524228
0.05379825038140593
0.0721859068555726
0.0
0.09432184858437494
-0.043194594897217
0.11742266056082605
-0.15384299602626283
0.08194731562196485
0.23225432270103147
0.04742065905938617
0.021755609328720324
-0.06457308774070969
-0.10779786093235737
0.0921459804235543
0.17920594528236375
-0.05763206544754426
0.2676154671993023
-0.21727942234526826
0.0
0.03929768168370377
-0.09372872882760337
0.025584138238836457
0.0
0.0
0.46760039277605014
-0.015031787252640047
0.1527517287322197
-0.09459742067932596
0.1386622114167264
-0.011550235881122785
-0.07396096318263513
0.07588817129492083
0.44015337792114156
0.0
-0.01931508330872832
0.007970395504293138
0.14629753601130713
0.0452618299158043
0.18165395930340722
-0.03541595203902989
0.005772309147910941
0.0990145579035116
0.0
-0.02927717458539784
-0.00668192835306954
0.036961420194530165
-0.03935157001136
-0.10220610236830271
0.07031427132383902
0.17994905689495314
0.22629889863781555
-0.074896362180015
0.12875461638696384
-0.06752722889904791
-0.057515842359842986
0.0
0.1736285183423627
0.15751478388218826
-0.2847356653432831
-0.035019529819154134
0.004992566247183909
-0.07857482320138111
0.0905246475843205
0.0
0.05349467115025726
0.011822107050512185
0.0
0.0
0.0
-0.07894838322355305
0.0
0.0
-0.07600963015567085
0.0
0.005879619442869438
0.07406087697957858
0.0
0.14235170067142922
0.0
0.19404431055448504
-0.041982902407440015
-0.13969187557172177
-0.010570149066709639
0.031147687431809987
-0.02674815993704579
0.05858859799004676
-0.058560832453891
0.10659680533325412
-0.02900911650462068
0.18509714669747573
0.0
0.1608155622247882
0.1979459031580825
-0.1610909719749208
0.026569812579418105
0.07307736606676019
0.048309942559186664
0.17754156392351922
0.045214752383839305
0.17868478683081176
-0.08869345965659313
0.0
-0.037177593698495576
0.04713982968987614
-0.5138811787068064
0.35821812341275144
0.036878675949319775
0.1465692831415227
0.018150940455772355
0.22131679274857463
-0.08614820285985669
-0.1277512003481668
-0.29298522995249954
-0.030172794242913165
-0.24447761621268738
0.0719543272222014
0.08037374155885596
0.06109768078322292
0.07381870173803573
0.22682045039775858
-0.031692665466589984
0.02196437566041979
-0.051847332915332216
0.06613260119414549
-0.009555254457092294
0.0
-0.2027169554137535
-0.04197139154739937
0.0
0.006366964129838503
0.0
0.0
0.0
0.1332313123809295
0.020916259581514527
0.16907834607626143
0.2862364673427976
0.044873632835886836
0.040912683175008235
0.1678418732650751
-0.07795173535939817
-0.2797003598760981
0.42097325893534787
0.14669635852722582
0.15017230860643901
0.09011351529554784
0.20114000954317707
0.10311807389645447
-0.14198530434803863
-0.358429630611269
0.03645073931350805
-0.15887042849473526
-0.11906514792093396
0.04761614301689597
-0.16933122225712716
-0.1395785630308212
-0.007982979629601736
-0.16130983049447584
0.0917950896786698
0.0324046558741179
0.049940047068665075
-0.011642902886406195
0.09427940153045743
0.0
0.0
0.0
0.0
0.11935632571751655
-0.12435421146761595
0.016441632914523607
-0.07075631696088927
0.10100207608320086
0.007047178824609477
-0.10566242413346086
0.2506465016947238
0.3070682553022973
-0.17625130701037364
0.06563576878616298
-0.08420359765176744
-0.20766553013755285
-0.4986813216230262
0.05392163530909057
-0.09158777980472607
0.0
-0.022553899438724108
-0.015123258540653476
0.15359621896476452
-0.1926920984260348
0.11483903519922228
0.047960915982684454
-0.008211590893965975
0.13452390884046758
0.154469662468665
0.0
0.0
-0.01505214386227341
0.0
0.1348086682704219
0.17154570910650369
0.04039015329393438
-0.05442741990163837
-0.10365029612151712
0.23014987365364697
-0.17870740323306955
0.04998763927285114
-0.39697897205426497
-0.013803062216977031
0.05387632598110867
0.32690821093623257
0.25558444938406955
0.06653708429935665
0.015878917756094
-0.024719799556749397
-0.01766377501595469
0.1321271110705476
-0.04830030230199141
-0.47955224541091135
0.11461295019396661
-0.017778513126756268
0.007221290978985051
-0.11591636480673058
0.10774713374255492
0.2006039897469451
0.0
0.0
0.003295461831512665
0.0
0.0
-0.05713802653580226
-0.06773609798287969
-0.05470681384059559
0.00459673227871109
-0.056835789342018266
-0.10658017831671245
-0.004104314886139979
0.443764305277144
-0.20493875114753274
-0.07819059843119386
0.004298781440726556
0.21931488011667075
0.16466540003364805
0.26242453952449446
-0.10920606732653695
-0.03199474086448912
-0.09592322720663216
-0.11536689300755057
-0.05261374119604584
-0.03275354323452814
0.12526456808678565
0.0665490537832147
0.0
0.004346527477653975
-0.14387649165216415
-0.10202016436855596
0.0
0.0
0.2223048041491653
0.02556997190179101
0.0
0.0
0.0
0.020097747202268982
0.10343245595670317
0.04557067783037696
0.09998211958027176
-0.08019334046046778
0.5534830909140154
0.3109382142704984
0.47984057895035115
-0.5014277390749297
-0.029715191973689763
-0.07769365713863918
0.074105996356223
-0.0035841178152120814
-0.007836621509960798
0.05974008399671863
0.18945370793830243
-0.1173768486472179
0.09602232216033722
-0.006496986902004946
0.07142771576824185
0.13566057071270393
-0.001863187214674541
0.023841181661206568
0.0
-0.11104053356668711
0.0
0.0
0.0
0.0
-0.11514404064241329
0.03158312887223151
-0.13889091721132635
0.13450240170255343
-0.04516175648584432
0.027892690233524545
-0.07982122454689863
-0.11098904220213815
-0.06545827806654504
0.12919188468514442
0.21406750125159316
-0.012682314273120623
-0.25337742905040117
0.08733686348169047
-0.032930840296546846
0.033647671796224674
-0.008353464214305087
0.0
-0.012622051875023934
0.07930470102072042
0.0
0.0
-0.12771514368695785
0.0
-0.026702667260885122
0.0
0.0
0.0
0.0
0.0
0.015572146622779733
0.0
-0.07660278118511658
0.08450850975271035
0.13397021572950285
-0.20783328477695123
-0.06932318210169262
0.08106723894672115
-0.2636614467159051
0.01622086236530621
-0.053004549865391215
-0.3597242779767339
-0.03819674597601028
-0.14639973085074587
-0.08080056283935762
0.01013491174899419
-0.10688535918517479
-0.10254794440322593
0.26158178332915943
-0.001343086124918652
0.1831860976448599
-0.034030754148282216
-0.008482910512636818
0.11217302652445585
0.049056814336041026
-0.18022970410758976
-0.18861887237290612
0.06621850735818346
0.0
-0.09402533274075002
-0.005149497546606464
-0.03621793183308618
0.05910785841127754
0.034913136827092475
-0.07665200426855642
0.09490823940959595
-0.08484969377708075
-0.019511526358105075
-0.11616280874617549
0.3975816337156135
0.15451885724243436
0.07672976209622115
-0.303789559727711
0.0
0.2955791529876066
0.06643226830790572
0.06318898703219945
0.0
-0.0047870813960793485
0.07702520960734288
-0.06419452651505606
-0.10096139064208716
-0.06807336310077954
0.03404753371890811
-0.04510512276066578
-0.19431912187780487
0.02000560301258452
0.032680290793225764
-0.050922706436919166
-0.06640216099996868
0.016737862057381273
0.16631462813723635
-0.07503525440781197
-0.015629772790241303
0.07552450073279342
0.0
0.0039894146334670845
-0.07766075488157399
0.05007903984735435
-0.05512538438987548
-0.3319586769669107
-0.07433412311589621
0.0
-0.025329234239414338
-0.051849499585608014
0.036771452577601206
-0.0838046052711767
-0.08812140484703125
0.08253700660257238
-0.12149007577818699
-0.0023413555034627817
-0.05314046742036995
0.012131898333159134
-0.04424101788105475
0.0
0.0
0.13010795242471038
-0.2002603572952646
0.09149349566903622
0.05171369728007161
-0.009714565768385223
-0.06994469716787968
0.14228389742245484
-0.035061502287711294
-0.11223353499943438
0.026721478624456577
-0.10073301267231058
-0.25379752792206517
0.169103028663944
-0.036422927685451585
0.1657285405332391
-0.3959106744399147
0.05892885601424191
-0.12820564205922122
0.0
-0.05602348060018285
0.0
0.2736594316148388
0.0
0.0021640599738902266
0.015275683870565415
0.0
-0.10807837074767764
0.09529002100708138
0.08555286391847484
0.10811422477928587
0.17311778076847245
-0.22174543098605196
-0.2176445752203836
0.13400269666774517
-0.026935540721954906
-0.0003424027526760798
-0.05659706871525312
-0.09513634679772873
0.07804035758004008
0.0
-0.1763575717823792
0.018468509357404676
0.0
-0.09932600587985732
0.0
0.0800522596811544
0.0
0.022215435954434957
-0.5136499557438104
0.23752048169564302
-0.048040271455065994
-0.07888228221972705
0.002406443686299206
0.0
0.0
0.0
-0.06946967504989299
0.10239968529058663
0.057083774526033276
0.036682401285979736
-0.08722239704513082
0.07073636548667273
0.0
0.0
0.0
0.17696674544231422
0.021107773467036985
-0.04536328978456786
0.0
0.303139841370864
0.010848135564777877
0.02840733044202432
0.07757485871764613
-0.08916765310313196
-0.08437766737252889
-0.04106137495076986
-0.1592676504572845
0.20014371177553536
0.040732267762259175
-0.005936649853780963
-0.10942887784014547
-0.04171109508837915
0.06077057911222368
-0.13815357088714808
0.26890970879024934
0.06467608053175038
-0.025003369306249062
0.040320907347077634
-0.026200799054347718
0.08868444901352338
-0.1945171441475177
-0.18970341776869323
-0.052573669882705204
-0.057940848501645874
-0.21149609808053993
0.1624258728258561
0.0
0.0
0.0
0.0
0.0
0.02993965552664639
0.0
-0.04565631674796785
-0.12304549016916422
0.2675121262378486
0.0
-0.10227002548789661
0.07155105164206733
0.056119873445045154
-0.19373661649929821
0.037244947497392475
0.01872191217773165
-0.10463721414954177
0.08933659134624637
0.03971046384382661
0.18306771580773618
0.0184880678164053
0.2073694320775793
0.17448137730648106
-0.02006833888223931
0.13057407011500233
0.1635185271345073
-0.13449139876141808
0.06961631123038017
0.11587058860284782
0.0906344964900173
0.0
0.0265791384007722
0.03848098620647683
0.0
0.015845064798961802
0.0
-0.02194229480850022
0.0
-0.3297030580855719
0.0
-0.06389761617657662
0.0
0.0
-0.1653934540718014
0.0
0.0
0.0
-0.10373507246107713
0.0
0.0
-0.22892909402824696
0.0
-0.21658855198063298
-0.006852985894875367
-0.10805973763689833
0.020882134222687216
-0.10634691450215383
-0.2028591958710506
-0.0029386496244855065
-0.09933153370765767
0.0
-0.20173101858273132
0.0
-0.1116139829143482
-0.02989328801740007
-0.014986798400368586
0.0
0.20011820314475726
0.0
0.041497251011016444
0.002906188432292574
0.0824764958761198
-0.07919698456022208
0.0
0.0
0.0
0.0
0.0
0.0
-0.0006637822401972431
0.0
0.029067699702452897
0.09147341901334803
0.1322765406045884
0.0
0.04375916180118626
0.0
0.0
0.0
0.0
0.22986203013773593
-0.1628392947738011
-0.10310945912560338
0.12143319266562032
-0.053036941489314204
-0.014935893507764197
-0.23638342918377053
0.32554250762514786
0.12991277243839033
-0.5393656893150036
0.23878885498819613
-0.023352777877573713
-0.08625973376645187
0.029179611124251208
-0.044849269449853846
0.0
-0.06560465248178246
-0.0017275411630509087
-0.03702669957870687
-0.11185161262621272
-0.12102941477632956
0.0
0.042584007359628105
0.0
-0.1556315561291738
0.26074742504566684
0.0
0.0
0.0
0.0
0.20823204937361614
-0.21627027164434473
0.005903451625052909
-0.2497274370387269
-0.2261706707634373
-0.08401682203250162
0.13601895517355336
0.21729721085785353
0.008485318103683685
0.1617480685782171
0.08050679252801297
0.025474307670153688
-0.2690785844163308
0.040968390136063175
-0.06194666832290098
-0.10222734314665986
-0.029675747002375907
-0.020681096868961787
0.10496978255771308
-0.21976815857382664
0.30489717501264946
-0.0014879072541417618
0.2479192910041299
-0.2450321675379113
-0.08934129773468133
0.22379360666565487
0.08347094442040658
0.049354519398270236
-0.08418434269551468
0.21317819776933983
-0.4146222070275827
0.024316929775323695
-0.0722167407165139
0.3011782564495496
0.13195452629265175
-0.023839172821682207
-0.014009089603270283
0.10654172487542603
0.5083067532607375
-0.16170899270228742
0.0
0.13226630297419173
0.0
0.0
0.0
-0.1014766999729983
0.0
-0.056923031541988287
0.0
0.07913525380062833
-0.07200560076730932
-0.13677124665476534
0.187485266180985
0.15868415213350295
-0.02715627439366751
0.1568135413313156
0.17705772943690362
0.4989960061671992
0.8806161590129649
0.06855867918101785
0.2254181348785099
0.19680213197959237
0.16667003582591686
-0.2485365937690547
0.06679375822733291
-0.035347058386951735
-0.004192283801132325
-0.16398028236280926
0.30864786374159164
-0.10820300131282448
0.13288911610734605
-0.1166792310601865
0.05687038965833948
-0.08527832229518541
0.0
0.006031835434586729
0.0
0.063768420812483
-0.07630254836387254
-0.11528444426097582
-0.06573875325552095
0.18692156547452127
0.16225474818447602
-0.22075247057603792
-0.15186551616792784
-0.10707142030947603
0.1436512840429766
-0.046479836101991204
0.15243072156897428
-0.2630084653303081
0.05927311631013675
0.0
0.12733178739364648
0.03684567990379566
0.0
0.025006283759691626
-0.0015715733555201825
0.06006749691780172
0.0
-0.05108730356739109
-0.00619085351007953
0.0
0.04642241414818858
-0.06020823316136786
0.0
0.012424633057780514
0.06030739476021006
-0.29101200013300144
0.1522985658657484
-0.06918242478209832
0.20970972549777916
-0.15595712647628507
0.20943584249502584
-0.10968972327039601
0.2204922102077943
-0.038417301857349456
-0.07617830799514885
0.12897940934650032
0.1601224913173132
0.0
-0.03848997481837123
0.07117375231031718
0.0
0.0
0.0623396523391474
0.0
0.09250288924754971
0.02296886810604038
-0.16151039131548492
-0.039103915178186836
-0.0602346218062543
0.1789641575969841
-0.06882134294987376
0.07471518511013421
0.7732873794051047
-0.3154891455696047
-0.355079708823279
-0.24272329731432934
-0.15807005747760217
-0.18087554898401564
0.01881994513626288
0.0
0.0
0.0
0.0
0.0
0.0
0.0
0.10458518784450783
-0.06163191795140886
0.2485826969901691
0.15628147051573274
0.08508416647704393
0.37418368298194554
-0.14599671619030097
-0.11830816430091336
-0.02540629415990879
0.0879321009458301
-0.21950838614866452
-0.4633837700640153
0.0
0.18082655689025867
0.0
-0.17681031105300324
-0.04529113597689502
0.0
-0.013359491387313682
0.0
0.0
0.0
0.1407670067588993
-0.031242289521389244
0.0
-0.024049196503627066
0.037459555131626014
0.11470220085803254
0.0
0.1707840296882226
-0.09710033412824366
0.010064155317369929
-0.0706543328237857
-0.12011598331814256
-0.06692631340021984
0.0
0.09875949103528461
0.0
-0.13829091301832006
-0.16420811428103363
0.04573300193627403
-0.17474138464107705
0.0
0.22520913939433562
0.26497208112005743
0.019981916198875835
0.006575114256317811
0.0032794115105304195
0.0
0.0
-0.19245103407574704
-0.044966693164524826
-0.08408032609855218
0.021756389400356242
0.011883109959893612
0.2658938825759656
-0.17345759305839642
-0.058300978802986486
-0.18248581639038366
-0.04183849684246882
0.28203244773421676
-0.002450205208639006
0.09728649970534017
-0.1741258677371053
0.0
0.17839365223549933
0.0567470514879735
0.0
-0.02605913411188627
0.14669678811721873
0.0
0.16156981345933147
-0.010638787566656578
0.0
0.0636885358691827
0.0916401780062535
0.0
-0.012679721169832821
0.07502532918481607
-0.009161867923690073
-0.004201767741647847
0.04724083813099656
-0.28710391253448037
0.05500043530115847
0.17583804461739033
-0.0033267094786955166
0.004152028835487806
-0.33583606956686923
0.14568859072880852
-0.16179796764708854
-0.05059733821367285
0.07968248295858645
0.061040132313762666
-0.2522089075986704
0.07208371867426888
0.3586807943870858
-0.2854284256724269
-0.16435182867581494
0.08972869289461771
-0.20112277831866907
-0.24006007896073794
0.10923713365834758
0.10602100427258956
-0.029300934885010767
0.0006779128802452544
-0.024326944571537217
-0.08049648256651397
0.02271327139139764
0.018383087892455775
0.05595111133055643
0.2385813439389816
0.2350250627615048
0.26054446161608663
-0.12468935313723893
0.16164975741735083
-0.03889512056893422
0.10808708488519812
-0.1143320438229003
-0.10728093584507035
-0.025403984844179463
0.11534661676622282
0.18890796784612615
0.31027931776099615
-0.16076039333670566
0.0
-0.024585105295331616
-0.010908136805032075
0.03318736102151259
-0.05130037267766187
0.06414836469263983
-0.009700983145604296
0.1437902133947169
-0.0595776405589253
-0.05792416967091074
0.10403420914051076
0.024610049633103658
-0.13983991687034283
0.0559422584104092
-0.05102994113231251
-0.04252852989968866
-0.11281726132117317
-0.006242606420111986
0.0908009996825257
-0.0007219853223643538
-0.09039069192042273
0.06901398950206887
0.19424880290161733
0.09417056834804041
0.06199431874190213
-0.24075392243635332
-0.08526545953506272
-0.10752837838850855
0.0609847959286129
0.218345334971071
0.10448604133438627
-0.10241586403591631
0.01437709575163186
-0.15618360004760237
0.17561781783164743
-0.0031733892628795085
-0.06064224404816387
-0.07767958197158797
0.21532357324407345
-0.3706750998531651
0.13940794155913133
0.022826460125377784
0.1293293546280126
-0.09278571114852258
-0.10891013170255381
-0.13533601108835216
-0.22079946303293896
0.5218627775548743
0.0943902335852769
0.015184676990890569
0.028626486313189183
0.0
-0.007345450211579502
0.0
0.0
-0.0802206897890268
-0.11499593462826646
-0.033817167388228236
-0.24505222370186452
0.02868129155272843
0.041957756088235404
0.015854679393889404
-0.04761569035671494
0.05903919353880453
0.0032481709201719333
-0.11478410453135657
-0.21791004522254595
-0.1994458674576911
0.0
-0.015016175141646541
0.16168344939406573
-0.03259964388463296
0.05265041449085325
0.0
-0.09414719412293358
0.05234093252299313
-5.734797004281622e-05
-0.05111130168295198
-0.30797671152646194
-0.2489357247624206
-0.24967786506843442
-0.25365463246742154
0.0363499934157816
0.3140594527597168
-0.04629686997871815
-0.0992654627105274
0.3324527306633422
-0.15326889151695
0.01603046457681137
0.11024864535273632
0.14146636091843626
-0.007816252168257834
-0.11893410471733881
0.13815395139041559
0.06328918116670135
-0.010293761799976552
0.3412417720519967
0.21106806396691008
0.10067647330066024
-0.0013897112638604457
-0.09101984470269055
0.021986584101861634
0.22964882849360319
-0.02081411663527029
-0.004267711436795345
-0.09134979243093512
0.2879714720836253
0.04956689711013468
0.11532979999864906
-0.3259902875510352
0.2670352866751072
-0.06586726327825654
0.0273297654344255
0.02621937052891607
0.24149802828744787
-0.019872050821530374
0.15861241947202293
-0.28983569006180976
0.0
-0.10766633926178842
-0.2627045058087404
0.20429940770984867
-0.08992795490821637
0.04989421771340395
0.015233876257061596
0.3633527287807631
-0.14003876624644185
-0.11010287051425321
-0.27589686032193733
0.21396038313497143
0.13596768605196544
0.07992148093135443
-0.0715902503316388
-0.15144507518376105
-0.12289635909256186
-0.22437282730931213
0.037867090431293736
-0.012483526836464545
0.08178000311366895
-0.10998471294165181
0.038757341216212014
0.08761969492450587
-0.18918698925585095
-0.08175430599440904
0.1726954892963449
-0.2306097478946675
0.03477016329437482
0.1619237267090103
0.16139089834243664
0.06206242273156777
0.0
0.15077137111829247
-0.03826205611679539
0.10365688533530545
0.0
0.0047740055118179955
0.0
0.0
0.16997744503634069
-0.14509677760627643
-0.16570386048292546
0.125389591183635
-0.027134976282802516
-0.035371103425433696
-0.16776441339248982
0.03996706628433083
-0.3053310097149715
-0.04300249835385253
0.07388280367600791
-0.031148164975240075
-0.024732217741524433
-0.08210107555262622
0.0761469955047344
-0.007625765288660061
0.12393457699533983
0.00278286012369078
0.02734684517853921
-0.08474230237488901
0.05320978877518918
-0.05983794445431956
0.2097180382131074
0.06829443711654169
0.0
0.005322129279981377
0.0
0.0
0.005742983508707413
0.0
-0.011449613980115006
-0.12950642052488426
0.06074194902272803
-0.11823251032396549
-0.006457976688461042
-0.012574500167144238
-0.07554025653567567
-0.12138397998131548
-0.10440646268989431
0.0741797949332343
0.14424007255852433
-0.09708372745624927
0.24830379067419867
0.08618701269951612
0.15425369735632605
0.12335794260674718
0.2932681812425209
0.1348949492126772
0.14004499592199915
-0.09919848461726442
-0.00548005928653969
-0.18172706354575213
-0.0737595905723754
0.17035703146822306
-0.011669215137266806
0.2618699217991235
0.08486183699876634
-0.18013856174796022
-0.17889798261607692
0.14144842858880086
0.12694141133518552
0.06589984261511897
0.01680944286860018
0.10035320917406225
0.4055906890066964
0.2516165688649507
0.0043725370713515906
0.329625735671012
0.05626684556712056
0.2491186186600909
0.0
-0.0002938027087270763
-0.11991638489424097
-0.05752211103761156
0.05497436922419375
0.03337686607026548
-0.1962849526609629
0.13303191238159587
-0.057627396165092507
-0.08147634901200489
0.09644845674411962
0.2570257186157964
0.03803499489349854
0.07066896110410563
-0.24489185242338884
0.14060686425090826
-0.04803240495792925
0.0
-0.3059636991177834
0.3985420198112872
-0.07450174803770727
0.0
0.12352716916509046
0.0
-0.06212636587895361
0.0
-0.06592826567142644
0.1021199702754802
0.0673943054824219
0.03036177255176987
-0.05536800051832991
0.059287330100478396
0.16285360811673258
0.08457922240618533
0.004144647512850229
-0.01809674367942627
-0.07452970798402436
0.025821736280436595
-0.08228937778799579
0.05659071236591378
0.11951897472632661
-0.10872648107321385
0.4419419926425645
-0.035198833089046214
0.4405976347166652
0.3769083815615506
-0.28654573416025597
-0.3106030183918965
0.252993565692179
-0.13298348007039276
0.07225146913344344
0.16372449845248152
0.01084730435294872
0.05154493001215481
-0.0728753674373788
0.13246829111299518
-0.021589334767716455
0.0
0.1178854454977072
0.07325898401540344
-0.10618143125186721
0.0
0.14827291681375532
-0.03214933907958231
0.09023495294288045
0.24671874853135095
-0.00827380322695477
-0.04610248534120976
0.01930179675156801
0.053398289267826735
-0.13019867843891392
-0.0896384272012691
-0.13001785442431327
-0.0475788599564389
-0.008853558053540858
0.07569659982105434
0.04847414337298199
0.08170450724736511
0.1167413467013946
0.1353603310411438
0.09361464698135619
-0.004330127576163846
0.21212698710957803
0.0
-0.07073253425966147
-0.20984679452809177
0.0
-0.13305127054165358
0.0
0.10647047258685838
-0.19969961554591717
0.003972482559040161
-0.08688116749492175
-0.03844199365875953
0.15041220114958145
-0.37582384715154593
0.0
0.08831234121116915
0.04728666064734194
-0.08438182150570091
0.16590796599528035
0.09259974481709042
-0.07328112847327861
0.06830770014178017
-0.06419951416070765
0.14517711831394983
0.0
-0.05730338477147769
0.1523390427113005
0.29414763375440023
0.11053862401233647
-0.05977043129168824
0.09140480596446293
0.07544025123658814
0.12159871882789598
0.009572345845618951
0.05404492846230438
0.01805419630628484
-0.014976245386876738
0.0
-0.04329672636053741
0.03993585812576155
0.0513577518875222
0.0745529719538664
0.06992097827485394
0.02420219759703741
0.004514975418512916
-0.08268441637963454
0.2144927494157096
-0.07677718009724424
-0.0883577437191414
-0.0738194241986154
-0.17371124062485976
0.26918578487199996
-0.013664221034441561
-0.04250484347657505
0.030283021449967733
0.07833040944391673
0.118302764128228
-0.04069052814945312
-0.07602422484923359
0.10798207832456162
0.0
-0.06287035824008055
-0.07851627564912537
-0.12327609722541491
-0.09946405767716326
-0.060546662160659
0.07301892450036641
-0.0073802738369716184
-0.05366024364164407
0.18883360447438446
-0.08119664081185926
-0.025935033882938996
0.21630878608261966
-0.17357254893686241
0.03543111855488786
0.14744898824248606
0.14800605364573788
0.058867997624851454
-0.1308883950268846
-0.1832528182945336
-0.11558737524904827
0.15352530538958417
0.0022285227137688038
0.25351296184993855
-0.003568133697632789
-0.015487958404913807
-0.18626316890085914
0.012336229826060141
0.0
0.0
0.09900657418496028
-0.05949665632167604
0.18084643126286332
-0.07927866958117256
0.09449538725028295
0.0
0.08770986432497897
-0.02502957554281892
0.11568440206397737
0.0
-0.06950170478199998
-0.000753803405667132
0.012417290854431877
0.0672260663043568
0.003389595319432566
0.0
-0.008681567528254816
0.2844182435471697
0.14686397838096218
-0.009149106240256609
-0.30517366125688294
0.09790795608042882
0.03711640228716928
0.25814668048111555
-0.11504476852725717
-0.003609515367531249
0.11873872866381444
-0.04612009207333745
0.21577285567123938
-0.035851550561808346
0.07562012938633793
0.027576586097240924
0.0
-0.05601523736540238
0.0
-0.09928736596485303
0.14467818897534648
-0.20217858941340724
-0.1140829518915997
-0.34126916078925146
0.1699113403414806
0.02226196830558297
0.4819280387710746
0.04202480210835645
-0.33655619129566994
-0.2858146043237701
-0.19716692420791354
-0.41032715704112516
-0.10985023750879873
0.12370667135702478
-0.2015432075968427
-0.20305430952311054
-0.3279815528890983
-0.008756939433391675
0.2624852909036364
-0.04863042279438402
-0.20648526142520096
0.04030088342892968
-0.013826669592376231
-0.10843612538965343
-0.004688365421771402
-0.0021034687603844943
0.05325732795367932
0.056627497138416735
-0.1654115728377729
-0.21936806923868918
0.03407124089163385
0.12856017492001923
0.07029716872822513
-0.32082177183044075
0.0
0.0012849569158131843
0.06127298071606643
-0.18542880310727985
0.11920217894676101
-0.22446452074392642
0.11370037636098086
-0.11965101361497076
0.16954131972574585
0.0
0.0
-0.11823528461454781
0.2576768746251849
