0.7786075383375002
-0.9925928988429507
-0.08654516143084257
-0.20881329029560702
-0.4888951916012547
-0.7725756342183585
0.34209433100714626
-0.5202013438956912
-0.7084713628718429
-0.4508016337868068
0.6236060228522426
-0.7512385662695702
-0.6149367322526131
0.006784625250695342
0.7839928481576537
0.7230549034702503
-0.11551904449070682
-0.44721334464391505
-0.5879923200471999
-0.7859617764951661
-0.2712653774940519
-0.029416974429610887
-0.7975093323519734
-0.7871838575090533
-0.17954926234818602
1.0162695906154509
-0.3973254717580825
-0.3422667622056945
0.23031280408067167
-0.46848203207731554
-0.33414213029080675
0.39471671789023954
0.5207192827366836
0.257129896834807
0.6737712997986636
-0.062465230391806514
0.18097953666708522
0.05895398826132103
0.9937884769655398
0.5910887704538761
0.0
0.0
0.0
0.04873675201571949
-0.01476786066579903
0.0
0.0
0.0
0.0
0.0
0.15082667873838052
1.1021200280609587
-0.10491862846222688
0.6942864847741606
-0.8844020966205604
-0.18364460602942545
0.7018965664733466
-0.5077962318303408
0.9844329403465211
-0.7938403732576489
0.0
0.0
0.0
0.0
-0.012483112057855435
0.0
0.0
-0.13502069775043082
0.0
-0.012085379319082629
0.0
-0.029311308143408047
0.0
0.0
0.0
0.0
0.0
0.0
0.05584217540296318
0.0
0.0
0.0
0.058180392287826156
0.0
0.05202954158643222
0.049670391917505156
0.0
0.0
0.0
0.06103962287500107
0.0
0.0
0.0
0.0
0.0
0.006763525743845769
0.0
0.14163926040216918
0.0
0.1154934720410099
0.0
-0.14030728123089178
0.0
0.13716359856303548
0.0
0.0
0.0
0.003702371625526614
0.0
0.0
0.0
0.0
0.0
0.0
0.0
0.0
-0.18046634667959344
0.0
0.0
0.0
0.9054671567312575
-0.0425808403213237
-0.8782573884274254
0.8033651197104621
-0.29439974238484523
0.07576714191320066
-0.12844787433955873
-0.6116584553148625
-0.8546097485829663
0.6980945466404671
-0.9757713248763706
0.4163448856490828
0.13782012348905556
0.1689307309875694
0.6187836262472887
-0.37408867333280854
0.7098482663744488
-0.897844105417883
0.5893865433839773
-0.7278320461483396
-0.5187421574279376
0.9681887418716744
-0.9373842753425883
-0.060637580499099286
-0.3939756011983453
0.6378645049962812
0.6045007332424995
-0.6880198938689155
-0.628009295174073
-0.4656345498289425
0.0
0.0
0.06879378216912693
-0.16348105635784155
0.0
0.0
-0.07269488582934609
0.0
0.0
-0.04137601102537618
0.04975396488126745
-0.10254747403876889
0.0
0.11850924177627914
0.0
0.0
0.0
0.0
0.0
-0.05130479820007521
-0.5717744148569711
0.4018582851513848
-0.9420941497049207
-0.8326100604588285
0.0605792951093751
-0.9274569835008013
-0.40205815022165425
-0.1723677454206356
0.34934878294190985
-0.20254389688833319
0.5547517248202756
-0.7717003457315279
0.5300902124138833
-0.883209085747039
-0.4277232317660873
-0.36637185632707436
0.39541152733724805
-0.30256680448014217
-0.7465046843182779
-0.17350913554841263
0.47153304667954227
-0.15616397599822607
-0.056069346018955635
0.9228943180410025
-0.41815049491167433
0.7175776180777078
0.6710912411951355
-0.13370191420902677
0.11629151939656301
-0.44831260828695374
0.0
-0.03298475910827294
-0.05276577608761749
0.0
0.0
-0.03117775877632367
0.0
0.0
0.0
0.0
0.3055227160907401
0.47836494777840133
-0.12449446623537308
-0.8051969169131483
0.45523047128127914
0.77710700197354
-0.8535753859059112
0.8018394604085276
0.532285598716054
0.13161094097111592
-0.7105850668292963
-0.8639082723320661
-0.33301803006644093
-0.34068835305607775
0.3186028798577232
-0.9158889385022544
0.7121838025513687
-0.3265959763005266
-0.21702349211059624
0.4718264294740999
0.41519623329379235
-0.5814135331164199
-0.6788618251621347
-0.7532236964038208
-0.3775311325539785
0.3021295978477614
0.12301191571136014
-0.5254013041109116
0.8289143943579798
-0.15083219232098588
-0.11862287373465351
-0.9728828333790326
0.7467789007038232
0.5968941167417994
-0.011173875813324408
0.33864012057664206
0.9585755952779424
0.17005545663715066
-0.29647649516157804
0.27693352060066845
-0.15126054233706698
0.8065139021360783
-0.2313250524027015
-0.973710070166514
0.11455442842305397
-0.7349332458764986
-0.2580765747169109
-0.683782571264589
-0.9315451085061373
0.49518660537412307
0.08815829190804769
0.31591203661832323
0.7961403855747937
-0.04684613651114966
-0.5812344307166712
-0.45883881350368294
-0.6079886419463543
-0.17168735106712618
0.15682908856521238
0.43538210997447857
-0.7320417312051626
-0.6882795310125085
-0.5420458400283472
-0.8550947547501552
-1.0175532100017546
0.707385975185333
-0.7356066910044545
0.035771513842739244
0.5631454484995997
0.9065672073155908
-0.42053478971882696
0.18947706445247192
-0.7072742191854984
0.9945183830711293
-0.0887391973563354
0.6074413607479971
0.495397368255131
0.5835718406343436
-0.037959124058690286
0.048744957748618534
-0.8009237181504345
-0.8929721677944489
0.6850689871201654
0.40279936194516974
-0.008084045070229307
0.9024895561354109
-0.8708902691574487
-0.9314578064605088
-0.337315925366688
-0.6207011255051902
0.036232401859827235
-0.5402388289368134
0.05923440464199259
-0.20432694318405487
-0.26000008607247915
-0.4473419736383806
0.4904986519635026
-0.7448584300414619
-0.553500621803791
0.5216651457836186
-0.9282723580582111
0.8295834189286375
-0.569979016354315
0.754576003561398
0.9746385024698245
-0.5722346124940076
-0.4543415196560536
-0.369111251835724
0.4004015638966032
-0.04275137296261078
0.059203137994806754
-0.4715661287915405
-0.3310187893991017
-0.8382469661274867
0.14722485116338468
0.7485417311982221
0.9296155660318821
0.9174951699954814
-0.18690616857164966
0.6564939090791235
-0.442381589536307
0.573312262634998
-0.6963073135066591
0.04329198413243718
0.053168736750977226
-0.44223399473439606
-0.15868293008865408
-0.9638840502630974
0.1092866084176439
-0.9145745977994362
-0.29456751644009027
-0.6431216574711806
0.5047975264936744
-0.7622617238830967
-0.6604503316156879
0.3820194701082938
0.9980075497147678
0.3289615940768409
-0.24100464557061474
-0.5682254309715935
-0.762049605653307
-0.06458168786284157
0.897939146426447
-0.6088562464954421
-0.7646188907509709
-0.757436885474652
-0.2834675242472231
-0.8841933290252304
0.48851408829448495
-0.473503759878936
-0.48355504892291723
-0.5253994613749788
-0.34926023318188437
-0.06885666401764245
-0.40444908719001993
0.3980389661368111
-0.01134405873805204
-0.9235334517934317
0.5976331718158829
0.26208963060834045
-0.7345383525113487
0.9787647787311318
-0.35687460712804064
0.6293425267654358
-0.5083149505759832
0.5467864346653386
0.7099618345508585
-0.6715300759742495
-0.3714586401869274
-0.39545381943357494
0.2977260191140749
-0.1876985139387135
0.9223418221490375
0.04350118306933193
-0.21322936392906433
-0.6499439240114949
-0.46680657073806286
0.4874996203288873
-0.32181396814523233
0.47662302320678396
0.4681667870731062
0.6396531113304589
0.0340552012268065
-0.40136329271889437
0.42692666275307944
-0.888556114733156
0.8735961803758838
-0.5258097147910918
-0.4335573644344859
-0.2849336669197544
0.6834532006244505
-0.6740847952969737
-0.29397086930521477
0.5203248276789967
0.27507414607522884
-0.7747006193319963
-0.38043671716438965
-0.4524173269906129
0.7581540552482728
-0.22214089106895507
-0.9883253251176585
-0.23408387286314492
0.38028841917957523
-0.720529578925339
0.7008556497158627
-0.07280009599150339
-0.10185558373362813
-0.5922158892559215
0.16225140866685783
-0.9788577864700776
-0.16517307707141698
0.7420424524218157
0.012009992878397213
-0.7864380676285792
-0.7063495280395282
-0.6030469510505005
0.1811801310506851
-0.28882559694906457
-0.2510215007181549
-0.7549196237102399
0.7305396881017304
0.6994855993669968
-0.47321898805186313
-0.5720932888038162
-0.8395646055060766
-0.8970430137759273
-0.7200667454145742
-0.7162393856757958
-0.6992689986606421
0.25862276257844274
0.9532912465458094
0.21643526020660908
0.28664418031483074
0.038156521749993066
0.06366510026768357
-0.22241623383241954
-0.7162820873301694
-0.5059558224759353
0.427702037362347
0.11083278785431006
0.5658158696253721
-0.7266146398383255
0.3029208161461073
0.08641066722071034
0.3574029176645179
-0.8729585486591451
0.03925943377162078
-0.9699231247779312
-0.577852891086533
-0.3630575110179157
0.800772810754393
-0.3445998987970267
-0.6099784216438695
0.22797235366453772
0.07222848159824546
-0.29385637887500704
0.4427785412513532
-0.7646463204457443
0.2683833028696586
-0.1456224132909793
0.13617980770101631
-0.5741226004008949
0.8912313758079826
-0.269364567018179
-0.7365861564020544
-0.07712387037810875
-0.42070835129669937
0.9722051689070603
-0.6231481249203585
0.37610991996295584
-0.14950022306566213
-0.5335353429416736
-0.6495274840033736
0.5223617276092614
-0.3588509956634045
0.5730447719738003
-0.24065382391332935
-0.5873035776223854
-0.7983765281059725
-0.6134169089662684
-0.19589545905194575
0.44140822416992065
-0.8596520073129925
0.19869694874517357
0.8244933896399473
-0.8066770377186374
-0.9558483671722446
-0.9277552500799491
-0.6385178815352708
-0.8200470761782523
0.499925894407518
-0.5834509789799982
0.12831001127167752
0.7407786594103773
-0.671570246888841
-0.26474227759192015
0.7337523843287646
0.3088988537845434
-0.4268769014464513
0.7055151511030933
0.4844743054941914
-0.4489987105772142
0.025708588587826098
-0.8708949287546373
0.6274048109935952
0.30065574795364025
-0.8434081376881442
0.32160772187454056
0.20513502378326254
-0.3953367174025815
-0.7598627869048378
-0.2491313122137329
0.36171954437574794
-0.7718188855800834
0.596457604697264
0.06617830297686944
0.27493418069826836
-0.250480300531587
-0.015157448606551549
0.9275477958045857
0.7932636222634937
-0.715286463141326
-0.495947002763063
-0.59581775747486
0.4888061140279625
0.9334726202833636
0.2366331379990605
0.9152706173067098
-0.0893289478117897
-0.4245390806826377
0.2506235845606336
-0.5681649864057423
0.7175125269347951
0.6288300259863879
-0.8698165344156497
0.8276312103028591
-0.92791844461797
0.33525964688711385
-0.2725409569558055
0.5790035726058989
-0.658555740200691
0.38776423893560485
-0.32522978394675184
-0.24048766130701305
0.9195500678119726
0.9507677305232123
-0.5287234746019756
0.08748497184799753
0.09916975385823656
0.9783361285256542
0.9280873235313456
0.06970539943271103
0.8858708330366354
0.8527573680264064
0.9292569060235822
0.19758786849627316
0.06313562387848792
0.06562290238123691
0.754731061301486
-0.9902088754531744
0.5006706342334379
-0.917250365738993
-0.7379146382321924
0.2263688142063125
0.5929631811625233
-0.43851461015311566
0.017337853374347123
-0.9404079390462099
-0.4633262222693326
-0.2906695980082896
0.7064513979265219
-0.8233048031387254
0.34615256247385684
0.5434660506069904
-0.8068576242962411
-0.7621801030703346
-0.41434367375907677
0.19146605256012195
-0.7428353500314316
-0.8493014895386106
-0.8919984404758565
1.0214396970353086
-0.7126744152255242
-0.7915263215769817
0.714225608306492
-0.6141783041530888
-0.6424097650322709
-0.9246421468877439
-0.4599055927760316
-0.4742809352218965
0.06943727191410787
-0.4906576994453012
-0.014942758019836536
-0.4569171561518881
-0.8685739990289523
-0.5112122030626469
-0.22219533126051472
-0.8679599814948629
0.04492908622347258
-0.44445928244021893
0.09113589760411936
0.9980657614378052
-0.24702363537517721
0.05346469263337439
0.8996372694869497
-0.39894610133979974
0.09527158974959096
-0.2126442593126867
0.42954898407885156
-0.10102660792602469
-0.8229904694342167
0.2759421732439884
-0.42199780669010867
-0.7431943086560582
0.9809584266220597
0.4414555575638379
-0.12282725753822521
-0.7834100431164623
0.6986826577199491
0.1054526228217092
-0.6230057037361756
-0.28198402524275684
-0.22542097451459098
0.08873278360877213
0.11710310227459408
-0.995360573847849
-0.8946311468466146
0.7128321320455966
-0.23560382465300145
-0.16293689037534986
0.19944847220183504
-0.23462772597176218
-0.6690061488373993
-0.13081842700748525
-0.03311732373434895
0.2152652749797772
-0.6220959680903293
0.08709000838368453
0.984853528398594
0.03003519683668099
0.934289087909967
-0.36514103754669525
-0.8784411846760787
-0.7920377256415495
0.8284228709569026
-0.6924939530345462
0.6896777148472086
0.9999999869443104
-0.679905420690667
0.5746748935400217
0.8061767793652028
0.9721367180172917
-0.9184753773962286
0.43632463874231187
0.027438383972629765
0.3566473411210136
-0.841742961819054
-0.601523959262761
-0.3334275975959651
0.006316569423322791
-0.15469016447493256
0.560639340402539
0.32677215036556473
-0.1069975181220382
-0.5342840234834296
-0.5018424114742119
0.7117180129206946
0.37729894712515377
-0.29421620833925033
-0.6563037235174598
0.3117728648916145
0.1455718004944584
0.24648498535461716
0.8682908826344786
-0.8001759106959327
0.6281169306146672
0.43606005154623917
-0.8950416018988745
-0.18812888066246525
-0.06764741022422283
-0.8187819129744393
-0.4363043295524156
-0.016011801546047755
-0.060924126367323916
-0.20342187236950937
0.32626402816031463
-0.8847901075484208
-0.8341039858503962
0.5927447290521695
0.4461672739088671
0.0
0.016905375547350828
0.0
0.0
0.0
0.0
0.0
-0.06269634011859729
0.0
0.0
-0.18733478346604127
-0.8420332409740725
0.906150695253706
0.39908324826899433
0.9940970244975454
-0.6906943802831793
-0.19177164291510884
-0.15790288536201236
-0.3117710861498926
0.19637547265261168
-0.3913622385079553
-0.9697803705434023
0.3199092544905944
-0.41812737281743945
0.2843707316523916
0.6042216577350847
-0.579526401585523
-0.22808739701423952
-0.007151437928618165
0.7400957469874135
0.7433415286681068
0.7705300618469737
0.16326312944260546
-0.3811582432326581
-0.3960585682677842
-0.2591453183291199
-0.368971125391389
-0.5824266219591554
0.807521749526199
0.4693209051893539
-0.22730905623739628
0.08013528864862418
-0.7103589295338744
0.3252801864179795
0.5434437541694939
-0.7753385553297178
0.7510632806665829
0.003364406385702415
0.8315282063775402
0.34665890763903007
0.1278996881654138
0.07205503149879977
0.985988929135944
-0.8219860793713981
-0.9051768447839847
-0.1398288828815868
0.5404545514287302
-0.6359017225742174
0.3106562798235819
0.6677550945267934
-0.18180238562604067
0.4517192618883781
0.6708532867443571
0.9694033127357417
-0.04008118686567519
-0.4771671276167062
0.11343780822924376
-0.5586574189595097
-0.5793696635581373
0.7948397808531242
-0.04398639205763377
-0.31471592563166495
0.7379396960203257
0.8219181325035089
-0.9103008691693579
-0.4680847647270887
0.6521633001065363
0.869301773239078
-0.3917085084330467
-0.2896305875543199
-0.9301516658357174
-0.21971684841016814
0.43459288263495743
-0.046599307437430904
-0.032156077695545904
-0.1432530096888207
-0.999013426162825
0.5291018898476358
-0.071968659164374
-0.2718535062711147
-0.6238173608040423
-0.9617190182284856
0.9113996151356941
-0.5981937396363466
-0.5218161135173272
-0.28608701878235765
-0.3114272337442603
0.8442364318417259
0.8510442087575028
0.4589022864822667
0.02787394370519869
0.21239914314633435
-0.7644991665328988
-0.09479280353049302
0.4617299667203463
0.18253009717661545
-0.12427802325385406
0.9286858191921521
-0.7935593840690962
0.8916108177753799
-0.02186075988729373
-0.9625533140470826
0.7103865106828211
0.13384088366966962
0.7274964282479917
-0.6580445814663654
-0.3747180664565568
-0.651196693607863
-0.6301721469287429
-0.9236218592235641
-0.8040004588464845
0.490730582422515
0.280797835289158
-0.8258784440296415
-0.7270274844806737
-0.14661284552835507
0.5218326919305725
0.5279143111087721
-0.900151039365481
-0.608493446399268
0.1668579139467393
-0.6549468664159499
-0.0436145534236867
-0.22594826364281695
-0.02288689672011124
-0.3089203118996687
0.9216923237481496
-0.11090846514168029
0.3934643106692819
-0.295091801516032
-0.7941225146472022
0.9420528501858079
0.2161768901985155
-0.2941215455917141
-0.053769275597149946
-0.20844933041811498
-0.4675564908840528
0.7688215730687975
0.3231388841223384
0.09863690311167339
-0.9007622547665819
0.07613496906466177
-0.276216458438973
0.9777399915071849
0.7014601303867252
-0.4244930441336181
-0.7916620099967829
0.5850345188035044
0.3141317238455805
0.16430525134434393
0.18321966824359137
0.08782362309400149
0.2759763923897143
-0.29167476170026085
0.41513960566846597
-0.042838957993563145
0.4584719085243101
0.06078251581965447
-0.42578501017123793
0.9209811431124104
0.3790741621865894
-0.5346610776581984
-0.08539683291487243
0.17727350499302186
-0.703033479460238
0.33987521660972875
-0.9412325253099976
-0.5964562942971968
-0.18525147975266498
-0.38621182317883607
-0.2633703792067934
-0.5787587415985316
0.3557784203468183
-0.6743079749225549
0.24163889206603373
-0.6675871088887455
-0.3151734256335643
-0.9662178190106028
0.39000461088551375
-0.8456379941589687
-0.43304266479698783
-0.5313511964337194
-0.6635582392649293
0.019574284940895748
0.1739475226395308
-0.9682756706965654
-0.09578195130269695
-0.30232160243716444
0.09850985837924009
-0.23928035261337
-0.6422551821954401
0.4215250259189165
-0.22740217764551907
-0.2470881463950445
-0.12955032030081115
-0.9550832180252719
0.2038440681333249
0.4593424672796504
-0.16695808522539357
0.8188227327331263
0.28062745996048255
0.11693064930054597
0.5738054231113778
-0.09384279587171473
0.21560761377165827
-0.6601478210713878
-1.1256047959181255
0.6142217025127963
-0.328037539344777
0.032216030697862275
-0.3681677500065672
0.21229773248798
0.7392068931423148
-0.19958126536245624
-0.9804666540777145
0.6600472402968914
-0.5593028939643716
0.8958396082563489
0.35215676700123866
-0.43896758731743857
1.0657826717392944
0.7834162171460359
0.34070376852431483
0.15489494319320296
-0.035427535473777194
-0.9047009087317468
-0.885116131193111
0.4738351850493805
-0.275164372731991
0.6760189514543393
-0.7703252539799467
-0.18264380035528904
0.864938247134232
-0.3416117386396311
0.9918521615888773
-0.6276090104078242
0.7184494264524839
0.7417419406419776
-0.24869661188681924
-0.8163707654923565
-0.9489604119547246
0.3957893384077289
0.5257664348836186
0.15849024177850518
-0.883281261449852
-0.738998275173592
0.17601082816969438
-0.1739845738001755
-0.4013961041408072
0.7301710290361594
0.3252658961013746
-0.44091572922042843
0.001985255027603827
0.455473190954901
-0.09895440980273551
0.8149747951764614
-0.8963872530968868
-0.03843163758615753
0.26479362122884775
0.3590110380967546
-0.06623923204587645
-0.7919323470930402
0.2820828764151335
0.6985075800435747
-0.06668387774223516
-0.7462407621511543
0.36334864498232045
-0.7747183370045909
0.5923319568813383
0.7745910272267793
-0.3280576820426162
-0.7794864940234898
0.3291837212532316
-0.39222049969743167
-0.9812040659707515
-0.6421150405207314
0.7382548035195873
-0.17633767209022033
0.5386031326961374
-0.19161323866823943
-0.8779453379203193
-0.4793083988860223
0.25054789070681305
0.8915963441431836
-0.27282398817941217
0.6259144296587682
0.5240670755367218
-0.004587053579256706
-0.7768050281850805
-0.5076117849699222
0.8913337818810512
0.8268444990740156
-0.027899228477114235
0.6268788670794025
0.38140511684007716
0.9317264667539475
0.2772684025151311
-0.6027589792890247
-0.36704606073768287
-0.7467910567956895
1.1447950311968307
-0.46365282830459065
0.8644230308046001
0.8590013402468492
0.2195194040788561
0.5953643712629337
0.22732387588313951
0.7885765690034607
-0.015677470787485673
-0.4071330779288682
-0.5411665466590587
0.7435792266530313
-0.6859696083324667
-0.8588485386964868
0.25897374073615786
0.25428213761612456
-0.43023250690831105
-0.0623932065364472
-0.367168872613548
0.900380094357708
-0.5151156931818364
0.2696386959073128
0.014675842250011062
0.8264651229457836
0.9074062588490925
-0.1028827438265234
-0.160933898223788
1.0142346783590133
0.14969506574234415
-0.6533646005032216
-0.6699156269083828
-0.2315810161645386
-0.21437747304533722
0.1469301070411353
0.7122488604033146
-0.66365485258605
0.4851427342170642
0.046204666953909304
-0.11868829816631221
-0.3831471004403175
-0.6383610052580064
0.8607600085541519
-0.8068816692322223
-0.15089717208527542
-0.1887079379410963
-0.7811001644933234
-0.5607635790943963
0.2589530021192134
0.41401982179546226
-0.5601141828455793
0.694278412846157
0.8150538840140162
-0.8919943899226741
-0.13732644712354314
-0.2733332703893354
-0.1050070262496117
0.10423067715546597
-0.4076190085363036
0.061659004595985056
0.5155527118861027
-0.06899823635682445
-0.6750315498820243
0.49616429293455244
0.12412932609381522
0.6754344423087637
-0.5773378478642088
-0.09407174275388042
-0.16454703234867263
-0.2208613233744987
-0.05432628322682844
-0.3382887865247666
-0.31331886400102427
0.30342571782380623
0.9185971718657463
-0.10436244032026099
0.5317743670003858
-0.4273571727088219
-0.7526060588977725
0.6036196168245433
0.10498453663128116
-0.8494820910868526
-0.14006740715106702
-0.8216999568753971
0.06576085570869683
0.5089223286659971
-0.40858466103839475
1.1069317408751693
-0.4773447718841861
-0.5041777271349872
-0.042806036399256175
-0.32156267870172583
0.5417781464264051
-0.397405458978759
-0.8186157088520598
0.4134089120157938
0.36256497499058765
0.5073363131018376
-0.5415686099580688
0.6432413414933917
0.9646077794295935
0.0
0.02212297947410948
0.0
0.0
0.0
0.0
0.02197455323676751
0.0
0.0
0.0
0.13701331152045304
-0.1377385924570249
0.36808953339087425
-0.9229686657521261
-0.8047966006281531
-0.4588851090394157
-0.2473856429718045
0.7734725773445505
0.834945296460996
0.2775161489110385
-0.6133400061784353
-0.14102621313356578
0.21106005885559376
0.7926753656853884
-0.789489764886639
-0.9218717253730331
0.9988709395176127
-0.04689926513842746
0.4197936888864575
-0.580722348819082
0.8341984926705426
-0.5339718839180534
0.3138480339950058
0.14518376491876128
-0.502277364403968
0.9256858474730671
0.7162471563791861
0.38245130811326544
-0.9634153869095279
-0.4933020199618078
0.9145560930690975
-0.5880105531487463
-0.6335982671780767
-0.5511108243320888
0.25515777849009247
-0.33820705984844124
0.5634458192644158
0.7760678269170569
-0.5646486209123631
-0.4264847403058527
0.5085202379363012
1.165456451431715
0.07370947931079064
-0.70665279010968
0.49941211882084735
-0.0056120653511004814
-0.5196336911510715
-0.3605224692319158
0.866180433146595
0.7961162808082194
0.31081531984804167
-0.7267455737045725
0.5160698854565602
-0.6199076256502286
0.5368108930868307
0.13293787834109505
-0.5807548909572553
0.6021342593433712
0.10130826833952411
-0.1377354297600204
0.9592103572772241
-0.05437060339198818
0.5254662241628807
0.5513040576442092
0.10139432043538266
-0.30619820009277876
0.8803926058953528
-0.760235600021286
-0.5727276611353644
-0.6269536676130532
-0.6128821031088449
-0.8408961990964035
-0.377039232393589
0.0786990331092362
0.5912142711178179
-0.6996576112806523
-0.36541191993233424
0.8953268294395385
0.5924057255224503
-0.14433325237519212
-0.03663818864044366
0.32940616479872054
0.9486641079982083
-0.4474096672836896
-0.7851585818717834
0.9103263020304304
-0.9494904824133081
0.9943063541534499
-0.8414262784622739
0.27206339368513116
-0.7259370885219003
-0.10591433797236398
0.6413293154725885
-0.15510351102370895
-0.7512802822423215
0.6399457619694005
-0.9809333115955177
-0.38430453376756724
0.049461974105322604
0.36232720588381406
-0.31523853900408105
-0.17706950741332705
0.19808909861704915
-0.8889704362961306
0.9289775894121943
0.41312928540985355
0.1286347691859253
0.7408869066144093
-0.24343574750239294
-0.0838423392605494
-0.5077254645114859
0.6655155890715303
-0.8556522331700527
0.3147932244708728
-0.8315396060003257
-0.37650742801973874
-0.20774734229679676
-0.6126981021481628
0.30911464317149573
0.5446919851045844
-0.1271285208848978
-0.29037111830904716
0.23185397395833163
-0.09223963244094846
0.33275139932801556
0.7056482736226812
0.5342832630047448
0.2934421254274282
0.42243962664633616
0.12883522167798517
-0.11131910513325549
0.19147762225552611
-0.3137073462272039
-0.2557946521905161
-0.39685827131346474
0.3493147940419421
0.5865328135294429
0.57351243514867
-0.7382037713836653
0.8822850777540638
-0.2936697947590734
0.585627913234003
0.7702884714612062
0.7414058086593557
-0.5210221354659215
0.5116667369144954
0.9545420850595675
-0.6146296758706533
0.4244005598379794
-0.9475876496615241
-0.02255244504619136
0.9795165594123736
0.6517906537925899
0.30770281798394167
-0.5509168566698035
0.09913178621688257
0.35904017415071965
0.5017477427053212
0.038019458742410306
-0.13259424520978524
-0.5897942890006669
0.18698220066080462
-0.21414632847489412
0.40391706569530095
-0.8764227594459374
0.0309081898882555
0.47444884813183275
-0.5603107702103274
0.9586975347394537
0.46784729527432045
0.0
0.0
0.0501578403361334
0.030074476041063315
0.0
0.020006799075126674
0.0
0.0
0.0
0.0
-0.7965260624823787
-0.8444353088568912
-0.014916153207122473
-0.7343544566131345
-0.8806172799686451
0.9389890108066321
-0.534427683337535
-0.7805046583634776
0.6064958876953698
-0.45302186051003157
-0.000737063331012866
-0.5886222353413607
-0.1224922546426741
0.23227339096884014
0.25154471956747315
-0.47772085116414836
-0.18873622272722512
-0.9718825770792372
0.02655055899686851
-0.2747320517499292
0.6230371504011554
-0.8202854868689237
0.11381210444598389
0.25190076018339475
-0.8919426406964833
-0.003510672999327502
0.8495431920006515
-0.9421695245863277
0.16152937434248926
0.7786775567191158
0.9744710228146707
-0.2356948169793629
-0.024028537901362057
0.6723932533013472
0.6988317700216149
-0.0007732908805113681
0.2540197180536823
0.05943668450040751
-0.9448378403340458
-0.5309054184041477
-0.3424123095119995
0.5897692897897484
0.512339210220824
-0.7510201191327539
-0.4366711287730803
0.5506321493634689
0.41906609135878947
-0.8764203660266481
0.5849393172670991
0.7622702229462401
0.6276029098233615
0.9723328298397454
-0.6561542160163962
-0.5295893067033586
-0.4465343064196101
-0.5832015699559914
0.8910430253499106
-0.5077048754303268
0.8287571616952734
0.4071765736039421
0.22582818575373076
0.3686672186438382
0.4111156919161121
-0.8314718166142547
-0.9904406890382274
0.48283349505687245
-0.6255158041303085
-0.4858549424477485
0.15085224857658308
0.7283016211218054
0.4032197154090169
-0.5267524419098144
0.5910688767765324
0.28823586891896813
-0.523141955749103
-0.33275015372035477
0.38634033972801585
-0.3436656843238217
-0.9809884293840496
-0.5666688212887194
-0.20888548861117506
0.5941335618408158
0.8669880000448065
0.8252389715716006
-0.1745044764348347
0.9516378271884713
-0.20781953337057657
0.49412011277974455
-0.4050815636149914
0.603724158020382
-0.5187727072211672
-0.4796886067501611
-0.5284704344491775
-0.3027283416433839
-0.35603208046317225
0.19315897751071387
-0.26607385796755456
0.4963021278701052
0.5393283974368621
-0.2379822078764744
-0.13047256162778054
0.13017847549577105
-0.9166633819849255
-0.19249012286248424
0.5063217338297775
-0.5523692754024744
0.573467443450677
0.8684238184676822
0.4928572514447591
0.20561725372841289
0.34485117107068164
-0.0829495833092051
0.06876988568615572
-0.5774601961466865
0.6852670930334133
0.6983962733644076
0.37455494406542156
0.26555460155368626
-0.5641573626791345
-0.9556772928423323
-0.15003017898219317
-0.6519916543540216
-0.9456720014516533
-0.8960422523527081
0.544375349601999
0.14047514703292063
0.329762493994034
0.8344581672973983
-0.827016783720351
0.6765523267625377
-0.6201258815032198
-0.09150695068139902
-0.23355855173654616
-0.6414394656767114
0.6807154157534883
0.44418106350123465
0.014211673191868224
0.8282133093848616
-0.6408759713404601
0.3155594194046101
0.35882168382947227
-0.43252495591315876
-0.573402075011717
0.9972653403563378
-0.703487776816544
0.4885549530317886
0.7223319121897448
-0.9711183032624
0.6337291553757182
0.6788197381702683
-0.8669540368049892
-0.2796924640159588
0.2925684689165517
0.33852678017892646
-0.9474531668574495
0.5038753200821735
-0.029320437063156346
-0.040557055220685534
-0.7926293609624013
0.6129532308252137
0.40117207504508
-0.5623465065123625
-0.20383299268098232
1.0504983572372022
-0.41616830422785367
0.5070890444658743
0.6484408960438031
0.8001282683862179
-0.40839815734201834
0.6754011506716455
-0.35601610688277674
-0.6528879919061636
-0.7649381196940861
0.2189395296267187
0.5894576031762166
-0.47058230608975404
-0.4998022677757745
-0.0388313053998357
-0.41463792007227096
-0.629414328754328
-0.7887177094278444
0.2781958892567229
-0.298240810482995
0.3105873771418364
0.3544537723726098
-0.5872696349197013
-0.8062387231706036
0.9547089922619827
0.42703880936947103
0.8199041766501307
0.4926244498452997
0.5565908148368974
0.7407100211074722
-0.8697970802885531
-0.518823017998685
-0.31886531913717175
0.042052668904961385
-0.8068627386427734
0.44942778540886286
-0.7737973201471913
0.3027763717976888
-0.5208481805503222
0.06229379441504589
-0.20725537086288037
0.9785707801800017
-0.2027341054345524
0.20928440369176848
0.07578031399248308
0.30614108960595976
-0.3729959161024343
-0.770790455055133
0.4596113839679994
0.38242081955403306
-0.575129028533458
0.24480252796183044
-0.9568574459591463
-0.8523279696848409
-0.9139305369933619
0.4339322829559198
-0.1454298735520141
0.16314991581548477
-0.5108663363149495
0.17981138976562105
0.0104827093540667
0.06834941471996614
0.5910078884510732
0.8755081599598344
-0.8985099692254164
0.5521245699173577
0.23516458819926567
0.2190719629878206
-0.9812839279908334
-0.8867583845547964
0.2902886748638476
0.03861846124804447
-0.0401217222307908
-0.9075680421046144
0.4156191742572888
0.40096075498207573
-0.8598037456450534
0.3583253777467814
-0.794973922642118
0.9123283105139193
0.15976531577325925
0.6130673615864906
0.950146645895839
-0.4083510624113429
0.3486288225740717
0.02688931881454415
-0.43123154832271804
-0.9404424048602065
-0.7915684256994397
-0.6231234148630567
0.6699611988747252
0.5258883354857484
0.38098147055239484
-0.04953865712938654
-0.23106966847769295
-0.7546258337659324
0.10474882979266775
0.2055602887921446
0.7611205705864135
0.5227138793832975
-0.4896371724725934
0.2932995742883091
0.706213401018225
-0.44017220107499866
-0.7992529228870318
-0.7119098531148816
-0.8359444878599649
0.2183860739876371
-0.2890286882047592
-0.6239815660770924
-0.6547752716689481
-0.9564769763937158
0.8955088263992439
0.8973044416678195
-0.6977914469865103
-0.9309073357897161
0.9284326362819622
0.30750003285493044
-0.7625578778615572
1.0927848604315886
0.6013522465516983
0.7473493378692148
0.7642131455092046
-0.38014143599553835
-0.5567603523117672
-0.3401681420654332
0.8464740180086721
-0.6122062906589987
0.05550342548830112
0.8221444881649242
-0.6027581153058426
0.7572950699211423
-0.004527946901075275
-0.5805018618777147
-0.383280489365148
0.7234674609231804
0.04029466181768293
-0.8264933304744182
0.22929498488594824
0.5518735240255299
-0.5217638875913904
-0.12432743895967091
-0.10913131714932511
-0.4478524232509695
0.3210442205316648
-0.3990338640918858
-0.6634566610553709
0.5952719997650284
0.30685065752292207
0.0640733752830025
0.3834161130803948
-0.12569769866493719
0.7395828375843414
-0.5243397544939814
0.8997221183024204
-0.31283491913597117
0.15378162092308073
0.7259760894031555
0.35889813170105467
-0.4190605270247569
0.19092114949055095
-0.6492817092300276
-0.4636304878098645
-0.0247996908467758
0.22823358900521384
-0.5669477823694706
-0.35765880230280195
-0.9629247629110451
0.554074958368524
0.6882271681693055
0.025143014615596426
-0.5816080936673209
-0.3330052402052759
0.7886025579186093
0.5744615435725806
0.05981958529547171
-0.9951624803279504
-0.20392031168918723
0.9458702379637418
-0.7262058672301681
0.3811853738226958
-0.5737780049253156
-0.2583533361115291
-0.07573722788532075
-0.5076099167211534
0.4773743496818412
-0.9562781573814916
-0.010721620443430169
-0.7175803447784146
-0.35807933445330264
0.9672250825984017
0.029937071691547246
4.442843647607664e-05
0.37887699868630187
-0.07430028983056977
-0.6053963200454788
-0.15961214944825702
-0.021174380053505137
0.6306620532237531
-1.0213037987447746
0.13221731056324737
-0.13972905350442533
0.5716884613756437
0.9418462912502017
-0.7908049234698662
0.5339623648179992
-0.7228862001066114
-0.2871028039581007
0.23462978293024306
-0.6204989260597027
-0.5597826390864017
-0.735423347062379
0.1049053018112942
-0.753859060091434
-0.022087949037649324
0.6131459351317572
-0.25343144880062574
0.5209420384819098
-0.6187001946024266
-0.014781667876974446
-0.8219994422139272
0.4858886359490513
0.7693639325418591
-0.31571397236830223
-0.33372373300318875
0.4514414065071177
-0.29030603331829186
0.34707225087454097
0.9391339945232975
-0.8278676210435668
-0.4847776795682752
-0.8220939564860146
-0.46520242333414324
0.07977005996292941
-0.21665608923262702
0.4950885154531377
-0.8555841452063466
-0.39945990700501266
0.1886049673842265
-0.40908141665843534
0.7676284463188047
0.19041144584763314
0.7972429477672005
-0.507037408175711
-0.25195064476205675
-0.34995862071000317
0.31297641013086097
-0.4343293043242431
0.06940133130534719
0.9643755160413459
-0.04454470681625433
0.773195844795163
-0.004902709190571564
0.4134602796799043
-0.49981779613320443
0.19363296045611356
-0.6679852183756223
0.03338940266344981
0.04026560055543538
0.3155554653792312
-0.7537613325645904
-0.8411542779552349
-0.6096946715830069
-0.07105793430780127
-0.9193851011125536
-0.041622775111993304
-0.724778328575806
-0.9037945618978933
0.7745703639319339
-0.9743656780954428
0.686037614732173
0.5052229298793298
-0.2517155122760938
0.4401269448525855
-0.8787333367918699
-0.524152233603588
-0.4797104328220736
0.29544490813117574
0.4187287967167528
0.145495622790496
-0.3534514321312925
0.9870243767205775
-0.7148233762788472
-0.36558292373265755
0.6316051993710978
0.4357003799880461
-0.5764491133980985
-0.43985238464342946
0.2982182680372667
0.2989323631406531
-0.3786252782435062
0.0952666932605184
0.3830172129191516
0.350267850294377
0.1859551296000507
-0.10253449702630024
-0.37458009361585165
0.8325581295096123
0.9147111804727297
0.7774161077006712
-0.9122047213018327
0.05337115325118996
-0.9724104306213464
0.2159523949384448
0.7330796587975076
-0.7850560568234695
-0.024946538895355808
-0.132727978272825
-0.7571785471354504
0.5874084046411259
0.42604162193850326
0.6318491489928414
-0.33677660405700727
0.9467535514891348
0.6976272466592492
-0.11444179818761424
-0.8667473039683777
0.5889329169403916
-0.045709999954216096
-0.861369008841542
-0.7202803132190516
-0.8862753927563194
-0.06607505517399459
-0.6331788990785102
-0.20020003030471512
-0.2337199424058094
0.005032738080508414
0.01735590733527807
0.0
0.0
0.0
0.0
0.0
0.0
0.0
0.0
0.0
0.46403816097906053
-0.9260305161604154
-0.18774142502303662
-0.6955973621826523
-0.15758586917649753
-0.08541159487803651
0.13932068265643438
0.5651429338248655
-0.8782625016287628
-0.1771539961923856
0.168540569230764
0.19696146866064113
-0.3044332872904125
0.42013218358210147
-0.7113285883532333
0.42470766172297925
0.09831089643379953
-0.8603166752292633
0.6846891388550864
0.525109636096766
-0.159887354491679
-0.8743541462248972
0.1406236067031883
-0.7817584686589336
0.044622904198377195
-0.0047070843615342195
0.8755221444027321
0.3286083995950461
-0.22107737058778168
0.9152599225279983
0.6652103092086035
-0.204296653780905
0.2684464044773356
0.9471521620444026
1.0290376702718693
0.2567825478147694
-0.8003164628916297
0.8265525423119477
-0.23424620159373188
0.2179598004210721
-0.2774429859409844
0.3713186530521157
-0.5909067641798131
-0.3064044864931226
0.791413269987459
-0.54033735534656
0.35219793899693785
0.10656998958719832
-0.330427584658042
0.6267349022722948
-0.048011611681438415
0.3684816695393376
0.3734962157987274
0.635925605796549
0.9785750614904529
0.2390281068213853
-0.6561490330986576
0.5179446293439776
0.7279912803673194
-0.8037012342000673
-0.8676515204698385
0.78976742238604
0.4641318303724502
-0.5468535395523336
0.04476596347624702
-0.23194278834314885
0.13025000001813866
-0.23652128162185274
-0.12912238192863912
0.6345279044770877
-0.37443342121554357
-0.603439852550087
-0.7405825931455174
0.47110799910945766
0.38880680255628985
-0.8650852376414684
-0.9989283765567245
0.3642418405788901
-0.8895897012236011
-0.5867714696700355
0.7468357663728244
-0.3806987496513219
0.5942413011745415
0.6491204010025593
-0.08909420588408394
-0.9758458990249133
0.6176571425145314
-0.8526608457811375
0.3806563848766815
-0.5039582414839703
-0.12666188572172166
-0.2557232216435943
-0.6959712959133797
0.08835044490665078
-0.4593887949408402
0.8405462321797987
0.859654214793296
0.30745812893583224
-0.3991497675296132
0.9150288070471788
0.619662192073037
-0.024031350270354856
0.485635304036816
0.3407761739676741
-0.8715724451220093
0.6761720940838432
-0.6632961665012843
-0.16891238133615394
0.7491186394351004
0.8739305179620487
-0.07881619149012982
0.012071329618993466
0.0
0.0
0.0
0.0
0.0
0.0
0.0
-0.20884322698776037
-0.7437513547072367
0.3067354751710969
0.6195055744231586
-0.31342332716351007
-0.13819663360594103
0.09036954516697415
-0.8984772336670384
0.039608333890508704
0.20931375714971057
0.9348174711037074
-0.24032927787341007
0.35816667197360974
-0.6185226647843878
-0.1772899466614788
0.45021551549944827
-0.035388564706575254
-0.06388101074620622
-0.10850678631581556
-0.3842014152487363
-0.17603767896312306
0.9521069947708061
0.06781459273138464
0.5474508658216986
0.9900447380541983
0.16306737400288607
-0.746213261840762
0.02660541144963835
-0.8686218499675558
0.8204687037121245
-0.6323403889433425
0.3408982758809777
-0.11304080384145099
0.36262666387791653
0.15915943834298774
-0.706653547207016
-0.6522994335851104
0.7984553282436557
0.5813030206986656
0.46234433042138146
-0.9676684130610675
-0.6898534475787219
-0.3087047322321641
-0.7779611944657211
0.8606202990323246
-0.8994910515166015
-0.8556164434175333
0.4378387535991681
0.9115615688837215
-1.0515173070668247
0.37450769887100055
0.759592544319479
0.22653441432338428
0.4241810078494659
-0.5488471683656351
-0.2261927901055343
-0.3472075938171333
0.4295033498170402
0.7191828194640275
0.8895569949432232
0.6376281213038634
-0.405502389574792
-0.66711015904524
-0.998921250005157
0.2261826113121956
-0.7101456118784766
-0.45103001308119456
0.4296942397837651
0.6480421294490089
-0.11397404678841783
0.6124802581316728
0.7822366798720513
-0.10507102788496203
-0.2384094832505057
0.734175342992061
0.5221227613904806
1.0660840735988406
0.050121694586392485
0.021300059574051122
-0.6757068254142311
-0.723833332625066
-0.786558547549923
0.34158936512309657
-0.25243209534272726
0.3956908817405329
0.6996563127157045
0.5797492608726436
-0.7530470013255803
0.7156892050405106
0.6390212327602574
0.6495438213858287
-0.6914264342857497
-0.8146990000451084
-0.8620654220819342
0.8892228250947154
-0.33871200457109785
-0.7361061391149563
0.5116638890514735
-0.3299552059085713
0.07591619291911078
-0.5400175777613982
-0.2771416749016653
-0.7941883872556373
0.34137477329485977
0.9924932327145057
0.32327875387114596
0.9826875545676808
0.197050837865048
0.6652051450908875
-0.2566394040454283
-0.45473733029546515
0.6774808852205292
0.9162795044271688
-0.44897465060737596
-0.9267615276974894
0.7683533208097388
0.5922762629297358
-0.840843061499053
0.8912321278751778
-0.3206449316838258
-0.7960145134011823
0.8886578569624175
-0.7272892800047237
-0.9217063377542185
-0.3029921968115532
0.591725757716768
0.7956204080406701
-0.4016937828454197
-0.5358264248725466
0.04450527218293332
-0.23085001787954562
-0.508282990281115
0.4050272670092421
0.22820131043836314
-0.7073225838106783
0.03677391393743612
0.08281121457300866
-0.2727409245449017
-0.48415168498281114
0.8669312898081738
-0.6309897596633063
-0.9986541299675222
0.7537136220982552
0.8639101221422285
-0.6497237927112127
-0.23273613800607915
-0.506552544851149
0.9498654599515435
-0.8441019131921511
0.7255919709966947
0.4433307514741365
-0.3534054510296915
0.5746693472163829
-0.1758966233893946
0.6931917305885277
-0.3530822364575634
-0.6094588075673819
0.4825949601128745
-0.7531454245489901
0.16150394855198602
0.962549788721766
-0.9462193668860139
0.6013775436131517
0.05535202736666478
-0.7350173801694315
0.19589757590617074
-0.2167725185439382
-0.6668223753454263
0.6738817356072877
-0.17144691385055788
-0.9060549104344437
-0.15998970943896396
0.20217377015486626
0.8282826121822084
0.5353821562329761
-0.7274111130949978
-0.5138976273095741
0.35747569487886066
-0.2512254494818155
0.3797966124637108
-0.8358660933110562
0.2953888337056334
-0.9622953220822541
-0.517173228789543
-0.13322139635522356
0.784901290551395
-0.2852346038706626
-0.5887916905447896
0.1816368361179753
0.4151007594831433
0.904955897022411
-0.18871861237157367
0.3868199628660747
-0.6292299238699057
-0.5637876107575379
-0.3584583983866312
0.7577891085066943
0.02999772903377762
-0.794883424624844
-0.7998538208786239
-0.2207380269597144
-0.13843256047102903
-0.6696226904495863
-0.9196163489411422
0.4980187710600641
-0.21506046982316018
0.5467269609109489
-0.2360000752919893
0.8189084791146208
0.43241028658624586
0.12630571883315464
0.6045395162866214
0.7774889735427604
0.08690842880055216
0.6818770244758046
0.3196894238189598
0.9821515809023127
0.8523582208893754
-0.5706907380297823
0.7613002916065832
0.3286688432042135
0.0
0.0
0.0
0.08815456198684364
0.0
0.0
-0.0750493213912253
0.0
0.0
0.021929471788199262
0.8834353165221656
-0.18159018436020655
-0.4425861125706152
0.7551377197060076
-0.31755217505521616
-0.5631338428260106
-0.052907312831230735
0.9571664566730355
-0.5543433593541635
0.6152365804973292
-0.8528624374519702
0.533918240804536
0.1491187816438755
0.21933223211086394
-0.96040838361736
-0.4305694414497998
0.6045490535448161
0.4345971669346105
0.09360270607718935
-0.434851865721706
-0.6868215877045898
0.07837889775577023
-0.11933494647673637
0.364928622818935
0.5919287315879267
-0.19686013552898052
0.9441827925689941
0.3680766185278723
-1.0558135033676104
-0.808558066900676
-0.005514328323517448
0.34635056254888197
0.7871772218948518
0.40714757633540577
-1.1064246861059728
-0.9780370446680616
1.0047323644993895
0.09736111581127882
0.08102739309477713
-0.7418396366127757
-0.14071051957585268
0.5298042306377597
-0.6447550378004634
0.7523257086185453
-0.3293763541494703
0.33595045608798046
-0.0775013582446693
0.8107285498236448
-0.8087403948831597
0.6844014533029263
0.3571597891830247
0.5680260447089767
-0.8448430465733621
-0.10582132290880336
0.6116095228429697
-0.9213305667093399
-0.7176129016059379
-0.38345688267245426
0.3130304562605317
0.6304005223237727
0.814048202318556
-0.8981125269301768
-0.16442876549086005
0.9645195116295295
0.041146496020391554
-0.2503850811766616
-0.14149660530998628
-0.6451887346244078
0.624287737269025
-0.575026256144614
-0.8657431523254271
-0.9430826485831378
-0.5245342952921135
-0.47502005172619843
-0.5353432330673664
0.25047296955929493
0.5855267209598635
0.06866423831384294
-0.7070429715027957
-0.6480698136085521
-0.6192156130451665
-0.42423728121329907
-0.039088092835243504
0.13916132444440255
-0.7617385318313039
0.6933709857467154
-0.9587685089022835
-0.5950685781717953
-0.8692476984177944
0.4546003981985245
-0.8738359418669066
-0.05576941139799829
0.8594788603763255
0.17328574739409586
-0.7145740543990606
0.19152191497025717
-0.8531544827112061
0.8541422044630167
-0.020040862783038627
0.9278346008844167
0.21774621646178707
0.7897460964873402
0.1831845709939237
0.5244355485960481
0.9074661853803294
-0.5127684621805544
0.4075045869550571
-0.1202357446874299
0.7795522201674017
-0.4161620487219473
0.6979858546141429
0.9401342063426694
0.8424428488589846
-0.0879016821807328
-0.4663087123222089
0.4673010431130393
0.9681995278892714
-0.9661422687051424
-0.25709042031727125
0.8907260324125787
-0.664761826681022
-0.7912243663460397
-0.7273644673294353
-0.8734247590880553
0.9526819789336443
0.8397982057099656
-0.8996828215681579
0.27401265887322346
0.7512871804519554
-0.13351504979557927
1.0968481600284756
-0.6035275337162025
-0.5932584005275359
-0.10381167402563873
-0.7854546588665914
-0.9741375728528441
0.026992755662090806
0.17813087757151957
0.7590729652526971
-0.8440152301042592
0.9951363369019746
-0.9492423291963786
0.5003693992370144
-0.9130315051752733
1.0476198661838887
0.5353440128235833
0.493069110318469
-0.8758185145901012
-0.5098312452080564
0.4273337704391096
0.4955209928861102
-0.8596792478444462
-0.33400831049675817
-0.941778424452931
0.11668265788487436
0.8637666481290152
-0.3387051958742737
0.8411890017043477
-0.36497215265413985
-0.5853098661840836
-0.4336417641200163
-0.7158421615535644
0.8704151757820047
-0.9703589719465486
0.3332361270779678
0.08945026389309874
-0.49542601653152896
0.36391329240712333
-0.7357364924745036
0.17350026166692745
0.2501291994842032
0.3654937931843598
0.04481016690083073
-0.27754776935474806
0.46339598738434007
0.9234755830323389
0.44372601270578277
-0.8456902335929484
0.08552065416229437
-0.16625143121749453
-0.21144542462821048
-0.15008231782753056
0.38367504028965144
0.23189522739717702
-0.10320599691336252
-0.6304360901752144
-0.24268291334509917
-0.5500964457918003
-0.985763600038922
0.9335130600741426
0.7099293439424892
-0.2142433716598966
0.8574353434917705
-0.9261799287607566
-0.81633410673124
0.9302255563006889
0.687095272351194
0.5003682320193048
0.16464444507330755
0.7333316451779799
-0.4196483532726538
0.5097843900922564
0.762625895899929
0.2459786599508862
-0.6914162706728666
-0.26818593100692034
0.3516935844137603
0.7891092326433053
0.7741902519560016
-0.7943204986422145
-0.951150434501119
0.6850900578308448
-0.8869207074038943
-0.1658793220838406
0.28143189690290193
-0.036267780138123706
0.09159426717383123
0.033368161863054135
-0.09117584914473875
0.7744196826398464
-0.5023845331944512
-0.7654572165252445
0.4302878828582166
0.7465612386306262
-0.8498217994280126
-0.8487555071433784
0.9795503866844606
-0.7947494325920839
-0.8519752706230752
-0.6194806823412597
-0.6451931818040961
-0.7838008285143294
0.2295833917593686
-0.04130548253455424
0.8638536313571752
-0.9404178913634968
-0.9375818102337192
0.034365466888377494
-0.851605618092272
0.6897933381893373
-1.091650432743437
-0.9765844249341953
-0.8021844584384907
-0.7511782038242683
0.42650369951164974
0.348401369378722
-0.3857083697697332
-0.6210869304279041
-0.9374442521472706
0.41620560567014864
-0.6787733431632124
0.37649914317490185
-0.46065568460161854
0.15349273167747568
0.8675171345596384
-0.8299916235641827
-0.6205636837965951
0.6291820430573198
0.5999838610833057
-0.27013513362146124
0.14855734673587984
0.7293915934022726
0.2735182668121918
0.12239294223675379
-0.04415885209354187
0.11406436318458657
0.5192678537551836
-0.3255016389105513
-0.36633709657656777
-0.048679646895225304
-0.3394693220394714
-0.6167473108411401
0.06896366450947702
0.40879871612741936
-0.1357078758354937
0.701831773677517
0.55981861680201
0.42694511153028136
0.6595517696376281
0.8892447142066534
0.8562806338716904
-0.9577982729946033
0.708128406057593
0.27064492667549755
-0.7820233568607544
-0.2685593852314607
-0.7423660670623524
-0.8120109551039139
0.324214015784954
0.5681418663771829
-0.10171081574696239
0.7512916519810582
0.9878917450469442
0.10875872379431617
-0.19872015820201683
0.4727344308454685
0.5822389315724239
-0.46951980493610646
0.21562524721779797
0.9117803463441618
0.1469244106608356
-0.3571513989107702
-0.3659336895985621
-0.013312329490055896
-0.19673905712094236
0.1306752375196072
-0.6513730799535173
0.858891890628448
0.6674530639231577
-0.09514688148851969
-0.5781350505494933
-0.5821031401465788
0.42738902859518446
-0.3971787945781906
0.14339544221550615
-0.05912090630258171
-0.7332942116702921
0.9559186816588159
-0.32433103127674756
0.8127282971598289
-0.679925589267371
0.5995417242177612
0.18970386191291078
-0.48125607589531394
-0.8315429596225798
-0.7768774169354284
0.3857625987188505
0.633022679159543
-0.22582536144235998
0.18689947149366692
0.2657108342533203
-0.7426452544261319
-0.9172928645681215
-0.4268629267196355
0.7897712029642656
0.06839198987437412
0.8138641333187324
-0.7078899757088315
0.580718131397969
-0.714180724313908
0.0
0.0
0.0
0.0
0.0
0.0
0.0
0.0
0.060157607894066545
0.0
-0.25904273547637735
-0.32486664507646523
0.5090720000726525
-0.5133244664524136
-0.15918898545436644
-0.5189407394996692
-0.13646825524157058
0.9167611607683863
-0.24293988571569516
0.1794779170814338
0.05388089748132341
0.6670820463069549
-0.7335257541683495
0.3260262968428793
0.4723954672574353
-0.43264201026716714
-0.3612192881276722
-0.4606172192638427
-0.6254014825688186
0.24367125182034988
0.1644436788708823
0.21856083454029518
0.3776012944848117
-0.4248298959685486
0.8317731688968895
0.8052628939896327
0.870230888236742
0.8568369726298444
0.7395355861677053
-0.9150500778766932
-0.5736205413682665
0.6810800425386361
-0.4845759581244744
0.08890971937481937
0.7765189297647734
0.3981031326176536
-0.9484533940340669
-0.7484225370237538
0.5136765469440947
-0.8227811403289171
-0.771725495189504
-0.5544641234414704
-0.04325551814310491
-0.07353054811367392
0.008681377960029213
0.36772325350800905
-0.3436572378084466
-0.9244945077214057
0.6226154871553113
0.3258346540872976
-0.8410540675412841
0.7925860268238865
0.7998450984197434
0.5920421063574364
0.511657492284685
-0.04347626423683004
-0.3364870832414042
-0.7408101561926221
-0.1898848880801196
-0.01792709659181195
0.46839601048726065
0.7487102079823278
0.5956827703691547
-0.6469411789254869
0.697880657779882
0.23461633407245008
0.7086926876903019
0.8093594381429732
-0.47563291069255875
-0.5524126253514694
-0.5381172308134832
-0.9298706835766222
0.76637592347253
-0.9629211775067108
0.18718942417687534
-0.8047010488764978
-0.23049117358918642
0.3841988229063198
0.3250343859385981
0.9262070009130514
-0.17229529725691184
-0.5752402114073909
0.4363242188781109
-0.23964676536020313
0.5775343141987366
0.22348678366167002
0.8855395793723855
-0.8866361211627266
0.49120818804087807
-0.46190189171159
-0.6209264536138395
0.39909692722709655
0.7693132972569641
-0.764773396215664
-0.0030805111503808824
-0.9466247444046614
0.5680926930371993
-0.15952722870411928
0.5255577858267784
-0.7597517243934422
0.9532739349854102
0.7995353553467246
-0.364048658244011
-0.9490789883370454
-0.513903664451782
0.29539603443079954
-0.9493332317568337
-1.0168798783586552
0.1345778835405258
0.5640825759448658
0.3153902998252254
-0.6743628050192109
0.777260420941922
0.41527371970069105
0.07937282884658048
0.81699359695354
-0.5201039712296467
0.16614963071572308
0.5735902797291097
1.0961130000935082
-0.18484297734019448
-0.9458392943434022
-0.30318387693609905
-0.27880550572762314
-0.614894650369322
0.1392740524044469
0.6547878379266812
0.6126057741611806
-0.15748356067177305
-0.8503475168529345
-0.27482581777116577
-0.25254819791523686
-0.2600223137559059
0.6812566452339412
0.5545367535336712
-0.5077555329233108
-0.2442178574460081
-0.5105929583350319
-0.3413273453255974
0.6476074436357577
-0.3127443678991457
-0.7695873506451549
-0.8483523277182345
-0.025235160171781512
-0.02462027405079925
-0.3276665962190064
-0.5057016349734561
0.516534206096696
-0.3943412674975679
0.374762893863682
0.19537473400255223
0.08959750119688081
0.21909667062393212
-0.001666082913281075
0.49261089589822604
-0.49833083587112914
0.9121544587602604
-0.48834418012737335
0.5268250411411681
0.28346666470768733
-0.11976532544069562
-0.7576932512437745
0.5700833008613988
-0.6878501319089994
-0.9494600006382856
0.021973813616812166
-0.156117206467707
-0.34567244382368556
0.9703542163435988
-0.04068101610207343
0.2773138045607597
0.5218625849766129
-0.25802589900145234
-0.5195836918946313
0.1607418300851795
0.21890815999151658
-0.05513405436563491
-0.15491605788976393
-0.2749026680938873
0.7460451491241198
0.9610050362290328
0.019760430262519835
0.6254568058115405
-1.0726417387308407
-0.00889736521933071
-0.6825884563273288
-0.7614922096326049
-0.27021394281954536
0.21933562799337247
0.8113042711914107
0.0
0.0
-0.0011462691310545037
0.0
0.0
0.0
0.0
0.0
0.003666873566404825
0.0
-0.6147855566217326
-0.14078053301031113
-0.37568474630539606
-0.8517301760207721
-0.5497874457794856
-0.8845900698360569
0.2845847200947347
-0.10346519215854699
-0.4780105111427553
-0.11118972424513962
0.9607556677482393
0.6634907864843023
0.734448681574229
0.4000953264036444
-0.16028412831960082
-0.2855806814340689
-0.9705331654012104
0.21265781177523158
0.041187355689234595
-0.42750041149638585
-0.9197776210785507
-0.978701114205816
0.23557178111219235
0.12469956459692444
0.722641522117438
-0.4629716425655208
0.0697583040550327
0.09379476172029166
0.09967725251263171
0.02446663514077279
0.22806062166423446
0.22925610884616798
-0.2856095364218172
-0.879914636209296
0.9418749654276823
-0.6989076175146431
0.02700609404716703
0.7468626231016082
0.8111410068355884
0.15366254709517171
0.09792438521356761
0.17827999049593782
-0.09169425727931957
-0.4662709450371978
-0.21522836410939727
-0.8622181703255245
-0.6828580144227074
-0.5092052097390398
-0.2331135966320539
0.9617398879750179
-0.3639834793097947
0.3223947677777085
-0.017188954913401444
-0.3785170155509745
-0.9871958409904642
-0.4933404771838421
0.6569965085579377
0.16389622345523902
-0.13165178728959392
0.9704757987317899
-0.996933894526447
-0.6901725601288695
0.26533720852053344
0.560704635007593
-0.2883814903889068
-0.9972871038882656
0.820525422047205
0.31274679757715695
0.23860113044775
0.709494746266824
-0.5465515406958135
-0.7537268124466049
0.524395977486023
0.06955499396138332
-0.03939359751174339
0.42860921714310973
-0.6922002419043123
0.6326417876727777
0.558199398771247
0.9433863084985885
-0.689625172869275
1.0696293276978075
-0.7195776709629522
-0.9292164490835295
-0.46043213911817316
-0.24591729440407595
0.057548352434208194
-0.7050128355312615
0.3029653549158424
-0.17713931673566008
-0.8425555359291054
0.8805625677619013
-0.4768654758269262
-0.1321518380148953
-0.7197612850605195
-0.8613789465438484
-0.1293408374074787
-0.8375809624847919
-0.9029449625530261
-0.031613338201208485
0.9761348443444942
-0.8288276401296895
0.3254245470713446
0.4303421061464099
0.036388475287095545
-0.6923543592635177
-0.7007174005612433
0.14323086367231874
0.6419395467869933
-0.3715759426184866
0.1295256254602115
-0.47308898120373866
-0.5099112020317078
-0.08933637769748498
0.7610127832723367
0.9319096461819374
0.22053856814817197
-0.9812079011360495
-0.26886200725025766
-0.49697176994684295
0.828055747837305
-0.44440019120987245
0.4499395609821677
-0.662793690316622
0.12043701224305903
-0.3069957071685063
-0.9198920920182758
-0.9592698754736648
0.11702863311660794
-0.9123153127393295
0.6771199065097595
-0.4343376194459536
0.07162060792383329
-0.28959009166801364
-0.9800151220162441
-0.917361558324503
0.3101360535969026
-0.14134489663160066
-0.15496047161384352
-0.7395694489355
-0.03210643235967307
0.3294992999109052
0.457239891513443
0.5071275538730616
0.14203903206457655
0.11160789393312831
-0.5180904547740288
0.4778971546589521
-0.32477128837787106
0.33449518773664666
-0.38706475453020683
-0.8596360622968531
-0.3458389575751953
-0.683798243195901
0.1299395311558419
-0.3273223978210724
-0.35369747063302825
0.5478824203522215
-0.4035545122025441
0.17107706503381825
-0.12159752179579933
-0.8020619013164916
0.2868711161025108
-0.33945555968415
0.2429750611354009
0.9876735379474352
0.22526333577216717
-0.37157149788472466
0.17358514932451774
0.69632938662664
0.09037272476132815
0.1841927241750918
0.07893272002817087
0.09021359990584643
0.14795436533328465
-0.6291346129823536
-0.35396744360737586
0.29241987663369406
0.08858126483493134
-0.5747190236377928
-0.33323110732976735
0.09264597851653973
0.7209918412056655
-0.5084007059790272
0.27145437764439284
1.0495520684897965
0.2743974325294307
-0.14547332043581745
0.660636603617063
-0.9393427671494234
-0.7071766888532567
0.9635243120119146
-0.33766161956290475
0.6329227069941672
-0.3850107755091629
-0.6840209786472293
-0.4289777354333737
-0.6158255250889919
-0.1444379026270588
0.24581913825199964
-0.07240565708413871
-0.6187370837222668
-0.31005005572020816
0.5385553118633195
0.8658106393510816
0.6603075253421004
-0.2456025555773682
0.8487651455726781
-0.3081997234589833
0.6247106447932502
0.8906281867670796
0.6249361490638585
0.6272494376269877
1.054001624545472
0.6568530636503669
-0.9279948686372363
-0.22169305665757227
-0.03531224205642468
0.3008805318758192
-0.23995327965778657
0.15184684340112392
0.13493060511876664
0.16320852848398792
-0.19831057360329307
-0.9119107844464274
0.574397856623449
-0.05514257712357962
0.8531860765754264
0.6218759629324879
-0.7422477558366185
-0.8336780809793574
0.3315447088205732
0.603538599670879
-0.9254771926847827
-0.8348187959591009
0.443590672009027
-0.7187866827697138
0.30445449960383764
-0.9953587535224482
0.4838180836526865
-0.4661907975621771
0.014647335358174418
-0.551878348611686
-0.005607677901855235
-0.4913808987956083
0.7405487189402316
0.8812552626779979
0.04528948359183982
0.5634131134151077
0.72960454364552
-0.4597517339546138
0.6090598252801809
0.6409958771318567
0.5980734569815837
-0.605769544822012
-0.12531665050514884
-0.6896331281184247
-0.13183280188039714
0.7149441463708615
-0.9472932423944895
-0.09028457579251592
0.09415828353658551
0.5111715301780624
0.05912293405131441
-0.4788862737649471
0.317375684809442
0.7887773441424712
0.663074448033985
0.6186775110852407
-0.30529610582094047
-1.1133769494150614
-0.9334084587826885
0.21308507411861943
-0.16272583611412994
-0.4266885381290517
-0.17390813076425138
-0.10896832181994975
0.945398735137994
-0.5440152927680848
0.31302582349331964
0.2195899038598088
0.20346972813629616
-0.9211863869154149
0.35975008279965953
-1.0074734156326117
-0.18176963004748004
-0.7682567588367633
-0.0780155881047635
0.4252111648429824
0.596556185625609
0.6599320452932042
0.47561938419574035
0.018289954925087004
-0.3698464648040696
-0.7903206050267111
-0.9237850285327507
-0.6864929298655293
0.5781750872589786
0.8350134056034025
0.03765775950455952
0.8213521503107046
-0.5402162507359609
0.45865475984860504
0.5649364644575641
0.36420011733502156
-0.6412498863487768
0.8381087953722419
0.7229758623739604
-0.8766488264482899
0.0892508986800511
-0.12817971932295746
-0.12849650024524628
-0.22001051067784386
0.35442135509706674
1.0617529800765029
-0.04973940362113716
-0.2790334445637501
-1.012897704774734
-0.3681865886441533
-0.8000502332386293
0.28760869967625746
-0.008840540380788742
-0.26615139454077963
-0.6357319453897496
-0.8988757480648331
-0.6562696098541898
0.70657257387765
0.29323182967790706
-0.6563803185796427
-0.14039685524792267
0.3077392096624616
-0.5852658019103645
-0.11985272731213459
-0.8516136684727118
0.9515505158766038
-1.023660823006908
-0.5557727415342525
-0.281788435415411
-0.4762969692806931
0.16996606795978209
0.6953953906794736
0.22393001493290732
-0.6293417604831504
0.4009615117424774
0.24211961134449078
-0.18650818129756042
-0.5155624735639843
0.5257618099167487
-0.26766997262666936
-0.6517881512084374
0.3625382707973477
-0.6241702192999004
0.4427017305875025
0.3159306564284031
-0.5989552703128371
0.5950377578114319
-0.5133412533576933
0.21778708684690917
0.1698870723104473
0.7929143968624253
-0.18471159133789894
-0.6528314923867298
-0.8094894306940534
-0.2935061024805332
-0.7892718547655
0.2278383558645872
-0.7694596605276529
0.890350626176879
0.5591688606854879
-0.48377079357820274
-0.846331413125474
0.07314741953838655
0.4875896295363699
-0.5715702620759104
0.9335968388071183
0.22751602492606415
0.019065168174290957
0.6831500603913521
-0.04249181143278813
0.16682569906976252
0.29330214242350183
-0.5131959673303295
0.2727004281479901
-0.8151956419261601
0.042586887393928644
-0.08904721060479232
0.02486152209726722
0.44073567305724715
0.003634386229276032
0.9334200674050765
0.7304500510291705
0.4402480804940694
-0.4089165209334662
0.6265890932829832
0.24967196581932444
-0.3460180399626163
-0.012982951758462313
-0.13925103142123918
-0.9455591211804775
-0.35587831225037325
0.4377576815772264
-0.7685678450203292
0.45219399032614344
0.06642664981058805
-0.6239986584831063
-0.260699037432478
-0.5316724418249967
-0.9415799775909186
-0.3222571358571864
0.005403990148531879
0.5792543800717116
0.4510328409422471
-0.8879280669064755
-0.6374575970519429
-0.6912672705623275
0.6225090417771935
0.7203440633735565
-0.8490016953576014
0.29062869074609443
0.3136268333639256
-0.27999151211030604
0.24254237192204697
-0.20990361083062065
0.4132900150663754
-0.615896802483429
0.9309162366076904
0.6278321292478302
-0.12832863044613374
0.561432935136998
0.25266486314789494
0.0
0.0
0.0
-0.12014617972269974
-0.0007830916819110951
0.0
0.0
0.0
0.049504167943155764
0.0
-0.01848902204446401
-0.878689021373934
-0.4319863099716348
0.90662558525597
-0.21580576785711747
-0.23629880548400606
0.09566822219330029
-0.6292833750526328
-0.2233035328341355
0.6220772270976258
-0.9003746405908852
-0.1638289112825032
0.36377543574644
0.45493578575373594
-0.206871267017124
0.31916486126788235
0.2271114672059651
0.6344588290459627
0.38723334942029153
-0.9942710729482147
0.04864767971206985
-0.10256670773791532
-0.6749326573766221
0.08409546514329702
-0.22890346548778584
-0.04975940145912933
0.28092948867306566
-0.1948137416855591
-0.7796090422995634
0.9146892468844128
-0.5644772781486913
0.17456007283670222
-0.1566136179933717
-0.733892665606446
-0.9686358976269751
0.12949852560822916
0.7185875800520813
0.6253479558970942
0.07304763553288862
-0.7947657813286455
0.9371027956560627
-0.04682304689260097
-0.8326382786468371
-0.19365086058289704
0.93961027078756
0.08377835187716043
1.050693593902498
-0.17742936728803316
-0.8041864989787042
-0.7653354460399469
0.0
0.0
0.0
0.0
0.0
0.0
0.03664922231088355
-0.13508991200654527
0.0
0.0
-0.23038070430806767
0.21131324385406391
0.5195294863909248
0.027037038323531215
-0.7556064389330142
-0.897071383178657
0.6261312846068792
0.6412582952559185
-0.8789723852068891
-0.46531080581976036
-0.21076442419040564
-0.9804742860329336
0.4883846713475939
-0.9997117504723461
-0.6286041408608636
0.2163581824097236
-0.6708081190196777
0.0579799493043307
0.08273535451927616
0.14880271867409522
0.5952416002031562
0.73085663541406
0.12308631957600946
0.48848921235305953
-0.41820036528695237
-0.8492112215924685
0.7312847078263442
0.5778685728432841
-0.2810312797479764
0.8456030887448429
0.36288970023726486
-0.7715602532751633
-0.5189085919521723
0.5141082874652884
0.13572045651352035
0.8959461245723574
1.0391269456557648
0.25070803729597513
0.7620936215053249
-0.20657311113526045
0.0
0.0
-0.08230933675477249
-0.07472407015391895
0.0
0.20317173291033075
0.0
0.0
0.12077546531396395
0.0
-0.2468909129389263
-0.06893375441078523
0.2906823852015731
0.5622357656641257
0.3559843420065554
0.006915374304593533
0.4212589553181476
-0.25817787983947027
0.21733636715741156
0.335012934995377
-0.8817026128775716
-0.785863186566754
-0.4638977301496878
0.3780711151349705
-0.2170758806984061
-0.7262303870893153
0.877467211136832
-0.9946830177799486
0.4309859490786738
-0.00087507475193771
0.4205965476513447
0.5428891198808861
-0.9161992385932975
0.5371635942747435
-0.6233080596655329
0.19896248044478776
0.1997585215621697
-0.4272048689927039
-0.23083755838270337
-0.3885503293748265
0.8566345149511039
0.5391910633148587
-0.9222421447203148
0.5319356869595827
0.37897200107133
0.8627181919289917
0.4530841853255009
0.32384630692696237
-0.700655661144497
0.8776172213226614
0.8077306873257308
-0.5674780307557072
0.5549603941913044
-0.9326141704377591
-0.37335131008070555
0.6596501024748038
-0.2929541552225421
0.2461382326862822
-0.007154609284498958
-0.9791391991106295
0.6577694972319357
0.7271126292974064
-0.9721287676777723
-0.9993070983395796
-0.5425288705293134
-0.3348885390092853
-0.7621378127494027
0.48083745184729354
0.7354226262387809
0.8396700418286449
-0.790105616375952
0.9925111784840919
0.4235741577685106
0.9015928628682979
-0.017895984414322497
0.9812427804441906
-0.30982481461409717
-0.03905109847264843
-0.8840466349690703
0.24468052524141615
-0.6334036832685286
-0.4043500124940129
-0.6508256537408221
0.22829272039562798
-0.8589432268980106
-0.3172549161866789
-0.410962391208878
0.08190364763754139
0.39316593083096685
-0.19057029362234768
-0.44670174664112783
-0.34749946115476993
-0.628721877882999
-0.6846303405145094
0.4646403161837609
-0.07986894235115294
0.042290683266895224
-0.12169775597707533
0.06300702386171908
-0.013954758645822185
-0.14771060417540638
0.2888470181112725
0.6150240921153898
0.7418820963797068
0.016320025940931293
-0.054626025709836545
0.7706335825665465
0.07666841060715202
0.0729713525682214
-0.9170935015873621
-0.8235623484341414
0.16078162385229944
0.8358989903234113
0.2534293931198872
0.5937754827665653
-0.5319890249123862
-0.677381631803569
-0.9919529400567006
0.5232184562124849
0.4736646093273964
0.2888774833487582
0.7943317780082664
0.4555086637240666
-0.5468772624501879
0.9518594896885644
0.1306591396342398
-0.8522919973462679
0.07241275973018363
-0.9554364686548442
0.7790734299180486
-0.2764135081391288
0.329899616009643
-0.9575743106900336
0.12996660600625246
0.6320327350188595
-1.0974818756277946
-0.13665824758354617
0.08636263649723186
0.09497769168856984
0.49970559401512604
-0.5787752053709947
0.8145009534647483
-0.4165907905445019
-0.8051188979805823
0.8974652985928766
-0.6288633302419382
0.040299686199291695
0.7675778684144241
-0.3812191417702715
-0.44183478327916886
0.7364681096337604
-0.44911231497130966
-0.37725350135224184
0.8565412033969604
0.010452964681433152
0.5667683859571275
-0.2977382329003335
-0.3474456557146619
0.5522238212427999
-0.6594502502043781
-0.7837355552270114
-0.014407989788963071
-0.41528810379925596
0.09266568668698653
-0.5757899014206281
-0.310597424197266
-0.33578275002675184
0.5688099867020875
0.9680881578425584
0.8427241456566421
-0.8131099088891939
-0.8627445628666339
0.04371242634141037
-0.47548819432546363
0.9934052200135204
0.2390990488335336
-0.06926675770107105
0.6002833444364251
0.5455949135550764
-0.8929801642123065
0.3725185756005094
-0.8363475668480491
-0.530360946588669
-0.4922624565264986
0.38924909050150514
0.30305105622701856
-0.6447253607150019
-0.7965235181907396
-0.7943113404695956
-0.41642982668179007
-0.5618752432241103
-0.7274510619043015
-0.700192175380915
-0.764150710705112
0.19840761589610123
-0.14058306659738506
0.38709683000178585
-0.7808078390581541
0.19169237096512762
-0.7987901231055369
0.1466660205935073
-0.47262072152226575
-0.6200639551492013
1.0590333865590869
0.30878575636333183
0.14087756034340249
-0.1720857555138704
0.12283076085256606
0.06444307594751894
-0.3145229358461066
-0.2334550957067385
0.789285813435274
-0.3593666449878157
-0.9691764575970614
0.9342738040133709
0.384301235207558
-0.23309871049259637
0.5890738585057076
-0.11381156094603007
0.8233501413172793
0.3063778341003733
-0.6630546071600021
-0.3558444299803215
0.784692277698462
1.0494987892572123
-0.8776967558038162
0.7744369999452054
0.6347409821740988
0.8659399901929297
0.8283354907195932
-0.4460517403682842
0.20223186187089892
0.002436346547890267
-0.03796902187951523
-0.12765091656094657
-0.8327416036935652
-0.12091920445397508
0.03955684517853286
0.7620213689111508
0.47639230768445984
-0.4033746055492091
-0.5926452076532607
0.4092336116123949
0.8226381159576969
0.3557002958244965
0.5779702676298533
0.5455241077561728
-0.6799427416715103
-0.419609514189083
0.6314246864544943
0.47660723799919724
-0.6956012480297884
0.47617747805139765
0.354030709419592
0.35650726029537894
-0.08877743942689498
0.9288717095848857
-0.6543765680785771
-0.7523226331737847
-0.7690091210593453
-0.7390610735050231
-0.4089125231605655
0.7302031078473821
-0.5967138703437262
0.20662300544432388
-0.5872698505244922
-0.20978002165227763
-0.7254441258937734
0.4912485653444632
0.9061995867627863
0.15311214129888606
-0.9208532289586306
-0.7780816850235708
-0.8952630789067815
-0.8965830389769627
0.04945635995397768
0.8115087739369282
-0.2466954851420653
0.8555891894885499
-0.3607494671972412
0.42332334262590865
-0.4872770688704329
0.8855014323103336
-0.9553021564086173
0.9260042157040975
-0.3900313235414232
-0.7686993229764265
-0.5065733821357759
-0.9780089648342154
-0.8348241496557154
-0.790173607822144
0.2333797041786081
0.6512477759396451
-0.5150975477483075
-0.7599774524462755
0.426884188529816
-0.0031135337261218865
0.00407620059772662
0.4590245608863248
-0.21187034639862024
-0.43083280895365134
-0.5664070636887051
0.3179018361761088
0.6296446157207809
0.6978250346773351
-0.660042468320184
0.8717546194154204
0.00021528624037436828
0.7842489074511625
0.9633418573057537
-0.2593791228646918
-0.8666580664743866
0.2131784642490977
0.6296198481973398
0.5202044723952404
-0.0694855457602439
0.32558040422617207
-0.46740794941896063
0.5185594776958573
0.7992092386503413
0.8344079355537197
-0.6895972359188356
-0.8285183551544022
0.09303238318544826
0.2774605322093012
-0.5403149973820319
0.2137332455549863
0.15723272178976822
0.2786501919117971
0.9656352506146983
-0.8005969711615653
-0.9142361213486196
0.5897851653625164
0.888761542563087
0.4044304660366205
0.20289925063892927
-0.48407746242514893
0.5790980345571675
0.18849773623577426
0.10643420049793376
-0.5697678602391301
0.38171911409063286
0.07042481859960595
-0.7376003601177297
-0.4306652118402452
-0.30800642860838545
-0.8381288467484251
-0.7036634742737038
0.40415980385295747
-0.16892593427615377
0.0
-0.024098351753207903
0.0
0.00470399751558017
0.0
0.0
0.0
0.17334032866182256
0.0
0.0
-0.5113421512764152
0.42647934897480577
0.3572852439139227
-0.7023427339450635
0.6803806972599624
0.07274805109894424
-0.7945448348829132
-0.38541920192047135
-0.8322305795906502
-0.8484114431299792
-0.7052150003672689
-0.6338059750969145
0.0851796597137795
-0.6440720452403397
-0.1515847158489625
-0.5366082818042315
-0.5506131902763305
0.5203730733415939
-0.9028142071241034
-0.23892874350730708
0.559406308546639
-0.601586270633067
-0.6059808234076093
-0.1584030732752677
0.17728265830161138
0.8863480877264591
0.7425562783600346
0.5468621334283204
0.251979033871073
-0.9283685356296962
0.9269843450549384
-0.2513943932507128
-0.17307395409519533
0.49497786359019535
0.846026864349283
-0.7742087393708779
-0.6084563057543364
0.14867024104957655
0.6745160588327692
-0.15029438005941287
0.055210434012315845
-0.06501419804298503
-0.02622950380922967
0.04954271367907648
0.8962990385197053
-0.6051591421262712
-0.4073416110137198
0.19728153669181572
0.3580115112068457
-0.8459769872354306
-0.007726653128741288
0.0
0.0
-0.070106417394028
0.0
0.0
0.0
0.0
0.0
0.0
-0.6149932719225528
0.46672364008319844
0.5256375572851024
0.3530218418289296
0.6143092844657547
0.358281929054308
-0.8821284751809411
0.0465264852274844
0.05121430255601789
0.5741972562959989
-0.40016343256193565
0.7716855528093759
-0.4139500343643232
0.22755926082556743
0.9914588372717896
0.033226799517593816
0.43457143142222776
-0.1968251241390091
-0.8606425237231559
-0.884000819579009
0.0
0.0
0.0
0.0
0.0
0.0
0.0
0.1859479834173381
0.0
0.0
0.9329708060574413
0.16034386330825504
0.08746097689812532
0.3144507410878569
0.9616861717091361
0.174542281717051
0.23348699360512185
-0.27512503243237774
0.4155251329528886
0.8032314959067776
0.5422468513937284
0.47628188558803963
0.35514508911632325
-0.6632620168964249
-0.6138092368379111
-0.5720546305312793
0.27974546063661876
-0.0371703930989018
-0.6364573305742136
-0.5559058703268931
-0.23164890776124158
-0.8186915480079757
0.04013831493114295
-0.4907860279967806
0.21146613810594833
-0.051675153130186
0.8340050976855042
0.8841955071385736
-0.8512739066617205
-0.9438623638706762
-0.7317643768224861
0.7564843633267374
0.9666852671258974
0.9170532734658773
0.8832105107471402
-0.7941010914156885
-0.4274019298024747
-0.5451748784989248
0.37039346560810404
-0.7665673743582444
0.2446254836948365
-0.7157539670779485
-0.0771370154743205
-0.4672743633067269
-0.33870691033181055
0.8929085977209099
-0.9363456985914953
0.11164287347273483
0.3178782452547899
-0.24682186509740567
0.2866850885072874
-0.5012875412715516
-0.795286858933347
-0.5513547138381185
0.18253203176074106
-0.31008663593448293
0.4952487758325266
0.6688583083324244
-0.14482092406479685
-0.07997516354959688
0.6354257050802139
-0.9268367941167224
-0.9688006585695632
-0.48905620255424376
0.06582915424339997
-0.44150093906265697
0.007861105244834965
0.7723833737055876
-0.2901682540808279
-0.6525439337513286
-0.9259071814684516
-0.1393837085911136
0.05904601877175651
-0.9282023973819278
0.9076383231993973
0.22213627372964706
0.389970809597205
0.8428854378380526
-0.7390215549292962
0.9066932111604078
-0.1967362397854209
-0.5064117313270087
0.2819026661646655
0.7045845428541823
0.026964436260323632
-0.6009243837165386
0.16304170999516776
-0.02264059096260329
-0.30949245883959997
-0.45995108162985565
-0.42249310821154007
0.7098608095027472
-0.9118253989214438
-0.35431875772057997
-0.3831467665273285
-0.8968437637364801
-0.4070937901943281
0.8520949296335367
-0.487853976896972
-0.23130272869918667
-0.9673524543216037
-0.4910033805874965
-0.14723915735900062
-0.9018395100820569
-0.9101535858574747
0.5906259163647041
0.13986796559496373
0.5682169272354436
0.901193249070023
0.5839265243329109
0.5283805425863632
0.8042411810675949
-0.7988913376825012
0.582587292917957
-0.5225271793655701
0.3390125234745005
-0.7931961457009691
0.8346275084566817
-0.6947161724975355
0.9810782300553309
-0.21465656912421838
-0.3219805862978698
0.6191164210226392
0.1313125693530104
-0.99708392473234
0.341983177010007
-0.7587086629339547
0.849648613730762
0.5995048938295706
0.4923995299178596
0.37132364634756543
-0.6057076034621753
0.2909102534204635
-0.43292259926831456
0.0030197048782203417
0.5700879945598281
-0.948256073861665
0.42753046205746476
0.7667745454093366
0.9580021400012189
-0.8543393535188741
-0.5148137664118888
-0.984389065022816
0.4107229779180044
-0.22264583090309742
-0.5656772668420438
-0.499944539185875
-0.8893369302545888
0.14376308451577424
-0.10872941929940172
-0.8169888014555089
-0.4479441239364188
-0.9467055093620275
0.25939873527644774
-0.5127261255840483
0.3700904235848098
-0.48008643175500865
0.15111673297714723
0.14717934818195677
0.3259212131032472
0.0
0.0
0.0
0.0
0.0
0.0
0.0
0.0
0.0
0.0
0.20630050830252977
0.17602795371840152
-0.32988079467362375
-0.9806943691245091
0.13954134917491556
-0.7963424273253115
0.016662446246000995
0.16345105324364417
0.4845155523263225
0.1289034840572585
0.32709719944777826
0.31695439492919464
-0.8250387244837569
0.7101981720080948
0.8300470977778227
0.9947519599173127
-0.44748310178065215
0.11188684491179268
-0.07858231543955219
-0.34771192672934736
-0.7512111461792084
0.04117109041327871
-0.49170331675709833
-0.13550465049500038
-0.6392016690450892
0.7872999744792097
0.8733719637775077
0.828818007486837
-0.6505894439083739
-0.5477563363396523
-1.0155011821145061
0.03181448765345696
-0.9754498284440627
0.17066925405484606
-0.2759848422970941
-0.4080647271240374
-0.4639190525351742
0.566893569493703
-0.5992386604939188
-0.823848439898699
0.0
0.0
0.1491990479800854
0.0
0.0
0.0
0.0
0.0
0.0
0.0
-0.3093882719167869
0.29756247920298295
-0.2961632614841324
0.3762799518841233
0.8659146787896346
0.26636266299266564
0.4617744449424146
0.8414120112296819
0.7287081765778107
-0.4967838018323967
-0.24513977130072728
-0.6718561874558218
-0.5697705203041186
-0.6491307269671696
0.10997956002793141
0.9006404020484167
-0.24196144458518343
0.42521883904495916
-0.7718777798080757
0.482544694527554
0.9695652441503115
-0.4585446521494967
-0.4884184912580978
-0.6194404689175288
-0.0010692784410116785
0.9496237837027715
-0.6918483199783769
-0.4317146406333454
-0.9978710416126939
0.7528484796805279
-0.4878017872934981
0.8693912367635332
-0.22041922474075956
0.6639464401731803
-0.7389871915219594
0.24846487085591762
-0.3949552701086858
0.9166959261550518
0.41143801401272984
0.36099622871647574
-0.7409649766045106
-0.5865614501672998
-0.702509692380395
0.404523489740533
0.9716410585145632
-0.965984413347099
-0.14373247797937472
-0.5264888771386007
-0.6756507332704236
0.01956383494662685
-0.48621908282620163
0.8367261607518282
0.38363280484752815
0.05321109697748261
-0.8584215986943476
-0.06199029922048549
-0.5713895388923198
0.5068029417884237
-0.3202019602312616
0.36262137771507263
-0.4314354253081554
0.008013393050656292
-0.1440964572757215
0.3889899368370835
-0.39240234981759126
0.10076622783771974
-0.8876118278132707
0.219574394629096
0.7222769290469218
-0.6422905356088295
0.6183873420978712
-0.1626387501942521
-0.6332655454784202
0.3890610846686785
0.4754443490653315
0.9538458265467571
0.37860647365999966
0.7077430389223518
0.3787942872244471
0.34815024248996784
0.13288955575584704
0.6464721271436578
0.7202347762523389
-0.2507139087563588
0.6845955643567116
0.08338969790798667
0.5572535255428565
0.8587349062410163
-0.21529367106375075
0.11099223640793032
0.13795656476341867
-0.7276220318468702
-0.22948350495654601
0.19690065932423373
0.648411039181322
-0.328940239155052
0.47655294462649
0.41949508955324744
-0.38262226299643914
0.4837557626450235
0.6613947319763018
0.904261994349356
-0.3528337473823124
-0.4895762090718301
0.4219628282375927
0.3098009479191077
-0.9553494535453309
-0.18157626300941954
-0.7327085078820019
0.5078738953743447
-0.37361420934660394
0.1707119601087388
0.7481242011487377
0.4163615939632833
0.5848189111126902
-0.24952958908884715
0.5037341507125634
0.9902663006515899
0.3275922345512359
-0.7196960364776894
-0.4677363036231128
0.8965881543195444
-0.5102528721742889
0.5350101840394916
-0.4941266019848274
-0.20771267846957842
0.08952448410243874
0.2641082181425207
-0.5489100912286629
0.17271901741775963
-0.24018284632715803
-0.1582271916530023
0.2924395008608038
0.6560588278015291
0.18855749017329138
0.14260949069748952
0.587605108447104
0.1443196294249065
-0.38865686698222546
-0.4590321530551209
0.12928713808716896
0.8689784037704738
-0.08428014446272925
-0.36079539575857256
0.9242610911587967
-0.9718552069748221
0.5382812820030007
0.6972490203297315
0.12756068797310327
-0.29298611814118947
-0.11723130637573531
0.2527504732994079
0.8125355994261689
0.2952875969311776
-0.7172734648876515
-0.2785945071640936
0.597781650402657
0.07786624887695348
-0.16455148361448346
-0.687057066179886
0.807087515184841
-0.5429451510171355
-0.09796015083581056
0.9120241353032665
-0.6743708473233573
0.2562338805662927
-0.133903496894035
0.12148007133914485
-0.14673913266715294
0.808544022474613
-0.3219427853144403
-0.8224571527327182
0.23535651560460935
-0.10863445202072797
0.7713820252461798
-0.09163601379945906
0.917981363467735
0.1682928183097876
0.8559022368799932
0.8419160468809057
-0.7564084927438055
-0.5412109279798751
-0.39669369682087097
-0.6167952329522224
0.13930733969542342
0.6906059575628758
0.6376995653256519
0.6168500047159633
0.027412750191720292
-0.586378973222526
-0.37094733643835154
-0.6678670249566061
0.5346436063918042
0.28855258603381784
0.9250324306546291
0.9768181069704094
-0.6906493215591998
-0.48146154932118873
-0.48300152882663694
0.5481502816145634
0.89685057483389
0.8012888558566409
0.8718521650694198
0.23606137240422664
0.10092951873153311
0.1321366053267936
-0.3491365840867571
-0.8959788514494731
-0.5993679273139922
-0.7429024030679217
-0.751228452790724
0.6176934681083164
-0.6992329012047334
-0.376031340137849
-0.35270982606107437
-0.1247994055009154
-0.7800580809033384
0.9477613294651397
0.4930311487066621
0.34726698112745247
0.25623594774541636
-0.6810767557813138
-0.4381299875140594
0.7984323665114912
-0.10899384148708889
-0.7338825673604915
0.04231319778034319
0.7935260145814409
0.43995535641872974
0.32060163711748846
-0.03799357237474621
0.7293348888042375
0.17905858364488259
-0.08623421779468397
-0.32548282136892737
0.37302982417776503
-0.5261225275621058
-0.5870057479732171
0.46259603475422795
0.9453019956949611
0.987439362348318
0.08216394195452098
0.9022086123347106
-0.009438949295312415
-0.05885288971519542
0.9495993037701815
-0.5070445040539486
0.995686530174646
0.37075814676690033
-0.21425256410431986
-0.8880172744558983
-0.5473021283778519
-0.3303286198094473
0.3040702130480759
0.5785891907250504
-0.8057296839288535
-0.010714060983066709
0.12243543851720018
0.12832623252536357
0.6244263594682766
0.26272055399287075
0.43659308412261044
-0.21918917538894864
-0.6249051610976306
0.29696195640956335
0.34156421223774314
0.28921426008721607
-0.4983524593085844
0.18096511040420937
-0.5814056310836531
-0.13053549771943707
-0.31513766450562997
0.6400201429513963
0.032577768979748845
-0.19862064443500516
-0.38415117114440633
-0.8321539290382585
0.15714944228092187
0.9117166634265372
-0.7916376058016907
-0.9566445662698515
-0.8403263281057385
-0.027722584805785377
-0.00974110941509183
0.4083882739372966
1.0305973864178428
0.6908301898968205
-0.5518199709139314
0.8415898686727763
0.2806660911743206
-0.1314720684606212
0.4507054017160521
0.6975103297925744
-0.24037421226461442
-0.49214124464945264
-0.33789056627318836
-0.503765986808133
0.48347845203799156
-0.61386567862374
0.9872427319361643
0.11416706344333338
0.5182450523339246
0.08633696696781845
0.6935405921203028
-0.4136294858331173
-0.357125031720837
0.7351226103357809
-0.9148898104395904
0.3751428236952479
0.6685082427597936
0.42196214099762974
-0.7002051282595361
0.09300706906443645
0.06402592313246203
-0.315551875865264
0.8913151833795727
0.3374092317492674
-0.33744156238986456
-0.6367091363722375
0.9127464879141978
0.21069059598737283
1.0241457089408275
-0.22996847932231135
0.7083504655014692
0.2640756748774007
-0.09186076303220023
-0.3290158335637902
0.9010930564387978
0.7134537421790297
0.07670569571891539
0.7440986917386045
-0.6230591718460805
0.24362656310902198
-0.929016156515569
-0.9336335152759097
-0.7512649986065285
-0.48229210532350075
-0.9339387617383177
0.4629290382400094
-0.8648125116888634
0.8661954461359931
-0.2998894140894981
0.3677474349477774
0.7323806425421215
-0.4669243776988401
-0.17285797051003016
0.5775895174614094
0.1243782366828643
-0.5227715025502232
-0.2731744349680463
0.7232641500242922
0.5850333419371185
-0.4885086412244927
-0.7824070682961858
0.5624897805635135
0.9255887143457895
0.7569773518327894
-0.9042323189111621
0.6977427415505139
-0.5068211170860297
0.3735545091795254
-0.5398358034352251
-0.9035775179356988
-0.4833232474796658
-0.8775918985337975
-0.7882655038554951
-0.06341441214591148
-0.13208079354184843
0.7364048535838088
0.3500810318749974
0.1957253831493011
0.6602710902616873
-0.12274484338260017
-0.7331790881184554
0.2634717671197211
0.00815363411175496
0.9328115165546844
0.359215004021563
0.798613913389457
-0.11521251257448534
0.7511926155464741
-0.3194251036449398
-0.9523654149984699
0.1094809259165278
0.779149377365582
0.8474200775036969
-0.42746055996172716
-0.7998600959799442
-0.9641349004278965
-0.9265903619293117
0.43637963900306453
-0.7098785446775554
0.35485239847761507
-0.32323025547771
0.348077170202197
0.6201986013554659
-0.7942215748887611
0.04288623184706797
-0.19093910579471146
0.041699393135955276
-0.36800772020379907
0.619930484412496
0.6345685303664437
0.21649094653721984
-0.6261529472116061
-0.5435617749569666
-0.6330256704490724
-0.36267438765496385
0.07118114896630523
-0.9323700478771144
0.0
0.0
0.0
0.0
0.0
0.0
0.0
0.0
0.03045994652574343
0.0
0.043004738131708006
0.1818317892942783
0.0
-0.03781839188445158
-0.12321469260791348
-0.02245583628028737
0.0
0.0
0.0
0.05301957214063705
0.3891707235184825
0.7024955272978606
-0.27584491794849875
-0.1566776386373947
-0.7664020981259865
-0.7547471027511876
-0.8859842019885305
-0.017269956477178296
0.9602581385329166
0.5596242577489783
0.9724848830339823
-0.8826134518016031
0.558972815304819
0.5609335538619393
-0.018974299365754455
0.5019514000788718
0.0433770585807467
-0.14818169000780856
-0.45933172210671835
-0.2463632678712414
0.007678922873840532
0.8419637186576929
-0.15548361153796786
0.5637669543801606
0.5074411998942974
-0.16517726368812835
-0.3585834061600368
-0.5998157962490689
-0.766625842381363
0.030173565875820874
-0.896128111514591
-0.8974643219947325
-0.1281063907134501
0.5469265288242757
-0.24072965107052857
0.40522464397400015
-0.5105476886623037
0.9010316665582347
-0.7526446430259992
-0.9860840518514911
0.7307027056650448
-0.7657447210298087
-0.10495538263809867
-0.23843447086476144
0.4092691934824534
0.31250390246085225
0.20777217900130296
-0.5181858767346286
-0.4374406364371233
0.2807107336256376
-0.54407427424083
0.89224947703227
0.7001884616417043
0.8820541307037197
-0.5671012828803206
-0.1951964706009155
-0.2523756346509273
-0.05997896609644137
0.8425587584958396
-0.8353939068020877
0.2928740385260018
0.7226486491411466
0.5003340076907334
0.9934163912562055
0.518551377331303
-0.4645294417743169
-0.0398958247835739
0.8300008753908316
-0.17325824023946335
-0.8363970499061879
-0.9833950540320928
-0.3617776027603501
0.028926274186729328
-0.14515410722533462
-0.8195869648425449
-0.3058419446108338
-0.42976201363152855
-0.33860098338981826
-0.4993960218870961
-0.8497000753559212
-0.48533191274552556
-0.2857124920574132
0.3771668450636476
0.7741571511955179
-0.28995993403954845
0.0391654103568464
-0.1686458923275762
-0.40831015747825083
-0.5330556503775856
0.561646866353658
0.624859303939165
-0.12771786873913316
-0.6546252290235226
-0.6206355466167854
-0.9580884407936545
-0.06017400581527821
-0.15936494786759184
0.3330611099671901
0.2618158105219147
0.41930631299283716
0.4212439503085492
0.5331214953303138
0.7716715929656457
0.8863043341266534
0.17148108255254457
0.19610625716915475
-0.25385673023780564
0.47115441246430745
0.17851275800388589
-0.5848213765372328
-0.8087923597841367
0.4606056922814725
-0.6926030068318307
0.15798971715725174
-0.23242066118383642
-0.12100604488439615
-0.47840034416463495
-0.9411826221594055
-0.12039188491955799
-0.27880977563991527
0.6473439382493023
-0.043358516374632616
-0.4426204263895897
0.5090503625021502
0.08926237114475999
0.9076370714925412
0.4557108925221194
-0.9302423733238785
1.026830039945907
-0.24663487093857994
0.6828976662793067
-0.3235868666124706
0.5228158600160339
-0.37900469287669836
-0.30934387619877746
-0.4542992226087792
-0.5104888339650765
-0.8241319231209105
0.32496097197211604
-0.27816706178308126
0.3504526744370884
0.6669010414446594
0.34424956612796787
0.5769420182428494
-0.715354601348871
-0.003815919357656572
-0.577791228017219
-0.946729392290558
0.3506354454560727
-0.42630161292502233
-0.21313223010891225
-0.5987626483501063
0.19924852418461092
-0.10645314258747707
-0.7427303405988082
0.37848937043575037
-0.7394923412526484
0.569095712813892
0.6488789113192774
0.4536759091279253
0.5608543111137609
0.5071363038552024
-0.03322929983431333
-0.7158171394978314
0.7902637200853833
0.28048128003771144
-0.5185253637225695
-0.33420180269757616
-0.7903903431174852
0.7021489631037603
0.5430497375508521
-0.01561910104774289
-0.1070379302628053
0.8137260977055645
-0.3134884677975138
0.3808963528158509
-0.41103167462423995
0.8911825852934596
0.7321725127346776
0.16734991596313642
0.600671836414028
-0.8040651800163754
-0.28193729463009554
0.06913609288362577
0.5839745019994294
-0.5384508684406175
-0.18206399587946787
0.6144829131022367
-0.4839412710730868
0.768392141116168
-0.19899292596156418
-0.4017422138456152
0.7377964505230232
-0.6946655565059234
0.9678053355450997
0.3980033702412311
-0.02447290750132103
0.43770518518958934
-0.9033141485705829
0.6203357705037871
0.0
-0.045172786203995195
0.04455295017089731
0.0
0.0
0.0
0.0
0.0
0.021619060314510496
0.0
0.40661756848767205
-0.1256119979384358
0.04057375693090637
0.18574000708892657
0.878369959961946
0.36624095860486405
-0.6032700518293532
-0.4675361951834127
0.6471222600334536
-0.16512870324070625
-0.6092409929858775
0.7371682268040302
-0.30784607215718607
-0.5781213361923823
0.5934945488405075
0.71749046985111
-0.18563293025481142
0.8110615532735015
-0.6495769239989844
0.718371903657486
-0.7002782912825594
0.35459460482495686
0.6553874778448306
0.34607989927724003
0.5550535926492998
0.5663236032378431
-0.5556551030123313
0.45828188834754335
0.10403475513387628
-0.27649154072456783
0.5827420879707779
-0.676033402365273
-0.5247822763654253
0.052000706272293584
0.6437421741959142
0.3554882677788438
-0.6989344937793611
-0.389244274440671
0.3594881216597219
0.43940795405813593
-0.1294148033078124
0.16322134689746925
0.3266667345630707
-0.7391678088988463
-0.9458853102384777
0.12040159265435046
0.173257705883626
0.9826842452249804
-0.8322473016705709
-0.12041387399518699
-0.10492496116811889
0.3319071990007043
-0.19625578453586745
0.5410674070616515
-0.3845689195148223
-0.45084016189879234
-0.6290793463367799
-0.8132716900295682
-0.8747466120112168
0.9789936994623547
0.04534055172473406
-0.7331159353817891
-0.9214227095190914
-0.3715734665538435
-0.9551291674392839
0.09823315666158394
-0.7681144541497278
1.0581490120564987
0.28974186322670725
0.1860183361157286
-0.9003737324067711
-0.4027688596696508
0.3526398620284852
0.8699844120005222
-0.3875671828406242
0.6252071056703385
-0.1896345524879775
0.8251014187987984
0.4917235809777569
0.9348896521834331
-0.11899276570264464
0.6711856477944735
-0.6346638743680704
-0.06673637473147717
0.41717511387826667
-0.640477445582198
0.9798400709653636
0.06933452330647327
0.7449807675960698
0.8307951926589077
0.18693494581857695
0.8719101038294599
0.4977213866093406
0.7806174981134157
0.42973388561999126
-0.19643190389050247
-0.9751067898677015
-0.05997579317789947
0.33733173421790363
-0.6684997875892658
-0.5897728070624033
-0.3283928042095908
-0.06975472895397306
0.9593494176751394
0.64008815376039
0.3904334712711765
0.16943351631756398
0.27395822402639625
-0.698443977459325
0.7296607679848555
-0.3261798788230037
0.2036147839231528
0.7014516820025821
0.7713909329707056
0.5376818628622491
-0.26378030802363805
-0.1690373215096217
0.8922247584983465
-0.5863678221755757
-0.977558853412549
-0.656265066610081
-0.07594477350611464
0.05321861119453088
0.4286256326059419
-0.07634686872501834
0.07100358311907362
-0.9543907257071109
0.5062955170824808
0.9553120485407389
0.6358773961103918
-0.19606453102711033
0.029984748471647782
0.27579072482724953
-0.36576289957438246
-0.2785029159073685
0.7916925161484258
-0.25143978843692394
-0.8074950819705082
-0.5667164278181389
0.4611820445795457
-0.5783644907336349
0.40885692872325474
-0.6188439084263413
0.32167642745903224
0.9522732232037754
0.3560838724230455
0.315481000688104
0.9507271258397412
-0.5187965821432952
-0.616101639223182
0.4550857027809447
-0.426003987993153
-0.5423793987194423
0.571278877626493
-0.6936923766972571
-1.0594837125845444
-0.21499945510001384
0.7703270308760226
-0.6906670167897502
-0.08486908308331122
0.2844179625930605
-0.896109530492285
-0.6111026707285399
-0.1766297763215805
-0.13867212895004338
0.11629874134048873
-0.3515038946990534
0.7371690622112443
-0.10826576849491269
-0.5287923622611015
-0.09672327839945982
-0.38483811699567405
0.6500130339619505
0.39771139436459246
0.9362175083725013
0.26755320924393877
-0.5631520264846261
0.3424447098365746
-0.11952753223872037
0.5065340567035159
-0.6477029920494
-0.7447815989981454
-0.8372489498212038
0.9123075309477815
-0.3305635897283934
0.8619728321547229
0.551454536292932
0.5648227291309502
0.597900983517326
0.2721315770324282
-0.021860901656688414
-0.2636440809736027
0.06117901416342031
0.7638904289271431
0.2898089779037387
0.4639431816144042
-0.6389239467882061
0.45401657033190324
0.47053297309799635
0.26445482379546137
-0.5734316304109286
0.17918345564146798
-0.3500026721745932
0.9309226163138868
0.654029170133718
-0.8739771314074865
0.8019004231082495
-0.6774009451379741
-0.33223615116371397
-0.2685023711157264
-0.4174746377648242
-0.3145370336402349
0.24883299889644217
-0.9307757387061031
0.5088520429860941
0.8182128391913175
0.7168197611184235
0.5009203078967415
0.9121261205765545
0.2347614610656681
0.24389438541756303
-0.8228872141426986
-0.5758749982244009
-0.454878769671464
-0.6901082601104511
-0.6862962590441464
0.21840349704134
-0.30493719913178197
0.8276280029420964
0.862316027160162
0.19529770306907346
1.020904984858263
0.4004921665074044
-0.27173596621506335
0.4146360585025912
0.06741932347607515
0.4071033559078683
0.539193614984328
-0.2678383992083673
0.7715177125137709
0.3461480348355803
-0.9096410713275356
0.48958721275575073
-0.9290507269716402
-1.120840113378058
0.7753028640863904
0.9205710307659063
-0.6983228433007531
0.8044084036306338
-0.5787652120121927
0.759821521804187
-0.5852507509318569
0.03834321767844928
0.3277913873394693
-0.5362956235175687
0.041690242722929316
0.3343542239161643
-0.14858445235365214
0.8337178397139331
0.06084220595420842
0.9031772941026036
0.6930479449968683
0.27857241317750225
-0.46135124976970393
-0.06531932690472164
-0.8703618596859773
0.9212311387946022
-0.8205617220271939
0.7739844640547476
0.8723673117866095
-0.5735601108158657
-0.6646044368438462
-0.23312775918980444
0.32514051323356497
-0.7672780510569279
0.7281528706713813
0.24839025578097063
-0.9670948695738197
0.6431191495302688
0.6616308526058481
0.684378870374543
0.24308363078445017
-0.31223933560240114
-0.83428020058093
-0.3627622540888431
-0.18809672031310032
0.6324087833165619
-0.2612601695524174
-0.18792148798351804
-0.8954269619202511
0.12231743860090094
0.18397608471620663
-0.026328024889932272
0.7032434880821461
-0.6192988644400648
-0.1754130191017349
0.02307911880145741
0.0075167377671629156
0.7168677967017674
-0.05789121330170666
-0.013884373208141801
-0.7170476097957561
-0.5711684284665728
0.004397340824259022
0.5646433123817014
-0.838624229201093
0.12863837244300824
0.9962321627324016
-0.0826246672083013
-0.8001711344892146
-0.8962893781782761
0.7732994729827638
0.6073171712078071
0.05204026326591671
0.12717058408627846
0.5089776446376912
-0.2019419247097316
0.43318932467512594
0.3502237824035874
0.7513432445545433
-0.712133180399332
-0.06344368416081009
0.5022974012031491
-0.2140092771102451
-0.5574770546612027
0.3888983204668781
0.5963778861485287
0.42693360421123616
0.5462227219798842
-0.8944611599408481
-0.32251370383983047
0.04176869806500186
-0.47207758672555267
0.33118941206462904
-0.9666954639427887
-0.10657908561833684
-0.6617806889159882
-0.621171748190078
-0.5379193135690776
-0.3308600092404639
0.14198778720772287
0.1167046610090916
0.43676452202241767
0.14867302842371122
-0.5388722992026802
-0.5529751532582198
-0.4814187972043394
0.08266035463403425
0.9092436938789248
0.4039813327583579
-0.40067976086993884
0.353074037846399
-0.9036563056502429
0.5336885976028646
0.8591097889433092
0.8503323209123237
-0.4921896538245467
-0.1718124500697209
-0.3870226237506069
-0.6583872572160447
0.19838654127875688
-0.23261772836343297
0.4676427143831021
0.05269223157902836
-0.9470623017662088
-0.4560257806725656
-0.28461678069262764
-0.16232609631981076
-0.6105461202054916
0.8346479014402723
0.3917914398856521
0.8283279409721911
0.03748929136177814
0.057170368311799225
0.7438944200824504
-0.38278685597264794
0.9080648057445495
-0.5911162610414411
0.5885745409242278
0.11597194008301481
0.40320471047829365
-0.728781003157291
-0.5690698954759427
0.267172080075639
0.08076601679156181
-0.838531873285979
0.6205002243569357
0.6795452175562615
-0.12318744381715785
-0.450448649489513
-0.6072696892455349
-0.21758111816720893
-0.014952904994009364
0.43753193212612174
0.15340723914863322
-0.9678109171771847
0.8865684198329256
-0.025194810508380794
0.5004901782696665
0.6472016580206463
0.8423465154482586
0.9746377364257328
-0.946559405736181
-0.6191835243739214
0.35712021613781264
-0.7274015340145747
-0.7851406932971401
0.08431589485563173
0.4412864546608021
-0.17351813218053302
-0.4205782520062513
-0.5970936476465898
0.5768096201177593
-0.15681966497938893
-0.9026698173646479
-1.05664363314624
-0.790071975989127
-0.9237465378203144
0.6962599583883997
-0.3550045724438322
-0.35685283170082904
-0.008847944964597121
0.48007055261533704
-0.1255805773523786
-0.008618668476475078
-0.33564786332557883
-0.8103853311724842
-0.36773254764326424
0.13447106324348845
-0.6518383645386623
0.7296832284221659
-0.7620744514589359
0.2426620837933271
-0.9470443814368454
-0.7604364524405622
0.9363608343632175
0.8279272881545443
-0.6373671408265029
0.6891168751951533
-0.3772546341000165
-0.21698425397734014
-0.9540512201420257
0.7057511414155939
0.40313685923176834
-0.5373311924114674
0.9502689865391651
0.8446709922870523
0.7597562253796815
0.1259609897166536
-0.42647782717961236
0.20301535372642587
-0.08301195946551099
-0.5782240721931484
-0.727466237464987
-0.2564784721123665
-0.39952303895269137
0.7430501093217862
0.09704538615339642
0.5549298015314552
-0.037655396505706484
0.8822330411346966
0.7752700396415908
0.8452096860969942
-0.3512753881759655
0.9030294598877675
0.3389149247802179
-0.8250150004263184
0.5307269228426454
0.008135077961546111
0.32826486001423394
0.30432993415623577
-0.5604466282991005
-0.639768711943589
0.882551560861913
0.28025313721165296
0.46848121706795554
0.4637856676230432
0.715897481983111
-0.6528267625524524
0.12872579810950335
0.26718478790210676
0.2520333653748338
0.5515428728228178
-0.1266758713752089
-0.04841837559763151
0.6476841444725447
-0.011702850859258707
-0.6261155992115202
0.14495500703674025
0.980659431126383
0.06535738479631803
0.7107966957571659
-0.1603923525190316
-0.7128747620607871
0.7168329519571828
-0.07227945431613736
0.23564094946559733
0.9514042902435649
-0.8415102904920497
-0.23072991152982358
-0.1406021717628888
-0.1430876097571272
0.7249985723735688
-0.5601314848457413
-0.578325773321076
0.4957273994093627
0.13851509125860284
-0.8798418278998743
0.7946161317971391
-0.5365675756694477
-0.40373717078560833
-0.025018057653809267
-0.0669541181297224
-0.7058424978623965
0.04472650445189852
0.544104034771473
-0.7981547873394412
-0.10586072638605515
-0.007319125549279271
-0.558251613548804
0.5621965453337474
0.019658300778287563
0.09829255491139
0.5680850364650993
-0.7864362649092551
0.5155529847500044
-0.3424929731840931
0.9702706872198459
-0.05512339146501044
0.6734798970723652
0.9102648777275009
0.4861749906519135
-0.1298934299187256
-0.8595452835961128
0.006616286216279688
0.5210404707958376
0.5647047409293817
0.27854723562059536
0.3643772783790109
-0.18194399260419014
-0.5979500884918626
0.34882394819674045
0.548790613575522
0.8013460621972313
-0.21439299393051003
-0.9152862783279911
-0.30471932137759095
-0.3321992483605434
-0.04245525539029438
0.48139725471782335
-0.6687159803758178
-0.5770087327118884
-0.3169574170987577
-0.08226125508761767
-1.0824517954423643
-0.02909147862881145
0.45589630350196186
0.001892087786051988
-0.36590129792510595
-0.06238374080928039
-0.2603757391704407
-0.6759846521632349
-0.960178392852804
0.4434656430200412
0.6769677651661854
-0.9594035104537508
0.9700839682956475
0.9699829401445454
-0.554218672867987
-0.4718915166761022
0.2490853633573421
-0.502632213670792
-0.07381282861392813
0.010315665814652536
0.19717628539858262
-0.9766317411234839
0.8353212123898178
-0.7123996455576409
-0.31471362221884713
-0.5156470157622675
0.07437402199502974
-0.9927094093213766
-0.3725716019482641
0.9850474194325847
-0.9097248772575849
-0.6148644025051275
0.8053035976565688
-0.45822921457276444
-0.08640004060582984
-0.796176603029802
-0.9045681382379069
0.3607279592321424
-0.6663257894486737
-0.27966727007973535
-0.7519137775657698
-0.5602649722928252
-0.34171023235862874
0.7362661312039971
0.9800866726929434
-0.9323975036647081
0.028497587525705845
0.0
0.031274260392075044
-0.021286608445691885
0.0
0.0
0.0
-0.08392898560248602
-0.10454528781476606
-0.16855918347159604
0.8823751032366862
0.519427369200713
-0.19851027967776425
-0.654110081174536
0.37564887678819336
-0.24078368853761756
-0.7690256908710096
-0.19671409333528778
0.2511943813176005
-0.4985713680800251
-0.3694537423161681
0.7672128879173912
0.7777647251001949
0.05094619750521612
0.8307554866824911
-0.16609098082308987
0.8427137471911164
0.42017205383308953
0.47025375712487244
-0.4892011462291259
-0.7899391172926933
-0.5871661062054168
-0.036599777547849044
-0.4517856108118734
0.6943049542848327
-0.7378492350757786
0.10018725381251059
0.38474139676458075
0.19634062669491129
-0.9589047048070978
0.8853372071196579
0.9529442479221342
-0.039425364379471306
-0.43920726114994757
0.4070805797786836
-0.1175918832152183
0.7280558413053584
-0.4539287413352724
-0.22813749117367177
0.393697863835758
-1.0025259516328844
0.1492305015865545
0.9354257438862968
0.5298847949189529
0.15789489113563038
-0.46780226885740867
-0.35711388954164924
0.9987858048145035
0.13856204877066602
-0.7132809405424101
0.03830776663401705
0.0
-0.07225769525113825
0.0
0.0
0.0
0.3086936285053312
0.0
0.11378240567491048
0.0
-0.11098938722704355
0.6928694430044435
0.5780915357450755
0.7346624614929971
-0.18007014949879674
-0.11861835860997458
-0.6122056401393934
0.9101902551214416
0.6241975946343286
0.719439350745033
0.3618274295955717
0.8323067308121952
-0.24648323128306804
0.011421451037628927
-0.1165621255349634
-0.7604000346013307
