-0.37944413280074274
0.6608394653142764
-0.6774002334701088
0.32560012818017436
-0.9103413027338714
0.8961988235190068
0.33972750550867215
0.08048760220414586
0.8527584545654205
-0.3368367963478589
-0.4954607595112188
-0.590087650263595
-0.30073855830648766
-0.20801172695607317
0.5995535549567566
-0.6068033787791287
-0.9862097461229524
-0.4772381225991449
-0.7688869455785698
0.1343025731677423
0.38754451219158215
-0.6883756410960657
-0.3420647375199217
-0.7881886699495315
-0.4297786597549677
-0.508830868081865
-0.0054199312494593865
0.6809033954094554
-0.27318536335116494
0.53956624447058
1.0669215447937264
0.31048760282533483
0.880756000900921
0.8726585730156466
0.6028126322547316
0.3759763172323015
0.8588520419596851
-0.9422768072451454
0.7864547866157912
-0.8364155643848719
0.0
0.033090436196575576
0.0
0.0
0.0
0.0
0.0
0.0
0.0
0.0
-0.6960367514895403
0.2687115320805007
-0.27493890144950117
-0.3862734569310131
-0.6691351067016891
0.23172606478354263
0.29680154572739803
0.4707295709462349
-0.17214141591865895
0.4967671329200254
0.0
0.0
0.0
0.0
0.0765354693577692
-0.2738453084904303
0.0
0.0
0.0
-0.0021599687097968927
-0.0517501729007156
0.25305096208935063
0.0
-0.11530533224642729
0.0
-0.07233838174522692
0.07849549683958099
0.0
0.0
0.0
0.02771930609135055
0.0
0.0
-0.09216130330754464
0.0
0.0
0.0
0.0
0.09506662713049854
0.0
0.0
0.013614505759135477
-0.029764256037461204
0.0
0.10260187038960608
0.0
0.0092478323177884
0.07193578236792031
-0.15471439027389144
0.0
0.0
0.0
0.0
-0.10399788888466364
0.0
0.0
0.0
0.0
0.0
0.0
0.07873606533822133
0.0
0.0
0.0
0.0
0.06167857598590223
0.0
0.0
0.0
-0.014344589769063974
-0.5210907330177441
-0.6666689772204735
-0.6662423967675237
0.4419856769507028
-0.9693008643800354
-0.06967536910467706
0.5182055831580133
-0.19543069046448247
0.3909868738907234
-0.4736061303915684
-0.9450606870541103
-0.5225981042918326
0.08628025859801913
0.3769376993910365
-0.036376373923180605
0.47369209964383974
-0.877229911414378
-0.5813780733613538
0.42339228413795305
-0.4193279377072199
-0.8563975119022833
-0.07586848219066988
0.33748201571180125
-0.23400124021880053
-0.29036880818600763
0.0938317567503868
-0.9985299288101148
-0.6528629286158356
-0.7839645646459907
0.9390723565517876
0.3683129007957249
0.8455064851983869
-0.9924475459702771
-0.8576975373707982
0.7015843338779943
-0.6412004507309017
0.008925209666233655
-0.8076409929360291
-0.35866413652847395
-0.018737722039577888
0.7849339736472687
0.35126805238096837
-0.7005383931955811
-0.20135556018615008
-0.820856687021067
0.2954735470821734
0.8410732312314375
-0.5418747821227119
0.2694282734333304
0.951563572653243
0.25658105157049027
-0.5002838861032988
-0.7046143020217692
0.3502329627878187
-0.0027609697530418253
0.995803741746665
0.35353104271587166
0.5907952200778754
0.21812795313062217
-0.23871787812348508
-0.7801356850779855
0.5062511818686537
0.14917660331848942
0.9170120720095973
-0.08720849469934655
-0.20354548960998875
0.7681908553567078
-0.018879827431439677
-0.2259112973432018
-0.245006189850407
0.8852778631697036
-0.1856054613480146
0.09125837347388033
0.4714677948384065
0.5375319825714013
-0.6450322300344338
-0.012850175967435096
0.13817233871439472
-0.5987930402699242
0.8245992482864652
0.13967141657136592
0.16932767070755392
0.9292774250034972
-0.7883386080436805
0.6224595400807933
0.8155977638550428
-0.11991333150929906
-0.891245310441567
0.4787359298152236
0.580155209826515
0.925724199875306
-0.807052766395769
0.5824891134662773
-0.36221048731190364
-0.9596584168194566
0.30462997937371616
0.4577943791431156
0.9449118263612868
-0.8540057697854784
-0.9526774376793503
-0.2887894643412658
0.13296851613159788
-0.6695149378940548
-0.07419642071483157
0.13555937623130232
-0.9472266402911974
0.025773127271649487
-0.2820326291006634
-0.9335209977189023
0.6382914002126118
-0.5883427388235414
-0.3295695088017937
0.9563782716553564
-0.8667938558100936
-0.9190285524192685
-0.008740604462988966
-0.09794649234662067
-0.8981022406453391
0.4781237411095107
0.7155338408198129
0.8704663336836975
-0.8668093032995612
-0.49566830509370474
-0.8846698450593875
0.47896312588786366
0.5581510793592181
-0.7830652464305807
0.35143839974044455
0.21909564005587967
-0.1579524561662724
0.28668465336233595
-0.6999449655993628
-0.22320936367438593
0.9811180520401432
-0.4003573149633095
-0.13204253226809892
0.8388177974733202
0.6190916779026623
0.3408961377276176
0.34458455812160516
-0.07964021912850283
-0.5189171986674443
-0.2433949730346654
-0.33143583827500556
0.024207144258991287
0.5177851799173769
-0.7516591387683216
-0.4840379476235521
-0.19710945715266615
0.3840276696777658
-0.14534920511483107
-0.8382503277573192
0.5166194208150612
0.5908371222979577
-0.7914020105269193
0.37866096552864703
0.7897672798594968
0.06353721210445365
-0.5886974772978977
0.6458922326290779
-0.8231683007474891
-0.8640562145888262
0.3212210447731425
0.5455392478316967
0.3375624651885418
0.6364107095861147
-0.4727403695997121
-0.85665547983911
-0.3389132301238698
0.6907645068646731
-0.5910063628331665
-0.4600134506035294
-0.10074259929162348
-0.5014574043756377
0.2856242162797844
0.11107694712706939
0.0040311638155190455
0.9134995907806271
0.28624278145252613
0.25206067076020994
0.06330632539603709
0.1610120717573882
0.7654781496715871
-0.5517915312034696
0.7408371547947139
0.9481465644634115
-0.014210095945547785
0.9864366871041028
-0.5252195443604638
0.12103653838901907
-0.7519550489887885
0.28280944922161894
-0.026364667330667446
-0.7762860236763411
-0.9151829110123261
0.17009621161042077
0.03164924179208639
0.326843587544696
-0.24664344721213907
0.13488984676965998
0.954981413568285
0.5604590992021139
0.1536142403775444
-0.708495463719587
0.32978366811101223
0.031372234498373786
0.39186486933159026
0.3636416625919698
-0.2622300531063797
0.9183699801458929
-0.569445723128188
-0.3727575876982292
-0.24407651821246934
-0.6193783865067801
-0.40308306460206567
-0.6277974265336044
-0.32880010442286633
-0.09275999744847807
0.2795138303836391
-0.19202181872659496
-0.47032738684461306
0.3869316639296352
-0.8060270525139286
0.7570696193659727
-0.9496398113083733
-0.6072612017803227
-0.011876961904908612
0.6836860764375738
-0.5796088954351333
0.25395208974377803
0.47316330854243027
-0.6693399684233254
0.8779355873181571
-0.008256042686729526
-0.6398217888977581
0.367468373862577
-0.04879791548441115
0.7098201155652377
-0.8380223376229579
-0.08396989870840454
-0.9173142121046549
-0.742195754879624
-0.7353090018137162
0.6742898336257219
0.6418662224761604
-0.7034051606716984
-0.36145461728627204
0.9291957966545001
-0.918408651078686
-0.46264249950528646
-0.19029729350396862
0.5183667186185101
-0.5368105810536363
-0.4804810200898757
0.34107324438601805
-0.7126340168106999
0.6359691178872325
-0.48958845213310553
-0.9111627061237966
0.690816803723397
0.6184692216434553
0.04910004953584712
-0.801373004905864
0.41820773154018354
-0.500854504043238
-0.029489631280350315
-0.15873231408482846
-0.021161390316021045
0.10811332397070905
0.4794305995203483
-0.7739232704765271
-0.5718802858178333
0.8178669883936167
0.25023854301596504
0.009542960522859523
0.0023883516790867976
-0.615238207558773
-0.8249222133268379
-0.8605450901247996
0.9819886901126273
0.5033458564065356
0.3471729999688171
0.32861008541374814
0.47072851305339714
0.17414437247262504
-0.5974732081172918
0.23775747224517052
0.6145372184322051
-0.1637433130665178
0.4857375469110612
0.261674185095314
-0.6297549225212942
0.32762965522812215
-0.9913358648186468
-0.5130813817579529
-0.6618685054858464
0.9419142109792431
-0.286777911579448
0.5728608522336562
0.16139608857812127
0.35677562119081196
-0.7349118311963037
0.38101032618006925
0.27789875711158807
0.07511365132638131
0.8425826780225927
0.684871403336048
0.9286110750078351
-0.34095573186820705
-0.6165129869258568
0.03709322079505406
0.7203709352775525
0.8717308678549431
-0.20121756291177406
0.59912039387752
0.34191368097772057
-0.37656672030695737
-0.439755310228493
0.41296921116803703
0.28780165370737154
0.08367950881693642
-0.2375767360781189
0.3513406151666605
0.025229721038775743
-0.13179392043327492
0.7799311835962255
-0.9969433932491671
-0.5273108264707571
-0.838164522924475
-0.022799758886801164
-0.9358009311699225
-0.749708484754092
-0.9221692018021735
-0.8206931314330386
0.9613437905568694
-0.03532483113177021
0.18521686975342022
-0.5592057518974787
0.6376905374435329
-0.8365726440886356
0.9645394775940452
-0.39038894627015647
-0.04621560627542598
0.7179248734047068
0.6916232180450979
0.8770893507486566
0.27550230283167254
0.1567785055899822
0.788594185532145
-0.5404615716172713
-0.6342310762267589
-0.7349284815021675
0.546997261905052
-0.06962422011173786
-0.288174900460175
-0.9723289347640682
0.4493449165067381
0.8845695007514869
-0.5158324886413796
-0.6175720531430644
-0.5581512601472507
0.26108355044003106
0.9771122516865887
0.2775487218763739
-0.9132631701657473
-0.5661606786995683
-0.873592702186726
-0.14101856960652226
0.265619290624292
-0.48791600733474416
-0.914371199051337
-0.36378527309778896
0.14603686406612781
-0.2355289704398389
0.06985333972039887
1.1577142836921401
0.79201979889139
0.5047059443457174
-0.6271480688072077
-0.971449974034339
0.330917930378932
0.9170192554258214
-0.6044049312499242
-0.8615209802947814
0.7280203774334357
-0.2775894143662223
-0.004246949659731714
0.20635836147885134
0.14201645666874496
-0.5387932058088265
0.8498601660183076
-0.1566076140085608
-0.6373990500823256
-0.9033556931994766
-0.906443965188841
-0.12071867699022211
-0.8428320954230872
-0.7301548143415117
-0.5565517678790735
-0.05695021709847392
0.14813636988887824
0.15434481109711315
0.7455785053725439
0.8569664363904463
-0.5571983167076568
-0.5886814827170523
-0.35364773777327585
-0.17584190514309173
0.28525261463334783
-0.43428070268522934
0.3449251148864776
0.18297975251353615
0.7334096625276354
-0.1507410531200819
0.42762121018331284
0.48104804718130684
-0.751222181372107
-0.4331513600689276
-0.7368255399997583
0.028101761366109645
0.420477282723682
-0.020266105759431954
-0.7248154073923843
-0.2583304585283146
0.8916265713503884
-0.18175215091443497
0.19475187719507026
0.6935557276618388
0.20907381764216604
0.48005676562640365
0.6637077660021735
-0.12292121529277233
-0.7949221785859222
-0.1595804226546651
0.3666737232570205
0.8241947979788168
0.8858491129995207
-0.4060779238556801
-0.8213564114856282
0.4871803606102596
-0.6687772085026396
0.13320497019384026
0.0536718629875097
0.13680823397102193
-0.7287772656755465
0.1345871941778094
0.15957365288293984
0.3475677231826513
-0.3353452299723435
-0.39860128942455547
0.6280572741890336
0.15717443098865846
-0.16571903474819605
-0.09959668186329038
0.4634411184775502
0.9419788712978838
0.07695532138908479
-0.12042347179703632
0.6586144027436196
0.28355210239172335
0.5477228690155367
-0.9030190107711946
-0.014665466908101443
-0.0014547328678504723
-0.18167170159385818
-0.23697922178815345
0.7960838481961203
-0.4702843710985978
-0.5524035157800895
-0.8213699119565496
-0.8122755043854293
0.1839609920002554
0.420621590426993
0.7103417989814126
-0.6551190557003956
-0.19502782948494968
-0.324109088395633
0.8762620470174469
0.1341603876718629
0.07651681841870772
0.9960013606051257
0.27293305304456594
0.06429661570221998
0.4770938567999974
-0.4890612582746583
-0.8572589616850914
-0.9538296424200239
-0.24944553432471617
0.21889001754213572
-0.4357884036217794
-0.917345507666917
-0.16069741873003562
-0.6029278851782967
-0.30205624222650096
0.9149054582518108
0.506837537902908
0.8754866505737126
0.0923443176934223
0.393231065885171
-0.039142731018747545
-0.6942018284135754
0.31224073893783055
0.0952464948635983
0.5869165743508988
0.6647618635988664
-0.6359043842765347
-0.8300254416882757
0.1640515286463211
0.7538660326028139
-0.6402368891895067
-0.4485369201830227
0.46344979829107813
0.9989679896864454
0.914403438672368
-0.42665414417385117
-0.4564476259947492
-0.7074585554108789
-0.13133307394703464
-0.2182244009511496
-0.9793032338174361
0.14696546465277782
0.9872668771387514
-0.8137038674097263
-0.4056323278572378
-0.23920135733475856
0.20183030837326332
-0.28060599380147044
0.12725471034342548
-0.057686506682745886
-0.4702038643875656
0.8556437773976326
-0.03838975696444823
0.44684125218322146
0.5555571875838635
0.2618478702224141
0.9548395046247957
-0.17670023361615295
0.7764295050375649
0.042925707774472244
0.9177510420430304
0.6062731060138535
0.6336638090943472
-0.9592964068233145
0.07135530983404106
-0.7442553721215033
0.732310414230765
0.2074300022003901
-0.48673152227103017
0.11456051073063067
0.9877181863386821
-0.3223257972896705
0.7727562355584929
-0.6477173809345291
-0.5252651420427012
-0.9826491903615969
-0.15929623889599856
-0.95019530637079
0.8755906956821139
-0.6989953784304914
0.62645878912527
-0.7626729510213404
-0.775244528867054
0.4761895518991579
0.27124093868794663
0.27231800694743247
-0.10453919721133009
-0.5922606204347771
0.06320819881257456
-0.04227924380095267
-0.36487186417200745
0.8240159783030612
-0.624486211431059
-0.3983023109038166
-0.11765063834801781
-0.5308951617352764
-0.27696587615802676
-0.7963856051062903
0.7786000476472208
0.23340545148271263
-0.6889350627864836
0.4238764869787246
0.5825104920866073
0.0873692033961726
-0.6943663252149725
0.29486022073430673
0.7292025036906588
0.8872202718959943
-0.24043282802410038
0.028804597291745226
-0.6525496906067798
0.5887064941111955
0.38987682595401796
0.14401497689049747
-0.16894209163071605
-0.0627002223094193
0.4957221358411754
0.3784446008902176
0.25614302084830465
-0.46686674667460726
0.4377334900227692
-0.4296429095924501
-0.7175332117140376
0.7991861375066636
0.027092770356409224
0.8991363849613703
-0.0969646156877213
0.345389936097138
-0.6938950540221166
-0.26557222910125167
-0.29462413720050673
0.3939578322122619
0.5515767649617356
-0.1766588005887958
-0.02825974940565046
0.4112427007755457
0.20662327158514907
0.7243586158717421
0.33178340614187674
-0.6816286026509337
0.013716292710944877
-0.39541781604715087
-0.025367570491270364
-0.8936586907336472
-0.5741997762059015
0.46161307318005407
-0.10951693407614507
0.2754659548069558
-0.19213630307111448
-0.6105394726356446
0.5977433272126356
0.35320515320557866
-0.7258381428789158
0.3146415910137883
-0.007530507116976004
-0.6366945299967239
-0.6404665597680472
-0.8040739108547835
-0.004323670065042959
-0.4318719883425619
-0.6746863286857376
-0.45523658214679164
0.7728462389843431
0.6652981093205831
-0.18831413323613944
0.9870299433606975
-0.46754270116578445
-0.48550467678123077
0.43254015087731723
-0.9642607391197888
-0.911916681767279
0.995929705314327
-1.0018827615377965
0.6976742977340671
-0.4753373084926802
-0.13392637467809898
0.39412065981658606
0.23068130000153664
0.9745499756118408
-0.20190681500548746
-0.4977153587262302
0.04574640517918431
0.6855392318789904
-0.009474014369083905
0.1419040315577349
0.5662648488490996
0.20990719739323058
0.21033539618847175
0.22203899124883617
0.4837663126514624
-0.5809995355728012
-0.25116150376821644
0.28019466953668015
1.0036251856169314
0.732632072779251
-0.6356420659221924
0.28113428069529833
0.7426704775461336
0.08319638918092775
0.642826561097696
0.8689356845773119
-0.9005331222471753
0.5610510660820944
-0.18034308976249908
-0.8000076055263614
0.4600107722876099
-0.13972614996461363
0.3818034299805526
-0.8528964032286466
0.311502669365298
0.05996666220895919
-0.3036105053449345
-0.8534568836996341
0.07302212155188736
-0.17199926560869372
0.6886036106915138
0.43121080433173375
-0.04149725971460272
-0.23570104834323302
0.5937605725426816
-0.16373648643680827
-0.40458128155623674
-0.02541236631090424
0.522092487456467
0.028110938350862417
-0.9907188556709658
0.9820531529893379
1.0276829336350835
0.1574408719710061
0.7431341629315904
0.5162426106217268
0.7686319407879383
-0.28699239498115126
0.8153831746759264
-0.4272856604849724
-0.061282115691728783
-0.328939874912322
-0.7622224011144325
-0.8486058453283969
0.8353683434393444
0.22151119633387562
0.4297899653881443
1.0742463560164635
-0.34597542011721805
0.9520983300003489
0.25760405413592324
0.8067407339281629
-0.6136532404809107
-0.5683335533225694
0.18112608524933127
-0.972239824217499
0.0258100702330197
-0.40560188550012555
0.8999093014653516
-0.431869409623188
-0.5567527474434588
0.9858893483033673
0.4437635751064443
0.4254193706460847
0.45157009539991777
-0.16670124306325595
-0.3447446346922678
0.9308204848980546
-0.6151535762843461
0.38103854732276016
0.27845711750753344
-0.9721746622539142
0.30669542128136573
0.13179320666125924
-0.5084938980914747
0.10463114617167113
-0.3523748819833785
-0.31791766264075316
-0.09167758233910353
-0.20453764155734144
-0.3453148476270158
0.21850746826679102
-0.08140063316460885
-0.4648364511312859
0.1644430375352235
0.4520675371770315
0.6578756580333354
-0.13450377675542757
0.24382538850632351
-0.2616966901406945
-0.7142374504394973
-0.3884985742912481
0.2538928321003524
0.9388106214834336
0.471092821796389
0.3941778048008182
-0.6226299775633846
0.42852115865592255
-0.018814062594789238
-0.6252919532695207
-0.36432930717087497
0.22227349734227175
-0.29419189570379584
0.8340124651384222
-0.2127037397560223
1.0153368728983287
-0.4174211126252092
-0.41890886558815266
-0.26619466429715133
0.36120346002378256
0.31029570044998384
-0.004017124589888843
-0.17478030489615937
-0.9217119666257583
0.9689617694448938
-0.6564838198244851
0.7209037726334722
0.4029711909295466
-0.4024744109171692
0.5597869722515663
-0.07581334978731366
0.0015613165813221919
0.6476308963495216
0.614280663551412
0.6294253238341181
0.7541941991137666
0.022768617554436155
0.35990878092411016
0.7872675603984841
-0.5914517576679722
-0.4700130482641165
0.012538315145654629
-0.3669010647081117
0.9338052295269157
-0.6828643061129764
0.7598564279332877
-0.6942773306493406
-0.9508080124057297
0.48234800172993
0.8597833046919949
-0.09889908726588459
-0.19385014687148727
-0.49165029913799074
0.21603275435318925
0.9415571968483658
-0.0942898569759103
-0.8155342478957863
-0.22783606794714895
-0.856420172428374
-0.1140139416109025
-0.8423145908232124
0.34090484350229766
-0.46384955700934727
0.08750836923237411
-0.5191677938922784
-0.6890399389644906
0.9725396603452279
-0.38220769306163693
0.9654794945639464
0.8240341759739778
0.32344806775463075
-0.7518910909950978
0.6331422437202914
-0.012151760739904871
0.7755134915650876
-0.7634252568261408
0.5657654215140417
0.4601079251647613
0.20958315901165814
0.5539095843989261
-0.13080594627290698
0.07739726050594142
0.6844574171622295
0.93923130078575
-0.2924806187033462
0.10964619064944835
0.3147099375507867
-0.476391944139248
0.42246320465384346
0.4260755804125409
0.3087691086923809
0.043600794074322824
-0.2641024638078715
0.45591649923359356
-0.6160293213058172
-0.24295781271646466
-0.04680500018276246
0.42701340025902557
-0.8072158206185823
-0.23534641890504204
-0.7174397079750083
0.04159253754357306
-0.48076053833125143
1.006151287312475
-0.18321694580957937
-0.17303080712250443
0.002581875783039589
-4.509173782585307e-06
-0.2578977983548807
-0.6924879052995251
0.40479449734243356
0.6913846385263511
-0.38297987480821716
-0.053960007027970436
-0.9385444706962526
0.7197397641672472
-0.8298439080570732
-0.841639028677944
0.3376094851647631
0.4427979853861581
-0.8840110691593084
0.8158820444416315
-0.6158817087327124
0.35341961807353695
-0.5109630436352127
0.38615333398909346
-0.8351569555208938
-0.3158910576206701
0.5965499374918178
0.11002590931498021
-0.9716756588079278
0.17791922040932184
-0.20688911779776484
-0.1373547520426972
0.061958231977215616
-0.3398003099336917
-0.8910448269420217
0.8152625934800888
0.2219810293939506
0.6229585417140152
-0.44030836080152613
0.882391064775021
0.9592512445017469
-0.12254363715617772
0.06312281671428877
-0.06650893822364008
-0.315452007617371
-0.9715975463159854
-0.9785022080383923
0.7367322424905771
-0.013055950726327481
0.8586761111780832
-0.588775161248587
-0.161725079649024
0.3250201885440651
0.7967300122683127
0.33738639989248687
-0.6936236165772149
0.6643577146122195
0.893206602619659
0.8132476914682808
-0.45866343454627945
0.6929869066845007
0.7266168128473218
0.7469480896772116
-0.3953806239896176
0.5188321536109766
-0.5370218679504184
-0.21190925246358772
-0.9940181989052492
0.3525995303798557
-0.7238379908621699
0.10133850644490922
-0.39168029311296615
0.11472516340802486
0.25692366204067585
0.7898969402056728
-0.7944500135145396
-0.513638125551173
-0.03653940319741045
-0.7241545785957093
0.6800142556846909
-0.7335896585576189
-0.7719386916943534
0.21484145193502122
-0.020124772594653617
-0.47480900495719847
0.889271964560592
-0.9635188922204294
-0.23887979939822057
-0.8497593699694961
0.5719343203216114
-0.6234029401660055
-0.7803567457490725
0.17309679749426063
-0.4405845908180708
0.06141379553269366
-0.10940369861154742
-0.15239996652899895
-0.25324604857410454
-0.4439771205224734
-0.408457221785885
-0.039190683512465574
-0.6892538565605304
-0.4797597882148861
-0.3307092718429825
0.7658071035107703
-0.5285741635417572
-0.7445795423548349
-0.3493630625363826
0.7924868326614627
-0.67353186254246
0.26040922495708063
-0.2867841216844935
-0.1968872384341862
0.36239312473476293
-0.5448810963166122
-0.9161472312957191
0.4447823936170463
-0.8917938121648034
-0.6608069466226767
-0.24398598348207967
0.48071281625281326
0.007744907429291709
0.42008532035456164
0.08023098187428701
-0.22969060937023314
-0.18087838763437714
-0.7278337540174895
0.08458596619567094
0.8384513793244408
-0.6521809531029674
0.18304950862645963
0.9377596203949796
-0.8380808526203192
-0.3383138634635601
-0.7107474135584599
0.6817216737615586
0.35933304347275397
-0.015145126184878066
-0.06571849315854306
-0.4541365735713967
0.8984792863596902
-0.12882179861378634
0.47525716971533605
0.1478251397497874
-0.6640666018738208
-1.0366651449012299
-0.4108338199265271
-0.30290335857737016
-0.7418206403805305
-0.10278786835632081
-0.43418745784169976
-0.3960793190380314
0.37647694001777743
-0.34352259135963226
0.4968309105587915
-0.14885252408428995
0.7633899370235397
-0.9825169895024921
0.6010005869717772
-0.3984447413533413
0.020374341260019913
0.406014152517276
0.6581123580492569
0.9643544131075825
0.12087059091116337
-0.7260908662785752
0.4695422041283561
0.8289265726532645
0.7417538486364863
0.3900209236418397
-0.44822406010714244
-0.8241393931251242
0.12137407427302671
0.5338509341041058
0.38492838964531895
0.3853560361820452
0.9767939625976245
0.3429079315971486
0.7587324269173347
0.6872226278883093
0.899236114569534
-0.7514612028770249
0.07999048392751673
0.5649799958869749
-0.2666628565251421
-0.9864408577389496
0.5487671212556349
0.8537051663166505
0.7347954222277384
0.33643107002913714
0.413183396288787
-0.23877784932236445
0.8131856937298707
0.12261536193494149
-0.10560464884466625
-0.5764978403335388
0.8775237057866823
0.776829703252192
-0.737157819435587
-0.2370609401152322
0.8251343466209978
0.07784784419527302
-0.7050104099334347
-0.5519884113385116
-0.39026613944891686
-0.17794614727849378
-0.3096511368873258
0.31157169984901256
-0.18118573815590722
0.4472628997210917
-0.9092912186927884
-0.9161550887560364
-0.15843961977035223
-0.7082866267582697
-0.6458222889419374
0.5271558426087635
-0.1534255240845328
0.18490721768605733
0.8557361722134083
-0.27104831896285675
-0.7097875100271003
0.7452174446297029
0.10550796961190523
0.8378177905314201
0.6317483472324814
-0.11864495610883607
-0.16843553708650405
-0.5193616122880615
-0.304969650319558
-0.11746875335039153
-0.24925863290698458
-0.33597336246992215
-0.20633268219532552
0.6425382471798616
0.23016519224508336
-0.6892342119314416
0.3889046864939079
-0.633988831031074
0.046835484712523634
-0.10034122559763814
0.26871519260788396
-0.6259453299904083
-0.2806213537903415
0.7987906171950903
-0.9497646048936149
-0.38175737064821935
-0.3167546311567788
-0.5763415195879233
-0.5324044987711865
-0.4135989914493621
-0.49332188927776377
-0.5622230200761025
0.8264167074960025
-0.044781908958979155
-0.4882707835120699
0.4393256904582214
-0.08724532418338282
-0.687804475184971
-0.9466335870451141
0.26587201025518814
0.22516930361234588
0.875571774800676
-0.8936242762030009
0.11085747967392126
-0.615063140345081
-0.24268354348667898
0.7631184069554404
-0.31084449814708326
-0.8965697127332616
-0.8638411670926056
-0.005761443145773315
-0.3383004943145491
-0.780150035513238
0.35090928366669827
0.26046412336834307
-0.1686352888881575
-0.464788992496205
-0.9450104656987606
0.5420400563154866
0.6174473809815775
0.11531833025828364
-0.816173708453757
0.6323773253856066
0.1350117479401567
0.37274475808687013
0.93744601597782
-0.39973317046523005
-0.06450084588871526
0.24015081638224745
-0.7302219212832115
-0.04045254777209384
0.8694358230379455
0.3265120993467805
0.008694979891650231
0.31568921857855425
0.26092753138029834
0.9897863660149402
-0.03850420973666191
0.904504701159041
-0.40301980139100113
-0.46110210048014677
-0.5216548758033939
0.9714849260476772
-0.8064757871172894
0.9658759749948542
0.5936179999010415
0.002328668985714266
-0.6413853417205735
-0.4178036225756867
0.0294988721765507
0.5556160039262684
0.7299090451628485
0.8399816645340852
0.6687592408593563
-0.5428964964198447
-0.3356766721600235
-0.1844455310696298
-0.8301941188110205
0.8711568320109185
-0.35696016518726215
0.7666762638255772
-0.3512906288693598
1.0721569598907352
0.6288122628882791
-0.4310479312529891
0.7962939744321695
-0.9046190957715532
-0.6369372202170003
-0.33058559477801563
0.6595410035164047
-0.8897996987146675
0.7581248003359468
0.955662488671936
-0.753122325527459
-0.32431764628964843
-0.21747180023331203
-0.9231562845653942
-0.8430577158069117
-0.18867186380370993
-0.07747759291904988
0.0069459645224880795
-0.3672256619638372
0.46787572087573337
-0.8047217544979903
0.0
-0.12593658620159026
0.0
0.062185252105812494
0.0
0.0
-0.016036765886369358
-0.018998021021757565
0.0
0.0
-0.6974353717749346
-0.04596314214626796
0.0016588139956944525
-0.7523112958795721
0.812898356167327
-0.4693874002562395
-0.8522279520631912
-0.7266562680841391
-0.005548776732595462
-0.15465992929155892
-0.04534065748843452
0.7431572196629397
-0.07442698557458888
-0.869028815976135
0.8706227984616345
0.40442459465606206
0.724588167906724
0.02806126851911571
-0.3351730304007708
-0.6141025086776797
-0.4493688141481589
-0.9724098780287074
0.13501612985293288
0.6274006454743173
0.07133858877659338
0.9668898623264994
0.7585589689371581
0.4343767153640916
0.08678434951329685
-0.4568189056198617
-0.3835139971664229
-0.20778213538963197
-0.6527766698043331
-0.19687252465557648
0.7799043228113933
0.0751324654858212
0.6966529157705214
-0.9065206833096224
0.4653727826705132
-0.19129394227753016
-0.2708047972892229
-0.028510475741478025
0.7982087910069896
-0.15282945246085977
0.9405168220505578
-0.6261048568480452
-0.8916298259631068
0.3469304443489359
0.552425603373047
0.6114888058167831
-0.10123679567607624
0.04212327558421045
-0.6591182813180699
-0.9730635012785984
-0.015387250507377437
-0.13034031467087526
-0.03137351253125967
-0.0662078710697375
-0.39149196265664643
-0.7854641395737167
-0.5756611837425849
0.46773479827885955
-0.07560738850625262
-0.08451412937354474
-0.555311191068206
0.03340243829021183
0.967054904822378
-0.8035852640353045
0.9492023245829564
-0.45180613043817885
-0.881515086835141
0.680566602799636
0.03345947369997347
0.436833627629677
0.30705382099695355
-0.5934031142812553
-0.09655432119978975
0.3514523703519119
-0.7000359744572864
0.27617820984434244
0.0
0.0
0.0
0.0
0.0
0.008414561349983297
-0.030267042750728654
0.0
0.0
-0.021891985234533007
0.121290439895408
0.3687255927800084
0.25591360234964505
0.13574561595716955
-0.6130386499528697
0.32648257750472287
0.21295102258588966
-0.5907895832803143
0.353118283587748
-0.9402572470914932
-0.7643391626410072
-0.6974898950147637
-0.7422231939527211
0.9890431743397547
-0.9938057839747907
-0.44187745289997227
0.6566103024283513
-0.28587430881125053
0.7794605537392709
-0.904172159675072
0.36776529231028476
-0.6565875961229433
0.4614964026981936
0.3387837634316422
0.6145809800944506
0.005074874957360365
0.37639150552379674
-0.22883855266965836
0.22200622338564147
0.39491973880320574
-0.7250790237522855
0.19233944348137402
0.4027233675661719
0.6234182216455784
-0.8768673797798603
0.5303051431439596
-0.432515219420216
-0.4188262011650048
-0.21979814501816008
0.9537335044480182
-0.3873893037538525
-0.48372073928692627
-0.060390782702790365
0.7839805287882946
0.46221591720453015
0.4339416081300089
0.18003045049358196
0.8110347813867396
-0.3636231611378744
-0.2957414759939123
0.4914682144487861
0.6284828353494838
-0.40478708263669616
-0.7781781440065174
0.09149029419679833
-0.22986239472727754
-0.511807834137942
-0.21121034711515024
-0.6744202423954766
-0.47879026650586387
-1.0383964490833824
-0.4939468691319624
-0.9511313296718402
0.37362067135993854
-0.8153329088548331
0.37976119128741104
0.39468024898015885
0.18074956298593658
0.6096220958146268
0.33802097167358347
0.5920426690118514
0.5661705750603336
0.1629876450236728
0.09792540980866282
0.31988272149754304
1.02780479386411
-0.6725658519581305
-0.7453714059933627
0.8827889592459031
0.4393168309589568
-0.46938294196149616
0.16358687907056946
-0.5627482309685885
-0.554737778226337
-0.052921584872128724
0.7591500814012864
-0.6996026391701538
-0.006399240931570516
-0.9396927197509897
-0.8970253654971647
0.8356252048064701
0.6466259839212813
-0.553589887186078
-0.8734202994254718
-0.19937160333157267
-0.14630534375840604
-0.720364200156175
-0.45870699588654795
0.9133895694677401
-0.527223164257016
-0.9210816030431748
-0.2359283958203407
-0.5874137319643375
-0.19475561388210716
-0.13160843819624937
0.7860576624275846
0.9854091830598182
-0.8674695902549204
-0.010287869439285613
-0.92452657481645
-0.16258953124493725
0.1102045135207863
0.5826352250878348
-0.8282520340743206
0.13683072162471155
0.5673991469877202
0.4921279666881919
-0.9182301296339757
-0.868782617346638
0.6354749314531591
-0.7120632914517415
0.8575449122902192
0.684910986359619
-0.5917489359822874
-0.4097932101434605
-0.4545418029002726
0.7071393749157444
-0.4718204057706129
-0.9895773349734911
0.11029972664218968
0.9218745338474568
-0.5883595727739188
0.23270364153886458
0.08863820317905868
0.7003559263839381
-0.8629916962715989
0.732068345356166
0.4861489860965409
-0.16641932058712394
-0.2548402503172871
0.07247532706247184
-0.16869038595261476
0.31563991339467234
-0.22200260493170498
0.8295172635965806
0.7476210367981337
-0.9658704173036867
0.5523201714772592
-0.4558811558571232
0.5196362456152646
-0.8164790775621027
0.21282817615061989
-0.49915049514275034
0.3156054114505431
0.9034998521350832
-0.23749608449559934
-0.8437158141817557
-0.7576819765513574
-0.9704384586211221
0.45004063949838313
-0.7984147174264669
-0.5605567996358026
-0.1545566671301016
0.020213844789104485
-0.6373286001426808
-0.6455804255540769
-0.5828405753819526
-0.6824357117536958
0.1497063753634857
-0.8901685854335739
-0.2350607359941297
0.05467843216358892
-0.3462694819946881
0.8169189504703007
-0.6207854132511956
0.1059789145096599
0.7844769620231877
-0.20065817230335564
0.7460063209998498
-0.9712502201377815
-0.2130103522625788
-0.6083926573493524
-0.2491739391619352
-0.4271244940411141
-0.006700181277916162
0.11887283964512063
0.983567568261184
-0.44253182351829057
-0.4494072947159325
-0.1439839200646702
-0.3144644731914379
-0.9067718302781222
0.7991546330211157
-0.13349139004309618
0.77887320835424
-0.8029830585987988
0.6616234153249756
-0.7469528283819564
-0.19905007373442873
-0.28174891159347193
0.2968292898631655
-0.33553641683691177
-0.5541908318095865
0.7143729356423121
-0.07694767662806369
0.2589424125947779
0.1252290410760759
-0.5797131122325292
-0.6725765403345645
-0.8348582273260579
0.29915576747740724
-0.5971881910122742
0.4337713555072913
-0.23386674348129222
-0.6028110490371603
-0.5491571185084273
-0.7763656571682713
0.24283193818914217
-0.6786945412839089
0.20501894879120974
-0.37954466525563335
-0.5942338495918329
0.8171472785585714
-0.04083633576389922
-0.5799593287559308
0.0010785886477298057
0.3581258491804624
0.22637783676768763
0.4649819478176289
-0.18462735663095542
-0.677864196572703
0.9229887177322191
0.5913051816484745
-0.6891245240702433
0.3734040933793965
0.4078028834859817
0.7108691293430386
0.06824776834482149
-0.20646012216968135
0.6020550606038222
-0.5795604980474174
0.6521348916254901
0.5995447045110802
0.12552390662195356
-0.21803042510969672
0.5601022147805708
0.662187299685493
-0.17060703449159642
-0.9201459857582459
-0.25532354807208724
0.19695279246439223
0.1723339058015952
-0.9939667158331931
-0.9557279700462022
0.7411366963970423
-0.21535590526882542
-0.9963508033528183
0.5756607750717038
-1.0035335724551502
-0.12288347830594804
-0.5761409438810007
1.1205477656487084
-0.3121259257288438
0.5172062888915137
-0.867407067931999
-0.2513974199635387
-0.27199750829701685
0.8640886042400493
0.7137106198082361
0.31419687954950604
-0.0501638621420748
-0.6099996285091205
0.5960033423056608
-0.7897284214878733
-0.10930637153785883
0.4134565057245765
-0.2559634726555413
-0.8652794854695531
0.886825734349329
0.6681366204203616
-0.36985708980281884
-0.3067491728290266
0.665939912578071
0.27732687247642906
0.10423515583648874
-0.713420535237608
0.286009357932372
0.7961747485385611
0.7382416293588894
-0.442762606043406
0.5618936786433086
0.7876124445930925
0.10203266566273829
0.9015555181064121
0.17600719503921147
-0.5617710001752056
-0.5739460819632629
-0.17725339118446293
0.37315730325295604
0.25233795182046936
-0.1180612205854461
-0.9628792950441551
-0.23478285510356134
0.2837782604701411
-0.0066071386292430034
0.07303276382375296
-0.015427539932067927
-0.37621109901494176
-0.17898643620263477
0.4895993834946202
-0.018536368686537852
-0.3158768825206564
0.5022217274913101
-0.2770780589827837
-0.6175671335931289
0.6988591578388601
-0.6583709520348486
-0.273637518205176
-0.5833047322422455
-0.2898473773543737
0.1982451759301318
0.5391325696443782
0.294570755076089
0.6011565746733925
-0.5096858237749688
-0.18628828843436485
0.838748686610568
-0.7683071824309073
0.505981624521723
0.49305168458659043
-0.819633981410222
-0.6762053439501856
0.020828302359450213
-0.2416525251741235
-0.7413498356808091
-0.5927786343396706
0.648667584079258
0.30818357528192597
0.817582033985014
0.5945784160795551
0.0
0.0
-0.013247326055597825
0.0
0.0
0.0
0.08824354292835793
0.04331801133177086
0.0
0.0
-0.5882693438145328
-0.6071194054633473
-0.1053383885222611
0.7527667254003079
-0.8707745943018019
-0.9322364045265075
0.2723034872319736
0.6427794967441529
-0.6800116361460147
0.4480935707960456
-0.4922589930021777
-0.44327015079777876
-0.8023882166690446
-0.9085987307700458
0.4926647242687186
-0.5268721439431949
-0.23822003374346606
-0.7519367788874631
-0.03827895030889228
-0.9794093895817746
0.22168394027633065
-0.3307716739277564
0.45191950597427577
0.01612895050872868
-0.17051265481689937
-0.39764032455121145
0.9210494404367351
-0.626869456032148
0.06476313404616962
0.7538280665191188
0.21589612778610046
-0.591608105450746
0.9890092614581206
0.08214074411473107
0.4087355586743966
0.33541045855976614
0.17542143329427867
0.49212561411627886
-0.4089692367684479
-0.01763081150094381
-0.12859807890942698
0.45800358167661415
-0.10390040594616626
0.8403840361489554
-0.5698963318226331
0.7159450829449341
0.640391166519156
0.6144045235190734
-0.4153800465651021
-0.6587593239724174
0.4915434216201453
0.9919587850709539
-0.46413031456879095
0.7103753656736236
-0.697642035812855
-0.9082057059748192
-0.9436115797452571
-0.1355766309722067
-0.5010060235846486
-0.3748713018876153
-0.7686628222297904
-0.00209875022615047
-0.7578441579532378
0.2978297677949917
0.8038241243572111
0.21047826250309637
1.141542342174447
-0.6756390109569741
0.5192974399144108
-1.2045667813667671e-05
0.988381722240101
0.22130326047280172
0.7713132044534576
0.28650811420915706
0.6552002761279174
0.5918519681283765
0.9202605850799208
0.6599387857256873
-0.8064720762299709
-0.2888188976262309
0.0
0.0
0.0
0.0
0.0
0.0
0.0
0.0
0.0
0.0
0.0
0.0
0.0
0.0
-0.010238039972474447
0.0
-0.09988463672029459
0.0
0.0
0.0
0.23734853244408582
-0.47545985940539204
0.10657618554844395
-0.8716776371160904
-0.8663914579637497
0.7667093917443004
0.9323217301269914
-0.7600058588975847
0.7043714645476382
0.8440243150594333
0.47583335465205634
0.5201367415956116
0.7076133991702941
0.7941388331329529
0.1451381033291385
-0.8121924351720733
-0.7692581320458802
0.42097761510032616
-0.7356054988605809
0.3925679105936495
0.49540793024747587
0.2906811294692777
0.4791154289737447
0.7843711565194915
0.6767238484719211
0.20702581932416675
0.8660725684471806
0.5027296500739364
0.13976061623701486
0.3039554905245361
-0.7678037147289771
0.14721745991720075
-0.286463779663106
-0.40556037614506746
-0.07861801730439888
0.5741248847804254
0.5117558434300695
0.9905511228033539
0.8770984226916161
0.8208004519401195
0.5878937193449114
0.9017438536786297
0.13949695348630353
-0.7310568818582444
-0.989846369909785
0.584606831327164
0.3734832794918135
0.26284647985794196
0.090294922288647
0.4936564893808222
0.5339619471881902
0.4331673125284943
0.02364913723347395
-0.6609122896636709
0.8720470561316583
-0.5743049770084057
-0.32909287201318693
0.02215583688649403
0.3406336778621334
0.8718818841068492
0.5999335664874321
0.9081675208991242
0.4275146317623464
-0.6261443211536055
-0.40773870174519455
0.8269342236985404
-0.7469643722619319
0.692465599994774
-0.19112567860944663
-0.17388877387307855
-0.662735272356286
-0.01130991308209528
-0.8605931068488342
0.9070096247730824
-0.7938993031223216
0.6380480536000792
-0.35870056620136165
0.13995348088990034
0.150916680041898
0.2724344431135053
-0.7543582646800915
-0.757697388899772
-0.9115680640728421
0.24983801118864643
-0.6778174161301982
0.6398201668319226
0.7383255677476295
-0.9183979475001869
-0.7339627846592738
-0.3284422293258462
-0.8349585176995509
0.12500446906432372
0.618085919133021
0.4520380279293621
-0.14254931364063994
0.5245430648088708
-0.12755931413454835
-0.07127766867754559
-0.01518490678404616
0.42226307443201816
0.5158141602452062
0.9289215626749888
0.9092462864350614
0.9278898317939221
-0.005628981109621289
0.6779000321089523
0.3165264157164194
0.48230679991706427
-0.1273261630926492
0.08692665615785211
-0.15380758497630292
0.0
0.0
0.0
0.0
0.0
0.0
0.0
0.0
0.0
0.42639790524237536
0.22883162300608717
0.9160883175366179
0.42453420592139723
0.0922248305340152
-0.8362268315817956
1.0236940597608801
0.4951015714816125
0.8619941932202511
0.14564527095733704
-0.2646167528548091
0.5336456781836189
0.15258513801505513
0.6311924115237193
-0.48595959942225253
0.8750049441439052
0.46290948667207
-0.3250992440765921
-0.4796465554200571
-0.3791028218249817
-0.015744898505164917
-0.18544495620518742
-0.45045190878186525
-0.342034943134859
-0.042725861095082474
-0.5058659911943136
-0.3847114270000136
-0.2784160519887018
0.3996473484569649
-0.24930012346530406
-0.8718144694834422
-0.09422640470517818
-0.8880526408069984
-0.46678765207164574
-0.6859490776176175
0.0833995394648328
-0.1885530859610583
0.6243317558296995
-0.09015285885964319
-0.5626636194114281
-0.8592166426886072
0.025227955024393678
0.18481465571645828
0.4024630898205226
-0.14061139966880742
0.7162883533858124
0.8233168538505231
-0.8026001427571763
-0.9161704374169313
0.9218153990457459
0.894002347817616
-0.9563875066242522
0.7413221901709559
0.7702385578684945
-0.6766662990731929
0.775266952749792
0.5906781460878694
-0.4261848416882825
0.38133411280657725
-0.9411553395116246
0.35995516154610296
-0.5282046128624884
-0.7135427639903722
0.2481265689077714
0.0735820351107015
-0.026834759579313222
-0.9781466768867649
0.8266268643154591
0.6874875147917661
-0.4979258704670033
-1.0270833044107883
0.013545745112812847
-0.32444872201235
-0.9840734256089807
0.1216902528253421
-0.6251713503454648
-0.433759616114499
0.8491649122513178
-0.7586967810602039
0.21741097763072492
-0.8271745203410363
-0.9247511494455631
0.6263604604750883
-0.1906883162771599
-0.5886676687059982
0.32721079964641
-0.7419211336558041
-0.7334807987542766
0.23318532015511662
-0.08315001073962125
0.04738690263409784
-0.12357355547081217
-0.8601698312743495
0.60438780100548
0.16840059819074393
0.5151008780959961
0.3551124177330369
-0.923267992055574
0.6607560485155644
0.8806021236980103
0.18868409471286807
0.7672131741518985
-0.2136792927275757
0.6944844888665453
0.2267520920483237
-0.903893307547029
-0.17001257211234663
0.11380575833533291
0.06547707616482223
0.8351328094076766
-0.032560119744359906
-0.8140054256403901
-0.5875432926180131
-0.0013553866274573778
0.6533172309968427
-0.18085898507893017
0.6595462773258407
0.7089357486508356
0.6742999009664601
-0.9061943725247752
-0.12015966508807656
-0.8168553927969884
0.22287702713893615
-0.883911700174427
0.5396490077583569
0.07099790313187529
0.6163966695104486
0.4154972328209934
0.6193194298787779
0.09697924009023651
-0.7055676987092236
0.4849153592144644
0.4914060192029879
-0.540406052501931
0.12135509807244027
-0.3758275456692888
1.0028054158743676
-0.7047660204156858
-0.8683555138835837
-0.7286459233950342
0.4985193210269655
0.45089537322987544
0.036555338117125524
0.5142358365399449
0.7343386884904176
-0.6777502066643097
0.5538492667914316
-0.5648104222780841
0.5013751363838927
0.7241669486906595
0.8216518535538195
-0.26371010261930783
0.6057037769117652
-0.47258671176905853
-0.8392922509071343
0.5146899124070882
0.8169226784863961
0.9370792955520084
0.13441679098830828
-0.3425466163351304
0.01804207663242008
0.33188863631504595
0.890510688805867
-1.0570798740721477
-0.4364841383018667
-0.7049549319221138
-0.9979823378960642
0.41504260893296263
-0.5433051555876145
-0.5214133281292247
-0.09379515994151211
0.04127636603727984
0.47122413567694776
0.429748621757571
-0.7668797254626691
0.5136675414451344
0.27309961064251576
-0.5520690449120706
-0.39465654238133413
-0.15069972206574045
-0.9381622494032815
0.6880673696877838
0.5392198221206776
0.026106944382641384
0.024898307646493756
-0.7979240671951908
-0.47138571508566174
0.29302008824812864
0.8782348852351429
-0.7149973476971296
0.882975868769915
-0.6035292909975472
0.9346732904038861
-0.1773283821790299
0.4467889948558226
0.09191154606472307
0.4361033551308804
-0.4954532482287775
-0.2658473938460837
-0.2561652615576424
-0.882105897627101
0.3964588419432995
0.16757552055688557
-0.9405597919067601
0.33321912999859227
0.2902199353937587
0.5715525170401156
-0.6735127139079213
0.8218633966201088
0.7889131552576123
-0.6257887729209546
-0.22051798482801965
0.60607014494257
-0.9022491809977355
-0.3475051629658661
-0.24359696678058884
0.7534559862466743
-0.5562733605600207
-0.9315635360775905
-0.8862568940944893
-0.24317539293988077
-0.5237105170564105
-0.3663145843510025
0.8542346310551658
0.6691951863474139
0.02806854321537
-0.609879876026115
-0.0933626675680288
-0.5185984193640161
0.046131365836187044
0.5927774955171439
-0.041687493345251125
0.9963139475210008
-0.3365251761926835
0.18513860134952553
0.8098543759337915
0.9461184721407152
-0.158990816840048
0.33709968171691274
-0.3603962001331742
-0.4685917261097441
-0.9337386163014132
0.2433991429518756
0.37782183146058523
-0.9870030415729745
-0.08583620052500086
-0.5452548141624989
-0.5910720326371999
-0.2925006566331614
-0.6951635650139327
-0.6767054569639743
0.38194634830898044
-0.0652850199682696
-0.9094984001200503
0.4766862740878195
-0.5304713745741862
-0.6690666532854028
-0.5504039276183172
0.6473141260161099
0.04137635915359694
0.03187449627157024
0.4394852592121501
-0.7198266924539982
-0.8470753104782276
0.6350031102311198
0.09105073083296578
-0.6591854384670133
-0.9291571263086194
0.14123717970161587
-0.5153519211690238
-0.0001754855643018305
0.8093373615406927
0.3609355763360438
0.2640853752690371
-0.6280087371785928
0.4320147023336739
0.31719577695740453
0.7844265935057724
0.01808132982666888
-0.7341192043459468
-0.11793220485804778
0.8148128010550151
-0.47479985130135777
-0.9339934906150907
-0.5902741005863306
-0.9246918510521892
-0.5890724349672793
0.7480688288248507
0.6194162876029665
-0.5210518031866342
-0.16314516887795227
0.10232292407978176
-0.43566758501606795
-0.12140814504091535
0.39249345688059023
0.09137355274160909
0.29256784748192133
0.13048063873443572
-0.8646562772750988
0.827902852869856
-0.4722096472819384
0.7524742535324977
0.030402485615800945
0.008991832569394953
0.38765422389346416
-0.057285556500488104
-0.7573629462388918
-0.10681937856654
-0.8135567888293759
0.6894084734140273
0.8470207698381254
0.951712607553962
-0.1857444261940442
0.2547463700282844
0.5714339121211196
-0.883192504081412
0.10107079439334932
0.9830894503991809
0.5643805514985464
0.03843016882232009
0.1315340861785408
0.6361433498165587
-0.14372258458139822
-0.7039345716399625
-0.28774391013762013
-0.7839605816013329
-0.9335626575574931
-0.902963621633255
-0.2830609912036093
-0.927369283634609
-0.5046607804723813
0.9999647586127824
-0.1778566680482767
0.8952756244158853
0.711038588211716
-0.9118658401269493
0.22299290946144512
0.10685107341043998
-0.9596383561307082
-0.18471688134244446
0.5151781741738823
0.018539764850119766
0.3021501428269415
-0.5464757635653106
0.7145011058533053
-0.4899754398766816
-0.2797728451280135
-0.46181214404727067
-0.9805939434904751
0.41066015117099264
-0.8841502169414428
-0.3814680342458663
0.7397725315854904
0.33749522837544177
0.46185801551895345
0.8748884522305642
-0.17567671292771836
0.2522286612466156
0.12938233369024266
0.7115971129649692
0.7302207463828758
-0.27172789227978233
0.4430807876605858
0.4206030524038
-0.19328620681653197
-0.4424842019205647
-0.46480365282700764
0.482943556812077
0.05543966485669416
0.15930596833365018
0.8553395669913839
0.11328645270835426
0.6686133713837326
-0.6372639640933417
-0.3434945954949835
-0.0018173703792314644
0.6856629357717645
-0.7489515132779037
0.3656346489365181
0.61159483224997
-0.605414277788399
0.19619780647191898
0.664743486653367
-0.09493708158701741
-0.7469264099075814
0.8618091227627818
-0.060599981562024396
-0.7717529215959273
-0.8625280195726996
-0.08509469300079808
-0.4599800350235912
-0.22561923702032188
-0.9326950528138864
-0.5477438492951188
0.01846598245552089
-0.6140516747618772
-0.6259491798286922
0.22026903911303225
0.6833906584264647
-0.0842219968688338
0.17538606127880807
0.4555578717678217
-0.28033910342052626
-0.5836841283317453
-0.18117787585775535
0.1654256351508434
0.2796905462009972
-0.00019258878135099133
-0.9253453253829418
0.7280961184250503
-0.5815189431567409
-0.16850053183783714
0.5804104110224604
0.16613482350631825
0.7771732922901502
-0.7903789722783543
-0.8176443139140974
-0.8464407769170985
0.5026898333750802
0.6482113581198246
-1.0909499533950666
0.10512501977390354
0.45310865862375527
-0.3191631678372897
-0.027769947232804792
-0.6157987032406855
0.6512177584104895
0.021118375241558796
-0.7814948505873441
0.008340994039905042
-0.6647426776111229
-0.7513703337969788
0.8708938239079771
0.21184614644145425
-0.3604626710222134
0.5506593131641094
-0.9977598662425635
0.3090497731871038
0.6164402369100417
-0.6426852842753834
0.19922476892574026
0.6556345225782281
-0.7844680387423175
0.06127349972345808
-0.9135534325471075
-0.5166420225527228
-0.15450543064263522
-0.17626892427725235
0.591866409892051
0.39534791476453623
0.12244145590193344
-0.006912419629468314
-0.9151198161374218
-0.9085309342395507
-0.22499321992510235
0.8334565375730094
-0.6426454682877041
-0.8556159729707897
-0.6501672899052706
0.6551240494857087
0.2449895716436845
-0.3325255736240036
0.5678864976343261
0.7090019817200843
0.6806618508921911
0.13228527335282153
0.16644525478738156
-0.3776171998327851
0.2639529953019899
-0.957896697596722
-0.8521105974432988
0.402499074677143
-0.6405586886184658
0.16753507772218754
-0.4921271342917417
0.924399106191045
0.22057431005898986
-0.03575956950387149
0.4624298914841066
-0.21767981111649615
-0.3815216120097389
-0.5535643094522029
-0.4686872999519385
-0.6189101495653417
0.30069916626763654
0.06900648159459744
0.09865019206988457
-0.9810689175651706
-0.8296050456039104
0.7040839970019233
0.7900656807499351
0.5706199838027819
-0.8296275709756487
0.9360237636657927
-0.6007667983213163
-0.41086073493592834
-0.6458043377136076
0.43431150410528896
0.14604871931398433
-0.5852348490410892
0.6668975122295009
-0.5672287889432366
0.40442873652925315
0.2509606933144418
0.2842521863090119
-0.9133157253947974
-0.16983091972418074
-0.7604134739452268
0.606410048062595
0.6976573656621543
0.29854544027235697
0.7251214733443019
0.49329692176126616
-0.48019371471533545
-0.6315946975404124
0.1455235722073359
-0.6368373802160707
-0.33755299323832777
-0.3124619670319002
-0.12348334698006469
-0.2265625554828672
0.8403122531001099
-0.8432347054653087
0.9777806760968006
0.34527274881124254
-0.9866866051163441
0.07472275169791165
0.2339757241787151
0.38986333592417777
-0.4877892829198447
0.26051468681551043
0.34945164660252415
0.9269232108150853
0.0677606001580131
-0.1972803498597302
0.7894655930379402
0.44187397195988576
0.20605391665386463
0.830591601245319
-0.009969831888759328
0.963970922851864
-0.38028584667161547
0.8787267139116366
-0.9353760530660358
-0.059861614360221305
-0.4401484824570807
-0.36987558151168654
0.16360210248441764
0.03506482548628864
-0.5066173008865908
0.9712845364750515
0.7018668022143266
0.6283254996691794
0.4832528623490209
-0.6655709763095916
0.9984306576896971
0.9502908029862307
-0.2779115951709672
0.9825409273316716
0.603963967829056
0.5876458766841883
0.8084129190965188
-0.3085046690000044
-0.029346420929796446
0.0447383737958591
-0.11622536767910617
0.6009172922909137
0.0283903873899638
0.492521045845276
0.5758364868780987
-0.7987476918683094
-0.39752706946972527
0.23605860100085474
0.292845537777062
-0.4601576020902367
-0.2573782097241817
0.8428079667857009
-0.8179317573303289
-0.7453728477647443
0.17417696071586364
-0.18686843251799634
0.7393562340187427
-0.6618543248349786
0.7793914690929904
0.5082883102720712
-0.9612987539527713
-0.2531599732382157
0.8857700302080528
-0.5362866082566254
0.8032399656968969
-0.591909115972604
0.2613488800173293
-0.7420392255854138
-0.5936854555815718
0.10475645379023235
0.9298737390605714
0.8867780832504923
-0.5811354164495717
0.033800012835330406
-0.809848758071497
0.8241366040508593
0.05910020810717964
0.2150308037516211
0.2200222502229645
0.6734753930344826
-0.6604806334648365
0.4211392905997531
-0.8863989630821738
0.9370640280553584
0.13521713419490555
0.49721408387315247
-1.0576232864401922
-0.7668217946804079
0.32320667926778235
-0.505693693844893
-0.9658993354701155
0.321002716689038
0.3968533449527192
-0.21157379553298195
-0.23146677824019235
0.49519613595662726
0.35505433252303065
-0.7884201841929885
0.3411925736237922
0.8872298245862105
-0.606872202761598
0.6141449662412133
0.8200966001615105
0.8998450199186117
0.150230510871449
-0.3613435023538738
-0.884247270923061
-0.764472917056068
-0.03795780469004285
-0.0633588304934948
0.8777416121350519
0.19097771058196222
-0.4128775682326644
0.7726032950080725
0.7519940180035642
0.6383366901618746
-0.9256804545996848
-0.06206373597851722
-0.1507022857752659
0.8617122135426696
0.10193143912456959
-0.4751988469288302
-0.46266134974341955
0.9809055229423399
0.8702547506145277
-0.8019854559944646
-0.34938305326317676
-0.79240372975016
-0.09142636800643071
-0.1089830664702689
0.5650847200988476
0.1686928504603169
-0.23211172849017592
-0.41840728545686684
-0.9356036924563593
0.47593277141502743
0.47949015460240085
-0.4526601380430386
-0.10312711260961316
0.25292950782404056
-0.622642162079436
0.2379890948358081
0.7573058296089261
0.9833528330812986
-0.3512823912375509
-0.832716349081297
0.39304877853769926
0.8503502187729381
-0.5805721334858347
-0.35705440936054
-0.23381530653129934
0.8413960002038285
-0.6781112439138555
-0.9863330328347564
0.794035667884208
0.0
0.0
0.0
0.0
0.0
-0.062112950870979955
0.0
0.06243338237803734
0.0
0.0
-0.29534375315594197
-0.6698283210978715
-0.7918303505466036
0.5628010333027116
0.11498671737850774
-0.7077944874470321
-0.06873139944008466
0.6436321309046598
-0.8915071958559772
0.9633792405195483
-0.45995192255794315
0.13961635822941865
-0.7414751293195192
-0.9915986460062685
-0.8023329390339018
-0.9863099646668538
-0.1493694501385252
-0.3769808871096876
-0.9306262346134204
0.6908547589648979
0.25166559618931306
-0.6060852573172242
0.672189307907672
0.22363961944160904
0.9019895158505928
0.7418047613963739
-0.706591895949052
0.03205351859141059
0.8490125556855879
-0.8152713120771056
0.18093937372671265
0.7254565611330543
0.800987466653737
-0.31773389499183713
0.4615983286961961
0.8693342788313374
-0.5200993350013363
-0.5851805865663311
0.4524386670956542
0.7049041703947576
0.18653585025196096
0.39023769930061714
-0.46779494463462234
0.7956160449420557
0.8815675475605083
-0.7738879932241649
0.9038023299856321
-0.6730947243248493
0.3763580914776514
0.0015527406939759292
0.9363235110912722
-0.7600288396802073
-0.08773312457740401
0.24629890519845898
0.8998781358684331
0.06403912893435287
0.24375018855807506
0.6385424451637507
0.7850982188739296
0.9257525102802524
0.5972922203357041
-0.6554968285031959
0.25149124243473586
0.9015848806285598
0.8990179471771169
0.3613352011444815
0.933789687530334
0.7058571202595156
0.15955389860377833
0.5246240014036613
0.653713715379042
-0.4546236462062865
0.5530490063003031
0.25855055381969794
0.9354501685730057
0.11697453156957169
-0.39173633177052597
-0.3003861975238953
-0.19739536532970753
-0.7795388314890697
-0.03376805007741912
-0.9454372311121448
-0.21344032992382744
0.053241179556035155
-0.6351840649201135
0.9154223517420279
0.031908344973768085
0.9152116735879507
0.5324150930181212
0.42734787550907405
-0.6123855167444578
-0.775039841621991
-0.012769461855707043
0.19899450485004366
0.9832525525939619
-0.9035227972554694
0.4182487987952164
-0.7163948875848267
-0.7092719569066985
0.9046830846212435
-0.3208654547336134
-0.05735418886408028
-0.3165747270966688
0.18276274884930493
0.8634339599158081
0.10530689019432571
-0.7664503387978345
-0.3969555386151327
0.24817101441166048
-0.49202655230753667
0.2204619530790326
-0.01204291351360054
-0.18865050622175517
-0.17954799334856683
0.04154618254840492
-0.42624668069949645
0.021682801119706996
-0.5821410277397587
-0.8346144388694161
-0.8608160357322749
1.0180265444269552
0.5326592749865704
0.1502353223847812
-0.43765472440841235
0.3892959052073248
0.036942379942774384
0.7380056823554031
-0.5483212964263866
-0.6663105759423409
-0.20023834522570383
0.0850834749196091
-0.3653161182120248
-0.2813434622436409
0.4436723803372604
-0.9582930888418688
-0.21306698431320847
0.7764799654820936
0.7673570069612439
-0.47265926992237506
-0.8015365575992218
0.5988876995165291
0.9891853161166968
-0.7218362119900218
-0.9621107483617026
-0.8110124472787372
-0.2733224745021159
-0.8832066570522962
0.6904240842918252
-0.5232748237632241
0.6331321861248086
0.06058344357245948
-0.6775484572556794
0.22052661428228792
-0.5787301984598446
-0.6201478110929157
-0.09203941210024541
-0.3994563411066472
0.8124269458254079
-0.7379118797304169
-0.7562990822881233
-0.018220830370003223
0.41593945427535256
0.3756301653646089
0.9962439002124823
-0.6102373007029491
0.8146753603102309
0.18777909800153303
-0.13468556558601485
0.22390918342123764
-0.8807998549617626
0.6783832024078023
-0.09704856925205152
0.7764205349767137
-0.057099592921150855
0.1734680712751805
0.8803560402082695
-0.12154742209104219
0.34656081566880514
0.4433890438942283
0.2580504790593383
0.17037479131265898
0.7535621003935193
0.5897700900069862
0.8496389579710459
-0.2822491877873601
-0.39015506536417366
-0.5623358519959922
-0.5309760008832467
0.6726240885642658
-0.9283142432751824
-0.9643349734571649
-0.11179390597708672
0.6056675234540799
-0.2995327727252093
0.692120230743584
0.7316841640540594
-0.46042596173042133
-0.41352009704989523
-0.31095154828374744
0.24917761734809596
0.30244707140580873
0.4007871923738078
0.7680264869638818
-0.13756926756564103
-0.6047347373040739
-0.9778306454170822
-0.13537002565067513
0.7801752565113511
-0.004069799877377996
-0.8333362056370013
0.4300856047669521
-0.8917124825629217
0.5564484286130353
-0.8846488588700308
-0.49113470504485934
0.5039004766046966
-0.06238590544770184
0.5339160153678024
0.46236818210164077
-0.682074793605878
-0.24063464490121667
-0.8839818126332459
-0.4010191721963101
-0.8716692823448873
0.7509932775851061
0.730215674092759
-0.8766490872493506
-0.27226698797569315
-0.22534314924428767
0.2776936906875145
0.40164627352824533
0.8737270031082125
0.9507330690807101
0.30231245733976203
0.7726383995180188
-0.5597831826396171
0.24845901873721
0.7738570518822008
-0.2539827293393224
0.863053305442145
-0.9763362416750709
0.01995868797024891
0.6995000062980856
0.40541911177877377
0.7203419493396055
0.7520408249999575
-0.5533160683008174
-0.6606593583344939
0.32852483062814564
-0.9044310802092583
-0.6544544362913947
-0.12862697296423975
-0.9274603547526514
0.37075268734052536
-0.6156587784880168
0.7004481614154929
0.511890355044553
0.2413439659817005
0.14131324766026365
-0.127283842944931
0.9079010424335427
-0.03766533208937517
-0.4496364318351364
-0.23042257318475468
0.05161757622958163
-0.8849406885788891
0.9539869070700973
0.546749668048647
0.1715982146657795
0.38990440739418175
-0.12512002565097302
0.23945327572769282
0.6761033109084094
-0.7277766212885892
0.36097231189029055
-0.913548538810887
0.4174503328135024
-0.6631200226660394
0.14197869581636313
-0.5848237163235801
-0.17729283751645
-0.3784978087447608
0.26976190693270774
-0.7244828988333627
0.10469272372646021
0.5254843927425332
-0.2605283274207426
0.6657246887691919
0.33338092632021965
0.6448196439588518
0.22107068882206482
0.3490889167642375
0.6301416477539477
0.305566856531843
-0.31223753251489317
-0.7937990997578179
0.01636601721130563
-0.6221375062594736
-0.8548860668004927
-0.22509417564103298
0.43480756169383067
-0.20476146388840366
-0.9767129213382466
-0.032673524953052535
0.06894980213887608
-0.47761368800167836
-0.8920935354927002
-0.515196927415344
0.8726071145557781
0.4613597154117999
0.2390379819454458
0.6084755930078165
-0.6830643592215493
-0.5697655019061176
0.425059986419745
-0.06139273445628235
-0.25868475205557817
-0.9582419067816266
0.9080175470694328
0.9701562998545603
-0.05208374384628156
-0.9026039045800871
-0.08562840551996864
-0.893481989952911
0.034624993983714214
0.0452353328802102
-0.7763070328766382
-0.8403405862434861
0.10104976143139299
-0.36782861343312345
-0.9464115932858153
-0.6870770125359051
-0.24748743980818322
0.41624125797232975
0.7629947279340981
0.5898038074999996
0.7462509472399399
-0.15895297487939852
0.6166981463931867
0.9560554584839118
-0.19331775958298292
-0.50638714906657
0.7430589020248645
-0.7937914267765791
0.6686739133567088
-0.8946619810270044
0.6943742944268463
0.7880005248061732
-0.8997238432859072
-0.8147923154403409
0.10284578129520305
0.9154960909242482
-0.759806570069731
-0.9763291923122193
-0.027308345991007954
-1.0206155921983526
0.10963969804294096
-0.49588573030125693
-0.7609817456842849
-0.9674478718426776
-0.19735780294462124
0.06005931700919254
0.0799804746694921
-0.8518717936553839
-0.547170247109289
-0.8685951004487206
0.34589522476145795
-0.913066136384131
0.12182133025094832
-0.12012495505982224
-0.3720662664687515
0.6004336758234137
0.9924659376475908
0.07197257388658396
-0.05502795880352851
0.08420234157221573
-0.6177970398354807
0.1282483181137885
0.45612667086034064
-0.32099155375016997
-0.6793097011943092
0.9602124663725085
0.9486429665770701
-0.1888232888444612
-0.9231974354786605
-0.3889525198029078
0.9222566694695464
-0.47180873674399915
-0.7647216064408213
0.30264260104707397
-0.4368610378925205
0.7405584233472089
-0.06905265896920842
-0.07870908458798692
-0.8809817294536522
-0.21488130523380722
0.7095435633112415
0.8454623179469998
-0.30731834638430877
-0.29152912361714667
0.028936428100475142
-0.756833902969597
0.3922575289535928
0.8943907073042905
-0.26730748780262853
-0.17407280273524806
-0.3964839742397608
0.47363668360411343
-0.967145956145194
0.6640431352361839
0.5316998449728998
0.3215626060440975
0.9890102856208596
0.8411346987040493
-0.838337740175717
-0.5425709259518823
0.9500426349400286
0.7583105381418671
-0.27647535876512364
0.6300702216734553
0.33449007135331565
0.14567414990978578
0.0001054537444293846
0.8688248543926302
-0.47461465351192866
-0.5082433619663018
0.7195212059054825
-0.3172170427403329
0.22088372573523496
0.6372219600591051
-0.6240888573858553
0.2701683788764484
0.5296963266004
-0.08691692661848305
-0.9658274840128229
-0.4229005461158137
0.3500511168042566
-0.47112787431638803
0.40499122651957586
-0.49265009988852415
0.0873699271315942
0.9736480450865008
0.33700135635670514
-0.7351710608871449
-0.8822723097538832
-0.029249429894431023
0.7646139210892792
0.7225483426035917
-0.04101309063834378
0.7655307043724339
0.7391138595227671
0.09364236101613366
0.371912306384997
-0.1703626848591712
-0.18618410317805534
-0.8376561822806052
-0.40995936806669353
-0.470405518807264
-0.32263235288441694
0.9863470544723247
0.0
0.0
-0.042756298614225106
0.0
0.020052446449367288
0.0
0.052888447447733945
0.0
0.0
-0.07552918114997519
-0.6848924581977026
-0.02600401522482043
-0.3327161698026868
-0.0885128233959247
-0.32664407556461605
-0.09641216518850171
0.47593720707989096
0.098892709024057
-0.6479010987878633
-0.7559696263768534
-0.7542349973961462
-0.46908823176286507
-0.09876629773842166
-0.3230823388295623
0.703446812788108
0.9361596149998661
-0.010426278667152955
0.2592967320465567
0.3813361066470801
-0.6853002006899841
-0.7034985793683581
-0.34692250867081925
-0.9288476324009558
0.6651324997269412
0.8250725245580972
0.7081355419437826
0.48559288386609123
-0.3657614819235251
0.32465684175691045
0.36404437118875865
0.9625411403506898
-0.4016930714596922
0.8557809895815562
-0.8967715801879594
-0.1337267985012749
-0.9660449277543774
-0.5524644295313832
-0.8176455237038744
-0.21898144503242745
-0.22524282315369404
-0.753103243882528
-0.5731458215711727
-0.017278022882071475
0.45480860138786783
0.8715846929336166
-0.29956784456436175
-0.04460558000961908
0.41646597296793697
0.23143641128689696
-0.38775963741584296
0.16681063766931103
-0.35292325103889466
0.0412674791500441
-0.8948445328649925
0.17812516474330664
0.8641270413516602
0.8863403457867254
0.8255586536430695
-0.4305021661129434
0.9697282213212357
0.7756599410737126
-0.5906431803506862
-0.40975020230852466
0.5764659230936899
0.35845416801583463
0.9228932036395476
0.43538193117903456
0.01707470371325817
0.2069721285312649
0.23448207631965734
0.1637966402643929
-0.35786293675200165
-0.2238903569199815
0.7581708738242721
-0.4386321722000904
-0.7532568568857434
-0.2503288260804796
-0.9099492397064683
-0.7726451852854733
0.4840009041681921
-0.8019263183051168
0.19556890187583337
-0.9867479899034064
-0.6636552600807331
-0.6445054496336544
-0.9061945741549333
-0.5001237482316474
-0.8152965973571709
-0.6376219347843464
-0.337169752706326
-0.45767139276280444
-0.27905743064334865
0.09393243146372265
0.028958887909130496
0.8202832888262745
-0.6122733104084466
-0.9476095822092352
0.4039880376198113
-0.27075203535148185
0.07614998999848321
-0.6881681644576849
-0.6453451232653995
0.2983926469907201
-0.9509123325976647
-0.1520215876678883
0.27149069608902016
-0.5583201999983491
0.874962561130388
0.045256413085695404
-0.8053103444699468
-0.7074069497178819
0.6583335258102974
0.9114601267587099
-0.5218454341047296
0.0942488437122142
-0.6665136116548867
0.20064128096301515
0.8098965087231681
0.5922925961693746
-0.21993966946033705
-0.027823292559004065
0.36898239460998217
0.7791278070297722
-0.9395225338040498
-0.26264073702448476
0.9052023430835194
0.05422932771353306
-0.5126610539249001
-0.3006165010514634
-0.25032533739501583
-0.2096176761840629
0.012266797352782063
0.2598188879588861
0.2822434651711576
0.6207541393665543
0.7153945033522562
0.2782022243562541
0.9030679819004903
-0.059427345191141345
0.6226832545965543
-0.3887066530583201
0.6909588242684128
-0.638366366189953
0.5329216944033313
0.9668658735180968
0.7269448231199884
0.5479273426295663
1.0366169004453638
-0.17738787169517667
-0.8893489097995428
0.14792270843815358
0.7763726063827658
0.3468660160583208
0.09102903657385153
-0.8147663116912809
-0.753434966143814
-0.7033665714247199
0.8901658459715276
-0.3773602027868166
-0.42735218242997663
0.7329410870743823
-0.08314759398506011
0.4037960465309307
-0.6441515287963859
0.8019233772913585
-0.9309688839593695
-0.027992216193274633
0.3306458634658196
0.4762980989564089
-0.824247672955259
-0.17682661812789954
-0.10030359251456211
-0.33699613386574345
-0.30637818634602176
0.3237493205172276
0.2385986747299802
0.9855292696356166
0.8176120431298717
-0.14137491055439066
0.8478065844026057
0.8956366246178944
0.5214933420867335
0.43455261045031524
0.24697661109827296
-0.9203057819929592
0.01290420326592967
0.836294525815586
0.06504544784553334
-0.2052131517308378
0.7630662183764773
-0.014031647225675625
-0.12166540855344765
0.6031858491725333
-0.6841461263353146
-0.8509071403043197
-0.8630953370390322
0.9836998445764042
-0.3699066697044038
0.5298700940620231
0.7498323143762191
-0.24429573048689113
-0.12250442431287167
-0.7835577072058166
-0.05309207372866798
0.3191274641878912
0.054943298169692234
-0.44331729855404123
0.8805450382468343
-0.8305185868119083
-0.8212894285105878
0.7740531329130776
0.5040296506922317
-0.1424617088143084
-0.6407063542683398
0.9512228870573829
-0.7406528492514959
-0.6068356152727505
0.017842100339910072
-0.45131293206219025
-0.44036428268717964
-0.6306186444151872
-0.06102144064286319
-0.7041122234924817
0.8660967858795483
-0.5544712118304622
-0.450917578115664
0.8963756296628627
-0.11833344342503538
0.885543881803289
-0.24067684283278235
0.6822150618165825
0.0690944297005942
0.5133223427173531
0.27800979386866165
-0.5168133170375356
-0.9026298234465671
0.5349338281584151
0.31076950307530593
-0.6462259295885691
-0.9032308138485605
-0.2925692551378323
0.01923672383472
0.4349454471912464
-1.0080333971288202
0.6063176844411964
0.06198475026723571
-0.48066693974562075
-0.3572390778435135
-0.23075665579143334
0.5807377118671875
-0.12146142101237001
0.4131014919504903
-0.27025533700653354
0.44235521930066657
0.28498770441237964
0.9652559276741264
0.9846647368363659
-0.9393021462888393
-0.3051869202094419
0.32064631985474157
0.8680264934417694
-0.6488429488600999
0.8980070999370906
-0.9462244297527502
-0.9029105476021333
-0.2733165844304042
0.23673635327710518
0.0449075920536437
0.9114727414717037
-0.4521403912310511
0.1535891958431168
0.9024601932730727
0.672564880653679
-0.33342340415273153
-0.8433110687141079
0.24234105351221658
0.49133785833398036
0.4895654375869236
0.6994963382799713
0.017174388117110695
0.4459453160660233
0.47753934765703576
-0.17922046230759378
-0.2716300120996445
0.8998277655777427
0.37883661416245284
0.11338600874528582
-0.7088523285796298
0.18834616179981212
0.22497077241957186
0.461624002498658
-0.4952565340848092
0.5405488581705706
-0.9731055061569294
-0.4420986972503088
0.3597459265582732
-0.48854745516092146
0.741335271581203
-0.9616792835627629
0.459652393729427
0.8835338293430011
-0.2500191112572517
0.8778842425635112
-0.740169060383641
0.32608500156012066
-0.540735569988728
0.7547239846660433
-0.17679104072219554
0.5921649404321883
-0.8480201643129048
-0.6601044161629583
-0.5276632171776479
0.4944661289593999
0.7614919314479576
-0.9534969527683825
-0.7012115929431814
-0.45011441293739507
0.8920366107524331
0.13213924536967747
0.27970786305840434
-0.3013763308573696
0.973063765403714
-0.6249487149361223
-0.5363130621693171
-0.03409319061330662
-0.9945947149510781
0.9685947248537665
0.96724549523007
-0.619221585288578
0.5223567599424537
0.9465377795905635
-0.491893178873007
-0.12813572942081408
0.8240442945039135
-0.9888161852016668
-0.5331192966693894
-0.041416550205097824
0.5201444580454886
0.32694627730204795
0.25666626442990026
0.7092613743660285
-0.16039279973563575
0.6438813675329218
0.9855445270263532
-0.8780893229230231
-0.6946705995405744
0.004088926102493007
-0.10830950674236295
0.3151360402013934
0.7318755058796407
-0.6485102463415804
0.6812819396142067
0.06511479018971333
-0.6317271837274119
0.09733691189714855
-0.3595982179736965
-0.8914185344352651
-0.8171856066333367
-0.93900083916385
-0.13355113540095753
-0.7002181189723846
0.24143918434893186
-0.06716453017298307
0.05897837617129409
-0.20007686518951412
0.32707712136552813
0.5983176359272702
0.8608615653639498
0.00385128159577941
-0.8926046799063032
-0.8491754721413989
1.0134003742904731
0.40466568146439424
-0.24356365557863816
-1.0632000461546378
-0.1632708633935025
-0.7647766364596336
-0.4315388923286665
0.5927526234452376
-0.11848416951915755
-0.658097008005575
-0.9383789817766626
0.9570559759672901
0.7313889765180903
-0.9007130479637793
-0.35881838815559974
0.5271140805899838
0.36571722809120377
-0.19916050616222442
-0.5975612535797679
-0.9609859830201994
0.39867677354675
0.6020583150003378
0.4424328843899641
-0.7874426619638946
-0.8991710699350703
-0.41116633780273726
-0.5621211472983896
-0.418573427743548
-0.9038896131299445
-0.480005356869704
-0.6090782725176456
0.36295222586722975
0.22533746098830432
-0.26699742355274436
-0.5352951258132411
-0.33670203931653253
-0.8451308551725081
0.006731304657995096
-0.9379074056071135
-0.4827713090189909
0.8131303083644283
0.2284610961724851
-0.4747433077238481
0.9706772443250664
-0.8805523167599374
-0.040512430807394084
0.3585444425312412
0.14594836428616506
-0.5588389549392987
0.044989470131017395
0.18636456750676378
-0.44540343651692904
-0.5398332583284828
0.434505825227934
0.7943030251746215
-0.09520551600712057
-0.029590273179695613
-0.746396732384091
-0.776523552228602
0.9004555538177614
-0.6183021057347664
0.28722952847048844
0.7150138993601749
0.01816221003057028
-0.6801917539450981
-0.2494023949531201
-0.11286738327706303
-0.7963160815304144
-0.38190416920983306
0.23158358305428847
0.2987755882145211
0.5643972785413889
0.5514130458048665
0.5359719963785956
-0.3651375873425098
-0.8249002676456805
0.642017467269163
-0.2823104137882071
0.40264382248281483
-0.7313848936002869
-0.27413703975595016
-0.819434250210956
-0.059171559757787096
0.10974744168287494
0.2817292077472059
0.8285336312825307
-0.06595848020526685
0.10860144921764808
0.64560391420789
0.7539470214967963
0.9435095499880757
0.059921369107243105
0.14095297962481418
-0.919947948317422
0.2839857962320331
0.9374438690527356
-0.125536780747476
-0.48959713586863773
-0.005515847072266891
0.9970880369326944
-0.3735718844068766
-0.3250485779153711
-0.9506164749880479
0.6175820546993802
0.09055559429553073
-0.7693426063083564
0.05944207904723508
0.951201515622526
0.6782992112503741
-0.6299688956612828
0.1988438225108254
-0.2373611422746842
-0.16043511892522924
-0.09538939574381056
-0.9902442675353704
0.9299494423075099
-0.9034002320630657
0.29303045683031925
-0.3639543652642101
0.09860382986600619
-0.40960477750553226
-0.8223558197103856
0.7353803118539126
0.5682794931179835
0.2766067183871912
-0.6611940490350776
-0.2244239532222474
-0.8201170949555034
0.14681555779813604
0.682432698718055
-0.6046903131743748
0.10475998321895186
-0.3304693157947914
0.43204447542365454
-0.5865047640882985
-0.5018844295013549
-0.4499836659728943
-0.6119555365695541
-0.44910230406320184
0.5810156135989564
0.8237713496686456
-0.20091479724792372
-0.6894894116603207
-0.011080787746670234
0.09323388364824234
-0.4430128299825493
-0.5888689125483506
-0.8119604794717376
-0.08824825734486752
0.1533443953357283
-0.220852467953212
-0.19634564284801526
0.547935488745982
-0.9713510846602065
-0.3499998817426766
0.6288476492692849
0.11840675483126573
0.2834862868056392
0.5011080577304359
0.036776586081294596
-0.6407059110988582
-0.6104831476302082
0.9313622329235915
-0.3518080483672228
-0.2492252499404224
0.8458010873005367
-0.6817398079410674
-0.7532162140345904
0.6865076849551159
0.3598252587530404
0.11814309089897224
-0.09001869450335513
0.5378324731002653
-0.02007394347769587
-0.9582427043054653
-0.7545548601584376
-0.9218175057985523
0.3145930796451076
-0.6825233756463832
-0.47710661899794227
-0.43012335170241006
0.19904997694881543
-0.32465303969836423
-0.9968938457004308
-0.03468266636882838
-0.3729801172934857
-0.8184876657752789
0.5704415326684376
-0.2982939519645762
-0.2010931830708218
-0.7210508207568828
0.49071225448166866
-0.9260613594521566
-0.7003433633709797
-0.812408555599611
0.8694022292641835
0.7707696198443517
-0.7261780287101496
0.8252204158526028
-0.9765334526207565
-0.6424916504862912
-0.500827567274926
0.7397336494273455
0.5042384207301139
-0.19181861938548894
-0.2824157314055473
0.016762109255779
0.16933502962660318
-0.49145599393037653
0.6433989720786939
-0.6600503384397749
0.8815518681868542
-0.37773487947013407
-0.6505961381440488
-0.570856158905142
0.5735197328592265
-0.23767112811467908
-0.17623862801908707
0.09013059335534684
-0.10570821213988485
0.5366339072196884
-0.13317843238641558
0.16596703580856872
-0.7701933747398544
-0.4502945910449597
-0.08485566846288761
0.6249203472963458
-0.7455056924107852
0.9706399049250181
-0.864516657772306
0.8217601949921531
-0.36795530058576054
-0.6447058076295608
-0.678325905305533
-0.6275096496935655
0.8917314278674775
0.603986446649744
0.8494506101731666
0.3080457362169038
-0.31869807858515586
-0.9583233476283355
-0.6428710018675818
-0.2720264212393937
0.9542185857091499
0.5052986762268368
-0.8312560870800378
0.5952813732124413
0.4021280012320312
-0.8701661279638413
-0.03178847688114539
-0.4663355119810736
-0.16767695331914914
-0.8824936346459944
-0.3559102564582677
-0.42861087119473673
0.26567479619556683
0.3335477353743954
0.5483593553892684
0.33902099531350993
0.5764051267936783
0.03764896278745122
0.499105765392754
0.19268043948364588
-0.38866755136096054
0.6004312685263822
-0.014127063831787412
-0.6653619155134511
0.6515105973071718
0.8366467847209293
0.9486121864506314
0.3414064603863225
0.8134155401857484
-0.1158675375118623
0.649810748117595
0.643588284119099
-0.8817964587011038
0.27761117595901985
-0.08852312370552307
-0.01739818788182035
0.8401624408775842
-0.14822891478443512
-0.9188300909657521
0.7335273404566227
0.8710046717789997
-0.23758168669936808
0.5471133842369956
-0.7570522021553275
0.1220960844569472
0.1866666437661784
-0.7166489858734579
0.20034503325267283
-0.10250784269843427
0.42054351808212664
-0.5195129551470516
-0.2386329570002633
0.8731104928695383
0.9264650814113018
0.9710974994370758
-0.3723154716831912
-0.9703997090984524
-0.08672458395844598
0.239469525865885
0.9735140768792847
-0.25885129097807497
-0.5265943445236263
-0.41576741442604637
0.18357281938617476
-0.42165670153558166
-0.277633030656379
0.22445826603554853
0.5142502883073614
0.8293355252053649
0.538177964762041
0.626711880995194
0.37332396194630846
-0.43457601656988487
0.7955648305915983
-0.1671947141637109
0.8707309272506214
-0.8503828634204762
-0.689887335501083
-0.9494849972698549
0.5160565074649883
0.3275024873065877
0.7167644899000818
-0.21159892236281164
0.8078213462335961
-0.6671042521740482
0.139530446951597
0.3906843894430174
0.09867228743850398
-0.519069583478286
-0.1614237566471166
0.7441032247260129
-0.8559317778269908
0.7069824886662198
-0.2725271469137094
0.6657679286240703
0.42401613451823383
-0.7228741327576582
0.10027304236459104
-0.6527874895275549
0.05351305173391241
0.05327723475127022
-0.29354372167788906
-0.5423189808020472
0.41286413152201074
0.943321865066231
0.6126388293747825
-0.969185324332742
0.6586245158721867
0.8358137664382559
0.9814616877217137
0.6623704479236088
-0.5099459634460397
0.8766256343314764
-0.8210525274256398
-0.5942639179790081
0.5396632145519067
-0.08040896419938703
0.46246483677423145
0.8036098501816291
0.09951654177508407
0.9814661559826139
0.3243506627299251
-0.6059428689364535
-0.30985779018678095
-0.6144694496025684
-0.7680805601875438
-0.05363710048143888
-0.956124258587673
0.08814362322293717
-0.7354246870420725
0.3238347198325644
0.5830561644736043
0.7946424962604159
-0.4163840869246236
-0.9106530586881677
-0.145640603046962
-0.10639413583496804
0.3593877037009951
0.8706581566138109
0.029607662192272684
0.7902596861585582
0.17313511365394496
-0.19000607227630306
0.32948926112697086
-0.3390387866383231
-0.6288500626886173
0.014474691215503821
-0.9562409272757064
-0.6080878308582089
-0.3128539381240991
-0.04310670303805986
0.8022440524130738
0.7126416754604235
0.2751584577217536
0.2906892516522893
0.7856162093479009
-0.9940343931553297
0.023672328201087486
-0.1859550618438035
-0.6929800945166109
0.8590534891822208
-0.8957055846774005
0.8187587241920385
0.917976179236545
0.8358666460768243
0.22946198408965068
-0.8664242152520325
-0.06861122958869484
0.24877484443702524
-0.24976321573986507
-0.297436661665863
-0.018425460942858907
-0.031318014856249965
0.5683104468650009
0.7189624437092552
0.38880452532795085
0.04584310384391854
0.5271202820704513
-0.7209761482303876
-0.6601020026957214
0.15173212330249902
-0.7451076817501694
-0.3402952557267027
0.7148958091024384
-0.45063837094141374
-0.18781452850813962
0.8570966410749923
0.6136057171914342
0.07118766633458073
0.09740573280919662
-0.006681244280858811
-0.8169920278631522
0.09836680836219351
-0.21987156488229243
0.022378083448119916
0.6316357212327939
0.0
0.0
-0.006650153352847759
0.09745278675685662
0.0
0.0
0.0
0.0
-0.04196778196310099
0.0
-0.2450332060478062
-0.44470292616002594
-0.35272860754276136
-0.3746459792293164
-0.009687348997638567
0.3561945122271002
0.6805646177331774
0.6655638218495401
-0.02614504592341263
0.4910996297151687
-0.45619626495697196
-0.5770512105698093
0.3118646144507262
-0.06683244217442574
-0.3467089031106978
-0.3376099664969745
-0.43548962773941335
0.14215657860075215
0.11585225418417838
0.309979071943181
0.4790179843547411
0.46920464306511855
-0.6165585036290258
0.6123780445467271
-0.5886874092862835
0.7380584251018396
-0.5081191891481691
-0.4974624647241265
-0.18935676132789414
-0.5733044559488658
-0.939676967054925
0.9016081039843962
-0.6482025665150336
-0.6554662073195614
-0.9221251397238581
-0.3467269686349008
-0.48886713689726763
-0.2811902739595684
0.9876896488934286
-0.8054259412126374
-0.6728651347080734
0.16021192681111485
-0.27600179781361667
-0.08588762135663908
0.6121548864089152
-0.03875976031955253
-0.647628263439104
0.1947031812879938
0.17382524925065107
0.8379146033609437
-0.2066089379157694
-0.6082555956721835
-0.41904842686826416
0.7185820151048827
-0.5680602075186383
0.22075429982978437
-0.3069128705298507
0.6542152152612251
0.34076281438648015
0.16758489164698206
0.49895520910941693
0.15667536475450716
0.5807961515212744
-0.33964158316163506
0.6756230514242108
-0.5901342126108873
-0.20822096414398983
-0.9277655060521512
0.029563061878954175
-0.7811586833414279
0.19687305288896492
0.3921151800144544
-0.6597659150376323
-0.01672905343157094
0.32633733511445184
-0.9405220165515895
0.2079623099446677
0.42746568067932045
-0.4038024135159124
0.8728293692062745
0.7233310311308683
-0.6599472492086584
-0.6506431374130695
-0.886441280890568
0.325798725967666
-0.35576063143330106
0.2533773003098334
0.1482917211761703
-0.35892985220829954
-0.06561733449684826
0.6645963991709067
0.12344883994031768
-0.7062409592901839
-0.3745092155989982
0.579281009707932
0.412143247354118
-0.2893529065336864
-0.6912350804241904
0.49754367175846714
0.6682811696636792
-0.1382967277561955
-0.7137121351730986
0.7357825390475461
0.8041855417648163
0.9339163890479858
-0.7575358964397172
-0.052150659146423584
0.23710167130215276
-0.4931748077556948
0.8487738818307435
-0.644858599676783
0.6353572222125861
-0.18496240043337225
-0.8243413204244423
-0.9221007361604046
-0.9868222081005318
-0.5050929261443178
0.4227650874349689
-0.025593459496643378
0.7442245162222569
-0.7846034499725578
-0.029368193429093692
-0.6156932187161017
0.8749665422640949
0.08512692044206441
0.7329181221185195
-0.11347642680155223
-0.09473837428192633
0.1319725158480778
-0.33579423569984734
0.26111788664808167
-0.8748880418723641
-0.5016873577779859
0.19576667360826677
0.13030124454476333
-0.5917527194888912
-0.5952217145421779
0.01022744246427787
-0.03498171355346824
-0.11559994507900548
0.622126506430553
0.4413657133514268
0.6115832891485
0.06252346716171231
0.36825234611954305
0.07282876671445138
-0.52701269618405
0.5831464158330839
-0.6424336910208306
-0.7463733589691919
-0.16649775031840797
-0.04304648593265825
0.4643404332173151
-0.18655807797232882
0.572972995353944
-0.26175381852999213
0.8720047306554068
0.29362770905044755
0.6711796144007312
-0.023035064946551165
0.5063631562368835
-0.03963979025000297
-0.47776317384314204
-0.7097439223971207
0.3872293921377621
0.34691089494276506
0.28051913222074576
0.27256328404010355
0.40273531458798884
-0.947970325609765
-0.7013104561513166
-0.4075212041684706
0.12721393056235958
0.9283214897051832
-0.27535850677651164
0.8215258935833565
0.9906596309185274
0.8757547191810668
0.06272656351478229
0.9648438068000678
0.2594992816909123
-0.8002522745473284
0.9144556183802071
-0.4740132809985045
0.14284434565029577
-0.9069529245899759
0.11518418058492896
0.39319306905224627
0.3955487818639401
-0.1817065936934099
0.40600693337709926
0.5727886436226572
0.2898037323608076
-0.8058531831241678
0.275967808748415
0.5230956994931377
0.027532658261564258
-0.05977323506008658
-0.7494314653688439
-0.3569645861643391
0.05473828345121718
-0.6897016243053686
0.6082031141192281
0.8510390113018302
-0.0011246532728711109
0.19553808024138153
0.261073631778475
0.1265488967395041
0.47463922923852686
-0.025583983166265423
-0.2498652062701867
-0.9294458740999321
-0.9962181816086915
0.6616578343911621
-0.13745999111452845
-0.3949236495221971
0.16070275710801907
-0.8032593624378392
-0.5741603461883567
0.9933355115604481
-0.05459312038346731
-0.780010293838922
0.19852145551335698
-0.5789267934826247
0.1081655406823796
0.7532563130702303
-0.5398008554985876
0.4237486405546126
0.2982291134048638
-0.8758044019974949
-0.6925441899481246
-0.6681480118427614
-0.6029751077533478
0.30052300996986325
-0.28523215155839377
-0.3888716921913802
-0.2871928223984993
0.46344291888824984
-0.17660642775356417
-0.8428120381452846
0.47954104259456787
0.6666741601432431
-0.3970019924916701
-1.1050968770716496
0.16156538829098932
0.7348661767030522
0.9849329408062573
-0.4499814824967737
0.7443419125934372
0.3627016569670094
0.6744568622272005
0.16541577968400212
0.9608644896840384
-0.796308584871117
0.9876020378748196
-0.8553083040042166
0.71514449634161
-0.25916358488388247
0.5366946907093333
0.2595657664974391
0.0
0.0
0.0
-0.06219927711446186
-0.09513301533829954
0.0
0.0
0.0
0.0
-0.13404771492543205
0.44800777131346403
0.7347867591599044
-0.5294515396674178
-0.6741139165862406
0.02242799948425045
-0.30983141515195545
-0.7529431879978258
-0.19529754304693037
-0.7663674333556179
-0.1310895043755207
-1.1758486346038008
-0.9504746363053209
-0.09225848510024326
0.37949547736117073
0.9548471748448877
-0.8711361878035495
0.42084610019378843
-0.005165443783591961
0.6424499400725677
0.06853620440413688
0.08825679400897758
-0.6891317612664234
-0.4990642735898152
-0.26123341278294276
0.9670498345555585
-0.9027282854215568
-0.7414286716899001
0.18207869292007217
-0.7828256984458586
0.5493570999294746
-0.45354267138717597
-0.591333633777116
-0.3418398174621715
0.581850287601775
0.9515507024140486
-0.9703882770971157
0.7550776501807885
-0.6142543960172133
0.3137847856065943
-0.886002924138519
0.8845901648816563
0.045733096388090866
-0.5434129156063214
-0.13147262784852942
0.8689610422583707
-0.6324205665744136
-0.4376774998538082
0.12224285493646381
0.31027092876832496
-0.7442862633823517
0.0
0.0
0.0
-0.018750576025216376
0.0
0.0
0.0
0.0
0.09334711512634238
0.017773193119894316
0.08711532935159871
0.0
0.03843340526873785
0.0
0.18273707288143887
0.0
-0.1282650498257819
0.0
0.0
0.0
0.1732734331393877
0.3976839927909792
-0.6972169114342832
0.1722098796716207
-0.6330494267414986
0.9338360598343056
-0.159122764711743
-0.7023513009704987
-0.30700097680981175
-0.18115219537722793
-0.637888746836752
-0.19756204059215232
0.11534316560400093
0.6126374388229341
-0.5302373512936436
-0.019347865749542725
-0.7455458139209339
0.9283789368745105
0.8090808847337585
0.03193058431628759
-0.217620940823531
0.2524437921029219
0.08847059734629759
0.05663931635846753
0.29207698469330523
-0.44468607308152686
1.0180563441828707
0.18260103881507206
-0.9464757595733087
0.22038676410458868
0.8678591380459106
-0.06590155722235314
0.2630307092206614
-0.1912045698899183
0.11580941926799126
-0.5703595296399344
0.4020097377279598
-0.22069858462804248
0.18039714295989406
0.4930136109568608
0.9519362555409165
-0.02991471978443716
0.49033092895468977
0.023646043093051405
0.6425027593594519
0.9513596179817583
-0.5107732338909143
-0.8348027014554862
-0.9431713274055846
0.46674879587733487
0.6424090027082092
0.57321031536759
-0.5435283977522212
-0.5469025833273289
-0.2299467555111272
-0.002131046608871978
-0.4032843317319854
-0.13895329684313285
-0.37299768555878265
0.9414095849002773
0.5296950269420106
0.37691114249018565
-0.8288714366011682
0.49263648236070134
-0.7930898723338478
-0.09631897073757933
-0.9929388372692414
0.2324315494485485
0.5101929994617744
0.9083233949051057
-0.06974962425637732
0.5601440916502836
0.5069446515691136
-0.46704228296339334
-0.30125524923124614
0.8213812500557951
-0.2554756296878091
-0.20221366528644935
-0.5351405330585775
0.03746638192169938
-0.12062674066490886
0.33242889127712316
0.06184399221371286
0.5208386805237936
-0.30031640364252365
0.15292791671395944
-0.7748822529947292
0.9553433281027996
-0.8973883156969942
-0.9683369439659772
-0.9486035619792583
0.11605540994677654
0.6958522335295863
0.43183551594916403
0.7132179994673989
-0.5509351915179048
0.05906585043086299
-0.22015963695312624
-0.8989084746348344
-0.9920217260114849
-0.010330095589334176
-0.6540521193575008
0.37321192606941356
0.2148545601577212
-0.6559200793969464
0.16170437375161328
0.4578239170920282
-0.6255321074995199
-0.317832481004642
-0.41983358332564347
-0.5698189404646685
0.7805223134651623
-0.8124473156352654
-0.8495623971189163
0.8379213855576491
0.8528205393077156
0.5540030587322464
0.39825024840174583
-0.6666674427173871
0.7011584168445348
0.5376807823981219
-0.15534625319979023
0.9969123589677062
-0.15514291525764645
-0.034985155273773216
0.5397168498666519
0.3925822471452942
-0.12078158954034435
0.23959103760414402
0.053735952410649546
-0.6589419876877318
0.5137115085601969
0.8416564433159517
0.9772302694176641
0.2913180941802787
-1.1951726227756445
-0.07743838046491636
0.6714066731045929
-0.2564154518509165
-0.6851215111514004
-0.2677722950172623
-0.0599431315406147
-0.5092637101289466
-0.3804639265079939
0.10667624602015713
-0.6496816102431866
-0.6135413674569097
-0.7472386398858448
-0.8517044500969657
0.7273120832678772
-0.7865088669899014
0.9601313137600291
0.2311513665976841
0.7642188845599227
-0.19104284904278712
0.9767211516226697
-0.7312484159703899
-0.14530366847693932
0.34904066904546815
-0.42951854484269303
0.012602557599701747
-0.7027789473295571
0.6555765352768921
0.252947273821166
0.4371185934170243
-0.7929946197687264
-0.09662352405240204
-0.50701823873019
-0.9519107018646147
0.78874313131365
-0.24313242537050073
0.7911635473273384
0.6685771689593347
0.4334189186295485
-0.11762830422620871
-0.9539264575825224
0.16371985931996869
0.6633781548927817
0.8278642337531014
-0.7175084468653181
-0.9220455067379387
0.36608564554697676
0.5882708659618763
0.22729232468837424
-0.48836368554974197
0.38702427258288696
0.5326669371120083
0.21231804417270728
-0.14610060970484207
-0.555736347574566
-0.905823461126029
0.10678948510057351
0.7817017273347208
0.41050376636662733
-0.6033580915209942
0.08422607749567335
-0.2449665067749789
-0.9650305948162334
0.2942039941534629
-0.9484616110720925
0.3045042386945414
-0.24952492809082671
-0.49221832089432027
0.8231425443618698
0.6493513309730211
-0.6762777804440452
0.3935926932184515
-0.18452160848431798
-0.389049522551721
0.10879983474956623
0.8847167505707665
-0.1913484458141359
0.2589152401167887
0.03900711219468794
0.3592323122457166
-0.5718860751594834
0.9428720630968035
0.8122498889185548
-0.814319241917579
0.16267831667690594
-0.18675041409966608
0.23181004227003185
-0.4472405516106468
-0.8111147572174103
0.8194306476570428
0.48824672382991374
-0.735677412353084
-0.8507104515753905
0.03851212136125428
0.8802387049395473
0.0
0.0
0.0
0.0
0.0
0.0
0.0
0.0
0.0
0.0
0.058624741806837355
0.6957119545836139
-0.6294574821311496
0.655269814683428
0.8944027444204923
0.7335486414224228
0.9810986486184192
0.040604985749686184
-0.6588424533334553
-0.9255146761556455
-0.6024577754421738
0.5683089169326674
-0.34634230685929257
0.4512269048966788
-0.9171870711383687
-0.4848677842472302
-0.6391765086826711
-0.965154557128019
-0.29319619247904516
-0.16553015460293907
-0.753563724561618
0.359002236789694
-0.18630117913884714
0.9096814234540456
-0.013466216880627213
-0.8207136191875479
0.25591234851462974
0.9681510497972565
0.07421121875664285
0.7830892671125462
-0.33690056456654216
0.3146026971672278
0.7970595607716959
-0.41063495959755336
0.7728315955030944
-0.6087736831730772
-0.5882904847600732
-0.9026273860358773
-0.503146506909667
-0.8194085338782562
-0.016717042419026773
0.5199379567027036
0.07668164791520193
0.6120516966870937
-0.24496431689611886
0.09943152002415734
-0.7041262836829458
0.4765742683598613
0.5408481126847713
-0.6292929695696747
0.9843437103184107
-0.6712033810342144
0.14739267253062893
0.37363910703531067
-0.2023012861645197
-0.06930994999568352
0.05968802251447314
0.40735228173379157
-0.7019975396115938
-0.7512294995477709
0.18810617452906603
0.3334892918674182
-0.8624398453501592
-0.058881385025147726
0.8020341645509503
0.0882697598408444
-0.4715616308236663
-0.7211636078333155
0.25032597068581697
-0.0013672228665821962
0.8272133744285797
-0.0019358657914931854
0.5772620715751986
-0.9825701267811726
-0.08883051256003527
-0.9929100869614158
0.37947903110027514
0.9590941459739019
0.9761675401921335
-0.7948591219518051
0.9514946700117493
-0.9415633568849386
-0.289493701769948
0.6028279630344664
-0.9949759249453902
-0.08015365004368546
0.500719095152286
0.016761037182152716
-0.43254028030294944
-0.22414325280185887
0.2845435021571922
-0.6435924009594785
0.9578365121162602
0.8256320178577887
0.22454926781167514
-0.882789117751958
0.03627833838459771
-0.37615195131411494
0.9796923281424471
0.9508203945760314
0.4944796107931724
0.733618002289999
0.7392030207809692
-0.9710997481240118
-0.7383641656144913
0.013394318780584948
-0.3027800391366698
0.9542178517426889
0.48492804286449787
-0.7624788378763119
0.8212821835841673
-0.26695287906261833
0.6650366972266908
0.18059263122648428
-0.46734436106118205
0.9137078414759705
-0.7271623869007582
0.31290902574254975
-0.4792713055024127
0.7788433400902481
0.034824468773317685
-0.1800051058890837
-0.2797634097395052
0.22297098959607276
0.23207502040472971
0.7568526763668582
0.5928691699752613
-0.5238060267403055
0.3950531086827547
0.1404276785687819
-0.42704220505408563
-0.2806616682874554
0.9254207648466872
0.10994861618395801
-0.743117384392159
-0.7691035534788877
-0.39042773731735714
-0.4250391115954901
-0.14367998753603284
0.7267902043556469
0.19446993428216386
-0.3010317539076208
-0.7322508627757682
0.8797689660831962
-0.9647386256182333
0.8217772143619957
0.22629190832920565
-0.11673707989076744
0.6207785592395629
-0.3130083525234729
-0.7907385818658732
0.28269284022081065
-0.22267072455545778
0.020478797285287786
-0.41851503104752585
0.662756374872445
0.6774769406520151
0.9800301618358911
0.883522536728927
-0.9982105587250265
0.13488177700781062
0.0
0.0
0.0
-0.04507004043125066
-0.07007955286846392
0.0
0.0
0.0
0.14863643728574494
-0.06225612514362577
-0.1412768590607436
-0.5995837130844395
-0.16703369399227475
-0.3598694336197028
0.35555871002403294
-0.18686348496485583
-0.2224985864696163
-0.10431760843022264
0.3289498484580061
-0.009541263903154067
0.08007504508074846
0.0
0.0
0.0
0.0
0.061308206898503644
0.0
0.0
0.15256793161454824
-0.8907142830750858
-0.9323693939144755
-0.6713580548906674
0.3114475715637033
0.6571474530738567
-0.388330119777919
-0.12880731882712287
0.14709362118378877
-0.5071872853789919
-0.6275476971725034
-0.9063367511979243
-0.9580417061025102
-0.041182590920745846
-0.7355872746896324
0.9311030963356053
0.21163641448149462
0.5836816995752452
-0.7721882500466997
0.7583764833908693
-0.4840850050946658
-0.14854529345744535
0.6845571187603248
0.22912829622224762
-0.5225435681714969
-0.02097787609000501
-0.40829436039006306
-0.3103092118474056
-0.4026578416621158
0.6087323006448906
0.6279026891481585
-0.6128053021544269
0.7159164523639843
-0.23207766803990948
0.11785521739406635
-0.8472499501192143
0.9865124927836693
0.7065411461729925
-0.2816645458636087
0.765585679664534
-0.6344106047979405
-0.8064531872295636
-0.19419052800814307
0.3166593315664042
-0.426807578612066
-0.4585545636213093
-0.327221623729246
-0.6742515124860684
-0.7887793726081771
0.8398304080865697
0.1364529964005992
-0.6501137363437455
0.23897059644812435
0.2890068476105887
-0.9781467542955907
-0.6187986955803382
0.04725953997892632
-0.6340306271104249
0.6667735336833374
-0.20356006041701047
0.34492085361381597
0.16335559061332144
0.2253734617971447
-0.7198372345667774
0.19540309021566693
0.3682990413697349
-0.833129714187246
-0.23942453137095887
0.3132647977072073
0.34723435117017853
-0.44024215162352265
0.011112817561457211
-0.21376850311280982
0.22578486651611152
0.31180204588933
0.6588707390220632
0.8848538540297519
-0.900871637133039
0.8522860083270856
-0.8226181113715638
-0.3676381384866134
-0.3975001318350764
-0.9379521763776689
0.9446327631425613
0.8730950469389376
0.4048289463209598
0.6652870496450161
-0.4680205672180533
-0.5138153638197112
0.5204472165553773
-0.2698228244789753
-0.33182726514882976
-0.7590507430716432
0.9078775970008452
-0.2401898392871073
-0.3806214823254932
0.10628230590789767
0.7097142342617067
0.5158376076224656
0.7051431988073984
0.45831802730590665
-0.3341935824641473
-0.8095615952003319
-0.592506821698102
0.6986209381328958
-0.7752557199373735
-0.47581477081348855
-0.8502239519083881
-0.9182345157498804
-0.47754498966510606
0.8092178841854737
-0.30902600538130853
-0.18163029641789818
0.14941685591635825
0.49368569215021996
-0.09395968651565467
0.2035026911887161
-0.6850516615971198
-0.25171880619947373
-0.7146019321333208
-0.5341106130299805
0.04821469465317385
0.47815831603176107
0.577449931859843
-0.3219238419930541
-0.3772953173059703
0.6484625573613778
-0.1760532193321369
0.221763274859329
0.611779536810431
-0.9782568584683036
-0.3481940057116405
0.8727360938587452
0.518595676568669
-0.7034405308306115
-0.1729645184292703
-0.5835305076331896
0.7983658752766467
0.2490017917360816
-0.7618418955644005
0.7282811262772722
0.8661932016182996
0.9083346842467309
0.6892860022634573
-0.2629331468391092
-0.3839874932184322
-0.4817373302892731
-0.2709670113569196
-0.41335876214970413
0.5287374601561383
-0.710905088972362
-0.8681202664773569
0.19613337766586436
0.7103725527823865
0.9228967642024217
-0.20987827173655815
-0.05166066625316512
-0.15473990371235402
0.5041481993734684
-0.27780825453792213
0.0324780073464217
0.296067039873414
-0.024017309514784202
-0.25167572063326404
0.3151316466214129
0.1494736358120889
0.6884627383194581
-0.5818128223668744
0.7603991562178367
0.3841589565361394
0.8264211909813212
0.7232439983048731
-0.6089378528333489
-0.591405142840697
-0.6121385141504141
-0.3624300234880433
-0.9439815790207022
-0.8536405851702649
-0.5663201250951009
-0.8592524551676834
-1.073546174701367
-0.4318708083135434
-0.5736731909785531
0.6978307480114758
0.8766359189143751
-0.9166948520607021
-0.32830034269585884
-0.4925206502461555
0.14969666302526052
0.9133830325140628
0.3875632206878704
0.9708758483229365
-0.11412064797160193
0.5827245933660958
-0.39736835435692197
-0.23315702449146536
0.6664718663109748
-0.669166109549183
0.8198854666361247
-0.8003083644834794
0.8289371750728958
-0.6378122113042514
-0.2914135186373614
-0.6194898645962479
-0.9158437315735568
-0.4971357904652356
0.09293752205898431
0.5287129855909937
0.2843523104178196
-0.7245407072406211
-0.983543586580812
-0.3925049353398384
0.9726093496498555
-0.7954984028213588
0.5874968024743114
-0.0024672174789790446
-0.5147512079362908
0.6684398251334582
0.582626462278439
0.21638745464857445
-0.1005338098651043
-0.100627441949942
-0.7803571401019094
0.631498316195423
-0.10172204332327883
0.36391333700572925
-0.5452455317029792
-0.7185660819163053
-0.8004269525041778
-0.9751489493714469
0.9633592430986402
-0.4478291789426263
-0.016693654013942405
0.5320367243377048
0.7009902272185422
-0.5530573178205935
0.22482345504166945
0.2280149726186549
-0.9060981141880073
0.3734659133559295
-0.45919626241822686
0.6424664169736658
-0.9883134280332531
-0.37307665360294173
-0.9683991351047632
-0.15909244027319547
-0.5387289887665281
0.5522357519486771
-0.5195862800169033
-0.16474361303506363
0.47785418366287735
0.2380852828277521
-0.2907971872541082
0.09650316922143709
0.09092198253128125
0.1557540403329698
-0.4520250306190605
-0.2095355611668786
-0.042596055838444835
-0.4309399919274403
0.5611729370887604
0.02990588631826671
-0.5061273933387325
0.7982687522445627
0.7809817454975655
-0.8288662947919437
-0.4549931699129537
0.11025212336795266
-0.023596080669603725
0.8979941242415149
0.6360434977269266
-0.2808720338220425
0.8776351019686544
-0.21010324204383193
-0.011064117795112516
0.9074726962870983
-0.7376358599349906
0.0312085532227675
-0.808023621760982
0.13872277086589754
0.5404234027676087
-0.35847407685071375
-0.9304317614298288
-0.4083958507105925
-0.7900183026722793
-0.5433814638366967
0.44375008608126704
0.7188844222164181
0.22714473927478798
0.8045586325729592
0.5677983842425103
-0.02638145588229101
0.8846653727847336
0.19281828877120533
-0.6812114310027544
-0.2802092494644045
0.42045588277756485
-0.45470709392596387
0.4278202059619278
-0.43297056904636916
0.10006477577085458
-0.5107445323099611
0.4012609346785989
0.24257155985668066
-0.30943248289740444
0.10119196762281092
-0.2137288668130124
0.6764188881297836
-0.9759729738642924
-0.4078871238851509
0.7435755550277621
-0.4383414462276065
0.02875642660766453
0.8130437522337131
0.771231505002321
-0.7878967839827666
-0.5410281128593741
0.863532034303462
-0.9418050890248486
-0.40524236569788585
-0.7867688659923955
0.9537590553547324
0.2203694932529181
0.2240694075923395
0.6920996850390926
0.02821497260779182
-0.35384243716599495
-0.35134513068320267
0.08864882588865197
0.05268137108374438
-0.22655661247275893
0.6648721151771355
0.6405383832864415
0.6826897772373224
-0.2312922290071393
-0.13686011469065895
-0.27071882824084237
-0.4262068414433726
-0.7705056336040688
0.2378088342930209
-0.3409530386000341
-0.9757888313864853
-0.7832041134237315
0.4793996061202601
0.39217101465732274
-0.35619100457629993
0.7088973225343322
-0.4504793994654748
0.05554423505225348
0.6019004183478092
0.2603725548762841
0.0
0.0
0.0
0.0
0.0
0.0
0.0
0.09365140949694048
0.0
-0.07695016761757835
-0.6557916526251937
0.3661448964624454
0.5479403011340126
0.1144411519167472
-0.0395925716761627
-0.9312646728958938
-0.6136449306717582
-0.23159263315819056
0.28204547468906704
0.3283711588629339
-0.45940778365579815
-0.3351055215384353
-0.6104944895318212
-0.2535235112419979
0.9268331688779026
-0.40485008938457123
0.730369003773192
0.8236477028575782
0.647725405637612
0.10636526216924791
-0.8506468131976725
0.6436487194869474
0.25474457266410777
-0.3450875360866372
-0.8669083177457018
-0.8724143060987157
-0.5491839252555306
-0.3572216344373944
0.7990186251430111
0.7379242076576618
0.9456271082808664
-0.44089136170575616
-0.660920270838393
-0.4501876213760041
0.10097170118565901
0.28827224731830864
0.8459557445356183
0.31386843937828973
-0.8034248964833428
-0.46505698756712355
-0.9059543116957054
0.45897791456074244
0.41112583141733694
0.2558040922901801
-0.14385525850850445
0.2851945417786184
-0.9526066344888535
-0.8657214903714694
-0.5409945962540916
-0.33191309591054763
0.0
0.07645168554345311
0.15976312057063652
0.0
0.0
0.0
0.0
0.0
0.0
-0.26806788291765865
-0.13853405147360576
0.8819672536051515
-0.6683769308735528
-0.5971338144011
0.2555538673510225
0.6848839099750166
0.6721028699525786
-0.708455096359115
-0.10895854425905993
0.795312437419563
0.044053482622820495
-0.4878176986131321
0.11955002851792962
0.252402559503772
-0.23155713505969636
0.8653066828121616
