-0.5138151121181302
-0.652647245532693
0.99873783809362
0.10570954520414699
0.33718998514825227
-0.25587348837803137
-0.1670461042453415
-0.6164896515246807
0.8769657727602214
0.2511043489694007
0.6049249588570129
0.23704664907332584
0.7694406760181322
0.15406395864899447
0.31132504026922403
-0.154722813466166
-0.620036519772309
0.1946471641908858
-0.09361690091493213
-0.1411878859942992
-0.37518247402571037
-0.09354952495401458
0.757140721609717
0.10307059911045657
0.4549911519541747
0.6764074047820059
-0.785519601470057
-0.18041513567149758
0.8630180955381197
0.9927481985219968
0.8520612723690537
0.20778842269106046
0.8712120480078898
0.6353008878092488
-0.6872518472352871
0.06049466302365514
-0.024314653288714405
0.2601558873137093
-0.7845031308859305
-0.3273875172299632
-0.829535374591782
-0.36704027335127787
0.26767276147942143
-0.8100824879381869
-0.21537761568923797
-0.23561412053460518
-0.1436021866286663
-0.3425756970451319
-0.6171665209321293
0.05852207538804133
-0.6479096120818295
0.4228981820295339
0.14727444157717695
0.5036221195874504
0.3726147672635056
0.5282602400266112
-0.4340444916785632
-0.010331856744631551
-0.07152897057779284
0.8061817530863293
-0.34449275758977427
-0.8312963005404028
0.04964213505383119
0.5604332758676271
-0.9183939086791346
0.03306197694372259
0.3260739567632083
-0.338307532906136
-0.31570827491256204
-0.5779695396403179
-0.9108238993468498
-0.3508204633754264
-0.34012188439746693
0.13030113521151998
-0.6812682595520072
-0.11607548018764313
-0.16209160924232768
0.3864181419233972
-0.4816903203009175
-0.06480311347350587
-0.7821475451023339
0.2756286500127041
0.6302380703348065
0.9334371504858476
0.43662437312803015
0.4356393479823819
-0.44578382654694426
0.891365961781275
0.8401703807542904
-0.5394011038430264
-0.253250089098946
-0.47000613996667684
0.8615394470575211
0.9898000847139947
0.9972425262577533
-0.5863671778028541
0.5052607554851312
0.46595899391398304
-0.36979410355327524
0.5640172263999244
-0.7688380686895581
-0.39013617083793606
0.004751684431233416
-0.6528168919013835
-0.7871092716250716
0.5023619202684821
-0.28997341815064703
-0.18690833622660952
-0.7166148889652613
-0.3762122436885946
0.08469241909608805
0.17564193525832028
0.9980120260615377
-0.9253483243311007
0.1349554709630587
-0.4607032367191728
-0.7394475377323564
0.566796250015279
0.49824931777274273
0.6101581720122904
0.0
0.0
0.0
0.0
0.0
0.0
0.0
0.0
0.0
0.0
0.0
0.0
0.0
0.0
0.0
0.0
0.0
0.0
0.0
0.0
0.0
0.0
0.0
0.0
0.0
0.0
0.0
-0.05840983454880571
0.0
0.0
0.0
0.0
0.0
0.0
0.0
0.0
0.0
0.0
0.0
0.0
0.0
0.0
0.0
0.0
0.0
0.0
0.0
0.0
0.0
0.0
0.0
0.0
0.0
0.0
0.0
0.0
0.0
0.0
0.0
0.0
0.0
0.0
0.0
0.0
0.0
0.0
0.0
-0.002896572568145707
0.015596281053284474
0.0
0.0
0.0
0.0
0.0
0.0
0.0
0.0
0.0
0.0
0.0
0.0
0.0
0.0
0.0
0.0
0.0
0.0
-0.1376216174957294
0.0
0.0
0.0
0.0
0.0
0.0
0.0
0.0
0.0
0.0
0.022383696668034886
0.0
0.0
0.0
0.0
0.0
0.0
0.0
0.0
0.0
0.0
0.0
0.0
0.0
0.0
0.0
0.0
0.0
0.0
0.0
0.0
0.0
-0.5986237812474866
0.9248619281534778
-0.26732672479677677
-0.10941936164401733
0.5658797809119855
-0.453181948938139
-0.39815779853224464
0.4074378160165839
-0.4510463644012448
0.13031693910923492
-0.26977113633110417
0.25950575111373286
-0.6156855288931082
-0.9799429291154245
-0.24819742573921943
0.41345162587097734
0.25876737967499186
-0.8470990564427316
0.6200095077327674
0.28968192919088387
0.6094886988121713
0.6754864609594826
0.30813826226869145
0.7840820296718294
0.9050521554403925
0.6357364872898605
-0.5726341010059799
-0.29604441817108795
0.3706773497976181
-0.21155062914760436
-0.3666153341613072
-0.6302297370331129
-0.5934245042104103
-0.038817461907888706
0.42796192596809446
0.8039352968975881
0.6163624989617573
-0.6028093793191176
0.6969961891394112
-0.805383345876346
-0.5820381338479721
0.8073930670977809
-0.46977415325462824
0.8748987588197201
0.7711614527594939
0.6451043462923767
-0.7424686284493234
0.05967681802442404
-0.4363472077100068
0.8490863578285623
0.6706249344593183
-0.7463984020464016
0.7105257063307369
-0.08086957559227326
0.35649274701747413
0.38645659781549435
0.7333157804571129
0.7426155824933405
0.7553593239861767
-0.35478095032348533
-0.8483063107117643
-0.5341040523834841
-0.551978025134332
-0.35151967639190307
-0.6529736115889841
0.991149143956803
0.14748811756614688
-0.0977690029847722
-0.06616231224299951
0.9545953706129342
-0.013921676973732255
-0.12066509885441512
0.5459177173469489
-0.692887417887911
-0.8018163987884952
0.7516282803695922
0.09039036651143384
0.4356730473193928
-0.26360671365794897
-0.8133843253605915
-0.33136097257989383
-0.6570723839196406
0.9022499039108245
0.040369132330220214
-0.03360855795192408
0.5242401399384575
0.4687821668368264
0.07385269007489015
-0.12159312798726818
0.5803497905312105
-0.9873598967560311
0.4790900230849884
-0.810598850785269
-0.015352306532432358
0.3640299696375511
-0.4754877098115158
-0.16085486119468584
0.7098625437870136
0.5014500781841427
-0.17734869329539693
-0.8287761819198265
0.6697384797022787
-0.1251409582353098
0.7980144836309959
-0.48109546115742235
-0.10613643762805447
-0.10122292929491228
-0.5458721206401067
0.8344705280279945
-0.8318832855731495
0.6078791415863838
0.052315607443731205
-0.12382849135357787
0.9687320683121707
-0.8032552513619322
0.6647871172184183
-0.662054541507638
0.7915024412175633
-0.21167713582111758
-0.31317323762465654
-0.16005890677071255
-0.27802217896464687
-0.9497349042955605
-0.7159359400417529
-0.17694514423482888
-0.8121473966630159
-0.09332754383965813
-0.33433967269513487
-0.8679627102875513
0.11040201634976254
-0.8182067647342963
-0.17490756749622327
-0.7949982219797556
0.3628205022381791
0.23636203138727452
-0.767781725785436
0.510813884880106
0.6973747300098296
-0.40887458566766655
0.29284033800881915
0.8794711128097068
0.030330478542496236
0.1581789876524624
0.8996315556835948
-0.06432235870198921
0.12794702541321068
0.17867946698860582
0.8201552375498375
0.4350729375148581
0.9130530202856748
0.6985280257380768
0.0527426822428545
-0.9119385445148616
-0.40701706846313157
-0.5672140744061702
-0.007802474020204508
-0.8134377578353587
0.5575438493007658
0.6477368009756175
-0.16996847835634088
0.9472063785658282
0.47124653731558275
-0.08042705106473647
-0.6067254973384999
0.3044205387898933
0.26694894210714715
-0.604461448291638
0.37058688134404094
0.7074657735349188
-0.15185274854638275
-0.6631489629253078
-0.001500141044762593
-0.4999220310080279
0.011382671692584001
-0.6704928284736509
-0.5065266984909358
0.5316962606727345
0.548856515434214
0.8146815146565436
-0.0340431004939048
-0.342084646681031
-0.2649910093813863
0.22693133852437253
-0.5145254649649462
-0.4805946169059705
-0.02653403448735503
0.3100271054729542
0.48388306612499266
0.953587692777379
-0.026245935414575206
0.5979524160018634
0.16345001185028574
0.20435870671545864
0.8319151583326299
-0.8886858707511971
0.7987369389482215
-0.27921347251225037
0.9362214980868284
-0.5349908626958919
-0.6156550993656811
-0.8259410870995108
-0.9288897471461668
-0.3055963673173307
0.7886051127977978
-0.72657249191869
-0.020858237923155443
-0.8679876151210271
-0.8072327336820333
-0.8470156761418901
-0.2588165229333532
-0.5435426160846959
0.4642371308329114
-0.5890466511163535
0.0765763773325332
0.0413710998030965
-0.07126953251578172
0.8913620172680567
0.04888429400320081
0.22922338596468572
-0.42612173381777385
0.5972126048479622
-0.1732004556653377
0.5381933535616867
-0.7469300647031838
0.2701557056842572
-0.07476783012016441
0.2718848565587395
0.3360583149148144
0.39615412415800333
0.6541479227506131
0.9175701801642349
-0.08781345041268285
-0.5317673978645825
-0.12963311303184222
-0.04413450473271219
0.7742304647468665
0.9287649892947303
-0.9407145661412413
0.7593111982098495
-0.6487861488410627
0.457297279207479
0.37099437152467907
0.8517413512115188
-0.2428768360262652
0.46334790724604225
-0.9180812763162418
0.6667983748354449
0.3676521948217846
0.662818007167927
-0.07184742366183094
-0.6661932540232349
0.9462738881834578
-0.7239051299113894
-0.28381879690642964
0.3812942784872606
0.034705489206907414
0.8612253979732349
-0.8719291258991515
-0.20634297993017015
-0.390556676608129
0.7126823617440451
0.2623286293579876
0.9627395023073513
-0.4457811860373577
0.7074857138234414
0.918132586634506
-0.7005872820416637
0.28246835264103565
-0.37528289846257534
-0.31060850202635537
-0.4495389059691266
-0.8949859379057787
-0.6369666207010611
0.18653916830366168
0.21756752628002962
-0.7129658771133176
-0.3926210586025325
0.43397906739323466
-0.7346350480441202
-0.643984034244969
-0.06994331592262104
0.4186448844545876
-0.19612189653311352
0.3396919408421446
0.20960696272926516
-0.07380344840419095
0.829392420065286
-0.25850587633270905
-0.2766460524568086
-0.3366338484731295
-0.2248828090046635
0.18031957999281278
0.8152406298400316
0.9576282461526047
0.6677880174468664
0.205728441163481
-0.14812662733972082
0.6364974315680658
-0.07764717958741785
-0.5488664141656361
-0.30330284706496524
0.3633356356179236
0.28211572176213506
0.8865477111409388
-0.9277921369506414
-0.12841551910076054
0.10254934165956575
0.2752636637517012
0.6230860758761743
-0.6151739444146365
-0.035522212714770074
0.19158589279187344
-0.574012135340628
-0.4332747105006549
0.23504633080329262
-0.9789957990300016
0.6774839209576964
-0.1392628987482989
0.04570372040348869
0.2498291794030736
-0.7530481042736294
-0.43285334838718814
-0.20891153341730728
-0.6599192811918173
-0.9555618834717052
0.10297379125154249
0.49988645176236024
0.10233061394323895
0.7661625399399923
-0.644957334173035
-0.5828008331578984
-0.5888488657411549
-0.8976178877265188
-0.9809902400936312
0.5062573203446588
-0.10808329224628177
-0.7642050043133879
0.8894115382552625
-0.48046118885308564
-0.13237500046730544
0.3645915334917429
0.6358782686728095
-0.029434127342595318
0.2694787948057533
0.022550394574637256
-0.7655982268731436
0.1322745847976663
0.7127566967195647
0.9231639391840156
0.6268231507880873
0.8233530885986229
0.698785436833917
0.840993172836578
0.8165692975247314
-0.20562742419141644
0.6089057104938715
-0.05581843377360185
0.664505501842036
0.6973806699733089
0.3667753945313956
-0.505598694659662
-0.78608209265399
-0.861032754551253
0.8445193060907512
-0.13117881075761972
-0.8578735111443658
0.23942525199821119
0.058025725730553646
0.9912610701147022
0.49982082573523834
0.4951154252988248
-0.5726192256636711
-0.7715677998827464
-0.9996992170334602
0.6988816658354386
-0.8300346102885019
-0.837498914467125
-0.1858059503462639
-0.39407117437213934
-0.918422401634033
0.1883134428538038
-0.407889992184691
-0.3289102560014099
-0.6932964636596739
-0.731921835908516
0.6759224433706583
0.6228629515342874
0.9831194835903183
0.3453966996719897
0.6228246033433293
0.10218134008233948
-0.9246124727116689
0.5370717176897954
0.25568870758356277
0.02382460091416294
-0.2518560016880762
-0.24356309343334992
-0.5123845090142545
-0.7671520009380026
-0.00993975750599918
-0.274038988446871
-0.27750001491446485
0.4190926794524614
0.31047125860747005
-0.22020225655301973
-0.689304948903058
-0.5750111161154559
0.5117461814136515
0.5657635551959035
0.36126616203960893
-0.1290455963193584
-0.7522113569089004
0.14280255401065722
-0.6739620220905558
0.8550588544813149
-0.8372635969400628
0.72932243211722
0.5896265512370213
0.5692000266266148
0.40272597121921194
0.5278073879207292
-0.953247581783625
-0.12060895176594189
0.09950710621997616
-0.4370787716666882
-0.0004710830988339243
-0.1546825029405483
0.8526798375409304
-0.6406716853714258
0.7569666933498564
0.4785927717036784
0.6516734027681306
0.11322306946391802
0.9141532691258536
0.14719274792699122
0.5721292800583848
0.09454712041924473
0.744704137317874
-0.1468916746828306
0.7812170324655396
0.4582304731414346
0.7478638434937523
-0.7513406183118483
0.5251661486076791
0.40103532750835535
0.6720778837656334
0.6586190739722799
-0.009317176508690572
-0.21221501148058208
0.5263319310947643
0.06483222038756731
0.40429953366294136
-0.3342286408436199
-0.6003894783723778
0.22133306335622815
-0.6200943311691263
-0.9536859229000851
0.9492032370403911
-0.14220217408535007
0.5474992366132585
-0.5823039118784519
0.6947733517379415
-0.10578040191729365
-0.4219492931281217
-0.9324460769228562
-0.10900034083979859
-0.02386189970052288
-0.5071974786488656
-0.3506890545404615
0.2246850416594699
0.8701828115843084
-0.24206268024281163
-0.6774143773090986
0.25465358309381103
-0.9057757066068313
0.16514989715481265
-0.0640842506909236
-0.8711047400399066
0.5065299903669285
0.9617744409082893
0.9022847194770063
-0.8570718688646464
0.1239656486919718
0.5954054339632497
-0.7982813937456459
-0.9799135408901867
0.3029266825547676
0.11110214556008402
-0.6328548332627952
-0.4725494831377406
-0.5903644659560101
0.870202329832303
0.03340163777038829
-0.48905810450051224
-0.7472464260708402
0.9284847418307169
0.8906416957102588
0.11895997703025385
-0.3770432047112564
0.08430132314226602
0.3080036462712914
-0.6947457697307942
0.8628165798508158
-0.19103856719247836
-0.15386264020847618
0.48597242622887094
0.7537814889115806
-0.556178986727508
0.32480384444579946
0.86549408587637
0.6888131330808713
-0.2236318108564872
-0.6457700416538452
0.5707956972418449
-0.13092809863775234
0.8242594264506977
-0.9543862185261223
-0.5016780595590464
0.413109265285742
-0.15210494975757727
0.37537309149312637
0.9791529789609241
-0.1942780053477109
0.7011683099742421
-0.1080813457973302
-0.29651939680212624
-0.5378681496680302
0.2516887888404855
-0.42950690807881586
-0.40257236541596564
0.3942091810516275
0.08155322271719179
-0.9313892870637648
0.7142742670490221
-0.21679472735691885
0.071872017505751
-0.08894349044294736
0.553301665873835
0.41472224096383226
0.5880136322552971
-0.5853489721594229
-0.3084050740445541
0.25111100523631014
0.13893480620623544
-0.06819393152896724
-0.964872248937362
0.7969586363867618
-0.20043128500664678
-0.21346718053342606
-0.5014304517344823
-0.0541186611307809
0.23227796329604944
-0.8340404399526786
0.5408499800855826
-0.1712117054965263
-0.23990267425338696
-0.053898653734918645
0.16947561939667843
0.9772698728326559
-0.27434659001759854
-0.35981774453742754
-0.6501756382612376
0.8202473858832844
0.10137998124728531
-0.5875825698762462
0.3400065425528953
0.22929216383661233
-0.9736715891078644
0.15500178053158487
0.3084464608934132
-0.8919544766070129
0.2432158227333292
-0.27623158566592854
-0.05012461452096373
-0.6212897251715674
0.4167021345169175
0.8119444192679512
0.6944974016508985
0.5791774715544185
0.6763020972494849
-0.3251660683628239
-0.800141205946185
-0.8159833837093939
-0.10969200086697883
-0.5891961127563863
0.07127614667138382
-0.9473707182927433
0.49073825795973014
-0.8466360714669161
0.11186805358665342
-0.810102932571481
0.6973492572614817
0.2081498634474106
-0.9787141176511633
0.48405222863183606
-0.6689083796542532
0.5557442633678682
0.8752010096616771
-0.702291623689504
0.9220837025359891
0.4961798729730156
-0.9511658720066638
0.5952619956648877
-0.6456551410921372
-0.8605256514128452
-0.982283138625099
0.07383167701241655
0.38205026248138685
-0.03067055041684963
-0.43683423416197664
0.18321979685262213
-0.14934095844107526
0.23592059542202248
0.5935703579733436
-0.8607832020969248
-0.612151943632381
-0.04246981522517834
-0.18643620467012667
0.9191810397057334
0.49550115632394465
-0.6296140014845331
0.9431693493987101
-0.19313617907247815
-0.8882966248134765
-0.8375766563146989
-0.0673630808233967
0.8369920443880947
-0.9640211669330776
0.37793072034375563
0.9192722827006747
-0.5115080752554868
-0.2640840865037317
-0.9690374471636909
0.34011594915458554
0.8527737392417392
-0.9596253873081957
0.03565174399502857
0.6481697935744537
-0.15817715276980787
0.152843755513155
0.5682242101198435
0.9236473604711946
-0.4951797305890444
0.38733052370869436
-0.7217267923490216
-0.7311186269561194
0.3318502884736412
0.38112350866067457
-0.17435969452112565
0.915132634637186
0.5989649638615901
0.8685197653439163
-0.43348545572073816
0.9081483391534249
-0.6718332259972293
0.6835896822812864
-0.9102837750284847
0.9800482889588
0.6676405533873049
-0.6299061427893247
-0.11332495714159352
0.7798368939557578
0.4129764816343582
-0.35416034378834316
0.43654844216941324
-0.360667679229586
-0.23207583679385557
0.27863739038049884
0.3404124168366358
-0.9906680886180665
-0.03982238526997017
-0.7738987114266924
-0.28904217865202453
-0.66737307003248
-0.5667462253482449
0.11538166208031475
-0.6144771797454047
0.6264158554567694
0.2768335613367361
0.8656250196284294
0.043576639275197504
-0.46358178641911696
0.5853549336180581
0.21941550783537322
0.6205050463696589
0.5866657407653058
-0.5850444832894584
-0.41006948028720824
0.32310957584113686
0.7490773577442849
0.7902714403216149
0.6919150231518223
0.37414510302951776
0.7964247655918459
-0.806037653393826
0.5285058918367751
-0.06418544001630222
-0.8021431970008471
0.07565015844421397
0.9710276962021998
-0.5748896589782322
-0.5282211358717319
0.9036982507299878
0.8215991299654564
0.7459346920846619
0.7588669133809098
0.4510185952749426
-0.921186308101376
0.7732254568234072
0.26573068950053513
0.8019180941768342
-0.7636219008216898
0.045486822615054434
-0.9281569673430836
0.9396890616560747
0.793152715242021
0.13491577030943724
0.8493252125227959
0.11328461612473695
0.5144396210317284
-0.0027961260553330813
0.07886868534805802
0.9628914129118098
0.6194853136376082
-0.7023621961544999
-0.6518840817802471
0.06667383056997656
0.16495083329786553
0.9789750070265604
-0.1847294022136896
-0.173826577763444
-0.6056142137122291
-0.5275483050731227
-0.6027702337422851
-0.5614872711314676
-0.5389828699113826
-0.7068353713391606
0.03804156568439665
0.9564417744552756
-0.8264421529034156
0.39324813307300444
-0.82308927364465
-0.29542440081717003
-0.3194326651021837
-0.4667980802842941
-0.9476107439524872
-0.48127957608853067
-0.20726308510738334
-0.6252030773992545
-0.1971792113187596
-0.7652689571473643
-0.7172109197629402
0.9632389375427379
0.9212688942762293
0.13232271930356365
-0.40653562409760574
-0.24221199421783646
0.8530391972002478
-0.9317228374936508
-0.5787126512530989
-0.5944426028762968
0.8463987349069348
0.8241270394833218
-0.6649480273285397
-0.19171036874663927
-0.4666134654413552
-0.23010047269850076
0.5557038311418041
-0.0023025508297989106
0.6725303149455295
-0.5760985311469
0.5414892975166727
0.8384885525991197
-0.7773544156030845
0.5605992136045943
-0.7668466988588467
-0.6513330629251188
0.6489528261868847
0.849078016022206
-0.6314773421929465
-0.7321827612494247
-0.23109835084321895
0.7777340622540931
0.520809040100207
0.08577991103107685
-0.3006598587616929
-0.4552893106554232
0.20299931100534407
0.11458963334515015
-0.6958292368986425
0.23287126065017794
0.5582022700855049
-0.8445092197442063
-0.49912404519230913
-0.6362490921924846
0.3276213279532833
-0.4056939652067415
-0.8307238033718316
0.8570350495170265
0.9343322454809149
-0.004030105607130352
-0.9979482663528898
0.6102596475497719
-0.6338134502120936
0.27349684114974404
-0.7300667353810055
0.21123363428233488
0.18350554608212222
-0.4650486178885114
0.8297854594235001
0.6721380265378538
-0.42208328385989735
0.3496387044061797
0.003450966857841964
-0.7270558836261329
-0.35401514019807245
0.15009101910352785
-0.7316446740916389
-0.7577478613285208
0.2782382213029948
0.5751195694504556
-0.7358084407443042
-0.0699267812361064
-0.2117110314046322
-0.08279739236583628
-0.45246715383826763
-0.8853635158447595
-0.3320082701018321
-0.654294783861753
0.5051568300093738
-0.01174867946115632
0.7200557278805357
0.8896628808420768
-0.7758954725461926
0.41385699274121013
0.2168275006977789
0.9290766210874392
0.30245334520111444
0.3494684040988456
-0.015492525842161875
0.11044900355762421
0.5575530098195693
0.21046703663687438
-0.6031236461065563
0.9347393144765705
0.43110128007905213
-0.3640328552190717
-0.6859351001577256
-0.575317519609561
0.08302745580040027
0.07392969003899719
0.7508994525392245
0.6938895093093882
-0.8718382804549112
0.37631188493080003
-0.8441244475824097
-0.6831176597661401
0.5022775909380517
-0.7564304030248739
-0.5072176121840937
-0.11459481191867726
-0.13229357139490183
-0.7653796356194744
0.5070885952306419
-0.5312579012222187
0.09855424251737577
-0.4831837051668493
0.08099672598256591
0.9049734616196208
-0.9922094175195955
-0.6948881041749801
-0.4466510615328865
0.16188764959699387
-0.8868928850916583
0.3797170834280743
-0.20563455790256935
-0.5120761774805025
-0.4809619893501411
-0.23178675649638492
0.8119073657794109
-0.9676148980962647
-0.6902716913752995
0.5668175062238262
-0.773400492146335
-0.10502383917258706
-0.16792956776233958
0.3739650178709153
0.36274125608752117
-0.5333548824738856
-0.5282455386819171
-0.45897910277852905
0.6889997035710078
0.2118635997245344
-0.24166168302891333
-0.7287140425090721
0.8879778633548305
-0.043862380808311174
-0.5928124383560731
0.873697846182524
0.4949763341561173
0.30297305195955593
-0.7436801820843679
0.7378622434883855
0.9135551992883391
-0.5285099134644327
-0.41300511154462516
-0.19723735657650343
-0.07506628029106377
-0.009065210583629968
-0.6771300784512586
0.4786264908625115
-0.5287874805848247
0.990330126841312
0.40948903663032077
0.38727520396317594
-0.9961390517968782
-0.7486791280726532
0.2651854400326128
0.2719826510354675
0.2999283704662936
-0.2310777586273034
0.5687325309483562
-0.14828572053009026
-0.09968123974294185
-0.8451138020222333
0.8994054006083678
-0.9523013792078825
0.849760641174105
-0.10313099297366657
0.8611635332510645
0.8320535124958992
-0.9139376081249211
0.8018835004334439
0.4035889720698227
-0.5094793375528459
0.027701677848093187
-0.47137660094068257
-0.06690847245219311
0.7575547219684031
0.9629174564285081
-0.9962377937599589
-0.667603184015094
-0.8745437075780182
0.6293026827300823
1.0083688570822182
0.25718769401483055
0.2816024788599989
-0.264185242571809
0.11096362387560799
-0.9412698282920324
-0.5911719675323064
-0.8798968106332496
-0.46472653455281154
0.6849277444611184
-0.38890983745288055
-0.9000998909640274
0.8183082398019084
0.9649108339127059
0.4878945344686856
0.11403220078005294
-0.7310336211228499
-0.5408275437823764
-0.053127884628884736
0.30955128889825656
0.14097164766440784
0.3318442028353701
-0.7418153613731098
-0.6065140726964691
0.634066025912269
0.5096252878491492
0.5065059781108855
-0.5594081910063968
0.8054242706349499
-0.03394214716096022
-0.476859172481364
-0.43764648067226597
0.9187069630628948
-0.23199632300150652
-0.8014808649769358
0.46273372909399235
0.45387380922932263
0.8308117256010101
-0.6710933176479938
-0.8743115329146117
0.11057261279465869
-0.6141322058201535
-0.3491691824143679
-0.3089248032172187
0.3621062056785471
0.05236193430435809
0.1491311245031881
0.8842285901189386
-0.6155800462863026
0.48559190007683495
0.039584129806726764
0.6938322767403524
0.33441404449312717
0.6680390584310001
0.056959224474529835
0.9583375497131841
0.9892164379564978
0.48504391251088586
-0.3021196193955955
0.2691088040493288
-0.8888071217984495
0.526110732704494
0.004098114637926642
-0.48633787762405145
0.7476511765153688
0.7127788431519606
-0.10657914691940194
-0.8482798398057967
-0.584497701352729
0.3084635305223382
-0.07572175525480351
0.7302010079488299
0.9177753946881133
-0.23057589599947104
0.8901726437047863
0.32348663255688526
0.4732691393491757
-0.6265994453420236
0.9219347920672873
-0.5633831310224044
0.7682789619607171
0.022694230637005486
-0.4147833097835678
0.8674708047270099
0.7669669368086822
-0.06878692115059581
0.8423393157634296
0.7270621551396659
0.1865972225227872
0.6788152166853021
0.6902590659650498
0.6919839003089983
0.5771342254361442
0.5380149129512364
0.5969662610964559
-0.5841028393885122
0.7823462418041465
0.6001908555819122
-0.6051887608149416
-0.7045574811671846
-0.3535161587251645
0.40511748779477563
-0.7932930322975082
0.6110271590352152
0.5337261073382027
-0.7980739340261784
0.9852896508816025
-0.23041235135757998
0.9806828821224154
0.6630581717978463
-0.22819022501407837
-0.6223753321191177
0.921474620101433
-0.1642436302534822
-0.06333278368112105
0.43676529815016574
0.8525606513230135
-0.7562906213490541
-0.05123054269402405
-0.46814078309837015
-0.7640118850143667
0.5090024517482039
-0.4549385925109626
-0.5588384856802877
0.5071062527745587
-0.4708631877010958
-0.43361217326761325
-0.23253805304820974
0.7737922995918973
-0.5599650148196138
0.9475849650848098
0.5103563745346857
-0.6327284247335121
0.0002820205114399954
-0.38509604431715816
-0.10643309157607206
-0.5409949910263636
0.2863998852215006
-0.19616146050888061
-0.6742482531410201
-0.3012244347096438
-0.3655631858754731
-0.8970739203002316
-0.991119158286873
-0.15415277904030567
0.35966600002082294
0.949126461235047
-0.8444290809058876
-0.5367271158197804
0.6066126956477746
-0.506959833865261
0.3878622888042067
0.5414663786445195
-0.210785417395285
-0.026130988151144674
-0.9832541887306361
-0.24994923148619375
-0.7221171584534551
0.8484003802741622
0.02982231151820125
-0.8473184524996433
0.831848067702905
0.15765585031879675
0.8074540883608035
0.021226798619203624
0.3856918931874054
-0.2105684018856826
0.8124404288708107
-0.20811091125082548
-0.43540168908634924
-0.8286584165292306
-0.771799067491254
0.5124332380436554
-0.8844850664224455
-0.7142031167983793
0.00853435974780381
-0.5918918466943959
-0.5113300797293228
0.5876852751614425
-0.5856312765217955
0.31422977256767104
0.39144578828141774
-0.4178359200562016
0.645470716787782
-0.42156618606328555
-0.18735442067611752
-0.5893146447921769
0.46804516377987126
-0.6043927107278662
0.8157872591927227
0.7600036712880813
-0.5788883724300422
0.39754571288079754
-0.4774240197428994
-0.12653502360906477
0.8137955307555254
0.4152714379935909
-0.5034835913777189
0.8514389846119901
-0.4031715053344418
-0.632212228208346
0.10172864959333072
-0.7906663571145263
-0.3500832371833422
-0.02770794852538927
-0.35181783177452486
-0.28567797767810066
0.17890394948084176
0.38859067646079626
0.7496979841407596
-0.7735270187707515
-0.33864651939282653
0.7699651916809431
-0.21111831538365622
-0.8166087275088816
0.2536084820714781
-0.439005215176965
0.20859142449425058
-0.4661792595161256
0.9294091567732556
0.1428254369786588
0.9452216484681957
0.883979931573011
0.6524448053685825
-0.017825922442609388
0.17900553058637642
-0.8525132935942765
-0.543196944006449
0.15816340022081832
0.5660125971142118
-0.4781465344738507
0.4919271326368264
-0.6182242294999509
-0.19553317796413427
0.01746644246796425
0.25532155587544136
0.7054170876279013
0.24529520930312643
0.8604120761486651
0.4574367895485254
0.6237295815328654
0.35037047828386214
-0.36625415057738486
0.053322758631198175
0.4571922211439443
0.09714853883344521
-0.9879454508309982
0.54479706377601
0.16423983449774782
0.9135744906523102
0.4034385014738189
0.8055597219991784
-0.7884759576943872
-0.9161072000983487
-0.21774939157256634
0.9328094341229654
0.26526071540760077
0.6571161415073898
-0.10454295980824857
-0.9229626756798248
0.6779412508775955
0.3347360815424152
-0.7693209322861381
-0.18773552369084934
-0.27238954129323556
0.1283312087845152
-0.2164018826501355
0.323755004701179
-0.20361018442455947
0.17550305750588313
-0.4198950208879193
-0.25436558025253
-0.627725794396292
0.5828675510386465
0.5192036981144565
0.9951480712184564
0.22042339622747997
-0.614124641181802
-0.0003624326343905082
0.9705137870623473
-0.4489939913548691
-0.0356497415462107
0.11932155869322658
-0.6753685495032493
0.8605676445208474
-0.61030451837643
0.7767087878639518
-0.7312865405380513
0.15571931092162017
-0.44595908516609484
0.3222593704718266
-0.18161118172248258
0.11083687512863842
-0.9124163745256266
-0.9083603974500687
-0.8331356255418045
-0.7151834559072667
0.7938796096247225
-0.5825522285752802
0.27045079330359445
-0.4528287245504523
0.10432127200655161
0.2441574736530534
-0.7948111636654165
-0.9374838126747038
0.7069803220420312
-0.8995996191766669
-0.6414685938774753
-0.047802715920481464
0.7015823236834235
0.6460254349577959
0.721778385850572
0.6806304373212033
0.08768163478685631
-0.2560184489622128
-0.34733872159914236
-0.6250991482457231
-0.19941524699532676
-0.4511487061704693
-0.3896949834675243
0.9919419058387748
-0.590982271945564
0.31339254163379815
0.03770359487308372
0.8428313191661752
-0.024978950523441457
-0.4423225490233069
-0.21832029797945673
-0.42697890479695433
-0.5217320759940107
0.5093573834932572
0.0773879591821578
-0.7220168215163669
0.23288519362031046
-0.18470067964794445
-0.6557731822687565
-0.3041861892848856
0.0043508880355469515
0.324186582477034
0.7233705925226197
0.13634769598898444
-0.1899256482032352
0.43907835441228316
-0.7592449949752686
-0.4941396383613996
0.6993904039075991
-0.7017104681859824
-0.5614260864736594
-0.2612939113847761
-0.65341030068481
-0.668326006868998
-0.6254670746026434
-0.887679419458173
-0.2187091598442179
0.14715580620469115
0.6996357280974559
-0.3333676945521842
0.7667401682603208
-0.5708873103156344
0.17423130268283593
-0.3379935196496213
-0.2961770188541555
0.8199063405786207
0.5223158343366308
0.4259367551730604
0.6605939851351834
-0.1879627823685075
-0.9025408638644932
-0.6373903359395889
-0.44730670862268807
0.5265708207096562
-0.812301597585058
-0.6090756576016905
-0.2932113573666657
-0.33698311489906074
0.36571980029492823
-0.41085898526737896
0.4184058469009273
0.49948263834925877
0.7914613940637771
-0.39205138399316364
-0.9229118982890392
0.2148067525830737
0.6780454273482379
-0.4130312957704153
-0.7002928146428526
0.0031629460038622437
0.03315788362190042
0.7800077147752831
0.3126475792903971
0.9966084056960196
-0.7302081718667093
0.7922681125334856
0.904121891548251
-0.4093576771084211
0.2355962324512617
0.5313723187140327
0.48975006530073406
-0.35211482593103116
-0.3965651001890864
0.43960091121451517
-0.925081715601094
0.31661970732947364
0.7865034621701412
0.6083757548649491
0.7388590377071917
0.25916149355382645
0.8992066453351295
0.019821807280185233
-0.043036638061950905
0.5078282157440241
-0.015075516628737073
0.7372255650961628
-0.9182575502765797
-0.41719327668001216
-0.37784236897229473
0.38566196713163614
-0.5331258870294631
-0.026652008180588327
-0.6077617954220442
0.7785478068312364
0.4002675530570783
-0.24531655092512006
-0.580697387214147
-0.4349716420945277
0.5106582186298544
-0.5352971438528551
0.5517306479285322
-0.392000123422344
-0.18768961394217354
0.5355002684097219
-0.7603648011243012
0.7853124490997794
0.2772204031631147
-0.8405863536869225
-0.7611260067437353
0.22083482977845836
0.06828775028334788
-0.21117091517432507
-0.8256329614990159
0.8390832353020758
-0.6058022415494975
-0.6453872345213685
-0.9116823396241718
0.09780301252953327
0.6015252997968319
-0.5893399387752496
0.896965507551641
-0.7606597418440451
0.4755129589054845
-0.49052258658097636
-0.1689833356202708
-0.3222739981795695
0.9311525256883537
0.8063545527202398
0.5207954250345284
-0.003295429447627729
-0.3647169346890591
-0.9827556579097712
0.7349555791091842
-0.33678592754012193
-0.5525160140707435
-0.19771643833763153
-0.7132817469000061
-0.09358242370146286
0.999208695639878
0.07410161822077344
-0.7885540240372593
-0.007691419426665735
0.311241655637589
-0.8180594511109434
-0.927323810252495
-0.3775970043601431
0.49486010696810445
-0.2768938512085539
0.3309929016982174
0.08597710338915077
-0.37212186043068973
0.6832414968673224
0.09211251796781483
-0.45182973425410733
-0.48972974632365496
-0.6058580699443084
-0.0007031664285611361
-0.04140559154080487
0.29565331143379847
0.41624103513308364
0.12706649152986293
-0.8176910223834869
0.9397507755811196
0.19265747628700947
-0.41173756303799824
0.597308776126362
-0.8963412069589229
0.6173022943101891
0.8080012724481314
0.5143319618304905
-0.22433404808389334
-0.045426891159835225
-0.34391150858755104
0.08919908243118524
0.587701310344914
0.8821666180926508
0.15143020593469125
-0.9928939126875509
0.018922010177625737
-0.09333303026236517
-0.5656148585538963
0.06890042703099075
-0.0921336589308317
-0.26085250109230795
-0.5554373991535211
0.617717095578604
-0.17460493244899045
0.9962625687069233
0.6171027798612554
-0.7607605981658982
-0.8933878243439324
-0.15384759714391794
-0.29023431367922825
0.12635939359328296
-0.9598451151609599
0.6921501596119362
-0.1867223245112748
0.6097237273566276
0.7427853736239238
-0.07726107975338281
-0.522499691940014
0.30787482001287736
0.2138088395461435
-0.3191262175534251
-0.3720892159583593
0.3790022092959291
-0.7294910142344209
0.18038591445422725
-0.9374829214225597
0.8652272636952383
0.6103584680842553
0.8464835102936334
-0.7044208542436632
0.43053279591027827
-0.23573307216125983
-0.17409517942579766
-0.8046226046908926
0.7308765995680613
0.22571132057914833
0.9539931810697719
-0.7177832652476461
-0.033051492735826304
0.32163149001958846
0.5433880233059294
-0.7980822772755951
-0.7899643296975523
-0.05660511209481345
0.028998844779248856
-0.6751846926487988
-0.8731516960223296
-0.5922749597377552
0.35185547544975876
0.9181018094061437
0.5194738175504832
-0.13459299499842697
0.24591355163872652
-0.8423829983922086
0.27222559205396224
-0.48721140256948736
-0.0748004954760828
-0.7558421175148451
0.32627590308447196
0.6464162737150865
-0.11351820741142893
-0.3169854893808641
0.2635572008270066
-0.7715850993626101
-0.5139105380914544
0.23538576963232605
0.862676381656811
0.6195548663127082
-0.3910488122873775
0.8988067194591761
-0.6745474321009737
-0.13137175657529965
0.11212841556858866
0.6455765974476662
-0.9957820336226475
0.9660908505001724
-0.054348563938932504
0.030302384176143393
-0.18858650156004275
0.34471110093353396
0.6825683590887566
0.9877469377640291
0.9293434635451339
0.9438105382732134
-0.5890571812707899
0.022815057261685867
-0.4376839440902638
-0.3891023846531556
-0.6822292892710053
0.3855414871872058
-0.6675751902440394
0.15423485855443797
0.017860927981226293
-0.10333721408317276
0.17728557013784596
0.6079248130245103
0.5095492437694398
-0.5587259877746718
-0.7193196496579841
-0.3889221211517955
0.7499276499106693
0.8996466444979863
0.34918751862454833
-0.8854979350239147
0.19225170877764053
-0.6088089138669932
0.7476723073333689
-0.8864360370220625
0.4797930480857233
0.6816728148094979
0.052770129363266305
0.43995348778217247
-0.34879701480887504
-0.6563122033254711
-0.8129383779807571
0.9256865664376603
-0.25221883075079954
-0.24744605077051718
0.2047914389539025
-0.039326917905415426
0.06900866456853683
0.9429212401315905
0.1081874808600427
0.11501735608343222
-0.295786442023678
-0.2837006290201165
-0.33011369875673746
0.2052848992546492
0.40551330406923136
-0.37760800072091993
0.6078465605544916
-0.9485555302149562
-0.3131934954188387
-0.28591905219443237
-0.6596252817508443
-0.6491488635012255
0.5479765194718538
0.6910596085191762
0.32237679534531316
0.2282036305149917
0.6107131044408731
-0.6692298536349828
-0.6940780255779312
-0.6543673116187283
0.035129540432669026
0.748324077695262
-0.10699683334294718
-0.7039271107638061
-0.6533517709680128
-0.21324651788524385
-0.5169894275103561
0.8904938988885125
0.6459521058835493
0.5556488549604688
-0.5873856162626938
0.4376346001480429
0.5984260657686757
-0.4496010641883048
0.4376123736296418
0.45927754673177734
-0.07176912271650404
0.44837276715358043
0.8705349162404497
-0.4263722998161974
0.8162106250153807
-0.6830950558085858
0.11288377804825256
-0.047699942709641396
0.029277194128700668
0.09924877762850626
-0.825492162154154
-0.13205388242998573
-0.3453114468943228
-0.5190928750912593
-0.6558686882438487
-0.7772990588673061
0.8405940668666625
0.998662217153927
0.6512259864334109
-0.3489808336154534
-0.4232358904589244
0.06648181162005384
0.19997890314597688
-0.010998910806226947
0.45912163352984137
-0.8892395694696673
-0.5656933546180805
-0.6501636794842394
-0.9607937271489935
-0.10932503619728706
-0.25933263635313875
0.04768698147107475
-0.8068403529581898
-0.5702053025699785
-0.5239866296399389
0.5476155187016467
0.9398373196336824
0.3410429973568274
0.012359182150159409
0.40482947835091165
-0.9885735902783399
0.7411796717077648
-0.9107860875332272
-0.8879474940402436
0.331378072643683
0.6667175925786457
-0.1026954794502033
-0.16190602472811788
-0.8830435216343187
-0.6558204086110611
0.9332674110881227
0.6430147582282115
0.3795730419032759
0.5311540763352463
-0.4078931550867877
0.7012713842836669
0.3616208483264636
0.6257384215378841
-0.9122526539241507
-0.29802335852141315
0.8216308207288787
0.4612344772943473
0.43113243263914636
-0.3834373222534595
-0.3017606946695155
-0.04190215772873085
0.6280600453005882
-0.3128868580556827
0.15167933050884108
0.8282553136290611
-0.24132494966685636
0.07382336289559155
0.3543136513697922
-0.001688478493328649
-0.9741650693106265
-0.5048978392936883
-0.5072177331699088
-0.6932639165947867
-0.6099134568139817
0.6273839584846375
0.7187259692454075
-0.4276734598393739
-0.960354903568964
0.12147978565298678
-0.10474234542024607
-0.7132707564275742
0.29786692323241737
-0.5269469120016197
-0.9966470567843062
0.7008298409836198
0.7073016387177182
0.9448874547170416
-0.5448579996862202
-0.541837564129805
0.14268566771728208
0.8588992450594639
0.3009192921094863
0.03388272963139549
-0.294388426589975
-0.451932704324993
0.19890641832982858
-0.7933998763550547
-0.2458081122762199
0.027360558808251723
-0.30547887591041567
-0.416028195899089
-0.1426433306608097
0.1901708286115651
0.5133193462010022
0.23112747701780667
-0.832934204166101
-0.8649173556980649
0.993073313028594
-0.9322160694087487
-0.19874894849344038
0.4513916504836599
-0.6963232333116525
0.37759670510411847
-0.4619884357163928
0.9422871248095517
-0.07419381020176075
-0.5777016581716772
0.9176799118445147
0.34211156422926137
-0.06611459488134463
0.7460548537513529
-0.019927487936348687
-0.6116717117443189
0.05310901256038081
0.08917799341752941
-0.20977351883989503
-0.9837330043463639
-0.7285898544691001
-0.43406510122323216
0.23046296312468706
-0.9746640649552407
0.7589263225883662
-0.6967007394384404
-0.9518937583046483
0.9428157409404629
0.14506135018397281
0.05421357709511754
-0.8975367634258058
-0.6526447773584294
0.0802388496269586
0.4431115428729724
0.2888181081883001
-0.6660048558885683
0.7593570773951035
-0.09511486094488242
0.5748938860954456
-0.36458973188990274
-0.9967756062600162
-0.4699795771115003
0.003988720305736493
0.07916173733295717
0.7225561748022906
-0.5741847385079197
-0.14790855455832297
-0.8565654790576158
0.9489502807563925
0.5533506084172817
-0.4241735425795332
-0.3750838137003951
-0.7528163094955491
0.37132364408663987
-0.9520802640821846
-0.06083293873431228
-0.7895454694125101
-0.06094588472419571
-0.0893213665743382
0.5003709639133476
-0.9300471438091624
0.3407068631290264
0.7199324135527216
0.8590665930059604
0.34157691589385597
0.7038408630877804
0.9080325780391216
0.9722258692427035
-0.15010305615994723
-0.5309648192235068
0.21775504903280374
-0.9541240963591293
-0.8487841907750167
-0.46461279656916377
0.4958181087799427
0.18384565678811993
0.30076878282538666
-0.431132777477629
0.8872521629772177
0.5978167785234492
0.44028346865787715
0.04228189216045619
-0.7118063110677237
0.40142193905020673
0.48642523088900136
0.5064010571289623
-0.9943662982063821
0.9122127603025256
-0.43084835697809143
0.9263684962023171
0.3861864116028322
-0.5060859816053231
0.866279878540426
0.8113769824644501
0.7750430579477243
0.29946926034769117
0.6353134708373525
-0.07534622306256988
-0.6121009278391765
0.17846904580665734
0.756279130698345
-0.20482940154299456
-0.8370607390895273
0.68250150643387
-0.6502910436398717
0.04931433241537975
-0.28407520199522907
0.9698910928893225
0.0681892851992616
-0.6023693006245316
-0.3199665327430352
0.5149754043705606
-0.2633549808086173
-0.10452585760106903
0.2724027747962381
-0.4889257013915542
-0.621031590535235
0.23034952972946465
-0.2373954602449413
-0.031211978615002467
-0.36298111565546143
-0.4757804140192057
0.4338868931313826
-0.7317646859677229
-0.6937991066143467
0.11896746961074478
-0.664843673900126
0.49967507409112305
-0.511085178703925
-0.22272571575573696
0.5720492140644098
0.9534909461963108
-0.7978392940336154
0.001627694122009693
-0.9627100615500621
-0.7723887274253685
0.8544406655487959
-0.4309280960600044
0.8418073529645644
0.2807937474759068
-0.7086569748346587
-0.5114757538649308
-0.16720586789009295
0.16374657974727835
-0.6936512640742287
0.5987291768787466
-0.4533370571794906
0.09096921158381699
0.8553140625337654
-0.9449106382814447
-0.7656209863610179
-0.704229154043883
0.09805726361695188
-0.04828886297292523
-0.06704466055503655
0.3471633092037305
-0.6985298187313866
0.7599901298820269
0.2976013243906781
0.42417764568735805
-0.35170648054541886
-0.023639446902254946
-0.029377603531272722
-0.5971145867971366
-0.6688301082413901
0.8726484920542839
-0.5901121771361
-0.7325265940011754
0.024690966508044143
0.40233277456298033
-0.6576744286000638
0.48368781840715847
0.1223021013648593
0.12568819396431685
-0.8676582578688063
-0.1722829191353914
0.14068913405652772
0.8270193306403257
-0.6540070844161012
-0.6055368758564486
-0.4067934390302852
0.5383654846732602
-0.33562674914313506
-0.5859383873749917
-0.11740207939494218
0.5843200508478721
-0.804024960397189
0.5675694168294618
-0.9403518119220478
0.023358152028416068
-0.053042509490224043
-0.10944785797420731
0.9929830482299022
-0.3165789098154925
0.6662774031538687
0.8274154314474209
0.22126506202180218
0.6067034801236368
0.3804015257765385
-0.5938467928325184
0.6321068807289041
-0.3019771445382562
0.07592675245891245
-0.7638935570689216
-0.10802389861419304
0.47930441972572413
0.01402050460473947
0.6678631509247603
0.45432816746173166
0.40363702593962025
0.2874843816150372
0.05840529798601013
-0.26190450600860826
0.4583367267085323
-0.265186049288608
-0.9426508501741708
0.551362898540549
0.8126710879774794
-0.3943010303098683
0.3746201303195842
0.5181017963019114
0.18414802129240204
-0.7827742756849503
0.8788517684888362
-0.4773840393643147
-0.5514503577022916
-0.1269869686377565
-0.43390884668544727
-0.7884227837206552
0.3386182465704133
0.7102112665240568
0.6871911921351819
0.3339512696229412
0.6503615385120383
-0.1998783816635914
-0.6257457577184522
0.46799344830227096
0.6813372815216827
-0.7735056602179482
-0.07678287573199105
-0.9211863930883191
0.8342112100581671
0.5270621416224541
0.018863556507490165
0.9498123691317717
-0.4693031264212113
-0.5485691026072659
-0.9071327222565695
-0.5394230631934613
1.048495116978568
0.037301082577651856
0.45715627635287026
0.6460544119246501
-0.31937457779718303
-0.4089047158477399
-0.7749451798625802
0.845459805432067
-0.9812532681437134
0.21186021835501245
0.03806824558224542
-0.911562578113781
0.5776696844856077
-0.24352982745571738
-0.23563235685604011
-0.07003902049565092
-0.2068876202557921
0.8691546121395473
0.5834458809173251
0.5153801526023278
-0.943815486644817
0.4116396976092409
0.6825417893638508
0.5347129604957748
-0.49461714483752584
-0.5712159634262806
0.6868466354432037
-0.3191136807428816
0.8923262476103233
0.6413247482688278
0.09991329466120424
0.284450698701455
-0.954116818988052
0.6535868746955888
-0.01825882707463644
0.11130132771216794
0.46439080276594913
0.3058034820498372
-0.9553971666547174
-0.24472636812947424
-0.7187590829997952
0.4457739668079881
-0.9270383594768861
-0.2403873668611367
-0.20710799794347268
-0.0888301846507582
0.47445923853854
0.5075516959012454
0.9764069142433682
0.11746879407171096
0.9668071466781669
0.7081942353295156
-0.6280078374893197
0.9542286094949624
0.16123070251946325
0.24917822917645505
0.9300475148692184
-0.11487273304882506
-0.05478929081613049
0.17608034459966992
0.6045046600049346
0.31107452307242056
0.0010139531860392584
-0.2404699948870539
-0.6892779011399619
0.4324056192033383
-0.6584132385809343
0.8456575732634537
0.260208677907914
0.978055549178036
-0.9769746987666088
0.8498134438978289
-0.2613312214430512
0.773948039489903
-0.46060674240351895
0.8069768854066448
-0.7142051800715183
-0.30809535298124513
0.9474589272610594
0.3764558607975135
-0.3999479295747921
0.9792892179505677
-0.9874468049839122
-0.9765596946398203
-0.6870546895065435
-0.4932269162760279
-0.9918138257860407
0.6528582097390085
0.9764132099285967
-0.48636429399726877
0.12723680997782538
-0.586986850051199
0.839308421623095
-0.6379152805565582
0.3046602168262802
-0.42132931175107546
-0.6431766696760857
-0.5734353532787819
-0.36797717390946716
-0.6051346911135411
-0.32091158136016906
-0.41247605269570053
0.9032255351742768
0.155769364767939
-0.3361142044156058
-0.6617115906081652
-0.7221483177512711
-0.6955057734180334
0.8198598393193195
-0.1050828211254966
0.3428173644445187
-0.2593005357579603
-0.7999286605755089
-0.038908788127908434
-0.6821992682904743
0.4224361158277232
0.051437143077326386
-0.8420521275045674
0.735001376894491
0.46995451517439446
-0.9986192007181951
-0.9958766850417482
-0.07986356489346291
0.15147461509103244
0.6249231209576278
-0.2336480857691483
0.4383778305094821
-0.755277923420892
0.9204644022951278
0.46990309199331004
0.5325267047749735
0.023166498473697894
-0.7200399294717645
-0.3100497245084719
0.8961068718682863
-0.820141416117073
0.8846689148319702
-0.17161380806458637
0.7339924144808601
0.8839285884575385
0.49810631720630894
0.03341560420915157
-0.14554627670801779
0.7153585536957732
-0.73503617179226
0.4958681553191062
0.6985560668545279
-0.7412577664508637
-0.7192010533276687
-0.18790828328010334
-0.06847483216883798
0.9652431908131551
-0.3482530786272815
0.19635153859191035
-0.6958708531706355
0.38657090189418053
0.19849760366817137
-0.8927492554884966
0.5390584590043237
-0.902062482243331
0.6952291346141963
-0.6351212581824788
0.4521029116857309
-0.19465436191990948
-0.9736729720554529
-0.4436026818363201
0.1657170297364403
-0.12332646159198246
0.8654211425941003
-0.3422191603242102
0.5768686715994715
-0.2078746390486339
-0.07946987688950391
-0.14653459287890036
-0.9380564476014601
0.19417291761734523
0.3149173158406213
0.8386487321826432
0.5155319632909294
-0.0865957981035963
0.9187279464347125
-0.4836456812471981
-0.5846299849785137
-0.16790035946673942
-0.6166926499906158
-0.12360175230195525
0.9299870135944848
-0.21554017650134671
-0.9094771677172593
0.3276122895813667
-0.4009929217235859
0.9744300002060191
0.8986174845079697
-0.3863336237918811
0.030838526019675516
-0.6629025018491589
-0.815298085557159
0.03250891500923947
-0.6523088993691932
0.19355904934309376
0.8522007467948127
-0.5096133754686805
0.14863163050561767
0.3592413516435029
0.9273254880966593
0.08783314978026358
0.5452785682540744
0.15889685312711044
0.5408282581429408
0.6303682450539829
0.33104466296493773
-0.25268801527673856
-0.23240824792404124
0.7827054010332082
0.18409940377020306
0.2445186506459618
-0.6332066728753825
0.3117481920005847
0.13871679806378978
-0.26464359408768545
-0.22357852953043023
0.6222353906895866
0.8085768668941808
-0.3276994888593523
0.20804044713832992
0.9352959713771998
-0.5346759903535263
0.270801395247233
0.2755180286109822
0.2223890291585502
-0.9622437149512875
-0.05998815782801192
0.13397044823288295
-0.571326635066495
-0.4340406442240694
-0.9797039901997153
-0.6582058452138562
-0.9137742755169473
0.5810958176333139
-0.27149382344899764
0.9494165364491811
0.7529062056894564
-0.6861334112801185
0.7746187364897403
0.8313122642756783
0.4007814933943319
0.7642305222212717
0.65322939400914
0.9402080911013246
0.2845239473882597
0.6593880169507456
0.8010718813283921
-0.2513974727371082
-0.021731569158177644
0.5885938153717774
0.8864750499334488
0.6169266157901672
0.10160834807260821
-0.12094229373243137
0.8005928267684772
-0.9896592788683389
0.2960419745353249
0.6725348298213383
-0.2838015666317981
0.873655959042215
0.08050194410242617
0.7714134728875028
-0.5419813193422971
-0.8162504355740123
-0.8897023565628499
0.7046939406506576
-0.36456547560552255
-0.5306160994785276
0.9207782980830033
-0.3252141837838276
0.3662806807750547
-0.7999633057499935
0.4698329410179001
-0.31893690347245873
-0.9169857886301853
-0.43877850208234914
0.06760107122094072
0.8639060205161995
-0.8658938102286968
-0.7527919959830129
-0.9363602664368342
-0.5584674108544923
-0.6965022403238323
-0.008659944084470572
0.6309047944068471
0.9700079062321816
-0.3318954736208404
0.6684967518826472
-0.7838384160251948
-0.8563459010260026
0.9042358247044825
0.0729455137431041
-0.5692675528154334
0.3111594405111697
0.030875835257389905
-0.18686832027201983
0.9749845296573878
-0.26190860513094494
0.3978413200548425
-0.25570349020477856
0.9924035205467359
-0.09360839588757908
-0.870140801544375
-0.8154892604002302
-0.6959554940385426
0.6613795611724385
0.49185782440100057
0.15456888486173237
-0.2985548011884487
-0.85187457069137
-0.44589408394293395
0.4967308266017789
-0.837551178071094
0.235560600302118
0.4529200164357783
-0.5494966088791631
-0.2583805637456007
-0.5385787917627605
0.22537019555377236
0.22500234408026398
-0.37262658318396236
-0.25562742009480566
-0.21044358794295537
0.09947576727934115
-0.5827599704568918
0.15366836936330297
0.29375432170031823
-0.005418686671221584
-0.42057793172328306
-0.9289587602970975
0.26824370648366536
0.5777434288252301
0.23501951010352418
-0.9995734963793717
-0.9256213488748273
0.45950889132980444
0.6356239198611424
-0.15298929395956073
0.986498798688817
-0.675751033910543
-0.26196172916986815
0.14181890666121477
0.2650378448176689
0.571472744396424
0.8971400489528965
-0.7794228810573252
0.9017586468957914
0.5290629064812178
-0.7662846282917675
0.3536393831201976
0.6836033613858401
0.8912475961361175
0.23854071366251306
-0.9092151140241065
-0.3643297795943843
-0.24022603259855546
-0.19964221632074342
-0.13755221163389786
0.33370979830524733
-0.46092262460567657
0.4817903738324867
-0.9051394216669741
0.44005898291959356
-0.27489430886073984
-0.05165358015982813
-0.25577523238233435
-0.5951688337191383
0.4659478741614267
0.680002210884876
0.8364934344569603
0.7024815732461909
0.005125805802655536
-0.12092182708803789
0.450128591301278
-0.6657047317819442
-0.7290080313613541
0.07838413781560094
0.9247257380144565
-0.48852260683693616
-0.6279459809603709
0.04785029340254465
0.7386765841074294
0.3836624825719359
-0.37882979773052017
-0.04801347254270261
-0.1693303553051766
-0.4284240181858091
0.4566535360844628
0.31064463291215305
0.1576739375620091
-0.9535124946035891
0.8306245334011728
0.1348496138333135
-0.3910656005062749
0.21740467105452588
-0.6908365179516227
-0.5365459714670064
0.6667532144012354
-0.8100166391635493
0.7528025564501966
-0.730176980729895
-0.38645069132086984
0.6111317007425863
-0.5659455087599932
0.12088888882642913
-0.3995860593904672
-0.6011161783768206
0.7844771298873048
-0.41447595275128735
0.48422758058441784
0.5429919560957905
-0.8421330898701369
0.956535490560448
0.6818660691522516
0.9472870902544166
0.6081276284301587
-0.5281769375575447
0.8817424148059585
-0.8441823907611916
0.5878662924472742
0.8352611577759184
0.20756190671152774
-0.23937423906347055
0.7113355388806641
0.7131540548309203
-0.6299399601970559
-0.649692827058648
0.11055204310089972
-0.8453276211410823
0.692695369626261
-0.4052741116279268
-0.9058191742014061
-0.12029982850143561
0.9491211932324966
0.8420822730143207
-0.28806661914403087
0.8040898604316729
-0.4710616535793468
-0.7971439329415733
0.14568235591991496
-0.8458935811892423
-0.947578686324986
-0.632167953726331
-0.8268114668321136
-0.39682262502843724
0.4904655709394621
-0.6990089161955106
-0.21308128199263443
-0.955776910104432
-0.1202277515606129
0.07386923088985475
0.40161555600619114
0.19422907862028005
0.4371039694861647
-0.08801604136421903
-0.5064613432627871
-0.6290991222901388
0.9875738037414459
-0.7681638238352477
0.9536942494099943
0.03323784151335185
-0.5523765791375688
-0.1807011681716415
-0.7001424628145416
0.8956596523901772
0.13219010078508187
-0.503347787805527
-0.5880477451496067
0.3757938846634026
0.4251291086054705
0.606831480875683
0.17527060576402387
-0.6575482470423017
0.11641721828059293
-0.18191437240295705
-0.35140471400898554
0.28209781197049333
-0.9137760085952371
0.981874351207856
0.7035771407045144
0.986324520566823
-0.7827462671857212
0.13607963711229365
-0.984485906683255
0.4758353905558914
0.39084650220292794
0.8307257989708898
-0.5630334493276719
-0.7388281176266538
0.6067611171744587
0.5906386976562814
-0.13638924142552633
-0.5977328084605236
-0.9693572344826122
0.658252777825977
0.0091585887474539
0.19751688085733377
-0.10056912138494645
-0.2015646460383438
-0.1567411092088702
-0.32345243205496815
-0.058198806792520985
0.7819429062773491
-0.7802615415343095
0.4870811987531647
0.3252206256718184
0.529197579517436
-0.36344161710101597
0.2248518449801229
0.5473765347276546
0.9317947876684038
-0.8758011396303642
-0.3336281490578181
-0.6086860059932613
-0.6405447491789187
0.5614613311107557
-0.7155115585515783
-0.9364331107676722
-0.17745484794251887
-0.726290425495107
0.8470061763276326
0.2052037995751177
-0.583429675497529
0.4265641607047095
0.5191579058024951
0.9569027414738303
-0.7559573010264493
0.8189805461598554
-0.8232877969205179
-0.12472880813458387
-0.07678840931104092
-0.15024593604113878
-0.46982589511838646
0.9071215870482083
-0.6598731422161266
-0.6707310301337777
0.9503181831945529
-0.5108760024310548
-0.7571869862291261
0.7928403330759348
0.8005532796602222
-0.23365861227622564
-0.7313645445744246
-0.3724019348869432
0.8163830028820793
-0.20773797742562294
0.1555409020673827
0.5974250138025614
0.41771314482242383
-0.028948410193779583
-0.7234754888884838
-0.24727284848804842
-0.07179750980853283
0.13306298142451833
0.04994548204666294
0.9269780283708908
0.4816132731251521
0.5596483496663445
0.5342489507787347
0.9363415888630249
0.28848358843869204
0.9497505331206197
0.44429947975151607
-0.7846184929249389
0.16401271149119045
-0.2540609705519832
-0.7424529759054392
-0.2512121891252317
-0.03975593210075079
-0.009145841075478112
0.46369285326110443
-0.25644469054274976
0.649106051189889
0.011226452545193943
-0.46549832547429015
-0.6353316656880472
0.22524713847557076
-0.20386806169850602
-0.4812869869258547
0.1566330315537865
-0.34750927507835594
-0.4389983422513608
0.18961915108623284
0.6024530102645189
-0.2747549616618905
-0.06958626582069805
-0.5099819563070127
-0.9300536688769359
-0.7087613688641119
0.3931515322816663
-0.4136741979482288
0.7602289161755866
-0.5399875599424986
-0.5100243116491987
0.7806050978868682
0.23119224911724334
-0.5250836218135664
-0.22721951106839766
0.3962054707979874
0.7497414905297852
-0.11694075091879119
-0.8452073281294445
-0.25394216474685627
-0.01754798567471627
-0.6159205906921841
0.3488453566115519
0.3401995145990917
-0.8515136958157703
-0.017786757314068424
0.8527738382300001
0.9231936463643893
0.6979266488674141
-0.7323762711081068
-0.6128548935706828
0.8793483490159921
0.766264831647012
0.9297932838945786
-0.09528111538425432
-0.6977202644042877
0.024622185411254938
-0.6520446075934525
-0.4191849161815959
0.7536898670768892
-0.7215354897182025
0.26735025814853186
0.062061564724660734
-0.3980046132930861
0.13323064066825618
-0.7797597353007305
0.4277635206441317
-0.21052235028132293
0.07761604721078252
-0.7117303788630569
0.9794213618276397
-0.9114589481708824
0.4517117980825671
-0.49751331160246637
0.49521736692662577
0.9933813396423434
-0.6849140405174983
-0.8408083828028043
0.08106378761048427
-0.7454388331138626
0.3488650794572177
0.5351139313288911
-0.5932937252501547
0.6765328745777002
0.7097940209807931
-0.411486311037246
-0.5232351109923716
0.7780023727610257
0.48284017518275113
0.16829502347496028
0.2655973938867171
-0.6756345615639276
0.1457696454238535
-0.4762443816697539
0.13466580206183099
-0.7895367827857935
0.9183112016077075
0.6525641162071867
0.4251245234702461
-0.530350274112759
0.5419537980794613
0.18994679761201283
0.17678081225843556
0.7876773353965625
-0.6620064736193243
0.5991532339599488
-0.2657526902131031
0.8547561310440701
-0.02804784844730701
-0.12338515687671325
0.7815864382066307
-0.13426388644682175
0.7218663873746949
-0.8817730164532789
-0.4761100190530896
0.6308799184048941
0.9363370490299434
0.017497628356902162
-0.44975224374467326
-0.08906714806842131
0.007077301953312798
-0.9126790492459385
-0.22800487530772462
0.9650982994369148
0.2273417511571958
-0.7575103691367948
0.5089188779009639
-0.4765444386420252
0.3100330882370177
-0.9349063403569386
0.5058552679519861
0.8508744174178846
0.11912596166815059
-0.762183738595086
0.11353132031734159
-0.9569375950017225
0.5197877734603895
0.03316202800300605
-0.7301306710046276
-0.38509270711609966
-0.8769356819446363
-0.9390482863541827
0.7934352007429144
0.06558071395531173
0.8120714666557682
-0.6295287888229792
0.8193749330292215
-0.7049528858412963
0.8599074708532397
-0.8630957202780387
0.9937180038294666
0.8592741759705882
-0.6440341520654298
0.9243731887242814
0.1224928981086777
-0.8585118942641647
-0.20195699650780785
-0.5897446812198568
0.47999685981633977
-0.9496505025317603
0.6596706470326246
-0.7309146697166853
0.773677442544616
0.09926948092331722
-0.8180267705370186
-0.3880214436596823
-0.46615205551116956
-0.03253949894359898
-0.4656815047307965
0.0038300581420018798
0.2703148029241569
0.4059592287234586
-0.533210225392811
0.8271045456802126
0.26028262640897526
-0.30924718454139266
-0.40323624912724276
-0.8105347228302491
-0.43489085061318905
0.9985383300347592
-0.0010165833285828985
0.7406915259693811
0.04581626563335406
-0.06485388986243254
-0.9490016328293807
0.4238256369650166
0.5474502527474627
-0.4120681552191954
0.8878336143088759
-0.7642038162596927
-0.4410893278856547
-0.3819225728684881
0.5378233738960037
-0.7225719296745092
-0.04594371795005259
0.32303831074557765
-0.6978133573613441
0.321352394348718
-0.30120075546107516
0.8608824395218055
-0.7540360523339729
-0.13437265314140356
-0.875029953106903
-0.7530691419822377
-0.903876778946552
0.9543089373232241
0.6730245762662772
0.2848002532134395
0.3019841248587072
-0.7091197344533056
-0.8581156963955117
-0.24332916687277284
0.6650610589010408
-0.8220925835066075
0.2210524805044971
0.37528148796827177
-0.8855660142194015
-0.4106570832947356
0.388026813489486
0.4268429768588011
0.517580206810528
0.35569514685786885
-0.1021091513992336
0.819362523830689
0.5812366792654762
0.5097480357837627
0.9091559891126881
-0.9834211937907553
0.4951331323524317
-0.8788500290184074
-0.587626903983212
-0.7777312804204741
-0.7462908739730172
-0.5972149614353532
0.4086892096500103
0.6634448197391944
0.463065638198684
0.4287754522966414
0.6053781254714192
-0.5680409470496621
-0.9073284718984722
-0.03392200074930174
-0.15808928316586623
-0.9760188512433197
0.8597325426725586
-0.43578529235530183
-0.34169573454513924
-0.8402036700062103
0.7128390101733848
-0.13926074262968768
0.6950610866073568
-0.76367385654178
0.3089638978309581
-0.469538593370034
0.24157437249656977
0.9416890914999514
0.6594444289172703
0.09756889293469317
0.0005262953033331463
0.7849062770634496
0.06257490350989814
0.08190822666426256
0.6460635220590565
0.19683817101329515
-0.7628727732700791
0.09525955050315793
-0.7923448743438872
0.20876515156757813
-0.703356767129123
-0.38388284502986425
0.14648385457433188
-0.6204831173263341
0.2927247094191505
-0.7749785346792737
0.9141688001916268
-0.9924255083939835
-0.6594267417262332
0.9611009255729961
0.2755542976172869
0.007694498908295877
-0.013641505175103319
0.558558485026005
-0.8297588849336046
-0.952318731375656
0.1344218970730675
-0.680047838138544
-0.06096328279052221
-0.8697559438274918
-0.890094842111768
-0.6343839263777666
-0.08262654940842817
-0.1648294948351705
0.9767472441712972
0.1657880844548132
0.5471759023022278
0.5292062333645868
-0.596787500206704
-0.7441830960094269
0.3018916659332247
-0.6628252265751564
-0.7868257457220935
-0.43864502275798745
-0.47714419644089934
0.9200094503284626
0.8256897794272009
0.19733631017632702
0.11133532077316399
-0.4972356732775962
-0.7370978604615075
0.394547032961321
0.5766885222600968
0.0613672365462643
0.25077405852011836
0.5389849078882745
-0.05137861586269077
-0.1536711240993096
-0.2793482575720274
-0.9078336635636259
0.5084225738830743
0.1276675176212223
0.7450617213619983
-0.315981100029074
0.7984708993266862
0.5654049487187636
0.32472985886405414
-0.7108679624506267
0.196090190240644
-0.12793126968198498
-0.8654621039063111
-0.9337957339929837
-0.28132127502877924
0.9622802862725326
0.6086823108051318
-0.20375757764730795
0.6277897400388519
-0.704378463214516
0.6667954335217228
0.1994106189140834
0.38813980565375217
0.562650374458693
-0.36564616290688035
-0.790140959166789
-0.014116355859129959
0.5222851436188432
0.045850632742153064
0.6289126021655913
0.6042754629628551
0.48516979390667436
-0.4583767196141699
0.852343042523279
0.14102885053001546
-0.5340830584188996
-0.5108291959157387
-0.6487595209620141
-0.6881171186062744
0.1448258975900123
0.09319047404425462
-0.5190054158648454
-0.7159084974971404
0.04897376073773008
0.18137304364866247
0.43696606949266625
-0.09744217337305017
-0.7471759899137596
0.0011914750166097665
0.2738933545305471
-0.9783806194582612
0.6549176072905671
0.08869398095417447
-0.7324052419004019
-0.022203529264805066
-0.04752021228141512
0.3234301323392186
0.49823638227307887
0.0930296463290794
-0.8324799554999034
0.38693042901957697
-0.3647422451958988
0.12924276302154025
-0.3278150694482891
0.8055551533003724
-0.474972542405927
0.5956623062615709
0.3049015207674688
-0.10341716572823045
0.2926639265476025
0.06402682363793188
-0.4309619857681457
-0.023209220491693605
0.4422170007247036
0.0688186464836793
0.4170883836151318
-0.0014099591299940872
0.5252776999185622
0.1432565029288766
-0.05337310276462413
-0.3976263799562072
0.4521902406718812
-0.05817227193370611
-0.18656279684745503
0.8910789570529258
0.16584664319499587
0.7719401761190459
0.8795223198855653
0.24325386520066883
-0.5790027835766891
-0.2240385279512025
0.32534432968903504
0.5965658364537392
0.7484209931895707
0.1820239781663766
-0.20496289385920763
0.46993849915456587
-0.03258843416551227
0.9851182664738387
-0.23553882661517722
-0.9417814704133167
-0.015254520089746038
0.32303859328278195
0.17328303677792323
0.5214477702275828
0.40862964814069525
0.4761403593690643
0.9332815830572374
-1.0545246621719073
0.8673818298143945
0.674535982302757
-0.3348717149435205
-0.9222317236788036
-0.7963185394846131
0.6391878907421159
-0.1551630542831161
-0.27506150056814915
-0.27528267299704434
-0.19390972985366478
0.6785449682704818
0.012202539374892574
-0.38721115199090406
-0.8711944844122408
0.6483775823167515
-0.6617050742396893
-0.05284215238887202
0.1916709466376898
-0.9399161773843511
-0.5377381400915744
0.7513630328315517
-0.12177654888989312
0.5161010541775828
0.7573756403172676
-0.41372619587012466
0.3984321163785167
-0.668233342692693
-0.667664544476221
0.044515753007316805
-0.9259934057316965
0.1586754433196358
-0.33525382381751156
0.42509572855031474
-0.6434848455389024
0.6320216230973787
-0.23541898861699662
-0.31311364544533427
0.5372293333906828
0.021375328646772163
-0.6549730987753486
-0.91369380633496
0.7323064409659672
0.16660409390347497
-0.2721266478521662
0.24203863988565066
-0.6244597218503714
-0.35954286903938115
-0.5685020621433725
0.5000450711322313
0.3259485332020693
-0.9384643909632373
-0.5049253216164677
0.26133717770049114
0.6672566583326001
0.5509941579143445
0.7211665981579856
-0.39129594246546895
0.7504658590015414
-0.051761640413298116
0.6769115536485324
-0.6672571797034148
-0.9228590976910218
0.20528021700671006
0.734067189111792
0.40029817704013193
0.4356970697496536
0.19058030095330247
0.4340554427667125
-0.963984315441978
0.33746079862333733
0.08060648921147817
0.6271124522932361
0.4768437696658636
-0.578248789188329
-0.15367487051290318
-0.9415131963970171
0.5461093350233932
-0.4095814222078613
-0.9744717571949564
-0.7518982817018862
-0.8381899754305164
-0.4500649934533796
0.7154460235130493
-0.3135891774114956
0.16630986394135272
0.8440830445806755
0.36111590313905806
0.0732267523516239
0.42209140880069884
0.499959871380812
0.6721715552427552
0.9235709527418308
0.7105875038794578
0.1103242300257894
0.9717262292818512
-0.144070670158557
-0.9551966712839193
0.6504291617167175
-0.2519022976017993
-0.6486811151035972
-0.8532099988995161
-0.8332491785342622
-0.4788837938848969
0.4268537366640799
-0.40359945103595773
-0.6875945166425839
0.360802001419692
0.33408878360945815
-0.44391766435916824
-0.13379167005145431
0.8351529962491182
-0.5682050702191279
0.6500980792230571
0.48299511986485544
0.641567402192992
-0.663033688462658
-0.06141503151384353
-0.5184179837269935
-0.5217462529089008
-0.32922385832708456
-0.5011937359463963
0.7380750010769219
0.2668791517775264
0.4093274279514978
0.9805608286978682
0.4350771534991893
-0.4644317681601591
-0.22734306792123116
-0.1310800049551606
-0.31427229444882965
0.1261752748314109
0.5007164572592337
0.4165672991069218
-0.6524986545681202
-0.8568042176809874
-0.40530704831532494
0.3032626878646565
0.2959173576025651
-0.95012721822619
0.3855813594754023
0.8913578201107977
-0.3985094251877097
0.025070323358834967
0.8772640856148457
-0.049990013678602896
-0.6773791583079305
-0.11417479687460963
-0.927987655158778
0.338912986684186
0.8660264916854323
0.206829611378756
-0.9366435856519726
0.914478810695865
-0.17932756031631225
-0.0022410684596312347
-0.686815019962268
0.03297722871151554
0.9126726023182814
0.2917892926498389
-0.9778548931488042
0.21892033151012003
-0.5607580089174851
0.0038470209328698157
-0.5276387536741964
-0.9685639163099569
0.08294078244065739
0.05680576037698204
0.15262218294877727
0.7470762349405331
-0.36455126787490255
0.385609634878582
-0.6350020711316597
-0.49587808718201143
-0.3371538569132493
0.28696427504393984
-0.8366716531418512
-0.9229936032171011
0.6204706977384653
-0.6307410431364244
-0.9985896892897792
0.6094387285151512
-0.5451107175610614
0.6456574204324894
0.5325310762868145
0.15604684851598383
-0.6620709920052295
-0.9652431203479046
0.31393347744075567
-0.5880459802133688
0.5827500754273802
0.1426086989498776
0.7563456010133409
-0.0970702299944819
-0.9260769054918616
-0.49152655015751745
0.6428002710989376
-0.24402435413815948
0.022385938531413574
-0.03559313310275525
-0.42757466784610987
-0.39077354041989065
0.11267700242016598
-0.9225997656951874
-0.13384259888191985
-0.6704938084902492
-0.027252852496756574
0.11455088653248358
-0.7175886835476634
0.6252577213232733
-0.9292296583041595
0.12595159002692125
0.1988092215981192
0.40258144899247417
-0.5445415582665178
1.0315694572891083
-0.9306761626729174
-0.871152264693557
-0.4047960685829217
0.2658387422112958
-0.7678159829923688
-0.6826563598524716
-0.35723033141915916
0.2144355891753809
0.01830853088168305
0.31107677443523785
0.3578095176088567
-0.049834890793515774
0.22850155461985078
-0.012362178392544054
0.035990103044157395
0.7807895695132372
0.9701568232202491
-0.03626018105157036
-0.5183398020275083
-0.20780318916037288
0.4840463001436075
-0.7643627851230645
0.8079412558371468
-0.9401528636904113
-0.13350951677903566
-0.8238716382032321
0.19163266226554443
-0.9230440206390695
-0.2928473365045756
0.8408261121041283
-0.5359557104800512
-0.6167499950107591
-0.29524094302083514
0.5310886059149473
0.20905181841851328
-0.3198111897994822
-0.842135999965027
-0.5411490885060664
-0.701588122749738
-0.9203155604526034
-0.5408825361759511
0.5515822319247405
-0.3271050091153127
0.9608000854630294
-0.8122972885354507
-0.09923349882559096
-0.9173893110001479
0.2396112948822975
-0.2776712179516738
-0.04144620474478011
0.6042731922582016
0.7081060396142589
0.9725196467338055
0.09085953329610885
0.9942826409098942
0.12383205784976847
-0.7543610250507586
0.1718915734888522
0.5833187140866474
0.678162124220733
0.6590763574614567
0.5007176835232705
-0.6970893186338496
0.16000559954247584
0.1496320990906439
-0.913117888511326
0.08131851316358607
-0.12583942408945914
-0.8270150203484115
0.5151039980711846
0.09442275526021482
-0.1525036471150425
0.9833656182375041
0.6937059632663987
-0.4123412025597113
-0.9122641037668499
0.2918217823782574
-0.9733231571918497
-0.4226251617516086
-0.5282662835849667
0.14976349845016967
0.820870806575281
0.4802392296863227
0.6566107086730946
0.6627635405277694
-0.1854408324328949
0.5963648134182797
-0.30338257549082726
-0.46860645839231596
0.8161495396961695
0.20519732121279421
-0.16736039205079822
0.5619980245862435
-0.5263435467606625
-0.28990956232317955
0.5436339107965475
-0.10668823367731162
0.7024313933034967
-0.8029475826328041
0.7080614462028241
0.08360518450941967
-0.2803985236089046
0.4902945614482659
0.8566418940502822
0.9546281931800424
0.09106119036056581
-0.3811126000160887
-0.7616513973398706
-0.5871614139474526
-0.4193502558400808
0.33235693332361094
-0.17843483462364884
-0.7487366308959806
0.25270258937434065
0.34532227504936164
0.4297739109940548
0.30796398017130233
0.6580818419517691
0.6441301751889112
0.9649326016221946
0.9074318339362608
-0.033952402425474704
0.10888012610716813
0.247850383956288
0.4373009654060902
-0.14405117090452224
0.4834472795227717
-0.3060181702739293
0.9606349131709246
-0.5502218966283099
0.19179115446568407
0.3317080021332013
0.6592837455153144
-0.7348796118312964
-0.9124558276179782
-0.3578315661528637
0.4484016801502144
0.21223840300061525
-0.05161371617124422
-0.03017444263411585
-0.4942913975989134
0.106589534102973
0.09797055595730075
0.9233744291323336
-0.5679915465289691
-0.3291128761779605
0.4610903456630808
0.04059089269722982
0.6633631681852341
-0.9688313183868391
-0.19492622604739696
-0.5522913456276457
-0.5036302254687337
-0.8392894105209285
-0.09677352517951388
-0.11906717049365856
-0.003295668673833685
-0.94519960072097
-0.3165571486070497
0.9453693690125076
-0.9717347133350922
-0.9200966824039016
-0.7703360616366437
0.6576957930864766
0.7749698514753771
-0.6399355352594802
0.6916510967218312
-0.9832699945789487
-0.1844071058807788
0.4151671224435167
0.4908640399320148
0.5792895806601321
-0.40103918477526435
-0.579469344829395
0.05469618969065415
0.24851299214944866
-0.23360052285643285
-0.9256009290446827
0.7794692698925914
-0.5172840846040523
-0.7341993980907489
0.5242313454080725
0.8316157319286139
0.2557992434130405
-0.3683074658583869
0.200236579169921
0.08260783749877998
-0.7268246325427383
-0.3805407320145009
0.7720778835191189
-0.5586297704137844
-0.9384541249841583
-0.19998916696175484
0.08375187452874155
-0.14371540609360078
0.7137868977104294
0.45684228343443656
0.7943289632131927
0.42514383529905553
0.6287409896204788
-0.780036970944562
-0.985427741440507
-0.6743479193383468
0.004474045779052638
0.35861218607407963
-0.6511251498214063
-0.42298514102501605
-0.7760271338070102
0.09834444819719007
-0.4794963951481497
-0.17116339092274546
-0.3751474151781775
-0.0795740655806445
-0.189679530310344
0.2812866698722618
-0.2705464810304745
-0.16458294506563576
0.5364755054225125
-0.33154297507276675
-0.19963240839726648
-0.708017523261202
0.962609893517604
-0.8889223996772129
0.4706314564653029
0.3056762445060486
-0.7379153293296412
-0.3643844679260215
-0.6481563089411089
-0.4772319481040632
0.7486048478027605
0.008943995224341306
0.6920813851160568
0.2702024041386244
0.8019831873765069
0.11739926171607928
0.16714652526230434
-0.2528209267450561
0.3173552617915556
-0.20430669643214827
-0.0031963738985127943
0.37696648746311334
-0.043962895340457164
-0.21903358516175775
-0.35918182039553415
0.4330728172595659
-0.3087441394921502
-0.5618966712110731
-0.19952076154759832
0.3312594582710524
-0.018693142911933025
0.382583242620014
0.8486738313317983
-0.8112526484052891
0.7644499340608588
0.5799061926109801
0.015346887157247968
0.18972794147786054
-0.7041723695636897
-0.01838790693699499
-0.24777563503064393
0.7749285240391603
0.5675344810101002
0.27540750342438813
-0.601214744163828
-0.7700689719720601
-0.7459656643341706
0.5506067943252986
0.16290647084839338
0.7364667525769186
-0.9762576515903805
-0.5053479861738117
0.8648812083572515
-0.8685795254254882
0.7470694497576511
-0.2908591395801896
0.7056050936942422
-0.6533100660514399
0.8868280355598499
-0.18640562508670255
0.2806509539515756
0.18244146113326365
-0.3897146300822605
0.30334305947098805
0.8747919521307723
-0.9067442282769733
-0.5600867521072241
0.8689911688418663
0.14416428932922054
0.07438806301364798
0.13982672783955707
-0.1299921780460025
-0.5292227011457493
0.6982806238203405
-0.7204244708065151
-0.5885831690623955
0.7798199710087483
0.308235346635507
-0.46136650150612346
-0.8169662814216632
0.9097899947366375
-0.25127867611775656
0.24720138016468685
-0.2988715304015548
0.47904935772982227
0.7793138813911606
0.364745616859834
0.5228523285131792
-0.8553075840256466
0.16950344395901906
0.41052285573501046
-0.5169776095769603
-0.9555144795581161
-0.03193234527069433
-1.0970512391114022
-0.4009078127477501
-0.07684416328441634
0.1587925579121212
0.48949791022306965
0.17924702806353898
-0.4820621470848778
0.2423170182026526
0.7449154039908479
-0.8938526940781917
-0.7251758804823663
0.3836253245874166
-0.7491451843768386
-0.623739372523523
-0.6618802303381079
-0.921616443284855
0.17907796924328778
0.4340944503405586
-0.3979334628795752
-0.43883064076104916
-0.6998604129506254
-0.29743620013942884
0.17754257758906244
-0.31712742640270375
0.9618702817341167
-0.2140564585148046
0.700623858289195
0.7291855863018317
0.1127625584043841
-0.735576277242961
0.5162875754711769
-0.48081355121653013
0.2096784274994281
-0.4471242728308127
-0.6222649025120335
-0.5638072842755075
0.3351803474672814
-0.7134432909299131
-0.8969381026505507
-0.9040447877238427
-0.35445857003005665
0.7361667673991836
-0.0775813585867271
-0.6407548179372053
-0.038996710191120165
-0.27319463392355203
-0.16999689959605613
-0.8773957017824388
-0.28832099671044453
0.11878923654412277
0.4467561685839776
-0.09660501183270603
0.9823062069801196
-0.3774378878088518
0.5888762704364179
0.9168329025216231
-0.4792289449405691
-0.6868268414828196
-0.515868087114788
0.47516236445014104
-0.3246678878103002
-0.9393975594273127
-0.23623577032611376
0.38846232311303597
0.4965062888542717
0.08012188501726514
-0.6323393352205655
-0.6426005937761783
-0.0009584256123564838
0.18226974069719737
0.29021581228762394
0.9873085432233326
-0.6316592119266751
0.8038456361427031
-0.6875817469382166
0.11021543559006042
0.13660047753932303
0.7831509495429396
-0.6906620741778042
0.3443155981954693
-0.3693784587022584
-0.7498874586199982
-0.29547686592475775
-0.5060494710161174
0.36718274439146636
0.9661795113713769
-0.8442921700939261
-0.6709220386489261
-0.7732777111286409
-0.6802398252868509
0.6224940785184971
0.9337157749577543
-0.3732749039001877
-0.8521091509009775
0.27379528990930013
0.1445653826959564
-0.6280738786319002
0.6343685791857923
-0.8674974950912302
0.4332985206873363
0.05012648332716174
0.1555916699249078
-0.32238604507196267
-0.1257100198938963
0.8895456593402977
-0.3049052134137886
0.2725009713307054
0.9220232143734763
-0.7581995153298176
0.31804157293096735
0.143547672064676
0.7509549002258018
0.8662029776908804
-0.43981233498341377
0.8619470479592128
0.5247380383140274
-0.9248651663764713
-0.5724067368458075
0.02619682308729776
0.5355154026105338
0.9875754478938776
0.3592297869300827
0.31528260770206673
0.25276997058393214
0.20629872078645173
0.394340485619485
-0.8801907821320638
0.7673144126153844
-0.08708725904443027
0.46564233493962104
-0.7436909223128283
0.826783861447882
-0.7012432354709783
-0.5783882213873524
-1.0461155222096519
-0.9185092037538671
-0.7027904762826493
-0.8891356423215131
-0.12268986096620882
-0.7424626525018636
-0.1675589201400418
0.990693782586219
0.7367016841329757
0.4991959512348616
0.719435147554701
-0.7827014615350716
0.8777870958167986
-0.5896086969607224
0.32364907789352193
-0.48945437220119015
-0.28787540610078266
0.9946043659452528
0.3429713580491882
-0.8156053714215235
-0.8735803409706491
0.41010734530578663
-0.10164937809190366
0.6071821791782932
0.5078873189336564
0.7809459676299932
0.15945142847747884
-0.20015984513877494
0.8890270795712794
-0.15511701677581358
-0.32137172146092174
0.896206873818685
-0.736604297545717
-0.13677233463995409
-0.9828192525489843
0.5436324117474542
-0.2518825499301771
-0.7653378529485733
-0.6074559987838171
-0.7539587517849831
0.5619402177115822
-0.3006397572600368
0.44761563788668113
0.2960611921242138
0.8038439902337783
-0.1178256603495631
-0.414825975520108
0.8695587316056286
0.38282962671276133
0.6042155955209194
0.14360307725532673
0.22379477650904467
-0.4602777307225095
0.3057880785936202
-0.4993593643045042
0.6941531232607503
-0.16568042648868286
0.875865792030964
0.7899104389691738
0.9718349111591638
0.3948517959275675
-0.49585150521288734
0.9961315641039525
0.3901247060041577
0.2710773821104355
0.1871585314416253
0.3874823433447885
0.15266253746701453
0.4896883766524094
-0.7144568401396225
0.14666462456981155
0.685956915435477
0.2716547875938171
-0.9885038895778031
-0.09856100580054927
0.8977580148361868
-0.5211909318181636
-0.34720287429198304
0.28954307653769695
-0.5235155644898215
0.12996185876717847
0.6159512222348394
-0.7884111911745715
-0.8721236244322483
-0.45240164069801714
0.6137918599728391
-0.5161039839313161
-0.2410645233339992
0.9731461415754359
0.8301912608423638
0.8841517077345369
0.6706241832377096
0.818841992097612
0.662242645185358
0.253130619682467
0.2578355068111009
0.26129538853790857
0.43187050345138833
-0.5914732376724094
-0.028469114475085933
0.7953801675074124
0.3012844716330154
-0.31494700131105047
0.40253999344316016
0.9356352749272197
0.5642934434101059
0.5105847639600158
-0.36092030554548926
-0.11345700027651939
-0.3140100581039036
-0.6242334461707639
-0.9495861701110608
-0.7704232110850813
-0.5019718365043442
-0.6340912768221245
0.8731825927177395
0.2929616368100909
-0.5372169229503754
0.5235099729738248
0.3505932610723699
0.39948241603982293
-0.012001490546933224
-0.945281314483339
-0.3077575283089258
-0.3713440963221797
-0.15673201070297788
-0.08391193544986986
0.29264599115973433
-0.5196015783920617
-0.7123249064285295
0.9241727990143667
-0.8739646938850476
0.2548489149133566
0.07904873290715098
0.28891792460753507
0.2273287071950727
-0.8334868231517396
0.33995328759858867
-0.7808988077426358
-0.22449629539276494
0.23844879772683392
0.4708325290318074
0.691361911551698
0.4030153864940016
0.7360616091821197
-0.9037439228768174
0.4022780258336913
-0.569216168730942
0.6743412866858336
-0.4991832521950501
0.8740727165512232
-0.4012634696474138
0.32548126468908256
-0.5944596248356908
0.21302255246770718
-0.8648835152190277
-0.5307077114757783
0.1666341852799631
-0.14096737448042407
0.39091134225803836
-0.42132239178461184
-0.7556561379875575
0.6957792411237131
0.5162510767751899
-0.38163394591552846
0.672834113295204
0.03648327262421547
0.9576078606475273
-0.28609518593226424
-0.5882965226150045
-0.07020275601153192
0.13099925551092073
0.6593472195257966
0.43091091999012376
-0.8894559516188127
-0.8999395279900624
-0.940032702910955
-0.7677845822553993
0.9104053944412136
0.2264257049354783
-0.5622949327931526
-0.2742788753966272
0.819488301709095
0.06774248187784204
0.536660860863335
-0.1132596732529354
0.23198104622025006
0.6644232846127607
0.9730218365595709
0.8793208119464733
-0.050716490927588787
0.6900521237436548
-0.0765325165893469
-0.34177034453666955
-0.6736214647423227
-0.9607695753916954
0.7620506994186282
0.9365570756054586
0.652549079671775
-0.7438892685431062
-0.893878426936592
-0.02686759225708535
0.509743705082325
0.6079920083797439
-0.535635359694691
0.07665268766145927
-0.6087824449515067
-0.4870121836739485
0.36018271329253526
0.9929903710455394
0.31785298174983995
0.3191449559007624
-0.8515708057779241
0.8959279871994892
0.7036292298529563
0.09829134679816787
-0.5928227214574266
-0.3263347902368956
0.27944128017883196
-0.17628831134516454
-0.19151907807178148
0.580713638496664
-0.7073601396925486
-0.479993462152154
0.5892219894843516
-0.6552482064040217
0.23909249527619636
-0.9519734976585661
-0.5710919452670071
-0.5847552294894303
-0.19621503209440938
0.148413415674731
-0.8097925699836277
-0.13391867794672785
0.5856483503008152
-0.32891866084014465
-0.5497461878815657
0.7428576628041594
0.4502063485650065
0.005631159965748811
0.7440820850890011
-0.09624630525441868
0.6308015752068372
0.9761475512913269
0.4616283325899153
-0.3747564444355196
-0.06880228726967777
-0.0899470884607918
-0.8633780013114039
-0.28698470367052864
0.09639865105794643
-0.2125453056071358
-0.6921475154225845
0.032930124495481605
-0.448996232908069
0.5508169755527459
0.9190284253319776
0.3124582756280352
0.8171232295749737
0.5555391626058235
-0.7888340643706895
-0.4470567096640299
-0.3972509751144073
-0.05521654839645862
0.9314786622094273
-0.23006476988808044
-0.5483416257439515
-0.9198193703677024
-0.0021757554039734117
0.9893671333547951
0.8358119559213202
0.505042196869999
0.31456402772494374
-0.8250473104886697
0.4424210956649186
-0.1256363199856474
0.46640686273728016
-0.9039514897210585
0.28051676544702975
0.4761745221354352
0.8620119740153755
-0.5962145492446767
0.84132347107499
0.1991423847282181
0.2042401444360437
0.7996325733477072
-0.30653724029949503
-0.17461310386753492
0.40026612600298206
-0.8452393636080753
0.8844603558467672
0.6154509222378199
-0.8938155340521803
-0.28456782327508545
-0.9829599842277581
0.6508850779270889
0.7104142016313073
-0.856040148629335
-0.33765298676459343
0.7875515244395459
-0.40736015547809734
0.17504009975018375
-0.8501272137345957
0.9520098918064148
-0.2845700216354412
-0.5949922957213785
0.08522830475197196
-0.48900873460769323
-0.9656958331404011
-0.21077026957363265
-0.13379720929144479
0.6069280219348463
0.9655327533412346
-0.7917820816459686
-0.3240053455085252
0.8758444157034528
0.7997342784757699
-0.9827156846364629
-0.12348624879275816
-0.6931478389311325
-0.0604087924535992
0.5488275533434137
-0.9150147596459761
-0.3699408598106879
-0.44304805032052985
0.04750778302530856
0.5835197581140203
-0.13853762224220323
0.7513742320215426
-0.7822631081779818
0.08764750721477288
-0.2681896493993099
-0.08258485287418171
-0.06663039234183943
0.21835267798653812
-0.9865030656627718
-0.3672000428839619
0.16491759810402318
-0.43955440105866184
0.11237468271979933
0.20582736093851084
-0.11069722776618063
0.3213203258871171
0.4887906810755944
-0.5292975945587401
-0.9642500552739224
0.5553583716839345
-0.00821771413389416
-0.7111758172870057
0.8718697532756436
0.5093618040060834
0.4820392041582635
0.5683115721451901
0.5872537705515131
0.22908028365144673
0.28855394969719383
0.11623295531181199
0.25763960308749456
-0.5564072418438641
-0.8789874086357821
-0.7493330142431813
0.6090540362397103
-0.6800700842635024
0.013766139464693072
-0.9052726119768668
0.11666732127414337
-0.11101006904060928
0.8662089920099219
0.7318020999748012
-0.06154478682814313
0.7257955336244009
-0.5908278523211894
-0.9560304085817506
0.6665725807002381
-0.351166381183293
-0.16619395594815
0.5765538380506829
0.6162777864909055
0.1691327225018351
-0.554617401649911
0.2631904329472843
-0.8923196178914825
-0.08652484253455839
0.23660253346240623
-0.12852287860452694
0.1860488465502692
-0.8496959818721641
-0.1593231458642268
-0.26679568844356516
-0.2592378546616698
-0.03592953641027807
0.9208675173790697
0.31775152547953045
-0.6938423349503098
-0.7495034476558282
-0.7078566905733765
0.3958195829426667
0.21177518926047734
0.2374926088298175
0.9414997611967875
-0.780850444428195
-0.4557613795923494
-0.3484563049680167
0.7955246279790715
-0.1339301061943179
0.5791527113096648
-0.5504490307163443
-0.8572634758960178
0.8864637875285808
-0.5718243980187583
-0.7664067728819928
0.7580338946982608
-0.7439147268392987
0.6265264469271543
-0.21145620605137916
-0.2091124872910992
0.47649500380370946
0.6347870445775738
-0.19358800402723153
0.8041623551356587
0.7904316863015421
0.1489528855511728
0.5174154757809477
-0.11341980822284858
-0.8532364787769058
-0.911576593915661
-0.9158254035649
-0.5402618224464083
-0.49795102965108806
-0.037034104927482714
0.2672623301928867
0.26329925440498303
0.5359936246665524
-0.15621983841469644
-0.0043520538801535835
-0.29949332919408045
-0.7879322639891859
0.2925736124322369
0.5822229380389641
-0.05014789042581036
0.7510032980389139
0.635102539464545
-0.3135857591401441
0.6931262738340838
0.9046023736997173
-0.6751773712245837
-0.13450167767845222
0.6513635350706777
-0.4165476999211964
0.8483146228938832
0.8078481581039436
-0.025791101906018632
0.004380734793112628
-0.40581684471557433
-0.25636658759256226
0.34745091259357097
-0.38353014832675036
-0.5415746944095456
-0.46895132981188703
0.34428940086913573
0.1921344464018908
0.8835982615992464
0.657397971512218
0.06003313630464735
0.8287071450347676
0.16757585767826355
0.3843629660247978
-0.8719990288108819
-0.9010622616638435
-0.45988320980917075
-0.5384254168158602
0.7157861619532453
0.48838459013389546
0.16147126937465406
-0.10779599510343041
-0.17070516682280412
0.20317054147811908
0.866093486562765
-0.3330740774251284
-0.909339777612346
-0.8896502666829218
-0.0442591263148
-0.2029846844844838
0.4194496045855418
0.6637147250157456
0.8365915168897797
0.6376302267426461
-0.38479548125546414
0.675184745885185
0.1440345807884824
0.488598938475179
0.7148443939150659
0.008910129060172745
-0.7821555754348286
-0.8432554880388965
0.7649168812166951
0.5648461949024635
0.8284959031377008
-0.3775229117782424
0.8198461603927003
0.1879370535397078
0.6672500893534841
-0.7162539693297651
-0.4867939803428931
0.9217755876496343
-0.10507599129801282
0.24934600931686068
0.24132475803319853
0.22389332100774761
0.7169267617766526
-0.865156311752254
0.9810316241247854
-0.8268980913468245
-0.012562191684038604
-0.919411113215479
0.06858983912843564
-0.7600726143161403
0.6847665273782064
-0.676274131119939
0.8341573784092486
0.21714927807039186
-0.9654805781195357
0.5847712823212361
0.5517321132260338
0.564837159561886
-0.02443870086084643
0.14072069985331792
0.049675698661024725
0.7010766411631673
0.8448512970558559
0.6599610443615036
-0.34360856434825027
-0.02086913003529811
-0.3927967776242253
0.008735979817622086
-0.2839927208816775
-0.3697180414295853
-0.8873251163983
-0.15599750268696422
-0.6236412094157049
0.20792276046049718
0.241770244021432
-0.7197844974794891
0.7710296659241729
-0.16202341832619305
0.5861609592663735
-0.8039609852104241
-0.5713651166028253
0.389770614863169
0.7446230725490852
0.48641484071546115
-0.8719952358159784
-0.3895539940591386
-0.045177819663098084
-0.49327779167303665
-0.317159037337363
0.09024398684279356
0.764958976140669
-0.39287607002967695
0.4419708907005071
-0.47760569229090577
-0.006007894271459202
0.08821260830324018
0.4405862675747101
0.0526889772780339
0.594336053926219
0.7088811274219371
0.9390507439427542
-0.4996872667458945
-0.8981191797663151
-0.11748003189086664
-0.692093778018291
-0.9377716716385993
0.9200584836066057
-0.1370578991564022
0.606530916159737
0.843181512544245
0.07315810662416711
0.19836561754689463
0.5406215256654823
-0.31570397979920095
0.08129425804802692
0.6967479993422057
0.38975171674224507
0.756670682463769
0.48892963471497186
-0.4575463493399843
-0.9040033296325338
-0.548792699262137
-0.7766857512769803
0.30023927150898855
0.5555193242266776
0.9051411112628085
0.7315735032192426
0.0860480204804952
-0.8603513519492982
-0.008775720481750682
-0.8141204390735199
0.40277016054763637
-0.03239000492470545
-0.3763781967553099
-0.7562505338386187
-0.3004256664842837
-0.1163055733660372
-0.013914004743515562
-0.9628317507553279
-0.2702842035562312
0.9654538560139385
-0.9240831122681068
-0.9120064051629542
-0.4506833542869282
0.45323568834355243
0.6663646563268211
-0.7727521727726829
-0.2086219982562838
-0.36774445042369464
-0.6424925571562139
-0.5474341002907444
-0.5619189062990451
0.4731633320723414
0.45107943866061184
-0.09066768876092834
0.6932175682943538
-0.9607261769363373
-0.7525598338859678
-0.3080752060024272
0.07458430053339948
-0.5398569987260247
0.9779177687716774
0.6942158934918148
-0.7475326640815789
0.09109536304645016
-0.7921321605325644
-0.12898914988329513
0.6768411850780398
0.9975434336704674
0.31333298616355787
0.19352007030809903
0.7928822182645592
-0.3706330987853621
-0.20634653176507456
-0.8242072438373482
0.019240648921959425
-0.18569651651608843
-0.4320898005885904
0.37340344362168953
-0.480730536460503
0.21987765216883082
-0.018501134013351184
-0.5901672275447135
0.9009147212767514
-0.23820910856298871
-0.4936239952124324
-0.25243069103040505
-0.9476406582102845
0.5138387158262139
0.3873793302397299
0.8802283522296781
0.40166965738918103
0.08012885899540523
0.2984679830976924
0.09176816292612888
-0.24492190977797756
-0.16329303303189646
0.046643209495772275
-0.6816492976933917
-0.761978891114335
0.5695750268269111
-0.6874450994713568
0.9479797115761053
-0.15077496046053707
-0.7151532485855863
-0.3232679253629982
0.8943973326264132
0.49708043179108263
-0.9178243658915946
-0.11756656883897909
0.7473081315742778
-0.9809335251612659
-0.16896035224689454
-0.8961369966164536
0.7330679514943477
0.2782774654174325
-0.8345343419200706
-0.768477770472934
0.26676137490031104
-0.631856435309081
0.41915144890711353
-0.79176758686924
0.4391691156302022
-0.11917494681364738
-0.4145420096276302
0.6447354097097884
0.663800469638749
-0.7473841699516719
-0.20438542454648112
0.03253233925639476
-0.3699036179587798
-0.08030244913346607
0.09512900567016813
0.19583976428773475
-0.16358498345074857
-0.5069838632982016
0.2911163183034642
0.5546990273960895
-0.18325014193768396
0.5252070267735598
0.5008136732516688
-0.36628298171786877
-0.8398042505501073
0.9529704531516501
0.8279041681473644
-0.8525606176875111
0.5678776810182999
-0.5121983653376125
-0.6656075863633504
0.330987205788948
0.14726672011036412
0.8324969438780421
0.7301928588011826
-0.8418490194993706
-0.6663671801090711
0.05400496324426918
-0.3587643804687608
-0.985452364615361
0.44409552580133393
0.43697204654255795
0.2543895307702093
-0.37300581275538436
-0.9389589743578037
-0.7831232909844705
0.7547623225155784
0.27818307529729047
0.6593998965890375
-0.6930068210822535
0.364429558323244
0.9943066312576272
0.7078217362432968
0.9504564018838659
-0.13267677328360739
0.46425099328854946
0.3674531709271913
0.4510786364382837
-0.543995007268981
-0.7473261659538217
0.9185059801105251
-0.6387714793636137
0.37740141532009663
-0.03001063688806105
0.950440609835537
0.15021543478414712
-0.9285823586989053
-0.9618151716804693
-0.23079296363221147
0.5638038341917124
-0.19134392963397362
-0.24992923033012304
0.5419975214408759
0.909518223954725
0.6812398395644381
-0.4515334111873508
-0.3631311608826049
0.926369431318258
-0.3450973055556332
0.6817945909649348
0.9816856523382143
0.785668009981515
0.3731645652915814
-0.8761644364626711
0.7685080135012607
-0.5793713595731578
0.316502359565088
0.5993840889793569
-0.3713355805544625
-0.27736974108198553
-0.7587106149304863
-0.132211399045852
0.19675686731902675
0.6079838830707154
0.3002150574734468
-0.08374363061226187
-0.7602472993682692
-0.7224385375842446
-0.32896559738795794
0.01317821814104625
0.8071301820227609
-0.6010504238188115
-0.5105769875455373
0.8524713312558339
-0.6721549532032407
-0.23745401018543366
0.11675013210886442
0.536092465247904
-0.14420247565090727
0.2981922349339179
-0.17335950755013974
-0.40435231089904655
-0.19090609806255654
0.05857427209815058
0.18478466360459556
0.7450385391254273
0.9623945814857218
0.6025090395060404
-0.42063707016140106
0.4333840210991915
0.015084582586400996
0.021673498910321498
-0.08703630699881737
-0.04026341449309223
-0.1480384800469754
-0.8535146805282261
-0.13425686543259352
-0.5959813029276946
0.5087515586702003
0.5263980571036473
0.11762351728514453
0.2232944896276685
-0.9350636882752803
-0.7599313954072917
-0.9904326879773115
0.20719424119490037
-0.02353065912456853
-0.36825632900874283
0.4836362850161813
-0.7432064005284826
-0.43161878097937634
0.20970011980961956
-0.30517500956708754
0.7278801229627379
-0.16984676585741232
-0.34156020086578676
-0.5835591350602034
0.34653774292638295
-0.12215322488865055
0.5623054623811139
0.39247127728604414
0.977263567673966
0.21724011032279966
0.01982964447119584
-0.654339159304629
-0.5378910945783917
0.4053642568186313
0.8305146240541699
-0.05198162116229099
-0.09849905008293613
-0.6633997238430915
-0.10340761538372978
-0.2755055724344153
-0.8270041929560363
0.8094796765073664
-0.7194352341767873
-0.5528468259476793
-0.05131008285451033
0.2939662054378649
0.8672123038485477
-0.7285769140117226
-0.9492941097991761
-0.7435454804073569
-0.40920321569497387
0.7376257961108603
-0.23357146280054386
0.8009379514899317
0.12452516762286736
0.5399149026392807
-0.8602696603693072
-0.801500251594627
-0.11271455167866451
-0.4794475181937856
0.8069721921218016
-0.3149880122050126
-0.22906176734286343
-0.9327722286818081
0.9766147041994175
-0.6324499188957573
0.4079586486180311
0.785283884849648
-0.9166052368174857
-0.131613800642973
-0.30780366488345035
0.22238636545090262
-0.43173748724473393
0.03915171472184853
0.5016353515629073
-0.7251594999971513
0.27620408714850875
0.6193697736502888
-0.4852546454201705
-0.8117569962534994
-0.021947933100148642
0.19604423814847505
-0.20442513223711312
-0.24667460062618352
0.7508923777738854
0.5156729987806743
0.47427767106768903
0.542423267668723
-0.5144214229228594
0.6248787947312409
-0.5782143547214373
0.4405906856211719
0.27433726204812814
0.25720339460429664
0.6623000947773412
0.9879383666542028
-0.4670464480985399
0.2922050595912751
0.5470807575743335
-0.7015649815119875
-0.18359013670373203
-0.4141613243969293
-0.8640849250223379
0.9610144419381008
-0.555335556620316
0.6912928692510529
0.2757072552248858
0.07564482163059782
-0.4691749342807252
-0.7792822760029143
0.04531840856435165
0.9358504140282649
0.10245699870329905
-0.6325237083396362
-0.5560496959041088
0.4942012400768898
0.30835600015104747
-0.13029325153594584
-0.3666660707224503
-0.5400168397592227
-0.3818212990783745
0.5859689521439535
0.14460449853756874
0.9318125578605483
-0.6108645951059584
-0.004108023218871715
-0.6743800411107637
-0.5653494433408113
-0.7339826959357374
-0.8435542589430527
0.01796254482591042
0.9424344132038591
0.8050344975471648
-0.6598742111494644
-0.8851067722813863
-0.13980368859542258
-0.5612906713825969
-0.9596805590575748
0.6596083568761137
-0.11531570696330129
0.0014173000190351726
0.1377856254140073
-0.7054840788395145
0.7825116537523242
-0.40009624295379687
0.9768072181007141
0.5779369494087412
0.5967709599565829
-0.567100687058435
-0.36489345554259667
0.9759160980675736
0.1393320776167779
-0.2383480161275453
-0.014475029166726827
-0.9355797113924138
0.9086530618314996
0.4256753512098319
-0.6735158482172745
0.4410605881172347
0.22708069670028141
0.40496960002073656
0.8086209023028268
0.6071928814738852
-0.1903260891933527
0.9061488132019213
0.04300503111483378
0.34161971824768345
-0.48224645357391993
-0.4138117970072286
0.43778808160967064
-0.035556755488820535
-0.42659288685678787
0.4578715666673947
-0.08745056440396781
-0.7821894038733729
0.5701963378037205
0.8575822176338812
-0.3253849998175129
-0.45869326920989706
-0.17924946469857295
-0.6215534212955676
-0.2418235285486534
-0.9828798109020662
0.221599436734514
-0.2134939933403579
-0.37723109262659515
-0.3412883664102917
-0.3659870029917489
0.5846303284403445
-0.054279573296494465
-0.07229594873723988
-0.9371448030443146
0.9034959708199202
-0.7103026069776881
0.285143545948775
-0.2954114808210657
0.706057807115974
-0.7673889784978354
-0.30384398550402736
0.6544253640445514
0.5797431750654105
0.8677392627427634
0.8299136576790229
-0.4318042144988419
0.6894878824253028
-0.8491610112798809
-0.1949889115129826
-0.15596140015784665
0.538417204860796
0.6825806112953512
-0.5609941874920612
0.6401656447621342
-0.7315643487139107
0.5070504893214611
-0.5684957167202729
0.3027004547573995
-0.3660502949766873
-0.09980607140588704
-0.7387023212294042
0.21686945332948082
-0.05234082593576583
-0.24963165115191366
0.22969546597471746
0.9219001445915724
-0.26219760797148806
0.07591330395766671
0.9654882404320679
-0.47909109306990527
-0.617984216066136
0.06454147844445846
0.7490653481582477
-0.3594188404205021
-0.8672911699521577
-0.04938312409526224
0.6476303319700893
-0.22847593281165346
-0.3729146988540111
0.20046496118459434
0.7706533454494249
-0.9008948015521947
0.211513645758022
0.1522438249351119
-0.27360428385173274
-0.0092902456561883
0.7958851191165732
0.05944212140727645
0.0871087828702537
-0.6968194845678506
-0.5180803718795506
-0.8508327435710341
0.8804651260706569
0.6624114376047416
0.7921897937332647
-0.40599614711358534
0.07294257451321617
0.14608742276959075
0.9201278021861548
-0.49840981714056953
0.6448182914889802
-0.9045886045458991
0.2320031299019556
0.441508931457929
0.5052533494698666
0.07134783948464918
0.6427355734724869
0.24182690900870374
0.13276941851257562
-0.3710576899765452
-0.06909348542043214
0.8420193647394614
0.5912767658100777
0.36445231591196525
-0.21307617387186517
-0.5569083741867512
0.9878863735274162
-0.28801321742129415
-0.7861370688220137
0.5462813090527392
-0.015319245666626458
0.832324337118578
-0.26630346679575134
-0.6337098076469627
-0.886362595333037
0.5939742437143634
-0.665692005511537
-0.4103930588969982
0.21050343204191657
-0.5898816989429958
0.6420180516753811
-0.9247149885368844
0.7509558367289229
0.661939461304226
-0.44001537738277396
1.0140490224081902
0.4513984560099493
-0.09460880280704664
-0.42924627377601854
0.9446054913630779
-0.10765589294605316
-0.5608964542790276
0.3432724829994873
0.23300401668402637
0.8997379496220281
0.6160817133395144
-0.3699729569008243
0.4231346775011642
-0.6918167259906405
-0.6708430939577377
-0.8578058919576372
0.6605129896797095
0.7129991944515859
0.628927118325038
-0.05411042133209376
-0.9454633047124019
-0.007509786250914363
0.4211842307555458
0.17192299091504304
-0.051133077155070206
-0.23377114303199753
0.3668090263176554
-0.7429338858060617
-0.5865286933457068
0.485680669971323
0.47143041337122993
0.1267642217835967
-0.2511757345573229
-0.3498835648493255
0.2038992054769697
0.6687254430127914
-0.39151301187209975
0.9751070918187035
-0.5093268337239707
0.6383056896573445
-0.1427876959035952
-0.12449314452219706
0.6299159876749918
-0.7787136302151154
0.9803855509398625
-0.6871287640526837
0.3219500705231919
0.24887308802584251
0.7513101245850013
-0.09775781658720506
-0.6942575914569091
0.5147615292332353
-0.3221018092398138
0.40795685258623693
-0.48761027238955745
-0.42175375545821214
0.9857153672384131
0.04037800660393698
0.16848482153571553
-0.14018915715595703
1.0000564089270394
-0.07870084411401335
-0.4937564938842367
-0.928472053925381
-0.0654388907996859
0.20481957491934502
0.8397781371685906
0.6156423136334046
-0.4744285285296945
-0.2651410045057707
-0.7988459798490692
-0.012073675712181764
0.8991229037964985
-0.6842412341912452
0.31945046075682204
-0.6683335172949221
-0.906564571980436
-0.32479743968434294
-0.07779889072157165
0.16505764544352708
-0.8331019569622844
-0.317958046791718
0.12472312552535114
-0.8606273410158112
-0.308582355892697
0.027569466659240316
0.334437083092578
-0.459191570426456
-0.6741166074203762
-0.11144276008418674
0.4022167630553928
-0.009340643911437851
0.7082578802701929
-0.43333959668188293
-0.5349130094000938
-0.6154537133240112
-0.7386255084024067
0.5061772351616798
-0.5966707710476244
0.786306025423799
0.4182430687650964
0.24474588755739224
-0.9926383888929566
0.6503389232054484
-0.628136871216443
-0.7666100244192509
0.1285839360623513
0.794512262980239
0.7233065513083852
0.045638956294031904
-0.13219636382048217
-0.7081486629336451
0.48583204484156406
-0.7651439308102066
-0.3917003065640994
-0.6903276650129899
-0.8954828687774647
0.7017991349728909
0.19939573125078325
0.6750176714757115
0.23229086990826064
-0.21408944693055987
0.9383393762617831
-0.5968528520385006
0.4264927159785987
-0.9811546278631875
-0.26124094022940647
0.7461661340678647
0.1421148872967879
-0.6024236868601214
-0.8702216066522306
0.5253080742456306
-0.46142719081821815
0.1727610367210004
0.7845102173037519
-0.42521864954599753
0.22107388668266892
-0.6427369198522122
0.10320510266712501
0.3962525003167985
0.7003595292425588
-0.6868492807738988
0.29393638669562705
0.40341300115178513
0.4460514805104603
-0.43963196525394244
0.5056300698513745
0.1409651170304682
-0.0928891331063384
0.05893732912503458
-0.6069318516664444
0.32635208495200474
0.6826980010641115
-0.6705088814728442
-0.36182235954663966
0.19083802238267555
0.34309236452219083
0.9818330212139117
-0.836067535054996
0.8767112475462042
-0.08877657431955877
0.5946700387716164
-0.8111944731775313
-0.9437497235502674
0.053233054563912585
-0.45146099822563346
-0.4611614887065447
-0.040252257464495456
0.934087664817298
0.7242062327040031
-0.7306078917024985
0.23017767214289941
0.5853655501166743
-0.45826742574298196
-0.8423013209358956
0.9931537438647617
-0.3224196820097882
