0.08683805496764349
-0.0022306397584248667
0.07785593318024908
0.03926143603648837
-0.15444384406095252
-0.017781072509306335
0.005540433276852167
0.08358613312654992
0.15300241853666463
-0.010775254425820557
0.16124959716882722
-0.10863755842049133
-0.40585075363972867
-0.2778479195590005
-0.17291622345455288
0.028313313047005545
0.02371102214942875
-0.24840534429585392
-0.40142139333253724
-0.18606865017325205
-0.07756187818284599
-0.23654306300128597
0.37677521799547353
-0.28059299060550974
0.004573980822675572
-0.06637031115536235
-0.11283205959242655
-0.14307189898772288
-0.15037899696695373
0.035405949712281566
0.15843280317497394
0.5567860561378211
0.10830920509310857
0.20623392559228848
0.3955308233217987
0.1476629743913257
-0.09225775074697572
-0.643225588833519
0.2996466995612974
0.30126514737115423
-0.08628669989482307
0.7127911378270972
0.021427982802666525
0.3300294671832417
-0.08883843771569293
-0.40746620891789614
-0.14332839581628348
0.039102399496969226
0.26972781553832315
0.004379674588718747
0.0
0.0
0.08659156632679997
0.10977220494261453
-0.09937075399976611
0.1976913187286079
0.09093630378486961
-0.14879721579007002
0.007631626937974165
0.07272933617488468
-0.07666996611420422
0.08638555166344898
-0.01594982175941061
-0.029215198327518847
0.11171404153318404
0.0
0.02451595538726013
0.03991553415106694
0.0
0.023053762071008684
-0.025111420059412415
0.1010775448273407
-0.009342791661104898
-0.12148384447381516
-0.19555072591260722
-0.04038183078109635
0.07693275540566807
0.12699389063819905
0.0
0.07170755166568715
0.04934069272922461
-0.027485224211359398
-0.1054065409354745
-0.15559988965375998
0.1835510690546266
0.0
-0.0420984043468996
-0.0057244003719399365
-0.0006627019209422901
-0.25396678487320995
0.08548250025878598
-0.06449064665199611
0.13481973348567172
-0.0029217620936137917
0.049306098244784075
-0.0012531130193435206
-0.03264425879565522
-0.014286093306514843
-0.1271393361729056
0.0
-0.12354214682001101
-0.21706574193474643
-0.06710159657554032
0.35347460697715094
0.17288322323954827
0.032073439595925124
-0.19922800114552278
-0.14331654892237658
-0.14471785848098556
-0.04666480459511025
-0.11957602442844639
-0.09458968047030071
0.03994963809808741
0.31471891098230653
0.08333657525366274
-0.022797462800802054
0.014676858656770705
0.17038018738371957
-0.02519439286888704
-0.20871066666714413
0.021654964927408423
0.026188373368959975
-0.05834972333631468
0.027668012484815752
-0.08282678931012204
0.09186987589167873
-0.07061965543527235
0.0
-0.24206501960710766
0.21932921801853253
0.19881966844364168
-0.05644668047829318
-0.009705327902756702
-0.05957511727009243
-0.032558167729356075
0.06368775594762423
-0.3022304801359478
-0.2058643287916038
-0.14129181463265264
-0.21380331476761996
-0.4535700382017158
-0.08490567311555565
0.13335645990840367
0.024368479491624483
-0.2081201672701961
0.14776087561330165
-0.057797273556724094
0.016633996605183318
-0.0509201083499352
-0.1063540466545429
0.0
0.030937770843835723
0.0
0.0
0.0
-0.08106773459758854
0.0
0.0
0.0
-0.010591034930321198
0.07451455990959882
0.0
-0.030399764914426367
0.0
0.0
0.10293854234441127
0.0
-0.08999106155465049
0.0
-0.14323326497282302
0.0
0.0
0.1071303728444334
-0.026910285682797037
0.0
0.0
0.01981031400689544
0.0
0.06895277215492544
0.0
0.0
0.0
0.0
-0.05138347047570642
0.13013018198891632
0.0
-0.1368253784426636
0.0
-0.12820030479945171
0.06113590224436212
0.0
0.0
0.09022759651886682
-0.19917396364987172
0.0
0.07443814385244704
0.0
-0.2538457534743044
0.0
0.0
-0.011126040584874984
0.0
0.0
0.0
-0.038110291465320946
0.15314524680729444
0.010309691002752922
-0.1712454746627423
-0.029415386878223117
-0.046947796947335294
-0.45207540366434473
0.1551972647208733
0.13960341592820183
-0.09501066319336283
-0.1152732430473408
-0.18056210155998648
-0.01933791086544681
-0.29559647644442594
0.0
-0.06467409582947378
0.01735382390166791
0.11982810760884535
0.007988086630579296
-0.12482231568088055
0.16060309006517065
0.15960622800586477
-0.2113343944419861
0.01649450257190166
-0.031236506291017156
-0.024729377566761013
-0.03506577177321493
0.003138544279875012
-0.018361016407867525
0.0
0.08640628313185725
-0.12575576177351894
0.15125155178897406
-0.09257815576141673
0.11264439391944706
0.015543269538091289
-0.043108878113021255
0.004793805593482935
0.027440021978399357
0.0
-0.0963478683133746
-0.28502094333892436
-0.04250944293753492
-0.16956376537862844
0.0649314436425127
0.0
-0.49003040912851054
-0.34908574248015767
0.3822613197626058
-0.17607795509827184
0.2884124075054515
-0.13221534630539747
0.28117557180533415
-0.1106689192826585
-0.12295648727036079
0.36627698997892977
-0.4646701675772204
-0.1441587758584748
-0.03612040930551063
-0.4145328895323044
-0.011663589861841725
-0.16216915290245706
0.1353898512368905
-0.134350660827103
-0.17871968785238002
-0.0071917832043073004
0.039797425004598375
0.19651632568146835
-0.2601868507547943
-0.12417934728838516
-0.07435185598909753
-0.14650685390913593
0.04400312079808831
-0.11430684524326666
0.08109037870620178
0.0
-0.026687918493087104
0.10627911779530355
-0.030909247431078563
0.0
-0.22591901148478027
0.17858204232351077
0.073855443984334
0.1569820778773915
-0.007847251070881191
0.17415117604764413
0.16278333349670374
0.006306432459569682
0.1980720703233914
0.14708235016212182
-0.0027878114905541262
-0.18546415125446694
0.0034124802612482963
0.21132160405912204
-0.22878405683363578
0.24465094688220604
-0.047642725869080825
0.11423270812369311
0.03161716717414086
-0.06200695250905432
0.0
0.08598982373969617
0.0
-0.14958969493866514
0.09029896360761182
0.0
-0.004704699518731316
-0.22961685983299374
-0.09061031561929075
0.0
0.0
0.15407776528352152
0.0
0.06376509478032935
0.08197102905564255
0.042428848848365
-0.28211335342662136
0.06591658333864556
0.0
-0.07446509959204974
-0.020647060931676304
-0.12364032200574653
-0.037148848323421024
0.0
-0.03025380597904728
-0.06280441608358062
-0.05952186655419792
0.048237865281590894
0.0694194694454524
0.12507915162564337
0.08637072169181349
-0.23079718571120966
0.25860326795825456
-0.04887292727410343
-0.005894967083876093
-0.11340589106632465
0.18716108630704206
0.2801326482745548
-0.08240088695672523
0.0
-0.06339149802968454
0.0
0.11380061032324443
0.010904267324479449
-0.04102571961170669
0.0010519648082950236
0.08352107213839027
-0.32154078700803074
-0.05031726658445082
-0.019430765773195493
-0.10749863701764532
-0.21906625051794892
-0.025216097551876523
-0.019945648752155706
-0.22360012331769757
-0.3182950136306183
-0.2325356676170983
0.1012740581673689
-0.4521139088428013
0.0907381325485789
0.09841971627970686
-0.37604710692661647
-0.05147150222084727
-0.0679249792070726
-0.2680855592094961
-0.04345153621754329
-0.1543614450340287
-0.013691649846660305
0.14842895000851103
-0.10574425018757674
-0.07087731746682555
-0.098898955242329
-0.13271132222335547
0.008775441961991613
-0.09426688718756546
0.052935107434302894
0.3372483566098323
0.029879008273662223
0.1679507728018147
-0.06980010151240826
-0.16060376938176343
-0.18528162964676465
0.09057564390814521
0.11393196812492176
-0.48062772816701826
0.21700143277091816
-0.04815162980744242
0.2897610512050157
-0.05089392715298703
-0.26067002847291454
0.1480761363056827
-0.1448035412963957
0.014249132267909012
-0.04121695375695456
-0.13722046708896068
-0.07388873777205371
-0.08311050788438462
0.06024252280351164
0.030088422577873735
-0.07560391511801845
-0.12428340752352557
0.0
0.19890184584615178
0.08729995169773597
-0.1059956135351469
0.08846881495425363
0.23259348897667576
-0.22055091109117342
0.25958486219846033
-0.10248701495317376
0.18362744608843212
0.005842858774620978
0.07726100789038069
0.040719619829756755
-0.03505568718824184
-0.0647777052737874
-0.08217915896260877
0.10695093829684295
-0.22594735057049536
0.16115616253353984
-0.1292254807550235
0.2904811918805651
0.08031212891573032
-0.42634042691423146
0.26543150333707854
0.07762224973105183
0.11475730330019815
-0.058452311223774936
0.004522153788208482
0.022292586882518062
-0.07292995189020489
0.011853543378967924
0.022438318429646886
-0.11816427662988827
0.030886452410826992
0.025682939656867028
-0.2419604245125336
0.0
0.0
-0.29585655918769355
0.005640912949188826
0.07109311193367027
0.030215593340170297
0.19068870927408113
-0.13001786632023277
0.1550795876317335
0.28976199653958706
0.07057100266854342
-0.027155557478656004
0.0061871695992759025
-0.11918728753789305
0.07473690549465112
-0.022654528888794108
0.03205514740097261
-0.029449865577515125
0.10115204096048032
0.009617830229662408
-0.101515915677369
0.18391152057358545
0.0
-0.09622491441997287
0.09624008331759369
0.2599279359665838
-0.0766588970327868
0.14786158531161647
0.0952166371393361
0.05822177445714351
-0.21406794349322494
0.03148490930381856
-0.05725243519778277
-0.20787012488052914
0.0
-0.16022866863636462
0.006612946500311606
-0.015694352754202764
0.4125635504164533
-0.37142393958544906
-0.10767617522106719
-0.10888174002143104
-0.029789026318017275
0.1875216957233026
0.07481058379105136
0.3637273179023942
0.07954134234072996
0.09015933302397432
0.11106502721402349
0.20194804045738396
-0.2764346281586175
-0.020527404312910363
-0.15956991484517774
0.034071119267915326
-0.08947105890632384
-0.034955211422783614
0.09262014894047135
0.10249519203273226
0.05498486421832455
-0.4996809774744618
-0.24347127761793674
0.2442370844166599
1.151775240498306
-0.7348428595606246
-0.6171724971791421
-0.5929556815188921
-0.35911058660031897
0.40190780312945207
0.9951058924804262
-0.622735295550318
0.08356660650614636
-0.363440393459188
1.2197945781765258
0.7188180371842782
0.6978684957551681
-0.944781589391489
0.08911011326814505
0.028559371336782907
-0.2777890571201508
0.25706415948794104
1.0319624082181238
-0.6743160407589814
0.5883156167117498
1.0471159279311342
-0.4132348519710144
-1.5339521915361878
-0.6780916101579764
-0.2888269841684706
1.2290462475395407
0.23478146764785923
0.7300884758322892
0.2561868982543089
-0.16528561792513186
0.11020098986791753
0.43284426584558466
-0.3524280613672857
-0.7506963669718483
1.231861831862413
-0.20893239853291026
-0.15258239917890004
0.24309442805036846
1.0311521556239687
0.899371714668186
0.03791256467697396
0.42656602712253117
-0.5772866210132113
0.2650560116245149
-0.3285217116236163
0.41918672692207576
-0.2141194174801327
-0.038864118452958424
0.24373418989714424
0.05995605281119235
-0.0542253631388889
-0.24672212400884247
0.12692621199983192
0.11430354435308124
0.034094464425783455
0.25334418097778766
-0.22898176040796211
0.041247421604055486
-0.15636157911113963
-0.1002021705899465
0.027466861736973075
0.44053577097020585
-0.0342012575710556
0.0802112019338316
-0.06828004145279075
0.00322096304034944
-0.040409609268971594
-0.2879274000912495
-0.13917055490285204
-0.2692104794189518
-0.25859250802016664
0.1507653565391019
0.38596344474958083
0.1591377270555878
-0.02713042522429194
-0.14140877030806567
0.10223245683422197
-0.029961899137053567
0.14480007420063523
0.26898434577480546
-0.0818737134134768
0.22563178488240934
0.17581543710016215
-0.11533801933640253
0.041401833333734456
0.2755206442394715
-0.22720022053361796
-0.04502626376387953
-0.4346595686360511
0.3149482532314453
-0.4289314063799182
-0.13892758193049584
0.035743554552041146
0.053751841136353826
0.1805719074537674
-0.06552444324431797
0.19333780197237535
0.1429797767261212
-0.2560918973245761
-0.17939550117060207
-0.028995663924734294
-0.26647202044637
0.1444714123693705
0.021134767637182923
-0.019518209943516995
-0.0489194004447617
-0.03936203905814059
-0.2390508724236671
0.02283449625508646
0.1239170755160969
-0.11027482348959813
0.032997750243341464
-0.3402248222542339
-0.08181311902137597
-0.13291871090226157
0.08675858278157919
0.13325660968588
-0.3171917386553522
-0.09840271798884852
0.11187241534162379
-0.12286187496691066
-0.14186631229728136
0.13161585733185344
0.11497233136712784
-0.39766676408126606
-0.10850943173144709
0.03778273630445061
0.15350087049952826
0.08398303424209413
-0.016080759881986244
0.293756234670887
-0.26147246567240956
0.1680850281997452
-0.2459471627958411
-0.010567782580979942
-0.3458837138019053
-0.1710837670180759
-0.2204002732379977
-0.06308066186585723
-0.049021652434166285
-0.09883175351258033
0.07121749395248328
-0.1095175417346986
0.14490439853596676
0.009819342803096914
0.018489320174263905
-0.0945725029374073
0.24842224264507384
-0.1331877218169822
0.0670731499163856
0.035347621252683016
0.11659890148687918
0.0
-0.09133177248116453
0.0
0.04737016040860389
0.11141965326390559
0.2864402493847953
-0.08286375610663148
0.05032458273381607
-0.17203143458350054
0.038669473524233076
0.03207319235154162
-0.07684791979130193
-0.10981172384034082
-0.08441154549077787
0.1631136567529314
0.021771118845518186
0.11695469423682778
-0.04364095450381208
0.04237918138224282
0.0
0.025300175701250677
-0.01413774899361711
-0.0048488918400252925
0.04902811128866226
0.06424679772139417
0.0
-0.1680740845766517
-0.09328221253676848
-0.04784326808320338
-0.09142061283343378
-0.010059871112136659
-0.2226190415205765
0.11818187032855205
0.06201976798129384
0.19846118734256543
0.011963055758161811
0.11276244760559749
-0.0202117225352151
-0.10016691031997439
0.0
-0.0913653490422631
0.11914830223249563
0.0841835607272888
-0.09877678527529225
0.24040553819739804
0.11143075905600602
0.18660798552098995
0.04173635036054629
0.023334709936797506
0.0
0.09127373171165598
-0.1365966641272841
0.3577061360887124
0.02515701720588174
0.04235815735344618
-0.1130338952556536
0.30320979214578575
-0.1419077217666112
0.07599675992660478
0.0026355835678343827
0.057690960276224015
-0.10788965194833251
0.23723290608477696
0.021754170655017988
-0.00397987609655116
-0.05073171243539235
-0.13978440724422783
-0.07563970071414358
-0.10486322392129721
0.018746677505437036
-0.30550334036897153
-0.03475150088662142
-0.04833893126815241
-0.14502025982028643
-0.0008608018445689369
0.21951874044639508
-0.15721618641794213
0.0800817736884531
-0.1738900687094616
-0.02427590726677334
-0.07109932313733379
0.0
0.24530068954973105
0.1444555093684126
-0.1175288449793802
0.08059271830699533
-0.06031377285416892
-0.34684921419424053
-0.08810799848334595
-0.01649966172637514
-0.0118663453436475
-0.04409601280619316
-0.19910880096254382
0.04051740837492071
0.036721391821732646
-0.2139202236751474
-0.059135024949911776
-0.2522067557399015
0.12696187640173995
0.0
0.24800475811580464
0.020611092505114243
0.14948690689567523
-0.04748454491377321
0.13980514617595413
0.15754383680064654
-0.14330317282684804
0.16179239729978145
0.2108761519391351
0.07477709591266399
0.41911437491855374
-0.08588035534145291
0.018691757681915097
0.12993266204382095
-0.06558069086720986
-0.06818830442228184
-0.13173560273625196
0.21089770290034598
0.0
0.1998279468487622
0.0
0.09528311820136307
0.07046905372255396
0.05261076757575958
0.040576866753848834
0.38637169275591116
0.0
-0.33046437539558005
-0.023212310626837946
0.10864580179455784
0.02516595574220192
0.03931211078220785
0.002552030549612154
0.033042603084442734
-0.47649846400882634
0.05116129295705338
-0.025875346842535327
-0.145304848928933
-0.0706700807374298
0.08604512030328149
-0.11555646077267573
-0.12448096556289336
-0.09704107509103062
0.07530948144395432
0.0
0.0
0.0
0.0
0.0
0.0
0.0
0.0
-0.07656623493147774
0.0
0.0
0.0
0.0
0.0
0.0
0.0
0.04701122181231233
0.0
0.0
0.06363564437962861
0.0
0.0
0.0
0.0
0.0
0.0
0.0
0.0
0.0
0.0
0.0
0.07412025383095565
0.0
0.0
0.0
0.0
0.0
0.0
0.0
-0.03746356769358833
-0.011276172674718716
0.0
0.0
0.0
0.0
-0.10660615446947862
0.0
0.0
0.0
0.0647144140075833
0.0
0.028648402435841613
0.0
0.0
0.0
0.0
0.07259942948660998
0.056437314767196954
-0.13101944920665323
0.0
-0.05478161256709567
0.0
0.0
0.0
0.0
0.1383001291605289
0.0
-0.03463287585165714
0.05929371236228569
0.0
0.16031548216602168
0.054474378454330695
0.0
0.11567514326338446
0.0
0.0
0.0
0.0
0.0
0.0
0.0
-0.1065149724233399
0.0
0.0
0.0
-0.008170741723856768
0.0
-0.07246881966613364
0.0
0.006732950742343745
-0.003629973896261585
0.0
0.03295026092077983
0.2368054551353346
0.0
0.0
0.0
0.0
0.0
-0.05042734737754169
0.0
0.0
0.0
-0.029803869845971127
0.0
0.11748519711335274
-0.02959685044361683
-0.03815490375446053
0.05540786423797878
0.0
-0.12277827814365527
0.0
-0.01352330423390315
0.0
-0.10892839131141878
0.029918815886004348
0.022349352048804588
0.037741771253060254
-0.12795811487602607
0.0
0.0
0.0
0.0
0.0
0.0
0.0
0.0
-0.03405871404590111
-0.11362020851627774
0.0
-0.07364153083682005
-0.12482206688353033
0.0
0.0
-0.01908221868475006
0.0
-0.030240498150483304
-0.04913409167711873
0.0
-0.0009040060398240887
0.0
-0.17237123993713704
0.0
-0.10755502351214
0.0
0.0
0.0
0.0
0.0
0.14467121482560466
0.024851961278753946
0.01901376401422225
-0.3315687836555412
-0.10952804337598984
0.0923214510915701
-0.005998792129941477
-0.11393622712938356
0.20259342767745117
0.09055397941937743
0.003056787016992687
-0.12570135154924156
-0.12220891646235046
-0.32417680338910015
-0.014434952043842174
0.03600945675386972
-0.1098805030858766
0.024039539262807573
0.11812226710446459
0.007842042054548564
0.23382833177999307
-0.2251710263812626
0.07742757748437301
0.24585369361943174
0.16536874157284015
-0.03995815653821219
-0.16819105587441394
0.20940406806256917
0.10289592828779014
0.08009568251896726
-0.2540430749358173
-0.30409723235403696
0.04400799185035955
0.06034372176315962
0.04836466920239152
0.0
0.46269523625716924
0.15703056455827039
0.31752407995201515
0.07736844605235992
0.17932277563696064
0.2913163162650696
-0.10308476407318433
-0.1798307362848185
0.0
0.04108330325109397
0.0
0.002623285730113903
-0.06302052941736896
0.039874686261491266
-0.14322831047685003
-0.3295120519745933
-0.04320658038765478
-0.24789961350077205
0.13840037376799233
-0.28404276506076376
0.21884830247243064
-0.3322559995374387
-0.013131992187223364
-0.02394646024847675
-0.024022676182908632
0.16906493220837632
0.054076515376525136
-0.036532401357290155
0.1495857310821384
0.23015389657818786
0.24883345657146003
-0.013831009141991521
-0.08449939265935259
-0.21707747633178276
-0.33128613547741675
0.010523189408770374
0.2376263217515535
0.3246440374312233
-0.04652545401971711
-0.1338944019580684
-0.1740617737944977
-0.12801490860827247
-0.2109732656158554
-0.1344807405886761
0.01078155207569037
0.05264764270584425
-0.0031308478998981933
-0.10064213658839655
0.03084797511593068
0.2919116608307376
0.02814102556071249
0.0009447559675688361
-0.06610431746796053
0.2297511859198939
-0.17636689156729424
-0.3389321592735063
-0.1851680106907499
-0.1264996126364237
-0.17783975197551982
0.007788855871116274
-0.04386257822030182
0.015590542354707493
-0.11910981195725434
-0.1705513492304863
-0.172626690766963
0.013042063373224291
0.0
0.017892215411604264
0.16670236325621005
0.0
0.11362756790665673
0.0
-0.0006897037266872103
0.022559544498372816
0.06543658421438797
0.30214062779899004
0.0
0.0
0.0
-0.003757340497833962
0.00029577185741719303
-0.0068849906265815025
-0.20584293577182244
-0.03860726388198614
0.0
0.0
0.11639064844758686
0.23704122926487192
0.0
-0.08370917840041346
-0.061673779886312646
-0.07044295830974542
0.016730451917537897
0.02702377109085681
0.0
0.13807989950716454
-0.0677275515797279
0.0
0.168514002560747
0.0
0.0
-0.006390474657631293
0.05572720749137987
0.0
0.0
0.07060843869183644
0.03545728326127708
0.03846569973086804
0.0
-0.13735391220915563
-0.08752377774039606
0.04195801997981839
0.0
0.14488377572890465
0.0
0.0
0.0
-0.11695132118279954
0.0
0.0
0.05574165810266046
0.0
0.0
0.0
0.0
0.01016461631248643
0.0
0.0
0.0
0.0
0.0
0.0
-0.09031840041912666
0.0
0.0
0.0
0.0
0.0
0.0
0.0
0.10329126976281632
0.0
-0.03379859584293975
0.0
0.0
0.1332149515283183
0.0
0.0
0.08726246012641568
0.0
0.0
0.0
0.045810623584005616
0.0
0.0
0.046021466428036284
0.0
0.0
0.0
0.0
0.0
0.0
0.0
0.0
0.08601407512871263
0.0462560544291737
0.06259496037459421
0.10804371639023641
0.013014432521326509
-0.005510663789150206
0.20998866103718616
0.1712153035324488
0.0
-0.2124428039522947
0.0258844131228384
0.0
0.07325586908650521
-0.25283358998342126
-0.15018946097069594
-0.06840061171519915
0.0025639642796038576
0.026491457184599294
-0.07934645822596725
-0.21610325144722442
0.0
-0.12831572719968742
0.010799537740361907
-0.03186011857410842
-0.10565135665977925
0.015251687054600433
-0.3238032148776265
0.07167195574576962
0.0011445404222140449
-0.2177282129408989
-0.17474314255768464
0.14653243111132364
-0.03986710545579529
0.020181322843802415
0.0
-0.14050233939764034
0.01103770592823608
0.01934079856366192
0.015270063813768203
-0.026507936415064222
-0.12037848595918528
-0.18217117345242895
0.07012934510002432
-0.09326009742559116
-0.07022771747902085
-0.019661400775117424
0.005638952418338582
-0.0932731131765649
0.07504067055620235
0.052862447309475674
0.0
0.11985708805413318
0.22917429440024845
0.0033216813109526455
-0.02548040668492929
0.0824335769033286
-0.252001630063723
-0.09697646109009798
-0.0037709088305950163
-0.11840279141223173
0.22572749946812043
0.0479268371009964
-0.22054031780040168
0.04061869903997216
0.006496599183131073
-0.12739944051794963
-0.18635420808437064
-0.12220141702241637
0.02360522562860547
0.0
0.15028001679646585
0.11134614098903517
0.014766067043172099
-0.09421388521005865
-0.031233723973407526
0.18249081595292876
0.16075185701655823
-0.38696271672252935
0.01233864025847771
-0.0033988630661301103
0.15167405137340084
0.10222581638473315
0.013660951865219303
-0.401430013212426
0.09430890524135016
0.014474513131365916
-0.12492905325346873
0.026865546036220815
-0.0792566340173737
-0.03265485900961441
0.2904604540042954
0.025520266348077025
-0.06782049401777743
0.029642927087150217
-0.011518117310249196
-0.06412365917430855
-0.07934986885437269
-0.4049398213118541
-0.10601720887563529
-0.16713318698438234
0.2616092275156061
-0.07846155849261635
0.08346614658299244
0.047866620766859574
0.2756273118803178
-0.024500543783951417
-0.31850236261245424
0.11560068333479873
-0.22835969757213265
-0.07347252714030171
0.10095222522369719
-0.2182745990984047
-0.12309811504457789
0.03638896017737076
-0.018017532888509814
-0.08189060784901121
-0.029280374594729958
0.21531768234991872
-0.4639063220745645
0.13685973515338648
0.17719521176533143
-0.0702811720029947
-0.24016258615242103
-0.2936094323670678
-0.14915060927969953
-0.1531395513234502
0.20582996903843523
0.0832052084465978
-0.024218201444472204
0.03811689597372399
0.11064436623803658
0.06041449986772531
-0.20501287583573963
0.30284443113326
-0.07135331672903121
-0.1257678162556634
0.02086206275412896
-0.339843574520514
0.26997404888842574
0.008440907165235566
-0.4552228297581831
-0.2813596804475973
0.3551975941108758
-0.20290024074658483
0.1418653682566304
-0.1520381019887577
-0.3818344356668815
-0.011498768633093376
-0.05812347102287084
0.178954623933132
-0.20806834166066812
-0.04778119320756009
-0.0075804720561234475
-0.027381404288734524
0.013285930369705753
0.2484597105741313
0.07242504752379904
-0.05522431629295195
-0.17078723320710415
0.07991700297502392
0.0
0.0
0.05084040482911445
-0.10724938552681923
0.17617477363484574
-0.06274313692312106
0.1262012427412161
-0.02991534201557313
0.0
-0.06180351124026581
-0.09021496709198942
0.05174491619383448
-0.172978295625629
0.0
0.10849907848602612
-0.17472118669624745
0.0
0.15365299611264668
0.0
0.013964339736254796
0.0034671313462653897
-0.14453532731005306
-0.04360923052383253
0.21287937255515496
-0.00692423208928066
0.029298755715529264
-0.01740933859093297
0.0
0.16037305137160318
-0.05250404951191802
0.05542271429961874
0.0
0.1432787935475844
0.01056008366761638
-0.06037247255660879
0.2079348658405442
-0.0912319033271343
0.0
-0.33126585611427495
0.001776948870765607
0.015450223162583557
-0.09312880441714025
0.022006766025545743
0.2864255858198175
0.04123397890720412
-0.09425178514940294
-0.1784669955408465
-0.12691278856355837
-0.14979494342291577
0.013419526707055561
0.0
-0.040979627400704
0.0380418163671107
-0.278952647909687
-0.05311996631598326
-0.012719933755757768
-0.03006667835321951
0.0
-0.140041546058381
0.1405769624401838
-0.0331014304155897
-0.003420184198625116
-0.23252738640681186
0.06545876829442115
0.10592847474398642
-0.18285569689314082
-0.2891210450277457
-0.11498873425565878
0.0
-0.15309449020004676
-0.10479490507767139
0.0
-0.08292178991677744
0.20251618994915022
0.005525555477492405
0.0
-0.14185677372498362
-0.150920229738347
-0.008168209442054862
0.040961836530423616
0.0014885752980862144
-0.08768433648333111
0.14690452672521545
0.21760598700375303
0.1446349532956827
-0.05348595400730506
0.04117309413215296
-0.05580537115338254
0.07824130907304362
-0.07780827351943498
-0.08369696868331035
0.012826899459691421
0.02505477194126346
0.11944029211716921
-0.05600105588573056
0.0
0.49066569142942906
0.05911178162035013
-0.038708894699382795
-0.14473802615468204
0.017867422674862937
-0.009378966144598419
0.05663954482930565
-0.021739123296347702
0.04586766617819972
-0.0059407335578789645
-0.10922467504924024
-0.14365703426441284
0.009081387366934368
0.04011845534349916
-0.22083962836346036
-0.08526443094657722
0.10175659986947616
-0.18570913322606517
-0.19887176627813405
-0.19423349210266777
-0.05394962794682415
-0.03438601589244633
-0.009679035718014654
0.1416633400482932
-0.3891859596730888
-0.08389477180761337
0.03484142294974445
-0.07881301115210973
0.07442781890505112
0.04605164656292777
0.0
0.11783029196187846
0.09796349332256202
-0.022859178437978647
0.028059759682478147
0.05434596757799183
0.22701227756230846
-0.03663208232025322
0.13342293372543299
-0.23856472603231482
0.028544599251571844
0.034512552845829866
0.09815335136616506
-0.015044253528178966
0.008550233592663267
-0.04626782271876064
0.07754792803260668
-0.12150029635824855
0.04660569328770251
-0.0005725802986017946
0.11077719238738823
-0.26772056320659493
0.022727434843396746
-0.055698063015099074
0.39593911298200996
-0.07651607360914273
0.18254145056798132
-0.13872590784452798
-0.05735966433342553
0.024051263670190788
0.38538305350950797
0.08085556011949505
0.17657772096761695
-0.26924778053042087
0.09503027896142559
0.021972661314771547
-0.12535882182522307
0.19575137347412913
0.034220995119595615
0.1064182102441216
0.3527304696500375
0.24380482710003934
0.18891809897443745
-0.19305450725271758
-0.15411599627768083
-0.10608981181509992
0.08332901566910877
0.01119332547851612
-0.16872252360320927
-0.13793642375027934
0.04632299783335059
-0.37751901510789065
0.28338226107894865
-0.042453025021007326
0.0972953864866262
-0.12392012624468274
-0.08535740917182807
0.0014603467483295634
-0.144913951067939
-0.16000028467461314
-0.15130072772445333
-0.08600816378795692
0.045474865480779496
0.0960115187852669
-0.10164902054588114
-0.12003127808149487
0.05835929915634018
0.0
0.0
0.0
-0.05947931662438007
0.0
0.0
0.08474116576481594
0.0
0.03580287892173084
0.0057615430952076075
0.04291851090996378
-0.018731437284854296
0.04082236615495101
0.005516686684021651
0.0
0.14815723845110562
0.0
-0.022362065189060032
0.007270118423318907
-0.14293982710668132
0.0
0.0
-0.14504958308910154
-0.059510126471590576
-0.10757871559828908
0.0
0.003930532844563126
0.026423514953595392
-0.09859195956036079
0.053094761182844515
0.15661943822727517
-0.005850032958687574
-0.22355682455394238
0.00694688462454161
0.014495353391265071
-0.11143298874483351
0.0
0.0
0.022465641705608955
0.07619675833114405
0.0
0.03411492802823901
0.0
0.07890202706462994
0.0719176004547152
0.016154228992701983
0.0
0.14298207555700962
0.3388341682256867
-0.15520194907863688
0.17733977416672803
0.06332083680284147
-0.0010046335310673615
0.056742037331827665
0.05931717326089081
-0.023203118283698754
0.6012163269876463
0.05469404267372624
-0.021101377157851056
0.010035552872669053
-0.11553838708502834
-0.3056549709982964
-0.009992415048213252
-0.039675874070189215
-0.05721928491058613
0.1154113695764126
0.12193331582824866
0.15008663776237688
-0.0010215416650997122
0.010145157578497654
-0.10088007777750893
0.005648537013183954
0.21188351226018717
-0.20996169123875863
0.08754691664204466
0.011278353815833732
0.15594388722945307
-0.20306952228120256
0.021090596352894286
0.1138781019879157
-8.652936375691533e-05
0.10126463761596961
0.23014961054773875
0.11455802185500895
0.15491874379772141
-0.021727527837694327
-0.2009676846288977
-0.19024338321827322
0.08890991154774808
0.24965463443771851
-0.1590955687146905
0.0777739704014818
-0.19329190311885996
0.18444853857013932
-0.3197773712026763
0.15551814752657606
0.16711651508530312
0.1266006471925223
-0.14463626565329513
0.0
0.32372139093961355
-0.06310609038670273
-0.1094244526660175
-0.015310137407239487
0.23615817703729905
-0.20188232575232784
-0.11307105329814209
-0.0019608416452467185
0.03801126085125267
0.24562695754920655
0.18974263070892317
-0.17642593387538752
0.22639132880807628
-0.4255557233678379
-0.20546721927311293
0.0898613480336139
0.18340758448084454
-0.0302697634792624
-0.5015739834686161
0.1949523520221644
-0.0008157298187320555
0.01116795333009455
-0.009176238040939609
0.1822931978552621
0.002194024934401954
0.08448508758120102
0.1015700389908234
0.08541322315291505
-0.047376882417752834
0.2452005120326391
-0.09086193646338951
0.027124928630972885
0.19651630778165538
0.21943309978902797
-0.19155476130735596
0.09306797412708745
-0.0710838772226418
0.1730096057909863
-0.05251554003192133
0.08174098313258907
0.1383022170880691
0.1296779619812777
-0.020414745005896122
-0.1846028223898421
0.27777307211458413
-0.3422736249027322
0.15006164941098915
0.0918431013699585
-0.06483727465116122
-0.06445228658939675
-0.056222176369596276
0.2417168801950752
-0.0855273698001044
0.251198321377121
-0.007273780066320609
-0.07167459494724865
-0.1578965956859011
0.121747410442756
-0.29666105101191625
0.1449385731037368
0.17289255821465443
0.09018161210183515
0.05738260130518913
-0.12301219240641943
-0.046315239037344566
0.15044082637595085
-0.0680746259393455
0.15938593086092456
0.25728364489833844
0.022433031694653764
0.03568608652417028
0.015529887370668308
-0.014631246176941282
-0.11933671215111302
-0.26104276059114284
-0.030452046079851545
-0.07989791765835615
-0.13195032851631638
-0.3590995178586304
0.005317868255510824
0.40296492209612533
-0.22178276053486679
0.1069746594434921
0.03193309828697714
-0.04688875750741145
-0.028878295576618057
0.07955667339645646
0.07758258541060342
0.24070244102069352
-0.12154489759391707
0.009268295518839342
0.048554716333831696
0.3147842199847416
-0.007773308820038231
-0.2056731408263136
0.06624818904242841
-0.25817142713316105
0.018648868419864906
0.0
0.2435347540826415
0.0
0.09899949874341854
-0.022419551227614493
-0.043777666675283176
-0.021067686809021463
0.06743963689870955
0.0069223692001409215
-0.035792036805971414
0.13818396389457638
0.013891984422839851
0.0653928329695447
-0.10626686211070271
0.12228330395214537
-0.05085105300653567
0.02965177150930018
0.0
-0.06228005642591019
0.04054688402325203
0.08899358601107066
0.058554537128089924
0.05756609591643919
-0.07750518876013088
0.0
0.0
-0.010996006428275149
-0.1620326944016528
0.04010097211040785
0.0
-0.07684929793384394
0.013163420442506943
0.0
0.00687920194194213
0.04632252493398303
0.07771599741026045
0.0
-0.02098103412291237
-0.07478611959744891
-0.025940324941189946
-0.022473926721816168
-0.1473582372191638
-0.031051550847093594
0.0175267745257021
0.09162681659370311
0.08539776383475718
0.07251424517457963
-0.1797502957154617
0.0
0.04912855434194002
0.08676807723539202
-0.10294527100812693
-0.06679214349940571
-0.009368948524007277
0.05450905517410795
0.23973868581636262
0.17982847379176337
0.12099011049034301
-0.07826808169784152
0.22158263988983073
0.2734290221165489
-0.018714935257046244
0.06838030578715562
-0.1637107580773252
-0.2058229546600545
0.19606058621862166
0.14147159496414424
-0.10873705497200349
0.09219661507235537
-0.015038336004210999
0.11840647483940671
0.16358951994654486
-0.07015324906213638
-0.09383267082497182
-0.018163056058833837
0.02188683648416416
-0.07943805967307771
-0.21068353881193144
0.14794970432592158
-0.316748706662624
0.1138583993937422
-0.0033974557689901777
0.10217056072571451
-0.032846184679645826
-0.014493164136434707
-0.04889849870813119
-0.08930867556488174
0.032681363400955614
-0.034516825776881935
-0.035790022196940184
-0.08524659816740868
-0.1347467948965015
-0.12830525037527557
-0.06587775948432377
-0.06217624374414469
0.23508186569961817
0.2054430637123142
0.2544745296335132
-0.22878218312886814
-0.1436702680350915
0.0
0.06831518740579193
-0.18858013002290058
0.0
-0.04573337255714419
0.08904392759181609
-0.12661253504225647
0.0
-0.09089667022638608
0.0
-0.0229227047730729
0.0
0.10901816258213684
-0.07212126208388178
-0.14895247198053857
0.10758543843085659
0.0
-0.054805358293462815
-0.04507727249542465
-0.029136631545470814
0.0
0.0
0.20321307819221857
0.11473269943616457
-0.09082880575154649
-0.02518277181949737
0.0
-0.049989404400684744
0.07702474721541108
0.0
-0.1190846971623744
0.08580680688226604
-0.09208522222304144
-0.03853006180369866
-0.06249152372128128
-0.0038793985947186763
0.023315571688645283
-0.022895962045991404
-0.007353962558869071
0.10825851208040259
-0.038904885382156695
-0.13046974047218804
0.037823209249886795
-0.02874036497758992
-0.31989588563872007
-0.015208770764449797
0.0
-0.0445833758238498
-0.0421859448327803
-0.11239759371119538
0.1991090626300004
0.14595627488293078
-0.03519289595593344
0.17451353077700635
0.1868813800014092
-0.28823382391490954
0.14480637209721534
-0.011543577763228832
-0.4778903452542404
-0.03713327698099003
0.2657970460301799
-0.31073067148562594
-0.06401464550474917
0.007592964176718536
0.0979033527875107
0.0
-0.006572734350090884
-0.020448750978332417
-0.09302333424749264
-0.010951775899373841
0.08547843891451967
-0.34160378979344297
0.08821140179469479
-0.03346977884809303
0.19675268463055032
0.27556625491732817
0.08144955416870701
0.040653354803778026
-0.07955561708631417
-0.2578997454863359
0.2057113797894553
-0.0784564126833005
0.2952173396110489
0.13941740328384375
-0.1708299385382503
-0.3671949418590458
-0.053221231779047126
-0.1446921404282197
-0.0615331730139972
-0.1942176248241232
0.04729250164463717
-0.3091033889819125
0.04344373683418345
-0.1664513820142089
-0.11966001052253228
-0.2190293316474657
0.20319701384085367
-0.07178893276066732
-0.22895233966005246
-0.12326177854878484
0.0
0.0
0.0
0.0
0.0
0.0
0.0
0.0
0.07593874577471418
0.06336758243998396
0.018960298725619128
0.0
0.0
0.01832349916642257
0.0
0.0
0.13208971354720794
0.0
0.0
0.0
0.0
0.0
0.0
0.0
0.0
0.0
0.0
0.0
0.0
0.0
0.011781270755637362
0.0
0.0
0.01954318678469708
0.039574507829747224
0.0
0.10946038875815904
-0.07275178971915618
0.0
0.0
0.0
0.0
0.0
0.0
0.0
-0.1018111781818495
-0.05547586196200844
0.0
0.0
0.0
-0.00796034990116394
-0.35026833314549316
0.11083031394080392
0.07703156084480893
0.08521659410826572
0.5320803086617939
-0.24488950672375911
0.060621862431146235
0.4240190244998948
0.11449825055023863
-0.02536210904977215
0.20933450772760642
-0.037757331290877175
0.17920839720272938
0.14136413585515856
0.01805398565683608
-0.18761023504069452
-0.2928338811837162
0.44646570106142225
-0.11937463889205269
0.050956266811484685
0.04067436815528073
-0.04525590693558737
-0.29392206400171844
-0.3242017744592212
-0.17017658515205913
-0.02067024196677289
-0.1331630041070641
-0.15304051926741363
0.19839406672699014
0.13502971948944437
-0.1397486426924738
0.13466783588575523
-0.23779316332328046
0.3691749428343002
-0.20200330100629676
-0.08823053335007011
-0.05676741899872687
0.14996903549253077
0.04386806872263452
-0.18717074575012138
0.09400735317496678
0.15926987239574644
0.04928749672745052
0.13934719579807875
0.14399517350933805
-0.06366945432067024
-0.023908896294752787
0.0781664825068792
0.06034842291656163
0.022536152750276955
0.17635244988007198
-0.24681246127306805
-0.2019720280323325
-0.1108552750026694
0.26337732282604465
-0.36021097044213873
0.0
-0.11861694171227638
-0.038612535914739066
-0.11590817886666732
0.032477147501997546
0.046250030294117624
-0.04722914925718606
0.00317714059894747
-0.16203130716526845
0.2006238091683551
-0.02321901084067122
0.08063217969507873
-0.04690362672599202
0.2607802592834329
0.15393961459579525
0.357363051665225
0.22072303044135838
-0.02079518957269178
-0.15056809240229957
-0.2506089960204131
0.04714868351908544
0.33198705095358183
0.23089513978308923
-0.06047938568763038
0.23862238003223724
-0.16722702136882528
0.20726593279991423
0.03777857782919222
-0.2882987611702078
-0.06808796354790682
-0.016232271314084203
-0.10247603272842087
-0.2721457683935661
-0.023816566943809576
-0.01261247156591512
-0.4030310564807564
-0.05920865270656648
0.27175420999272243
-0.0612485372073693
0.17499414706153146
0.10770784726842682
-0.09063927686320837
0.054263378999641856
-0.08784717754461253
-0.2986029440481944
-0.15138535156452204
0.0881211092651354
0.05404283257235228
-0.21849645598161016
0.044714770803720216
0.18699015055571538
0.12996899890351626
0.07811445637319034
-0.19393144897491882
-0.16018934027399184
0.09608994352331181
0.0
-0.23890945179128342
0.06043366668575915
0.007269936670034773
0.07294581142704618
-0.0009452000287773488
0.22616604374709812
-0.06812091572246957
0.0671052089390716
-0.19730904307053582
-0.10872914270214015
-0.029787847268427425
-0.09321973286946608
-0.12343278092453173
0.060156432238545436
-0.00036557080247569956
-0.028762069267412788
-0.264783808702735
-0.27276113735297974
-0.024251253543768142
0.0761122727075013
0.28262318966379507
0.0
0.0
0.015477520570274761
0.024496931211060974
-0.03277123163588534
-0.00125996890156517
0.05891869668777046
-0.21559927165460993
-0.1685815301167134
-0.06443999479964066
0.09892240020136565
0.20256759632735505
-0.03127821210878069
-0.177817322402485
-0.10265233955065708
-0.25610947085058416
-0.12395313107133316
-0.047795967311087484
0.09155811583680655
-0.21379862691551552
0.02767417825955728
0.16761672790960105
0.049745791182740744
-0.07490362853024413
-0.22895464845001456
0.07030527317193938
-0.10120147283197692
-0.09568972339548032
-0.11396604977537615
-0.03095665551551509
0.0003759488522624421
-0.14772440074072707
0.18741950288698356
-0.025296849127648666
-0.26016017634770205
0.21255694297224326
0.04475516509063446
-0.038284527878306995
-0.10924744871532628
0.0743923968986711
0.0676091485764105
0.02748031550064544
0.3023446215962621
0.05528253048694351
-0.1476497807851038
0.14856843651553348
0.09499509893834511
-0.04852613250966434
0.14882459073913226
-0.0027377206987253557
0.04026987111049264
-0.02943761214778507
-0.47924928407751355
-0.12044769288405471
0.005058530879560534
-0.05364192640836783
-0.09807005322302761
-0.07366936386420947
0.0
-0.16362869843448918
-0.08268392379434958
-0.0023154879120704346
0.10984685653723189
-0.044797443677292714
-0.041866047165576015
1.2353241750630146
0.11162599301153839
-0.5208912909808535
-1.0970309977661021
-0.17418067596435238
0.8045189736724436
-0.5750760089145363
-0.8389740951677491
-1.0777070025378153
0.04281994761712789
0.017581315896047778
-0.09562372046271261
0.22375609083593
-0.6247044654192337
-0.5320210066232562
-1.17966647540527
0.03566412073281128
0.2595002181976244
-0.526117097335364
1.1386468465638362
-0.8912522538733231
-0.296278448046432
-1.172704312173954
0.2193783617442319
0.7583910088169231
-0.0688612151795856
0.9950338386876133
-0.7359610913042158
0.6963230224645716
0.770548285619135
-0.4793901978756516
0.5290666844423776
-0.5212316225559626
-0.3088454835032747
-0.1811155845737512
0.30765033628026056
0.1051652711966098
-0.7097232109073837
0.7334666858337454
0.46183540210190144
-0.5564227423710357
-0.42533874211226264
0.6714472002885916
-0.10084184287826563
-0.16130180597591126
-0.5472256574881064
0.07032788726443094
-0.6698503135232923
-0.0018542541600203022
-0.5807606774141565
0.1282343333493683
0.0
-0.17765462436531124
0.0
-0.017125153490638995
-0.2537070895721322
-0.04611802432724015
0.0
0.0
0.16336113466834137
0.04311080393902149
0.07505028760645246
-0.0682768555314918
-0.160692975643355
0.021433619640865473
-0.041267188902992566
0.21870711848182342
0.13451149663256023
0.02398603349714517
0.0
-0.030290503857041517
-0.058057165756971695
-0.06349095623100083
0.13083927775498094
-0.005701399605083764
-0.10818053450383266
0.0
-0.03792031036692792
0.018327273788151716
0.06829800650796897
-0.020278052023952654
-0.025282491218851795
0.0
0.0
0.05797961823066962
0.08257406066522938
0.13887729661408205
0.0
0.0
-0.019609085028097863
-0.13186390210198728
-0.17296076964446044
0.13541456746445577
-0.033946799809524156
0.0
0.0
0.10058936005698049
0.17976938197935421
-0.001402329912195078
0.0
0.06415743056079264
0.003358468936619466
0.10909335931849637
0.2186320475931579
0.04856480809611819
0.0006209110162792991
0.006957869636347059
0.13259968065917238
-0.024029375498291893
-0.08788918096448718
0.1317406242781838
0.43985369523011336
-0.09678149677021412
-0.24321186505736586
-0.1376954001095092
-0.0632884423959336
-0.015126522785903998
-0.06047999256796608
-0.3134762660743664
0.24838810535904654
0.028239032917303876
0.1357839911511176
-0.08277418026430153
-0.09147432590363468
-0.11505049413341971
0.023671701272047055
0.007869912105682525
0.046741613176843846
-0.16586601764298076
0.1267749723940468
0.0
-0.15959870685276362
0.004200675548132929
-0.27041874335556715
-0.14688940140217688
-0.15985362466029476
0.01688712315871825
-0.022978794760375308
0.020730231846127305
0.21839458789554023
-0.046682179844085014
0.2624859361103871
0.0319746853749696
-0.08701695780882679
0.079615647103581
0.10910163859305311
0.015486389008926647
0.36010165834534463
0.1832066351888962
-0.06124713076567159
0.4734074420375948
0.11909339586882535
0.18676778063608385
0.3060932409875957
-0.13087923597116516
0.17756014877783274
-0.1743307449043971
-0.146525941730467
0.007027252112093145
-0.05069553186664556
-0.45578926575345047
0.09924207672719994
0.25795671585369656
0.3032204747170117
0.30766036218241244
0.10943908725277857
0.2359222937625634
-0.41452802531820243
0.3994947198539593
0.058882806510286545
-0.02166234392164635
0.28164755484674575
0.4020819576750859
0.015355618899617111
-0.3171265388461351
-0.03159736117406877
0.2857258366790093
-0.20494859075116698
-0.33814665281387934
-0.2888346141125901
-0.30848507740329734
0.05160124942967042
0.06664850487959971
-0.2285233846639957
0.013272387314988372
-0.236654935431253
-0.11682207110014028
-0.008305289940510026
-0.06262261233046751
0.1029033884137806
-0.16286960041887996
0.2741461818560149
0.19201039488648317
0.19457763009667478
0.1204466237618017
-0.23621255478083436
0.1268652034011873
-0.028727745106430565
0.06906447264863827
-0.1530096450222277
-0.10248785025033501
0.0
0.0
0.0
0.0
0.0
0.0
0.0
0.02274712693288722
0.06299655402544327
0.0
0.0
0.0
0.0
0.0
0.0
0.0
0.0
0.0
0.0
0.05304837722467612
0.0
0.007151378172522417
0.0
0.0
0.0
0.0
-0.1614518835493745
0.0
0.0
-0.0008175529167512563
0.01663333676374602
0.0
-0.0365962472568988
0.017414740535217656
0.0
0.0
0.0
0.0
0.0
0.0
0.0
-0.19819108711463557
-0.06478148959299332
0.0
0.0
0.0
0.0
0.0
0.0
0.02460760905693335
0.1560241396987645
-0.5881777320271512
0.11733588163118874
-0.18559353586967883
-0.24260806226252696
-0.2656504947734277
-0.034458984706255295
0.04682471079261254
0.26503449365587345
0.11131947602373754
-0.05541990738821929
-0.036530914053510805
0.14375192442974435
-0.045409247051387824
0.07959493367561535
0.04181650334762152
-0.14594054535349887
0.08096616621266231
-0.11755629667489442
0.2590856567296325
-0.19744968793694018
-0.1384206462978655
-0.016737410237138567
0.1752379336245836
-0.03032045477173833
-0.15964278045061436
-0.09757721278477643
-0.09549598503945086
0.1383734104755021
0.0
-0.07052487934149064
-0.10189576361936664
-0.07906912196134855
0.21001072227031137
-0.006970821759859076
-0.20312693524259834
-0.18916179479737727
0.030601483214734382
0.17695056187297425
-0.030195863262791996
-0.0672112222547641
-0.019023720095009945
-0.13111992926240054
-0.042683591400581346
-0.12327536222118546
0.0
-0.12689593515342662
-0.055023360067935956
0.10292079530525716
-0.0774688441067557
0.0
0.1275987877513456
0.0
0.09804474990413112
-0.10562966565313901
0.061501230332090706
0.0
-0.1372181621557485
-0.30617087124125875
0.017821376925378968
0.0
-0.15680078804529102
0.27259577079401653
-0.10985423203329514
-0.1277699275308006
0.13322729848066672
-0.1635560600234792
0.15649248598254784
-0.03721567080087232
0.01218456199601368
-0.10638743588084569
0.0414192568442385
0.006480960323986512
0.003557600075493564
0.1821315167977496
0.0862856882024881
-0.13779329324644138
0.0
0.05059740716958089
0.07506407982512768
-0.169695670389702
0.0
-0.10459525217551607
0.0
0.08975064317006819
0.0723933003764795
-0.11501691416731051
0.06793780859209393
-0.09139695555272544
-0.3718080943619856
-0.023592166333660007
0.13930322228883238
-0.042468957662418975
0.0
0.00879913974398723
-0.10194483867802201
0.02225408059491358
0.006425462028447872
-0.024033652807751354
-0.04716550078295821
-0.09979437481524026
0.07735109485015565
-0.02051045757846759
0.0
-0.21527877993069464
-0.2165027422340178
-0.14254645981429587
-0.11866837141263091
-0.07295093492399875
0.058262668360815215
0.09605091878008888
0.05315631719579296
-0.00037781208825217547
0.2923793669548952
0.05728637085626239
0.0882325034322127
0.009120998513874587
0.0
0.022638948563309017
-0.14743428197973976
0.058839423507199
0.0
-0.15057412502876905
0.04161183929057086
0.0
0.12556331123007386
-0.12978079020258634
-0.05505742264018145
-0.038470168555424095
0.19663405038744478
0.03425498900988014
-0.09323798506482132
-0.04759171643032546
0.13850343474850213
-0.13130736332394904
-0.003366202663690135
0.0
-0.03324335391667567
0.0
-0.007820941542594974
-0.01601235169520974
-0.08230061370206432
0.1636069608816964
-0.084045662775181
-0.10471393659629813
-0.02376050903229417
0.17130203765749877
-0.008920574402467246
0.034156043393554894
0.16794045513672748
-0.06490784730876414
-0.10491079013241292
0.23598698139433594
0.06432565012754932
0.10728600122323295
-0.04437703493299362
0.0
0.02551549730600065
0.09697783196858802
-0.05341160690255242
-0.20323957041148555
-0.0061200511528401655
0.1866684149512743
0.16446321738903458
0.0
0.13804944967716376
-0.039248913763951614
0.07928101005625568
-0.04908610506589726
0.0
-0.048040471722652855
-0.0027646497074693965
0.09733096322713083
-0.02592489382562939
0.15185327474423013
0.10123021459663663
-0.10097925234970602
-0.18214588284778088
-0.08081302213986802
0.1300029286097709
0.054758340455539053
-0.004147916355186992
-0.06590080941196858
0.041319053067286955
-0.0005718988835673022
0.07224236224652755
0.08350946187751941
-0.09720552895300251
0.2339642500242224
0.11472286971360836
0.045912299442550125
0.0
-0.037187741491481824
0.0704619571538137
0.06309029304174708
0.0722223762755457
0.14028298718195553
0.21143020166509857
0.0
0.0
0.06392242537534296
-0.08095251260178951
0.0
0.0
0.06670510834543544
-0.009028330707666073
-0.02977941013411784
0.0
-0.15432562421829552
0.0
0.11047711883349039
-0.08970025641560632
0.12346241211476663
0.0
0.0
-0.0509025707333433
0.07327196963770859
-0.009780162624592519
0.0
-0.03224989773894537
0.0
-0.2502579717967274
0.0
0.0
0.10293947627674248
0.0
-0.0739371656486959
0.02497693212034556
-0.033738247390568334
0.018734908608521846
0.08147500312328088
0.04331291990467144
-0.1625159680075277
0.0
0.10506724329463878
-0.022727860278582028
0.0
0.0
0.0
0.0
-0.09159827647200382
-0.013691555172495862
0.0
0.08843462267918561
0.0
-0.058477843204336966
-0.046619857832110985
0.0
0.025716930440389727
0.033812168099910736
0.08070106838899374
0.08778671488660558
-0.33815850178992823
0.046070836084707384
-0.0414935042609173
0.14817738089301274
-0.3901451265797427
-0.030498491955814597
0.05431448501455104
-0.008325893425276426
0.014937473079340312
0.04044407741383529
0.10531157037245126
-0.09161654409004483
0.12419476563503112
0.2666742353821451
-0.023570068046861174
0.0
0.17058862959807586
-0.004261853133196207
-0.17420838645147577
-0.07548413981414817
-0.04651994274342212
0.13233455603946404
0.0
-0.07917738311865428
-0.3116277845683698
0.11110774752452705
0.0
-0.1412486318780201
0.04540635267561225
-0.06747173330021805
0.18884073775429805
0.18050609352477925
-0.1545956465519778
0.017927828239424456
0.03699294878002071
-0.04966331415203029
0.31266601244612147
0.32485692375319036
0.17814859152258625
0.022254716926316948
0.26761568626141974
-0.1629969649987599
0.06864000953567814
-0.049808002303117736
0.33266842133890573
0.07497235062725693
-0.047393568478675374
0.13934046254477966
-0.17806017991735487
0.21529048397943648
0.06270717139451
0.001122941836465642
0.18361622872728894
0.0031394058949536577
-0.014581089632976732
-0.10989142072832658
-0.01987295080580108
0.2073757768074121
-0.033047500854141085
0.07668146036508497
-0.06361530697017714
-0.15609566085775006
0.09792641346210476
0.06879157229047567
0.09810748158727343
0.025831352335754728
-0.06596637185777314
0.033677391624529596
0.2549429526630931
-0.3619154454906478
-0.026365144694989087
-0.03603669230882907
0.03404493329704632
-0.030803040369635104
0.30605027837715165
0.16811474495986803
-0.3406811667951923
0.26695715941509457
-0.3002736404378482
0.15473415915655772
0.36272732825906373
-0.022663456304103494
0.10249622727065502
-0.09203631073298355
0.18434923639850345
-0.061918646621183876
0.17221648280220017
0.020345810010015716
0.0630916636124468
-0.022386250436477184
-0.3509542938826702
-0.0897369937455868
-0.06388705556522674
-0.25084925395400426
0.2619603321002003
-0.0954710116381601
0.14016605231198773
-0.30896652332083135
-0.7890680819007786
-0.7630676237151011
0.2821524171500508
0.44518190540005986
0.7088536717882699
0.48800255723488495
-0.5381649093907934
0.2103745544115282
-0.012355763204070447
0.23386910050083262
-0.9666432818771482
-0.1150958756567217
-0.24502835096661152
-1.1312010799588945
-0.4028364282490612
0.09650733718070004
-0.21399709779857246
-0.02617815950522418
-0.1532901889615282
-0.15192294589109182
0.06874141232617088
0.6210079828069593
-0.005857809566613277
-0.10884140797232596
-0.6330503498405609
-0.11464384148224951
-0.03964274010518187
-0.34409294932058576
0.5727876068418917
-0.5903762161997375
0.8645707025928225
0.10959910674607234
0.13926584331329783
-0.19302882842150343
-0.32861187665543123
0.46406513718755094
-0.2101854825803699
-0.2540694821487356
-0.4548176808879014
-0.5982513604772725
0.03623423191970437
-1.2876141267386292
-0.4025032593622451
-0.07255482213545132
0.4081116949375457
0.16964355279576215
0.6786167178849898
-0.1913117843354222
0.6567119340447537
0.0
-0.04156202907321691
0.0
0.01201420238895683
0.0652758248947761
0.0
0.14946865071283902
0.0
0.0
-0.0345266912674944
0.08534298633960488
0.009540004842150777
0.04692008911429322
0.04254293698219075
0.0
-0.015402013143413575
0.0
0.0
0.0
-0.000742527296634524
-0.02874609592461888
0.04540444431744417
0.0
0.0
-0.15589846899552673
0.1595690578458847
0.0
-0.02540011884669252
0.166065041608026
0.0
-0.10467995667944706
0.0
0.0
0.0
-0.0009295581408698805
0.0
0.07154863249550539
0.0
-0.06467268981252611
0.15570129933846677
-0.07897273751803534
0.0
0.0
0.06831092300649046
0.01952876952369852
0.0
0.049204379535598086
-0.10829090548517055
-0.02887715413787441
-0.01822017083335838
0.0
0.0
0.0
0.0
0.0
0.0
0.0
0.0
0.0
0.0
0.0
0.0
0.0
0.0
-0.013755516894316469
0.0
0.0
0.0
-0.1450081692442663
0.0
0.0
0.0
0.0
0.0
0.0
0.0
0.0
-0.10645881234743876
0.0
0.0
0.0
0.0
0.0
0.0
0.0
0.0
0.057074925854141284
0.0
0.0
0.023482658941980414
0.0
0.0
0.0
0.13791575949030316
0.0
0.0
0.0
0.0
-0.05715366735143148
0.0
0.0
-0.03231673812123521
0.1638990493315486
0.0
-0.262030293749823
-0.028369266168785434
-0.21593933712276675
-0.17031614743426587
0.0
0.0
0.0
0.1910755152176713
0.2063692105493645
0.0
0.0
0.05127030083226286
0.0
0.11617829584573656
0.0
-0.1969724563149579
-0.025673532747671826
-0.19197633801510916
0.057177327983269945
-0.17238691701396203
-0.13692762134823036
-0.11204147623927108
-0.11559194248959126
0.09352382995035917
0.0
-0.03775171003262861
-0.10908111213947913
-0.15455011885062642
-0.03505204310468787
0.01618213044328486
0.1601135613125246
0.0
0.07589909606569306
-0.004864313361931664
-0.0790350607531393
-0.30599826999418034
-0.19520544057178038
0.0
-0.1221572887246528
-0.0996116347971839
-0.004799318734227642
-0.09573587451610699
-0.14615163079197202
0.0
-0.0014568164295445025
0.0
0.14473511147970988
-0.18048822871361558
-0.0436619367820749
-0.21874806273679814
0.0
0.13066295204298964
0.05208453625069156
0.020614063529568544
-0.054156456658929215
0.009522049763503385
-0.0794291061699671
0.04553399943412097
0.0
0.056957978255875646
0.04738692594769695
0.13477025426445952
0.03321672548380061
0.23362052484659646
0.0
0.03959689036798952
-0.034564404919511155
0.08081655732071757
0.0
0.0
-0.13846779437755413
0.0
0.03422798151343723
-0.06970580277924279
0.24172643210159256
0.0
0.0
-0.04982027050334713
0.05448587037388196
0.0
-0.12613559986866102
0.038699326434141375
0.06672528123827622
-0.18741655161275275
-0.041914156913486496
0.014564962345863575
0.0
0.0
0.0
-0.11738796648735916
0.0
0.06857255671786193
-0.00038998864920459375
0.018794642052027598
-0.26516822304047005
0.057913414019857924
0.0720697036472777
-0.11570226867222964
-0.067723299880271
0.05820121632023094
-0.1332609384861595
-0.07062246398751641
-0.05128660976044489
0.0
0.08110748153246766
-0.168453258416675
-0.007637921133142293
-0.009609465806103222
-0.05624081904621486
-0.12848868678613268
0.07543969560297002
0.025727999072320987
-0.14026814626218004
0.052314053552491295
0.0
0.05231929826419252
0.0799465426797325
0.045942273193500326
-0.05460491924105542
-0.07524610682364659
-0.06932610548774042
-0.15787057910381933
-0.046710676092987555
-0.011343178680194771
0.09459276431850439
-0.004328373095746553
-0.036333942234850966
0.0
0.06909092360953124
0.0
-0.059142494251580184
0.0
-0.041832928906328955
0.0
-0.06561966659451764
-0.08429034998376621
-0.07302475190147989
-0.09299590390881474
0.1937299300099423
0.03717905142435818
0.16298922617761907
0.0
-0.011877412991274273
0.17704679019851133
-0.022685987179568448
0.050240280376810054
0.036948816141771236
0.0
0.0
0.0
0.0
-0.007483369062060357
-0.06262471764765327
0.037949759091677734
0.01087202027946087
0.0
0.01833270790459428
0.0
0.0
0.0
0.0
0.002397755816079492
0.0
0.0
0.0
0.0
-0.04402410083343716
0.0
0.0
0.0004240571343203329
0.15897232671967404
0.0
0.0
0.0
0.0
-0.09686601364729472
0.0
0.047452183730139
0.0
0.0
0.0
0.0
0.0
0.0
0.11011175476037927
0.0
-0.04159914532790288
0.0
0.0
0.0
0.0
0.0
0.0
0.10032456033649818
0.0
0.0
0.0
0.0
0.0
0.1807752540703344
0.0
0.0
-0.06476843132744993
0.0
0.0733459264851841
0.022452685627659924
0.011983303278120909
0.12064534651317582
-0.04897132314001881
0.0
0.011856882348168243
0.1920923056309492
0.0
0.0
0.004539181014708248
0.0
0.0
0.017652416008547587
0.0
0.0
0.05734797982898356
0.02182048407824222
0.0
0.0
0.0
0.0
0.0
0.0
-0.17751807666283087
0.10013413614251021
0.059825266284792525
-0.023458847383939385
0.0
-0.06880140461504927
0.0
-0.08434405552034033
0.0
0.0
0.09773151811985274
-0.10417672080348428
0.0
-0.07545041511111525
0.0
0.0
-0.11240341801771607
0.07695263886747887
0.012793145389066826
0.009783488819932773
-0.12205651685368567
-0.08246491910552874
-0.21610300820993106
-0.11236086748948004
-0.11102590818617944
-0.08801329405318327
0.052603323750545654
0.03289846109562307
-0.05521208129915792
-0.24513050519650031
0.022943497614432304
-0.10209948905779595
-0.28409682041309103
0.03712795924339408
-0.27130002542430437
-0.004685727421804571
-0.027303465023429247
0.0
0.09463068552112774
0.15751117310506066
-0.17536584345326997
0.0
-0.0699305392332227
-0.0694251245420025
0.1091427427617005
-0.054949123554356646
0.23500209363438418
0.29702668418772227
-0.06523875047687872
-0.059125922326654645
0.08937278457604714
0.08736345475771916
-0.12639840393728086
0.0
-0.033407488083857295
-0.1774974754713824
-0.05655996155181742
0.03325224318727523
-0.07471654099355962
0.034021892290300344
-0.09919769279613565
-0.025869058664749662
-0.06847494066516929
0.021678293972401966
0.020438164505756872
0.11777084864032585
-0.03713835189584684
0.010104423234975044
0.006818822931248826
-0.06377050376969541
-0.09681866855974017
-0.01193874878977632
-0.16838757575596933
0.0
0.0
0.319908203159762
-0.1215421325858886
-0.06275204825720626
0.10694199926798488
0.1154064993796166
0.02479274415655327
0.08909751293633059
-0.13727101373793954
0.11651364827642219
-0.019235728973522836
-0.012414056279432303
-0.06628880948963516
0.0
0.0660091179658767
0.13170808549709623
0.0
0.0
0.0
-0.04470939323899362
0.056164300555856424
0.04174435470262962
0.06220592149075064
-0.22136199727752331
0.0
0.09721315468167069
0.13380525496536383
-0.2621004037112567
-0.06572351767473664
-0.21175785550396126
0.08112029755096012
0.02661274287221029
-0.13849843878623094
-0.021802850739846842
0.0
-0.060441031556092734
-0.12896643230806593
0.25659740532535
0.040487672826373514
-0.05752859220040217
0.052196479390287306
-0.008164878380965477
-0.010700600769308883
0.014648470618094067
0.012103327673873652
-0.19491048545799278
0.06995229259474332
0.19372940073696182
0.08504904789721696
0.07016017863399714
-0.0769286998771374
-0.16610969846127094
-0.098399205772674
0.041376049218824915
-0.007738098978246205
-0.07139747925977308
-0.015800497471876604
-0.10815075061911958
0.1774616943436563
-0.030868847556810415
-0.04833390084450564
-0.13292579369946916
-0.16774005537129916
-0.03487023263107728
0.16876344588040926
-0.10502392930999052
0.0
0.08620492810432308
0.43039958477832596
-0.21550190449141512
0.2193611765243963
0.04753807334368526
-0.24132661397063568
-0.26725702099908455
-0.07521206861894884
-0.26993655661402766
0.2812453593885405
0.4691612684227538
-0.1128754411157578
0.07360409360142482
0.0
0.21805671792608727
0.1298496201791207
0.105990093429775
-0.235591077676886
0.008220201348437262
0.03248754425137233
0.6385025920993261
-0.07209537880653798
-0.21977964738264932
0.16957290721805135
0.05213857412158947
-0.12164824221797511
-0.19464992155329458
0.5574874661323034
0.042996000583110726
-0.2771125889723007
-0.26558037629358455
0.27186813750965066
0.1928583217222147
-0.4934333103179503
0.4019153551722362
0.09307991223865741
-0.25584017040930507
0.4601293301720492
0.06568865396691476
-0.1274130140916975
-0.5742927005525594
0.24376792986820517
-0.8931333105978173
-0.26332758732596856
-0.02977866370083185
-0.5449154369939702
-0.190036781249061
0.4229478307288056
0.47504497410789553
-0.2047231236219552
-1.1931859230818298
0.35356403613336856
0.5041731890892096
-0.49898398125928184
-0.3506418796205415
0.1816619390846779
0.7969657102440634
0.3356627038856145
0.8866161649762738
0.2665918824182733
0.4934050426009379
-0.19485783032989473
0.606213236152712
-0.04969632054749734
0.30243822885974814
-0.39347431789620463
-0.5074117330437673
-0.09442840759230361
-0.5105418091659861
0.933474257144849
-0.03459848073499994
-0.8357980903513772
0.6277511620866257
1.4701047080513314
0.24876538133916454
0.11060123136813746
0.259958797800858
0.4260891954328343
0.06793702042223584
-0.06235734577651485
-0.06604342657821334
-0.23683849607658375
-0.22588925883860528
0.08599179175280339
0.1221480148419184
0.17691371733110942
0.04353880527466887
-0.21351483983056793
-0.09195050911681897
-0.3915979014740365
0.32213783067416074
0.17303149738783083
0.3118030793512101
0.048991972321537375
0.11821967195380473
-0.12263664637863374
0.062334799797521295
0.1008651264170948
0.30150837840238126
0.4342362283900001
-0.006932809293642553
-0.0002466061201269465
0.08268958069255261
-0.03110923425724458
0.08858338382275646
0.15769502084800885
0.2719474253235172
-0.04600331049212292
0.07012627815351646
-0.00829024353991839
0.10834927083465283
0.20829095805687786
-0.01138737023138673
-0.1464483849862343
0.12962904293370262
-0.15664605159898418
-0.046084811913967384
-0.06351149904682207
-0.12365897134185425
0.30363593614280404
0.026489876696994714
-0.11647956822273017
0.0980034270742805
0.06582448523057734
-0.2703683360439893
-0.3387464092869418
-0.045623231695554115
0.308329485536317
0.020988086954006696
0.3025637177214801
-0.21448705292430506
-9.340257134004973e-05
-0.029975988340964526
0.12043324921158975
0.15805816866757777
0.07878146833034523
-0.11478353911399583
-0.027401918267603617
-0.24713532252044249
-0.07712960789811033
0.01826907542818351
0.0797915745073778
-0.34035865473367904
-0.014053178351492661
-0.05047486545098547
0.1942043432420168
0.2590860209308462
0.03034325446589136
0.035125734610578066
-0.1334278380559107
0.07547836344515718
0.042271602651416766
-0.22996773849278282
-0.16491603710945565
0.10818921829638406
0.007745994474558315
0.0
-0.2906708502048068
-0.06137383351231582
0.1664100858949244
0.183753613898915
-0.08886700244617333
-0.11829060182154269
-0.08901435284707623
-0.06996669411238719
0.10854366686509656
0.054583598282526416
0.0679348782075105
0.25904511300711625
-0.016018997673463153
0.12586622624940447
-0.09704176283792877
-0.06052981821896908
0.14392741964384273
0.16691681495511665
-0.1740291428358282
-0.06332303935329292
-0.242686932222405
0.3795464995432947
-0.03968457166896544
0.5143454701427912
-0.3508733454132565
0.9315069809637877
0.8806230900958221
-0.9179829478169826
-0.6880208843899567
1.1421995104213614
0.7315180297690195
0.17141482729805793
0.7187957835669417
-1.1127619402606004
-0.7739908020747023
-1.0468911591248131
0.2168578984181238
-0.11423174182854046
0.2596314888140883
-0.47897634849380905
0.510983627993423
0.754374641614313
-0.7224597928537118
-0.43231884052236136
0.4088793929569624
0.7145085993088233
0.11797841222849331
0.014070844952672808
-0.7653934801200982
-0.34824919473027915
-0.43624694315944057
-0.9239339578686969
0.05213214021175924
0.5369495362599693
0.2759768190366919
-0.5087233756997129
1.0206602781355576
0.8955097641763061
-0.03345470900598393
0.8070573977605784
0.1152846554508771
0.352759721304205
0.46943510681611217
0.33861159086158893
1.0452053180605736
0.37908766517093034
0.7501932381922234
-0.5032075070123054
-0.6232936772343151
0.13852280648831136
0.5548465649791923
0.30379126936504247
0.4908324792555524
-0.3980652844420471
0.13311561687379148
-0.03481814018005553
0.4613205105970132
-0.5715591464825963
0.014754109925292126
0.12332541421479479
-0.493276171013785
-0.6646965538248079
-0.5826243562773863
-0.8748294624560318
-0.541501151676671
0.5396677856511509
-0.2605984543400347
0.07801706898103848
-0.5631209858719436
-0.7956378396688382
0.19390712321852446
-0.6738370772917708
-1.0145843662247722
-1.014386844801157
-0.7058023731508197
1.0515212489458154
0.3013897814211463
0.05341456221596653
-1.681011795723508
-0.49039938447914727
0.9874592541547043
0.80622338659407
-0.597308218487754
-0.7520712964919162
0.8594289115773732
-0.3508260757652805
-0.388905673265064
-0.30796925555736515
0.4171330802193979
-0.3298466747139537
0.4787421430641893
1.0886770286620122
-0.7025018710828284
-0.07701260103298782
0.3289742023457514
-0.08506568513682528
0.5253872667585896
0.7641083700542555
-0.408056524370104
0.2244170778893439
0.05341045548027227
-0.0771652131785543
0.04361105495134604
-0.067558773242754
-0.05640292374363118
0.05604846199803843
0.21200252402846032
0.02583035332066325
-0.046967297195034126
-0.08778353530727041
-0.031090664811204136
-0.3038975342690916
-0.01920576838066863
0.027946074378749436
0.033691650837945904
-0.32236082263884397
0.033047272516023914
-0.13054984107686501
0.004652936988414895
-0.1302091471656779
0.18287297079118875
-0.0006671976678116892
-0.1513494367341948
-0.07848056551641472
0.0
-0.14888255345674065
-0.00891071531669045
0.1659053950625425
-0.020703278206813544
-0.06477305577469356
-0.09521059220806741
0.09517172793295622
-0.055399071372213525
0.05399774737970542
0.06845810786368982
-0.16202727397091607
-0.02638107473257584
-0.04102821811622893
0.018930624908323174
-0.09061457853689417
0.10746478264831363
-0.04188279561083198
-0.13596316996427904
-0.13680055744366024
-0.028457647955523135
-0.22350126712118057
-0.07934548226440603
-0.12782758396469585
-0.020739114769659558
0.03384143420151017
0.00017449806609637006
0.09773606472548636
0.16879835271284185
0.5079158814700828
-0.03473786732048133
-0.2766532789520768
0.23225300513891556
-0.17418052222618138
-0.003337203694578038
0.12817093150837827
0.25240303467448694
0.5153698802245672
0.09898211173048563
-0.08190855161161563
0.084198892386571
0.23433710532566412
0.11318098053686679
0.31670881245168947
0.0208834817056832
-0.05766718373492338
0.0008919346937741601
-0.04231009614429186
-0.25645605510785013
0.17314756751741237
0.13689099929432635
0.0049311493087083325
-0.5441631171913303
-0.21997595103331685
0.1727898931156966
-0.3852598537906083
0.3875980442128844
0.19604934027997709
0.038499584707526985
0.042041842272773265
-0.31978755632643885
0.11052132029069166
0.15898463058837903
0.21518845292248107
-0.017647060575291813
-0.05487838165005481
0.1773156386454337
-0.317104223876738
-0.05376271471778507
-0.23418532488840677
-0.16259279221451978
0.24279903930468083
-0.1372070803384555
-0.045054115240001344
0.11860476887979152
-0.24497032342162084
0.0
0.0
0.0
0.0
0.0
0.0
-0.04737010491861587
0.0
0.0
0.0
-0.07891926249162257
0.0
0.0
0.0
0.0
0.0
0.0
0.0
0.0
0.0
0.0
0.0
0.0
0.0
0.0
0.0
0.0
0.0
0.0
0.0
0.0
0.0002461361803238828
-0.024170666034613767
0.0
0.0
0.0
0.0
0.0
0.0
0.0
0.0
0.05947596525671669
0.0
-0.14316348888436609
0.04493630182359956
0.0
0.07597071079438676
-0.06137029910745877
0.0
-0.020819247582911104
-0.07503669263102192
-0.31670371589239515
0.6328448872828011
0.09498918041615136
0.7207852442779369
-0.34040225252293066
0.4117174234269425
0.16386728326807462
-0.18872862567256982
-0.3593081285665774
-0.7197724696098686
0.7683069748757184
-0.22290209060287292
-0.34170263891345876
0.2824978909024821
0.739179752931502
0.7060806925919247
-1.087828311629549
0.3165775418712964
0.49435314236298133
0.14721742368016671
1.0782871159262328
-0.6964977468137439
-0.09859591935826076
-0.6007790344949877
0.8774116204835621
0.46942046454388686
-0.027475520335713575
-0.2671025221112886
-0.620183652204401
-0.19648757246883575
0.3367329120941359
-0.10543359997425135
-0.45649221901042114
-0.7452070369159528
0.9958799626914596
0.2791316069291797
1.1400067478562703
0.7105067184692875
-0.13566464188526878
0.6817810129603639
-0.15108727406202396
0.9661248680272031
0.3996286602488604
1.0031574008450368
-0.5782005645490627
-0.35270630001515424
-0.7828924915788451
-0.7421745453844766
-0.3301355796189397
0.07143662207741064
-0.016009668210849246
-0.052165673556658965
-0.2755158289026386
-0.13897822570719065
0.27197554194714796
0.14196651119925052
-0.20772160439181275
0.1683942732412772
-0.09667482320326863
-0.2192017717866458
-0.13412131046817866
0.03337710984676642
0.1238660378370661
-0.17000671223467562
0.2752840024632268
-0.09396159032491186
-0.009301458916052045
0.4564230080450553
0.015544060871339846
-0.11682509747155778
-0.38115284418733025
0.10726620415728993
0.2367908070926197
0.04181093397057089
0.19443137398083277
0.23034741243139678
-0.04099718365395855
0.10373168393271383
0.07145130028375234
-0.5524093089600216
-0.27005550122537203
-0.22626458897081253
0.09073939022440289
0.13847822852346736
0.0750451638038025
-0.08954063926411548
-0.02520090038151067
-0.11295705863583605
-0.018259691712856713
0.20841097459815686
0.12405013844673335
0.09885822252078565
-0.00277396176077108
0.25403446781860084
0.035789173404067544
0.6450271193674154
0.09836915173727995
0.12741790532947053
-0.27117189963375693
-0.02464775462350891
0.21605893378605148
-0.01718398060487833
0.08365572866349495
-0.19792050578625744
-0.18719807456013568
0.27461529182487904
-0.1183432479889866
0.18404463370399132
-0.2198113740298692
0.0597227791211348
-0.04682062379821654
-0.1660458806218885
0.03722332683061674
0.4896400043599586
-0.14899301127417686
0.15395538563090422
-0.17162540738569335
-0.2124169434523644
-0.017298371171681176
0.23629122494911706
-0.08484226014291306
0.16006417660008934
-0.2706489508741622
0.1382671957773199
-0.0706645840836575
-0.03956113727804045
0.19346315822005067
0.07429959576809672
0.051352026065429414
0.1390158829580425
0.24129879685368127
-0.055721178605631416
0.07862188502635664
0.01428733942653665
-0.08335511563205605
-0.21463875085118794
-0.00910311735754922
-0.012732135831454605
-0.006092655623373921
0.15115379977288257
-0.3420746026267649
-0.03872509379208476
-0.33040483007239063
-0.12466324779527703
0.19957693623407763
-0.009775498378058696
-0.13013657737563927
-0.2722043631098854
-0.006676597062452078
0.41223150471531445
0.13199887680530484
0.032806510901306575
-0.02350362737252163
-0.05724753996885509
0.1605064260856251
-0.08104533762859026
-0.048813043633585136
-0.17917295526339191
-0.2072857640377901
-0.17507442090369862
0.16148417280007044
-0.047142593640862755
-0.11825669762164501
0.2085629155316454
0.0654152300863783
-0.21337501321701646
0.2962463273438514
-0.07415488838708395
0.26268827399600236
-0.184609327870726
-0.08189798213965964
0.22022540263257223
0.08954768155721991
0.01566903832174267
-0.33731133459477525
-0.3870059711116157
0.05282737463590101
0.21083448725242945
0.07854870774066773
-0.01911004217317938
-0.2520174993905594
-0.1345427682251007
0.036458099787097346
0.11141779590655104
0.0006001509065259869
0.065144348051007
0.007602900227736645
0.1519706539646666
0.38863387310515723
-0.3072998005940029
-0.1551376737786878
0.035871166943308164
0.13090726706342254
0.14152349274722517
0.17678711894561033
-0.14725204248772875
0.1538684371358388
0.08994574653067497
0.21512592359730057
-0.04968277281409904
0.9386464463023443
0.9691737556384399
-0.40352336643608755
0.9230875904612574
0.3326765559709794
0.05751486308007381
-0.7628757956012049
0.6548217774164771
0.9652260489219989
-0.5024987902944577
0.06587561888475034
0.7343374627848799
-0.7738814283981729
-0.3845139865067124
-0.590341635234786
-0.46094652991707014
-0.257908332130814
-0.2292954029163748
0.6819050940345759
0.9581546528844365
0.5899637608947303
0.012803094380504268
0.5921379898477481
0.1032062048282944
0.7095272142998509
-0.36448486668079966
0.8645058965205991
-0.055588507715300425
-0.02901458262880572
1.0327027832385958
0.9181299920263079
-0.05858670026266678
0.5635684175049596
-0.6231411712150332
-1.0973758255356687
-0.41238544661670595
0.7165304219484245
-0.0349014228912807
-0.9207238945530416
0.05578922525464509
-0.06409430607816409
-0.9974809535607313
-0.8282861927650275
0.860541392325927
-0.2957829297819778
0.8431478278088955
-1.1390004868286723
-0.23985042102172008
0.41018576410422847
0.0
0.0
-0.011390904137429181
0.0
0.0
0.0
0.0
0.0
0.0
-0.003342107341800112
0.17698570370366326
-0.02335240996611026
0.0
0.0
0.0
0.0
0.0
0.0
0.0
-0.0765558723478408
0.0
0.0
0.0
0.0
0.06663657957413924
0.032472246835644515
0.0
0.0
0.0
-0.05297826462492119
0.0
0.0943108290486857
0.0
-0.07545682145389236
-0.047768036246884284
0.14067787655563388
-0.07158008392480396
0.0
0.0
0.0
-0.11380792341149368
-0.0218492099631764
0.07021414433820501
0.0
0.0
0.0
0.000967158882506847
-0.03042058366097287
0.0
0.0
0.0
-0.05987965820684111
0.0
0.0
0.0
0.0
0.0
0.0
0.0
0.0
0.0
-0.01627291391175161
0.0
-0.13878469074868238
0.0
0.0
0.0
0.0
0.0
0.0
0.0
0.0
0.0
-0.04174599360486715
-0.0497372960054225
-0.10304733675269899
0.0
0.0
0.005042646169659132
0.0
-0.03569361073268038
-0.08920057511750576
0.0
0.0
0.0
0.0
0.0
0.0
0.0
0.058213540338108896
0.0
0.0
0.0
0.04650986083721125
-0.041768722945838006
0.0
0.0
0.0
-0.045109951182231954
0.0
0.0
-0.133225871783906
0.02909414276946127
-0.006675797664212002
-0.1402455133524002
-0.018666721962400785
0.0005727626730271246
0.0
0.0
0.13579705852231158
-0.13426519555327615
0.0
-0.04378101837567603
0.0
0.0669474247290685
0.0
-0.14458135411014894
-0.029456111656698796
0.1764706024119775
-0.05813796604542276
-0.0025718005870991045
-0.07881991613379674
0.0
-0.08643471171265907
0.0
0.04264410088099706
0.23724188668055712
-0.06603415680896384
-0.06781992931480298
0.009515400751472893
0.004590794229159484
0.0
-0.019524633076824418
-0.005832676614378987
0.06572397935446721
0.0
0.0
0.012248773277650754
-0.06565184743747313
-0.10766412854331682
0.03537918324873966
0.08245575538348288
-0.18308445113597227
0.060569506527646075
-0.07997258768706098
0.1027572479676605
0.0982863213024898
-0.15004104894455
0.12423272702924193
0.03466956189177513
-0.30785500211668576
-0.008003552098843479
0.14986038635545346
-0.16636846794798563
0.05206935507925107
0.10684163045683275
0.15968908832854212
-0.01651126427340837
-0.10204584962895877
-0.07950922779633247
-0.08586955451744527
0.21280166041781
-0.011049070865855612
-0.10383466308073781
0.050528210383154644
-0.05728004012886051
0.03599351690915341
-0.20595832742619824
-0.051299091067504764
-0.22923458005399244
0.009180223439252634
0.041975839480459826
-0.056393430195562554
0.15858383860470904
0.2035570074111936
-0.09744947090538136
0.04697575883062284
-0.07427901572433793
-0.19652852005180702
0.0
-0.3241081122608117
-0.22780797075366924
-0.025384620731605124
0.026451629904022507
0.24456447340092458
0.0761018920357948
0.04102937702051012
0.14886941411704335
0.17991414019600063
0.10908635047652651
-0.061403692270368265
0.0766281470462783
-0.04243926177901298
-0.10382178538968974
0.3051745807028326
0.04586863634844132
-0.011502004978363012
0.14261513354307373
0.032435058708793846
0.19230542853131488
0.177557885896912
-0.2024128324000909
-0.03361199319923035
0.19294663485412558
-0.08207981291387195
-0.1793915566667385
0.10930019892973918
-0.07113343829015183
-0.11272615239062506
0.15782664072470978
0.1976496641607353
0.030513904692737816
-0.03311885431087222
0.09674680212067809
0.14208873417384232
-0.027160759699012736
0.08079935170116681
0.1449762079858532
-0.3422922704082558
-0.18453922738111336
0.18009086566474747
-0.0908975728971534
0.07731473323154911
0.16833049529360455
0.08963403920631718
-0.276929199267127
-0.022264704658658523
-0.1228451130730385
0.06615455376183092
0.07237151505089266
0.05371856405957097
-0.20066570362298358
-0.08375560973456561
-0.06654558545970031
0.14510293238915267
0.10101723539750043
-0.22165262365084903
0.02967139637763172
0.017753195948253045
-0.048555799357562775
0.07277107382864854
-0.008956953203651188
-0.10324541825822968
-0.04966544129097858
-0.2505409541457507
-0.07380688310517113
-0.0934131455723265
0.08771779292992057
0.038183680617429244
0.023259241973080207
0.22773051192213356
-0.30897132822057055
-0.006169864654523616
0.13010765601090085
0.17619402081630853
-0.0343454596939276
-0.3266150549942743
0.0
0.23451715917767066
0.2662721539216106
-0.14176325484294192
0.13152171624318024
0.023385532014561797
0.04868652338254143
-0.1858167001384825
-0.04063951784676428
-0.0564546919673269
0.019314880514540583
0.22815967141484897
-0.22513062797045408
-0.0032169449547110873
0.10427021963076133
0.037623035655060186
0.17222588105513706
-0.011943659942812304
-0.03823970403694287
0.0
0.24744902622130938
-0.02018489654730049
0.0439272752830215
0.06562558088872165
0.18466681934749382
0.09793866926590619
0.0
-0.0014775856368143409
-0.03758146931401408
-0.197504590938864
0.2618661449813959
-0.0018914925756351036
-0.22612554496400744
-0.2750029703634932
0.11475103156361376
-0.11643520223528298
-0.06691919166180593
-0.026231615155461022
-0.08913426832408441
-0.10505446621869996
0.04815568403702139
0.0
0.21026379869712952
0.030128043987382114
0.33273767411344923
0.10935983667268422
0.05968959836410711
0.12275315439219524
-0.1619654747965409
0.21453517795565868
0.14486323896061315
0.12699988300116818
-0.06284561876678926
0.03322910600152236
0.13539232048062116
0.23430756966778202
-0.06384336914883543
0.3010759370845949
-0.11482359157914324
0.13535907144334516
0.4570974340612943
-0.056670858621191623
-0.2472967919065968
-0.23081095385413924
-0.32263643196333475
0.12768450018205482
-0.4353827402331726
-0.3127831784763275
0.09561685496786873
-0.06945226294963447
-0.20409988452479558
0.25812887469462525
-0.22144341230258568
0.15109197887905776
0.316116016041786
-0.05626268949373171
0.06005615540378996
0.004023489464912797
0.05220084386567621
0.15225051297432768
0.06787048638603962
0.021250190054922263
0.24693334781829315
0.19253471242090697
-0.2156427234132481
-0.13253574350613356
-0.018384392273436616
0.1704914483120321
-0.08806798857872052
0.2474857141702614
-0.08970076930422065
-0.06183183595935039
0.036200596070431454
0.0
-0.02469930335824294
0.19981045557482724
0.0
-0.19516705667394973
0.0
0.0
0.06413903449863648
0.0
0.0
0.0
0.003960965031555449
0.0
0.04371771353340344
0.03574523817878176
0.0
0.0
0.0
0.0
-0.07756365967250983
0.0
0.0
0.0
-0.003033273396543565
-0.02109427255852695
-0.2523329384579964
0.0
0.0
0.0
0.0
0.07125561171551052
0.0
0.0
-0.017791008437011507
-0.03622284402377652
0.0
-0.20220703594138795
0.016881535937438304
0.016890278852319168
-0.12682761302025516
-0.08373514270372784
0.03351555251618328
0.0
0.0
0.0
-0.06729396462069734
0.0
0.0
0.0
0.0
0.17031049544014182
0.8203790903717842
-0.20138948322952774
0.9530850411284681
0.6309316462773848
-1.3092507427130193
0.05796527147919775
0.5826082997156893
-0.7613769609238467
-0.6712845718316015
1.2837338828243077
-0.26122198912198746
-0.08166146612407284
-0.302140049847063
0.6273483277903856
0.46776105804237245
0.4604324508329673
-0.6736760125216479
-0.2026798285899375
-0.10488356179866193
0.25449613145232913
0.00812949752658107
-0.5435015165139641
0.6523941520717047
0.8935852884054301
0.31889008256508317
0.2629830997373295
0.07381990944389696
0.7263199233266318
-0.14962057175534926
-0.8557527785589994
0.9877972305450632
0.14624943039462723
-0.021599791494985088
-0.6651422758179797
0.48076271761301165
0.4231118795042911
0.34401490549462416
-1.1970028841913607
0.48194572772177247
-0.46669872173095117
-0.46033130207667616
0.07062524415131566
0.2870327238167106
0.093560784281734
-0.8190283158208237
0.7404518843571275
-0.4706109299517784
0.29394429444286135
0.034082494168675835
0.021349483940433518
0.12978611956580496
0.16141138319109796
-0.14227518002714165
-0.0482824455788744
0.0
0.024082432301134663
0.1221485188973835
0.12059618443605251
0.11099033730548272
0.05839169912416101
-0.013368114030773814
0.09643683967831318
-0.10511002185858191
0.0
-0.044791645774336336
0.0
0.11496800429935325
0.1199657116061332
0.0
0.0
-0.03975827484735152
0.13213569942065592
0.04518059617686643
-0.025847676681876687
0.0
-0.32390157758214033
0.0
-0.15647366569302423
-0.040358801502169486
0.0
-0.010919765473702655
0.0
0.0
0.07037789466295241
0.04604995004407318
0.05465216881600071
0.1143830142529142
-0.06577930677532949
0.07765950563082272
-0.285749065148576
-0.18723862921830897
0.04859406044846544
0.05795600249421609
-0.21478700025600897
-0.0831630242807048
0.0
-0.042175070085277266
-0.09975344600665037
0.07226172003352124
0.25976283243469683
-0.4131901533462413
1.1535922707406376
-0.3207244900303803
-0.1960547055269916
-0.0851344043760553
-0.6989698476751234
0.9274685936647372
0.018692754687369542
-0.47957583579013585
0.06538541689084741
-0.467879321303034
0.20489175765614878
0.4599881878816869
0.7703409443315296
-1.1934153831644791
-0.35072163066609324
-0.16388295723313626
-0.7714680988303
-0.15444911885379112
-0.12608561823363013
0.85765392616973
0.8245301789715543
0.09642031271735699
0.6301994774433326
-0.5997331543738129
-0.5584625397124368
0.9778813198781533
0.7381117399943956
0.4075650124656765
-0.004741811244925814
-0.6295462803727199
1.5749783624569367
-0.8267078678631571
0.6347508394804491
0.7011367683652234
0.35268663096704456
0.6968501237854198
-0.4129527518127721
1.0789519360013753
-0.4388805775394317
1.177640227348867
0.8900892626167899
0.7189025341008254
0.007979327401797305
-0.15326350956450846
0.27320524013403336
0.4247072683635035
-0.8717623525990749
-0.07679724164028115
0.0
0.051712519249354695
-0.03819325696897215
-0.022724746395062712
-0.08779667317281535
-0.1419545207674002
-0.16321508901169626
-0.025284343647365266
0.0
-0.0640349812919018
0.11121483005086029
-0.025116388111208962
0.09281366286386641
-0.266220156481498
-0.12243863472972472
0.0
0.0021470770378699336
0.12518696221383324
-0.02854944601909502
-0.061561433159093806
0.0975530752862873
0.0
0.1209402791559489
-0.16273647852604123
0.002397436665167525
-0.2848939977563898
0.007035842768542306
-0.06181135736196562
-0.039904401642192514
-0.1438674722110564
0.28494138044002293
-0.04489736200629367
0.13090899832708913
-0.12226903395257677
-0.12529191361039801
-0.06756953547270318
0.0
0.164764973880823
0.05193009978310148
-0.0659274623111172
0.0
-0.037168282721474405
0.015418041278369782
0.0
0.04863946283515664
-0.044103740729230706
0.26408307096643496
0.05566139395595756
0.07504739331301938
-0.08330392463995713
-0.03491653094508293
-0.2536056248427828
-0.1636195674202777
0.09228902561861863
-0.03626658797992903
0.25433277650769015
0.062373653062801904
0.0
0.12663506931744128
-0.015919011785598697
0.01750600086381491
0.04952246526600467
0.1454069591468883
-0.41357476597273723
0.09857199307597658
-0.09547837924315554
0.32069282097790375
0.008516233345979477
0.01777500253849046
0.04825356599565006
0.039538350497737046
-0.058254641895954515
0.22675447422227935
-0.26195161299416914
0.032956643306812014
0.028408268917547243
0.0
0.13714665765965395
-0.09038442584220356
0.3597973285751619
-0.04294635752281018
-0.04079341575378799
0.057513411669091116
0.7407260401089298
-0.026523543200179217
0.44094395328147123
0.10185714022477786
-0.15825543963896424
0.06796241989862734
0.0954045572996462
-0.04346649859915849
0.14924603193202454
-0.46270457995241276
0.48427941682392783
0.11831921759542222
-0.024145415169467107
0.06646228845576868
-0.045909041366375886
0.06282418127115905
0.1462733526642318
0.2374644484561516
-0.04182817672224674
-0.1431488770264039
-0.26284395751735207
0.0
0.006521288745242382
0.3764178405884862
0.0784084810309666
-0.3479816834110616
-0.11773580241889296
0.16320642652096523
0.2726430543261042
-0.002199410249989882
0.23879258158104139
0.08472394802857153
0.2554466060339371
-0.02324120052210807
-0.13281291812403012
0.007477187589985668
0.3293500871416311
-0.17617262338493336
0.031846725630286433
0.03893346972395561
0.33167376933529613
0.2580314903178992
-0.33974781943935567
-0.3938984930164793
0.025201666387010803
0.18822571933137416
-0.2110388503061446
0.2084572635013775
-0.1882635765052249
-0.035045190751505154
-0.09257014542796357
0.060763044485255505
0.0
-0.492072168310228
-0.31255815789434693
0.0724209076776226
-0.09326580327576549
0.05917648705779646
0.21294957480319907
-0.07924050628731481
0.22317217188198768
0.19414050548680073
-0.37720965218725044
0.11445096957427874
-0.13674530358084244
-0.11499322559941905
-0.1793901691321645
0.12144469162392038
-0.11127513915402394
0.2461646624274122
-0.2045021052696783
0.0
-0.007029288182509575
0.12043888532799271
-0.05722472310696373
0.049565035978380745
-0.08769635216345086
-0.259710279184565
-0.024289942197719933
0.0
0.0
-0.00510055616832604
0.0
0.049836073511680234
0.018972701530035815
-0.08962522120146636
0.10127315845697438
-0.1216375382767321
0.0
0.005287578136653182
-0.1111035007961505
0.24172243768242307
-0.04805973701963633
0.08745908816161937
0.05411223880711463
0.03476009834316911
0.019062616847046486
-0.08303260712279566
0.266177936791813
-0.04146349729182124
-0.0203273219160566
-0.041064255427586356
0.07721716253545616
0.0
0.004209516228995722
0.1101794775741055
0.04300708115606494
0.0
-0.01779819699535217
0.254686266564705
0.043949622136642684
0.0
0.08556124212972327
0.16500405618975106
0.0699951157210805
-0.20294338586713284
0.04709142470265298
0.039481209770453
0.1589781761737838
0.16829686435368266
0.0
-0.20026079648040462
0.06586103717842126
0.004107084359325525
-0.03896566573597761
0.09992778088408381
-0.2028565357555638
0.22205381790626155
-0.1369838231163954
-0.052509918788762655
-0.05889978761020509
0.07315328961259807
-0.03876921278464989
-0.006528377060752075
0.08170559532193362
-0.07481438417747727
0.234161999637456
-0.000688743039100978
0.0
-0.07736143749117705
0.0
-0.026854914104373254
-0.09984660346487995
-0.2701110848158955
0.11092983758541974
0.0
-0.03386847284849527
-0.07500156900710607
-0.008766438174194521
0.055407507971038
-0.106951240391399
-0.06918744877938003
-0.073461505134126
-0.08804715779075319
-0.09559182262094384
-0.05243851120240668
0.03423371987740363
-0.2529198608992411
0.3595599110961429
0.044543223267087165
0.02401389239455677
-0.017873862077907355
0.041478776361877245
-0.08515503311099726
0.05305697519714021
-0.10383712831327505
0.11136973648804391
0.21682328021926683
0.14524891593963735
0.09015611671012148
-0.10041802530032257
-0.17131319130230818
-0.140520205601042
0.12020435483967407
0.08642741105500437
0.21542994161778856
0.09715712326671971
0.3371824948449934
0.02597788726718392
-0.43169014892181645
-0.047930879019531525
-0.1545380852534275
-0.4071018387567719
0.05590757774426063
0.015392568578526174
-0.0447620621772654
-0.2488544647638687
-0.23340966876065056
-0.11740780199595593
-0.1712700825750642
-0.07969808133270016
0.188362984697346
0.025912660890997363
-0.07106536703136018
-0.1774606489284387
-0.32436646335150976
0.4204095298056165
0.23593502717823728
0.09837142290475245
-0.019971200659871936
-0.026015265062147658
0.05532764693461805
0.18766242750348075
-0.2299913793078477
-0.4496916138295547
0.4438252562377507
-0.30699570465754317
-0.12830078839475179
-0.06917442401241809
-0.22966283190982467
0.04247183055668093
0.05056627857514419
0.018709104083972635
0.114607341922346
0.048380304397329085
-0.15219090052688572
0.07145730658861286
-0.002643220833251858
0.3004532681119446
-0.67150458209637
0.3664680279854978
-0.17593844196934824
0.8228828520876774
0.6748957140550235
0.09828342999643622
-0.790993110967953
0.10150488417697505
1.0758311426596125
-0.9818952383408189
-1.0178433102544744
-0.7421876698595749
0.7590271721984986
1.102317122816628
-0.656508164976586
-0.03561092939651127
-0.4420212758630907
0.6143477836148463
0.8514840802200947
-1.0053619716678566
0.3155449726583782
0.40796107428515993
0.3827316684236436
-0.7821171141212008
-0.8399566548396505
-0.4382260814172086
-1.0038546731206088
-0.7876071881487368
0.1608782226213015
0.04853566881975237
-0.13292574424702766
-0.13933703794449032
0.3645705524517563
0.585604375078745
0.44673605642946224
-0.9770466740297232
0.6267573555769148
-0.8962852959750148
0.20866076896660543
0.3395845157647436
-0.36402012864774136
-0.10768133364772337
-0.29991802242427584
-0.15621720509060788
0.045144264972623596
-0.23577551202596841
-0.40419866954424594
0.10884567132164322
0.16609960820175812
-0.060305922572855775
0.12651083585051368
0.0824229491561034
0.11228206562408256
0.02065694882583295
-0.049779537251506814
-0.046161834186360926
0.1005584437374023
0.13866333637237432
0.1379894741957458
-0.08762301201574348
-0.06094239906162778
0.15992651541184524
-0.38428380169708487
-0.8137417356354559
0.42060285165076144
0.15801713023993774
-0.407720532782872
-0.01460048288809139
0.2729031766603328
0.14359520031554945
-0.054187436443013874
-0.08798895552313905
-0.3191634811249974
0.07885905434973467
0.3259777553662288
0.4645158401211456
-0.1541772446214461
-0.05227033052381612
-0.1679657376287148
0.018598465923832554
0.02713225983110374
-0.07852421862878013
0.2487379827115348
0.43153534099587376
0.0661518051080041
0.316892966486531
0.07321858428235485
-0.06047631272819787
-0.13368583104446474
-0.2446108204550407
0.15134201181222795
-0.2250209886022072
0.1242623841922283
-0.24487353105547277
0.19407021200302177
-0.19538319025468542
-0.10642774627070747
-0.21105421554011677
0.0
0.0
0.0
0.0
0.0
0.0
0.0
0.0
0.0
0.0
0.0
0.0
0.0
0.0
0.0
0.0
0.07499790359370098
0.0
0.0
0.0
0.0
0.0
0.0
0.0
0.026467677879324754
0.07615311044418699
0.0
0.0
0.0
0.0
0.0639559841884271
0.0
0.06445127840725909
0.0
0.0
0.0
0.0
0.0
0.0
0.0
0.020963088781875295
0.0
0.0
0.0
0.0
0.0
0.0
0.0
-0.004702710407665183
-0.033080689407675674
0.08926088629917338
-0.0067926231631331435
-0.23503897352843606
0.0
0.0
0.03502824191156255
0.08862179248370385
0.0
0.0
-0.03838940849010176
0.07466832271442045
-0.03873891737851611
-0.18850247509524387
0.15716660839124402
0.24372683432718742
-0.22149841030719578
-0.08926980641621687
-0.1290598001074267
-0.02917806883812609
0.10854194806311741
-0.021296320441608334
0.06392515156170392
-0.0729982329032755
0.06044040643725646
0.45596664176692847
0.0
0.0
-0.07214793063296801
-0.16002384741298809
0.12408792389336773
0.0961739216028141
-0.0958743064431334
-0.03757943257486915
-0.11073684901062737
0.0
0.02478510386394233
-0.21999291105962582
0.068755216282798
-0.106471074089191
-0.08961132234586294
0.1353020311198806
0.06947132008129359
-0.03306136561766934
-0.22906460717574614
0.0
0.09287804726211123
-0.12214481267955114
-0.1083451400963501
0.0003350356799200153
0.0
-0.04524210087906955
0.11283568022595333
-0.10555378508933794
0.22874510438040854
-0.050914851809655576
-0.014456244282915085
-0.28570201486482016
0.13565299611509546
0.14431849211299727
0.2082334484250752
-0.049403328898173456
-0.1817928428449874
-0.10141982280902431
-0.2993744067509029
-0.06592111049159968
0.19624573579077775
-0.3854346846202654
0.0006913649872240454
-0.0748198510756199
0.17255562027379825
-0.10845477033116166
-0.43644628837642896
-0.17587307144389447
0.009898390325541153
-0.035300591859104224
-0.11100521048931618
-0.013450982274336727
0.15919825101345458
-0.02320978671336212
0.0903458940331055
0.05709242948739879
-0.3661087475563595
-0.03971601783182056
-0.2763717671104148
0.100532658878432
0.2177761280731262
-0.09131549832065725
-0.1911364177163134
-0.274073692178338
-0.11567395430995381
-0.2620453512246001
-0.2687097730821479
-0.1132796322382354
0.19846483835738155
-0.06077135375362868
-0.04794903481560858
-0.09409908301956127
-0.047884862952166804
-0.13112146081848017
-0.20286987850361732
-0.10551475254880979
0.09593291428461992
-0.07911831776359224
0.0815853172747723
0.06335039445839954
-0.0930291564261365
0.024352032885618935
-0.15478828855956378
-0.06989800906879332
0.0
0.17530378021266996
0.14519563214485098
-0.5104029642094412
-0.11748041381649044
0.13433678180125888
-0.06573575913572077
0.21982698382571103
0.19227104219631153
-0.12462390278132109
0.04459209815508741
-0.0017621956031577731
0.005413482048217483
-0.09892274018494747
-0.02803466468868397
-0.1852944020831353
0.0698793710086979
0.33806718284173576
0.051468020229110185
-0.03575443559252357
0.0
0.05071876395749632
0.04815140098051723
-0.018835232159794477
0.043681277739406374
-0.07168027296903073
0.05645871271031459
0.03087099051378159
-0.08630832680992377
0.09667230010804509
0.11903428240346121
0.10130595539386578
-0.01640282578741772
-0.005692597635159936
-0.0501750395020822
0.11935275039865709
0.0
0.02230869241730067
-0.1657387668444425
0.002603029579169268
-0.11077169503453915
0.03339238341282042
0.03640329569699459
-0.061589785991969535
-0.24601865083962765
0.19736503230095662
0.08378384397948457
-0.12220006683600775
-0.03314404402760567
-0.07470028655582142
0.007181841478475559
0.24121859484080838
-0.06332525842569846
0.21076154535749325
0.03624747229187446
-0.09230092969425593
0.019759844683822636
0.1658507977214878
0.0
0.06827141762916542
-0.12023129443930199
-0.08966676170418557
0.04627759679147244
0.07925541540944621
-0.06661386922990661
-0.2828425485209115
0.26810514997444673
0.10495888100973824
0.08237247078026928
-0.18880252403119013
-0.15851253819250946
-0.05188763178721427
-0.05192358345691671
-0.045846749064104256
0.21452850215025898
0.0
0.18736852943432955
0.06930445817062739
-0.036631495467054825
-0.11016377871835467
0.09353228307809319
0.0498372280652816
-0.1615633152891121
0.20069981633161554
0.0
0.17134002632740875
-0.15744508682046268
-0.1801294488142958
0.2438668943052627
-0.05175334163273341
0.19932678406072696
0.036582864257373185
0.09710289635391642
0.22919583526672918
0.5112213787465676
0.20079854239068567
-0.014748661492513353
-0.07843112845049809
-0.06656233744020754
0.4683802002328572
-0.06783231346362739
-0.1313791061240812
-0.19524079552243218
0.4332178761292087
-0.06355487599417882
-0.013091472846262692
0.3438400267900005
0.06596529221857364
-0.26255291951497783
-0.09101067641396851
-0.01675643423008478
0.11183747465622372
-0.1021308101936178
0.0014893323622555826
0.08841860781389553
-0.319244380304762
0.16808738079543453
0.04825067172934375
-0.18737885917817443
0.043454290217710384
0.0633510002029103
0.017109344001488155
0.07134511675990723
-0.43737495659739145
-0.03392159446865211
-0.15507745292287514
-0.059772937051202756
-0.018305274596228133
-0.1383090853256307
0.005365448250574307
-0.10574452920924489
-0.10371244039840694
0.05531902300257839
0.2200123245408852
-0.06231909377858453
0.1778615567300499
-0.13520292365260064
0.19197203211779826
0.040644368607528084
0.11484179344404465
0.2720185407543412
-0.10925451397248294
0.0
0.0
0.0
0.0
0.0
0.0
0.0
0.0
-0.05610383792571453
0.0
0.0
0.0
0.0
0.0
0.0
0.0
0.0
0.0
-0.04639025252121267
0.0
0.0
-0.021367473342227685
0.0
-0.024239188203633404
0.0
0.0
0.0
-0.008460162641365952
0.0
0.0
0.009240172712177383
-0.1395089057815006
-0.06367886922348655
0.0
0.0
0.0
0.0
0.0024202721881593087
-0.029637176264932445
0.06349364501071725
0.0
0.0
0.0
-0.0862475194070675
0.0
0.0
0.0
0.0
0.005371616963271287
0.0
0.02851674188246489
-0.10084874618785379
0.0026749203769467606
0.0
-0.016664771981655023
-0.15866377377679527
0.039464377858252415
0.0005087756675539567
-0.19630771177585124
-0.036247913433082216
-0.06124043052524869
-0.016597600325606962
-0.1676341622711362
-0.056485385980857644
-0.009395698007783433
-0.05273204979788276
-0.13696546700024068
0.0
-0.08354626581508041
0.1297253765797643
0.0
0.005015849329638784
0.0
0.0
0.002099152147573733
0.07008313831705586
0.0847942992792275
0.11249113910826818
-0.05627452108616786
0.10032060144519045
0.0
0.26906352790733645
0.0
0.0
0.11908322363326979
-0.004297824484036269
0.015903847889961596
0.0
-0.04827487079553979
0.0
-0.11385484593750914
-0.17730127866024373
0.0
-0.13701414142801568
0.0
-0.05356289738696883
0.0303025543470234
0.2042161104974244
0.07399870529652687
-0.18668523313276258
0.2970529086423318
0.1361119607880349
-0.13839617560657094
-0.0727730493543016
0.06872844802067951
0.0720545240268763
-0.15678285609775394
-0.08908717614963521
-0.2155985212490095
0.0
0.027048214140359753
0.08726326450298727
0.17215016743709605
-0.15420317812466283
0.17340114237811677
0.10517446228088442
0.15452077919018162
0.24508298194671005
0.0
0.1014950220883192
0.12828247035336804
0.16568316719741125
-0.11415818392033397
0.035404595911913084
-0.0407738133411682
0.0
-0.09335829611381483
0.15831183265242196
0.14912959852472915
-0.1304922780010053
0.01181654581762484
0.041634569855202516
0.0
0.0
-0.0450598807127883
-0.07248467827430433
0.41245455723485447
0.005445615536671333
0.04131210737001564
-0.05108068679510618
-0.14611938160414525
-0.039875415481322875
0.31145140307059405
0.023397513025440658
-0.07036802707901199
0.14299632103190088
-0.05128982847749176
-0.1314843920576818
0.10894388685224489
-0.023041005128090004
0.12104123112118734
0.0
0.11452830820234487
0.19372483393580547
-0.11568873217843541
-0.12397826070583874
-0.12966765580259743
-0.07972343644789875
0.08846523063497791
-0.11791622419126874
0.13273430654949359
-0.0886936876026655
-0.14801608344612044
-0.006213647452349841
0.07111477054943928
-0.16496176740400015
0.0
0.052146807472241666
0.16362273363212335
0.03717953280395574
0.0325326983817253
-0.0939006754395896
0.09501257947647208
0.0573862984880584
0.177084330784823
0.11214025918870865
-0.2700698120276639
-0.09609330691558739
-0.10276595767884673
0.027176247411406527
0.3444460524676249
-0.1323151038179522
-0.35302331568371825
0.16930214703844104
-0.05039803977031982
0.18924174770364527
-0.0955307207581099
-0.15803947454445988
0.0
-0.009939538568578554
-0.02093652005960757
0.0
0.07636638561560377
0.044345028004591544
0.018746757960385045
0.11673341558915082
-0.26625503999541145
0.014734518433475216
0.0
0.0
0.00473894193838178
0.0
0.0
0.0
0.0
0.0
0.0
0.0
0.0
0.0
0.0
0.0
-0.11859271931747739
0.0
0.06876295186190577
0.0
0.0
0.0
0.0
0.0
0.0
0.0
0.0
0.0
-0.027917791334807717
0.0
0.0
0.0
0.0
0.0
0.0
0.0
0.0
0.0
0.0
0.0
0.0
0.0
0.0
0.0
0.0
0.0
0.0
0.0
0.0
0.09943720169729484
0.0
0.0
0.06622410561296722
-0.03727466579512686
-0.0006673747738196031
-0.20380615829201484
0.07389546700752284
-0.1888709176887423
0.3969448678337538
0.04341295168346043
-0.04385534988260694
-0.05556966442423598
0.033210454294492445
0.009688372889607524
-0.21787713983548784
0.009604745320173021
0.025445291610897983
0.15076520659465958
0.0732091906322367
0.019592800994015835
0.07437236056710114
-0.011348678637075615
0.15812510579417594
-0.023507931590072192
0.13306544423911457
-0.17333481564504155
-0.009147633023804735
0.0812220243588884
0.05751510369655291
-0.1600198607121721
-0.22082639974895224
0.0
-0.19115696420146294
-0.18364376242948713
-0.2610227124007338
0.10628125205722064
0.09205389068544596
-0.022339600985341837
-0.07838125910581142
-0.2414629367567518
-0.05626882101205252
0.06976253721814096
0.0
-0.15818812621613754
0.0
0.1003956389691928
-0.05224015773284968
0.2663218366455479
0.19972346973348776
-0.1571285802756339
-0.4147103520714773
0.19072094102936493
-0.17284389597698974
-0.028847986811814032
-0.09066170340703796
0.0
-0.02791947941717549
-0.0025952727692092753
0.09567568561182778
0.0
-0.0755630565772072
-0.011753752628490035
-0.015533384783939945
-0.019688451275504813
0.07467926988768836
0.0
0.0
-0.0825984573712313
0.0671851655512301
-0.08052600919259822
-0.22624722693036636
-0.0031658902810622266
0.0
-0.05927325691611174
0.08732860996867946
-0.029286551704161647
-0.20924734874002726
-0.008723808736274149
-0.061263224895248665
0.18316703813808832
-0.01874027632872222
0.18363742080014978
-0.13738502261493538
0.03505750055502073
-0.020584603360156627
-0.058509880457064546
0.0
0.0
0.01397251309093239
-0.23771746072482772
0.10611089582499542
-0.010177529232137453
0.15237161845754607
-0.013660676721775686
-0.08862783170066064
-0.10158444946588847
-0.03326449153342798
0.0
-0.10331492656600533
0.0
0.0036774010280572617
0.38929204818861274
0.19537502704693743
-0.5229626218430083
1.1007328284307907
1.1118615811439265
-0.5414884029049515
0.1331457141957109
-0.529672927924923
0.527213651672532
-0.5360737038323767
-1.2765748545523417
-0.22786097988781157
0.282736118801483
0.4911218218493767
0.39829082560216456
-0.09318224392170371
0.6195898438878605
-0.015089712908878089
0.156308944741924
-0.717645372472436
0.6595237689995536
-0.6443168690165445
0.5344477828383901
0.3190371268138094
1.010135950196718
0.9252813071699759
0.6746430914111402
0.5178167226149335
-1.2490696599121502
0.6554107654276313
0.5732620059360942
-0.5588208415450996
0.365443069983172
0.7890477599779877
-0.29761046189437723
0.4718402363264158
0.14643638931729674
-0.3935874507149368
0.5448202847618273
-0.5028388634677051
0.003613367762231978
-0.054793770655272155
-0.84239570747562
0.8205538647035248
0.26589109710394065
0.5844352634456476
-0.41756319500440764
-0.29740888171479524
1.0535407055456114
0.1403213281086108
-0.5124858444449918
0.5640737493785818
0.010743718158327897
0.06866406762432267
0.0
-0.006034068215432328
0.1341836107001522
-0.18366052545579126
-0.08140505219129404
0.16060191836103832
-0.20390780512951853
-0.01553333749792855
0.0
0.0
0.059051638665356315
0.0
0.005749509790264692
-0.022245453221377512
0.1298015691278476
0.0
0.06961866464483714
0.06602734170502762
0.082970298632881
0.10160752557970519
0.036656462696187664
0.17514654870136628
0.18193856915408346
0.002494030354415615
-0.2090676191905084
-0.0791893628727309
0.07237917268694284
0.014679046840681886
0.18237508234088423
0.013678375646030295
0.0
0.20758937907938715
-0.11420824325729317
0.08659751257388376
-0.059696978529949374
0.014697864947474937
-0.059383914473556364
-0.15149532206093233
-0.07444435265585146
0.0
0.0
0.0592861699347691
0.06948100528998138
-0.22851885962271537
0.0
0.0
0.029783804498995554
0.20033712941104131
0.048397850634686504
-0.155736884291485
0.018978436554742493
0.1807653337051897
0.06125291988698807
0.06551132489568331
-0.12331773636485957
0.128479115398153
0.0
0.05108377513132177
-0.09097186287755663
0.0
-0.0942809982325046
0.04707417525601235
-0.04658590152684772
-0.14511652596051497
-0.0452619538275387
-0.04230807003973177
-0.37235596553247935
0.07529126425870115
0.09428895542518073
0.08602694925079257
-0.1518385003378684
0.0
0.21500010317656357
-0.03020176433644402
0.01955773647647608
0.14174416558794736
0.05309004024384653
-0.10278050193564695
