-0.6279634081084495
0.8293063877038556
0.12689145240071764
-0.5232195847986358
-0.5968493489619351
0.9960926937270942
0.6316116870644006
-0.11311008049952376
0.6940589711942033
-0.06374766880125904
0.18127876857511604
0.45798764899258826
-0.8106393534846472
-0.9637823424935223
-0.3054415564438351
-0.7710241606141341
-0.2739286662101037
0.45192125309431397
-0.7464894391669588
0.9039108479326179
0.0806220663124062
-0.5211664796916083
-0.8244798614912192
-0.2594199412198519
0.9606204643186047
0.43786400911443546
0.3407714291566257
0.22124996223771487
0.8142868795377043
-0.8425889241515889
0.565996527412171
0.1814217437666248
-0.0013643844198884102
-0.2881631939400102
-0.9722291022341005
0.8218694216828952
0.9790059326758609
-0.02069109498342314
0.48556975568398625
-0.6885073505246087
-0.6750562707295136
0.8487204350739961
-0.9064201149197109
0.8973032943966541
0.31469810147496363
-0.19952222986539647
-0.31239084321395905
-0.9682169647829364
0.3273196802011762
0.42858620287831006
0.8431639558425321
-0.7735130385824405
-0.7506550546643018
-0.5566039977967452
0.3479991818727133
-0.5871317365863167
0.39153285895555356
-0.1266346417197799
0.989531616723367
-0.26913892560924024
0.0
0.0
-0.0750735905584854
0.0
0.0
0.0
0.0
0.0
0.0
0.0
-0.004197070511411193
0.0
0.0
0.0
0.0
0.0
0.0
0.0
-0.03989259779263613
0.10064475686597504
0.14346999170200145
-0.16883997469323073
0.0
0.0
0.0
0.0
0.0
0.0
0.0
0.0
0.0
0.0
0.0
0.0
0.0
0.0
0.0
0.0
0.0
0.0
0.0
-0.041011969051331455
0.0
0.08516550520997122
0.0
0.0
0.0
0.0
0.0
0.0
-0.012546706521515228
0.0
0.0
0.0
0.0
0.0
0.0
0.0
-0.030492144968748
0.0
0.3698728043980044
-0.9520964818062254
0.388009622662427
-0.9391145884537015
0.3233381623016436
-0.8193274908262969
0.5192032962192519
-0.3362608723844176
0.4898717219639308
0.1942246798361218
0.4752256036646425
-0.09857424717307994
-0.12631705441159835
0.05825723441354547
-0.7597835397529862
-0.2934144850956759
-0.9354870669956212
0.48953543020602974
-0.8117724881923413
0.35461945269351225
0.8684998531257255
0.7692145291379229
-0.20038826751896122
0.5737760817722275
-0.49913139895859904
0.9330184717343879
-0.6699966425154205
0.14800470272757305
0.6108132826101569
-0.9084389181187671
0.04093200986337675
0.19974219967576246
0.562103195458868
-0.0820510632239011
-0.324022096737385
0.58733975175789
-0.7753145233554879
-0.22107453371967334
-0.3671676674080968
-0.016279853322370252
-0.7896891211353461
-0.6091197123886225
0.5760339966191772
-0.02274787813742485
0.6651571947320631
0.10691954173852558
0.8012931762930324
0.2518553169578848
-0.005270395870146105
-0.9218639380703608
-0.5066675915058488
0.20597655860615138
0.07040443781999564
-0.015524148244398628
0.705806509574725
0.6991836472759578
0.14496961327725466
0.5224038263348436
-0.9551468880099143
-0.08073981824421828
-0.07844197956312149
0.8910489770029981
-0.8505840513115726
0.931081527723054
0.991745326736658
0.5235034180853335
0.0617117716087503
0.6823442701459952
-0.04378357114063558
-0.9594528792205264
-0.6537126036489798
-0.22187344503155315
0.6921276365729008
0.405214653305078
0.20690914780653036
-0.4244278616920023
-0.44833330855374776
0.3707533381148138
-0.030357897782450127
-0.5288650176465464
0.5983727767305493
-0.005001858723162389
-0.44582553029674693
0.648740389424707
0.3046930042736178
-0.2541788334386945
0.08453731676387632
-0.43709928102893536
-0.5106271479183204
0.4598366633625547
-0.6488743857347331
-0.3973643749359108
0.8059946856448481
0.3805386028695723
0.29799417099989145
-0.3382286303029646
0.33177632353866215
-0.9051118057339826
-0.4010866339363972
-0.7513439670325932
-0.455452291417886
-0.8195316799771664
0.6619377455993615
-0.9688323729744095
0.18862810560700516
0.45814506458670023
-0.6642740400974219
-0.7599918214476947
0.21303178048882507
-0.31939982729454575
0.17709422025202914
0.21334312356085583
0.738526830793564
0.26326032949305334
0.6446278661006755
-0.15616305920618245
-0.9674899988667058
-0.6109702324878601
0.06995752379460862
-0.9876624182886595
0.5339011772791913
-0.3048188391406703
0.7752349213951326
-0.17900924697845855
-0.4863717142151158
0.765135512579993
-0.17822826154501126
0.7718170360950753
0.14679992631718108
-0.30638899522720053
0.5220864461208186
-0.8870352387768057
0.7541899703765302
-0.8577199063562599
-0.7820700048111124
-0.00940192512525484
-0.3476239759444458
0.2727102174179936
0.7234666854188883
-0.04112379409308553
-0.8802032140878924
0.20246740907158767
0.5188977928128102
0.008928809871777244
0.9784698057372889
0.22955777146710066
-0.4026986029710335
0.542950482573948
0.49005805090843
0.3341239414918528
0.5998574259492695
-0.23568257667410242
-0.5645112859448209
0.14298938998846955
0.7220265126918859
0.2675534522607903
-0.46926063808723395
0.8404359048993322
0.2639869353969704
-0.8148107689256903
-0.15842811494937933
-0.13518004838461262
-0.048049050639125124
-0.041807542765750494
-0.5301063912420798
-0.9707653796206084
0.15361232424717963
-0.7257561906548895
-0.17891598283087573
-0.6300236926594922
0.8559854369706412
-0.6723385249619434
-0.31006948622739683
0.5497442305538918
0.02910917107228883
-0.34436121538281217
-0.9559647836766323
-0.02854782364624775
-0.07080917660986397
0.6673035725820591
0.6563159874014977
0.22435743519856888
0.7176024356043071
0.8425179793768727
-0.8399438351744137
0.25823503591645314
-0.6492022128495454
-0.21015602753469687
0.6438140469725331
0.7903243818228047
0.7347579914228257
-0.006968118261970302
0.5709367207335139
-0.8339554129879345
-0.5938074879533826
-0.836815837793663
0.18490267058511956
-0.014372492637666046
-0.24980195639931058
0.07678663969759958
0.13831516336864746
-0.519220823746583
0.174307281357998
0.43104753059140544
-0.24196482084781756
0.9650311981240467
-0.6211242900004605
0.07015971840760771
0.037423646158552426
0.4829601476253045
-0.11412347829151888
-0.0403944183640319
0.36470423465187984
0.7855681287258491
-0.6507546081476581
0.7273308975834605
-0.25642300785100014
0.32998014221308325
0.3996472046797095
-0.8084391971538698
-0.3239262379962995
-0.1704119697071773
0.9219820044969721
0.2858013874098515
0.6952644232386345
-0.40410873742214304
0.22330524539700627
0.5920054508133885
0.2816223417100938
0.7378261381425915
-0.7530455516195615
0.31740187438191336
-0.3156121809378205
-0.7952515427369921
0.306047348361391
0.24871264789189573
0.6526300242078975
-0.7925685920698562
0.2153883989627836
-0.06537997630171288
0.8255657992737955
0.3022117165946836
0.33235040230955337
-0.4316429128232091
-0.4008057875408413
0.8689004883886404
-0.48189648763679394
0.7811555852320338
0.2679928130460161
0.02033488018390095
-0.5127293066219962
0.3040576009364049
0.9681771160304864
0.34011305103437395
-0.08018645846540307
0.3272428481908003
0.17661009535630878
-0.9089495596103714
0.4418133822842818
-0.33352866738138265
-0.49674812980467675
-0.14629084059715527
0.09516663171611306
0.5569845963088438
-0.20325803497577977
-0.44536521484429903
0.24584837552787442
0.6789972149346635
0.05031569157739864
-0.5435937027324775
0.34876245686133944
-0.5258991879921908
0.72992396618176
-0.7168412707453995
-0.3990660144922531
0.8904867722824112
0.6478676842529938
0.9081769848070265
-0.8195458981030328
0.9705737415784359
0.7330294632467675
-0.7732995742048692
-0.965168892713403
0.10301208988039212
-0.9336438369259439
-0.3893530730913405
-0.85528116879228
-0.8953485767012821
0.29314611309978567
-0.8077296906363218
-0.8136721209587361
0.5287826627410632
-0.9104659245972797
-0.0831825575226548
0.2996156792825432
-0.006011784272779375
0.22559595345451178
0.9650160978596645
0.9361872861617251
-0.3437229940218971
-0.04547394020197748
-0.20922843797302026
-0.6768946086768939
0.651953565921735
0.4406812093116843
0.3869397135972411
-0.6541704907651096
0.8168604641951436
0.2996709705965237
-0.32048182369944933
-0.8743120961821766
-0.06043619298013825
0.8291847388817717
-0.03404250180127644
-0.007032421579376
-0.9511169666217199
-0.6283643902046971
0.7039751165707981
0.6250664808851376
0.6684007596416459
0.2509320054491895
-0.029003082198428287
-0.46606170525332313
-0.6906127846118333
0.43000434327751336
-0.3522562833495657
0.7585912788589597
-0.7879051556986473
0.2902976863995712
0.9537232914388445
-0.8944142718560228
0.09567416629731818
-0.7707404802937572
0.8982212967430059
0.5716586308144505
-0.4926819223396195
-0.4879836071504635
0.20811526408673897
0.4587479510758312
0.20590070377880187
-0.1633577380917406
0.19197493262313015
1.0062032473983773
0.2609699456972201
0.7100443373692145
0.29016759665839725
0.22849828552031348
0.5985716313103644
-0.7661592201289686
0.1907308329333175
0.9211292956788212
-0.4178885370393921
-0.9617712270541243
0.3964725724834621
0.1284918538706672
0.2557320549877682
-0.8808117470419758
-0.3967656138816078
0.609351443789512
0.7999298045678234
-0.652496779408301
-0.22932146988869606
-0.2150412690980572
0.19194255541937322
-0.8245350238405151
0.35011250941571803
-0.10943091844878272
0.7871665422529668
0.41897215245659125
-0.5806545740604374
-0.19089735309899747
0.45375065388388025
0.28317613720324064
0.5752100950515352
0.6300280984363811
-0.07869280977100646
0.5197314301402303
-0.6232449660701487
-0.4298840335298244
-0.24048785856077018
-0.7438301603537629
-0.1477449976301224
-0.3537054665511814
-0.7672731733054783
-0.19582478971598016
-0.9017247132655144
-0.16430917211542773
0.8278314428438072
0.8066141169848564
-0.24685547710491562
-0.9799624265481133
-0.4420590050190665
0.7631916838124557
-0.5665090213943602
-0.5419348151509034
-0.42684170776767205
-0.13385837629194208
0.1372809511508848
-0.8722056868626946
-0.9559912815371723
0.13011411987075228
0.8151191204002559
-0.9160098375831829
-0.20371776726770685
-0.4508709025279838
-0.4381896247515624
-0.8888396055107455
0.23389979313925324
-0.06007875737990087
-0.33540800889450684
0.7005396944310573
-0.5302035877625249
-0.36350940057217374
-0.5019644998031492
-0.14615602395502614
-0.5586890323790981
-0.8373522424143938
-0.8886263547823594
0.6238421452393783
0.8779698988822606
0.7504004072909789
0.834033777063508
0.6514829590246152
0.3247091505843436
-0.5550401454062159
0.4642003867693618
0.4891368792062699
0.15342446449496405
-0.3570674638992395
0.35675770209900515
0.11465149232541405
-0.33972519850577454
-0.8215937339538602
0.6372899995684826
0.45846234261352015
0.6826725476309103
0.33625643570833824
0.9965016432074438
0.39183504680192827
5.082084051677427e-05
0.5799840019305187
-0.8850126149174458
-0.025416175753834036
0.6956627428049778
-0.7498575729276287
0.15674819828502273
-0.5140617439756794
-0.3558954769394973
-0.25061440017444947
-0.5955006189332863
0.06197098710484483
0.386038948002446
0.5217674264777818
0.22016904423264227
0.9372424816909499
-0.4723861541308858
-0.8427736417104943
0.850762777548814
-0.21986876751867013
0.8471878891930265
-0.45345315506089845
0.3589347241279155
-0.3026969649853315
0.9007155657456742
0.6340547999242236
0.14101154390584036
-0.5359737608734925
0.19405134318230322
0.7325527081778163
-0.920752505380833
0.42937277463831736
0.11007746921666062
1.0240997145574198
0.9546591549955958
0.059668766874684476
-0.0772888134056251
0.7954092192645359
-0.5220181517703921
0.5876518044266226
0.6951673226549866
-0.9865468322492699
-0.5101597567668414
0.5573623700684034
0.4930207139246041
-0.41045493888572393
-0.014294769695519127
0.733878598178419
0.2474628536827257
0.17046784372931523
-0.040331119987403595
0.9952221933921426
-0.5191851052319247
0.22897905719741507
0.5375453485394057
0.7037041952178602
-0.13309371810112203
-0.2236392924495949
-0.06932794863246605
-0.7204474331262929
-0.37903332987343497
0.6109544349074738
0.7177910838418972
0.3073424844005912
0.6017010910431377
-0.9872332708968197
0.18816617178126038
0.47879039514028143
0.26852057808848806
0.07971216910605428
-0.9818020282984019
0.9270438265647529
0.8091881780561903
0.04052688393955406
-0.14422726317384882
-0.22747748616100072
0.6482229198593752
-0.20994921122581034
-0.8632356707076634
0.1581791462624611
-0.6832580493048945
-0.13333643986134125
0.08536067318066021
0.9023882668781285
0.0462193592189768
-0.5547260373829455
-0.7675065389139184
0.7799575050638787
-0.8836557225528792
-0.8281791823383033
-0.34096707358054346
-0.22512428510743554
0.05421570106998803
-0.43998838614035995
0.5218927926443513
0.7502611036206716
0.424858074883246
-0.2259696040576089
-0.29247631675104513
-0.5213513792010331
0.5610429880705929
-0.22816487484794745
-0.5625102575546727
-0.6762235703097534
-0.9751443468602681
0.16505444636592115
-0.17115850460612392
0.5405444612196848
0.30091971322285493
0.44832230078726054
-0.45259711959906324
-0.027754024242957476
0.9867050725903053
0.9652380878230327
-0.5204222359006689
-0.9402286528152932
0.9433616822365589
-0.7004255153251253
-0.9203005303419927
-0.9109831050446908
0.7038361330235203
-0.17895490641190737
-0.19851724575248048
0.2941627017858581
-0.6009650210565194
0.5935998032895176
-0.18751176568243433
-0.3985831697345221
0.5689048046266891
-0.7262438000889149
-0.0781666264913099
0.5815105038834756
0.4245607577769914
-0.6182801282951067
0.3673446613628071
-0.17430370306446208
0.6363612541374153
0.43396334956735694
0.04506916377475001
0.247175234811978
-0.7956713839681655
0.7566151580892906
0.6407459063388405
0.37648436907591326
-0.32171307611201216
0.5011765416349421
0.6826227546479571
-0.2888790590771668
0.29649166948905403
0.6907979775764976
-0.14869954049174838
-0.4992703391103981
0.5307223698652388
-0.33515503411246983
-0.1457787065298799
0.983419059926749
-0.661318280342958
0.7891788289482882
-0.4606551876121501
-0.2184441221286515
0.0007021049211222152
-0.021858281532634694
-0.8277857568564193
-0.9296677556510005
-0.5047452004364841
0.8182956929765255
-0.09397558147612961
-0.7202150617891632
0.2875942467546939
0.37923332442299973
0.16130442935699407
-0.39673828596309724
0.5291913104838006
-0.2904500887539041
-0.02696662981061393
0.10226012913692112
-0.4924127594579478
-0.34008908966009277
-0.8543502664037843
0.6638432308469926
-0.6411910773339711
0.9659843610338894
-0.8419768300663946
-0.7385369144560328
0.2837966773071561
0.8708117042484769
-0.5094196590569728
-0.6150599880699099
0.5785341964086648
-0.28441239456667344
0.8364048115631164
-0.09649797399561684
0.5141152509228626
0.5633929144949341
0.35845711248630563
0.8817734217972171
-0.004814378900481975
-0.9061987535277571
-0.5754421866491664
0.7841685207480005
0.42771162657950934
-0.5422254197877863
0.24914941107107036
0.6697317061914017
-0.6357695792046913
0.9913870267626745
0.6332719984721387
0.9651173562480932
0.6235255077837125
0.2735163152761348
0.2071884752798534
-0.8743572055389703
-0.32965784445609736
-0.27000319865770345
-0.375037892218439
0.656130538203272
0.849683707861806
0.58198858303452
-0.39437479454836155
-0.4897181284430485
0.8745223662943036
-0.27705829919155067
-0.23432579806471354
0.6760491430015252
-0.07786182329862945
-0.010377238173795211
0.7989312951193497
0.6627502940948367
-0.02833246539290757
0.19003684359986095
0.08372548402420144
0.2642758041002362
0.7257403098160886
-0.9046344945080333
-0.9579484685590134
-0.9053006518685072
0.3508225209601892
0.3519632945589888
-0.4974278247557633
-0.7936119146139415
0.9382033617751624
0.4465207801269522
0.30328088218413396
0.6705066074309689
0.627760941712342
-0.6483944507371178
-0.7327871490074487
-0.49342991989825746
0.4605733800391263
0.49167518227188944
0.9055961137947532
-0.5638644417359113
0.5662847030126372
0.025013411900805194
-0.8906873473831405
0.8513491445366921
-0.1985295169972423
-0.5434932092336144
-0.9208827034821017
-0.3661046325552737
0.2621748240977466
-0.7409549431416771
-0.05370469059937388
0.8706051915077206
0.5097572760605329
0.006947198283206335
0.907806922098265
-0.44595422675662877
-0.22913619326766432
-0.4442457337392489
-0.36963515604414976
0.8587495675861894
-0.028459248441134344
-0.903052525352908
0.5825473607498128
0.210658283597348
0.574539804896361
-0.6611320213884513
0.32424122049692206
-0.6020825314463071
0.43546303225263894
-0.1943380290529615
0.4775232158405187
0.2650888850468325
-0.8652756434851292
-0.79223153973359
0.8375387398512664
0.577130205526424
-0.05184525962987041
0.3882621249471758
-0.287805231735631
-0.907855285475972
0.6111128807582088
-0.385537109994317
0.0842314604100507
0.704935951244094
-0.49455729125756576
0.008418694583560038
-0.3383152379226091
-0.8010557053411012
0.1497861886763272
0.9313964607784668
0.13319445439004207
0.3355746753226938
0.0908522879673812
-0.7233952975688234
0.3428917027910696
0.18324110587645115
-0.6041357099659683
-0.2897338749176932
0.5682201964856197
-0.589316945489123
0.6152506780554248
0.19784948677537084
0.5300938398941588
-0.8152236256693769
0.10578490724276568
0.39275948879794953
0.6280065820554253
0.22328806997409312
0.15265254019058827
0.24730246341866158
-0.8657750896389473
-0.5020309259164446
-0.7052446053012853
0.8510960712573605
-0.4009901182400373
-0.19877663661284625
-0.13529540178958266
0.6759990888581051
-0.5067406250787779
0.4527425629889079
-0.28697940695357693
-0.9000466516387028
-0.3949681399386371
-0.3217593969673256
-0.40207101440644566
0.46716578314915136
0.19068301020845424
0.7843234228870204
0.7504564513777106
-0.5472563737442642
0.16195763232641935
0.5587217366335624
0.9358296639771873
0.6618688772679304
-0.8562682114638316
0.3397783975891059
-0.044608011624029206
-0.8690129488950675
-0.23546608538086677
-0.7034960746722247
0.30876999652228077
-0.8331099632845507
-0.5318755583662331
0.5199523416385698
-0.2458834464542463
-0.11747328869496987
0.19844360372906422
-0.03339662992031589
0.44851659384235987
-0.2440919598465966
0.705535973847061
0.8210118523179911
-0.16872652599751578
-0.7430418995107237
-0.841569898640298
0.25721246793447206
0.5316851165718199
-0.24393193792758994
0.5256206205600797
0.6731042201379596
-0.7977459744649182
0.5046370627638119
0.5991920199099028
0.12235927723618656
-0.3537768594983884
0.7633321011966749
-0.4898204039991896
-0.035825370493149045
0.4542685766019916
0.43341880841860947
-0.5400360568914773
0.0659323223793957
0.31564540575544986
0.7924182602800127
-0.18116546862868232
-0.8818904963049703
-0.9202673508498307
0.019606144693040006
-0.32434388148046045
0.8845971087898172
0.8212088944981548
0.5384458999348714
0.019189832234339732
0.19488668159118205
0.9340746082567861
0.9984355872214989
-0.4515696715923998
0.4514947710456365
0.7535306816456917
0.36064941773863435
0.08465736441717175
0.03393068556948764
-0.44425863313575875
-0.282338450872361
-0.8945570265766052
0.7925899570781914
-0.6989932007471651
0.48161054825389304
0.4467300195757766
-0.1092049386488787
-0.22645159001169035
-0.5535235964854957
0.016218255515592084
-0.9581180984679463
0.44120209139558364
0.36647089006456035
0.7839386084111264
-0.1582676596919752
-0.3496848088892026
0.12231290030550568
-0.5221791614880418
-0.567975433766517
0.215463333968553
-0.2939728023372079
0.3089722831409736
0.3798735824929218
-0.7096075250458238
0.27163524875719913
-0.9306357796776115
0.8810659151004707
0.12172183925911528
0.09925514770760246
-0.667762064074684
-0.6056939390986078
-0.20889749830211635
0.015111862935173637
0.49573416435231543
-0.20698411020474405
0.26865957630505455
0.17778269209331632
0.9171992722462103
-0.5806594439755366
-0.029878108509716395
0.7560542616069788
-0.5988990596165349
-0.6200972236233135
0.7228945081209079
0.9672816191054001
0.8686690702481136
0.6446191861992152
-0.6483150974246448
-0.2899588217666422
-0.2707620116514018
0.4237927976301375
-0.14205681268341497
-0.27616651424303673
-0.5174819868273253
-0.4970042676188782
-0.8270754573370782
-0.22178783851490125
0.5579155437138692
0.5218634546810987
-0.64611203825565
-0.17515556861064097
1.0950080521329644
0.927081673834969
-0.5352512701898371
-0.7135956764195666
0.2405497272227506
-0.3941018402890826
0.40739857615956954
0.928473291194291
-0.3440869085557714
-0.5549447219707457
0.20989797537277965
-0.1544862042470676
0.40697299524883723
-0.6459327270734083
-0.46630219161526787
0.8103713609557138
-0.9584008919632412
0.05623859094846262
0.7981932894840844
0.6655099558303688
0.7962348654970798
-0.8026597633419794
0.09608883642348243
-0.3067026263318817
0.1563060550681239
0.1332130953002098
-0.18540630935937055
-0.8178509526532358
-0.5749388097153638
-0.5966116889805999
0.7160721198326531
0.8578604183238698
0.5421539880481101
-0.8780542173323707
-0.24900122093780497
-0.7842627093035559
-0.20657069151492746
0.5112438272026643
-0.47283818182527626
-0.6649754686392146
-0.7827310784713108
0.31030156068781056
0.3310702219046522
-0.3376660238518907
-0.8152953744924389
0.49557438230862805
0.0003716019914015156
-0.6861465920568903
-0.7308487592662567
-0.7010710539939653
0.40798538706041376
0.5735558640676446
-0.49858695575862044
0.8446747564813386
-0.9922679560267047
0.08525529078397387
-0.698480158541503
0.8724232784411006
-0.6770947764107398
0.11052860978616397
-0.7898087346745344
0.2528911312366757
-0.47985094788899474
0.30525189351686643
0.6040453299198234
-0.30235711492698325
-0.46754265749672164
0.7890180881760641
-0.5783371634598036
-0.2103879781618998
0.55845529843379
0.4643122534699715
0.493959256112807
0.4382416694936495
0.9112407955383743
0.3491152886380129
-0.575080187952917
-0.005924516914354808
0.2034226201681737
0.20153059128150796
-0.1268764892177514
0.8219112829693422
-0.6801602586561986
0.6186854177126242
0.3665020077001617
0.4259642837771611
-0.7538454750596826
-0.5798413612939652
0.3117047504003312
0.6978911501770617
0.7732006688556372
-0.04084203747165738
0.725262496155723
-0.7572654178294589
0.5868350528179184
0.3661154932422517
-0.8808954634213402
0.8327283895837359
0.21627596654438097
0.5610191110137548
-0.8354786577214468
-0.4640822586155209
-0.21007289854511302
0.1691141652879391
-0.9408792426293534
0.028914055010810458
0.35921238550950396
-0.4690125437034811
0.6161256900592331
0.29503973540624906
-0.7539454081385588
0.8777794256673928
-0.7432001727844908
0.8151020178902506
0.011411152648859169
-0.8341369240668457
-0.38208689777836397
0.9005624822245217
-0.07456159227629744
0.13959000484621648
0.9507640377427247
-0.6888234546139913
-0.80999277902371
0.5015928386275772
-0.7053251491019781
0.42776739476140224
-0.9709823474816608
-0.9145913482576162
0.10670826911997233
0.4854555237470386
-0.7753825015292282
0.2582101012632658
-0.24483475270802502
0.5457710109521969
-0.6170952948976396
-0.7701664305251319
0.2607748862345043
0.4269968715212964
-0.2522078732234221
0.5408618263682088
0.6714033110484925
0.9427163892932366
0.7055819109956329
-0.7997961364759858
-0.3277007436969106
-0.3584621980615721
-0.6673994063740238
0.3861978963815387
0.16806455577936563
0.6400654635338541
-0.9142342042329612
-0.06104123085284008
-0.35272392026748123
-0.36056826407947673
-0.13991131231824516
0.738684726423847
0.8651499508702756
0.7213106463171203
0.2821641530119875
-0.08492946954737346
-0.22665148263321713
0.8625469158275763
0.26829463144574417
-0.62796599932331
0.028010538169817245
-0.14907735675264921
0.16284609023269536
0.12052447825588297
0.7657694291856734
-0.0756040601732908
-0.86276226400682
-0.9950596341460038
-0.11409188154065242
0.5759834254243681
-0.6327597870659114
-0.4677591238137002
-0.36248161026312986
-0.23006983961747052
-0.7340727182036609
-0.7450036901124835
0.8108920331665928
0.5976295618189534
-0.004809100120539478
0.8864084101523
-0.5760192322388085
0.2929757811009073
0.991848534748498
-0.399429175044258
0.2871955812654352
0.773289698824523
0.7967576457876617
-0.980824471557527
-0.3617535779907335
0.5190391328132904
0.6503978576964866
-0.34167239440631736
-0.5651787514956177
0.8955863351851079
-0.07636743275840807
0.9635942379551663
0.6106770509493515
0.7233257931816819
0.5485902595189234
-0.8774945323812346
-0.4001107326435782
0.9818313710369291
0.10497622869186163
-0.4283121477988836
-0.2499508423462482
0.7040197482369264
0.07368760184081524
-0.9142637814521535
-0.3036311866071597
-0.681209632536194
0.6909744191071157
0.040400812509373774
0.9980476634965643
0.21605222842746064
-0.48597585880455507
-0.8429074376239523
0.9682877561330472
-0.40652030331765854
-0.3234572286695341
0.11854634172031941
0.7209918220899261
-0.5019734283059051
0.9495179592948324
0.9459151676051434
-0.2681177239755621
0.5929695198352147
-0.8048839130383347
-0.9869335963804783
-0.02062465486466092
-0.3100486015741071
-0.6095654785975385
0.7010346629413295
0.4246211724863085
-0.3617246720928542
0.3092860156621744
-0.9652423333204743
-0.16400243881531296
-0.655375514559585
0.5863605025143197
0.3087747845821016
-0.8648252202744466
-0.25778398304325534
0.0983928699057055
-0.9084998826570316
-0.49984129576429726
0.2964429162633413
-0.2748512141829491
0.12287282099191943
-0.6516032074554956
-0.9462799920153717
-0.773202842998101
-0.20935058133868334
0.11972764295218674
-0.5005193325477211
0.07205195138384446
-0.2267972363817634
-0.40122138829467446
0.2557923738627417
-0.5093626969796068
-0.14352090592871503
-1.0375964501597186
-0.8766219533816049
-0.7463274008604419
-0.9592810868991564
-0.3769527158821142
0.9512541557824821
0.7456756832421418
-0.862735720696522
0.6110572800748069
0.30812811169797816
0.7905151441676554
-0.9446821662756237
0.6175535190016463
-0.0779114321322616
-0.0003787642277917058
0.9951791648891468
-0.8502050540460702
0.5636567173407796
-0.42751240020421477
-0.6691414529992814
0.02664058709809569
0.44865618530491025
-0.42190584478284765
0.8164794882469926
-0.9737376932118095
-0.1512477573167137
0.8800334428160421
0.3129071393907119
0.20854055665067484
0.6341602686708006
-0.6472619039100909
-0.07456267590337634
0.5254273862075582
-0.6513737177633345
0.3910618085061748
0.7700326717393147
0.3426118162865195
-0.9116148224313139
-0.8837702547461723
0.40151366396971677
-0.3066688883478248
-0.13495638034730972
-0.4069329210555974
0.4194118972558021
0.700093728302077
0.5758559419731113
0.8838456838659303
-0.9493879060062118
-0.9385671923188563
-0.4801962906541457
-0.04770989457807073
-0.4114700097776187
-0.274088825235034
0.9281034232661385
0.4935680751461935
-0.5258872182341467
-0.8909368113247531
-0.14118591280906667
-0.6345777489430984
0.39134900142271256
0.44408772392140183
-0.6404972518391185
-0.840975131688583
-0.16380435909016433
0.7782689533208877
-0.12433114730883177
0.6762253991508187
-0.11330660917688218
-0.6662132635276075
-0.8061844909504516
-0.5882174612036535
0.38798655480273225
-0.290785444569031
-0.8472670942535785
-0.47404709618222207
0.13358949553188926
-0.5107000438005457
0.592781297950967
0.33522913875481347
0.6648566066893653
-0.6899239393375591
-0.692223247017395
-0.3010469006163061
0.3573831245795851
0.22608859433862571
-0.38171045218487265
-0.7605994994649399
-0.4064159343525926
-0.4801136595733565
0.7384239435061806
-0.898705710244744
0.5294059442885521
-0.8536709459177729
0.4262809769271241
0.5309758927799306
-0.03842537829928221
-0.8595988026704318
0.9159323238566964
0.4498738767161543
0.9920869704979185
0.4120224339730594
-0.7429505629363488
0.8588060327715663
-0.6915903685406652
0.18642123965813173
0.4934929417044238
0.6731739106395069
-0.8784391050148002
-0.4613214948579969
0.3914611467469713
-0.20162387746139965
0.8885839471046408
-0.18778828878220888
0.9245983447166306
0.41411538416478044
0.4107449757562873
0.8293278479511097
-0.5136180454604666
-0.7315221115925179
0.8727536212517684
0.9984713494504078
0.09623324201591821
0.8358421751958587
0.490066006506797
-0.9110534581186551
0.6671273852008957
0.7348279677762222
0.23446795218212468
-0.8207696976498212
0.7344178797245311
0.3150217356096361
-0.12578795058769368
0.8305976481001003
-0.8446688922609573
0.4120882765437881
-0.7619784370402458
-0.6722644977475194
-0.865072318933614
-0.11866190411136858
-0.6940376778312909
-0.48704321836484965
0.8103176372516532
-0.5064610292323546
-0.1897360965058803
-0.9545049097562412
0.32510922500319483
0.05969701369798597
0.40320194769534007
0.5150306365340469
0.22924501725221802
0.7474976735833683
-0.5792306261624882
-0.8288382088509363
0.018694383971842088
0.9535059032414066
-0.5309840839712936
-0.8163643457421603
-0.22571052588242035
0.08946359214698774
0.3497916351322812
0.451023918764917
0.7287352708335018
0.9933098358081291
0.09556987474312639
0.1636120752650425
-0.9542389607123118
0.30974582724950483
0.7023605840513908
0.7429601866701407
-0.9765994887749503
-0.8489119193309376
0.16979627069225978
1.058784944965118
0.6454199375295269
-0.24188537301396762
-0.48728309396470004
0.6820049640602541
0.46542387839763233
-0.2350343470454177
0.24909783826859955
-0.4225690952257155
0.5683454917541804
0.6748715090553588
0.06147304552933819
-0.2223155651252282
-0.010669051421825726
0.9516481210326231
-0.797412216705782
0.6679805044206546
-0.4178658996936435
0.19106583552713063
0.08290145925884529
-0.9512187910431116
0.11623923524048951
0.22377013967793102
-0.43732918964967915
-0.7336893177100547
-0.4758188231186944
-0.3330248697978817
0.9529306676936169
-0.08795674239972917
0.626241880611371
-0.016283527692608102
0.33294791260983847
0.9872316892644595
-0.7776345221602896
-0.8602156181330247
-0.9804064017056182
-0.2874319972805137
-0.7008259835906074
-0.6189741829974553
-0.9100661586496199
-0.835866301486451
0.08942458110552187
0.8916925876891797
0.5289976007289483
0.0958697030188409
-0.7697268202668
-0.30117620305654547
-0.8595712726259435
-0.6893221877629157
-0.7125443624164975
-0.6253009677840315
-0.6731761999865311
-0.8167047946504298
0.9377691845321658
0.7192006837221019
0.20282834328074917
-0.5836382224566852
0.11702639203517107
-0.7079492366347364
0.6156592275167538
-0.5703041218019007
-0.7570114127335554
0.9201735052941409
-0.07367724435931344
-0.21887087625183876
0.800930064392029
0.1572446720111409
0.45431219109736554
-0.9808302837751564
-0.02223521343671986
-0.14414489065121638
0.1578407489004785
-0.7110264804963049
0.818356646678299
0.48155810415849687
0.8246096868108135
0.5860519455349211
-0.2951644510369187
0.9772455324762233
-0.8844281767142239
0.844306106974819
-0.06950406951986765
-0.17607046843607854
-0.24556687208970907
0.8013319373952503
-0.6371449863839149
-0.9972990680883261
0.6310794414778864
-0.8084101425647006
0.11510206276116164
-0.891872584094209
0.89836396690676
0.16466380400139058
-0.10095675199923357
-0.6913138024519387
-0.634851943400289
-0.36204925835083124
0.10530715627848752
0.7504777297935556
-0.5464512178116843
0.23155573512673566
-0.3252360461226004
-0.35295472457523774
-0.11336719486843776
0.8603185358013523
-0.273736276665846
0.04258030656208618
-0.047143585373685015
0.6850107212601484
-0.2220508298753796
0.997628894349003
-0.9046121734327592
0.07988158219749564
-0.9249852681652553
-0.14627933215837152
-0.6632722605925494
-0.44883785466202
-0.6898979552715878
0.7376022271550509
-0.582467356700904
-0.10024799900585409
-0.5171846223122831
-0.8969022431907172
-0.06200026484407806
-0.76304486494777
-0.3507481853065262
0.5584556036676052
-0.6153345878950522
0.6982664442770925
0.13696049405512478
-0.48733812461484427
0.9558877167739614
0.14178230093334587
-0.9846634679637531
-0.005324262074813069
0.9017033686112899
-0.09355915890102073
0.7329694119255952
-0.6247020785545254
-0.866929411472237
-0.9940320998271108
0.9591703554579674
-0.6833179250397658
0.22401620500533403
-0.6264204933454633
0.9047131266256836
-0.5104172669713325
0.10271635799374934
-0.3024028908575076
-0.2302346112322946
0.09384011809667278
0.8763099987226983
0.20018445404336482
-0.99590335944331
0.6792701778608419
0.9942784132266678
0.8281916937661928
-0.19072827724864738
-0.16573340235329748
0.7956653732744006
0.2869190712708667
-0.25534360452222926
0.9316073074535318
-0.7022769899704686
0.5303507583980129
-0.6408649870146159
-0.5248615877137477
0.6868578705507091
0.6945726584023619
-0.4384061581448189
0.5838154830688945
-0.30092403543196156
0.38994164519189445
-0.381958431580419
0.01567075203609858
0.9041860896617926
0.8135330517529802
0.5078713607273689
0.6746428974293335
-0.8961852017571332
-0.776331098785888
0.6994856663923079
-0.3583621715862051
-0.4302743224596739
-0.21122325014694127
0.9135799437238976
0.2547797329776551
-0.8342160006437151
-0.20952353671011115
0.8697303322702552
-0.983908875519692
0.6879168041138306
0.5786690058389106
-0.6216788394280048
0.59196042331604
-0.032672763601571786
-0.2196351025065333
-0.10268362062709335
0.8560720853795964
-0.012032422306308854
0.9929965145497888
-0.3591796410220296
-0.23553620739859094
-0.5037191315640037
0.14136276418567562
0.05130444624107211
0.3192528759333024
-0.20403825638153994
-0.7003668481146716
0.27187536949870883
0.39984220802370096
0.32703988447317034
-0.836035787400361
-0.22211385669045947
-0.0009058970050901706
-0.06526147399727633
-0.3258736961566273
0.42751183364440637
-0.8147243585083017
0.5474375003772656
0.29512910654584146
-0.6859666981042001
-0.8805957009064116
-0.14907290674266505
0.6375772921271987
-0.21041724393008976
-0.17537496062398295
-0.11697327418551673
-0.3158929286266916
0.2568589247285093
0.4426801516434642
0.9168814711607025
0.6993915508391664
-0.17961213034678725
-0.09370737603751111
0.012843072128889021
0.1460259923738445
0.9701599006782868
-0.35466916747179233
-0.047311928344391685
-0.9764722051724062
-0.32999272121003576
-0.6924136199713206
0.6514918447574161
0.2985252165425467
-0.3278064120105244
-0.39544182238705394
-0.7826287344980638
0.799714878890486
-0.5243818219716783
-0.5655986315341364
0.32718095689231186
-0.9676849784638564
0.2768781488973384
-0.28722067808000595
0.07129136281524873
-0.7560201282608325
-0.4567233977822345
-0.2550613021834178
0.4910270635858027
-0.12054216952430497
-0.5635728624537713
-0.04514340217997814
0.6548294402878789
-0.7448789160115195
-0.23372487362798489
0.4865897576172127
0.5700699745018056
-0.03288256989224769
0.5383235545633167
-0.14617717726045387
0.28945768773319175
0.3776538216716854
0.7731623513137795
0.3449245451167735
-0.29244650851697296
0.9195965542738034
0.7149414239605969
-0.18821125929370885
-0.05134272679691224
0.5455364763416464
-0.8945720843217153
0.694629890173134
0.1482859664428693
0.34257643620667144
-0.631882942348865
0.33920231349059016
-0.1181070092354164
-0.17832394205893087
-0.7599062359895637
0.5793805112139282
0.4343442780406903
-0.708549183591092
0.05990962186471682
0.19549692064171964
0.9767904012059649
-0.13057926063197667
-0.8654495782489966
-0.9001239462396562
0.467218728214454
-0.708282318853596
0.01670566781748062
-0.02069372510092138
-0.2813340516670291
0.1596955743840074
-0.19630141221386332
0.827350379621274
-0.791662278307224
0.3558907845805088
0.8131796012889718
-0.6643974542180184
-0.49881620900847645
0.3593817368122698
-0.8423715530299636
-0.9485788854425174
0.6936802827038229
0.43245042979215675
0.418958961099984
0.5610257813677526
-0.751955872910465
-0.9217516433516908
-0.5927910718063576
0.918570022664315
-0.2733198493740665
-0.019625567823703394
0.959143722586236
-0.9063685075594634
-0.07784494800731734
0.5080134417991682
0.30284441609253476
0.8350035898312318
-0.8134511053463305
0.42829671299044514
-0.7241798408347049
-0.17366442664636206
0.09112431280800926
-0.43273790296953374
0.5379283182630505
-0.7525069115982215
-0.14184865269026536
-0.4552467578157793
0.5678858524089834
-0.8833066658518922
0.6693293458141689
0.8904199418434344
0.2783006512947356
0.31174071492134336
-0.8224655636776952
0.053083496903614025
-0.8278045366101572
-0.10382595229311065
-0.5778500829045878
0.2575094840717116
0.6066380205714559
-0.4455385776464664
-0.4545593690848966
0.7819834696377306
0.6711469498770593
0.4783449303269476
-0.7427080430225275
0.769643766603507
-0.5722579262471992
-0.4332832089725571
-0.1490888033753166
-0.9418974257141879
-0.5511225714341674
-0.23839315859101418
0.9224593853051453
0.23872702277477997
-0.18182464593003655
-0.2605383747070822
0.24009614921343125
0.5525604444890406
0.7353389488188427
0.09775464054970207
0.4760632510909284
-0.4914714898074175
-0.7817509003473424
-0.5515392577616642
0.4608139255233117
0.07146601344365133
-0.11114841300969736
-0.785665762656776
-0.49077069678011886
0.2844939977839127
-0.18270569838094608
0.3979708833282385
-0.3541496524214829
0.06041194039260844
-0.7581690004012656
0.7018773403109186
0.679816732662307
0.3005952021414171
-0.5681483988014846
0.6575894706277791
-0.9210051010658353
-0.3465851367156443
-0.035371868246345306
0.27638235210263207
0.40726670561259537
-0.535468116524541
0.49433345589303257
-0.04255345183020509
-0.9957082118222225
0.145135819811135
0.10118713419404002
0.26853255012981037
0.5137371823629611
-0.4128537675029127
-0.9820457764304595
-0.8759034706601918
0.8701615927147563
0.9968491851517394
-0.7793090346544804
0.7164133027653223
-0.8337537110949078
-0.3624467322482652
-0.1318853389834942
-0.18351868802631732
-0.5434627334649569
-0.3642521598175903
0.844645454376997
-0.18988068768732025
0.7200611273330932
-0.5674938513553618
-0.2511995405859153
-0.6250500406248851
0.6824042555514273
-0.20153484536833122
0.11231891823141904
0.3386070717214871
0.4751970011127151
-0.23195684488982393
1.0891168543612832
-0.5334371609092927
0.23796230343205105
0.1407193135584437
-0.8866114603154596
-0.8881154340568511
0.9749186218481214
-0.5355943021650673
-0.08741379887574041
0.8283060519546461
-0.6825577265474565
-0.8351031143977736
-0.03993822118380885
0.8650535246173339
-0.8349865066061548
-0.5953874605381648
-0.24242388078093757
0.2360498789422225
-0.2521474143741563
-0.8202608516348313
-0.04802281930178687
-0.4103304885428818
-0.2799662581323341
-0.2736932261026257
-0.922651919120389
-0.9720581115204723
-0.7283582152555408
-0.7830956881710636
-0.40017429321063425
0.929752312439921
0.9235435366478031
-0.7025489118293045
0.1481172455600515
0.29653486762450454
-0.2460375360309386
-0.8837085821731283
0.5944578239212082
0.7740068257056307
0.3648002667264159
-0.2285145289542656
-0.30470136753766863
0.8397012262119397
1.0531143095398865
0.41697840861848934
0.8766754217347157
-0.8614880482982977
-0.6094535242836512
0.29411559100723905
0.4252443001614048
0.6174704230144847
-0.6974956880480638
-0.4743469172569943
0.21136933133334757
0.3435795900338714
-0.4358363253100719
0.6318170800620342
-0.9720638648652844
0.030337762001980684
-0.21068745811320522
0.5544031502946565
0.17563903098562994
0.29671383574856725
0.5665371131016281
-0.6266935701289851
0.2568095648401383
-0.4407409091941028
0.9285703564332273
0.9398246762990898
0.6698445447447644
-0.28529902715062083
0.4735153507820029
0.6370936558890948
-0.45025608311573695
0.2645323887805757
0.7951862223433959
0.13057408825790562
-0.28004711462977894
-0.1077592566417968
0.1440177020445268
0.6287826448624518
0.0787963333834274
-0.04290625763209732
0.9025984903503976
0.6465006825094799
0.5121155193371116
-0.7110736771022896
0.42093371572350957
0.7724079805696715
0.11459592386366446
0.721952891906454
0.8804115766995473
0.885950495495117
-0.9054391377597626
0.35439012906855183
0.8101156921192563
-0.044643991923853266
0.23114680499571372
-0.5142987727876744
0.6183450246928963
0.16621746382321168
0.8215854580434576
-0.2797481457531341
0.3818205613568917
-0.05464095940996572
0.18066442639802682
-0.5513198042653769
-0.24617176708003297
0.9107827253196283
0.7878020907355978
0.6797615201777076
0.0938852732588813
-0.17228715029938346
0.029742956899893702
0.017849434655124022
0.4663583407229215
-0.9241032664267264
-0.4334511635664744
0.3896737093619458
-0.6537457888013899
0.5533979695032447
-0.21500433247048822
-0.7299841466320476
0.5212570482885124
0.6635266265751312
-0.3732934241805097
-0.7904425877216269
-0.6397698258687778
-0.7912467113096975
0.9183529929899716
0.990192293004255
0.6219023503558332
0.27223662625357914
0.6668258192725023
0.02115997541310688
-0.11870439963107104
-0.012309171782739936
-0.9487157064662806
0.5298981149463049
-0.9957060469260195
0.29464525512843087
-0.06818524197904496
0.09530863598735229
-0.25633531662473197
-0.9166992382943335
0.7180153542337624
0.28852446674131343
0.5481349566734133
0.7800589805761184
-0.9583175349381119
-0.7463375418802632
-0.24576849787545685
-0.23051719330509512
-0.8486139568834212
-0.8754540702616258
0.8988342699342751
-0.39816804012845874
0.33526039258616414
-0.6213353100273764
-0.458202882557766
0.03748098050669957
0.00636985714174787
-0.8699293376987323
0.4944325756051027
0.44180271150393824
-0.7432895617122803
0.207886248855214
-0.2688313617996827
0.26128776681610977
0.2684232142638221
0.7137166014021394
-0.65328166119869
-0.4265627903584548
-0.7153413450687929
0.3635538982875557
0.8360865071075732
0.3030625211046889
0.4480085392795974
0.6440410121891054
0.44410822739439504
-0.46329642246852987
0.26094025057410297
0.09596575142176555
0.5004297909369482
-0.9098677677289848
0.6307898677185886
-0.42166373571749727
0.617907195024938
0.6812646497011259
-0.5004736717763028
-0.4825724926057644
-0.055569311365824214
-0.2597373556459339
0.6684151890377317
-0.8599519231298987
0.10093386212284239
-0.40627613994276146
0.7972396217892983
-0.08905002272528995
0.32903624292268097
0.17992704451249675
-0.5613493272682253
-0.7320746696495155
-0.6130524617831861
-0.1498809883236245
-0.30346213364241703
0.004192599448008094
0.8077610639020683
0.11701438757442828
-0.031025256696487924
0.5797929949394942
0.14269887600307274
0.17247591615468694
-0.12830785845501858
-0.45300305438022304
0.36827978679568907
0.2094296147477217
0.7815777418057173
0.47960704430001
0.5006575062918404
-0.6191482738820014
-0.26211930348573376
-0.29925318688366254
-0.7353920106495229
0.6949001703510334
0.3613809146940028
-0.5268779494838152
-0.21230353732257412
0.6438064538203503
-0.15184705369035845
0.728445660632306
0.03364853663982842
0.9748874861395804
0.9935942279785361
0.3643284444868611
0.03888572277613611
-0.17704671757754364
-0.002808500253432822
0.8042828582144368
0.957656190819929
-0.35058617938403813
0.7666430267883668
-0.33099556514828476
0.34804315999950175
0.923532536488638
-0.3070995321677541
-0.8733340908693228
0.5785004483429141
0.37619928066346575
0.9565632813289935
-0.0007907265968546684
-0.7927963034590626
-0.5002120172327007
0.7720765134478111
0.3881136678386954
-0.5182426604222046
-0.6393178830159745
-0.47332379903612265
-0.6840247958792853
-0.02790258417986169
0.05392305109497279
0.9884635946627647
0.4899493183362229
0.1178263910285613
0.586921574758994
0.3374673682198235
-0.40467358089480454
0.7738069540220192
-0.110959506249377
-0.18265530218183712
-0.8419615592170584
-0.7231678093437759
0.9820028394964986
0.7639670833775063
0.1060724941184421
0.6101195300855606
-0.06122235149095312
-0.42731172734323053
0.42805655309666313
-0.10630869044158331
-0.9669029581154237
-0.16907927214295682
0.0483935400007498
-0.4061062390989567
0.4912966528428646
-0.38382243838990604
0.2562450621657766
-0.5335132896574084
-0.6095330171247821
0.4354129228654584
-0.5571013564602407
-0.9012232638319764
-0.009463708778696622
0.7448826341895294
0.3723921810692121
0.1073475419949792
0.7607117052339334
-0.17412231075642914
0.7596028740338254
-0.30069084562994775
0.2301521415219372
0.8270882771794996
0.279709056609279
0.4447248130687363
0.1128305220212924
0.6687252131612427
-0.16472484442349922
-0.9422662847126739
-0.01592751851115959
0.8873053722790513
0.7913522617181494
-0.1462182314995133
-0.2785998107402643
-0.7170343048029488
0.6245538516110007
0.8862641616765063
-0.81492670286282
0.571425329627177
-0.44890962562214276
0.4572953685220933
0.6259020922590381
0.20470863310037854
0.9670121398453928
0.7345378917338281
-0.528354082193691
-0.7574892008194876
0.23465218189846282
0.37419152074692774
0.3197619805723974
0.9743102081404547
0.515433920576815
-0.0898898272020694
-0.6934611585291721
-0.005301103308342103
-0.1881920613591428
0.9203426028792949
0.0050434453566896575
-0.9362988120634947
-0.1530400608373914
0.5920484536978341
0.2582454314656697
0.16951580521552767
0.24883586943318958
0.7769515470905637
-0.1684817146155011
0.7162528204504737
0.6736697645580432
0.4830430526678091
-0.7079249665681591
0.09264306524027699
-0.040801924882158724
-0.2531263689316934
-0.20244534285098847
0.7293489891628189
-0.7732531930873348
-0.15804952911662196
-0.29630274013121016
-0.7886279381131309
0.6454571436213634
0.6472786989086556
-0.8522881718914093
-0.3300438464659219
0.19652151519308814
-0.436569288470507
-0.30908195775542335
-0.6136233559404447
0.7062789285986786
-0.9815109457071483
-0.48325284641841093
-1.0700993096674387
0.5904984106185693
-0.27081998161233933
0.6703273532864408
0.09764944977137868
0.09730360139869099
0.7348005483652578
-0.5030437219966186
0.7770063438700701
0.5094853908167511
0.8416050668333033
0.12337997367993037
0.14278504421733662
0.10328352697848359
-0.5745409031477021
0.40649560322369344
-0.2393569288604338
-0.7344397655330055
-0.21992293813134323
-0.12370261096044932
0.14529436843825483
-0.15476001363174463
0.5147038510002095
-0.48163186117650275
-0.3071406889553987
0.5559590460194563
0.2492892293658966
-0.2952965185192793
0.09226559063329987
-0.5526974952129018
0.9715854328742923
0.6312570210626729
0.13036067436954424
-0.33831106048054993
-0.4542267896595751
0.9564377982149126
-0.17932547169273572
-0.49912176274311104
-0.31672306132418804
-0.01984717427299154
0.3298135032292586
-0.4466149343106318
-0.3346013693281229
-0.7150429547803414
0.11522928312259562
0.3733088089761565
-0.5938680772004493
0.8698522246313409
0.7921935134097762
-0.5167267805674766
-0.3622909444140381
0.07709533320888884
-0.18165683312615366
-0.5746909372763798
0.47048580268112317
0.8016051376075279
-0.6417655763999475
-0.859343704802773
-0.31637338127455483
0.6130762865667312
-0.6093660548094253
0.6293168592381835
-0.7485596469288278
-0.374646220100433
-0.914629392679079
0.13881461936104245
0.6705073426748536
0.6006472306455795
-0.9336512904107246
-0.9087074526777779
0.624145733663716
0.9909921724892852
-0.1957787376690101
0.8877327125664121
0.3382221362051052
-0.7551958649652726
0.5825019818526984
-0.7356239673796865
-0.6660315274214608
0.07694891524564595
0.8692022330452793
-0.5103727795434063
-0.0007962957143632238
-0.2725229434338221
-0.19133365009431458
0.3477959286959629
-0.6753466019959602
0.9395488060717461
0.7574981704082739
0.2594739011168985
0.8775017650095314
-0.47668720031102496
-0.8618097185312914
0.2699768418473234
-0.4425386940721081
-0.7816280337806962
0.7862074895261619
0.399876878959349
0.32360709686673794
-0.8786383844268744
-0.32686743171193355
0.7008243174048712
0.3454388923994973
-0.3976713914525183
0.7601281085705711
-0.4622914807495395
-0.6571631299691348
0.18204825037074057
-0.7697324835395234
-0.49279679797765996
-0.1041526067597549
0.8136649797758131
0.6769256071991727
0.3447883233424695
0.4645141595364566
0.7498300239094858
0.8879831616074535
0.018212969206646834
-0.3053915498967059
-0.18652366464629155
-0.22351950941811416
0.5155386893243401
0.7220580127382843
0.016686306607162305
-0.6083511316657308
0.4342665342132508
0.8175477558982158
-0.013257794082564889
-0.2936195164160764
0.6272016248293315
-0.3924992656446924
-0.6101147775429023
-0.5358785988026147
0.899534532290243
0.47872230659213577
0.14960981706090815
0.16886156767491323
0.3520064951558124
0.32614538318679864
-0.5997836003528758
0.7398301035909967
0.9125349506695035
-0.554475935032668
-0.9152402599460578
-0.3276896538702594
-0.8452096357487962
-0.37918632293069177
0.6903491982291667
-0.08567498180068744
0.21848618329030534
-0.4850739190448339
-0.5317723716547019
0.3887226084008504
-0.5050481220668657
0.1442643037201241
-0.723687700647819
0.4060877101398248
0.9639332904178335
0.11241978185538204
-0.6792150111350403
0.8199421031041882
0.9324993230091132
-0.8259030179889089
0.12125848400601735
0.6446168032567732
-0.09886797164367478
-0.6524627390696922
0.19186142330785372
-0.7062879076935158
0.8434066764712644
0.4938703808116143
-0.539759434969519
0.21581610168260518
0.7081258928939884
-0.980809745644075
0.8323285624689822
-0.6266720295054238
0.18761656234655621
-0.04678404500643141
0.7417863179519721
-0.5371820116355819
0.3176240144347833
-0.9009944685252087
-0.5622040231789693
0.5253391974917803
0.07308941680107806
-0.8815108535207905
0.4649691190019667
0.41234720047148854
-0.8855150315169449
-0.5836972574085721
0.8514899501843691
0.8387449066250043
0.8949904097035808
0.32829954694766517
-0.5753302547608283
0.6731987715485723
-0.7150088155012975
0.1520322910795442
0.20510896115073332
0.3707670989833123
0.035220747994644475
0.19669870998391015
0.8233254013256236
0.1494067394237828
0.8693375034597736
0.6245435510731527
0.42959300639283593
-0.7742435274325832
-0.5730740526569744
0.37999954931436886
0.6471819069461013
0.9657407263645981
0.47935316936271843
-0.681477230117548
-0.5659121653102244
-0.317510176504491
0.3624341428402864
0.31113932102964426
0.39342651374084925
0.25729368360777727
0.20341296284421806
-0.6067250539824764
0.23520169337750563
0.6483064789185353
0.7723156178347546
-0.6283567483892509
0.941539681911407
0.5546207554416069
-0.40763328063802007
-0.9230471361780874
-1.0801742280759292
-0.37518293358449406
0.2605252524308146
0.01575775230638765
0.3199571456121353
-0.3046582119328334
0.9127687005496097
0.9719642156378272
0.893783629163948
0.808190576073865
-0.23699640688386658
0.3043867227548511
0.10728545460958805
0.8836032327856238
0.3360067502708762
0.47250639237894543
-0.004202559004995221
0.661408843399804
0.8098581161701464
0.7739041327570739
0.9309754338919887
0.6109938855693728
-0.05040319795161152
-0.025820038310235827
0.3054121744891604
-0.25485147381218853
-0.7695582669872778
-0.2977176472443239
-0.9967051972630638
0.5827655302141994
-0.4447520349506957
-0.22652012836516944
0.2040763183873655
0.5558033961365949
-0.44366284279586665
-0.05578710056778391
0.8075438651273239
-0.0850341292356458
0.7939016497669238
0.9105202853526115
-0.0507999097874936
0.05480650888870553
0.22801912631497712
-0.546508097292318
-0.04518230014390068
-0.13436680694462622
0.37585887026682485
-0.15523330011089076
0.8902689292619046
-0.5745684100864397
0.9358729866829536
-0.9777101188842032
0.4898303223408802
0.030801607104313122
-0.11865915928704607
0.5442862522172791
0.09499420877679778
0.27373888375046707
-0.4824268491799093
-0.6346092454507679
0.09600611631402324
0.9704755738761879
-0.796286482845026
0.37010421749102607
-0.4878224227332588
0.0017368322163378025
-0.46590879073606617
0.7110181818453354
0.11658713323433068
0.49032433798710007
-0.7422028856004381
0.5356072722030047
-0.9629881541953969
0.1705230341642936
0.3711014133124766
0.8460118513696708
-0.7557866130252002
0.699550728884059
0.04855899122389595
1.0065140910027626
0.7793485718083117
-0.21685254096642792
-0.30935482810406945
0.5393511445679344
-0.7275391413592666
-0.19453891184578675
-0.9044196487903071
0.4518451817816307
-0.36391179477952007
0.8617391994762343
-0.6127536157719846
0.5997263853797257
-0.7206458298228864
0.9908554315585898
0.4907986142513073
-0.7447312277430285
-0.17409490718750886
-0.624857201975163
0.6181689943892814
-0.8602838330659333
0.8012048983103812
0.9716695706333784
-0.8246051832764407
-0.17706526678539614
0.3479693308585574
-0.6798083546608136
0.6205145381524666
-0.2065190141816815
-0.22192018594605156
0.3256123436639564
0.972795669987498
0.2294804570521245
0.651315233076841
0.9969552050723742
0.22728778668214766
0.6505878975314059
-0.5064455301091171
0.2840927014578689
0.6176215258211044
0.9566924539400601
-0.28000188033656626
-0.5451407748947343
-0.04342811798610424
0.5642440874366557
0.7177573413285399
0.32680114582471
-0.4637848087697427
-0.2798124654377443
0.47003375187946705
0.947056169301199
-0.5730238281407725
0.10390487258896508
0.754384360525149
-0.34840789314891074
0.8198680134182565
-0.1732156770394595
0.7522646020143611
0.6171326104917836
-0.13533614517837003
-0.2982418294672453
0.2093234444239862
-0.8537786641834604
-0.685872139995482
0.21525053771488167
-0.6289944098095479
-0.04532327971518746
0.5277778120481764
0.6144487478386595
0.9989296354894803
0.5353279072126313
0.374867645764113
0.8621779803214769
0.8813389201316177
-0.5083145047145343
-0.9973035183756123
0.15087658847061136
-0.9328899696940935
-0.6655499995528482
0.317448283500918
-0.9627141382940227
0.9592420196399538
-0.9803195035431276
-0.19613448581285198
-0.9422779732742851
0.9041850687623214
-0.40725073664561484
-0.05572967323205291
0.48737502931322796
0.4746796300581051
0.6449099661742221
-0.5062900412902105
-0.5333130568651758
-0.8054055113085486
-0.44513954808735234
0.29074839330598
0.488125175163588
-0.6308388777745153
0.8224888995226194
-0.9769717423360258
-0.9181156833547013
-0.7072976146357117
0.5850415650590945
0.8143206077053575
-0.09143122896750899
0.8126578266251576
0.7383101847492448
0.8109070599836479
0.01282420594988376
0.40019046464053987
-0.6982351127505309
0.9633447460159679
-0.668270888117696
0.5008138277088026
-0.7176960913663619
-0.48117575710664173
-0.5084923085741739
0.9012796821391561
-0.3937368818892635
-0.774081009002559
-0.43491749652476464
0.14041747559757667
0.5883975414896405
-0.06561977718464473
0.9737887624621582
0.2247047855764761
0.27534441657396735
-0.19619429575540503
0.7916744678554781
0.6804849785135059
-0.12700768029841392
-0.6248427768107936
-0.4566700588203174
-0.6903060325982092
0.6623644810033238
-0.2627737525512548
-0.25282500917202805
-0.8400968023135071
-0.762149095372967
0.9738924533442901
-0.5928715099347706
-0.4246040511033593
0.21958427347910248
-0.4272174369223356
-0.18575179846809436
-0.25532594996448243
0.852087448960712
0.3686553722934018
-0.9056415608425756
-0.554863476973301
0.2573967459715909
-0.05101700212500315
0.08582810531701246
0.6167041275435152
0.9796161895767386
1.0810177529802885
0.14556254704345334
-0.4759578755984857
-0.25205990432767256
-0.6218115463002545
0.006102679257496524
-0.071788594386347
0.48011882772014713
0.9000056476179639
0.6511406335148504
0.4260573546610311
-0.2764504613653467
-0.8766659350140298
0.4398367523920024
0.03247763636048284
-0.28507578984314974
0.9717282405822976
-0.6229848717149091
0.5944855054119376
0.5393515495019101
0.06642620871119642
0.057435572536598034
-0.1375410467655538
0.7640548657002644
0.29337267356779506
0.5104235306892098
-0.6830753650516137
0.8823400885118755
0.020821436864665338
0.9941025986205227
-0.9138986188604385
0.05782021644612456
0.6790432967957043
0.5447966002859757
0.7450577920156771
0.4170034203702931
0.9232341363597403
-0.22496645687540084
-0.9339733708459075
0.8898625249146572
0.2530221477041593
-0.33867008280783617
-0.7069916444950011
-0.7205423150596635
0.15743603290806218
-0.7282673950352483
-0.24333597115059424
0.31575532964493314
-0.2114666206644369
0.8404794686447276
-0.013943254205046211
0.9374415555643985
0.053777802924326545
-0.6102484637963352
-0.6650246662277717
0.25550652493580883
-0.2035192512112416
0.15293727352480002
0.6410529588161173
-0.29228194341261804
-0.6317132624549262
-0.6989152161325387
0.8760693405679769
-0.7048350991223495
-0.9925554564898749
0.7086302196911822
0.336791921867174
0.21061759706381444
-0.1198464430462145
0.7041773784448421
0.5008078939711984
-0.0061856858828219785
-0.7744171361457886
-0.2750700978531806
0.9357687731949984
-0.40671077556988394
0.48743644371490813
0.9014629447289506
0.4960924658722392
0.7416321554877676
-0.7809858401840488
0.029812122878115393
0.5970791099670805
-0.5461254244327642
0.6079285863757808
0.9054953168731703
0.45216030233595506
0.7062522682981529
-0.7524697232927802
0.6085155991841766
0.11998392792620582
-0.9948755226327994
-0.502026574025235
0.06471275531384867
0.42939205688384335
-0.6934517440829691
-0.6862209071415648
0.47713846194597354
-0.4781085772259176
-0.12819379136850384
-0.4563303511498562
-0.2456972824215662
0.7924621388063231
-0.06303736509733016
-0.5541766680900562
0.5778504493529502
0.9752603337375119
-0.3748738077010598
0.5792438961194193
0.49923215841356705
-0.11804006262894218
-0.0601526009835478
0.6978410128220414
-0.933422581954285
-0.04205983242085942
-0.002729315300774804
-0.8276106413442195
0.49232830774264413
-0.9755590265578344
0.025125056057904258
0.059291830597089756
-0.48698449784099057
0.9353799952121844
-0.8862666499138552
-0.2705714384227451
-0.943950618052533
0.15678520267891582
0.8392155303857467
0.7531635236370413
-0.6770335380809582
-0.8485765278654402
-0.1432277271731217
-0.9000214171089718
-0.6193798667739923
0.0915828917723025
0.8361673527490676
-0.770814987404456
-0.38366400726624594
0.5264438050318787
-0.04109219050823376
-0.9340790497729552
0.8741036713334731
0.7885967365389224
0.15219494877808867
-0.11438082909895719
-0.17162265533719445
0.6430383187157969
0.01551201071157271
0.08650802656628409
0.6687954744168624
0.738765751673554
0.8441022388438273
-0.28657791718006
-0.5355998127662787
-0.34385402133543463
-0.6579792513601013
0.572704830492307
0.12709311021802616
-0.568639825488155
-0.8772902823954614
0.5364126947820358
0.47065022188818706
0.8371393118563444
-0.018893056703305433
0.8806772685672459
-0.4496102506740751
-0.9079977318473678
-0.19074348302453936
-0.07160653118269455
-0.28709143710119944
-0.8307868350266967
-0.08886661807312413
0.06919420113228902
-0.9678160280275657
-0.9921789094712414
0.9546714928249789
-0.48873810590759437
0.9224259596430111
-0.8259226247521236
0.18083136900067598
0.8810017802677208
0.7739620050623146
0.7744035130095543
-0.8158969426662304
-0.1072269763918774
-0.3865290525066334
-0.2548235938231349
-0.605240182339044
0.7344109234261844
-0.473951098629279
0.17881196011195288
-0.18789794856445652
-0.25541063446057755
0.43820744120239286
-0.013143520553812182
0.2321438986540605
0.499104929382173
0.06467104061219486
0.6085557971359221
-0.8162133780187429
-0.20272694430965
-0.6377826414060086
-0.814820712925584
-0.9201721267372975
-0.9488970734835531
0.5722469993630783
-0.39233580085955294
-0.3049195119207564
0.9996225371818717
-0.36377389709903807
0.9199657193760109
-0.5033651342176713
-0.08493197554520426
0.6294907307458366
-0.5639513245144545
0.03957790528703131
-0.7342063219559563
0.6475619852860908
-0.6038702293527234
-0.3348252208623499
0.004960797343702472
0.03787258599253995
-0.6751267959752345
0.9158491515894329
-0.5597687214429785
0.9275019573948968
0.39065133334682245
-0.07996885961664879
-0.3223993318108995
0.4705330624820001
0.5063917297984455
0.9727261779769336
-0.9659448525350263
0.9906983831126392
0.6587672141044252
-0.23759696120667262
0.3308189235090884
0.3803047502936643
-0.6339923539311061
0.4994084075349692
0.677825620515959
0.24439538825024898
-0.6650342383120578
0.11641268711502306
-0.4622544685926273
0.9475287459811768
0.5617583352752811
0.568264299216169
-0.4138208896211524
0.836174702924078
-0.17450118594693187
-0.29757015886750326
0.524563450628563
-0.8025509799517985
-0.4726169962679676
-0.3317347918158675
-0.5974931131715169
0.5683142136998388
-0.7042754199207462
0.5899700093956894
-0.2576509872185895
0.19019325046106994
-0.7307746971305076
-0.7180985923797993
-0.22110587885643307
0.31152047013931083
-0.8756148595534967
0.9834341764452339
-0.6525205264488172
-0.879539869141895
-0.7539056319577973
0.549442272841754
0.8808396501669054
-0.0829057118023151
-0.8053150671941878
-0.37561413534760957
-0.12390822235403398
-0.8458944659423209
-0.7738257709610291
0.8036958799797798
0.7381742690080642
0.0351272245150267
0.8185054673147674
0.695653570404597
0.9560538374240664
0.9188028037068698
-0.8702264965438189
-0.18216723730568948
0.7194109916089635
0.5372439103852416
-0.9165539203950646
-0.180928328585167
-0.41168334491643854
-0.7751502151804079
0.22720113509151996
-0.8857661748715555
-0.24736288332407985
-0.4023546337058965
0.7483240455475606
-0.8395249875242028
-0.10993241091116457
0.9733059883648887
0.07928322674672136
0.1296380176099914
-0.22402798038800764
0.249116827801811
-0.8768821078957889
-0.9350839672325566
-0.7310949423250703
0.6860866694766508
-0.6079177250459677
0.3367779645986649
-0.8178319224201467
-0.21389405275268936
-0.27838671625290257
0.33710185196548403
0.3886366408435218
-0.162206705311998
-0.14827696869581253
-0.5551201086500372
-0.06733002166598401
-0.6853713152107819
0.23120349023167153
-0.6140582084842194
0.15773991311920588
-0.2593006610940307
0.2455709509918682
-0.5636952767469384
-0.6417294173096386
0.9748157083314356
0.5099336603274662
0.8809703757974416
0.1968438199606395
-0.0900293596172077
-0.6357859658388041
-0.2284556846833643
-0.44597519367872196
0.8310168483618463
-0.23361647895405757
0.9868952715592176
-0.22837975865982396
0.7194229836169292
-0.02352769280113165
-0.6269339680291957
0.015522033576232275
-0.5939573517527654
-0.7419083566071328
0.19192813978504208
0.26439686914739946
-0.009521715415842236
0.3652526082953771
-0.8756318397266691
-0.12861682373609384
0.8672159685516672
-0.18659644089319105
0.5024364441503582
-0.11505704992753762
0.3969326855983155
-0.6207073841963326
0.5350444565638212
0.5378285313103014
-0.4251737236151394
-0.5469333422547205
-0.3698799228273597
0.1902960971688693
-0.20943817401147724
-0.40901832550924877
-0.4070212331920386
0.7513824818361576
0.9282592719300404
0.8085365361516981
0.1630782960957018
-0.9986427902351454
0.36052239977379563
-0.4369592846109547
0.992931933754218
0.44678336407732333
-0.24511022420943496
-0.021169812249098863
-0.12363364038967384
-0.5827803195240009
-0.4727855438171995
0.22329138077665522
0.3690058050733591
0.5425177965515202
0.3165576583782448
0.7818176785502748
0.980284823606252
-0.9083738322272674
-0.5177953092297096
-0.6499878611998013
-0.8556330475753224
0.3202376514937735
0.3031220164094217
-0.8841757401555299
0.23422431097453456
-0.8840746681178124
0.2453233759820272
-0.9527807905300314
-0.9737241876034151
-0.3318712880535877
1.1261513037894233
0.05080301735430415
0.24282279847577337
0.14062891220002594
-0.6155248621264455
0.9031920297764504
-0.7432694822742796
-0.25129490769907115
-0.822841650281311
-0.25092309933064105
-0.4413791517690038
0.6062624392901417
-0.6843022615480863
0.48218933551275556
-1.02104198141645
-0.14277577454530843
-0.775162422706297
0.34658135205629437
0.8011231953926575
0.9895502510917282
0.7842880379589638
0.4634838713398346
0.9799917682159285
-0.3236194218543619
-0.2985251296455208
0.37973565995616343
-0.949408189186874
0.19605339016963086
0.8982504467088364
-0.16178042769077483
-1.0020233579145612
-0.9216062700916254
-0.49180005245134817
0.2784224351569988
0.37835104917576023
0.38997874756001516
-0.9504229495164136
-0.022253945006568854
-0.21404812970823595
-0.4010775566908788
0.8372864176346058
0.7834126278726925
-0.705168625800175
-0.023793121608364942
0.4805928214351326
-0.9674256820036027
-0.8084185683780806
0.42101579013654344
-0.7808604759761559
0.8113298766480234
-0.26735174087598224
0.3694069041475738
-0.49088366508492776
0.9367669499020199
-0.34665352119512827
0.013800702426590039
0.32949246065575943
0.5167446167426935
0.4824728243970411
-0.2996049671337808
0.9187353895635353
0.5382358946930874
0.08190969262144532
0.7848862649942341
0.7965830237913782
-0.5159079676446905
0.18899442642839023
0.2214808054670303
-0.09785698427700162
0.5091695120095581
0.2154832908616673
-0.6493336583219833
-0.9974315729776098
-0.570880633647771
-0.8786292003992524
0.07991283401856752
0.7143159137176027
0.332972433359368
0.4649059780858886
0.06268688125812205
0.16904171236393672
0.3402278244661916
0.6058259548633156
0.8615302238884852
-0.6557203825543343
0.012379553650410102
0.197670818586568
-0.7187345216472911
0.40164580428367214
0.1924212326933262
0.38356493570965067
0.638634134651799
-0.900199872730725
-0.0935039282086576
0.9799016337649176
-0.2628484526897237
-0.3550909644226632
-0.9705267078998435
0.7955333938618443
0.061605253970792695
0.31559846499651867
0.933065225008838
-1.008037103097196
0.250034284136627
-0.9826108225796324
0.1459425776795944
-0.6695273306523486
-0.7970300228482918
0.6104675749974937
-0.14882302570118333
-0.4209654944706782
0.5663235536356928
0.673038645124238
0.39750882617439287
-0.18933725756540842
0.4717855556549309
0.6917106091445517
0.28330961525089826
-0.4220259936390105
0.29290465531571447
-0.47178565281023044
0.31351282097568345
0.4528892880052833
0.7992219903530338
0.1975451989250152
-0.28856657444860323
0.6747364737049177
-0.09739405678040902
-0.33397655960027395
0.6537656228484536
0.4458294074120397
0.5387504266729555
-0.5342277640431681
-0.009885544158079185
0.9660016394916877
-0.769059631097724
-0.03958804820308193
-0.7539152655664394
1.0601709448420205
-0.6850431011929603
-0.642994500869416
-0.6616651766214325
-0.9444924362684297
-0.6045311518410128
0.1644996528078226
0.7258709283620592
-0.3708738754761802
-0.261507902236924
0.13501647970651276
0.3269527492856419
0.14365502842346878
0.5454829489739251
-0.7887897751878352
0.880656341379366
0.6088827601527914
-0.6224512860815878
-0.7571868175092464
-0.44743325548595925
-0.16309924939998544
-0.9236495465679322
0.28920885398864127
0.5761110285439546
-0.766305646440191
0.43860850318667044
-0.8844072837973116
0.28256943133898593
-0.6063188267611606
-0.5970890329113472
-0.3742976957173185
-0.3942457249063511
0.40803394231659906
-0.4500019396052395
-0.24019004818400447
-0.773944384134472
0.7854674775367831
0.7906589639939006
-0.7617807759854545
0.541134331991239
-0.5838924213532228
0.6579044887881642
0.2222817598204585
0.33056384478366474
0.5825852730510759
0.9709962331173025
0.4780898634811477
0.1239895099574766
0.21523913922245042
-0.6936223430596722
0.368827280215651
-0.6460562411073283
0.9266482962776796
0.7451036705706895
0.5854157733346674
0.697218166644651
0.11271545057851884
0.2966928239595863
-0.6415326303048543
-0.29830091154857286
0.5857162969025003
-0.051074966969954616
0.9149791694729354
-0.8928686328613697
-0.3665169668530348
0.3497339802316106
0.19787385588732875
-0.1291354117078658
0.10900354983711913
-0.21382780272833712
0.3978881615169011
0.5559402823656461
-0.2881079036056924
0.8961577123911492
-0.39285957572099495
0.8554995430634533
0.020803983586798802
0.18047395561049256
-0.48426563422570035
-0.7831530416421355
-0.010457681181404554
-0.8864202323215081
-0.8556765661344079
0.7538744104758652
-0.9878857276392738
0.8320929493444216
0.7449636855988773
-0.4849436082309959
-0.7919900218290179
-0.6993622431577398
-0.7358528672880664
-0.38947357652334347
0.2984423456593761
-0.37057850123154323
-0.13111817082678212
0.31170257601586604
-0.2729060620259538
-0.38223105201756247
0.6722425454652243
-0.3354645959975746
0.7221391488204024
-0.3280377687061269
-0.39921511677732635
-0.6208102157668747
0.12049226808409533
0.0379901511469074
-0.7015034925276906
-0.7281236067706693
0.2689950739181144
0.4546953395209261
-0.8187753231021389
-0.5874851004853283
-0.7064764026879384
0.17143239367196544
-0.6255464484668003
0.07385482300224452
-0.34953529044922127
0.4605967447414269
-1.0798063630951305
0.3934435829210936
-0.9428829053296812
-0.9027685361165787
0.11262115963828223
0.6773258988398154
-0.8007421793076549
0.09304183630690024
0.3480319103976599
-0.8850317808179862
0.8469661736986746
0.7155660683367864
-0.8371917007063849
-0.4535625759464781
-0.6381148158669052
0.0391611753441752
0.4279317858220626
-0.795884628687729
0.11809289574585893
0.517146980461034
-0.8991519393429004
-0.9446702061936869
0.8036186476638307
0.8961537652378557
-0.44951282947758253
-0.6274080560369335
-0.39146595782438076
-0.8158511912170958
-0.40814953406880417
0.5397211980400627
-0.4292069033141952
-0.9074196915402224
-0.05980446222545652
-0.2654249714789316
0.09969357690732661
-0.25777232098792147
0.7095827281006499
0.0403455195933784
0.34321807809853433
0.44074875103140987
0.5691342545685403
-0.8450145256438037
-0.3743201444486042
0.4826676060695094
-0.682723742500001
-0.483777161977083
-0.8678451518884758
-0.2173830343411287
-0.2312671868260998
0.4116913464358534
0.9893654366830946
0.9403754174132946
-0.008342243356334489
-0.2853481366101609
-0.4636501458841742
-0.387573963085583
-0.10731742662026633
-0.25021359478686933
0.18462818183435137
-0.48454890112961313
-0.45929972375715566
-0.6260306294996913
-0.908514255054589
-0.7168441496535427
0.4966591362912698
-0.8758395847046732
0.5951281681741774
0.22500451584389114
-0.5528470667631225
0.5061815438197701
-0.2964692531445683
-0.7072693052553951
0.3579243322214243
0.44324284654719337
-0.976609564354505
0.31174406018578105
0.34335859573953487
0.786567659403177
0.19116006557430582
-0.3868714789957133
0.5616315793545059
0.47368822387228904
0.6608872075829044
-0.6171642151570944
0.4446809321594405
0.17305834374468532
-0.12983783584105124
-0.2579405686295191
-0.02923689566191734
0.8338302467165029
0.3128526354971394
-0.5851411749511752
0.6931130223645818
-0.281295670395433
0.7600575137150323
-0.5540614942352429
-0.0672937976525696
-0.26056147029637766
-0.1882789528493789
-0.03435152627806137
-0.6325229082972648
-0.983929190999403
-0.9026168742907268
0.9980276311276963
0.23709818621909906
-0.6117418787995934
-0.41281140534303185
-0.22428780372164775
0.3106871380367331
-0.5656289419749982
-0.06011993643175462
-0.6399358310333612
-0.23498153521179477
-0.5664969053060571
-0.8599296106590795
-0.8330429866186422
-0.5150930508830065
0.1993395566613918
-0.9636861449221281
0.3492534715853399
0.2541013176476514
0.6944914849127127
0.9528542007249408
0.8718325916729806
0.9573982678501509
-0.13719212338929365
-0.6940376707815863
0.6498799256752221
-0.794141608274938
0.2955491808563322
0.5385597278497323
0.8344831606096434
-0.34585701264247815
0.8380111749844574
-0.09079304616806128
0.14182145964108162
0.4913190371657523
0.7201033588294115
0.4831117143297714
-0.21119647011059772
0.07575851105202847
0.5786629027832004
-0.8990024837466093
-0.039819493036917564
-0.7039913573612939
-0.49498587564659835
-0.2281856394902535
-0.4355965545987568
-0.9102801559314428
-0.0443264001273147
-0.24048830790892706
-0.12536984484032132
0.35495427544264513
-0.20963036620144515
0.4718376054639255
-0.7130532750953216
0.2814204518683716
0.35569686872368095
-0.6853624157014748
-0.8580844487406261
-0.7350777353799085
0.26970384119089985
-0.8194588045837858
0.052866771858939884
-0.33540961724273255
0.7170316913274866
-0.06568231873867236
-0.6950273432560627
-0.9203462304296075
0.4378547972692699
0.5442095394075455
0.7233333260000607
-0.6757016089679224
0.8244609794352287
0.4094339919293055
-0.9777879265297551
0.3321524752220826
0.2651404373029105
0.41047846934758714
-0.20193292584632405
0.9543748353019414
0.4972272852384536
-0.3171818206247039
0.1915921948765471
-0.817683349095816
0.41696181969613066
0.18280501238125435
0.2897782090661708
0.797614584818161
-0.06155723586233597
0.8577832534117951
-0.48491051900335824
-0.058717736578072666
0.48933694120308435
-0.49608667728871936
-0.4619280735317479
-0.8962314022919131
-0.3320102942182699
-0.8189221859856186
-0.6503043845119201
-0.5952054008807974
-0.6568248291906988
0.9242451772723232
-0.40802680016538506
1.0883692089067067
-0.7597456074135329
0.48339889361456767
-0.829711215754229
-0.4346603511675513
0.48740834536700417
0.3698773224433167
0.4766059837796581
0.5662802045172921
-0.022562097986894347
0.29245613286138566
0.15645152918761207
0.9315523174407743
0.373028226882004
0.5901801411541365
-0.5482590845247997
0.07202594396904438
-0.8431251695398689
-0.37079135856216094
-0.4549352202402359
-0.2693270014475928
-0.287357403529791
-0.1880488190073859
0.4492103096476261
-0.26378829982573637
-0.45990302464623145
-0.38503947292870166
-0.4006419199258482
0.6502260817562404
-0.7130602810068334
-0.1358254539729009
-0.9250969324730673
0.2967557340687701
0.32517045824767776
0.946773853912332
-0.10392980101377836
-0.24142655959796877
0.027981769921023192
0.0667997144966003
0.16504951944539936
-0.4989347462498135
0.36128910592098884
0.8386381446407856
-0.09401480082125957
-0.796339028270213
-0.9727930500912532
1.031308125883028
0.4254533011394652
0.22471526915294238
0.9978682655962956
-0.16757971488173928
-0.0794096940336777
0.008609734822733417
-0.06737464925064798
0.3810271930446485
0.04776946634475476
-0.8479810516052586
-0.3264522241506156
-0.18143143335060774
0.025948912127485846
-0.8580918313343919
0.4036575477063056
-0.517401258881159
0.48672898208656346
-0.2605396992577862
-0.16472569653875957
0.08108292551926177
-0.4123201860468866
-0.17148046230408176
-0.13755351005466343
-0.7580364219248452
-0.5949806120544419
-0.48649880022634434
0.40170507560090307
0.5936030296608621
0.43491595745815137
-0.24541517938294355
-0.48815218665325427
0.37369644780718914
0.9814690896461142
-0.582914372602005
-0.08749141797264826
0.18345768252236505
0.09162945496785624
0.4837953254719525
0.04790711496271581
-0.33130688427695065
-0.40294637280217716
0.0793063854597682
0.05680893284005406
0.34127689899104396
0.916434441431063
-0.17149656441603023
-0.09284091204295852
0.7010760263853619
-0.3089976579334184
0.41526026315773845
0.45834130574741416
-0.385571782875771
-0.21453027429785188
-0.1639837562748634
0.38333711045124713
-0.6914358975799804
-0.8132946950093752
0.1403141963671375
-0.7100563005196825
-0.9564801400700802
0.44748814630407185
-0.9597008446042694
-0.7727970105446016
0.4266317375493883
-0.03241711858276841
0.2626704589192361
0.25570315061284976
0.49892425021197995
-0.2227371988497493
-0.8014891230682395
0.680846187754206
-0.940657954381257
-0.4141300355375259
0.36265064176174255
0.9654251179736233
0.7856762521493804
-0.9199275987420603
-0.4345666379259316
0.5624965289447397
-0.6480021407326764
0.7915564315173442
-0.6056313904913322
-0.16728952805781527
-0.2159903544373707
0.583235429047922
0.9877951522738562
0.7937232430457832
0.8766413516781018
-0.3955906911793803
-0.6337289279879064
0.09824591678596639
-0.5423848146762149
-0.28362237144372227
0.47193535848805546
0.5484457414242154
0.38761651747363135
0.7328735953570595
-0.9979441994618776
0.7928329205638314
-0.2895599060134282
0.6216672700946031
0.18271222026941936
0.8449375645487622
0.4698686681891733
0.23274283167278154
0.48322772009904114
0.8553218811496051
0.6482677700264647
-0.35997764026035006
-0.08130468421543524
0.9180284621868146
0.22346705160187819
0.8682455144968659
0.9714335548904518
0.423395610525938
0.7354972416482082
0.8923656891654992
-0.0895337815632783
0.5249403829594346
0.8092151548631379
0.4499591045532818
-0.7154556124070215
-0.8250651788586914
0.202115665779395
0.9419471888115245
-0.5347907742675391
0.3743938919754157
-0.6178866692206473
-0.7672138838713507
0.7790960961178215
-0.9290024560514991
-0.8124131109215287
0.7320172678998544
-0.6157853586041757
0.8102504106834698
0.3537003545391231
0.7753945059671772
-0.8208346413416991
-0.24303704297436446
-0.5074652068239138
-0.4501994957940494
-0.5307594959400257
0.6633804620531514
-0.5078256171967097
-0.5464778605463132
-0.258986078725155
0.4339826790350203
-0.40109589532407686
0.07723999484758183
-0.10049214302189606
0.030524983904663294
-0.01666096815707907
0.5803742459921062
0.22066104012123855
0.975648215153955
-0.7483061661343118
0.14859037553948506
-0.9892181721763753
0.22594279136967055
-0.5869196581856377
-0.35111845016460963
-0.9514189710063166
-0.559915382587731
-0.9352309668876133
-0.46090747298724666
0.36261753525013085
0.5069187687357462
-0.43473194744462695
0.7545651977939476
-0.6997142032895047
-0.9422579380215892
0.609829029555016
-0.021554462969312738
-0.8773767680659277
-0.9287271203624066
-0.6588461377972619
0.9518651014681367
0.7150232789752322
-0.22982377183773117
-0.6953720456230843
0.4559507840065651
-0.8241646841786723
-0.3892827346925398
-0.6886730916611516
0.21176462404986027
0.08158909477424725
-0.11685802203783657
0.3164067536723705
0.430825602035668
0.5086950111875277
0.15774836300520834
-0.3186507402243677
-0.9131850867577835
-0.7163527601197766
0.6057937011099837
-0.8605733456756066
0.9857677383499743
0.45551456662978634
0.9797930058525909
0.29687158674582625
0.6325957634957524
0.6133560763361203
-0.2495276036787175
-0.7275634149666175
-0.5678870787497434
-0.8710863946327586
0.6434810485937841
-0.1747496498458675
-0.1104355842777367
-0.1918004113933136
-0.814850685539956
0.7863060535085258
-0.8078291691613597
0.04055298410361985
-0.4806426430618356
-0.9483088835128244
-0.8747359101708614
-0.44944357373259547
0.9090866490059288
-0.7107112933858379
-0.039453679172876566
0.11774900610845429
0.3665864866181703
0.056869996819227
-0.5663166700843942
0.08326585543058052
-0.941135171086922
0.050046935319380426
0.07597016729465134
-0.9010352537315818
0.6600453958288861
-0.9280353537748243
-0.825621406926114
0.2506345729473658
-0.6786276978248602
0.7210500029046496
0.36138433684551563
-0.10624350466854238
0.462712625004841
0.027331078392953234
-0.9780290918015306
-0.1296373765769161
0.04827462040620656
0.6737298683291126
-0.35672887980043627
-0.7302109309190132
-0.08075276810036214
0.8726081875387508
-0.5342642471398233
-0.5547147550023046
-0.2901294831590078
0.6205812827925739
-0.2986750313120996
0.9961877609486478
0.4578629355099697
0.8633049493850093
0.6635625023130736
0.2859001600038322
0.15990860594558898
0.6763082228607766
0.0786365902023265
-0.25919003238665006
-0.7174132053172066
-0.8395326346661856
-0.6730338374896094
-0.5361535678796225
-0.7088213468245417
-0.14507765303263276
0.3401375290493378
-0.3731145246143359
0.7998479344079075
0.7791133522162426
-0.7507940789128225
0.6758806463180729
0.7554790585822011
0.9509793545282397
0.8186320804169067
-0.8603867327655601
-0.5693928773496335
0.2111392295384753
-0.7471766821172332
-0.9395914180573923
0.3156411778804755
-0.13395134556837762
0.8660709524806314
-0.2843834392476281
-0.5389607162861954
-0.45161049189802127
0.6704244687332794
0.431920107360936
0.8062243573278445
-0.1641887919971583
-0.570259408061502
-0.33973371941852015
0.2953678200068621
0.805380036694808
0.22052167434188852
-0.029763957749433523
-0.12750908562091068
-0.5164650504520372
0.1325994902663845
0.48950977429272036
0.35609996161938673
-0.3799203534086988
-0.13680271814376943
0.09880073321961601
0.5411293316084904
-0.4851454644557074
0.08086935867695111
-0.8200846674103341
0.43454411270919296
0.4541905337656811
0.9924741766606644
-0.8266600883670825
-0.20383206445286484
-0.3381712118983464
0.2944141176464883
0.3142954815599377
-0.5429424609147848
-0.5462297533742049
0.45606998032349555
0.2819747698990927
-0.03215799791964202
-0.980300471146782
0.17209436974469794
0.4025317874622427
0.07784101137476729
-0.0645983062290294
-0.249615228286677
0.6274721944945243
0.832346576018367
0.42259646796313133
-0.719155089104748
-0.11541215611677491
0.6949679435480038
-0.6848243482850063
-0.8405032089118254
0.10653740642578957
-0.36204995377963156
-0.7924262671011646
0.7531591737316965
0.4598249437201818
0.708420951643344
0.8947099872248757
-0.37766197444809335
0.4704119444101158
0.32902021156240635
0.6447913007906156
0.4522857492735839
-0.07625508959314672
-0.6459585817091591
-0.7110028250319445
0.6157434770471992
0.795013550713684
0.10173194092390148
-0.44847072535250887
-0.7719258417179331
0.7953230010964165
-0.25734696230998266
0.6742440604958546
-0.9663213808428026
-0.9962213368636461
-0.6653510743457325
-0.3371551821608849
-0.29083529306790945
-0.8453175493773508
-0.7921955091015302
-0.9840577191830635
0.23263368369396306
0.7562002744960798
0.29462683096647657
0.1375103767078747
-0.12088849009434632
-0.39096869896452224
0.879779715868652
0.8335318372726392
0.6622414842375102
-0.9511478857683529
-0.0758908309926758
-0.95396120959933
-0.02593406164463885
-0.25574516644447787
0.2673035408057045
0.6220284250936605
-0.8132349187097052
-0.6333807477531839
0.7595821657256823
-0.7435407482353871
-0.38688320445913305
-0.7640389831450553
-0.08432841424231752
0.3015648364478005
0.09693205666903687
0.2452825269220884
0.47458874527021355
-0.9934304667105205
0.14442599103699605
-0.5602045939617655
0.3767982285981528
0.2070289763404749
-0.9494072668730997
-0.3229932842945227
0.24269299782339152
0.11502287324991389
-0.11908137146624553
0.09641031436781011
-0.6737589309002072
0.20231670587489647
0.6332795202313435
0.1734816688745322
-0.3486519415481464
-0.5954493622493005
0.5585720452291989
-0.9718784318223121
-0.12771545644073523
-0.7161513014525218
0.9320231947565247
0.40683191968673993
-0.08965351098679974
0.7407479980874478
-0.22497391000701894
-0.994005027139729
0.7077067059173081
0.7477808793511322
-0.6020786750422598
0.27270237916807427
0.9479259117365697
-0.9746196237955693
-0.3685546131579098
-0.8237030891245432
-0.5643375866751039
-0.5353782553978197
-0.1473332666034699
-1.0266238532699408
-0.6192196693461391
-0.8073736615604421
0.10296134995993089
-0.12123450886949999
-0.9316506284120707
0.01609907000730537
-0.08757832905852703
-0.582889318280474
-0.5512915918935846
0.9467592809608061
-0.8942883358966027
0.20211381659210703
0.65298486819676
0.027494923823393025
0.591346701218167
-0.1443978839091713
-0.9324058021942685
-0.4635434437027943
-0.9192338319886499
0.4581883325829035
0.1038386429618576
0.8716803263074646
0.7670121284019373
-0.2793680343337359
0.16726846083986757
-0.044038368957145746
0.5511555969394912
-0.051092364392803846
-0.09572788420856582
0.761462688761297
-0.9416062432566621
-0.9425238477564597
-0.7907538583836364
-0.9253245049972232
0.007453731360271609
0.3987823087121234
-0.3539514812794242
-0.19244338836762043
-0.26482953231963435
0.8549893740300155
0.5786774821089843
0.8099825060381072
-0.034319477083382344
-0.8018414978468926
-0.8743286059336939
0.2923474753161346
0.06169834369274518
0.9218673093646352
-0.2104644840418033
-0.5155977932994724
0.6334817221885235
0.8503922831001909
-0.8150119526216044
-0.4683427544072052
-0.34886643457052346
0.9246794541419336
-0.43784345757348797
0.5702799079851943
-0.44895574607286326
0.392374906844317
-0.5401621915560573
0.28369311856079804
0.9181427327257636
-0.1698872368949944
-0.4314877356634086
0.4187336358098088
-0.5306485976623161
0.65724114021079
-0.9359608379913527
0.06679846573893222
0.765710905789218
0.16845533494942955
0.4013996383585745
-0.7026608613935922
-0.7514284084253404
0.23348548665433944
0.007645350281876073
-0.7308182168801665
-0.10177077725862516
0.2461509550331511
0.8714966443412827
0.05643003070222444
0.22288215197033812
0.24383932891808402
0.5434614756291024
-0.15331599880146274
-0.07211247304177548
0.8584522613366294
-0.5243766753332781
-0.3118472894943032
0.17971441803028476
0.17408805443021702
-0.504033663025719
-0.4472727593215766
0.25189775723747854
-0.1748731149102678
-0.9305774457168832
-0.016133430889889278
0.28698327824545533
-0.05485308126838029
0.7232526947469784
0.913515370264065
-0.5420612630507013
0.07371918489195539
0.9212532706262146
-0.6079546470769165
0.8239559756052135
0.43594139905778806
-0.2559427881256571
0.24466915442327575
0.8117997657934648
-0.902759769945606
0.44997380892197714
-0.9978973911451214
0.5455903555361483
-0.9919518875569393
0.646347993813303
0.7316512909803956
0.8779833204289228
0.8180126621292125
-0.5607660294150262
0.2972778459998302
0.9706889830496142
-0.19435338399037627
0.2715960498856904
-0.9535939975014434
0.34817383547344627
0.5886901671151741
-0.8439664540462524
-0.9770149444096654
-0.12424603397776623
0.4947191860288287
-0.040081614109387154
-0.6624676211563585
0.6897525350433231
0.6945622547600201
-0.4204364922458461
0.7554467767802551
-0.252836256427843
0.6925275151633419
-0.15925266368509172
0.0032268847516054855
-0.06688689926569058
-0.29121803618577147
0.1658398363422422
-0.45270279457645124
0.59407919106085
0.9577996892872782
0.6030852463775507
0.23595148345869754
0.016945826905472083
-0.4360099132009556
0.3209706431893879
0.6750956125703735
-0.507401228077391
-0.21532404867873223
0.02143821012665903
-0.6681940558238819
0.8462342626482444
0.8867661629283361
-0.02680078254916607
0.3382707350847254
-0.7015652973815931
-0.5419698824348511
0.6938200371583074
-0.4894278447806397
-0.9627694907999148
-0.9922700151244108
-0.15171617482262723
-0.7392772709485844
0.6759657844315388
-0.5871087114075868
-0.5943849308000402
0.5569229591924036
-0.008345145413714006
0.4732396753004988
-0.025229291497176905
0.22142286732798833
-0.26160280641663225
0.9857223610726662
0.13355081311243255
0.6876767652526341
-0.7636908856115934
-0.1952228001125913
0.33373849941489997
-0.8928692237527427
-0.865935812916915
-0.670037007668181
0.445607090412119
-0.04490263903437075
-0.5228172502545274
-0.7570350645536423
-0.5023669060263425
-0.481998506735299
0.780566615705466
-0.6662377531567109
0.000678626354114531
-0.4606827029539984
0.41195824404865755
-0.8311902204304984
0.5130223242422984
-0.9567911964257201
-0.42714807750793177
0.926877421747381
-0.3439818527238545
-0.8532695282444798
0.7014277174817756
0.9510109294057638
0.9269367917269067
0.13967268189598014
-0.5302337826541126
-0.8821753447862329
0.031982470611136966
0.4055081759639849
-0.2438720480367148
0.7283352442122094
0.6189664775766486
0.8480425593831509
-0.2840825310042529
0.39022005895052536
0.13848208525776906
0.31326460317133464
0.17330193492064971
0.28545521539411367
0.6887942356947527
0.10676859144484019
-0.14318706287550964
-0.7256467037210059
0.7459278258975057
-0.7852618110059357
-0.22410087788435895
0.03090182657642604
-0.7223816038442123
-0.9953013544615561
-0.009821854912102745
-0.4758186939687259
-0.9126699223896293
-0.8090413472680669
0.775408283922089
-0.6951260625238889
-0.19620262438418257
-0.3063950647650753
-0.19711400630943698
0.11504108496211535
-0.0023634517363961827
0.4201770707259651
0.6906842068099117
0.6222075864840393
-0.7978238620743154
-0.3788383456417168
-0.7933893529841545
-0.1881084262750483
-0.31168841337138753
0.9143140677918924
-0.3218699496291657
0.3877407695987638
-0.12212984219468459
0.6089779570203302
0.9862797049109149
-0.7207284578104267
0.09946119322443181
-0.06673478776855446
0.9366529630333686
-1.0217929894172053
0.6581104299958744
0.964480815036044
-0.905316296759217
-0.19098376796254923
0.9676755225336622
0.6489533246148147
-0.7407185179906721
0.7718388118458781
-0.006070264364076872
-0.7193401688363081
0.8221283830676187
0.2661704937681044
0.12094792704736568
0.7175229739962363
0.6671022623167107
0.34482471314218843
-0.8731487956069135
0.9527614848127848
-0.5777753822344991
-0.48907816872762466
-0.3844922602610119
0.49918831679856757
0.4621179354828504
-0.14926190164630615
0.9896637547480533
0.533441692987267
-0.4105604510195384
-0.9519520497736271
-0.21466842958610277
0.17140396007802527
0.914786808393034
0.08920920141808762
-1.080109350635894
0.08836254862197301
0.6087742234179621
0.9649326482675403
-0.7471513346729994
0.28555905938808057
0.6415425622278486
-0.7566534996672991
-0.7296293286840991
0.021887766980660528
0.7010217863360606
-0.9419614834962533
0.9568889211134821
-0.37634581515588117
-0.08718867812164266
0.24175646849291632
0.5220005524519641
0.7152414951850254
0.6312786531694194
-0.969595295729903
0.6965868461824867
0.12898966711614324
0.8766415000895582
-0.040282944265834786
0.02135786717832655
0.40181278591486486
0.2735901971557826
-0.4023702625062664
-0.8404317625732709
-0.5705775507208305
0.8255749360466791
-0.3350809232863555
-0.880107558146251
0.7020086385056199
0.3129950680557061
0.9770098900292912
0.26559511569159
0.031438634466404825
-0.9684288201491384
0.6495096552777964
0.23166353152674035
0.3098106720660807
0.3137954551544957
0.3172173171152739
0.8205788630889554
-0.74244249337607
0.07995584098983222
0.6416417805411856
0.38923908848761646
0.39841467200815117
0.03610271617651373
-0.6563330632583266
0.8092659237153517
0.25421168896392565
-0.7441540554519996
-0.7085724230207817
0.8859820115791297
0.8732320533604332
-0.6494442675859426
0.24274633571095872
0.8475559036833422
-0.8599326543001748
-0.4182750495010743
-0.7299589354083007
0.7078849643611922
0.7954291396320868
0.5044614433734111
0.4149750481744885
-0.7372144528555555
-0.8748007490349188
0.8056252155334027
-0.21275947630274894
-0.14160158701977932
-0.010344997071942696
-0.9963105823452565
-0.31247683411272953
0.012284203988600417
0.914432998891316
-0.8860405235915161
0.6103716111891668
0.3903501900436832
-0.7104957204147657
-0.7370012026014543
0.5133043509893178
-0.2943729871994525
-0.7753038644165633
0.048188813242561634
-0.9243425906972658
-0.047114638354809335
0.6104978594830863
-0.6290273904900883
0.40494036347003504
-0.2658209255439268
-0.1571085157415133
-0.2833933367939194
0.5252195341507595
-0.7336184547979021
0.1708786331685339
0.34209587568116784
0.7366463659946461
-0.931344835462433
0.8214918189024734
-0.5797928500760581
0.5148694099512081
0.20766242066689933
0.10002547972290698
-0.2974866893902197
0.8732701810707821
-0.9612827309147078
0.6352946266200941
-0.47378195861878614
-0.7320546030531958
-0.4034776209790851
-0.7135136422130572
-0.5065257734924193
-0.5975666899384782
-0.5675609569076718
0.34273372830806825
-0.35133520353793757
-0.8607394805583115
-0.2439455843247218
-0.3174271003756204
0.028690358927143667
-0.8455365545681677
0.40301374317669925
0.8563905702945669
0.6325653711147223
0.6196471235918173
0.6956701478830543
0.07836517133534215
0.26608383741578007
0.9169627486213174
-0.5289578541694624
0.3889119834380685
-0.4186609656920288
-0.9341384068591574
-0.3848822163968891
0.409891338020518
-0.5163314165737245
-0.8021043326556496
0.7677296017646908
0.6608451717639297
-0.908507475938066
0.37187886242197754
0.15444747250169888
0.38503311554716446
-0.7997076467832545
-0.7242088691768633
0.16736445431049018
-0.39938215555988865
-0.27392620901769305
-0.8003777432118018
0.09789995783024841
-0.2387892170064605
-0.7121617710420909
0.3569958346384763
-0.5046215651852552
-0.0020944269431868445
-0.11062255545556887
0.3327047592742003
0.3569748366497956
-0.7372697741678746
-0.3148621361532655
0.4427873304054992
-0.32182090307764355
-0.004124286553899736
0.7782717158544084
-0.6034368612044654
0.22086162050586222
0.6491101506746604
-0.9272843706915661
-0.3561761318333738
0.9195342999463183
0.7486697932112409
-0.7437035203010431
-0.5844611256524628
-0.6098053027140327
0.919786845785058
-0.0815732227234547
-0.32603516171509117
-0.24360966380588067
-0.20251812395195512
0.47781057768738533
0.2043297929564245
0.6666444221955603
0.8047761183303062
-0.09356762365953042
0.6380287382356546
0.6786128939550413
0.4090734185854228
0.8903512065137136
-0.11416140211669866
0.9271227179491097
0.10317815814833486
-0.09540442935709548
-0.5813029789806192
-0.6269170435593623
0.14473035148060326
-0.896177535150231
-0.36184531759028493
-0.9579009500993108
0.3507603929700931
-0.0686111333047188
-0.8319258652530788
-0.8857096108722748
0.4476028403128409
-0.853079917405863
0.3062138433454453
-0.5689899222704475
-0.373138600456032
0.9231133074556193
-0.7349664571042869
-0.08808449748184621
0.5639486364908162
0.2225388566178501
0.24802033486183728
0.068189193824126
-0.09409965994584613
-0.9381806684643337
0.8676183785088902
0.03208334858502382
0.40768032560522016
-0.8989646024621445
-0.5980418193558881
0.25356312898005107
-0.7384292581781198
-0.0580409379197544
-0.3665849437842277
0.4233795986416602
0.8116068464530519
-0.4080001234564212
-0.5127145079669579
-0.5813789606337689
-0.7623343872470947
-0.49510411203795
0.25096231857028917
0.018368901771706136
-0.6977869744730025
-0.40190237451417143
0.2586839846465223
0.17390229266921028
0.740479447570719
0.9734459201982797
-0.4449386835315041
0.04488254010477655
-0.1618288264107155
-0.7895986116427589
0.11112099301975564
-0.4163986900202426
-0.6798952263002678
0.627198972890268
0.3061563019949418
0.8759240835309554
-0.9452333535313684
0.654832892422839
-0.6034261899757638
0.0565507728884449
-0.2663111524150896
0.5020411210528559
-0.31665789417626633
0.823010993035886
0.09870140519360904
0.06328093391644107
-0.5805152892930134
0.3273691225414559
0.47221577245632784
-0.35584308565612477
-0.6237284950463804
0.7873357860627332
0.3456070982560966
0.7027321815870302
-0.035561687427398514
0.8254908339850981
-0.3034466558152886
0.13348508713341745
-0.030439463228745023
-0.08994772910247617
-0.6450249556516274
0.36461706372505565
0.7912725730433356
0.09444081191728883
-0.4678626073404797
0.7114374964519591
-0.18140995778372188
0.810852452663922
-0.04942702487275241
0.03505534867949178
0.43487794973723437
-0.975307773445484
-0.863331249298243
-0.5100974414709347
-0.9006793278102738
0.7403331985584871
0.8411664576615412
0.16572958522126102
-0.562300126709024
-0.023156606906804322
-0.6002899852883992
0.9318266096997692
0.9875804842051008
-0.5638351844314604
0.986140062580307
-0.6454319722035473
-0.3672231425151864
0.46422352018900304
-0.4464013064109107
-0.5873895219695571
0.5859819291917352
0.09859097456685006
0.3923690018159829
-0.22845546203876932
-0.2850401397626174
-0.7517218451673595
0.618622943608546
0.9978034458771341
0.6299076465368507
0.5337907117375575
0.18150881550115905
-0.7611367101718708
-0.33879192832151994
0.6003671777654283
0.7395031732484436
-0.41426082867971803
-0.1998988832717592
-0.5454258355561847
0.19218023086970026
0.4963383982198575
-0.19953346253076898
0.5179196339685469
-0.3977073237884119
-0.9629254777521232
0.2890965512284389
0.1306685932160243
0.1697534295868477
-0.8661717615540137
0.5759537449211458
0.09265670303185103
0.553709400833976
0.6638244428302258
0.49047679930618626
-0.9016130798823576
0.206269898754746
-0.8467520518159217
-0.813227507363133
0.5980572772818871
0.36286076454675564
-0.2058782275325901
-0.07245492227517913
-0.12571249290246103
0.8653468439519834
0.6179206255920091
-0.9280941962700389
-0.8823984605944486
-0.08451062874537318
0.9470227109374649
0.551753996549156
-0.8802653290318929
-0.5055513954901456
0.22872961619718102
-0.7368122795191288
-0.2539555205654547
0.29578296028811546
-0.2018150429123564
-0.9582549715692035
-0.23629631936550544
0.5807412365939488
0.22546411945630895
-0.4225359206235626
-0.8683502307132671
0.6525092066857314
0.8315899694908748
0.7093557210333286
0.20248633185287768
-0.7985131388997395
-0.4090600358851364
0.7944216348860482
0.4406004890980231
0.944091361474894
0.9893134691390564
0.03378444880784559
-0.5153735999566245
0.7071927222737093
-0.810224249329891
0.13349316599766836
0.7137074808603046
-0.8079409436583256
0.08052718619960397
0.07545009497662392
-0.25895256062553074
0.8297988240949452
-0.26599863021236364
0.1326012670298793
0.0037968937080685716
0.27117920840623344
0.7577579420893876
-0.94284512717393
0.2803327707318368
-0.8921631786802691
0.4220244518501648
-0.23175972968443603
-0.5517864469116274
0.04248999832276379
0.7813223104262372
-0.63378733223374
0.9468442110670083
-0.013921470030511474
0.9426475782739006
0.7711066170925236
0.8072457629040766
-0.05682512760072678
-0.5125232156238655
0.6736953566750435
-0.8178135415884396
-0.09637086996836053
-0.045183313420285476
-0.5509529133287843
-0.28624614834785733
-0.9150015764247408
-0.8668881069501744
-0.08182734021345528
-0.038514519868882324
0.5412188916769074
-0.6748097166224465
-0.8451245370262586
-0.18262406036802803
0.710230958098593
-0.09549303918801577
-0.6558873719354454
-0.6985428458046932
0.06070467186754813
-0.8728554356513594
-0.11594139118033864
-0.7958270000157069
0.8777755562541119
-0.8861355976413494
-0.49160770578829815
-0.8469960326967698
0.2999168582094709
-0.3445087202153221
-0.6392624480381679
0.381448573699837
0.5604033964027937
-0.46871854141995395
0.6192956055238448
-0.9161032106371392
-0.583967133636031
0.11722899627795247
-0.8164785789613396
-0.8855997313704058
-0.11720795743585422
0.7570954872567226
-0.41262761213965593
-0.259116021087928
-0.06592016802471545
0.4463058188123484
0.7413023357087509
0.09627117278112629
-0.14477195557182743
0.639303747854715
0.35739672491958485
-0.9435422625347158
-0.8918008273954505
0.6358238783411267
0.5193620191100929
0.21327320756850932
-0.633187520893238
-0.6369878546287921
-0.41376876257271866
0.711907465294426
0.4897818822221176
-0.6315343745012898
-0.843976643159426
0.553495199629056
-0.4770702694423187
-0.9147484669497437
0.7834569850352258
-0.5225126870061376
-0.277695955097903
-0.9684221144062228
-0.35098846876470224
0.7363750022921831
-0.38997286335727455
-0.3940778573330139
-0.3983880228755339
0.9040493570400525
-0.7911114622652493
-0.9429839505551976
0.3936886275023608
0.5862577748953635
0.1593390952892919
0.275065935942844
-0.32761247098264556
0.3090343979132681
0.8568479240088807
-0.5063408280741595
-0.20551274016774523
-0.20000016681729882
0.4031109437792746
-0.16728491441942483
-0.35620909053023575
0.6153858062419066
0.955755860957493
-0.6591591254532982
0.9876074771298662
0.3741794565897841
-0.8228612224988474
-0.8398235037285577
0.7761973155049462
0.2001928919347422
-0.11935403195498195
0.882395969223778
0.6967290119123359
-0.817516655624231
-0.2850469020763018
-0.5218779050572125
-0.23048152734912408
0.9569859959526006
-0.2335350246553427
-0.6394977598235965
-0.7118997617966791
0.6535743963181446
-0.4771322616528319
-0.9188070909734962
0.172268315293145
0.3098173321410944
-0.07202433492105453
-0.43746822247423545
0.04124748957929403
-0.16510971934543273
-0.7268515826857158
0.9627912425803153
0.7630714825585669
-0.3095555490220155
0.31434063712940774
-0.25425732536863355
0.6828877147206867
0.5035026262013014
0.4808191986877368
0.4457082124978805
0.4821054222350829
0.10032118697138115
-0.6384200632737125
-0.4145320715716443
0.5778649922552626
0.18768649736291354
0.2712133052929766
0.9430699002033793
-0.47717148293146794
0.7565809762140983
-0.12454261075437612
0.45153477262031894
0.5478448376515057
-0.2980735624976776
-0.9750488137801372
-0.10070918764414372
-0.4916334542848806
0.02712243877668996
0.22264553845152357
-0.34499224013990554
0.6339742051795494
-0.08984042951440767
-0.9236768165010538
0.3390453318016753
0.912528570801564
0.5033642623264971
-0.22595223739714032
0.978654285528052
0.09066162894224372
-0.35248909259801886
-0.20041548012329424
0.18558327982823974
0.115327643629364
-0.158501486075604
-0.34137294271815466
-0.3888584947574095
-0.8685566637426307
-0.1954376856342912
0.12488224959728833
-0.9724449902145875
-0.05414702074327482
-0.04568222612614625
0.8175546492984858
-0.031024946081210647
0.47930263793427375
0.5653710159692809
-0.6770882421668347
-0.14961014069042622
-0.3956101710396642
-0.3141787952820998
-0.13029855992141837
-0.4843069141714029
-0.058244144676362186
-0.8708914406537955
-0.6130675607746914
-0.505743956071762
0.2599406821570234
-0.9935665165835945
0.5106862631700968
0.4143325181220523
-0.12206455499571756
0.2739150096111067
0.2412090692889144
-0.7833529252683464
-0.4463666004553386
-0.4066453072250673
-0.07145387654255364
-0.6662631161734662
-0.19946029440031077
0.395983996154722
-0.5364893019487935
-0.48124634713691505
0.8503696662923697
1.1785081389336396
0.5609688543824016
-0.6013185258997266
-0.21549253219751896
0.584043021864213
-0.32250462343293984
0.31023407848977325
0.27092107705482427
0.9828150895880465
0.6551714504375037
-0.5439727133418636
-0.7700163259699084
0.41273247943064506
-0.2471815223821865
-0.1012791976862446
0.044646040328001346
0.6067552894619248
-0.551450828366119
-0.24428955687840115
-0.7625202553264027
1.2109866608693423
-0.8299578173762825
0.2543873879806644
-0.7355860230254985
-0.5000502230557036
-0.00806434359486552
-0.7824432725173123
-0.5232595012593926
0.36577638664791245
-0.8096813285914148
-0.4389080839159607
0.9151132737489129
0.7116314664763648
0.35836427191453046
-0.13321772980027569
-0.77733466377834
0.1933511291588359
0.6977360393693517
-0.9237600624552724
-0.4489769497187021
-0.5333831669776337
0.23798195722101423
-0.11287855211011921
0.1679802587797229
-0.3368467756452107
-0.6695659561787599
-0.3073404988463796
-0.5015843149756267
0.6624692833636989
-0.8101066327531268
0.8279941100687969
-0.6908365173862059
0.6798934690522267
-0.18254486132136455
0.6873224956940303
-0.47173409830541013
-0.8659065712324918
-0.4603239408049635
-0.8530998308804958
-0.42005824974437833
0.09886646433706647
0.4699505606552006
0.44838839801663877
-0.8909188691274066
0.9598164828022624
-0.6828717982823285
0.9074880974977071
-0.8645991089529074
0.9001301870436218
0.4457763079153656
-0.5570042573126393
-0.10941507085521507
0.40814816855464797
-0.47724837824192035
0.5880431600431841
0.5428644593748102
-0.8039947148542266
-0.5198700061884378
-0.6626142006707296
-0.2553491363453114
0.015357841580083686
-0.20883588808336784
0.8796598536090159
-0.45708218445559345
0.5636004349293893
-0.08175870364631743
0.7105993571349003
-0.49042652659846114
0.6822093813010353
-0.6183487044527589
-0.7074249816087836
0.18745549057235955
-0.6102802747514942
-0.08463646562802687
-0.23410706692921623
-0.6672060023758362
-0.6549674800757492
-0.5727978187251621
0.1007724002041206
0.40090592770555133
-0.9326856456074375
-0.17464723837364304
-0.6858912392882446
-1.1536838413812451
0.9559689039007158
-0.866077768468551
0.6698131091388477
0.4907687530702624
0.32572169052502553
0.5064523600083881
0.3727760547664709
-0.028889201810159193
-0.2774544885043633
-0.8977671611041187
-0.4269843715614283
0.3286746202496438
-0.09411853647801882
-0.791408089810719
-0.1442670083713491
0.7696324961691414
-0.03413637587464091
0.12135170197910816
-0.18774742492809526
