0.9756690259220975
-0.08460160353116053
-0.7479470006490807
0.9340761449781068
0.4638470890936408
-0.7293532940915899
0.44892230101861763
-0.2436326659500454
0.9800675446396985
0.5657329499804347
0.4399851405440196
-0.5054766417046093
0.10933307326540986
-0.7633851346321265
0.5039028709963882
-0.48491927332348594
0.14670216271110448
0.19724665026295352
0.32654091522403084
-0.34263476777857216
-0.43483127828996104
0.0157257857834463
0.02422471622210482
0.8798563792221978
-0.5659793429158477
0.1857131668389329
0.19546161071656654
-0.34010114337552544
-0.30182248783898014
0.1493993456517908
-0.43263938439613603
0.5049707843291233
0.951783993981973
0.7183761724053308
0.3139884591287796
-0.021423143338818562
0.06526196874277623
0.2155015895925252
0.3006022602800449
0.062319163297818614
-0.2623730039734772
-0.9751702573517267
0.7124378563753784
-0.6366502593391632
-0.16383088907142507
0.09656662348867151
0.6129640064805271
0.5611410907752221
-0.09595508978412082
0.3174003744665568
-0.3218662303414739
-0.8377421732302568
-0.06031535433052326
-0.8061867078950895
-0.5060464963285694
0.35739521540575736
-0.26846332313464916
0.83727075134683
0.7253985478988387
-0.43817122209207393
0.0
0.0
0.019571507828852794
0.0
0.0
0.0
0.0
0.0
0.0
0.0
0.0
0.0
0.0
0.0
0.0
0.0
0.0
0.0
0.0
0.0
0.0
0.0
0.0
0.0
0.0
0.0
0.0
0.0
0.0
0.0
0.0
0.0
0.0
0.0
0.0
0.0
0.0
0.0
0.0
0.0
0.0
0.0
-0.008446159286890133
0.0
0.0
0.0
0.0
0.0
0.0
0.0
0.0
0.0
0.0
0.0
0.0
0.0
0.0
0.0
0.0
0.0
-0.8816387442484156
0.002237618706501854
0.00652140326540307
0.7696205899464772
-0.37062565752567944
0.9766451744001645
-0.0008603284209212081
-0.5062746025381217
0.04008452597824208
0.6713007230162946
-0.5413171248317392
0.018982088148057796
0.046883117495686966
0.20955034290425464
0.3280586512854289
0.4917618090965019
0.9582008211145994
-0.903279274183272
-0.9993850526248382
0.659340191650645
0.9032812018454461
0.662603514695735
0.23248070705032098
0.5434520785370238
0.0075675551437772715
-0.5163602437816597
0.09582609978038126
-0.199683314154538
0.7367879873384304
0.6929371212490134
0.8550058359857486
0.17487116406753778
-0.5438347383642945
-0.4196006767409459
0.13486000312545676
-0.29019871867272284
-0.3408062473542359
-0.3745838358760576
0.7829047538077065
-0.018792551759635234
0.4752915617594806
-0.30907263792562123
0.9302762817303584
0.8585893265014337
-0.16270237419174083
-0.01960128784681725
-0.6624441535438628
0.02311714223001382
0.26122936820982057
-0.15317310584294092
0.4294327459720779
0.16578970351457012
-0.3011074141406387
0.031179393780320863
-0.897122347257542
0.47662921106268996
0.01879276320615153
0.1532905313222106
0.9858766041610119
0.6049963090196091
-0.28821827645405707
0.40137084087613784
0.6786486296325758
0.8032009029393958
0.6324207147052769
0.5128490050908825
-0.9771536214574867
0.44410144250024297
0.7584498090684675
-0.6027202619684406
-0.8657307106248671
-0.09753291564607869
-0.9559072950042269
0.4449432902541294
-0.7948680378379125
-0.6231263418661821
0.3247721498080678
0.683561982514699
0.1137291495859194
0.5044457010934218
0.8018396081265855
-0.4188582962389973
-0.4916180570064561
-0.9807978523336847
0.549660658244622
-0.38617818813534677
-0.9198734005486588
-0.4573491691000813
0.018723522918563162
-0.4305109033943504
-0.09334075947353826
0.12800988055933948
0.6832742788075941
0.5080743213260093
-0.7320742092784636
-0.5343056004038682
0.7642906486078318
-0.4320451545293196
0.33127025061329785
0.7187799088731455
0.5012235976762378
-0.35774539216545986
0.9757500320717802
0.9163644630163414
0.839458323630561
0.5814639319904158
0.33192742741166437
0.7921384647994689
0.21651139510657003
0.4253198968133285
0.7476280773638744
-0.13104759023202917
-0.8730460815133576
-0.46971702714091856
-0.07584682555724985
-0.03895050730886429
0.5245526879406477
0.42230094344257285
0.3462075813642953
0.20494132723953595
0.8975315313553438
-0.7449963167612497
-0.6092941258392992
0.11999678324753948
0.9867095736585876
-0.7024733599050674
0.6474699938042083
-0.5020839447863916
0.22299353386867837
-0.14055040457610146
-0.8470902407883212
0.4468712605864584
-0.4698177468779756
0.18402782617520175
-0.510166017377937
0.33413419538139943
-0.0820432278653207
-0.01926908584710496
0.17759337638383066
-0.5353700004605209
0.4800020339851452
0.7859462721624495
0.9824029628012623
-0.7988393253094181
-0.10680297483768997
-0.40710913953494043
0.6171816656587297
-0.6986217255786962
0.37157403632068364
-0.5250925725236879
0.5167765405654499
-0.7588002817144888
0.9267685216386072
-0.18119602092233933
-0.49665205277476265
0.32249765044808765
-0.762557288234845
-0.308800127969165
0.5051724452662294
0.8147397286253428
-0.4041920331868303
0.8475436104957523
-0.569777328350751
0.9562667984402167
-0.923935052360592
0.7927032188783805
-0.9163127591379456
0.7715823846591181
0.29104895245159534
-0.2199009752892962
0.1995205259330124
0.684784932922895
0.5924823099221215
-0.5383177018272194
-0.1600856502203094
0.21761000501024497
-0.4795279377441428
-0.13996330002960033
-0.7336571287488196
0.6360119141401612
-0.8747478649351943
-0.8086964621617501
0.36663965667093557
-0.9740172182416693
-0.1975348513214248
-0.22842313045192464
-0.7820120507275741
0.3765658382198589
0.4498819126304605
0.8211297204374396
0.9809994387725571
0.6284929229327905
-0.37956741132430105
0.4357948853044782
-0.8229747615281757
0.5604613033961297
-0.4873235070048023
-0.48172017991688865
0.8407075151411456
-0.8724766316558783
-0.2678848619986278
0.2122530344970276
0.07427638954728044
0.9724309766854757
0.10144913445790205
-0.5428307288738732
-0.378626095328475
-0.05133832155412188
-0.14344128257175104
-0.9111609179599336
0.5073764660378479
0.26720659217446535
0.5409730383232656
0.44995588790160634
0.9224931775231415
-0.7016579150070565
-0.2176963825976308
-0.7180574923951739
-0.27228524230936246
-0.4835383598141054
0.436445146449163
0.9895823824600352
-0.34651540529279434
0.7583603195906882
0.7091562948865742
0.02385719385510998
-0.49152311608803223
0.7430413446260526
0.054475567902275035
-0.3508590841707586
-0.6679270931068779
-0.7149667163052669
0.9525844983080494
0.8167413552801632
-0.21493601947880858
-0.23773650619355235
0.3068718681490572
0.7180236105690201
-0.5824322559855084
0.7218549471637679
0.285113121225657
0.6482446707489462
0.6245902863084345
-0.1270866987356427
-0.4539813560340513
-0.5098129301093692
-0.5606923671810875
0.41223900548711256
-0.22278799897189816
0.780203281361427
0.7287709436188161
-0.07573641411960796
0.22552732030869227
0.4752562854065512
-0.4574592997588973
0.2804288289128949
0.3109661865979645
-0.833563379396264
-0.02842893255785557
0.9464895896465164
0.031176306569248968
0.2158745882753732
-0.6903704441898717
-0.4659714809494042
0.04966552095022014
0.8626345983269101
-0.764191156723615
0.9258489155604346
0.3526791148329097
0.8285098694682087
0.2828942134415784
-0.9202808838723432
0.9973451710984453
0.000918888216240088
0.2414925877294931
0.15414428046687356
-0.03336897695266261
0.636755007611514
-0.3860404510876092
-0.12726978171647185
0.30156884466989786
0.6572125272009852
0.24931708953003606
0.005649278274224345
0.08639093359599403
0.6975900043935648
0.5086691637996781
-0.36916648122217355
-0.5715561235297932
-0.1568960025541546
-0.07543383186771813
0.4306820119719803
-0.9799449320832432
-0.5895113877583671
0.32365617305688144
-0.8795264532917924
0.660680846872622
-0.4226903991691924
0.457332576986489
-0.7518065584830134
0.41453855873537293
-0.7608757254698704
0.9226600861511511
0.6483799062882127
0.8022886957361692
0.1279504734761714
-0.8720973319020018
-0.2302531212296608
-0.5403764853148878
0.5208027542460508
0.8501222576422579
-0.1986732599501153
0.48398366139202004
0.42741187532567104
-0.6786524369863192
-0.4196117660975509
-0.13619406175461046
-0.6299362394631802
-0.5129838579940165
0.9257487930540889
0.1659573401542771
0.5180270559641749
0.20273220059456487
-0.6750849566547379
-0.7555982430275914
0.5690793130158502
-0.5420789012912557
-0.8449818464565255
0.06910015856486473
-0.4008460513094796
-0.047348965016768864
-0.053251238230293874
-0.5298070519603872
-0.44629481166441876
-0.6363717003714244
-0.9731591380797215
-0.7428606921863761
0.3455190699620563
0.19946816735134987
0.5811479013812422
0.1952514280742761
-0.028744433471841413
-0.19416008853141853
-0.9228800739532046
0.8058331394845015
0.1819808222825463
0.46116928783194466
0.40163981332335186
0.5291991884736704
-0.3488217182097506
0.5519418179037054
-0.6376162075317282
0.4418671503736198
-0.5369609159315192
-0.8881315625577965
-0.543698071204161
-0.1909633292584354
-0.6414199847843016
0.30034793333888365
0.48214292923882707
0.4710410910586995
-0.4985538956239144
-0.8545585448587927
0.6792409958124099
0.53816933568825
0.9977192578103202
-0.026972063375020117
-0.6680077082987341
-0.5047777980579111
-0.11423235369847728
-0.632486633317022
0.6570061026265035
0.8499053862329888
-0.538121321555159
-0.7055115432173915
0.36183142137695934
-0.6599936895912821
0.8680360097807955
-0.901305833621008
-0.31739918678131684
-0.5737678313184218
-0.6310154141218418
-0.4416615149236802
0.0808189122985945
-0.8549826005046244
-0.9698715618593587
-0.4901834774662721
-0.8360948964951949
0.3171331495477294
-0.8374847236046341
0.14539057441114048
-0.6163320679211972
0.11500964367081634
0.4807932002858193
0.7386261883606773
-0.6663632657610106
0.13076328064894338
0.3015626205143416
0.5911544450061763
0.8932321654717182
-0.8963953140737781
-0.23194463889271755
-0.07359682753222296
-0.4011018888182334
0.041327226718286036
-0.21061635976615323
-0.42595042639683744
0.7373187381491377
0.20071266643060826
-0.710899185255337
-0.7738578028678995
-0.56380997696504
0.891623078697243
-0.9955689259159768
-0.3122220853467452
-0.7390747769454757
0.9670894087075619
0.12061271198329093
0.6148323773364928
0.1553031308220687
-0.9279069840652672
-0.6963907988084641
0.5501935742718145
-0.15330895712021086
0.6114510939557305
0.13770011432546947
-0.14695633366559635
-0.08899125445174771
-0.3436098040726132
-0.4851062408426512
0.8497287949704171
-0.5006482783725912
0.4259606995332741
0.8737215342803923
0.6624629124463706
-0.5013575256120255
-0.6608055080455812
-0.3660685050415122
0.49639217741468866
-0.3127535665768355
-0.21348104445213378
-0.5679204227392707
0.21110627544371785
-0.9810155049849998
-0.6282263403850215
-0.5350661841949311
0.5344123668597844
0.5418596843174235
-0.6169698812258495
-0.8069395766789988
-0.23558330223417978
0.38502888279990044
-0.5879276878375648
-0.7617819262651528
0.6341274350827291
0.7070417415399828
0.4461195316414761
0.8690267947332377
-0.39008207367380643
-0.9083617336207697
-0.021258504656653132
0.24038693363009633
0.5695356169250472
0.6299085955034367
-0.05690140636867591
0.7556204080130606
0.6817371949595334
-0.46679257321875856
-0.8141266164247953
0.6389629565646522
-0.5676462477002286
-0.6150590506339897
0.860068631976536
0.5754881902534779
-0.24521441714965664
0.5846757642236566
0.13461572552839032
-0.1019474568127654
-0.5957360095422755
-0.7100757037264018
0.6834950048162285
-0.4615478358529903
0.06339024708116314
-0.9183706232488007
-0.9737201213798905
0.2535871855424041
-0.05744071655690286
-0.014180981406872961
-0.8409615396879258
-0.5302647081178109
0.8990589521777077
0.8396484895419998
0.48325991985292904
-0.748615955001886
0.8725637400862294
-0.5728192518771433
0.5968899396683593
-0.7905366169543655
-0.3170511812039791
-0.27733092027796324
-0.5837684165211374
0.8029344480971392
-0.10955233528023745
-0.3352118003795108
0.11601149776112041
-0.07540335082273059
0.623419314814611
-0.28851268720194967
-0.30929473635258686
0.3498728458150564
0.9272643056359852
0.878541091779723
0.8617165600246823
-0.18607950905059067
0.1705397485729223
-0.43180395957267814
0.6122981567872714
0.41263504410430807
-0.21439385158847254
-0.6237082657428658
-0.6393759578155096
-0.9471853093236806
0.12551841063063174
-0.6389572041782225
-0.36261064719218905
0.0650447338859852
0.4119334940047592
-0.6389542962669212
-0.6871141170606925
-0.7313138207961138
0.42231715177520013
-0.7281779788044191
0.11142645344357027
-0.5020250252511627
0.21678529273077718
0.9528365494978692
-0.018842306417436783
-0.1989573896299306
0.7385621667944182
-0.28343614563874575
0.08394937859080986
-0.467555661905557
0.5803427704928337
-0.7834498447571798
-1.1187823329780962
0.48958811633623744
-0.36142553688834145
0.11581406592758103
0.18697649672677397
0.3340958227627968
0.39482398259537343
-0.4693702746326931
0.3804713867141216
0.20949217700073608
-0.21720874862460549
0.08774772207793155
0.41214904997797563
-0.17009896594556273
-0.8998365792208121
-0.5663493991191733
-0.10990604039580698
0.7223692961511361
-0.6797045678800364
0.028329207732946005
0.9106221588078729
0.5000976537756989
-0.5135025913006036
-0.41589146168503466
0.190020966610853
0.8793926726909493
0.20543962849606273
-0.6018487709344806
0.9684988439868467
-0.46470041784365046
-0.979393117994698
0.27414664041273573
0.7332639955046167
0.42257968387319234
-0.7069806196167556
0.37512336493693677
-0.7425310957734408
0.4390706721169437
0.8319101767227275
0.5001084274644658
0.9723580158766607
0.5217883974940314
0.42589089115013046
0.9922882785954652
-0.09577153666544103
-0.42665873690308964
-0.6491408399907861
0.9386706998524734
0.5253634819808684
-0.15979143528073503
0.20400768816457893
-0.6058742483487201
0.08700271909162982
-0.11045669273493841
0.4796303569837106
-0.9531205677520267
-0.79620036663212
0.25504564205328006
0.3058775747767286
-0.0958009232280812
-0.9825848024161059
0.013248514821385449
-0.674616893185249
-0.47091910972554096
0.22948185662523768
0.31988472906010207
-0.3948423940609598
0.6879293919869265
0.7968329490865886
-0.1487569122528647
-0.1630338551042274
0.8533115752455098
-0.5545390017996272
0.19448542002179825
0.39179275121185664
0.05713091137231219
-0.8417639110010287
0.6187090257188137
0.15783486740362251
0.41863044347162487
0.6851281678026623
0.6714182922288616
-0.4064167711919333
-0.19134721884998185
-0.784750606742374
0.41533916008427274
-0.6253650006448961
-0.6021259917910484
0.6252067929531302
0.08681383742752913
-0.26675938782599706
-0.8154754346821265
-0.48794143126228096
0.5129915015151607
-0.6741732385632215
0.5786895231419455
0.8238701630402268
0.9911223523515689
0.8639149789114748
-0.2283196065615254
0.3592723958607762
0.8285780837268555
0.22598799728514773
0.8837155390296942
-0.9441332937801448
-0.5899261727651849
-0.09516396526133238
0.34955239954198913
-0.06279362567923652
0.014373994789619982
-0.8710783204691466
-0.53943919994629
0.8308392767392025
0.14810158094144898
0.7226976309991859
0.40366751544492074
-0.12844608328694274
0.6738785960060771
-0.9325662582919645
-0.07993739111313913
0.6386779185924101
-0.4619737203692158
-0.6651589992170681
-0.03906624378128698
0.705222347809142
-0.06478083350347408
-0.5814541614789894
-0.7315579680553346
0.9767666806032487
-0.7075502576023818
0.30751221420294206
0.46854280899834455
0.19814153506302057
0.058643322736676495
0.17443255871943997
-0.47870595342446776
0.8954729158685972
-0.2855232688094591
-0.775181070552323
0.33305671390511304
0.9609483743683984
-0.9361215124003792
0.35691571602144334
0.7124975153226096
-0.16133938389551505
0.4151157712628908
0.4762104287655897
-0.25781894690989765
-0.2942671451075727
-0.6400861320388471
0.3614562445839433
0.6959287852559086
0.0829864853707829
-0.24559753831319098
-0.8322802511965846
-0.4053136223714242
-0.967847771139394
0.16721166869844573
-0.7275023090661448
0.17190924394305584
-0.6325564455499098
-0.29565253676070147
0.9017822815145295
0.22512481680544494
0.39218949080384746
-0.5264579379277092
-0.4088281594073846
0.5374813289524005
-0.22950602408445597
0.8599630194848293
0.9186295072488637
-0.07858140519379231
-0.791690861555669
-0.1838668224226887
0.34660224508068893
0.45807472657713144
0.9234367359629836
0.06981432897004947
0.7332396639186513
-0.5622161184243826
0.23439813443320445
0.5979974003486994
-0.20308989273743605
0.7674415260547589
0.5092040284191592
-0.5554464134814499
-0.5877604669300673
-0.42247620897337956
0.06692205844030316
0.2795112907672108
-0.25529287018323443
-0.6305063072828556
-0.15143362986686482
-0.3994938303534541
0.16102043413646472
0.5945792147038138
-0.8394277879640334
0.3837040031743497
0.42811458443924844
-0.3107727923372563
-0.34861173217149766
-0.7144371359674959
0.6190949934353676
0.31108604855607513
-0.012990869567213181
0.07205056187124392
0.14186073737812
0.7982665742300372
0.0349638734326716
0.8363310707999234
0.579029808084073
0.6758854031864006
0.06296734944228888
-0.6023975521296372
0.8020367301257623
0.6104045261613325
0.47359359781365207
-0.23462702166002214
-0.31682200079611866
-0.5611043687109167
0.09604089931011961
0.5504777463356874
0.3265037896682883
0.13490259851030428
-0.7185596967322898
-0.47830843982579274
-0.05459636038006255
0.7518412730884467
0.30945925648964656
-0.7347048287004301
-0.8118395117289554
0.7053474139784597
0.5336492768183361
0.8095162156948326
-0.2760074145237935
0.11277348214240623
0.28851808277151614
0.9219814973472509
-0.8240491656686812
-0.42635796943193904
-0.6752357366077011
0.2559532126834523
-0.608296576933322
-0.9716541663707132
-0.9970363423290782
-0.7207677152840768
0.7874470500796276
0.19816826968327117
0.445029042264965
0.8337210135112982
0.9915723654723925
-0.5346241517262544
0.8989187752772472
0.5862271457660657
0.40627462161148054
-0.7615657703123326
-0.37026848133548285
-0.40705157899731725
-0.4262577545588228
-0.24534901261819742
0.8630952084316454
0.3672715990010904
0.5194418980747579
0.3574111555461228
0.5704544146851538
0.6181442159178523
-0.08358918861904885
0.6013880076073939
-0.5874729056017423
-0.42835379908989246
0.562776877571608
0.39639171889715863
0.48728335875217965
0.23537842811930076
-0.22671112463397947
-0.24064154961309447
0.08953829787594847
-0.9792462961207975
-0.21305082148616072
0.412900232261854
-0.5942741595244756
-0.4539710594349775
0.3423772656874624
-0.29084614281756216
-0.2826515083358718
-0.16633352593764994
-0.041625849097473244
0.4615355231204168
-0.0066405088446716
0.9318884669221437
0.35519530705010793
0.8127780292781359
-0.8084958972654295
-0.867398055798904
-0.940035565302306
-0.072165856730253
-0.9853843677591272
0.8982369806709347
-0.1105269782780407
0.1411271158252452
0.4608394070928483
0.4625024459278402
0.20379892375003061
0.7912555785607074
-0.49139304261458316
-0.4990881742216311
-0.5837770005220375
0.38570907290907175
0.14290887053194856
0.6806043565245083
-0.9928464238964295
0.7973368955622826
-0.4947359762744654
-0.6519047451006932
0.7743280643758832
-0.8332755438437898
-0.3506556209610119
-1.1251495644677334
0.7426314620908596
0.44250194703034595
-0.6114329078647962
-0.24953849520656135
-0.6816267119880313
0.7608702758360828
-0.8675333209055449
-0.6694088539463072
0.14251110520033627
0.08693296234556658
0.5352907266604598
-0.7682273605255698
-0.09853935729813057
-0.7860518008211483
0.5373309883470279
-0.5313792257868992
-0.23453570298315385
0.8556942711927618
-0.9709278993237811
0.8384508954587757
-0.33629172226188886
0.768981237667709
-0.77512237345993
-0.38275040101673574
0.949699147700436
-0.10984455090942813
-0.05131037926371351
0.4003074749437505
0.3843319714953386
-0.6624693721283361
0.012631966496491787
-0.04383595061203849
-0.49522815990034097
0.8972670543052572
0.6530518257536426
-0.5450052284691103
0.3455738003318414
-0.45798601281979057
-0.9585300637087664
-0.2834726567930962
-0.13419133127454108
-0.326538868639493
-0.4715457310500395
0.05147857989711424
0.6583147800486733
0.6815657690164796
-0.666491380927348
-0.7901971573174122
0.9050302557027687
0.4537094867704061
0.4005381828899117
0.6770381999342017
0.6626396342889238
0.801375844433297
0.8385672944342857
-0.6645444112937726
0.33123287097262777
0.40134015001123813
0.7629969973280142
-0.9545707853609917
-0.7574817026694747
-0.7312564609452408
0.28479969775705816
-0.9558917355453718
-0.9150290756208492
-0.6036307816901086
-0.5481735432977413
-0.7117902689294495
0.28281100894614153
0.6553966577212307
0.7232054771409404
0.5686853344190432
0.2646039067421537
-0.5744384680141276
0.20251205166195008
0.48668813395538923
0.009883582523126933
-0.7369524947761465
-0.2563828468648264
-0.9670228941496333
0.4235672117405995
0.2652616879811034
-0.1415553114604689
0.6892185558860677
0.9977915665393409
0.42100390873105886
0.007493638507431122
-0.7817397518067415
0.0870440562325614
-0.8021350332653501
-0.09081540027844714
-0.04752815168488134
-0.9843508185838608
-0.430087776747641
0.9706890130440512
0.5960611758140466
-0.25578454345769486
-0.2556534816047831
-0.895943667913164
-0.09564255950559408
-0.4524193533562993
0.512220886084289
0.9695460127771103
-0.0952385331032426
-0.9579545282075848
0.32853224339743314
0.6497601671435331
-0.6532083175706949
0.44861934439275
0.7383018926502987
0.8072631950327918
-0.45145544443149244
-0.26061406496203743
0.10387165682159205
0.10273502506135634
0.37782867633386585
0.2667867223957672
-0.7307776122751382
0.8503298074155468
-0.8702485171045509
-0.02361942195946254
-0.9482804046377016
0.9272799866567778
0.8279677207793554
0.886002028602701
0.5214499854365673
0.9514756678569292
-0.2559898002398575
0.7065491639177224
-0.7444042597255047
0.8896089015850532
0.1873756965201372
0.731704672367649
-0.16086292567378102
0.027999050611003717
-0.17686853100259325
0.04556835671302362
0.2913242942388907
-0.5752634815484896
0.36470542118733196
0.9992648703425413
-0.43924776095782314
-0.11708913482232833
0.9327164651634208
-0.35888289554702
0.7844168348888687
-0.009083501435863672
0.37467888494392576
-0.3610817535224813
0.663501963599344
-0.10849913848976978
0.3042622253324101
0.2757172056417667
0.431205530355669
-0.44237933289995457
0.45075363073806396
0.9782390728824317
0.6561010457977536
-0.7855032314037487
-0.8564994418233474
-0.9548447459306988
0.7831959042511476
-0.026182924174016797
-0.7396868951549067
-0.6924797223751495
-0.1922185620262673
0.9308566106166356
-0.34309208646758194
0.24841580457646883
0.4955917249977667
-0.8975824431227277
0.08106238960542989
-0.48148240922060515
-0.3834141741322603
0.49813130476919953
0.27450860459227
0.6914522346468872
0.019182545619320868
0.864234964612002
0.8080221698098888
-0.5173711452735719
-0.8937555997451507
0.15206857394039663
0.5021981715130683
0.8381434080057046
0.05741329063539946
-0.12410012508120416
0.11223091925696371
-0.21438953225516677
-0.1270541397154228
-0.7848646254346119
-0.6139691260522537
-0.162700862480319
-0.03626925476622822
0.2221291384974089
0.059285308220969446
-0.3722154722825366
0.8861964247644356
-0.1312886880802333
0.8705780156689988
0.540083812172671
-0.008182405324079989
0.1303618573567733
-0.08563194393707606
-0.9467147616028514
-0.9646345694316751
0.6674535688491587
-0.051097579587506825
0.6468490219833081
0.2708854497953255
0.8082108899111939
-0.73245718597309
-0.017433492028558373
0.4939889798740027
0.007255172175366864
1.00467835640258
-0.9579164483812668
0.2088186656502904
0.38133592231157176
-0.2661650582351862
-0.411890064812098
0.9795296149916017
-0.6856246000779236
0.15195477789381817
-0.2505513980269558
0.7646654965628283
-0.9014003807760309
-0.4567933423984696
-0.7124865415346775
-0.6926153665739818
0.8657414912268999
0.11994072501469177
-0.31313764999103766
0.394142370828493
0.8262236418464957
-0.7860772506194966
-0.020623924158962526
0.7511045914843322
0.7767974921667755
0.8306448159024424
0.916037001957732
-0.6074372263108911
-0.06016390363055629
0.06779409492862865
-0.3483716408564146
-0.9978818452231712
-0.6939500918645924
-0.4868314750355074
0.9233106381235483
0.7996142715866292
0.47108978132087254
-0.8522596788114911
0.47184885312031066
0.07851824568922772
-0.3353542160506844
-0.7850605335081269
-0.464183258395243
0.5746372188245736
0.8128150370850853
1.0069903566296623
0.31228363641202406
0.8299761802730068
0.9332821583644806
0.023403763370520858
-0.46340954832562886
0.4521761679147316
0.47280216130477504
-0.8960714974812887
-0.7491805860141914
0.6090252016125874
0.6040791894323922
-0.615323256015819
-0.6754887566357919
0.28821887055161155
0.37707061502691963
-0.1050451207715899
-0.2717639655164561
-0.5108790887530417
0.7076321245679831
-0.933001974139499
-0.410409481547783
0.44272975080943344
0.16567514012474605
0.012785654399682933
0.739173512831764
-0.8416630865526586
-0.009025049701810062
-0.8467420730232089
-0.5718139565795861
0.7447391196675825
0.5730530928916819
-0.20747780981408925
0.4956290991070067
-0.21257962726347968
0.5183006050145742
-0.20345709429426861
-0.7688160094138923
0.2290263100133867
0.47566366216151423
-0.7195944896582649
-0.785523245863073
0.08597492106367355
-0.7176897352459302
-0.16333488648974476
0.7450384062713595
-0.0018671952185405072
0.1136520707387203
0.9842979974565598
0.6590547159242859
-0.8293535297080243
-0.2988601012084999
-0.053280464942085715
0.36664805577402126
-0.1785589269301875
0.7064429959081193
0.8953422440157441
0.827860567117026
-0.7115398442304781
-0.42610323814117423
-0.5099214176528943
0.9679453883867131
-0.7341114737667338
0.02386604618113375
-0.43660663154183377
0.5658364505742124
-0.5909791166104035
0.5772827734792589
0.4591016843347522
0.4625996822572327
-0.47273684826868273
0.5037316036549223
-0.04392135307219913
-0.6570696238867009
-0.4875661569051397
-0.9610642382062229
-0.12134079863967284
0.36841249834585915
-0.054827505785662645
0.362599760260609
-0.7783332794222989
0.19110018330421563
-0.9595461226529387
-0.20963992838667478
0.6628007017542816
-0.5459823774784596
-0.37485414548098417
-0.8119744545096921
0.68766578726171
0.30408144476471155
-0.6061380889921693
-0.0009901513422768855
-0.4704172765728647
-0.5501956854729741
-0.2855831569574658
0.8552141477722826
0.017483427752018083
0.0982905001574681
-0.884983890817747
-0.8451036854855092
0.3110200679961257
0.9822652630330035
-0.7842382091689428
0.6294655313466395
0.5193607664932387
-0.9286879406380193
-0.3688111138154011
-0.8071899086623209
0.34174718551102257
0.7825075229147946
0.08155597502583198
-0.4990105983842985
0.18738294945685618
-0.7052977788353991
0.8767859645716416
0.7469148756680224
-0.1918380268349349
-0.21921380874673013
-0.9007912830802443
0.691140710412393
0.22311373824722147
-0.35777436199375257
0.4899007678253511
0.22860071452802755
-0.9991953585385174
0.6498943836572879
-0.5161961254508787
-0.29969843643990113
0.8435289122179623
-0.4003941666934909
-0.5102710399601296
-0.7709100514269605
0.7357292737944772
-0.03580305800667993
0.49304122321852284
-0.380207945944844
-0.5522387818386936
0.49210886479558447
0.6067271551077975
-0.4050951840894135
0.11575851881896049
-0.587793625693948
-0.01685080746423706
-0.20782320848487013
0.1479184943257843
-0.3785382980704588
-0.18453690489920915
0.7975379074849016
0.5564985988696742
-0.9231961530903803
0.7057634799736678
0.3546851897489425
0.30383068106679745
0.04577644356571886
0.07964267592575047
0.38864981980098556
0.38615186532262546
-0.5249172025561615
0.6900181763153566
0.10827544474469386
-0.7962517384943202
-0.4485901424832255
-0.2676877741999759
-0.8859221566196176
0.5984471523839743
-0.18646334856523494
0.15882518351233665
0.8596983897265389
0.2442125387463865
0.07209239155025293
0.8366741587192044
0.1963645305207804
0.9426208584694517
-0.3355919499620228
0.15714544497465432
0.613462610937187
0.13236618745099382
0.3679687432816954
0.8831252798909015
-0.8144021757213349
0.10233713466338101
0.13700482840687944
-0.10899905369323681
0.5194339927663583
0.689619988686248
0.4725595100897382
-0.19410099653162516
-0.26563687941810854
0.84106140297152
0.9540805429483967
0.12628825209735117
-0.6411899821334004
0.7414180080742823
0.21772887519276019
0.6512530947124004
-0.633961205200044
0.7562104866145603
0.8588365354683933
-0.8082594117881043
-0.1664387945291812
-0.8826957412712138
-0.10716893030793528
0.7236227492050795
-0.46851168085306183
-0.14917235912075522
0.4303459174490907
-0.9751295978986891
0.6807583665950303
0.007921844588826499
-0.4310274140642285
-0.6344200388898411
0.8882245759122089
0.5277439233274714
-0.6075912823884004
-0.4671639849240812
-0.325671637756175
0.23203991544889924
-0.9791690000065965
0.3708612949303447
-0.2148274702569104
0.7524023404011071
-0.26835083702268725
0.5112432619570029
-0.7006417122241307
-0.7507276331587232
-0.8703955009328217
-0.36641195422291917
0.35889084724127174
-0.8110969317120089
-0.6686237856508279
-0.21237216354192867
-0.3754976275734727
-0.9309603754955786
0.5532930620224639
0.6973115459796662
0.8561207733202981
0.6364461525356466
-0.6282463272629426
-0.38391378707178325
0.39640955621807117
-0.38993565382427686
-0.02142404068266468
0.9614998261383882
-0.5457354834325194
0.6844580294902252
-0.9238042328982976
-0.012088186489588537
0.2832324813387366
-0.688189057739145
0.5794844818002134
0.1339524621845487
0.9781949449682292
0.12476980284536343
0.36170007323383524
0.21304748506390747
-0.3869877164257416
0.7831644761556418
0.5916144493847351
0.06928386645566031
-0.9341922791375161
0.09674371685969918
-0.45383930540984174
0.28337015748666206
-0.44451910010033235
-0.27902073834034313
0.885115128183172
0.5017078278313465
0.6592876703563
0.6528030995643481
-0.6412089405733268
-0.12366289693223531
-0.5869660520867503
-0.31039145748189423
0.30335164094715883
-0.7809912738217195
-0.4071643585756095
-0.3330646951047096
-0.042480288655248444
-0.354061871583931
-0.11070611875362002
0.20222784271519822
-0.8633683915632773
0.43043666702116545
-0.32477728851799453
0.7687735821990163
0.8909861801210233
0.8971780532319615
-0.9071742384785968
-0.6094240859662821
0.7432014250238896
-0.7585377957383683
0.7939342749914384
0.8946023861684729
-0.35734020074633466
-0.2613830195302209
0.7049104951429002
0.5349554778711201
-0.5929802426241233
-0.8162286245438524
0.9146322946088097
0.49513076866022443
0.2949425941668038
0.6748540024230891
-0.3988690640471504
0.6570561659704639
-0.026874264157749073
0.5601162247858642
-0.43781431124111214
0.8634642668156183
0.6494944095148487
0.6757881108288235
-0.00286091426960855
-0.41438240535875304
-0.6918664542000736
-0.8463730599351404
-0.8159585784689964
-0.5427495186841516
0.49143025841011023
0.08478503087181277
-0.239325073141884
-0.1092380835782516
0.3389992136793101
-0.7708781750758881
0.6770017315176071
0.6457692990460644
-0.807645264579721
0.8659718723564565
-0.8449364941616198
0.6271335596776275
0.19835167272404886
0.22365675103736837
-0.30243760826263544
-0.2633397826190351
-0.881157013518716
-0.08159733251111623
0.3240030397638034
0.10737372714022686
0.5132369041732783
0.90652497713159
0.6845665925069702
0.5399078018709662
0.7264078701483214
0.5091344482243072
0.6045732641417603
-0.7478114842220724
0.8708861860120065
0.4354592849135055
-0.15177989135637615
-0.7133896834027242
0.3406660924170499
0.17387672954583633
0.29528963312615164
-0.09540386027796055
-0.9861026191172411
0.9515581956358246
-0.6292192240003498
0.9316396347553653
-0.6145841528121374
-0.37811545097872346
-0.8335479777558192
0.4083267345532604
0.8123233603319491
-0.10434647080168458
-0.8531443408298376
-0.15383055921356412
0.469199073465721
-0.313876323521997
0.4872575965292967
-0.8132826933797404
-0.8802739535741573
0.3519487624704909
0.8891847316570993
-0.8947244474191802
-0.3262858422178343
-0.7556938904477155
-0.6991626152688497
0.6719947652304157
-0.4260140300919384
0.17140074422273388
0.4372331719107434
-0.8299531927880646
-0.8527825297485845
-0.3329090253471305
-0.3881816297113128
0.679728358379567
-0.4668100764949523
0.2803752552211525
-0.0692036738407984
0.7590135493564376
-0.8286654597585674
0.17472153816894287
0.8717238593051286
-0.38432371689156475
0.29404761967645165
-0.5204784457311078
-0.7997752608231401
0.3035176990405024
-0.22946197474732744
-0.7943718299861755
0.4055990727017602
0.6805396925617395
0.9542975015861606
0.5369021377093863
-0.1996321820100102
0.05790230215400105
-0.4710165755478566
-0.9990712861172184
0.15593436088641832
0.9105477492709178
0.9253669201201831
-0.9522241090214241
0.45823726969592915
0.3667397917803419
0.4764337966283865
0.3654934404684558
-0.5679007567652434
0.15451382734434116
-0.07177426103159434
0.6904286526628496
0.8506409036485814
0.3402998826891106
0.9503242985177254
0.4577664071979104
-0.25536821670951304
0.1026337129413355
0.8293951663507804
0.14528056584628013
0.9407404883559869
-0.4491495150909728
0.7665673075392341
0.07398169869591187
0.1500527604786881
-0.11416400657585335
-0.5852429324839563
-0.8920316309930914
0.8598057251100106
0.8305224473041033
-0.5672473772561208
-0.5034543733092407
0.5002594771311022
0.6252457138299737
0.99970651459132
0.7008047836290892
0.3150612682595899
0.15992329583138676
-0.8198444893648664
0.1020196049452664
-0.7282431597079209
-0.6386440435073557
0.8138191626620055
-0.29417069631756454
0.4176378538741947
-0.7088216954494961
-0.8508192717705807
-0.2926854152929248
0.14877411997431222
0.8373406951449136
-0.2703667353707042
-0.3766282452137786
0.33063055763582594
0.18879268579589636
0.7587340472743282
0.14958880704316746
0.4829300221432724
0.8918072033679956
-0.10989739620074435
0.9049905404879548
-0.79791158948076
-0.9071734263423499
-0.3468263872348689
-0.6131587597533419
-0.496955894615579
0.49079897928601235
-0.4610213869838786
-0.5790026300087361
-0.9975686485713033
-0.5920845374108699
-0.6018665662632945
-0.8004096328970842
-0.7941193794469301
-0.5593156062153983
0.26048584949438025
0.8770757460094378
0.8730006517073752
-0.6748401776144453
-0.38447424478679926
0.8947286720728307
0.1082681729642385
0.10528187865152105
-0.8536184049034332
-0.2418013873523005
0.8861026928609448
0.6308783798867872
-0.30493942561099296
0.5657809465407031
0.6849757853567351
-0.9229217086150838
-0.6268373889383294
0.4362453197513307
0.0428455171746398
0.6830697603297544
-0.2590595934576383
0.38744391254419863
-0.6678405604003288
-0.5971638417757414
0.9932457271040034
0.5485476995367258
0.6548846803864223
0.7434879873379576
0.872867438377765
0.7281471726485174
0.58517543956796
-0.1008513665448334
0.42051457399302805
0.5327601060916491
-0.8537376942612498
-0.4164418922657639
-0.36701811170028953
-0.42982926794548404
0.6513374493412643
0.8430006150333795
0.5575174090648463
0.5023264778524879
-0.7473762330422397
0.5909237200805655
-0.23081533718386105
-0.5991511233300233
-0.9999654016407864
-0.48665083952083665
-0.8190205243072957
-0.312414074923252
0.1060469879018604
-0.6385090617371261
-0.4628338256928213
-0.7702235857269915
-0.8677005053220181
-0.1921000935115178
0.9733330284296431
0.08332103596654838
-0.43435422254995926
-0.7955796855694368
-0.30318088733554993
0.4523115784560059
-0.614137812081355
0.6180954650619834
0.9668383181674574
0.48303871083528915
0.14920871042607775
0.5162097723190269
0.755544684824996
-0.7833826470885723
0.0038282816513475204
0.40277967957785843
0.6917603837365733
-0.12919104961813202
0.3188296463671012
-0.4719227431165529
-0.11448361328284329
-0.08011424078404517
-0.38861626185103004
0.5038151839965348
0.42690420344136143
0.6147740544055362
0.6282256812061473
-0.5334977833942784
-0.7542689942461127
-0.5997804406667817
0.2650941985185018
0.5058890606279924
0.19513007822937856
-0.8936950893184554
-0.4973079712612704
-0.4682020639713145
0.9417654908095277
-0.16126952143160533
-0.6147840996268055
-0.22198778940401032
-0.24523357851957095
-0.7417130639862584
0.7849239854923318
-0.6071438663872823
-0.5957036737883545
-0.35280273754150215
-0.7450887151846997
-0.3163909333181294
0.8297091695016248
0.42201140866782594
-0.5645223745369354
-0.4716583671681427
0.15245538005082437
-0.32595107419298497
-0.7024814393691422
0.5159994788689646
-0.9872600481007128
-0.2924656960532659
0.21091544104112026
0.6615245493847242
-0.7941172465219128
-0.9784752225940345
-0.3371698643734278
-0.9352141288691862
-0.5864039487227326
0.3084347561995704
-0.2932931674124617
-0.5608133603950876
0.39851732589374733
0.10364512831769712
0.10477576082733187
-0.8422689102048988
0.7689138563968261
0.14972218123905323
-0.9936588357747753
0.8476025433461594
-0.05292334579431146
0.21840205112480393
0.5961912938002198
-0.6202519136050756
-0.11326051870448683
-0.33227447176532743
0.3371447060592443
-0.8826948755637072
0.05560206547525004
-0.8650383851395236
0.8621720700132467
0.49063711056872417
-0.5663934311304413
0.9124650170400446
-0.8836606934436115
0.23500328243597735
-0.7225323553206218
-0.6069123682618707
0.9292592459271152
-0.6077751069046606
0.03575568921624783
-0.63132707906761
-0.8421219258271317
-0.18976280998070671
-0.8600421645563274
-0.5437277147702477
-0.8593654643016069
-0.41704790121561475
-0.021856700842172616
-0.35712016765732324
0.7691508047667643
0.9995766781826949
0.20251495096472882
0.3898035485076836
0.25484596815294425
-0.43659372890435066
0.808870067766944
-0.7744997539208389
-0.6200579679771057
-0.7278867182191884
0.8882659842599707
0.893352507410961
-0.9397561620069608
-0.26091091214098006
-0.8120013550609941
-0.27080282312702164
0.2271379831203617
-0.5106155843380029
0.21753033992196613
-0.906854850891212
0.5243909964966054
-0.8138446139007693
-0.6195808946030195
0.2191152918344974
0.9503051584767017
0.15502811718637854
0.7335759946618619
0.7438967012455899
0.6580498592758954
-0.6232069567195309
0.4618689194494079
0.6456589537142461
-0.3040448858136948
-0.8909306970637731
-0.9600729037339923
-0.27002152762579223
-0.9853509528306525
0.7120788482212339
0.6417525432749067
0.7777922924038236
-0.865569933444887
-0.9599822662379349
0.4059075962370995
-0.6750940127319263
0.7692767296964531
-0.6961984915873534
-0.8349222823048934
0.9575784070953628
-0.49359456150909753
0.37258441972540735
-0.30299060542875966
0.5072413341002537
-0.9787306687222765
0.13526988754170377
-0.13248535975282927
0.7315603740224806
0.80576049176961
-0.7647686626399197
0.5026725649124766
0.33507230273511324
0.7627005425402735
0.6902629614327911
-0.3423252692285792
0.2458036218773174
-0.5760796626818259
0.8232517984303509
-0.7819158749782538
-0.08692737896989944
0.4937058734076798
-0.7712714321191314
0.07879598811756638
-0.1814523099406462
-0.05123218201246771
0.1624594529680703
0.6603885710100548
-0.1828375302491989
-0.9981019837480356
-0.8335959913871114
-0.9956161532855823
0.6003415555524154
0.06651580392190604
0.32207927323905494
0.4870422932681675
-0.00011436596337222049
0.971699407408745
0.7532045060366657
-0.7432017150177708
0.6302227095263597
0.745824087495125
0.9765299349962699
-0.4309250168069765
-0.07770464474821681
0.44373988308818824
0.09691882803905094
0.23940110013119553
-0.3527542881835519
-0.23982570823069316
-0.3752244570430039
0.8933657584390882
0.2129588467310286
-0.48824256667548394
0.9502347429682926
-0.7973272465341321
0.8215130801301647
0.8663720466660003
0.5537437838689547
0.3614345972203272
-0.24653446595731987
0.4462850212651204
-0.2527436685540465
-0.4214466609337102
0.12392820455956666
0.15881636134626764
-0.5651012088031013
-0.23889499927119484
-0.4447715949506248
1.0088334726371178
0.9031828994676037
-0.8036088422835934
-0.8303236958348585
-0.4600410772613708
-0.855128477034157
-0.5268003994937995
-0.774645162544215
0.21681125765059228
-0.48366400471406235
-0.15437668914506913
-0.8254810213762944
0.0022150301328342226
0.38853616233829347
0.6631972589449859
-0.5264477583953449
-0.8229325294389258
0.4830688202278548
0.3328007164777076
-0.010194041499069328
0.5284509355655704
0.08923438546525053
-0.16546505581597137
-0.5227060748658454
-0.8124989819876254
0.5769606214162155
0.9105834608324923
-0.6460807176426933
-0.1812173174026015
0.7420975917171901
0.011679746440264038
-0.3327031582316784
0.4022645130497784
-0.2822181690368577
0.3687277157301021
-0.1565009891574829
-0.9718980889601503
0.7673099723577621
0.35256419064479383
-0.22915943218411083
0.6999752411117866
-0.6846668665602237
0.32259537419332784
-0.9341583594309455
0.2106145614002113
-0.04017435930304081
0.48648163175941117
-0.9913499382001625
-0.5821947327603738
-0.7855552996403558
0.4289490653529304
-0.606652291913357
0.8114015370035284
0.42946506268187945
1.0196307258118262
-0.6375059685521662
-0.5223159389151886
-0.8575233995684719
0.004190850172017591
-0.4845407295669799
-0.047180427618350285
0.04389358677022703
-0.0735527026377969
0.020425744085866837
0.8788532937204383
0.7268882638768379
0.35329787557557224
0.9210633269022119
-0.3222486891656935
0.8301323566960193
0.9305493380548826
-0.7129328477573162
0.6365509576309358
0.6014937797048123
-0.8764733801158295
0.7428004548529346
-0.13367547523509593
0.7404888671752241
-1.052754932245195
-0.4584803109866873
-0.9117404755995933
0.043622264425421164
-0.6314456931435011
-0.3851249806183492
0.2499189411845777
-0.2142503029594136
0.8168716178187638
0.5467086622149119
0.9129647148952591
-0.41088526348758403
0.023561431979947756
-0.6808888050777637
-0.0036524807181781416
0.35834898199117227
-0.706547688827911
0.1611577529941013
-0.020278070910668244
-0.2524091578872183
0.07237432265292543
0.3358830823910861
0.7996784525652285
0.3220925054190751
-0.850498425791673
0.5257906183971797
0.0113493658870778
-0.49200700971230615
-0.04234626559365815
0.6829111201804614
0.938441692554987
-0.13589246427160617
0.2702143307595537
0.6860869157813052
-0.5840191054555597
-0.4295082758571892
-0.6573251079370515
0.9935452589758202
-0.037859093898514606
-0.06968161329425837
-0.012499256729210373
-0.28172093473020365
-0.3248977294552049
0.2433669514192811
0.43799387330647166
0.10877135705320362
-0.9582134512031681
0.016161107787147078
0.24480259693721673
0.0428472677217282
0.7850630170532966
-0.5480666897418869
0.1603879834612736
0.6391255721391504
0.29487384017201146
-0.010378621415549905
-1.0652158737547561
-0.7862139558459265
0.8982907939451377
0.29607942210460925
0.5368520245943453
-0.8260202986798255
0.8812487777620757
0.44575341948271485
0.8506036359207068
0.6778707272868947
0.035345002106211165
0.4273668523479308
-0.7801096238977898
0.7824129132278401
-0.9491474558118052
0.12770330072825664
-0.33399216828131717
-0.4983688139956133
0.6847193990479286
0.6744929830171225
0.6071898552903643
-0.9491431747220673
0.8354118107710855
-0.45588849252879626
-0.41428823850650676
-0.6066472117945727
-0.670100191669319
-0.5535165717575523
0.3052158851696536
-0.2708560311454442
-0.10938086817007786
-0.13097785432622766
-0.16241881641532938
-0.5965751644351229
0.5894538821812105
0.2488025727639238
0.370817425674858
0.58570456757851
0.7467120958418052
-0.3323751809511848
0.6478173702604502
-0.748944739186922
0.6403740216791116
0.7888325826269531
0.75185518983895
-0.88710614556971
-0.7853934858464242
-0.7400045961885127
0.2502504973556039
-0.013284241243112449
0.607091023742929
0.7128640570999046
0.6489927738031365
0.22239544276538215
-0.4527382628519032
-0.3865259219228929
0.8853322226629087
0.07190265284899722
0.45194458692814243
0.02013970952137023
-0.835298970093393
-0.10558782029651015
-0.623687768063026
-0.09518344848553117
0.3163519004385693
0.13494587185759066
0.9650387318192086
0.7459927147325569
-0.6091582099812738
0.4934030319549474
-0.7916820524460952
-0.15994695604400855
0.3043576471881666
-0.07995432650564682
-0.9709437451633378
0.8727222733020925
-0.38953112378183796
-0.6164429413718959
0.32791900932470863
-0.6999750449897348
-0.16531595766875862
-0.62440607962551
-0.10466412095725075
0.8994729345114456
0.7719127184118888
-0.7155039276258759
-0.3717593049006531
0.09840976753914932
-0.006112042022185626
0.2544285736584575
-0.5930749546809884
0.23577480548466867
0.43462990603800233
-0.2942614620663029
0.3751670287759562
0.35043717537079155
0.478433198757628
-0.5153221281304954
-0.340458991759774
0.78121188159356
-0.7172645217866328
-0.6722355569997529
0.13738690909348936
0.5569962543626141
-0.2701094543805078
-0.06996071658228753
0.2621519634068037
-0.44118188953075577
-0.3966755562885127
0.8138215871349996
0.4261164886739266
-0.5340355641501879
0.9329593245943615
0.830853185122667
0.5480012226833795
0.03148215725179315
-0.5567031622321377
0.6168370271607866
0.5758067484268843
-0.8030910648537084
-0.5428191300414771
-0.6271822619971676
0.6874994195878091
-0.8455004844560672
-0.785635933336081
0.9120873205804194
-0.8170576782839953
0.6590040730351041
0.5152257790576373
-0.6486025682586969
-0.9264039102464909
0.3988905408920329
-0.9587151508779963
0.5664310348005426
-0.46478019799127046
0.5745735569845047
-0.3597481618062073
0.6952746718780283
0.7283162072136258
-0.0876911765087196
-0.39698125646375293
-0.9798385711897408
0.3418091047311511
-0.3482965635025499
-0.5721816421808452
0.2171400296985524
-0.7306597670063937
-0.8346729155282739
-0.3993357239216213
-0.916078433781883
0.633214202315612
-0.67054059058434
-0.23135082759242587
-0.44187585829387177
0.8323106587030662
-0.32965290299716954
0.15966699347451185
-0.5285573008275863
0.24008294421713527
-0.2969581312148333
0.10105463589692154
-0.2630549153090933
0.9033102482043027
-0.28851992124398085
-0.40205898063763046
-0.2569278406150284
0.33885482491287
-0.3028345409343949
-0.756762195708792
-0.9582424993882439
-0.5107227988550425
0.4069277368164961
-0.11560324385714504
0.16408047237943313
0.9841569198019626
-0.07181503502099629
0.4497371888382895
-0.9439949575803863
-0.8225762213744985
-0.4109506182206115
-0.28516940826340464
-0.6788247799552141
-0.821015507231087
-0.15873481055866612
-0.9760356152144875
0.06074759815342712
-0.19163193454320182
-0.47516263456818475
0.12213744749917677
0.6570736844743541
-0.49217456049408503
0.12340674525145978
-0.25808822687519695
-0.42645945899865656
0.042247215415369244
-0.6576356392285418
0.37021500958429665
-0.7895495838539063
0.07874712427106023
0.6930015481349905
0.15122730388146066
0.10771999721063252
0.35450051471452126
-0.9580136385388263
0.9394921657243529
0.5926568689122429
-0.4939628974343253
0.6999705720830978
0.012739907797201022
-0.9803987910653977
-0.41829448375694867
0.7414263035493897
-0.8653999599602618
-0.2869605237669366
0.11213706937128975
0.46013569246039054
-0.32564629798502803
-0.06894838125158675
0.39534939035766303
0.64116372070371
-0.033743908873486106
-0.5026913196481195
-0.10790533978488893
-0.1132696946633105
0.9677284048514923
0.16742642063990054
-0.5722296706991596
0.4766047646843261
0.04025057082343464
-0.1396448742126783
-0.9798168820827671
-0.2031021068993788
0.027412244946718456
-0.5017736988186243
-0.5805069756325592
-0.893985110171085
0.14347109521257773
0.7057121679981067
-0.8720628386551237
0.6042536912586132
-0.5758867857424266
-0.4309981277576451
-0.5203308861196352
-0.659712681293545
-0.13955720113215464
0.8468079179167107
0.9834468313812217
0.6358149030806703
-0.9233635328038805
-0.5468525388121968
-0.15091690730311713
-0.13111045681790578
0.4079504519421322
0.7513620273620778
0.6778696778104751
0.7958592363120374
-0.191695054054404
0.053475354278537085
-0.9610912030842578
0.6368588027123363
-0.5137349024461213
0.8298301439784721
-0.2377314638391832
0.5295593065577657
-0.9900349798858842
0.09043445880594136
-0.39016777621143417
0.6414870980157676
0.9990886166838702
-0.6588561716400727
-0.7238505435968716
-0.78955768621244
0.8880891043075227
-0.1784793591452678
-0.024023333758791177
0.5851041027687689
-0.03931880991625092
0.3163443931581238
0.391654414908841
0.09382157237294764
-0.5747136499966938
-0.6554316884741442
-0.9302779091829478
-0.713810251058385
-0.277872727156506
-0.41660473534917486
-0.8123898927135449
0.14699593852438445
0.19718874290256383
-0.918159207620701
0.25351310548420325
-0.940144268485253
-0.7118216312150392
0.8539537329120566
-0.4522322169364392
-0.08202608304910064
-0.6733643209950433
0.6423556711875311
-0.14274581259834362
0.31490800348372194
0.5061151765340279
0.04503544611766075
0.887697055675486
0.2884010392297418
0.1978330639675876
0.32362249074553806
0.48769185120736047
0.7742572442757278
0.32752534454349225
-0.6016297167546893
-0.6339493217091616
0.846371030142085
0.2851903439578043
0.6869372656236075
-0.50020812962087
0.66254637210445
-0.13466818082492793
0.3484219990821622
0.474999729704769
-0.1223930261759707
-0.80934275242235
-0.3882741465696904
0.9566466726731613
0.7696369222803022
-0.7931839361825708
-0.3854754119442092
0.538294867232854
0.609380458317698
-0.9171835893714628
-0.40456733831285296
0.6929959265617494
0.30425615488976776
0.38255266233487406
-0.4346232179504157
0.9075591465993349
0.5685222367605618
-0.1454611031934428
-0.3811888444907796
-0.24675610310917295
-0.10052813978753483
0.1492114372183082
-0.3094398697389755
0.20881190706687058
0.9261091790245122
-0.9680353899396472
0.24662336997225243
0.1780470600781423
-0.626379014053138
-0.5942317672068012
-0.09178631039930996
0.2639801460511344
0.2704447718331868
-0.4676448209077435
-0.5023590441322281
-0.22385403837761086
0.6183353072551372
0.5246787228497374
0.5468019452724433
0.1714796449992706
0.8376765901972734
-0.935780457959718
0.3520122686682281
-0.5686944760951502
-0.6245069971904238
-0.5171951902271845
0.6232928160050195
-0.17634071058391854
-0.7535736503336632
-0.516994322954536
0.030933271432242115
-0.43507379353450326
0.9749318570135868
0.6809855174909321
0.08534751559873777
0.43050703815852187
0.507925561358056
0.015504289598609722
0.04053955593459113
0.02412940159855026
-0.27049454886199875
0.30243727072821547
0.25413788295053674
0.8769346196007881
-0.0684122089130963
0.9482654616653237
-0.6443812561653299
-0.749852897710781
-0.22048601589955297
0.5499523390517975
-0.9010819330349087
0.061938370885230576
0.4491795046277749
0.6865080802969508
0.3288883616975844
0.4609501805574059
0.19376331885812248
-0.47970863740926584
-0.6264618185618607
-0.07142814388552843
0.49071085555711313
0.913042455850233
-0.5026662470835173
-0.14948621142994112
0.5809714595065336
0.20369082307532693
0.8194752089053832
-0.29433219731518734
0.09587354501718592
-0.8575471237048595
0.6265649459561311
-0.3177796529415797
-0.7287304215808423
0.6441156279287095
-0.3522608428598766
0.8127863207198767
-0.5636712206730063
0.5164296685713226
-0.8937748688160791
-0.8423030467548718
-0.04336306129197065
-0.4482685916911231
0.5740960513321696
0.5006734558877325
0.3422239959747504
-0.5972775143334177
0.23673351689015187
-0.4799144064941283
0.5038842314083543
-0.5673968036014849
-0.2555444213059521
-0.3274673860915638
0.8679094506980893
0.06728592912705467
0.47731865766352355
0.4746422355745339
-0.9771991863101477
-0.384900845453793
0.6247839835388855
0.3105648028692136
-0.30665583013016184
0.04370128197131673
0.20641906658236575
0.6047070873264355
-0.7986017430854695
0.10041213371814361
0.9733354349492644
0.18277397736614098
-0.6513221973118619
-0.2808251954346923
0.6405129055149854
0.6289646548389363
0.9771542922565282
0.999754625794171
-0.3590562910320827
-0.6821499847587966
-0.08763170303922342
0.7799379306825975
0.009678444407406062
-0.925735078743168
0.8755690494517674
-0.21661735476563332
0.1786149923805651
0.0770108799061946
-0.6512833625161585
0.9284173829826021
0.5903049200216917
-0.6210068949019538
0.9487380660537734
0.9359159141453963
0.7853622925458213
0.8782114935733378
0.4753479023273577
-0.27045019899803324
0.44838907136166806
0.6059932402943926
-0.15392568091203418
-0.0802372931910047
-0.05715533865400424
0.38462534082289235
-0.8304414034156209
0.31975600297965023
-0.3934763517932731
0.26892345806894014
-0.43791387069589516
-0.46782369040407235
-0.2738996099372857
0.5267295049208232
0.9204128573144261
0.5825667959787171
0.579324765921327
0.4214279098497664
0.5184913689102382
-0.631844407749196
-0.7910787709733302
-0.12230628757353035
-0.791555525025069
0.39509780299780783
0.9119155298354238
-0.10531099703870272
0.8965794228429891
0.8999826612090541
-0.8246827135585026
-0.7131353094429003
0.10048646728957422
0.289050673672558
0.09676244093048059
-0.4813502207993974
0.3393119824305031
0.7245173139428112
0.7494521218224366
0.8604711088301165
0.38024293366909223
0.8054193283357813
0.17168220941325593
0.6694382955090459
-0.9916297883529324
0.16309056139003286
-0.48668700180174596
0.3716570314452212
0.7797497561453803
-0.9393981060691845
-0.8479344209878992
-0.7481141881745772
-0.39793886926430044
-0.9523907392941553
0.7477788331766573
-0.39590613964933197
-0.7442156598443133
0.20088263859832467
0.2855062785045328
-0.7540357417005954
0.35030484423283825
0.6218983971052152
-0.060093454463948426
-0.30321832063679266
-0.7619839440687688
-0.21817662620530065
0.28852163152255583
0.6182735644874058
0.8696809226728808
-0.7178909174598274
0.11664590301480637
-0.829503768430524
-0.08584205495512442
-0.17961925305738258
0.7461899744517002
0.02321954823596517
0.004056743832254739
0.6234482322528901
-0.05645253618625112
-0.009843117997592854
-0.022777792633142502
-0.8792207667190046
-0.31065464371208407
-0.21447486401534732
0.5027896482860961
0.431255046305306
0.534129164726497
0.6789816382000071
0.5828241263882943
-0.08055542143999911
-0.4486422181772247
-0.26698186303625215
0.8320977529258919
0.6887047231209582
-0.9780635802862967
-0.9391739094826876
0.15601685179351832
0.6138679239895743
0.3508631301784364
-0.5838817803249472
-0.7307153066384304
0.39848525750944574
0.011391185722028796
-0.3228552469418391
0.3933831959458558
0.977023480330335
0.9329938635806891
0.6448311587128159
0.8823528033947958
-0.8934398312787559
0.7553298648801459
-0.7387793520784449
-0.581396270143691
0.003261974168559556
-0.2876437059225667
-0.05817567670629087
0.6153785677780794
-0.1570921738146811
0.07460912036534184
0.318246914711783
-0.1838933162838201
0.504065740877516
-0.7761743485296779
0.7034744112854758
0.36858479235519326
-0.4931729193262375
-0.13231058644938276
-0.15393925354299998
0.4096137367678836
-0.08516605993007453
-0.28355955963458035
-0.865154123428715
-0.604153281423832
-0.8847952695857639
-0.752515282174911
0.1770935236251736
-0.5473390149655208
-0.3117673490142052
-0.8173713608468696
0.8505852000444432
0.9838005308957398
0.1398944663284376
0.30321440929344823
0.23946027360757738
0.5228615590172037
-0.15282799136275127
0.07651910316916255
0.14632006284670562
0.38229246587529886
0.8606714997390013
-0.6507870647073322
0.7659019513196093
-0.94833204523912
-0.7085655974152567
-0.8014932152956074
0.6810869550432859
0.3084645130033772
-0.3200068513224763
-0.14063266170704014
-0.5738304614002865
0.2497573396452435
0.027459232258790323
-0.5778257801422784
-0.5135232877783289
-0.14549350644554515
0.6781395648854112
0.33040447897908876
-0.0008627002411178974
-0.39241605683154956
-0.8937091611270456
-0.5240580764544842
-0.3777884160718441
-0.2936722774855465
-0.4627421606276978
0.6407474406403091
0.5218442397637444
0.20054872618283692
-0.6411768480985882
0.007209959999054272
0.9299108598656882
0.6259534219494525
0.35008457576199925
-0.6308087037498393
-0.276799254045051
-0.30689620294253905
-0.6202248809995021
0.4025306912261839
0.48954713263660987
-0.13949737990364586
-0.8442926393015076
0.7996222454586948
-0.2191417509127802
-0.7917784532869323
-0.43386749767687904
0.7992248074083728
0.4489293328516113
0.0674524367078817
0.6709819590906638
0.6414269225065654
-0.854152521249838
0.12929867418174812
-0.8828584967421655
-0.9246849873025815
-0.4667628403757138
-0.9563538268800862
0.23241032109754345
0.9118676612676337
0.2970882501131926
-0.6425586024248913
-0.4191311855775872
0.3783237984066046
0.2242834282063908
-0.7507741560390093
-0.45685316019791045
-0.2949304366797718
-0.7720869698458639
-0.23375584014653117
0.024749748621931023
-0.37862231586641815
0.11750544082166582
0.48438986154776964
0.3940005101764581
-0.035873406912734884
0.46605529451760175
0.6528535040093877
-0.6307436165211491
-0.8229363951290307
0.4828772495305069
0.5188559174748282
-0.9103558095600435
0.9884500080253191
0.7462385032847507
-0.42717022851746345
0.10070764448116765
-0.09013434234333162
-0.17074434034126207
-0.24054217970891312
-0.5050264436453595
-0.2949071702008035
0.024904098436444144
0.49685724837004064
0.3078528502582525
-0.8933441845485516
-0.09850434882594805
0.784546978000932
0.9353664750729473
0.13453723463585
0.20832960722519456
0.4021242370009843
-0.5763158768504892
-0.5214553302930809
0.6411946454314814
-0.7899589054514653
-0.8692640289889977
-0.6726557529500439
0.22858215049417896
-0.1751811765581972
0.23122187010116435
0.8276339179188239
-0.7494004158793395
0.8264082373267576
-0.18586002448133376
0.3505626110702984
0.8672156891675158
-0.3440007922848134
-0.8674207313185678
0.4784383995699779
0.4024118744301537
-0.6260903233114383
0.22197290422020077
-0.6456683094357738
-0.7264360088398893
-0.21358822627290985
0.188875780859864
-0.9286624853596295
0.24273322410978015
0.5187337149649944
-0.011957802787300853
0.1401919867389334
0.662238943589414
0.5571659627367458
-0.015213739864189835
0.03256105037355449
0.07140124481242194
0.0457799109200101
0.903874681602276
0.49667814927252585
-0.5175105884713911
-0.423242827599541
-0.7006098619363299
0.7417888889702533
-0.7755088366465324
-0.17541311701362727
0.9300245712539816
0.16648344026281992
-0.8917474264672325
0.3554489820642064
-0.26608184790734324
0.06507280551842665
0.4236644254064154
0.6414313158539462
-0.27497986627265614
-0.6315397341508073
-0.635438691028569
0.5445653293489856
-0.4735853891755024
0.765593736526996
0.8228971718245667
0.6455099575143988
0.32338360780605635
0.6044886838189443
-0.5464906960920384
-0.4863515920755246
0.49017344566311616
0.20876776773592343
0.25150263933895434
-0.17498571216979664
0.3915328157261697
-0.27143815111790515
-0.08713456192026503
0.7995872013041634
0.6039619828836955
0.8901611479340685
-0.0628926163816168
0.9349816459947085
-0.22861982895482091
-0.3282803401240695
0.4114670482886089
0.30264768430857925
-0.6934913748500471
-0.8947793838261118
-0.45619280117925776
0.6415302806772869
0.23187884395028086
0.029008494146600006
0.21883403031038862
-0.9573049283475936
-0.11597291289826384
-0.591962127268753
-0.3826914573173976
0.6757404592370513
-0.2954668435956178
0.5771174140735627
0.012782700282031101
-0.39616212883765933
-0.29742302137804666
-0.4489015981883657
0.9367395707178738
-0.6411807567256507
-0.2365856346256825
0.20543504469533258
-0.12438335137632173
-0.9933833232318909
-0.6100618952897937
-0.5684011410119338
-0.6635321111505081
0.3651075141848832
-0.6273465279410131
0.2566509216552606
-0.040963534079215824
0.6800491399753901
0.7767942107135639
-0.4093965063349907
-0.7505698620941104
-0.8106604421234529
-0.7402145095739039
0.6712361044615227
-0.6622981699895356
0.06371485704369237
-0.7093724645227396
0.6979387645642896
-0.8115367982181949
0.8640166738674699
-0.36913453761873405
-0.2958767383344003
0.5300678592250085
-0.5360927496871595
-0.848037713508301
-0.25915678870519465
0.6986847728836068
-0.19726050321230382
-0.633722011877093
-0.28631132105628976
0.14753476616629846
-0.5515431063652745
0.43516900706431505
-0.40278730203973145
-0.1623252139078979
0.5320155254037509
0.37930845460518436
-0.24770793426444637
-0.7881309189039873
0.9875277540082215
-0.5938372886729633
0.37503983028585175
0.3027895836280241
0.885707947183644
-0.8983318527517385
-0.3074341636090472
0.3685004674681065
0.7789482797198877
0.4578470472820855
0.05475748947833092
0.20477254252407628
0.33901681732802835
-0.3107523679045361
-0.30211336794841115
-0.6272503732661405
0.8545654257916917
-0.25460363515080453
0.36773069795516466
-0.5587190278772459
0.357990564047465
-0.36100630799847266
-0.9145791096086671
0.4415419767866715
0.9751843340756765
0.7704095162002409
-0.2920679678173006
-0.9192621641787122
-0.25796335750979504
-0.07437043668845145
-0.9410383903022701
0.8552144366403074
0.025789721939877497
-0.05157627309980284
-0.35839687011261856
0.3110242998192434
0.4100215184859075
-0.48509008694494016
0.3571861524919142
-0.6656020099743005
-0.8266981926014207
0.31268416983739944
-0.11055742943464564
0.6511060743340105
-0.20860392908654002
-0.5310518964506028
-0.19535376310006303
0.04665714618247807
0.2935801264076241
0.4397793164331576
0.29516188586141
0.1579059399744518
0.379946539734463
-0.5236365975281436
0.7704785895881976
-0.8337947303160032
-0.03936912997446451
-0.4706414090035784
-0.36163566634338595
-0.7372031603523039
-0.368811756363717
-0.6237262844025904
-0.46114275369170055
0.6314844472596768
0.3896506127865307
-0.0402829548113357
-0.7945800469989501
0.9151550665553676
0.9253343759405805
0.10709241684606585
-0.42797408491458055
0.5148918372659541
-0.18238851712656867
-0.39437425802383963
-0.5385131670029857
0.6428844762802001
0.8334639290961092
-0.9633911936198901
0.16326255538751044
0.3089403144596592
0.4934591827463539
-0.30253003995263605
-0.7116106996348213
-0.6337671104877382
-0.26558253935365084
-0.2591056571504229
0.8742529257371621
-0.35259672701651024
-0.8266952986846685
-0.868712924293096
0.7096307871514664
-0.9484996411573625
0.4360678235421114
-0.39340127029820704
0.03208840543258318
0.36289351110029644
0.21072174233656504
-0.30160690534193146
0.9190134858506114
0.2785403702378677
-0.5355620527379201
0.5922896821168235
-0.023279300370435463
-0.39329651315992153
0.9386656577385735
-0.3767174277878558
0.5043377239935032
0.25615309829971844
-0.15145845847632788
0.2344520706723161
-0.859630718866501
0.8164890794927209
-0.5711155282599747
-0.635844842284323
0.33464549722181913
-0.8088674473185371
0.006609136702506513
-0.3902667395926218
0.020217702620650035
-0.6001472018301499
-0.3979326351460246
0.540575318754626
0.09919173464454367
0.911816445242581
0.1980028572808894
-0.9786330450558345
0.9786287995901533
0.22183112593471765
0.00959363206715369
-0.5206893298553996
0.025759093565810298
0.17475053129654428
0.0022608861586765894
0.43143752824129505
-0.9591009587046762
-0.37569668633769854
-0.6969978256682876
-0.3010304787839486
0.22533839326175786
-0.039215946907182886
0.6856362133311606
0.5355502269120824
-0.9310690117864182
0.7769059432625314
0.7380983849166018
-0.6350337738673013
-0.38561226292959305
0.4366817944638517
-0.20630155455151966
0.040924851435704346
-0.5844402371773025
-0.28067364669345385
0.2633830123090508
0.6406002526453509
-0.7777444087711178
0.006611674810570456
0.8917393155828408
-0.729212358235044
0.8723005824269585
-0.8773642275155142
-0.08726143146014231
-0.21627534875441956
0.6612863389447368
-0.9265608108841805
0.7343768856703801
-0.22905069437185954
0.19453776909295528
0.36903484760113847
-0.11613940061101657
-0.43496510915474396
-0.11652382318863364
-0.1639209744433343
0.6988020395131347
-0.7720617731605592
-0.07954794501518236
-0.2736222073697985
-0.28775006553011373
0.2711986252750018
0.7815846524843733
-0.8912384573806907
-0.7204050302834624
0.4783707547934626
-0.1481336758518872
0.7173828120524992
0.012543265280630322
-0.7601443010262283
-0.17431000452377843
-0.20429515933786457
0.7589678777847042
0.393791718647792
0.13375853846036745
-0.05400388302097281
-0.9785350363760872
-0.5063193624488656
-0.2545520527343841
-0.2844832811499465
-0.790628627707453
0.44741070412649475
0.03205233077747893
0.7286585186729602
-0.9774193005481424
0.7602020195271075
-0.6877688333444709
-0.1433379669213828
0.4982876380010466
-0.8233574479839543
-0.0070609098724860875
0.8486841601321009
-0.6250620505292694
0.9106003687445616
-0.9270067423825499
0.18962903834398165
0.7386000966986406
0.05488929185705205
-0.15734770482804805
-0.7819638417759667
0.5059774289767671
-0.01271569623752189
-0.8995245251974424
0.5902070049737049
-0.4469912407029719
-0.9648517182286782
0.8729724013814162
0.8692393903252131
0.38798215333699715
-0.8458947085182167
-0.031587502994081876
-0.466583725795952
-0.7070838593996578
-0.816198365807797
0.16763204798738873
0.18171578290028756
0.1813624662676928
0.5955149760393839
0.46071903940809533
-0.0035359447014273737
0.6934714683534489
0.9057662654565046
-0.3946938064640489
0.28683164618444934
-0.2977160742029099
0.8930736015649614
0.1000197338147113
-0.6327750170260604
1.044654974505829
0.936110314305566
-0.9699382744670948
0.698090885491234
-0.25263522457838916
0.49820401270771075
0.896767766227343
-0.9272805358695264
0.3941721426601108
0.17592748679625791
0.1504042092665825
0.31122710765733275
-0.26851622778069095
0.5706121162558635
-0.8117025008936762
0.7414547773292299
0.30325177671572523
0.056567347163045456
0.0918685784445461
0.9480698758889796
-0.3447470849915113
-0.1773551696661082
-0.5585711483581295
0.8281988728811929
-0.7192635614342364
0.9045125940876182
-0.3992397681711686
0.21364270260341
-0.21702289414954068
0.10824537317470373
-0.3804783100534457
-0.5082468199606895
0.4859804605938065
-0.8804322721408657
-0.9490992216240401
0.4819415138183851
0.8315689125149675
-0.7891527334660591
0.14124766119839216
0.14756052104198614
-0.8946759819355441
0.08033268046609421
0.7818070468345368
0.11878817641396955
-0.1378228457176487
0.3376583074902162
0.34145225076913266
0.6575369980658419
-0.9451187431917277
-0.8126028201357214
-0.045907384924945394
-0.503202530751429
-0.5659363658462531
0.7663070811458457
-0.1584639160637915
-0.48700198118172144
-0.9760886453986146
-0.25697357018653144
-0.7350978976240561
0.9379385257036732
0.6407826566458075
0.17774387198918573
0.5005346428019437
-0.1919548535660136
0.9661443737710926
0.7270761835105786
0.8761232285652045
0.983530534026348
-0.204132469981404
0.44755145077949865
0.13000877898710783
-0.277492766914589
-0.17452658904101045
0.11254595299527392
0.36485206434279505
0.06287324433945396
-0.4106235418298958
-0.4063303556597475
-0.8861432246568157
-0.7612449785532565
0.42765366370787716
0.32964607445752714
0.30483745881638113
-0.859424058276838
0.34646424144739507
-0.19014837387853456
0.19489773596000504
-0.024394050824580127
0.22605366370590452
-0.7615952446019771
0.26390229660154696
0.5876713945760057
-0.9604438902642407
0.7969637471219277
0.8673878960863175
0.9789799801767332
-0.4092475850096714
0.5176910357209865
0.10442504202908798
0.1076595404233982
0.1148926574394813
-0.033356381914251276
-0.5702277737064345
-0.5125757830776949
0.6775750293011316
-0.5235528011762658
0.5203209085647089
0.06812845521383637
0.060972861276501256
-0.6916937337590097
0.8545889957912682
-0.8916758453832583
0.6034297017111381
0.7693344922696341
0.5260683328104121
-0.6112008345720343
0.87668818794457
-0.8785054468248762
-0.02676083640268908
-0.4935582657976903
-0.24492491091527024
-0.7442625777138534
0.12853702547656587
0.05348208436959179
0.928147933134801
0.964422073631306
-0.029681899258347855
-0.26504068514980994
-0.2946705920465129
-0.9206443744616022
0.48618450924344825
0.8554584172048691
0.25612331074310246
0.6867587522156147
-0.8551908775367003
-0.5462157065927868
0.08307997662957867
0.14839678760936922
0.6677816213262313
0.3019987249563867
-0.5824717835147364
-0.26280417490656494
0.20005966604929526
0.4410936702954973
-0.8788492957801894
0.8438027044995129
-0.8631730598467611
0.889353328554124
-0.21483181678740215
0.4326177561902764
0.4298461431264209
0.382704160055789
-0.5002788817566979
-0.28401618858677624
-0.6743947351073718
0.20064944606431312
0.7010185625744376
-0.016401962374305912
-0.907413763337924
0.6986808594320673
-0.16525277827127938
-0.5879897051638312
0.9360005396440598
0.9519356993840202
-0.8236814087729147
0.215138191555716
0.6917009839673138
-0.48785420312795447
0.8024960461578667
-0.3209545032874198
-0.1974608021131936
-0.6614133617968401
-0.8724936781261219
0.43749408648692256
0.9056588788633595
-0.5909639698376525
-0.6513486256814003
0.32707278315758054
0.8591247509580753
0.6083780135434282
0.9203754457785891
-0.33107406528282546
-0.11596138558592428
0.5871765085200102
-0.46282806297636925
-0.28772743797161393
0.3863888778076594
0.9298110789402056
-0.5952247199548713
0.2105159815875577
0.5272531813936265
-0.7671318322406242
0.03621570278266234
0.9194653522875091
0.5685122605706232
-0.7925064030166971
0.11830667724258248
-0.9286950048566063
-0.43959699146301223
-0.4689291186572797
0.8631398727822057
0.9337224213639264
-0.6748209843387054
0.797419410701701
-0.15184251357912237
0.7277832659724481
0.1775456934184121
0.793542888041366
-0.33892326780035636
-0.9700421189530151
-0.08935761215870593
-0.6627838044877887
-0.9417525908779341
-0.47447318643624214
0.8944068143505735
0.8058256852954511
0.6108662564979921
0.5047985437161722
-0.13644204681623862
-0.010434642907285241
0.49151030009236907
-0.415648213815776
0.7390608253603073
-0.9995404068182665
-0.6244974507649863
-0.4440771324618751
0.3280928259036944
-0.19065575540981738
0.37121948419332806
0.4914069889754542
-0.05467410738094336
-0.07895769935708064
0.31236087336195184
0.6370653023305266
-0.2131428557150037
0.554788026987636
0.2743392674598124
-0.1299142646503102
-0.11605552212935266
0.2026263966899251
0.4546449965300363
0.538503937682429
-0.8409534967485599
-0.9148348222746658
-0.39184960155392545
-0.1993904627331795
0.0055117517650451475
0.9548385024577795
-0.04586849356444578
0.7049211585677424
0.019631386096895298
0.05753494746753285
0.3473676509476602
-0.6394972332600077
0.272268647817804
0.4266917416149849
0.5685504254818441
0.6376918481710483
-0.4637482810869532
-0.131210614772163
0.25715474108795133
-0.00716816024178768
0.10697569365317827
-0.6479591913074301
0.21479368065983007
0.9116784743781754
0.4720796349192078
-0.4908445309901037
-0.05074408348263715
0.21387238228192507
0.320515403839601
-0.25332451542848733
-0.32411434836331465
0.30457956521390117
0.5569949391805862
-0.6990038083466401
-0.04241843664824474
0.5977391446445743
-0.036019332003155435
0.005216401135252749
-0.893503116295109
0.4411341696715487
-0.3280260940214624
0.6734683524380705
-0.24756206858752683
0.10815885461596642
-0.342374100553241
0.3324460173181083
0.22799151357745195
0.4588413008329639
0.9847893487655628
0.3575613176533037
-0.12983633249764837
0.28970468321410836
-0.11606316770278147
-0.8289321237871876
0.7675191462653408
-0.26667844653584316
-0.24684828564491657
0.2561332501097462
-0.9378088392687636
0.09451400119670184
-0.5388315607354928
0.6196239962318106
0.40435864408217204
-0.2516467344738216
0.4532701591148753
0.041013202746980504
-0.517094177716424
-0.1675803518418555
-0.3681054370826049
0.8004553852468972
0.5064759326583179
-0.7207731791463583
-0.17103095027985682
0.9112016110680452
0.057497386423773555
-0.11899390786846098
-0.050615721986825735
-0.7960388158096303
-0.40038074320805506
0.9182586566365301
-0.8788248944860229
0.06896923284539946
-0.19494053835086578
0.03817373755128406
0.2009849799477299
-0.010078544682916166
0.40903199666838974
-0.7052103100535672
0.6202359938927018
0.12172600481284611
0.7046901886551926
-0.22320399640425914
-0.4772883479765343
0.15373520258870974
0.5207667212643228
0.520041982488734
-0.7512390155592763
-0.4870900474976245
0.37376619208417194
-0.29443710984536103
0.9587284785702224
-0.2474789531123276
-0.6300916910804695
0.6926763286903137
-0.3462529604346276
-0.10495893522598863
0.6714908820137553
-0.9679443986012637
-0.0035875978820603116
0.4486444547227586
-0.7831195486557572
-0.9861015177402344
0.6254660189022243
0.898354765436012
0.030612014845119995
0.14115106400320476
-0.8339938866140095
0.48054921949211993
-0.657072970952336
0.605644487431648
0.3207760744134922
-0.4940895993173071
0.6363151006352987
0.9663806420199942
0.1046436487956095
0.7849898244340557
0.8800272082119209
0.7186079409291972
0.7386663172242613
0.1273851627695357
0.9597559065059607
-0.37913515777734297
-0.05533740445704538
0.27717406389562216
-0.11392391295243942
0.9154868129070134
0.25879470336816834
-0.26082181614646105
0.41408180946816175
0.6922482344939385
-0.8602531919828271
-0.3126624292146223
-0.8634153081146076
-0.10498165867895115
0.07056387397576303
-0.4986759333097386
0.684932784945141
0.625618817919497
-0.29865517332411984
0.3332223468405866
0.1548059944839584
0.6186116869677609
0.47196831713116216
0.7591852646048622
0.4775644578873892
-0.0859590705073423
-0.5449415752481821
-0.2362829262102466
-0.3939074685632562
-0.5499425253472507
0.9847236647961453
0.2426580507284768
-0.5863007863342353
0.7394643252861417
0.3488290427102372
0.7867873269907022
-0.5386954804395108
0.9939350223271151
-0.3445252454436585
0.6882065551933643
0.6777617035477961
0.026455551216142625
0.07400965282700762
-0.8578230871184236
-0.5346813202546299
0.9195596679350075
0.7371886541747987
0.9752732335166028
-0.430348854415342
0.05466232439700636
0.4041411755369977
-0.7995986075254036
0.7437401012492748
-0.10645450633573887
-0.18341655240332067
-0.2502535543305344
-0.2771476216430022
0.8065287460346571
0.026226563934429015
0.8018440495733561
0.2910338492065192
0.2291265215239957
0.8370599922430273
-0.9069108575634224
-0.40465785349960837
0.5490852381857998
0.03793757562156941
-0.9075026729807596
-0.6258284315310028
-0.07490554916480541
0.1636777358677646
-0.6141929030239344
0.6161568250942266
0.9945676263041798
0.5828410717102823
-0.3896993582582122
0.4865051109114735
-0.14120268175349238
0.3807512715260779
0.4618147877749026
0.5341366549211678
-0.3774117617692785
0.3568752890416227
0.6751763386786438
-0.48012766648361493
0.9368474737930985
-0.3008133223291103
-0.8080725307900165
-0.7779663833769537
-0.9337150106820371
-0.9485696298754396
-0.8164802551270169
0.20643143043975698
-0.5554144091436646
0.7609317895861949
-0.034823962876967984
0.9764956155656177
-0.8429209045165862
0.8033985387604492
-0.10768681453999673
0.8544269794297241
-0.5932114173537613
0.6066792233201999
0.7699223073765142
-0.21108008859152982
-0.9475059328484745
0.14923760977307926
-0.11833540287960576
-0.7486315264905181
0.12526624901325434
0.9504203314155413
0.1770190931701594
0.8007769890945555
0.6598365320885682
0.6451258763177323
0.9456142632396454
-0.5287783899015455
0.912402419356013
-0.06672818469957109
-0.41981464796347323
-0.5749656372422618
0.04375727374669973
0.2688851416252558
0.1981478531588443
0.6482570916431194
0.28212380041109464
-0.33863882810603174
-0.1627997315155878
-0.8429578083880402
0.7958475699480574
-0.08138377477024483
0.6809904289375446
-0.7022603868899315
0.5528782776025007
1.0676630365671858
0.13966427956860505
-0.7066744845542006
-0.274277486395623
0.6800630498738929
0.018970934907621917
0.3251414515228397
-0.39177626774974583
-0.9543628006760514
0.11102820624653442
-0.8865482742204422
-0.5547465514464873
0.0792334135179642
0.5233526846400118
0.9748319982199871
-0.8771850870753826
0.11357204311613889
0.7456613215332413
-0.9179971164328047
0.9561664346801306
0.4871066020526005
-0.20639581151872277
0.12509879892413966
0.6433744948998854
-0.7338191596282013
0.6706785665789772
-0.34344524222613937
0.3757619184010479
-0.32740681353023837
0.986680741846814
0.2371385785481379
-0.6755856627937566
-0.17423261737289697
0.013175529579340983
0.6559954244226018
-0.31845263978179217
-0.1668138257523597
0.2876491754877317
-0.01676565427447252
-0.1376881782971522
0.03932339458888334
-0.4334411857207974
-0.05859452976708979
0.5270445751791337
0.3430180539061558
0.26952177720544745
-0.4367000191205599
-0.8604204013450178
-0.5668482990808035
-0.4730082881593167
0.871494561339874
0.6842786354180633
0.8598918925277472
0.05405111569002208
-0.28822683652285286
0.6248033904745927
-0.7784642991425255
0.4012656997577111
-0.7538690396422396
-0.6717281802134402
-0.03872366381376757
0.043448230232162155
-0.20782355170064193
0.26481126072575445
-0.7537185309301282
0.9092728108211239
-0.39243507395691246
0.448768253066703
-0.10528978686131801
-0.8815355967921328
-0.42729401102181597
-0.801789387501723
-0.543630641687912
-0.16410357171595313
-0.6945273710954036
-0.9837436042290713
-0.3899100909601625
-0.9928743522080921
-0.5116016594351702
0.9005927471838097
-0.0025282643784385606
0.21071092566033744
0.3490969933441612
-0.6211783008917957
0.20281326284522727
0.26224822278485505
-0.10214325858825757
0.0050165388155238855
-0.8055136465037647
-0.9200656658242299
0.646350325065074
0.026098473253238552
-0.677617435501457
0.8601514665773118
-0.7662015567230545
-0.8113606235016386
0.80469986651587
0.3954743036269244
-0.7433603643916094
-0.6610010463678202
0.4478275967122569
-0.6115259718249895
-0.7117369774163294
0.02169733243085381
-0.7051298178314869
0.408614113310795
0.538476591177977
0.925980688764255
-0.006359218021464441
0.10939811631527752
0.5275381682295366
0.20695148524157791
0.23749321449442418
-0.74659760973754
0.14199680210696664
-0.9393708973068358
0.2725915215422068
0.5104978954234047
-0.6664386061327094
-0.5353782074932742
-0.46358615749750975
-0.4966896825929712
0.568545381398429
0.5971548592871434
0.8406225418686075
-0.30397755286344585
-0.21267827150853247
-0.443100820163701
0.04383518175071144
0.4812924534902936
-0.2509861803467539
-0.9377759303077224
-0.46187644521199256
-0.44200040984875066
-0.6579077674476239
0.9786482149390312
-0.9773249734271678
0.7023190331144114
0.47667827068499136
-0.9279154594232286
-0.4882148028565769
-0.7953840761634299
0.837140295497822
-0.5484795548061772
0.9896105012748868
0.4873835632841146
0.1646967024642898
0.19330041388155395
-0.6695915259400378
-0.9619101857467465
0.234572448245848
-0.6068798636199524
-0.9790083525285187
0.6723327781990462
-0.6370459187196991
-0.25853147018002115
0.9476907398900354
-0.22981661730709857
-0.1920458707732886
0.7456247105312803
-0.35750103649229104
-0.38512001138575025
-0.5873239697821035
-0.8411617069931259
0.14565100684291932
-0.17393161847169658
-0.6154138790189596
0.8137285166731831
-0.522403600894966
0.8694948201159367
0.5687500070829945
0.5104109749361725
0.7941950004506515
-0.9398719245762699
0.22515148463877277
0.5012500186420369
0.723801602400689
-0.29661067576336864
-0.4893491689770608
-0.08475948265416222
0.6566678487654041
0.6064331449499383
-0.9684706563923107
-0.3324978832886507
-0.8919352585003963
0.7535702628769587
-0.9541079621569273
0.8768218003861521
-0.7857422223693017
-0.04891859501617901
-0.9761262609659034
0.10772999728844912
0.0331590141417204
0.12348775353960173
-0.37722997349415377
-0.5301382798232372
-0.9962704315814357
0.7736232762275665
-0.90507451519102
0.6736829473602635
0.20057277658395822
0.05675969168545052
-0.4192256989682457
0.09757495112754128
-0.14222831398650815
1.0556363635392807
0.8221258564962783
0.26698378127817657
-0.19827669841994444
0.0845345699287745
-0.4723295087115711
0.19348756039194925
0.6785158451198192
-0.692610536254378
-0.8398028326484528
0.7882490279505072
0.4581948136451426
-0.239060174028227
-0.49231925978770663
0.8830771468700209
-0.8562468239317917
-0.14224695723433323
-0.18584908327810323
-0.1844308029385362
-0.0018829734295882083
-0.3356322348369831
0.38606084948460584
0.17900059270836355
0.3556939247218298
0.05374034128132488
-0.8275668546090735
0.5491923722423626
-0.8162418034192862
0.8853119194301937
-0.31850316621053465
-0.8396499522203489
0.9456317719944209
0.4545619605265072
0.5676901693348143
0.6765868222697662
-0.8010869128183615
-0.932630428767488
0.7193622030192919
-0.010222012154843751
0.7481299216211794
-0.8922553774759325
0.5724583676218074
-0.43112145298768745
-0.08579935246882942
0.24392293083593342
0.7954165781507353
-0.20676444814329153
-0.4631218532634429
0.22485774103993683
-0.6149473713137366
0.3043083241686
-0.001355621367853832
0.7439305345412297
0.5742423237326724
-0.11586561214984381
-0.25368488513622167
0.5784622860253401
0.012074703166676137
-0.16578050595510252
0.8658560511424793
-0.7768236025898725
-0.47591489590499547
-0.029888122353541213
-0.822112414441353
-0.6306999138395908
-0.6195179691315298
-0.9552565070232315
0.46119276964924727
-0.7232189343028799
-0.2861162121059875
-0.6149922021709038
-0.9215592773242651
-0.9733615906402362
-0.7660986958712411
-0.7195603468462286
-0.8359088290923586
-0.9247627800882268
0.3446556841398989
0.2089338539738217
0.9793973452307325
0.7553797091524854
-0.0777786096782096
0.8460259672941817
0.14509173291781252
-0.3061311557521947
-0.25539634309367054
0.38403101182970323
0.8876957194575366
-0.23756168482891438
0.03783171520049233
0.734927679743731
-0.4230810025730414
-0.6783035127696055
-0.4831173206254815
-0.5114636417286573
-0.8782012132592347
-0.7824969502952077
-0.039364046238412165
0.768197627650685
0.12218238385553515
-0.7150507631279903
-0.4968707565175816
-0.6753810906749977
-0.2123865986346951
0.6763025186671221
0.33817844848497947
0.5838535276126322
-0.22611136729279768
0.28066590772833533
-0.22753690318868314
-0.7184511638838376
-0.8669962118754406
-0.6532640234008533
0.28375604200483306
0.4384194162763895
-0.1288290473552336
-0.07752326474946125
-0.5414322749118206
-0.33585638470579027
0.31359303971663394
-0.6602318430841501
-0.40250646590731537
0.8898115760048535
-0.14127571717441056
-0.6198424770417232
-0.9309670750633938
0.7183297733494596
0.07040894140233056
-0.28019980037814296
0.3042176763224913
0.215067644248498
0.6718788901538844
-0.6447158414633726
-0.8602250698458442
0.5663584458779927
0.8283863163920362
0.9630624571795148
0.4997062357807187
-0.520161621467921
0.26024765514150383
0.5027866342409666
-0.986097132704941
0.7717208962219231
-0.9231315802545657
0.00908912251759264
0.28058591924027354
0.38230604085213127
0.9753304978468151
0.6198048112442152
-0.17579627406491838
-0.3023282660479136
0.8840765314733667
0.7857930005903657
0.8076614448462931
0.7495887221933892
-0.7789883797952839
0.5102374391541957
0.913151765009109
0.6074300147280542
-0.16132728598537227
-0.0889220448368877
0.3403791487176404
-0.2819764009051191
-0.4997931726325109
-0.908948731852385
0.6090755760842457
0.6125643255233943
-0.8129909704789513
-0.8681469790523912
-0.8679486797830342
-0.644953921078546
0.39767528470528424
-0.8681123286110786
0.3031472994718618
0.11680066914983356
-0.12864178853407385
-0.772514764061605
-0.5602590646151613
0.05356464298506225
0.04426472868271669
0.8392130959442154
-0.02312733581810611
0.5969883161822882
0.13389527411307278
0.4649872212014281
0.26728220962750604
0.6094467581066572
-0.5943897467343764
-0.6263526004799771
-0.2251883420233376
0.10689474044669423
0.5628646485851558
-0.6272089861680059
-0.9619079566066335
0.35932293364188006
-0.1840967946755261
-0.877882049115575
0.8696383252931403
-0.5277162081641398
-0.8366304939615408
-0.18378807891743842
-0.10534626131707525
-0.16195629254955857
0.30324834823917013
0.05850241514958321
-0.3789101152387395
0.30460723184987404
-0.5981724447073322
-0.0026013428851148213
-0.9911840947670187
-0.5503090993901651
0.20632850374914424
0.7569928073333849
-0.6318744176640145
-0.6587132578932114
-0.007081220319900439
-0.41724359660019594
-0.2655297930619174
0.9475006522290852
0.2294470353264603
-0.30042937770895906
-0.04304427674708822
-0.5067401698546401
0.8313406571799669
0.14636081909798793
0.4593641495051266
0.4754150736200029
0.45580845441121776
-0.17329392554273326
0.5646077316980007
0.6197959705757894
0.3278604884528775
-0.07721216114864071
-0.3845275526849594
-0.24697421043393897
-0.9541318923828304
0.5733500690848305
-0.13500783384988324
-0.4922184972138941
0.8774062149689337
-0.2737685393997842
0.6899802465805038
0.25699629799586976
-0.025959558970905405
-0.17402175251095797
-0.30495077565788664
-0.03233259766526175
0.0176066177084524
-0.4959864135625076
0.3267715455161828
0.5507573945815933
-0.6877888836635815
0.5612510168546654
-0.12812757463577196
-0.5963653525464989
-0.4316688101492021
0.40442815596380344
0.7940226978944687
0.8784880493462335
-0.18235033145901425
0.9485146695996756
0.9205270615724643
0.7071344189429172
-0.2564314746682459
0.4151318057465103
0.8346381577200088
0.5378861930160681
0.29227262049823755
0.015295467264434398
0.6507999347967719
-0.16179265546298227
0.03213899534180073
-0.3808285207444131
-0.47013792656486064
0.32744287555506424
-0.3648131293746453
-0.8923766302790344
-0.5957589543211952
0.4099464219392044
-0.5438164651671771
-0.22651449015842084
0.5019774517226019
0.7062306837590258
0.37384346715992645
0.3588581491617193
0.4381556619036502
-0.8888061574303867
-0.22383727565928035
-0.5827686305116297
0.15474816524511703
-0.19463793069051216
-0.4216110970997875
-0.2560372845147594
0.3090102598715392
0.07859996822195225
-0.596543582379367
-0.6948653736736883
-0.2504486686488676
0.4280203711203956
-0.7475544576494386
0.8661455530201372
-0.10437610070416126
-0.21039559677360242
-0.6200175942975321
-0.08561586879396721
-0.9610539981040473
0.34350306712081324
-0.5029927149368305
0.02300875754273779
0.01528792238986898
0.809760542092137
0.0012113984834491998
-0.9321830155671258
-0.46305513011676136
0.9933110730062866
-0.9861921673210852
-0.9606539739954756
0.4168165628982534
0.6738680193047979
0.3654090016572029
0.2982524292828289
0.18652444456572592
-0.9637020473927245
0.9265352071171414
0.6507153939812891
-0.46687639356347566
0.44873680694205453
-0.7962071501462298
0.08747800756363655
0.23060052478389603
0.05954885499684019
-0.021235828665103984
0.30769202357788905
-0.22831343581359564
0.9608081761599649
0.2334990694739767
0.9353505771083128
0.4156825059919165
-0.0652938645195021
-0.5146370688442576
-0.6745605650301449
-0.6519894253849867
0.10523805917856333
-0.9224677687857663
0.8581506819047693
-0.9686454482994562
-0.5063756458915631
0.4763237680953494
-0.2582785714342555
-0.5070054809668811
0.21425434154709855
-0.9165075679272661
0.9801766151614593
-0.6854188910616603
0.9919197615795701
-0.305490798147124
0.1270389885656229
0.7725534630720201
-0.5449812939146002
-0.7003606830105316
-0.19844996762454925
0.09840604215566073
0.43207642128877444
0.39850146079125404
-0.20905926550109544
0.9004274648698276
0.31364627435391723
-0.13156077648290343
0.5427624482490221
0.4779698658181686
0.5534598710678427
-0.859279420338859
-0.5920039234771959
-0.4749131777194344
-0.7422253798637708
0.2925271680229382
-0.6154690447925173
-0.618201854001259
0.23605665689530464
-0.3264721509973483
0.12255209351871832
0.6033851595833819
0.9522139624428632
0.2870296372045351
0.4848378124701498
-0.9969243596476711
0.5975168998208142
-0.9508390649640728
0.5327068124131005
-0.6585175831623513
1.080322468333689
0.9728442377546642
-0.7153015656156545
-0.060446142273687276
0.5472010799969322
-0.1130298762808839
-0.11835846388499371
0.8454340222704109
0.06083964890031246
-0.3705335849798299
0.14603969082833235
-0.6739745701697983
0.1556956821708615
-0.6983208406360026
0.6499461971946132
-0.6197968738692008
-0.022183725016582168
-0.6782236959997416
0.20330522019705755
0.31627545378959326
0.9714393029273161
-0.3095587931529207
0.05550056969744688
0.29907365345379566
0.496045220518472
-0.36279130060224274
-0.7120541737923272
-0.8213203165067675
-0.7884812249743836
0.25734452722864654
0.31483136943274426
-0.7053129150081121
0.39043884715051846
0.8126110644134477
0.11886585687521878
-0.41630660672720543
0.29971039916797926
0.1844651854484214
-0.8445118066820148
0.8182542451226122
-0.6586348634026873
-0.6338097708910917
0.040238035832951935
-0.9011947798209969
0.054699592032137145
0.9300189889216814
-0.842981555504634
0.6152968316541947
-0.12079934834654282
-0.21802240735930045
0.36351029466329643
0.6004861989609878
-0.49520397831983565
0.757207721479983
0.9319106277351685
-0.6615717587919787
0.024581500033613812
-0.9137934785937842
0.9823751521859687
0.47564691198211895
0.27697476993168024
0.5574958339414187
0.27264080475883956
-0.8040072949124604
-0.5187859326342725
-0.9208346511542098
0.07632066840478213
-0.7648922922034058
0.23934275965211183
-0.4401577784960391
0.5236954915434844
0.6497454983563768
0.6432682311285425
-0.06247005864972044
-0.13792238746387864
0.8785463417523682
0.017882705466069515
0.2752649581002651
0.3891776756824512
0.9397270284059025
-0.5203292591539104
-0.5374818496978657
-0.47583590376862483
0.0644792848693323
-0.5018231917836102
-0.983026336708978
-0.35604397339425
-0.8660901495206583
0.45818738125193437
-0.05707664164016535
0.6561206719771717
-0.044646861272632954
-0.3652095606233079
0.4396914300914232
0.8521026752092395
0.13537131985479367
-0.9132786283805561
0.5303238243450987
0.402938856723007
-0.4343822578002756
0.6097898616398099
-0.5739738598275899
-0.16811227278618723
0.8072597185250538
-0.3355133294636956
-0.27893616926114984
0.8591005451848466
-0.10407834821854633
0.5409374893216918
-0.7471042673755766
-0.6712706398534485
0.8109965078066361
0.6673983224773987
-0.8378124479275408
0.09144262692673455
0.6775677624614111
0.07844010755908837
-0.9209540728478038
0.8534330490398971
0.8517680153605993
1.1349294052916141
-0.27933796836424474
-0.7998649880884539
-0.9133296566369447
0.5049665102344136
0.839409391026223
0.2895577673087386
-0.27447207662868833
-0.7478188322083033
-0.12593202845844575
-0.0926791429127427
0.15207298624578858
0.14194508455908594
0.8723406921198449
0.728566846871612
0.6066700123878002
-0.159764366917307
0.6690240948911279
0.34114652909682786
-0.19079243164085913
-0.8430733668036745
-0.2567710383078634
0.9763991568279065
0.8362267778064725
0.1496146631106195
0.9972976689208279
-0.2535544824785384
-0.28671090022263357
0.2527364211000658
-0.2301748405519899
-0.5337706725102147
0.4002035694899322
-0.7537975907533179
0.6154214028581355
-0.02150040651654761
-0.39508461682285256
-0.8727954043944202
0.042026656472529345
-0.16160474929636393
0.48311526243338254
0.1901274324994029
0.6195262449589376
0.5954045357063382
0.6865068992875594
-0.9757821263564659
1.0482813605823895
-0.3840048445328239
0.23339153719071093
0.26759968494060327
-0.09145736489878686
0.6699951283505445
-0.19886195991795197
-0.8482445818776136
-0.468498834498815
0.19368288806277767
0.7212575944414288
-0.1802413103181557
-0.23604849643816306
0.3840736451269391
-0.1688782980564496
-0.851652450761053
0.861531679096732
-0.1387756107625835
0.6710926535638846
0.8625205598601247
0.8889133571524672
0.4896881188489941
-0.5216297852577663
0.07939647389985138
0.28598225460862925
-0.6661966763064244
0.29437440369811485
-0.3052865773205262
0.43553905151496
-0.9973261767225883
0.826159583236096
-0.11037005958936374
-0.8698526958641335
-0.5779247581284108
0.5684846496116662
0.5140621766584759
-0.07438809714351291
-0.23575284894700466
0.7350774393104276
0.7130550818613801
0.8550205227304437
-0.5812966197663829
0.4354398881877166
-0.5550241411379728
0.9393946500290828
-0.04685113558718812
-0.377812932093919
-0.015009935776744143
-0.6723345962647502
-0.4190074477497525
0.5321443708079405
-0.8819849517066427
0.48166432541385973
0.42460830796371885
0.04568169680638556
0.27448795785684776
-0.21173087549557978
0.6718977051310682
-0.23057377284627711
-0.9995568570326956
-0.33161224700774206
-0.801412009801211
0.9554932879555831
-0.7155303856897783
0.8333881436188613
-0.6231804399998335
-0.9752027563335213
-0.13740544597409232
0.7708473734941201
0.9356883478853968
-0.982074528843889
0.16437977418275995
-0.7720012401056582
0.5825868930573275
0.3374348687451636
-0.5765468168985781
-0.5050542081138512
-0.7895791958111325
-0.6660468932402688
0.34052286570769064
0.08343753002005316
0.6359665293802239
0.3024278254631432
0.41929057845159523
0.8288957213331598
0.3191435147962436
0.5488043256170752
-0.3776897932376777
-0.4428286238415713
0.04538860528166477
-0.03463949336446315
0.2525616599465108
-0.6183117413639148
-0.14071676996951954
-0.7612726033811876
-0.6799091479588115
-0.08710928624803371
-0.2736740789246239
-0.04163576416358298
-0.14499730770066388
-0.939640285427114
-0.2892711758078297
0.29712756559297504
-0.5843421517650099
-0.18715355840101178
0.517704904529793
-0.1224484650167178
0.39723413777705385
0.5536680942660381
0.40972862716163405
-0.6778851318457395
-0.9983107885188971
-0.6008792843101889
-0.661095157800724
-0.5601224746227738
0.46825270092668503
-0.034146572805399344
-0.5560412627694451
-0.9561323212815871
0.6019003938547112
-0.966366817768816
0.6739764751644965
-0.0037313239733725023
0.259826838219231
-0.327919763733157
0.3784028702341464
0.3532126110907461
0.3222951051475875
0.574804005904469
0.7615286350016326
0.8894948755017236
-0.6939917938177846
0.7330767251203514
-0.5924587728774899
0.7705614619125443
0.6058414098260471
-0.9803959687909949
-0.12630582375730826
-0.22640357001165157
-0.16123350079645848
0.4374625507925365
0.2975434517994153
-0.06839380874531886
0.481575747323386
-0.25692917303557605
0.5519735075048917
-0.7940501454774787
0.8025234931660048
-0.47600908515036
0.5203057910151643
-0.9505142736280856
-0.7514692425352361
-0.5742907881497279
-0.8273485553205839
-0.549346736352067
0.3333176944128948
0.8804456579115701
0.1074160914876372
0.18786441004218113
-0.9794672113409975
-0.928034366364975
-0.04286018348978038
0.2373660042587935
-0.4217582155164245
0.6313946783446462
-0.33337283961834374
0.28700995587184797
-0.39231894550211205
-0.8761849554968293
0.8727200979043823
-0.18153869321596683
0.035138972126465884
0.027758234475532717
-0.2408923395880076
0.046033978360656036
0.4217124024410084
0.42291701903424594
-0.4083310206718396
0.03757785921815637
0.025020562030859006
0.15046173434068777
0.3167935413481888
-0.6272318307226663
-0.06204626047366624
-0.8960830932911923
-0.9267268360717813
0.5598085838753049
-0.006101215287675155
0.18619120432638847
0.9353977220575904
0.2942925256869117
0.7989661243769206
-0.4243889590102578
-0.6350412315983518
-0.5806550382707185
0.9596920294915201
-0.3097064875474784
-0.5095033025211566
-0.6976049577677754
-0.07825048986217409
0.701927905622092
0.004313921457478775
0.3763651790422593
-0.5453178067741373
0.6700042337905724
-0.9870056839907047
0.11783220768377256
-0.5932903124255575
0.5775178174374964
-0.4765472324008633
0.22970497598008943
-0.6323672930598885
0.9930706270142888
-0.0719183374809036
-0.5787228715740076
-0.14896754932109513
-0.7701748995278688
0.1653711090350981
0.4429013115365581
-0.7688710504668128
-0.917408423155021
0.5534172460823641
-0.3195755134389773
0.946193266589131
0.8064965375819091
-0.9743522292659172
0.022194819578876368
0.3368564755273733
0.8413017907606308
0.5927262923332356
0.9468544643363372
-0.4363403839704063
-0.9183151744899596
-0.7094749916213186
-0.04433109175444816
-0.458770676516709
0.7626379582900862
0.6283135931833144
-0.42532879599412415
-0.8131347469484302
-0.11669009701337041
-0.2791560828664388
0.012444335216756475
0.5650741503048489
-0.25000719892124823
0.17344846733154773
-0.21058879735539926
-0.4387402280044863
0.008721273439614041
-0.4560724120205557
-0.6917139650416353
-0.8182426120577442
0.8040122757119621
0.5319089899392451
0.5910227230228857
-0.505950351873991
-0.7698393986706442
0.4602027640262547
0.255269575180743
-0.025973026072835914
0.5825854116701197
0.4096928841595327
-0.720635842483802
-0.8667902994406527
-0.27407587917803644
-0.26585471771309904
-0.9205982734179172
0.34850558976298585
-0.07934799694648298
-0.14468069065499356
0.024012015020892008
0.7822260869970005
0.41190929959061884
-0.8508268032826558
0.07831754027339888
-0.3070006591016785
0.1532681105286149
-0.10128718872312792
0.525669425533769
-0.5685882096069339
0.11485832841286348
-0.21951390391034464
-0.18448407632842698
0.5477412058080733
-0.8970410295827511
0.0027402393536926084
0.6984798914563772
0.19559263043878294
-0.3204438474880087
0.8254564171499881
-0.2324294451092639
0.805927711603531
-0.7517451023538169
-0.8986265723080369
-0.14242113876706797
0.39667229086864686
-0.49070699332793666
0.4188719240739254
-0.04574219938543078
-0.34386834133048394
-0.8122547580486543
0.8501837504978138
-0.8262962412970165
-0.04465438873760985
0.5402176863255002
-0.8019531303559841
0.253776741048938
0.5921223995858502
0.7056073130324287
-0.09038316601055452
-0.4877038284788592
-0.009642811454015021
0.9967731411661016
-0.4527490068493709
-0.3133201116314128
0.3110986129160729
-0.18789611665926742
-0.10631949849598588
-0.9283600013657651
-0.05300533775568006
-0.1871211894414393
-0.13354407239089783
0.06274185364758988
-0.1833089561378205
-0.1319301109408575
0.304848658468023
0.13512902358134227
-0.051561065662775185
-0.9413545946159876
-0.8482615954629373
0.6989351108933806
0.09076688759575902
-0.3979726729523849
-0.6223416531392463
-0.024931991958834887
0.9740039011568271
0.3517710217523902
0.4985943075125665
0.42503072437824785
0.3029865509168497
-0.31999177812219504
0.005459174917197052
-0.36216853525901993
-0.18392324649939873
-0.38572513719820156
0.023314885434283283
0.2202838018126224
0.27441034455595226
0.13529775180209458
0.4615597144568202
-0.2298238200118763
0.6408577003723177
-0.4779961038277352
-0.24167933915706974
0.16579986508628664
-0.3228067448834746
-0.9622566921382503
-0.8981796908605426
-0.32664077113153556
0.6358308076859986
0.6661664034207921
-0.7361296935620243
0.7821761549069621
-0.9228437443699911
0.0219457141423971
-0.9097889908016255
0.49400086759672135
-0.8477028459179161
0.6060371588787508
-0.34114078586180185
-0.9972755767640121
-0.42982326293989237
0.14520586926853518
0.7583352044427687
-0.9926367185395102
-0.7086198514685165
-0.4379790997367299
0.04528711449902234
-0.6737552216856426
-0.2844025898721745
0.49763120792939164
-0.21107987786446514
-0.4295446698063865
-0.1808501072175832
-0.30907415652651893
0.7902196121066509
0.38597835801532954
-0.8526440601436214
-0.7739723976357442
-0.6338466509144511
0.9612488718003875
-0.02393618610620063
0.35941949663430695
0.5875044380630461
-0.21771150437955145
0.7105804473564159
-0.1452133265865181
-0.1445248790828946
-0.9880354273674681
-0.36064001664155265
0.4087157103772332
-0.3589858685222569
-0.28945041976787267
-0.725443894690549
0.0610380590507007
0.9008429948905959
-0.8647007191020284
0.7927645624155248
0.7423478535805872
0.3725731401908756
0.17690393793809078
0.04976730524939077
0.9498027581640456
0.20089847816810313
-0.9210565392947916
0.7224438227979744
0.18561741980184787
-0.9271969334753307
0.40651321995967304
0.17088147693320188
-0.33643079789856123
0.6359934861135312
0.6309367639367081
0.336382172516982
-0.15694643534823727
-0.06983153169797918
-0.7525288164558703
0.46122249835985274
-0.04515921505478637
-0.5091765254378058
0.08011335769437733
-0.22265613802496187
0.36819372433537323
0.3277383914922649
0.4057334061530027
0.5218648625560163
-0.6066677581130215
0.8173995186172698
-0.12166604058552344
-0.13353122633327508
-0.47111619736537325
-0.6849823701143072
0.3858998941084133
-0.2884075480218333
-0.692124058082892
0.8099621761700762
0.7736427091502746
0.9815390361606833
-0.26098494895696556
0.7905684655167902
0.6961724077063773
0.6117436039675885
-0.9851674272711359
-0.8560838506689779
-0.3001768888422147
-0.6889645918970138
0.9735117885249849
0.19929794699818548
-0.6200749720984204
-0.5452116394092366
-0.2507430640848205
-0.34360932188511306
0.9000827104761426
-0.20969520719022272
-0.6388289666697309
-0.36637367403507737
-0.26450689885009226
-0.24632247104203353
0.6952011637667166
0.4474139487295794
0.07208823918787233
0.8689434220736159
0.8211345073659022
-0.624229524529134
0.7330593852187273
-0.670926930058297
0.018816719805462734
-0.1559609609273747
0.06961223795406624
0.6467888610569339
-0.7472454628611036
0.6238708318988755
0.6350000041275012
0.1856330116471474
0.4787427310865275
0.6390197833533267
0.42020908075936436
-0.5813613763706149
-0.493322482045925
-0.7536475801104694
-0.011204598308974134
-0.6989976593888341
0.31006797523422197
-0.6442077165396967
-0.6981426632285153
-0.39806468495716607
0.7818223340620001
-0.15162814573494
-0.984953768502836
-0.3896589753860975
-0.9058846467687414
-0.4684537873160959
-0.07006174685187072
-0.15303422883451226
0.692910160497072
0.4164104820289134
-0.7251627765417014
-0.46052357983853964
-0.24301586141203235
0.7650081941482885
-0.2930496670491467
0.8318006706426415
-0.3520704858658088
-0.204306978302925
-0.5595863123149505
-0.37901633058266704
0.15499878643238274
0.33557522988805255
0.8818670271295901
-0.21300995219357843
0.010288793812674557
0.8674903955374558
0.9663890628254626
-0.7387215297147525
0.7907688132613797
0.31121547728601384
-0.1699085396301907
0.5993719751157736
-0.8336632886562076
-0.41933970654450836
-0.26548848216692367
-0.5625693347923513
-0.9060583064655918
-0.29211168551141076
0.8376735566363795
0.9974566701240712
0.32135834360706617
-0.3203987875998697
0.8014733840689494
0.8963359028461952
-0.5820868140074738
-0.8378993252007003
0.5264866881218522
-0.8758047853184658
-0.6983284899195099
-0.8092685649045079
0.2847993079858917
0.34265568409206826
-0.8548068285428694
0.08620178318975379
0.3320265788198693
-0.1765561244679117
0.19805702119940571
-0.2951350677457554
-0.4129744903651631
0.31675160681953407
-0.13255103154249648
-0.7893392270242043
0.5907538486226698
0.3280290712271723
0.008505776116778385
-0.9535692232932829
-0.5024409331935995
-0.8452052579368621
-0.7673978851231806
0.8266029169806277
0.9616701963560885
-0.7312887479253576
0.30237196617901074
-0.08802940365036263
0.47411005750965485
0.8610480683977653
0.7079249361693116
-0.03451260566014214
-0.6970061453388317
-0.8434534486130263
0.8509973373546023
0.3971880062764852
-0.03270186842054401
0.5703181024028967
0.7168306877997523
-0.9358288824426952
0.7454779133646123
-0.4017472115712557
0.46537792823599067
-0.9671561591550715
-0.297224880420055
-0.6542774987934055
-0.7823377526990618
0.39277347157533193
0.4376474757017996
0.9077418606709353
0.3118696218455168
-0.18310961380986096
-0.8329531213987145
-0.06447315885899996
