0.4105306314950947
-0.29984839302308686
-0.9114747934998295
0.2774470322524005
0.5795440343495465
0.18544354779222116
-0.4655410752267639
-0.4775131911510444
-0.3219959848345839
0.46521879337987126
0.15659027534948278
-0.9911885489990873
-0.9824228374185873
-0.3142717243488815
0.39535357655195535
-0.8637645608760232
0.37675752091165693
-0.45494154470061643
0.7629891576903884
-0.9028324037066926
-0.7049887606844742
-0.5817374628227765
-0.7029041855828311
0.08799747975432126
-0.8148981428460296
-0.218668640000224
0.39468833901868017
-0.16003648577739304
0.12347224971994497
-0.28889326318371067
0.9572656957473997
0.1825014033653174
-0.40980899961799877
0.00428463951944158
-0.31987297242313617
-0.730303541441057
0.10840380093279967
-0.625546101107175
0.0019203112313763704
0.3313297983226109
0.0749276033399
0.9498125134079458
-0.7198758424707195
0.16606669171428956
-0.5216498388947013
-0.4863844205554284
0.6533869277744064
-0.19230404514524557
0.2897848952125299
0.13304819976282412
0.9489390962367219
0.2836639075845673
0.8539657463482451
-0.8282496202612633
0.30486805164015585
-0.5087296876301073
-0.8917072963008503
-0.709287276135147
-0.30212344651883916
0.7496002730928848
-0.1674468620420717
-0.7650141334541982
0.9476756400501583
0.539197001188386
-0.4675551945733407
-0.6967263766301885
-0.3130569172822053
0.8183924720170448
-0.7009656020190109
-0.9320816451901988
0.40402776802535834
-0.3055853244891322
-0.7059696875274022
0.9464574796554641
-0.031941454665466384
-0.30047326871736146
0.1941364078163217
0.705453977222791
-0.20834496359764798
0.17354790244452456
0.6213576525645872
-0.12222924392988821
0.7406146318381024
-0.5928394041203964
-0.3927182269919083
-0.052959085975565534
0.9726502576134934
0.321597829570629
-0.4654488440435889
0.9643090350644725
0.361239044051606
-0.3937184163525802
-0.887560622321153
0.6556803791115551
-0.24543134226147512
0.1108280854606496
0.37519290251921844
0.0662631248626595
-0.5533948227763736
0.9215109188416428
0.033204587570214716
0.5756569407752246
-0.02218641010779243
0.14668842950417016
-0.19163906604001535
0.8541122795552611
-0.42842636023260927
0.011092299526656468
0.45367758185789153
0.40190783405727304
-0.6265847857928277
0.1302382379463305
0.8803141447604901
-0.7015127636760858
0.06909087521354818
0.8998917433473383
0.8937769728828227
0.6569034307571031
-0.4270102869311432
-0.7477994636386291
0.9669552636000902
0.3543387471403139
-0.05643141320885592
-0.11868107688029794
0.43711167454742816
0.3730911205266805
0.530821066786485
-0.9670808602411092
-0.9267056390727011
0.08679434109058692
-0.017280142236142382
0.1929625765723697
-0.553497297036222
0.9827356357767243
-0.1976372075972863
-0.6500437479359222
0.5478532907401714
0.6623797773250326
0.3281868170196671
-0.26487527955100765
-0.3184050972914019
0.4366777097380874
0.16171041176593048
-0.02731464201330369
0.43680259400721666
0.4629770495572816
0.6480315557938521
-0.4335622420870697
0.48512463362866565
0.01693094801713202
0.8123897976634691
0.7596353580941944
0.02384311910291581
0.24380406559566614
-0.4979779351935132
0.8669119699034469
-0.534740837876355
-0.47621097023669035
0.9624758559586715
0.45552908174816253
-0.09226947401777652
-0.7172718482739879
0.7750822707001344
0.5903526444086404
0.9281105154271716
-0.8743292151169344
-0.29710543105262777
0.19896196873863836
0.48364421956092585
0.9390488838821012
-0.8756454274343641
0.002860595435038693
-0.5994106800972967
-0.38091525630971956
-0.8718557908145108
-0.9199122026888824
-0.36978090506564665
0.8471420974492152
0.2654555217113401
-0.7481597111153557
0.14182488133456506
0.38462052122544543
0.634167699431381
-0.5534802404667292
-0.4110183228107773
-0.23157864828224883
-0.5913305945142451
0.3439721821263835
0.25942966476853435
0.11303328666874335
0.1709001888322974
-0.7816885891243679
-0.7780144581267121
-0.8939872576548276
-0.8574175770058265
-0.9446132248353394
0.8036190611072738
0.5777621054431237
-0.23798228356681883
-0.31984496626639314
-0.24360128508669554
0.6930077087778268
0.23600595496311771
-0.31669549302420297
-0.221332118374725
-0.6508758462407249
0.9712949999334166
-0.2828299691984315
-0.17326408201196708
-0.544386106115835
0.6390122918476464
-0.8487450882848031
-0.9464869794258013
-0.5565776093409063
-0.4034509692497743
-0.43170355017155493
-0.48189524788294347
0.624967405359703
0.38881625537978626
-0.9875343936670635
0.06132746040927728
0.16608174517195895
-0.6375901635656942
-0.23123921253030422
-0.6574013627667117
-0.9782383370010215
-0.8913506188721114
0.2839076636009761
0.3117576620091955
0.08571573067705329
0.16759077548529278
0.4408018754236731
-0.008800105289363813
-0.6406582098472473
0.04787067159575353
0.5471339660680721
-0.8007668523674465
0.1303278443828113
0.7995941912957798
-0.31192599247432273
0.278020329255789
0.6996685976013282
0.30573651178783945
-0.905401862978348
-0.8008868164382705
0.9307286221794939
0.1177934732298942
0.2694119996322455
0.4221546408688519
-0.6007404983490254
0.5421235136712934
0.11193049044620196
-0.31397466400015417
0.23555547219055417
0.42642429646182367
-0.5482339697502661
0.8093392449425072
0.5422093191609002
-0.45705523494666944
0.14082212211385925
0.08164933915335948
0.403314954987845
-0.6599714561371766
0.9483052726348862
-0.13048206134766072
0.9354183390467559
0.7428180535002646
-0.006889366368404648
0.36541374145457883
0.4293327102776472
0.843852625071333
0.4883424057982976
-0.1849758167607496
0.686436194557347
0.08792075232110086
-0.3598168885975628
0.11487035606738094
0.563745522357683
-0.5478915190343092
0.5529483891011147
0.008415308191011883
-0.7689650345681591
-0.7847456097283336
-0.30781788819235345
-0.7222379344767886
0.3559157809685385
-0.4661525571861411
-0.20590863045803265
-0.7877144656686095
0.32199254474511196
0.41222301392190186
0.254415454568204
0.5580301553504903
0.9658886383851062
-0.3566878802775555
0.3709075011906433
0.6465422254103295
0.8824684132518483
-0.21581832883807395
0.49511492779541855
-0.5835767035055788
0.7640367546770492
-0.3559593244265158
0.23465550147083114
0.49141238298702583
0.9906952799242768
-0.7785556730004184
0.9117758108901952
0.9013757757747711
-0.5562465596914048
0.5425931800259645
-0.05185237824629163
0.40481304169874766
0.4661864234448325
-0.5315185131232203
-0.9321456915622501
-0.7883882806395537
0.42191384257977593
-0.45364355479132357
-0.44705945669535585
-0.6147766583220808
-0.11723587359097176
0.36976892949588813
-0.5098834886615335
0.8732377255717005
0.15411026971741437
0.4191168487592596
0.38764050583860143
-0.11549592819843113
-0.948396567508418
-0.701827066716892
0.9515847422119408
-0.6316668552399853
-0.02057041106757085
-0.07444073925882932
0.752550352023539
0.04522861009434953
0.5364018940434829
0.8890915307800165
-0.6975499476266436
-0.7709234695016038
-0.03919243958554541
0.34701389514829395
-0.7118726750431668
-0.38591614237709226
-0.3610069738350188
-0.2817024996024591
-0.8752531760012743
-0.17985874219231457
0.7072237425087431
-0.034280650079665076
0.5098297286186306
-0.867123167575145
0.4313377174569566
0.6270355784385635
0.8016566708075519
-0.2374008609329561
-0.008830283966887897
-0.04859417247990616
-0.8845416722995127
-0.9034265777487698
0.8062603912236579
0.8288218131879983
0.14512536969387546
-0.37195681249684065
-0.8063347747306115
0.1652735716503353
0.8130240636311219
0.5954907392037049
0.20816912158517953
-0.8213044768853359
0.5740138149722966
0.5716884888440819
-0.2544539788647633
0.1632076665778759
0.6911415681899928
0.6388232015378488
0.12583764287377086
0.13123023462791106
0.18055122531772527
0.5039509616794726
-0.48284316617357503
0.5359969879603745
0.0411682129634352
-0.5137508729061944
-0.2821925219868542
-0.9295940527412907
-0.6478188042254425
0.9387171180893019
0.13876934429474597
0.2246275638932267
-0.35633205269609314
-0.5951558933702021
0.8401092504283896
0.3632161925515658
0.2223737258062397
-0.23762616657177404
-0.8999510307564531
-0.6747098582069637
-0.7071341468279442
0.6405975077240407
-0.9405417900771915
0.458030423159572
0.2272703341372606
0.06125213666605389
-0.6920513346772879
-0.801986823727628
0.8338379761018286
-0.6618795206862578
0.4276544089915011
0.06788766587203465
0.5569374631158142
-0.6856518483080132
0.4961170859537367
0.37594996675851045
0.5157942864240779
-0.31056474354430486
-0.5026449581327626
-0.8398885154408275
-0.20176949799069188
-0.3406925481001515
0.38781580091563783
0.3042538159896051
-0.7018479702587652
-0.8489817577368874
0.10632837983162147
0.957319782055035
0.8250855625891353
0.941255162926544
-0.067377519523667
-0.5897741082390924
-0.40076237072631216
0.46559228911788875
-0.6333152491025216
0.6662469736591812
0.31185087750103446
0.5569646189059319
-0.8779263227204768
-0.12644568191965888
-0.9061814529393373
0.010338589016611444
0.07830471204870393
0.4141115698836567
-0.6401227721582208
0.8528940200972841
0.17498110129569144
0.5229086258778934
0.5768071267092618
0.0032778589941684366
0.6471626500490899
0.5070803823105559
-0.632318361599576
-0.3241414201513968
0.35902739010391715
0.25909475875604526
-0.19179380116408007
0.4001194787545681
-0.8236704881704171
-0.09994009290691563
0.624809950448632
0.9250098395278044
-0.519793609302942
0.8741425231325515
0.3188408452735305
-0.6163473217184423
-0.9987395812055218
0.44425026377228316
-0.28358298042700913
0.6707120676718594
-0.1242736400156581
-0.7788097693009857
-0.3106201763938736
-0.3443098021816784
-0.32546614124198925
0.2491589062262387
0.5227544176936656
-0.8061715345712754
0.5594323406796231
-0.937233563762272
0.40269573607536
0.8232319825492134
-0.11305350160261218
0.5974466811220798
0.17629759676707968
-0.4048749865135737
0.6011024643266869
-0.3244526264400456
0.8072463223874597
-0.7265103399459076
-0.5171307034347701
-0.1287722830360727
-0.7308134058447351
0.9234168639037423
0.215410180391563
0.06687382443253931
-0.8242103422502769
-0.09645579518809289
-0.8366623747125195
-0.4867459459775918
0.9622973508462145
-0.20581998311664584
0.16283981669384062
0.9914002211640371
-0.9834697669979833
0.5385633576590705
-0.42356994937511794
0.9693153857561179
-0.1752585332694514
-0.08730485820764988
-0.9334833603652879
-0.9154539433869369
0.8389122360650059
-0.9252283980945679
0.714757163338462
-0.5138023785481127
0.42818844439816717
0.7151171025184477
0.5753309207048833
0.03420141690526779
0.5965263354408066
-0.8695616899945182
-0.508251553316442
0.34576354572443657
-0.6270698867498454
-0.9372896271938027
-0.5002602212981557
0.1309341152237926
-0.07028054855723154
0.2045931982940068
-0.4232341815402356
0.27419867288581634
-0.009164076190225856
-0.18688210577308917
-0.2640623162064908
-0.01608849825059888
0.6504224622658705
-0.3345033173191996
-0.1375316456950766
0.6225146240188222
-0.19944481999134633
-0.25934710648300974
0.24538594191900054
0.724265476245078
-0.7966415235566233
-0.658863295276684
-0.7855160350197035
-0.8811366368626636
-0.49564546507603446
0.6156367866389503
-0.5471703936567152
0.6692721571315712
0.21399610780460177
0.8646884813674094
0.12093573734250485
0.4288054460680235
0.611502761239701
0.10472340970852145
0.5866001760619093
0.5927623425115214
-0.9467609117535276
0.9196642919583013
0.8550564265378899
-0.48462015227223554
-0.6244684907727145
0.5012448193284489
-0.42575353572057084
-0.04118209454856281
-0.06775494268380022
0.93079470586819
0.03548159301538778
-0.5803805311882064
-0.6096974642327422
-0.868717079052632
-0.7514838933114216
-0.9973080535901429
0.6701029127716327
-0.20571238496474797
0.12735620865302888
-0.9652926692572721
0.8028558963329997
-0.5624740649072977
0.6750483378152723
-0.2506811374184794
-0.7740647777177512
-0.9462372475281058
0.8522393630334417
0.54454124591345
0.9436342765718142
0.8218427197211204
0.7043098978733733
0.9507410314627398
-0.17368039985852501
0.4692849399302117
-0.840985898903823
0.125995301197374
0.8240098419326585
0.19467779763357718
-0.27716312194300086
-0.6736432649832487
0.5350938808000847
-0.7968753056697655
-0.8750865247045285
0.5404607056939632
-0.7757418673824492
0.4197725258054974
-0.812026548991369
-0.6379466902380553
0.6550415761212398
0.9045260110511952
0.8782248167792095
-0.6648791719967468
-0.6561553259745891
0.5130972700097345
0.6001545358526261
-0.5725139961780563
-0.08797079413559872
0.9721634719887495
0.5960772503834701
0.010804530488870201
0.33630626668343955
-0.5484799914441012
0.06785870726340582
0.7281346051451532
0.29128298657880847
-0.9667353959384803
0.7320793985879326
-0.7998842416273104
-0.9232107171478652
-0.7401897645156688
-0.005454088685352243
-0.6217949264770288
0.8669659407511057
0.8708313143061959
0.45392561217208716
0.2930829379152087
0.5794972497292128
0.0027547548355262297
0.595247950845831
0.3928152597499015
-0.5303592308462102
-0.5703816135258506
-0.06747187952372569
0.48079560464557947
0.619136658950785
-0.344932391091221
-0.250690814912643
-0.6239933896763921
0.29559412404071916
0.33037580058977745
0.8624588602155043
0.7804683407390038
-0.279623345029655
-0.11182680055872996
-0.8047677619581564
-0.38915744040370304
-0.0003702760677577466
-0.9325061764149436
-0.4361478158023948
-0.18324732178202252
-0.5790058206678106
-0.4985385488222758
0.8365224427698075
0.30217445496199224
-0.7718245628993394
0.6369969525728298
-0.1075105556254643
0.4341934484457306
-0.8511864253499808
-0.18263218539755366
0.30727343689387787
0.11684886180710286
0.8743796748636596
0.5893612130003121
0.5066649380002977
-0.11450960403618304
-0.15247818092649146
-0.7408234292062035
0.5701057704802983
-0.47080772735551313
-0.23794477376889533
0.7051362102208902
0.5535034627703743
0.5790355361600188
-0.16160353689611373
-0.6925129681106579
0.44967191071607626
-0.339998964929799
-0.10220844790282602
-0.8668833297429632
-0.978460118242314
-0.47559718400166107
-0.03051928450828645
-0.7457653320816222
-0.22412923665265438
-0.21198949040325976
-0.43683692254465334
0.9066772541212864
0.8437307734050987
-0.1112080374353348
0.9850036922278169
-0.9700122013071357
0.6786808861056817
0.9440295876274765
0.49321415016061043
-0.16706371121412933
0.2818616265601712
0.0031900348767499587
0.27842183963369527
-0.6453322686487006
0.8197587091354223
-0.8865461932942336
0.08291190626198097
0.1743689308554479
-0.02185184271159235
-0.20992861211174318
0.37706586218121085
-0.7938028384974258
0.9319037354484965
0.8616574570280666
0.5528041747258736
-0.7038814111942953
-0.10079257603202407
-0.3492318451190768
-0.3965137659485396
-0.39490178777160523
0.8268417891991553
-0.16746256717833408
0.20794095281572678
0.3673204528759453
-0.8486715598399894
0.6139764154548755
0.6327790965183193
0.8403449105036178
0.7487397561041664
0.5291954548592802
0.37066237383610745
-0.7156687168317415
0.16285427789510853
0.8407635142833263
-0.05345728854747733
0.6585088897803519
0.34476324922382506
0.4536501949360996
-0.8947466981096228
-0.7403229440227106
-0.8200324295355552
0.6327984123381465
-0.23666245766681615
0.32000345676501274
-0.8803318523887953
-0.5428200037939945
-0.06291925887992567
0.041694212712746204
0.039407706227210015
0.7004527148496782
-0.6150478760251019
-0.6833046787945845
0.09766725641069063
-0.3515117882712875
0.8115209078663439
-0.30839870170822037
0.7164692759881002
0.16202306216032802
-0.5940878153675873
-0.6478155386658639
-0.39927878647176085
0.13458108983216266
0.3725360783774523
-0.29197144730358593
-0.11578486700723611
0.16940744096083327
0.43810633146278755
0.7743269903509571
-0.6784946426949332
-0.4552062182566943
-0.3909356851660366
0.3158254214022651
0.6634235380588023
-0.052684024695543785
-0.5500316730558183
-0.013977124573446575
-0.44311029826468706
-0.08436945076343139
0.9143382303767984
0.3746618870608507
-0.9419849726269092
0.01249507094007063
-0.9419299556031626
0.4912730729249719
-0.27464933363656985
0.4570562307159387
-0.11883675806478533
-0.2788087637978527
-0.6209812983448173
0.3245103988912845
-0.907607947035852
0.10484073665720839
0.23177363429850317
0.9802069205943118
-0.1835094214639219
-0.8487303119602498
-0.15479572207877235
-0.890798779633514
0.8978253718637426
0.7217039788236332
0.09647012125866472
0.020952870185946715
-0.45143749862161076
0.302093088609765
-0.29641951567157676
0.4041868443768881
-0.21405582532207523
0.3232924418953338
-0.49459735510347014
0.06962680956269796
0.2725909782462643
-0.8249598970285887
-0.874920294318317
-0.06927500279421595
-0.8729651904236149
-0.9507341357662806
0.9152065978123856
0.9138772257906962
0.1268386688783012
0.1040738203891487
0.7174674683825428
-0.8410227842060669
-0.7811428193243155
-0.4908964915161438
-0.624089160607342
0.5948829680725531
-0.4421189866896249
0.3020732723544741
-0.3101013513298849
0.9388413248255578
-0.5136683163717346
0.44432510790556257
0.8134370662051313
-0.6955124353664037
0.4494608413919998
0.41024488956036365
0.3127969516234341
-0.6365244182727399
-0.780780606973877
-0.13942019244424864
0.7288615387945805
0.9500786503658518
-0.09199980788870943
0.9968665390669609
-0.2808674739486363
0.8153354064485685
0.5735537167747804
0.7388465856566393
0.39852997103541066
-0.5750522256886172
0.3253204472694995
-0.04866562785211426
-0.9458218747195815
0.896210020432436
0.7059864066268822
-0.5308207959710496
0.19825276349101628
-0.664068486011453
-0.16365475017615005
0.9155188024981038
0.38695884253959223
-0.8002283469289901
-0.2682591452306873
-0.8949770556564964
-0.5815485306149082
0.47240666136549336
-0.8482810460051009
0.8798002010414443
-0.9917230943511712
0.3912017603318769
0.35746714762817056
0.22458166809332059
0.6223294513784079
0.6235211222519923
0.21576133247301832
0.6956910126668423
0.5648960313100873
-0.9070548049636238
0.471167042559816
0.12275306059650348
-0.9676231795472334
0.19534782511678506
-0.5592273038731024
0.49164389369107253
0.2558652264721346
-0.4032880529992522
-0.8117028545637148
-0.5262788831899461
0.24613190113539574
-0.4476327388288839
0.9164837843304707
0.6337386892098495
0.4275962995872302
0.5519712319531509
0.490379775627495
-0.5350885841794957
0.6341907062549843
-0.6720996303077558
-0.46622954751572543
-0.5745768587606659
0.2114303940071336
-0.26451860797491844
0.8407907656003779
0.8555882341189212
-0.7781621013108384
-0.5785209790912329
-0.2977319078990506
-0.8009075493731779
0.834587965538111
-0.015632498723461064
0.3167649865451483
0.7117596637236532
0.843013349349073
0.9647009810874261
0.7851768714846528
0.4683498876008003
-0.6876352337759124
0.007861975918484587
-0.004328920087027344
-0.5114343718602339
-0.9695484139023491
-0.9129154215344859
0.6170246941008617
-0.8247161533101295
-0.9260978335767702
-0.28605034149034503
-0.8295203772786832
-0.5704052010531007
0.6167841169907573
-0.6266342229037354
-0.9238346435590505
0.16617913484180957
0.1572849830640668
0.7175502926870314
-0.9637817026357833
0.7992792745862729
-0.07302993796309942
0.7150948015448544
-0.29920793971783355
-0.4020843125452216
0.49393104960750067
-0.7731939343920788
0.8761258408848933
-0.723615595324981
0.843726088379144
0.808982580757446
0.7489502727232906
-0.3139594598879518
0.20560385379845636
-0.8607972071094416
-0.8369027868432346
-0.12385792728103495
-0.5037575466068982
0.40782402085812164
0.6487243412565449
0.002459790158158226
0.10790549597476407
-0.1418465047431614
0.9937265072252917
-0.6578736305030821
0.36720228291423074
-0.8453201649205746
0.1960965019915617
0.6836588751031685
-0.2040415216481073
-0.6988439621707601
0.6739589160885879
-0.6947813860777359
-0.6920057135187296
0.10851848435059863
0.46570925508934
-0.24946323365958323
-0.08199773063716842
-0.8023951287246449
0.9855511150001679
0.6352669110639846
0.7226086072443199
-0.7594518333759868
0.4537837403857936
-0.9968082023260985
0.6575338611592136
0.9935453071719764
-0.1708694240148687
0.5663884361395031
-0.08045479211320594
0.5292431532362047
0.3337224778545045
-0.48563129641078184
0.7939885977576817
-0.6427877450938886
-0.2828825826206469
-0.2608097571091552
-0.08166127851496618
0.32750049646639834
-0.9652570136022067
0.2731818128075856
0.40745296434657674
-0.5220409766172533
-0.15733620406906335
0.051239367129499946
0.4175374636840794
0.4933079491594856
0.3882361194651929
0.8867541782543789
-0.034245011223352106
0.22545958091906648
-0.9754990298371498
-0.8836140562137149
0.225427750138683
0.658989430384759
-0.25574911341812334
0.6737029113545929
0.06520961334417885
0.9437257366443279
0.2111322344739306
0.5034941582444954
0.778694958870962
0.684314693294561
-0.5317295301358189
0.36787497531837343
0.55319082293686
-0.6005238952726508
-0.1565958789999351
-0.6232566711916321
0.15779881477140045
-0.9021645049045497
-0.3820959846659089
-0.7479402428278212
0.7028270068876437
-0.8489700634156905
0.4447609383771214
-0.8916949829539047
-0.5465515729338188
0.976978816812647
-0.42250802942960175
0.42762305875795503
-0.6615884823259326
0.2656670769284084
-0.563725669414489
0.7033675645130417
0.7690291687979522
0.2467755904214306
0.821317332681978
-0.303655139382462
-0.5240259031393046
-0.24693940458116104
-0.26343903335494256
-0.3247493152135994
-0.6656435802290384
0.6016765822953656
0.9124206055227686
-0.5324635037586514
0.1937498339316841
-0.6529619959335473
-0.2942765552730391
-0.9222049724018015
-0.6301695274492447
0.3628699464615266
0.9271503411561965
-0.9111359561252332
-0.3330914964070373
0.5968125446454071
-0.27643400436772114
-0.1891074653226792
0.9635548586292424
-0.15323605216068326
-0.11653450498938822
-0.4781438642374769
0.7132126689769596
-0.5738438231212595
0.9226762924427483
-0.7230432072622239
0.626878929361933
0.30286884248717305
0.2198344833051038
-0.045343260914223915
-0.7878355213558392
0.6097255572470996
-0.9906071845840347
0.664134746142848
0.1768968990619748
-0.028822677083852444
-0.11072191683430388
0.36307135902160037
-0.10105740463426094
-0.3312108206607476
-0.40365502367547723
-0.8853721971802462
-0.9295699665127826
-0.30121914189361654
0.6555711489733673
0.8035505623325236
0.5091355362454655
-0.9418984256563179
-0.726427297239987
0.1535145153058437
-0.4059791192419273
-0.6010876915468755
-0.7729860753378184
-0.3851163732980263
-0.3319612869133062
0.7692251175863924
0.2220500597182291
0.6172077349503193
-0.7271313466953211
-0.6513125966888567
0.7232029537701343
-0.059028044195986284
0.6260236871952451
0.05519387710873391
0.14507873460923282
0.625681972769841
-0.7136383218648159
-0.16071514765823003
0.5483575633370943
0.29666877519074997
0.07601154412640643
0.6856573030625555
-0.13561919630457542
-0.18244790289129398
-0.9752942952341033
-0.13196851763069262
-0.09583440667524812
0.9983851903910161
-0.5333938495395247
0.8732954705016971
0.8085044325602553
0.3912867210602391
-0.6203690434419438
0.6529874194659495
0.9691780224382218
-0.4389531790251493
0.4402764231203564
-0.7798325772820998
0.9029713749570554
-0.11328117316426134
0.08130997177737598
-0.7332115764557898
-0.9585693521109142
-0.37070247077084595
0.8668468992225051
-0.6729424582107748
0.6847518600592699
0.21374062446769293
0.990514188076532
0.7560895885313688
0.4295616357663443
-0.4854714674467613
0.9129626463423048
0.3846763874246708
0.34636518786261794
-0.4554558206435373
0.3536376989566965
-0.27071440469903196
0.2768996037201168
-0.21232015832863937
-0.25627424616696803
0.0031800341908294616
-0.3874382774082994
0.007557898926935591
-0.6155156939073596
-0.6565840293489977
-0.757738577640918
-0.20264754055021217
0.019381810113845654
-0.8770580014751939
-0.08438664727297063
-0.5150527587621239
-0.17815592835654237
-0.24180364230360185
-0.19654341930520403
-0.048335675001596856
-0.3783271954484573
0.8255559997699551
-0.6303966875683544
0.5473970206350065
0.24875156125682962
0.5434532185640504
0.9569849423349197
0.3872456027319464
-0.3408348780594761
0.9716383871819791
0.92307635309684
0.4317562936708148
-0.24470236634234488
0.9882369797246204
0.45333591983841726
-0.7417992103019309
0.9099584182594074
0.6764394299468341
0.3431777588346341
0.5682584239953425
0.14492593455675773
0.7674219064995276
-0.7235370960715399
-0.9583058305562013
0.9769097918509846
0.8836520014497942
0.6670284541592991
-0.7107320949148548
0.7123319675070983
0.08874314191015165
-0.7545350153422408
0.8209895448066671
-0.7104687265183189
0.5376654094032713
0.40030072738197386
-0.5031331474878462
0.9676706678797931
-0.051421913751193316
0.9929006627823305
-0.6140569689619324
0.8310951710971586
-0.41006442351831085
0.507300106521799
0.3530509371079542
0.8678302348404427
0.7552184221641411
-0.7811251980462313
0.3346958521523262
0.3009505478670109
-0.5580293499268647
-0.678979463199801
-0.2699874816757557
0.7223061579543002
-0.7952934639140476
0.6524700104682728
-0.3451965247361446
0.8331496346274003
0.3332188282446604
0.4620197828350432
-0.8501711077825787
-0.5627553318413603
-0.7849332447174329
0.7535948988452796
-0.9607809586433873
0.06524254194639889
0.5554372472234967
0.8631952934168894
0.5206945328105894
0.8261087894618429
0.5314320046161807
0.7418618957898151
-0.14450658759310464
-0.5291398289560372
0.6709270228587914
-0.441545039540141
-0.5569554444871228
-0.5261336571412012
0.10319898299971486
-0.20443898237544667
0.528925385919953
0.7937444504591862
-0.5051646145557163
0.8245186853576212
-0.5733939606407512
-0.442195837706713
0.8296122651612228
-0.14829201490575095
0.7037678319706604
-0.7199394541839395
-0.8009083540059974
0.8255105670247131
0.6048274079613851
-0.38994590054320244
0.5023547221448945
0.16769659477507104
-0.3763877327228875
-0.8445299244946234
0.4319588357393289
-0.037540571951849344
-0.6394533327439575
0.2285399904815819
-0.9000912853937915
-0.37098127913417933
0.6160829443632274
0.3763162914660849
-0.4461023311543353
0.03589247990811972
0.16585453724889043
-0.34289440900836876
0.47654902948769373
0.3296283896236123
-0.6126504074745758
0.9883018716963216
-0.5324025128356229
-0.530743409682986
-0.4047154256303347
0.16278217043100418
0.6652668923401945
-0.8166851577110152
-0.2640249648658699
0.6715814449914959
-0.6611388762592929
-0.7884997400042666
-0.0923717878050534
0.8482274583218459
-0.660107278303478
-0.2044055788880983
0.5834930366044377
0.6250573693328365
-0.16734050801557498
-0.6347939149250994
-0.07104142605357122
0.10122995618114627
0.17439807419260767
-0.6705939387592037
0.8777740963155801
-0.04181854543931651
-0.3508140648049274
0.5799811768127245
0.19265252850081782
0.8582640423627412
-0.858288114935406
-0.1370275699235204
0.7616718604428712
0.05651631352947639
0.12475547230931183
0.07884951473357904
0.9030287827389192
-0.7298584470985514
-0.5790684536225807
0.749056203177441
-0.2925667267072709
0.9531150721681305
0.8279683130002533
-0.7945074528351141
-0.17376185362342333
-0.7543392868119405
-0.8959122216903597
0.4256744738148237
0.889967950388308
-0.4588613538278399
0.5112408812651019
-0.5696657313256224
-0.2750169901800701
0.28348786532012804
0.06264191534105601
-0.778553444635379
-0.18524465245556931
-0.7803329126185294
0.6190982653711234
0.1458733833260859
0.9064669715750331
0.7010573763591501
0.8653046368851411
-0.1712925971307826
0.22496927411946
-0.8459264604101111
-0.4068794294503808
-0.8657620909933466
-0.7175210483477423
0.09915116011032687
0.3542693575520628
0.30163927316393013
-0.20462482063810072
0.5309499333823138
0.5644889687817465
-0.5794749137397666
0.25063877482769525
0.9161361226463152
0.18669559278385672
-0.14065260258557588
0.08409332770387312
-0.8809467890542257
-0.5785333316633086
0.9984788104173684
-0.2788199869029966
0.6710519998775353
0.8876582610826493
-0.4499145041825341
0.19586778329238586
-0.5967586870089614
-0.8510762531302862
0.978127351531836
-0.5564392953632638
-0.16985829599027435
0.0783330480222375
0.23445263255250093
0.058973498811710545
0.3411936251832104
0.7549188924268231
-0.017308756055835595
0.12267380902571223
0.6397856568091684
0.674441951795433
0.2690417127985185
0.7228389434276405
-0.64949191851063
-0.47462867346784665
-0.8200242200809085
0.16215700548653023
0.18689998573482725
-0.9431211046900234
-0.8755115693563258
0.3618153295345825
0.4847243330737474
-0.9105067510878317
0.12042302709502106
0.865457956372891
0.04446286910709696
0.5744644865039725
0.29359096794655914
-0.4916390719713901
0.8600574982113274
-0.29857490165216616
-0.869055198487845
-0.03528686370660594
0.6978514669959905
-0.985964555160785
-0.1394213323838851
0.025473801847335054
0.6486374226754532
-0.13889257795382326
-0.19674876792658158
0.17826669242091908
0.13904204107123497
0.8623142048814962
0.24453399235823192
0.3300085346540149
-0.11070100008379424
0.253516211616039
0.13325498604034558
0.009246524012507695
-0.5055074426616422
0.8027044791047362
-0.6632996995952192
-0.6154431140553867
-0.9707089659004706
-0.6315803695651205
-0.12831813363785094
-0.5058746332353083
-0.798857278222791
-0.5441222493843607
-0.6933383535418565
-0.017180811257700768
-0.35365300767499863
-0.9646967416444336
0.3205431314338658
-0.9266761236504455
-0.9968854256131818
-0.6657327300511873
-0.03978954091709297
-0.9961219278520799
0.3372303969248944
-0.5571762125890112
0.14115727738238215
0.2914630920061212
-0.4772812180372368
0.36503953461996563
-0.7257824330894833
-0.9027654919710779
0.1270156803999738
0.03802448164190797
0.8907957858816984
-0.9010429975126233
0.697815122849549
-0.025694603107763836
0.6350841237992189
0.6607049047840232
-0.555455447715518
0.7942381805135825
0.13679384556736562
0.08761427632031626
0.209255707461248
0.08085007137015254
0.22226900316398335
0.3388716137545189
-0.740787570478711
-0.0013883920249451176
-0.5671213843535379
-0.5670341224005917
0.036966871297102744
0.07343780134405242
0.19898188507910697
-0.2593420434989564
0.4537617358898429
-0.24694525482730212
-0.041277618470317856
-0.5632075257214972
0.7164670288194519
0.2142666173155512
0.1124217558448124
-0.8320268703566134
0.48822804743976955
0.11334602829548701
0.55781964854495
0.3991639704213068
-0.1630989412117203
-0.1108245590498409
-0.44538594711649204
-0.9059992256443581
-0.29339902808401397
0.032747923347598684
0.3339833110707582
-0.4310142178114216
-0.37987519417124505
0.564163408272585
-0.058440963548368474
-0.9030520560398234
-0.48413252225965087
0.6640039114906501
-0.1282315433114687
0.5054597705438801
-0.48390514796539685
0.8661780382880413
-0.09703278632051449
0.8152606674918252
-0.4828221525900225
0.8828161661400791
0.08430311784615863
0.7915844467699584
-0.32732825041242686
0.6360995336458093
-0.36964625709882726
-0.31634004400161087
-0.8113293852887897
0.41778855829682193
0.4997411071157629
-0.5151724511569031
-0.05295823126402888
0.3533436775310099
-0.8445915546097897
0.3969586881918339
-0.10923476212581029
0.005204143680214823
-0.8988928318432186
0.17438007381500387
-0.9803515249261663
-0.798576849043491
-0.2610158791168402
0.9295830712058424
0.8193844591332142
0.5684388454039733
0.32753630468367323
0.43279398018748316
-0.1982393304479806
0.12746709296013026
-0.2143795183624635
-0.1722350851956107
-0.12539841345644787
0.8757681233198837
-0.7260367088120325
0.9176720232606137
0.03197726364474951
-0.9860259482146605
-0.3061977806063507
-0.11436017797049502
-0.6916984534847108
-0.7278005973852824
0.10288605527315453
-0.9259309935712801
0.7961264698117732
0.15011399755319532
0.8450151536128612
0.6964079812216072
-0.7230674232995358
-0.6294325112491701
-0.12468391090246067
0.5817824569755945
-0.1739091489753679
0.8054984521159321
-0.07093187275560942
-0.9969012400131514
-0.18004073882860983
0.7184228935428063
-0.6399505574317093
-0.3194923879542917
-0.6303771075098057
0.7517906237542678
0.5389364006698387
0.6657533271154714
-0.11014743058039489
0.07553858858415452
0.4700792897083299
0.9560538193413077
-0.6928287064591387
-0.03576320740618355
0.8370342752314563
0.6242685516375619
-0.18563761151818703
0.7835336135476274
-0.9812122402975672
-0.17729114812257496
-0.36492017903706886
0.3233641062852548
-0.3919637896109307
0.08253321868239483
-0.49815277881440334
-0.37411325308974597
-0.645266589449182
0.030658731213312862
0.5907565505775898
-0.24838494676226563
-0.7827453308868686
0.3878928340156469
0.9753008126141129
0.31888620434446824
0.7160571930037074
0.6332261764681961
-0.23098795730238808
0.4138415337111947
0.43383198039446214
-0.3732401008944253
-0.5267563536672499
-0.37135582190734806
0.7667385294913549
0.8444060766246593
0.12064898703444382
-0.181696391836089
0.7097736840893683
0.09543545148906607
-0.5571788548319694
0.013976164773809696
0.22377086744669406
0.36909039003791877
0.7046247885333641
0.250954571015892
-0.910852764420685
-0.12296444291663478
0.9808721040534671
-0.5149256196495591
-0.8770678005636292
-0.004575228602271109
0.903370208987635
0.9185205963486727
-0.7869906307835859
-0.593971682502364
0.8200696406072816
-0.24419376412007177
0.7161922566178944
-0.38528714997976965
-0.367413109689779
-0.17310827579996424
0.2299704604770274
0.2865850569491306
-0.9331762768426703
0.10719611318026057
0.5767986654918587
0.29199894354904266
-0.5052537391923793
0.8463761452064256
0.4401314202056741
0.5516904180443112
0.392737621894923
0.17030633385130112
0.3345548796222302
0.9413307986699098
0.6245620888266776
0.9019809693225449
0.8339500387363679
-0.31943278977041545
0.0073930212003876505
-0.9960575394439544
-0.46556949423853955
0.20602427962820902
-0.2518642468616388
-0.46877201368284127
0.1232289361952128
-0.9105544176868043
0.5437938209991884
-0.012909525107474007
0.4115281712657086
-0.12082878758751536
-0.28138870842849695
0.711072123439249
-0.44502165531786164
-0.15750423996291052
0.617167213638834
0.6429918592714094
-0.6861271216912335
0.3100224784112322
0.22882759756957705
0.2321876407731469
-0.7580266335751304
-0.7576719042377971
-0.33345096856445955
-0.9663364402593222
0.5874603706707031
0.4288806592996015
-0.13749251293582088
0.9459198086285259
0.025305698642945185
0.5166390058734658
-0.8327005278238702
-0.09008077202248255
0.5568731338497406
0.029132757956803035
0.6823456789069178
0.42918096447251286
-0.790624050447742
0.8542778532112767
0.05039933044057121
0.015586161315551239
0.13317519912448916
-0.6181529236052399
-0.6220036566148643
0.8188533599933636
-0.8047935148723473
-0.7527947345193828
-0.9906046348650681
0.38386243034080336
0.5232367597398644
0.03757439981616284
0.04333796866615014
0.9937164804884547
-0.33577770854253064
0.0021711699211059976
0.2470147710310865
-0.1582493442824422
-0.3195854590927991
0.36185693777411143
-0.35576844658329865
0.13943844374546632
-0.23638364869521356
0.576440560860608
0.9806962466675753
0.9548051067768941
-0.4329720805487238
-0.5690219017757681
-0.7259034190151072
0.9910656004874827
0.7864835489150674
-0.07773517732804414
0.6127182069057466
-0.2922611703831437
0.4375859304461578
-0.5277926444517314
-0.5257643145952438
-0.21443289377080177
0.04247387371405553
-0.6876316914481484
-0.7358248793367554
-0.2650288458617953
0.6570348578078851
-0.9358466359674833
0.03682720024164099
0.48487232309592443
0.05721355097325742
0.4922102286230021
-0.20544976378193747
0.9923906098726099
-0.38432410260924565
0.8135775314783573
-0.48897784130142474
0.6091677919101386
0.11458695960791587
-0.8917689601503727
0.2096974023498337
0.9467805414234911
0.9759910411366781
0.5638151525117701
0.3322743233226948
-0.15135220411247619
-0.7736608305309898
-0.4260027541944158
-0.019150988255638657
0.05040781963905627
0.6103530098802223
0.7122777639165727
0.6444207970389058
0.40946047997606705
-0.696144662585984
0.11182958338545745
0.8177839648419036
-0.1611068972467269
0.7970201313431069
-0.0861487610298799
0.28717382963427607
0.003648064437344223
0.1658789428518339
-0.4859920685998085
0.28372153781408427
-0.3431355199878716
0.4095843478869783
0.008876743417890243
-0.5612456650219182
-0.86717215809093
-0.2811384675321351
-0.14520270037227223
0.5495653499976145
-0.8939076403190163
-0.6502023452488237
-0.6305580995093334
-0.00965210108092518
0.6786380268393595
-0.4027508101973136
0.2325374879984512
0.0015191026941032693
0.6974011328762726
0.1584936609985772
0.9208519308749967
-0.9935163213528135
0.7639165990019383
-0.23172930594594154
-0.0645502683089283
-0.5882766132231367
-0.39030823692649363
0.06143930999402758
0.4444813659744442
-0.9451599568712366
0.17439874958469592
0.5050922525049397
-0.9989733681724444
0.19841686631327926
0.6344961413929049
-0.0006570099730944801
-0.07294962365695445
0.11507123788874574
0.993423615998337
-0.7901893601262084
0.30536742611144896
-0.16893702197425786
0.654094564742121
-0.8637707149818277
-0.6542766353626752
0.5360179729255228
-0.16604483096118705
-0.034878467811015
0.8574283948712831
0.6275550256220443
0.041384044206697945
-0.19815725878556978
0.6856917776092923
-0.49362292613654146
-0.4698307276603839
0.01894254670513429
0.8374821880853554
-0.4363387164371888
-0.6327988944614307
0.6028171820436554
0.15784795090735348
0.26027576026354393
-0.14680303976794185
-0.2750174162482293
-0.9845199955891517
0.15927020535677028
0.129092480023709
-0.46404299956327244
-0.23152091913968564
0.4021192851946118
0.1411802425155233
0.766932119771162
-0.6425316751463626
-0.06952167394753483
0.606906143362772
-0.41125134190082036
0.5059099334757406
-0.36964720622741076
0.3930405762881628
0.6994776094394026
-0.05418735094939109
0.20715583778417157
-0.31738521046329304
-0.5435448099737146
-0.5027462918894114
-0.635188653266344
-0.7005866826708842
0.4924993667716573
-0.5095274101214875
-0.33437679197579717
0.030325379978773936
0.46989647360243003
-0.07457030216496263
-0.6146115760067892
-0.6227127367945833
-0.9131068711961268
-0.6088800024252525
-0.027849006878926108
0.73134778472843
0.5507585348838284
0.2884760651455751
-0.3273310599543473
-0.1943353504077554
-0.09244524343562577
0.10037262047974149
0.2513638570490555
0.8071435466426706
-0.19716728266203787
0.3718930916724881
-0.2651211581790063
0.46221812059175993
0.09395576934243244
0.4439717320556624
-0.047326516132051744
-0.9577772895981869
-0.5655591373086675
0.5211002395152895
-0.9376979182439122
0.508897600816179
0.3581351226680981
-0.8028069600670036
-0.13366496789228344
-0.3941050616217885
-0.2880059415074767
-0.08990483820681727
0.5732726295428134
-0.8827227858496085
0.4320368718450054
-0.5710861854954505
-0.8825655959290917
-0.13288544374228906
0.7107543894200774
0.30955057698232813
0.8015203439963069
-0.07044332378683782
0.4211659216530943
0.3697412526769077
-0.6246547459192833
-0.5808981622444778
0.141085522508416
0.8907055821217258
0.23371993259822066
0.3195364796547091
0.33493415883892275
-0.1634057938179354
0.9593806109702876
-0.48984652951439145
-0.47893169326307605
-0.7912605070900731
0.4754721824242205
0.9146503182796795
0.3316418346171477
-0.8892066211461205
-0.10001947169023251
0.7856796503311683
-0.1764291420906754
-0.2650856317280441
0.6881820422644369
-0.10897222269630502
-0.7817175570774435
0.2460240552087476
0.14479182002271673
0.34619099783216156
-0.07797064413674581
-0.7336687938556614
-0.7531605176574758
-0.8211017650483994
0.626638659987004
-0.8737591920617895
-0.3308678791960884
-0.07786476808535614
0.24530000495963922
-0.4742402934608583
0.8407209586357236
0.4694221681121574
-0.7522509574597291
0.5517106407580332
-0.7023629114049534
0.6205598768334293
-0.7678495115296602
0.1838422685334673
0.05046937378377736
0.41672746268463645
-0.7244684650684525
-0.24422604771364997
0.782119618744894
0.4047675690761412
-0.5754883569598004
-0.8462474130356743
-0.9945771558739125
0.7032997732597404
-0.509992202481339
0.8805090702860818
0.4228039477674481
-0.38499749913947023
0.9747383352654517
0.6242366346356978
0.5585223918620046
-0.34099972317135974
0.48241859023613465
-0.05969469747239842
-0.5954087803664805
0.3353753324401705
-0.36773814153982953
-0.7753303540392815
-0.6642127872412988
0.49967285805895845
-0.36658991389043405
0.1789602020143921
-0.32692819302321197
-0.02327203379448961
0.9322280242231726
-0.40268820203365285
-0.006213525454269231
0.10024292659723222
0.34838892465050253
-0.8135615271309371
0.6072524796563001
0.11240477031490248
0.17939797966738702
-0.824775879388763
-0.926175922207942
-0.05756041333071926
0.007825032715179203
-0.6163211279491807
0.3484974108497372
0.7126568335097857
-0.2621142168940045
0.28559942427172236
-0.6919730587088824
-0.085478082413458
-0.2776265128193809
-0.7263084368759942
0.35701686168077207
-0.9734650828343134
-0.04238069589413973
-0.18488759113556164
0.24839450186147405
-0.19415754897410475
0.7375114035242651
0.3655296961452452
0.48329528521030385
-0.43226528879144444
0.11610850439292664
-0.08572845814375096
-0.5869129503089059
0.6674845667028269
0.6050327224512053
-0.5301355766574856
0.8067345018279686
-0.6112539476084264
0.22244498272375668
0.36178570381445874
-0.42858490284140904
0.6561434277599822
-0.6703582850663186
0.2993941000609419
0.4647319966840078
0.8421939274541108
-0.05501919802320843
-0.8498304778164221
-0.7304680988299657
-0.5674226408576297
-0.2683529969816336
0.4910266126734313
0.16288389966824446
0.4279718903723101
0.18406437274646725
0.46172199492677857
-0.44554890847211803
-0.4069477718328469
-0.5369799218429538
0.1353277726226494
-0.11591380722214306
-0.6008937319738026
-0.9445608001826653
0.3655940980436774
-0.17434078341373005
0.7375868620759203
0.24152069401038867
-0.7772789925349719
0.3990935674109479
-0.12624324174934887
0.6061860658059732
-0.7232871679205077
0.4680540417531638
0.6713693918427523
0.14581984893863686
-0.8500884400753785
0.45319159822133703
-0.5974125989611283
-0.25582716054191246
0.23356060297063763
0.326844081080097
-0.0074714464050236185
-0.507657768113112
0.0266832069394638
-0.8281090737906425
-0.8941818002940376
0.30180382083037904
0.07134826442829012
0.6498114063324882
0.46358886120847664
-0.08767649520658094
-0.47678549369568346
-0.8586390850553303
-0.12041337007399866
-0.4203615054937375
-0.35112006423249387
-0.3464057643032319
0.41143515618087156
-0.5898144516938679
0.30770271559541595
-0.37447130099507087
-0.22831450180567403
-0.4039587227433066
-0.27855069213466366
-0.053702361484608385
-0.003591649858448731
-0.4263434386979228
0.18613397980497148
0.37539423193077015
0.5803003106819027
-0.07687746890680214
0.9972010430596348
0.12093284612010846
-0.23532561111716754
-0.39711124307876755
0.8492846214388784
-0.6952350395949323
-0.46993336634364846
0.9350649123313561
-0.5951283196171961
0.8246034437258829
-0.9214786305229237
-0.1321312148797682
0.6230110330006142
-0.27290510620160124
0.6167400748498475
0.9483011219845796
-0.2551355956742898
0.8099765350681349
0.3321370782484927
0.4769323063793329
0.8684437191297723
0.38148538370506535
0.4099015574350595
-0.5207744199145521
-0.7545753152274763
0.4961216759155356
0.3578146716083721
-0.030522804920817714
0.6619412027313083
0.07743453693058355
-0.3297131738986978
0.8308321903268543
-0.08044760488082159
-0.45585071332480176
-0.39191334376158404
0.6236211524684241
0.7470264479692947
0.8343399532614586
-0.39816839137524074
0.2646502346370183
-0.07579850811296085
-0.39358568658177306
0.2894120660274859
0.0858603532428639
-0.34234827255637224
0.09737700672478233
0.8208495994608223
0.14077106320541044
-0.019087586862928774
-0.669787470755326
0.5144667571869175
-0.5395226206541566
0.488133897724103
-0.8219335742230436
-0.4196593232967376
0.33493899920249115
0.40273098772652927
-0.10318621557116026
-0.7881340617493657
0.7533543716061064
0.5973650346793817
-0.8689646386653325
-0.8364791092542181
0.573641777326064
-0.4545144182709244
0.6182276287867139
-0.25625414330686613
0.3733629254099231
-0.4605327646013022
0.6431464735402352
0.7100547006090381
0.9871271678616447
-0.8919592219909831
-0.5457635868624491
-0.2721980674800917
-0.7113751742770378
-0.8028507749626865
0.5503256100350105
-0.4461708888484903
0.21202165800842177
0.1718996902212071
-0.1687599682833787
-0.4770578225168527
-0.9182058254919219
0.9987617794944441
-0.27376350031358143
-0.8407787842947911
0.9270228066125472
-0.1124469701989701
0.034610185753185085
-0.4787906537517721
-0.4981077859981091
-0.48165137430203053
-0.7906702330603543
-0.5562995513022884
0.7633820660875803
0.19510980624830743
0.20480410122017068
0.6645183791920846
0.519563553945219
-0.6674479811090126
0.4442697170894192
-0.9574441227827479
0.04391075664824107
0.788713589865746
-0.5648754097094644
-0.4999607274229385
0.7746509878471797
0.8052116462699594
0.17990442489612812
-0.8143124673681374
-0.9311893441802761
0.508878425226789
-0.3132782650392063
-0.597335530113015
-0.6413167614015056
0.39506759419458337
0.737342575278658
0.4899005614003813
0.8742119040168204
-0.2817306553020189
0.26263970107937373
-0.21528694329618814
0.6710438178834652
-0.5636934055273337
0.6791394642994781
0.9961016761868597
0.9769299324557357
-0.018069421599203883
0.2765998573829471
-0.5379297660292197
0.646476417973876
0.5669833178639458
0.16341187093155018
-0.647738511047482
-0.18891943237199937
0.042020305473910335
0.9820320616370599
0.5310675086952126
0.739455251779418
-0.8205125681308783
0.10493671759532353
0.18853904271481836
0.7011716708946905
-0.892185629789251
-0.07531913343566154
-0.9071340832596815
-0.7633615250077879
0.5162434054664293
0.2002824883263854
0.15957187234616832
0.4161786188055394
0.45114326861285314
-0.6105756472933672
0.5395439359535954
-0.6475940408596279
0.16675610599553714
0.10078382785458273
0.8730053724611437
0.7330698193540499
0.0775916656886626
0.5126686523095527
-0.2315435911880508
0.8260509970909475
-0.4379721701064836
-0.26575649751552755
-0.7041554264690291
0.10779906267415695
0.32844684805889046
-0.8752524902636669
0.1344130736943563
-0.12371352579272243
-0.6073137385294147
-0.3925138175789442
0.9879059219781101
0.8598121898810325
0.8984999316244511
0.4815379018201966
-0.6660754545952265
-0.5958358635492831
0.5710641394158784
-0.3251339456080764
0.26137730997169895
-0.09658325012352331
-0.4124880098136099
0.9386781170223284
-0.9755219776646649
-0.005564455810637359
-0.9257163715924335
-0.14888558811263652
-0.7682634304686076
-0.27284501593870636
0.30782292225253793
-0.23720309783724192
0.4331248503514855
0.7912490784543689
-0.2696863187730876
0.9445993064007332
0.7937418745137734
-0.8112908824581022
0.9322268167046417
0.002932912988039549
0.13992195976133082
0.3245063324000559
0.02371962206594458
0.10831192128422451
-0.12854655548816885
-0.8682315833377903
-0.767562964721614
0.6072103733468253
0.7244327468257077
0.4231698367850998
-0.06717333431831474
-0.04261605508822486
-0.5891493217123407
-0.009374256783702739
0.4732649032779197
-0.8945526626302494
-0.22990801961174445
-0.37304114296621793
0.05070662863604758
-0.7302966053553652
-0.5763730638183742
0.699015453175663
0.31644508771075075
-0.7108847347613574
-0.9021044406304288
0.7209616038921312
0.020617846363889747
-0.9993855783065027
-0.8862037568165235
0.5327728272419976
0.033182166901929766
0.6096840964199657
0.9539020658211987
0.5320463682435521
-0.6757454894769821
0.7391424869422669
-0.4522382809985037
0.11626277664509255
0.311553274651014
0.9855000794700757
-0.053395799610651995
0.8192511843760273
0.212809910895416
0.3919108068406416
0.8544887583923222
-0.3494485676774419
-0.3180654876208695
-0.9369261425827455
-0.4898009210673928
-0.7403650833584188
0.7493834771274903
-0.3093893971789672
-0.28440511732928764
-0.12959268667310853
0.1338683953638622
0.8866522117132025
-0.35531049632029643
0.9789376513950576
0.4967033677790129
-0.03741359596646432
-0.4316299243927997
0.8935015411721414
0.5101253936257522
-0.856635840114226
0.475794355488523
-0.750730355024871
-0.9806605474246757
-0.3522241996011979
-0.9674652608448977
-0.2713907038961334
-0.40451026638662313
-0.0637413192822971
0.16674154055827795
0.7008776536454233
0.01798394064574227
-0.7276311402638054
0.8509826977806327
-0.7818284600959864
0.9738394252981308
-0.9983981028909417
-0.18907668693120727
0.3235014185072209
-0.8482552663265777
0.5526454366707034
-0.08946967268774952
-0.7905505205341854
-0.2717446970299604
0.9000868272207141
0.4949440309898452
-0.7117412946961634
-0.5845846539743069
0.9208235986702564
-0.6711409730141271
0.7644306747589664
-0.6617102394315078
-0.6998206461612271
0.4831499958618968
0.40032687408535583
0.8321981555383784
0.7831924768667835
0.11666067011321934
-0.7149136316537912
0.5263513936527995
-0.17694416569295512
0.07050875195478801
-0.11327511710575489
-0.0573807675792577
-0.3255662638209522
0.8218087967146726
0.8838861227759554
-0.13850366748571963
0.774826780352899
-0.013653437948384584
0.8633817868233695
-0.19100035667530246
-0.0786990197822004
-0.599718674174978
0.3862911768883206
0.14918102999061622
-0.056830451036483653
0.5758201211623191
-0.2909269753426853
0.2279081195960042
-0.1428458260954646
-0.05929256241422021
-0.262498904433079
0.38012439744545046
0.8905899909845247
-0.558810664198945
0.16505482281002704
-0.019352905653945873
0.8629312835118248
0.23148360022281844
0.5024849957647259
0.4973721760202485
-0.9018990522250014
-0.1019054178663723
-0.30179650961969484
0.9763962837082345
0.8242979357878346
-0.09128556843575919
-0.44098111023470654
-0.636014665929409
0.43424914385146085
0.037633295031312075
0.06577093393951516
0.5007803211690327
0.8724566812235575
0.16494591414081627
0.37238546985007104
0.432767426311484
-0.9331721741919801
0.3554102305601261
0.8856987621657297
0.3110769465762264
0.8503541483577239
0.10467876011979338
0.4196842478051599
-0.8819009436190124
0.16306431167532853
-0.31804488277115506
0.12810263118193155
-0.0845669708864838
0.9997538431785935
0.10159071068938941
-0.8041833688942677
0.5997952237206241
0.5035927172658041
0.21561778483980842
-0.32549790385440547
-0.5439473282717691
0.2722233642706374
-0.6461916296826555
0.21158416524381107
0.39911113696984524
0.48854879595469036
0.2843738634164179
0.471706199899381
-0.1276726194934592
0.9296997524477111
-0.8487878745842152
0.381770170761935
-0.14841994040774908
-0.910829545932873
-0.4979562536817259
0.7463813042537963
0.6533716400600003
-0.9781886568363085
0.6899479305504388
-0.47581689389953885
-0.5331516578134796
-0.7093476353634289
0.500770795235149
0.8795855399488
0.7570779874275395
-0.5194453427956696
0.7830089978176152
0.3818743445166397
-0.7048319736918318
0.2934381347435224
0.39711076671765233
0.19222577356559922
-0.8581745258880205
0.5154463325771825
-0.7136207068219607
-0.9648865020907818
-0.8753596478944068
-0.6304350412392536
0.6900324898745489
-0.9745644965791214
0.8358099884427554
0.41958718265879
0.553562655657134
0.055557096244779114
0.7471702014604955
-0.3722252010334113
0.4969777466067562
0.3731948327840626
0.5260678659727493
0.5847669190454126
0.9075039461969141
0.14111761191427452
-0.6938302504954317
-0.8477029012501829
0.9621139290366447
-0.31217936619641273
-0.9067085392957
-0.9226570786480905
-0.9825436301693729
-0.7706199597973464
-0.6352051681207995
0.10874087244008268
0.3030630139563453
-0.0850634886283348
-0.6938081898789739
-0.02238776075767368
0.46981107495449215
0.49234702230610905
0.36888906979333047
-0.2326767460924819
0.32601722005447686
-0.3871400950335686
0.7252151498327849
-0.16663759705808534
-0.13964243426806244
-0.3325733843137533
-0.4779560231990776
0.21282624032151243
-0.5306398841412678
0.06832578072540496
-0.44706974672789124
0.47987359204952584
0.662794142205088
-0.6687270126525642
-0.935144899160026
-0.7269094126220812
0.9240010623178021
-0.602292557793406
0.058934345083888395
0.5867893023581727
-0.929617900176225
0.579705575407526
-0.40656046014120695
0.18095717946519518
0.1338918264133584
-0.49056679406339
-0.09931122591985897
0.5516703166369605
-0.7851288101592857
0.10379050665303224
-0.39771929945033646
0.5327253638687712
0.6165012970090176
-0.9797289120485777
0.22663333178834533
0.10170695556647624
-0.37512975520302194
-0.08218226857457744
-0.5110904478633542
0.20694167153484866
0.650869581741776
-0.35220121106357594
0.8058209168251496
0.27240656830907306
0.8617117697862642
-0.9990949341093724
-0.47615249124513426
-0.2732995524494417
0.9940063095780842
0.932704806983284
0.9139378711964039
0.7903861426697243
0.8476579773549187
0.22267189319648129
0.18891331048986526
-0.38592686182873637
-0.6318027731192617
-0.14535845950429516
0.50191246863066
-0.45961126167917854
0.11507689166616641
-0.534380562919907
-0.3742500070991812
0.8808196076194532
-0.8379622051948423
-0.08538678997530913
-0.5378626965766327
-0.808853616338862
-0.20640626058070732
0.591135829971819
0.7522373085013276
0.5331561628366128
-0.11557480893865812
-0.9617262713759431
-0.175038676541021
-0.6395731400278526
-0.06315723815508978
-0.5878532205203224
0.06233498932230397
-0.03746254983801456
-0.5571097513594239
0.9402530421686275
0.15014941374401403
0.5527728246933317
0.4175860706119796
-0.6929631758270649
-0.8636161147926609
0.22103393649807535
0.49878866045482084
-0.948654227357371
0.13827861796930452
0.6968483184200371
-0.6003553183748509
-0.055325882498652
-0.8895034335640408
0.7155045788146204
-0.799785740815943
0.0004595326246298326
0.09739673733247867
0.10167495040510843
-0.2524136946338418
0.0025825593687915926
-0.1197673198859206
0.603276886823565
-0.014690271972471303
0.7530774567484944
0.756777604882141
0.6457640219818982
-0.984526293994552
-0.23244949473836285
-0.5360839435555937
-0.5027237121659469
0.19574567890354588
-0.041685210494589064
-0.7474766991324986
-0.16833820822564105
-0.24827576210897684
-0.7840149421876861
-0.08968914066927458
-0.20554568331843215
-0.6893718935865871
-0.4324834438304803
0.9766083320120307
0.7542262826962851
-0.682223655195151
-0.7289405609097233
0.41205990266567305
-0.6871515162103259
-0.7161430532596089
0.6967081597643936
0.6821758137190923
0.33804462933739843
-0.7145277788372264
0.7109739933101402
-0.49710609083310064
0.7718481924944463
0.34181501852500307
0.2384137300044351
-0.8953649241601078
0.8294931824638334
-0.8092270697417263
-0.7572533045093588
0.7081235787656235
0.36853296196849916
0.6449673440277437
0.22101735877205986
0.3251025537243668
-0.683918503898618
-0.0655945027408289
0.7820827178912098
-0.5075107289098097
0.002507654519013025
0.6248737983653095
0.0024936320679618262
0.5496003316344384
0.6804272571280545
-0.7831246299975203
-0.2612897838968897
0.3942636699723272
0.8075602380994613
-0.7031630636857016
-0.15047196118587558
0.139282079955642
-0.07207209621074862
0.5956649793279558
-0.5211622369252571
-0.3144889314999777
-0.6013163076028123
0.7838230606167143
-0.4518637096187852
0.737599477366919
-0.22668450914693583
-0.2539742052826386
0.5782754346782764
-0.9247958221147494
0.43414826495243597
-0.6381028964017494
-0.4695263190830474
0.9693885709719263
-0.7886775095136025
0.05808988589310493
0.6326815423812577
-0.28520100948934446
0.7445415392500767
0.20873903526474646
-0.8364762170777345
0.919564616624198
-0.03141696010626549
-0.4220654400609716
0.7139128022197305
0.32211214453550174
0.2931679873049171
0.9757550964424564
-0.2617531174390293
-0.12237537372548424
-0.1253107377712852
0.49668513132203973
-0.2172909154262539
0.3878416505152795
0.17946243658282235
0.3217798358259709
0.01766211475370194
0.3565104962748824
-0.26096561953067643
-0.5415956284436021
-0.8020859014019603
0.6181986098828343
0.5378128756338987
0.7149966594426931
-0.91167426712663
0.36627084542423294
-0.8926248658268308
0.37010140546643244
0.5779375978412888
-0.31195181203561173
0.18125983188578654
0.5804324520920405
-0.3388889163476092
0.8144373087293681
-0.06056993639600439
0.21201306033010425
-0.6214715997284621
-0.5803867789691215
-0.668524149627312
-0.1729418112657488
-0.7109599349273807
-0.5278820506523341
0.5047628873799979
0.8336448828941623
0.6835209583554296
0.539323067717945
-0.7141405601682393
-0.13737070772166526
-0.6200749563756665
-0.12016463670382138
0.32944451414410625
-0.3258071191190173
-0.34590230882191597
-0.5932796854065554
0.003298721741302746
0.1713460344011044
0.953059553319122
0.4881358783505838
-0.48862026302683925
0.35555967824035783
0.7269228684499316
-0.6203069423729062
-0.7559534596149675
0.529238744144952
-0.08525060783232363
-0.41113857750126703
-0.7856362839270448
-0.09205507698605064
-0.10007181673019128
-0.8988696023392149
0.44367922884472333
-0.8635726540775475
0.7382057834950886
-0.17161814049464552
0.3605556517392361
-0.26744858003740624
0.877347817161028
0.8440874582755111
-0.6196567448535812
0.794832281097003
0.1554243890169924
0.23950083400733435
-0.19775902388598432
0.4197696977413896
0.5770472398370898
-0.7945079660409908
-0.5405107868762957
0.054673203005281
-0.15864997430113403
0.14425010302222763
-0.8694307398242533
-0.5662526019309762
-0.6905418189080721
0.8385369802830134
0.4230539039607979
-0.18515144022916985
0.33579655957827814
-0.04711573623786558
-0.7618726616683058
-0.5994199555051323
0.5406449536222868
0.4101933409493772
0.47309484328283413
-0.058121219902944166
0.5743682299802315
0.9572914788285918
-0.8793296071978804
0.29426660021877904
0.01579125492216993
0.6053470788629187
0.44432478467907655
-0.036667555627255544
0.8395830873222487
-0.9627010867606518
0.924173259423793
0.6405789793212544
0.3089336134955656
-0.9142969204222731
-0.24585647047714176
-0.4153282399005125
-0.26766826517092324
0.22865445019648467
0.12204840016496776
0.9983524946652402
0.5393039103054909
-0.33282662400961915
0.718119355004764
-0.188551244321848
-0.29161107381479523
-0.1431864759846373
0.7664032323871417
0.002312222069884795
0.96778210558332
-0.420307915784111
-0.15733964021134828
0.9123107279635625
-0.10502314865637263
0.08164802405384264
-0.20432228676304032
-0.7619512043357268
-0.4047139151332506
-0.8089666217553901
-0.015602018641738935
-0.30830294443127837
0.4489780729414665
-0.26152730539204594
-0.6183034110743351
-0.88037166175686
-0.06732704781048837
-0.5760508100665693
-0.3538320208788348
-0.21400969210596954
0.11614931100368375
0.26067153787252817
0.34941676810807576
-0.648078424717828
0.09021816487891399
0.49365011190669406
-0.9306401794730921
0.026106168960922105
0.6630570152322424
0.1613450188434209
0.5750325493180026
-0.042293091483762035
-0.05251213324752646
-0.22539545715749854
0.9857538338357501
-0.5870209747091526
0.6367635087445331
-0.27668577197706146
-0.5888647531029008
-0.16327093855950525
-0.3165874748668629
0.9445727168866229
-0.48419262398017016
-0.12982289008419978
0.039374535006513334
-0.5625242283952752
0.08898101669132208
0.5802527410918323
0.3124990088816135
-0.9274383030639126
0.5293092744930032
0.9091120330338068
-0.6596045444180088
-0.11373246157030525
-0.8431558738548413
0.7506029520036037
0.10664667273416417
-0.8113093935628581
-0.22490019058674582
0.07084807803484483
0.45216620519192463
-0.7824495535802996
0.4161453655549492
0.686651073219599
0.5283354877409316
0.6532583246171013
-0.2229375422095221
0.3294553170705916
-0.8078640701033466
-0.39352392843741213
0.3005058140765471
0.10252711330097397
0.2839782988473565
0.9363926402005092
0.438327441200129
-0.8112588815430433
0.0926506194395722
-0.6171807813106411
0.5596907310081058
-0.01869793111338436
0.09871225105473447
0.5335745487547201
0.0050082207031258985
-0.3442393766384111
0.034045632156093575
-0.1280679283175401
0.5361928799149072
0.8299100269935358
-0.04719057239609947
0.02018431741972071
-0.46742728199066774
-0.28284660557775476
-0.17374659878754195
0.5402918573841651
-0.01668726602727655
-0.8100272039741316
0.5422907419803842
-0.792094927957216
0.26185396451705256
-0.579911657145719
0.5554107474649932
-0.9845361975638893
0.10536985661965304
0.6871391117037089
-0.937932258886153
-0.9465865552504045
0.12835100406823408
-0.8291001607401542
-0.8108360348110235
-0.9958557004774808
-0.6730095020107423
-0.29250981964414713
0.630961357874511
0.6470113210049449
0.38383717857680966
0.641337747886151
0.5386598427712379
0.5674338415807474
0.014251114847236401
0.6981549186677702
-0.41087490091905043
0.6766578819800115
0.13091048454327137
0.04067852254583937
0.6838390709385418
-0.3757804886656324
-0.15997208276685004
0.9394852941562812
0.6564742331154456
0.517286108736253
0.18828638734510528
-0.7085323155180745
0.6357011028267121
0.45052942678661534
-0.11652077582250575
-0.7087229551167848
-0.7776382418693228
-0.2015760634958932
0.010374386901327526
-0.7047655094823491
-0.7239215957847196
-0.9080801659542321
0.07755235533759008
-0.2797346796234439
-0.44304468714066503
0.45319415676830377
0.5756444889057202
-0.1498728498034454
0.09898949784299016
0.023697759346107183
-0.09809849826049666
-0.3342065041080493
0.4046305395673
-0.8552001263186666
0.5002997717296855
-0.560228939059956
0.4316637997585575
0.607499234708345
0.9803518308297507
0.6084565828134616
0.624844491501291
0.4039079020858878
-0.5047223909655016
-0.8047920590655031
0.8703974458951396
0.7708394098050082
-0.8304626188566169
0.6883451018581992
0.27748876924766486
0.8436825739691993
0.767713657356361
-0.9651885612164608
-0.03463392699745893
-0.2804965508821027
-0.34553164548413196
0.9263525174871579
-0.5241485114606281
0.5395109256676973
0.5491581888398251
0.6657094590739114
0.8532086096636111
-0.09873270506991605
-0.9082711581345793
0.9417048984940422
-0.05578281313580202
-0.9547509970282626
-0.08533675856340683
0.8184801847032614
-0.48000482389240196
-0.7255025717129509
0.6693759590100994
-0.057530794416923436
-0.09494730834096399
-0.5510124707784083
-0.1929225520219786
0.07704663507271214
-0.24265636146312985
0.9085398803508404
0.8173477441291639
-0.6116535329223367
0.4233296445808219
-0.5703076414635426
-0.34267451778868496
0.5655544515173225
-0.9175424943017498
0.20354724387452117
-0.13933057971159224
0.22443475585423378
0.022132696486814263
0.19079926709968875
-0.8769815509846159
-0.7303693434528391
0.9422575965630218
0.5767468732468963
0.13615361429554684
0.3566886826926936
-0.24140047989718516
0.6426757131285183
-0.9060525775893047
0.9838269294012869
0.6716628449048765
0.7133711805747425
-0.9702427387720953
-0.625094642159284
-0.11278240091543479
-0.3678343300456599
0.21421063607756885
0.6368753107152578
0.7256554083787128
0.3449384907029107
0.12038091881377389
0.9307406483772409
-0.4623371437533157
-0.779955389131245
-0.08732774027524748
0.36037617951785506
0.7180516624768196
-0.29268249519264766
0.27004550013933515
-0.4330932127816416
-0.751690838347002
-0.23998896835282713
0.06641146711041812
0.853526143821661
-0.8387830537278795
-0.4605524425044707
-0.3108606367326938
-0.16598262607587344
0.7942346321300209
0.4931901938629475
0.27312794640535043
-0.19246462247161045
0.21883074078702247
-0.7826833755204134
-0.36803662986794317
-0.11398775943847506
0.4030351383401367
0.2073272181480328
0.1744503721209114
0.49324807731717923
-0.7184681592213538
0.1861652744730551
-0.23380365021274607
0.23492297957231956
0.08515507505599795
0.0996534540980869
-0.17215582474629643
-0.41655691147382856
-0.6343955360418019
0.19028541930483756
0.7764917141123009
0.13524127446311596
-0.028211124980336066
-0.8747102691515791
-0.8789218218115908
0.9771071973914718
-0.17058361172505077
-0.28182121810944993
-0.6267614373651673
0.7185858667333742
0.4004340328469118
0.8737701743460731
-0.5378345702848877
-0.28929117939743576
-0.3819769101519339
-0.6025647570207082
0.5759417215352913
0.3002579816824489
-0.203560796170847
0.8347873856216497
-0.11958312431382478
0.8640574671450214
0.09219837956362786
0.6051478673900177
0.973375041598957
0.8726492284255873
0.9408368491124417
-0.2448242731899073
0.4889364056273031
0.2678038545136845
-0.37132172953944553
0.743528833319737
-0.10672082960388041
0.6726147803839859
0.6987520136387704
0.19583323903876226
0.09259418657112128
-0.5216486047476057
-0.4660190864193201
0.12665240014952084
0.10178506183075542
-0.2723123946020476
0.23388791614160787
-0.9147870625375698
-0.8043804252308788
0.03336149110154474
0.7548384820416028
0.5970438885851976
-0.29607453185256993
0.2239096333384636
0.7237410700158506
0.1323335013371627
0.6156923932360108
0.09431618471092973
0.43605537348047574
-0.9249248129211827
0.4115376508637081
-0.5498591561733346
0.52787628887013
0.07065130147077459
-0.755779520891467
-0.6637953137100618
0.3094246083982579
0.10897141994216653
-0.8044451242707207
0.4116609619748903
0.7238868721022808
0.8835261976276971
0.26100003961958573
0.6201356878271487
0.4563360736769979
0.008531798539152424
0.005010924362987446
0.8306020123712662
-0.8426207061071482
-0.576400426003461
0.1807861088805347
-0.13124659516452164
0.1313527937722092
0.2270096628044962
0.6988764303193702
0.4801293095379886
0.8445152893086365
0.3203284910097286
-0.45648670299380556