-0.7907739175522878
-0.8469805866174831
0.8751493958055543
-0.6969116904681174
0.6854081946202815
-0.15111905413078208
-0.13579872654882674
0.7537071585113435
0.7995857916798133
-0.1525544104351817
-0.609256015869466
0.17848475851171552
0.6886472540541428
0.8667980059528164
-0.42411665839810975
0.3220583432869215
0.2870277477288181
-0.09055509228660097
0.46708241421337804
-0.43830308602047174
0.3109784636567401
-0.9538164320314229
-0.12372432021673796
0.27743072328263496
-0.1390243103269486
-0.32435345125618786
0.9939954480350597
-0.40279467814168135
0.935598131095601
-0.3768675074534169
0.30155020839037017
0.44034407448218005
0.22975803841327297
-0.01795516826705934
0.6154121193137854
-0.27415615686947015
0.053286474620953594
0.8429431679707995
0.5180533387102939
0.5963940257388808
0.5851811391122789
-0.10895895431244032
0.9432986493758964
-0.014276378281990354
-0.6170103009532069
-0.7678089096178506
-0.5180257947610682
1.0192755891210739
-0.6280601202796019
0.22908787360250954
-0.47594459126663397
-0.7005444192706201
-0.9009269127076966
-0.6094515972839468
-0.6728932221095598
-0.6525855490108137
0.5694538380445868
0.5799987225211836
-0.3311423506374318
0.7200873267017704
0.0
0.0
0.0
0.0
0.0
0.0
0.0
0.11769455838562148
0.0
0.0
0.0
0.0
-0.10778662745701281
0.0
0.0
0.0
0.0
0.0
0.0
0.01701506026093567
0.0
0.019457957064426323
0.0
0.0
0.005052760929408402
0.0
0.0
0.0
0.0
0.060309404111214014
-0.01667149099762468
0.0
0.0
0.0
-0.030663715706812034
0.0
0.0
-0.0657706457907237
0.0
0.0
-0.03817720336499937
0.18263007314367394
0.0
0.0
0.0
0.08246163773930136
-0.13340766663164716
0.0
0.0
0.0
0.0
0.02864841821119771
0.0
0.0
0.0
0.0
0.09787177831729951
0.0
0.0
0.0
0.0
0.0
0.0
0.0
0.0
0.0
-0.061427703609531585
0.0
0.0
0.0
0.0
0.0
0.0
0.0
0.0
-0.010154623656655773
0.0
0.0
0.0
0.0
0.68706408165124
-0.2584300798198973
0.606714683908716
0.43566909305077406
-0.07794424411237122
-0.9742222948228056
0.3745672342444053
-0.20731555111123168
-0.7639498437241254
0.6483957613948688
-0.3628181651711131
-0.18996153555274498
0.30062313333138224
-0.06791189829400945
-1.0232466817327044
0.6668719522792552
-0.9122822773485131
-0.1387872494950777
-0.621779714657597
0.11909276104517862
-0.3279897416233546
0.17313543461651637
-0.823822968529856
-0.5961209041374023
0.6711002644544752
0.2715862183074642
0.7417449814314196
-0.47176996449476705
0.17885087637599129
-0.08543755102301898
0.5136738500996114
-0.0572255360252196
0.06636059635171176
0.014322880183507136
0.254149305380831
0.3574656359401065
0.22526497333152468
-1.0498723858037253
-0.15424790072585925
0.8424506778598817
-0.12017771134007682
0.04815476004887942
0.6101361254238931
0.9484257150880904
-0.022652136636190923
-0.3041051755285654
-0.0014730267140532494
0.006606789074596664
-0.25272172226850687
-1.0540341418250225
0.2010358670077539
-0.4269146827305461
-0.8937257827365581
0.5010574743441696
-0.7783379013939979
-0.051602409503141766
-0.13050631180271166
0.47623998158260433
0.6416399628622023
0.4079563355465765
-0.6219254586892902
0.9571215228560601
0.3229167132133304
-0.6826512229711126
0.7664842335505633
-0.6928741381626258
0.4767793062888328
-0.5793573697624497
0.13738657777214125
0.6191344467983331
0.0
0.0
0.0
0.0
0.0
0.0615844590258802
0.08099999535602083
0.0
0.0
0.0
-0.7296989944811265
0.32901085263972396
-0.5394716453376789
-0.638087114385657
-0.8724871704893502
-0.9184657216595884
-0.7274735796590186
1.057526098772971
-0.5153340192073798
-0.8742646437663057
0.8873783115674705
0.47913167899732023
0.073917374609239
0.9763596673217654
0.3289775131345305
-0.212452906579016
0.003668676915516347
0.07944404963504126
0.6523695046080613
0.6023199110881203
0.004770929608066021
0.24934720816524103
-0.7178538033718522
-0.5326143427096572
-0.2228153971201592
0.7659917617072706
-0.5313304920955342
0.405813327062883
0.44771231363915787
0.9957082186144179
0.0
-0.02013116869852987
0.152397082602119
0.0
-0.04228573954897973
0.0
0.07141198940008968
0.0
0.0
0.0
0.12635160701440445
0.0
0.0
0.0
0.0
0.0
0.0
0.0
0.0
0.0
1.0046652223153247
-0.9518553026090721
-0.8849067055798903
-0.9510253106133515
-0.8952737289750705
-0.6966529562987581
0.5611779934480128
-0.4716758727762751
-0.1424552334999658
0.19635699531514766
-0.43985599890480387
-0.13638793887592393
-0.6950961943010523
0.7647877126592169
-0.2245364757447057
0.39509326098872016
0.8205979734777678
-0.38544152517197094
0.5623165719421284
0.4567054029365579
-0.5511755545761512
-0.8999095123197112
-0.4709043908092112
0.8603538806288429
0.6644619793122986
0.028234096587578028
0.49941149559607423
0.7102227523821734
0.10487896452796797
0.4791035078397713
0.8146263789953652
-0.5919259372898775
-0.9690565646004861
0.607125400049805
-0.03400770716411472
-0.05711231334746143
-0.6631099052994163
0.4006095296943504
-0.6554967320689673
0.8558472489572475
-0.39316863560637016
0.8623144126756792
-0.03280375729359926
0.3724989894502664
-0.6439107819241368
-0.29776710595333705
0.9252819836928456
0.003367554162230446
-0.7695668377062508
0.5087688204694252
0.9967438998937228
0.5686158932887259
0.8795785430049357
0.25280950448842554
0.9525904943660017
0.05509979097018188
-0.1506419706661679
-0.2640950196382448
0.028406588838009394
-0.5351799285977705
-0.23341931766582658
-0.7119242118115849
-0.5023769591674982
-0.34310071285995725
-0.2212605259730085
-0.960915692194166
-0.21475071820549863
-0.45341000627150785
0.5110729463153414
-0.015236871674776609
-0.9441583003476541
-0.4894290404369912
1.0520777025564074
-0.3636721698058396
-0.3072967296956195
0.4354019923994369
-0.6681652754724324
0.30183747626216584
0.47418008560231173
-0.0619954970137675
-0.44069243853757123
0.7424743897648378
0.7931911696875178
0.8514210877149677
0.9523418490158297
0.6878177366542582
0.6138814021488106
0.8717843635664295
-0.8046127300746155
-0.6733834949245523
0.8927204143939755
0.5841740117215691
0.3369868021398392
-0.131698236138321
0.8477810357311333
0.14773540869067237
0.9107602008390985
0.6925233701930119
0.18187005287418767
0.31742109213668285
0.0
0.0
0.0
0.0261719272326654
0.0
0.0
0.0
0.0
0.0
0.0
-0.7168719853757008
-0.09716111193719978
-0.1991113692352895
0.8576253601371016
-0.6337217802110131
-0.10301786186382539
0.2590382111680898
-0.3591757538276763
-0.791047486174284
-0.021589743027476294
0.22508340590411002
0.487230915429967
-0.9230847896276009
0.2639815439994573
-0.4283520484808212
-0.17872276310858215
0.38117674012215286
0.256738863258964
0.11125217828767231
-0.22435835716911812
0.0
0.0
0.0
0.0
0.0
0.0
0.0
0.0
0.0
0.0
0.0
0.0
0.0
0.0
0.0
-0.07956674834505034
0.0
0.0
0.0
0.0
-0.47441858503687495
0.6335980192825055
0.15630551904238477
0.5361865474534344
-0.4832027064181548
-0.14214274103064684
0.13799548897595493
0.1611441211745932
0.13275061963785673
0.4738889820110257
-0.09419506237796216
0.5977964879223625
-0.9341596893800448
0.7451966755562682
0.49350149617045513
-0.7531225198474647
0.5176330037739512
0.6922117670858943
0.6695458724086767
-0.7167752116820147
-0.8359401214014013
-0.9721899294725191
0.36002706639972715
-0.5922727286322702
0.32637935712250155
0.18627911263475871
-0.1596365551985217
-0.36917330551738925
-0.5286835142634256
-0.48943174531359535
-0.8494354982747909
0.07295850506466879
-0.31428217602991215
0.5573041310559685
0.8866057291541358
0.22591819565683416
0.2203745717941623
0.15304158410173319
0.5323518573297532
0.888999516950048
-0.3128732911917558
-0.49571230373014524
0.7413556860638637
0.5009229968357991
0.6452389216204173
-0.7278207616988677
-0.7718551602606103
-0.8054599443245694
-0.6481789196036556
0.011844788562832553
0.6753868790079383
-0.4354231798257129
0.5601307843973727
-0.21101660066487216
-0.36596700384308734
0.8731232390605175
-0.10322932072075947
0.8624257061918683
-0.30697302092064427
-0.6405164073428483
0.0
0.0
0.0
0.0
0.0
0.0
0.0
0.0
0.0
0.0
-0.6710247338812401
-0.8321097902757456
0.07560410702665553
0.09142601619957182
-0.9826178393743692
-0.05791605110097631
-0.8896188899705206
-0.6457799274201392
0.9011744086468128
-0.7092912278669592
0.6471520076896278
-0.6770420165134146
0.7659575068633244
-0.913537371801036
-0.646857647522451
0.88241114986279
0.014522358204281174
-0.12584452497239593
0.4019827624716874
-0.6037608975453819
-0.8527413913565919
0.01267351379656631
0.2934931066753006
0.9896605618532217
0.3005954443686596
0.019505123549472092
-0.9733744342282319
-0.46774003641445694
-0.9091751634275064
-0.7072640670384029
-0.6989501098923978
0.9321641423445646
-0.9858825865905378
0.28233280592133
0.9500287804710361
-0.675672380309279
0.13045426052918518
0.9241223650595454
-0.7205361797848406
-0.8226461341322637
0.4767735632033139
0.3103303683408475
0.20515651884763708
-0.04291754464231268
-0.7330148790005904
0.21710368954442072
0.7489749850765506
0.5783203829074377
-0.49989544322340307
0.14904702616142673
-0.33433597270526794
0.8291133931358585
0.029592162130238627
-0.4336972228521754
-0.3492247876681118
0.5003043304597758
-0.29918341401388143
-0.7359327656571399
0.932827398430027
0.8327237688599513
0.03536824074915623
-0.9592521479466711
-0.21531205556713598
-0.3124310193399982
0.5614716552341493
0.5644435496895996
0.6834297859358214
-0.5339127522893843
-0.9649152775591405
0.8947892611910812
-0.041665091380357566
-0.8804024152993215
0.9450393810441058
0.6023233216136474
-0.09624524130997258
0.3710151231374026
-0.34310620551225335
0.8870472275134449
0.2134224731107479
-0.2835225919196023
-0.8650166783629204
0.5157356983161012
0.04786994176804815
-0.3230221429401481
0.6779321420576503
0.7754925785332762
0.18847613183293177
0.4106507501415928
-0.7675270588995788
0.8153156005888061
-0.842743117587266
0.796481868339848
-0.5647586453614751
-0.0572061108705082
-0.5690216941312654
0.2356200619717228
-0.9053884172582416
-0.3678366876508625
-0.382885723366009
0.31984560511169313
0.7638376380995555
-0.8140002099327358
0.8338148853418864
-0.3607450590443144
-0.8705047659578364
-0.2097327254988759
-0.9043315444197213
0.7082707761016576
-0.12214154143563705
-0.7848246241593919
-0.33340517023888294
0.1771513030511047
0.45766781168545734
-0.4613977017672523
-0.6557019333581352
0.6087145160692748
0.11556833839270012
-0.9050835198429998
0.5647991474648136
-0.4984176568408889
-0.9857338111668488
-0.5934843638315259
0.6324758234473362
-0.45471404585928976
0.8781036326862204
0.8063357961996407
-0.35748104900613326
0.053161799242215785
0.09423116435195955
-0.5154722700173724
0.0
0.0
0.0
-0.12168648843129277
0.0
0.0
0.0
0.0
0.0
0.0
-0.14352104309877034
0.45527858068167637
0.11765254079570919
-0.4590299563340243
0.1834964788497271
-0.4000080042930394
0.9668958427246304
0.6060995246774928
-0.6972306003674964
0.799879835113523
0.6465050088775222
0.661532882123363
-0.7734651870330231
-0.07726333412818809
-0.2035497178509158
0.4455506774013773
0.9291387064300656
0.129781344123719
0.6481005698870158
0.15174041133893712
-0.013821589542219213
0.0
0.0
0.0
-0.10030489709615309
0.0
0.0
0.0
0.0
0.0
0.4148067272243583
-0.6854978991763678
0.6615021880752054
0.6068718956176917
0.753143480648697
0.28998351260345745
-0.9514468116003527
0.183328011703614
0.47634860994449446
-0.039909689378954255
-0.30573226749611027
0.7457421146648329
-0.792647135145311
0.607530722093705
0.09799959608470798
0.278922987622938
-0.05202930106657444
0.10020920326310037
0.3028369212865778
0.8866756452836162
0.5319933079937103
-0.8955866087547455
0.07384228455370168
0.6748525465630502
0.8769393569794239
-0.5903413434090297
0.1662548587460126
-0.8928325711784966
0.3695201543892255
-0.03043470228870393
-0.908979301528811
0.05198248033318631
0.9622419618854916
-0.607733210580289
-0.49004209708928936
0.5537714742269745
-0.7180202591940479
0.01606098353603902
0.3018257799533801
0.15645495742879278
0.7250529347608761
0.5535874092064872
0.5602744383934775
0.3299064487291008
0.8240576503438212
0.6981268777041745
-0.7466899242197886
-0.9372585871720289
-0.6800736316654448
0.7679138752386425
-0.3861777565312623
0.5826335028825338
-0.6645348281391714
-0.13051846917465193
-0.5251743182159838
-0.12347380870971292
0.646624241023722
0.6235949707731265
-0.20054040192265532
-0.03665963776706049
0.13678945589034774
-0.9716172594988856
0.5292629444017858
0.6558561581584486
-0.5484646348217281
0.8944561708348482
-0.742766515934544
-0.8268374069728779
0.26923242981931605
-0.14029970170516703
0.0
0.0
-0.1322122284082261
0.026118885434662575
0.0
0.0
0.0
-0.07731040200582871
0.0
-0.1428937396698851
-0.5609981528660213
0.9699530453978725
-1.0106037224243754
-0.35444596309512244
0.8702523304897389
0.41439772879153525
-0.8352316839684004
0.9828312582786363
0.4386915067576703
0.05105473643143266
0.0
0.0
0.0
0.0
0.0
0.0
-0.021507187518183212
0.0
-0.05186875775689106
0.0
-0.4503169727151784
0.1517715463028555
-0.531242435687073
-0.8030331815590803
0.2718678245553441
-1.0384566786571545
-0.1017896300902199
-0.6505624362452809
-0.6565517926867313
0.9788821471234974
-0.36932077394773866
0.28714534962799854
-0.7206260234732127
-0.9061016264936983
-0.2340920286787076
0.20249226164195466
0.2726074864259542
-0.8705849585208056
-0.06995486321917976
0.21893348530032886
-0.4180543748007419
-0.8830231809984497
-0.6726890802719003
0.25618419084505306
0.10892373207591444
0.2712636544949305
0.8905406518536778
-0.8349290403050285
-0.5060241832327566
-0.7763436218459163
0.5969246243635622
0.29561198508755937
0.6115753490625799
-0.908113938722736
0.5690062489228502
0.7927454934763585
0.3336096378827007
0.4884239822088601
-0.22432460266878196
-0.28478247657046823
0.6517613744792261
0.7649668408216641
-0.2911822581277537
-0.440266991872053
-0.04504015224592006
0.08626016012562862
-0.19042843796607078
0.27863937686506857
-0.08330015258353263
0.920962641915734
0.5074731829331103
-0.47958431721938166
0.4707554357205632
0.516208379013744
0.36897661877608473
0.4739969406181723
-0.10180723063734076
0.06441437203597222
-0.17497213738211848
-0.9933549737206797
-0.9183611330704449
0.46242942376612706
-0.6656704478185818
0.3895804539151567
0.7796128886473395
0.13147974031924733
-0.2079582444792163
0.8251940077365572
-0.8249616035743881
0.1385103747582417
-0.1882120483727071
-0.40107588684380013
-0.7099335970233962
0.9865215667610547
-0.4005371389723502
-0.4221915924083093
0.22335673861707117
0.7185168273966085
0.455650581711043
0.024869573091525297
0.0
0.0
0.0
0.0
-0.056474191650633186
0.0
0.0
0.0
0.0
0.0
0.0
0.2710521343481512
0.0
0.08600254781611998
0.019049205235028153
0.0
0.0
0.0
0.0
0.0
0.0
0.0
0.15990179520866726
0.0
0.0
0.05092153274152647
0.0
0.0
0.06840361608929467
0.0
0.0
-0.04884560410386831
0.0
0.0
0.0
0.0
0.0
0.0
0.0
0.0
0.0
0.0
0.0
0.0
0.0
0.0
0.0
0.0
0.0
0.0
0.3637244805621729
-0.8282597033060171
0.12478002525899434
-0.29538116248585405
-0.5386428389948275
0.20536582294841949
1.0390438794623875
0.35746195475639087
0.6092142740564476
0.48213436888215316
0.2862626853343379
-0.1573945787118535
0.9828661988956344
1.0052331584240606
0.3441318309796315
0.4445503664477033
-0.8484678060579774
0.9809957031757013
-0.7062671413026016
-0.9537714215087971
-0.2803867755565807
-0.187076704137368
-0.8094397265546767
0.2819209942970984
0.07722425004615088
-0.3996345124483412
-0.5554861758802148
-0.972127917339892
-0.260664155745679
0.9938193327289913
0.21605108124527472
0.4606452945585854
0.8679882368957248
0.07229728293784327
-0.35738817957962654
0.07244387214780579
0.3298996672547314
0.18581600743300042
-0.527228793609322
0.9059113664353442
0.0
0.0
-0.10125039688229916
0.0
0.0
0.11368658824205884
0.0
0.0
0.0
0.0
0.0
0.0
-0.028539210342209846
0.0
0.0
0.0
0.0
0.0
0.0
0.0
0.988544199552674
0.615051888481295
-0.21182516830506826
-0.8719794091454933
0.6203061669394027
-0.30147930068255846
-0.40760380543610664
-0.9144566851870042
-0.20577174376686602
0.6115736884646759
0.0
-0.020742561155403915
0.0
0.0
0.0
0.0
0.0
0.0
0.1187813189591701
0.0
0.7677161753587911
-0.37277912702302163
-0.2101280512383643
-0.6149400823869708
0.9153686318740246
0.8520917848550249
0.680624677300812
-0.5085644825444624
0.8502704711607574
0.9837766153064451
0.6374488792177284
-0.35279271075694973
-0.14626644051946935
-0.6728359918172835
-0.35844340815718234
0.7234530774372643
0.4007193737064143
0.8495629236009943
-0.753985668558238
-0.1684786548951942
0.6539347620684326
0.8393466865098098
-0.7290244584367458
0.25908167981289026
0.7320426030931668
0.025565695200778338
-0.7802360373687922
-0.19984750126269613
-0.6184944403106482
0.9494927984689149
-0.0754702045756952
-0.7014894598483661
-0.8695638750269985
-0.7653034612665665
-0.05578202970912869
0.5215426908378982
-0.2866752725899542
-0.5632412373879807
0.4578373662031545
0.7531264407832585
0.5250406252549029
0.39962908738890507
-0.35162608463208955
0.6051701532707234
1.027753469314935
0.8670440086478354
-0.9307208756090066
0.9730054409244575
0.6914695037181027
0.8614569943944892
-0.6986865623605261
0.8421138598212135
0.561272856129722
-0.6705433919019976
0.051176840277172175
-0.23963386824022548
0.6421740976881365
0.004407723295139387
0.2786635274836047
0.13764271710948273
0.0
0.0
0.0
-0.037737552121290985
-0.04991673032599485
0.0
0.0
0.0
0.0
0.0
-0.4218487111040631
-0.8666334852825195
-0.3122946552589883
-0.3469963665537683
-0.06697996768439515
0.5303365546764933
0.7298641357786334
0.5246768114977096
-0.6190305560304961
-0.2856949853625279
0.37114735772737184
0.37143366155312785
-0.11402486185874294
0.37253124286068595
0.8153408581587533
0.276575248036569
0.413139406157895
0.5213320480756087
-0.6229561360723475
-0.7132191902068064
0.3470736121371214
0.3637791651193415
-0.943457472161982
0.6328870603705476
0.7467970919358455
0.8182829153273525
-0.14474442350622674
-0.18615559948128202
-0.5957656885433629
-0.07970097684321997
-0.4106140136142695
-0.7256196096601425
0.13545044226093728
0.5065147827086807
0.35659835016540276
-0.16619149654585041
0.8402160406145966
-0.4600610774041569
-0.7057746671001983
0.5668417436675977
0.0
0.0
-0.08114610760551834
0.03242708735470606
0.0
0.13930717332469925
0.0
0.0
0.11669422984639993
0.0
0.453204417296057
-0.8900898598192672
0.851276671236816
0.64766717508448
-0.24376627225028447
0.8748965421818762
0.47658625066629634
0.9411376916475398
0.5897055507306116
-0.2511995327211951
-0.8018483709943858
-0.09974003445391832
-1.0025698081859282
0.4159961005095258
0.21112656710622368
0.531930645923669
-0.4128888648248339
0.2718510134716312
0.3776742196294018
0.9323398907188238
0.3197565001767315
-0.2000311229544549
0.0314420294261859
-0.6748827631471757
-0.9749160066642488
0.2234126596149888
-0.2135436535603567
-0.6534556313927138
-0.37678129193769494
0.474384569313651
0.0
0.0
0.0
-0.06911676884257961
0.0
0.0
0.0
0.0
0.0
0.0
0.4323361568237245
-0.13046584296743124
0.4610184102646103
-0.1151651082939666
-0.8558797660790489
0.3205345899882037
-0.9005134611997974
0.16200960919499385
-0.21932844785510097
0.23919505818119835
-0.9524312409833988
-0.5320788743153553
-0.17318335027429033
0.16323188716644488
0.8471928486880753
-0.9050943515492861
0.8859267010378631
0.8775812967854655
0.3302051001955879
0.8915763048576257
0.26412376945010774
0.6562309423297601
0.24573355193562188
-0.7854826352249589
-0.7895929595082514
0.4240885543763633
-0.5245993501067123
0.5751619368661975
0.03975049335699321
0.6703216635144228
0.0
0.0
0.0
0.0
-0.18846101738764418
-0.03634583456543979
0.0
-0.08812819854516635
0.0
0.0
0.29598513879934973
0.7069049510403047
-0.9191067631864088
0.5193214437402554
-0.40610617767356577
0.3496090710097084
-0.06298540244296413
0.8753961771296161
0.6239564418143011
-0.156677156835193
-0.0699719408921025
0.0
0.0
0.0
0.0
0.0
0.0
0.0
-0.04239547074213221
0.0
0.0
0.0
0.0
0.10717669079755913
-0.014839938164185995
0.0
0.0
0.0
0.0
0.0
0.7560795952100239
-0.824942031675296
-0.7011884685810885
-0.4973997184042003
-0.9899628765537941
0.8529997062673869
0.5727746814871286
0.3933235882818593
0.49784466948133344
0.33494996178617154
-0.39671188107100486
-0.9985321232441294
-0.9433435807901984
-0.6733973252271701
0.14924873305558187
0.9970129889758979
0.03991300394431074
-0.20902504742353623
0.28717103337590744
0.49480356144167204
0.36276402860981305
-0.7562760942815792
0.20557566840032138
0.07765620151853292
0.7208642292157206
0.9334594250889783
0.7782884675873478
0.11468324765452631
-0.26643608701484767
-0.6615630649582505
-0.20024506204273265
0.11233766369388576
0.5314642207112628
0.29993436633185633
0.5030502894280546
0.9761316214228661
0.51754478405451
0.7270963563589157
0.6837532672618911
0.5714715072778669
-0.17232495826675387
0.502775202850005
0.7592844402081398
0.9869760968952614
0.0651506066119576
-0.8051701595219838
0.21898919970292163
0.9295334256134327
0.5663327099721334
0.9107335301410882
0.0
0.0
0.0
0.0
0.0
-0.12325297014356648
0.025512666750000104
0.0
0.0
0.0
-0.7579390498591478
-0.09540345985668375
0.3564023780969654
0.8361707451088053
-0.45834338633551996
-0.6801059212833191
0.10212558359555057
-0.5424529966637721
0.8429745743932886
0.44515534365911313
-0.7967116187558212
-0.045325747136797157
-0.5780868899066276
0.22532023963157988
-0.7297457669983045
0.9500751723143235
0.47955339277995623
-0.5765584467524401
-0.8688470496824836
-0.0016994017076186196
-0.7491434114687641
-0.2574169637253745
0.8599151374846052
-0.3491755173530118
-0.6177831044145952
-0.5088963121105305
-0.21191491871506396
0.8753624480747892
-0.7033299231287939
-0.03195712145246765
0.09584303840642949
0.5786976882496817
0.09458371632823948
-0.6467467050872602
-0.5402198536497493
-0.16188862329226417
-0.2588470598030794
-0.453815089402645
-0.3519534624771252
-0.7571640324909725
0.3408888028715491
-0.006724771583368483
0.8533796731733077
-0.4569792900990328
-0.1461113827921643
-0.5787684732332141
-0.049655528198467136
0.4103938955342237
0.5845036793576872
-0.9248356643197435
0.7187694738921812
0.2599300518970511
0.9178725000089267
-0.7575196044407635
-0.9430111341711357
-0.5299390797404122
0.5909149992681377
-0.534379519397751
0.5165681135882199
-0.8473311185868828
0.0
-0.04619666835826531
0.0
-0.07034839982375375
0.0
0.0
0.05528677281744246
0.0
0.0
0.0
-0.5571703610943817
-0.309614366660959
-0.4114783790650678
0.19233566014795422
-0.056141949692903204
-0.4343663123864103
-0.9069150718447072
0.7540642487793829
0.36153981678078617
-0.25334578054275525
0.689880814069725
0.48017781245261615
-0.99458274194017
-0.9144776008572646
0.3372841928971322
0.11574911256491482
-0.27345968629243234
-0.7707200568346836
-0.1074862419169047
-0.8602430544883095
0.0
0.0
0.0
0.0
0.0
0.0
0.0
0.0
0.0
-0.09267778038041825
-0.5555738281165412
0.20508220449047232
0.6409254956828698
-0.49643662748552697
0.11308042377398864
-0.8578603688746436
0.6434813183864845
-0.8514480207700343
-1.0309002289598486
0.8585462453241091
0.6377666708696148
0.9280445292415416
-0.3384537243490757
-0.39560635421695034
0.9197262471292409
-0.918000706622011
0.2548440955695368
0.11254531083100061
-0.16682308433040205
-0.6558138909403743
0.0
0.0860310004172062
0.038656089701568586
0.0
0.0
0.0
0.0
0.0057112102458774395
0.0
0.0
0.18255441393552196
0.5464831333998204
-0.8013520254125224
-0.3598319080216854
-0.04267787887905672
-0.21568474552574682
0.46071747780387673
-0.4908755812359038
-0.995652276459138
-0.7032405913310185
0.3532645923230684
-0.9246097990225604
-0.8541147065097765
-0.08298110122109875
-0.5375210196238367
0.18602268564308358
0.8341043258753377
0.203895800310677
-0.046670966420053084
0.1975145978206534
0.0
0.03263116906782797
0.0
0.0
0.0
0.0
0.0
0.0
0.0
0.0
-0.2975491161287599
0.009169997497084933
0.0
0.0
0.0
0.0
0.0
0.0
0.013040821107965115
0.0
0.9091220669491435
-0.014077090210267595
0.0011693336689921896
-0.795293087519366
-0.5494146052283497
0.42332088171630056
0.4388954021683986
0.3521986102274681
-0.9884443857570422
-0.04384030992715915
0.023823274785544468
0.29770300394200677
-0.510732910625046
0.4529698596920799
-0.19576963489918264
-0.18527683085756297
0.8747925423173254
-0.08615719329380789
-0.772514009977121
-0.484252950853888
0.2560321267006631
-0.14000810309594436
0.4731827563380322
0.23024200083259516
-0.22451096084769998
-0.32885884927125675
-0.8177569763657351
-0.50333905459671
0.5757880833857554
-0.27121504921808803
0.2679849673055985
0.00485035082952634
-0.8882442934580114
-0.2935916329275261
0.3323871522509092
-0.4340037688094929
-0.0801942796510231
-0.7435705922850102
-0.24199978416950357
0.4318550974672781
-1.0232039821704946
-0.31678108865342414
0.9169119972885891
-0.7299391004081304
0.16309267285680376
-0.1339185233657143
-0.5823563109863477
-0.3526866951837144
-0.39620057415986465
0.4544163536190571
-0.8417878316347163
0.38227313111702044
-0.48338018854173936
0.13565720837754602
-0.8691598547494872
0.08477714750919296
-0.5464610660907823
0.019923079124928966
-0.36854411396075926
0.31293162826432885
-0.9535933632682854
-0.17823198736240675
-0.13525562124468804
0.01323078343934192
-0.12363843640576766
0.8985070560680699
0.5940410808685077
-0.1850443994322739
-0.5361532286495525
-0.95868792176881
-0.5721270586428573
0.09251286213429033
0.8519917397704715
-0.06223107150492225
0.1603561636793367
-0.44163092129038195
0.6382401887241629
0.36838300015765935
0.7623100900937432
0.6918180569318354
0.2484720541385022
0.9578008537818976
0.30386104677069276
-0.4617996217238145
-0.21008986439882982
0.6069727755089929
-0.829176661395421
-0.9233330123076127
0.10609943466308618
-0.655188768518337
-0.8584257111379188
0.8558437366664104
0.7365737690535183
0.5883719348579295
0.7481170746231791
0.3669528147559169
0.9482518975604195
0.8330173307509361
0.04821479192110001
0.5526561843000641
-0.6141078165258711
0.5670641646766303
-0.7392381598797444
0.6678634162543069
0.6273641169343389
-0.7525158549983386
-0.31443450638771786
-0.84250157282311
-0.537843580080767
0.7051121386018342
0.0
0.05941761860294172
0.0
0.0
0.0
0.0
0.0
0.0
0.0
0.0
0.1784798675551338
0.05511225391225216
0.6516006944096352
-0.6012335566637017
-0.7116091322884432
0.04081134553782917
0.4485820951954393
-0.6785081150641179
-0.5037108529717871
-0.4409603003760611
0.6137262454527388
0.09861390259497615
0.45057645085999454
0.18824445618448138
0.3800951391483094
-0.3674859902651413
-0.4810747357311602
0.5215814854399259
-0.5595591367837769
-0.0430120786678129
-0.03594646499127504
0.6761239466670264
0.8476483706828748
0.5145692071925063
-0.39481726206420276
0.0012618163048072617
-0.15880813650877043
-0.2547726233852454
0.9946612563362414
-0.6840478551559163
-0.5031005002538296
0.007666611085564323
0.5644806405546929
-0.35071307373018645
-0.8998187835035474
-0.7000137581459975
0.3691862364790286
-0.27007480620655855
-0.12451764864034454
0.09921960415916375
0.0
0.0
-0.037238376830755086
0.0
0.0
0.0
0.02444957759348107
-0.05464970331581354
0.0
0.0
0.0
0.0
-0.0999949498580759
0.0
-0.09750397163400379
0.0
0.0
0.0
0.0
0.0
-0.07629551510791899
-0.8932097794536782
-0.7308875711122622
-0.0006533485868507327
-0.30836532073293665
-0.8576866725222696
-0.6627119078837653
-0.24560047669417018
0.3091516258559608
-0.9928272237353077
-0.0873018845529816
0.8471321190428112
0.6662397299370252
-0.7239488676032746
-0.34722401162471916
0.7957528131202145
-0.27697177384317473
0.855573318709157
0.2003118077320083
0.8064538379518096
0.0
-0.07770864057610362
0.0
0.0
0.0
-0.000363904495126079
0.0
0.0
0.0
0.0
-0.03763723589870582
0.5030658994906354
-0.2084892952855262
-0.7667042621427047
-0.125934541055865
0.3703770395362356
-0.18512245927856913
0.8410342913345425
-0.3312109523204796
0.1035096838759997
-0.5505595533825485
0.6634091806240763
-0.5792569068961988
-0.8203490953668118
-0.3850479480482194
-0.3351523596223924
0.8010592325047305
-0.4408836467664199
0.14223760572585797
-0.6800370378075302
1.0236474415375603
-0.669345296651706
0.4466647857939614
0.6223467702386859
-0.5457372330941965
0.6373451039434799
-0.6441910139442892
0.7954489980027468
-0.8842832771065605
-0.7815111264740611
0.8869372930647739
-0.44795663121101126
0.1921240709880203
-0.039897720146601756
0.8206795081670686
0.9053173525834247
0.3589842629941151
-0.2002263263561055
-0.9699131373658112
-0.6568176842298039
0.3321029364418997
0.015665390080144226
-0.7142568919780519
-0.5018722848354396
-0.7090623014797063
0.7295053075442812
0.8175805511299943
0.700099627124414
1.0742460434916647
0.31066814035219653
-0.05453108105269249
-0.40208367094559566
0.537545412937062
-0.29420986800132853
-0.5631811739036092
-0.8877926022888025
-0.011460982823603638
-0.7341568004211851
0.7172436916210034
-0.5255925605141754
0.0
0.0
-0.2187519225629547
0.0
0.0
-0.012919070944847667
0.0
0.0
0.0
0.016885707568144052
-0.02625410914266891
-0.855448074799773
-0.16768893901941836
0.17321465562265148
0.8119081019928178
0.6561292088055659
-0.5391514342482306
0.435593671649822
0.5346184631766202
0.8361246058107015
0.1609946887859517
0.3877138516081797
-0.8967790530502708
-0.6723595877861269
-0.4427782283394466
0.4206999742092833
-0.8040373185295868
-0.48747029431238054
0.4666911985649178
0.185873610723025
-0.638334585108621
0.7183220559710831
0.7481551463694067
0.5508321772213298
-0.9602454627462871
0.7829411539741218
0.6133112549227466
0.6228506016685081
-0.3601080710280318
-0.14689884304413678
-0.5259732146122249
0.8926124909522766
0.9715377959493614
0.5659000668800374
-0.1346664068595751
0.9119389219456464
-0.565924655955017
-0.3686746015547527
0.8760188592097564
0.7731213028420387
0.07662542337585054
0.8928498656428183
0.2223288839126214
-0.004457021226210278
-0.42989958430556946
-0.8979320134142895
-0.026809096838337654
-0.7082619851605267
0.8890413790995191
-0.09277060487552487
0.7672170183667926
-0.6671370121458805
-0.8608516023890098
0.3877118940283426
-0.938572157712299
-0.5509814013959562
0.3975729312159839
-0.5168924693792927
0.6987171761910903
-0.6394960335483555
-0.09852722836052236
-0.526040628365994
-0.6844117810471033
-0.1324838017544825
-0.07703431971396424
-0.3307970819860926
-0.38125783414334946
0.46143453979798976
0.268313301829392
-0.8417164472706189
0.0
0.0
0.0
0.0
0.0
0.009766317430747056
0.0
0.0
0.0
0.0
-0.16806777005890727
-0.10841063136525167
-0.6778976434621236
0.5372037641723266
-0.04722543287669123
0.46524004482885384
0.29698749200613705
-0.11327818662132993
-0.06159333623237896
0.04082664859167795
0.21459856632431995
-0.4181292838442108
0.8315915804934557
-0.6063584164503605
-0.9738135976428106
0.2752746208263184
-0.4460017110313643
-0.25736141473988927
-0.637098077952452
0.6528668527526342
0.0
0.0
0.0
0.0
0.0
0.0
0.019761561113772034
0.0
0.0
0.0
0.0
0.0
0.0
-0.0982492210131903
0.0
0.0
0.0
0.0
0.0
0.10278686844709674
-0.6461120305357493
0.9373165505969612
-0.9316493867079112
-0.5532196984134597
0.4614492559325651
-0.4829085198846854
-0.32171924464192697
0.683520323743592
0.4697769506567002
-0.7239820000374182
0.33665560958387536
0.8838093799387321
-0.2661823187679715
0.7357088879263358
0.2595151221212269
0.12492597004550354
0.03803340817609313
-0.8844194317101242
0.5676825978298671
-0.9210489071314838
-0.8023643362275723
0.2839276703340632
-0.021333766690630807
-0.46085118993961416
0.06079629008486065
-0.4965669286723373
-0.38076205107756267
0.9596184896086735
0.2539966022666642
-0.6669111636478304
0.7001289943629214
-0.09435960971909241
0.9589492189983121
0.8089587190221881
-0.940363424247126
-0.31008082594887676
0.9952962081305194
-0.8517509771172878
-0.0013555880230418094
-0.6279226071350071
-0.8343625011588423
0.7441781524696005
-0.4238190653804266
-0.45403817502803356
0.9425895112974501
0.7832318621689165
0.34007957526023946
0.6211914878795168
-0.3649852014465913
-0.7280612754208613
0.15908489743214344
0.8365548408361441
-0.0906451260832497
0.9430074015224723
-0.33134195041248216
0.5016499900978928
-0.339010286166304
0.6510458148951954
0.23772449652276673
-0.6406790072767543
-0.27268182112736317
0.2616692850772975
-0.16147203534420074
-0.3371706598652271
0.6517030183967158
-0.08822868542807494
0.29048257841916136
-0.8179938919816865
-0.10221485584818457
0.12533928888923784
0.0
0.0
0.02465722919591395
0.0
0.0
-0.06576062821419812
0.0
0.0
0.0
0.05646383491458991
0.0
0.0
0.0
0.0
0.0
0.0
0.0
0.0
0.0
0.0
-0.5310274094023488
-0.9955588420741588
0.5297615976375085
0.3496015797604093
0.47969444972935404
-0.7915360676913461
0.397490444986772
-0.3860310169423493
0.6666031667733854
0.4795648661895585
0.04403634596845297
0.0
0.019313498883794383
0.0934019470005549
0.0
-0.13006996983106084
0.0
0.0
0.0
0.0
0.9757688152801491
0.7381975375466441
-0.29764595983368247
-0.143627417036025
0.21295939189433666
0.29582679027006054
-0.28436743505985707
0.974202153721416
0.767078527690246
-0.968707895418973
-0.7506678337984698
0.6797759807267536
0.4393440557081314
0.31357180213630764
-0.6581382165104137
-0.8669844438060295
-0.5089094206124734
0.23674535477390168
0.3448614741878161
-0.1722368302276427
0.8825500315848223
-0.18628456222857115
-0.7496796042795966
0.6089358325087273
-0.47264042449776716
-1.0433964253512673
0.8944085699925794
-0.7281756705475323
0.2957222245736433
0.821268561602684
-0.680757030359645
0.3044691702968898
0.7907738365608001
0.4339390067173359
-0.8984234450498365
-0.0379238361026597
-0.17911300189347967
0.2826491142282921
-0.8815548581651356
0.5031475325564378
0.803967948529108
0.6126544093791297
-0.3965379353311256
-0.5092982479149155
-0.735328455850218
0.23733548292490303
-0.82149736495681
-0.5134414462889292
-0.9830370842965866
-0.27009705445121074
-0.06542000657872893
0.10517490821533992
-0.33430438408022856
-0.2702336420241025
0.42404905078368116
-0.3938078797122091
0.4688281716605109
0.9477147024672579
-0.9587221476295678
0.5768817185022579
-0.9489200298987595
0.7642157999355672
0.5838876706675298
0.5921690852164565
-0.10196747964909461
-0.6155857970846734
-0.11548873673371429
0.8579263417596953
0.9578337902390712
0.5400839440330243
0.18531168104893259
-0.4243189601612405
-0.01847379952893391
-0.7740861245213357
-0.04636046710751751
0.12099244447169233
0.02976460841007844
-0.5747819169181418
-1.0694155793066138
0.6762454927519193
0.5544134749614174
-0.426859840563109
0.25906705085701054
-0.23666844080024174
0.6303082242122869
0.948483354844927
-0.6026814844208678
-0.4256060030211919
-0.241125647557477
-0.640291791599864
0.5419269840664872
-0.709405689337627
-1.1056806487417914
0.5846969402282929
0.44942396878611857
-0.10456315200338673
-0.501326399073591
-0.7337396597727683
-0.8117558524674364
0.22406095903066925
0.5801949161931641
-0.44206549469013656
1.0045571959076254
0.7621327874293999
0.3339468666336951
0.6812619624710909
-0.9051965942725742
-0.7344284839829535
-0.23815564342074436
0.5859753266060257
0.0
0.0
0.0
0.11893228172800738
0.022792188658363865
0.07388265792390139
0.0
0.0
0.0
0.0
0.4321812239737588
-0.8118729396633346
-0.7025116529105286
-0.46593272029665456
0.1346887360825304
-0.5223119901638131
-0.17010813548123144
0.8560947017319498
-0.026100156145149045
-0.29494155303618785
0.2763981955378356
0.7872866060182677
0.2697699813958423
-0.7160379970286282
-0.759682998732377
0.8988581700370328
0.22318676498137166
0.026808149615916488
-0.46870320204065197
0.9002211420473349
0.0
0.0
0.0
0.0
0.0
0.0
-0.052505884315685314
0.0
-0.11370862361325904
0.0
-0.9764024623022438
-0.3473430578064345
0.7630678288206634
0.5483832452018134
0.28864359402817175
-0.54003414961888
-0.12208500485927298
0.47512451493565466
-0.4072544244792591
-0.16085380429153417
0.9864954054171573
-0.12341216686834983
0.41385067222952865
0.6984771949424871
-0.09762476529544872
0.7818979716369281
-0.23028407004471285
-0.8585697971737558
-0.15789408515202474
-0.8758298409715832
0.0
0.0
0.0
0.0
0.0
0.0
0.0
0.0
0.1659667943678725
-0.08827907781809173
-0.32263048815656203
-0.31403010534662124
-0.15954990441464756
-0.7677868556526655
0.7775729318942677
0.38788254104187136
0.17598859228594188
0.03933822431365197
0.9450419862542467
0.7848009186893314
0.0
0.0
0.0
0.0
0.048727064751897704
0.0
0.0
-0.04094295832903578
0.0
0.0
-0.8080899369748774
0.8327250245180049
-0.4727466481417172
-0.9418048589411732
-0.8158871393325888
0.03231812425313052
0.8070268117955526
0.9223672110155755
0.24968521034529959
0.0133376486429293
0.027901093901573082
-0.7422047518258037
-0.8192961847741511
-0.6195987749627677
0.11757815976361967
0.5981114656534754
-0.6366048909183183
-0.03220021113978411
-0.9002902777686146
-0.9004044365183885
0.0
0.012709933454958593
-0.025172553845318153
0.0
0.0
0.0
0.0
-0.04211976788425614
0.0
0.12380060797293732
0.0
0.0
0.0
0.0
0.0
0.0
0.0
0.0
0.0
0.0
-0.44173248211213006
-0.5506979502132969
-0.9536939015286194
0.7534542526327068
0.4432887596562358
0.6277425234012548
0.2910860901286372
-0.1319647816409777
0.9817377082062224
-0.7211411649650079
-0.4432065481842782
-0.11372727093571622
0.04679089885407106
-0.8859639168035971
-0.9546864875610306
-0.38745451244424167
-0.8818747322968814
-0.07322822081604441
0.31247432249852025
0.227268886481921
0.5723196206007747
0.5936657712599573
-0.6362407800703915
-0.40437398767721455
0.8396993412793281
0.6238710498122002
0.26367895858826595
-0.421656269698389
0.45975273848153875
0.5668681250793468
0.37366266768958617
0.9230317082621287
-0.9445321288732935
0.22211626766555814
0.10596575113661955
0.200635947961673
-0.9266923096625392
0.2408273395564966
-0.26117380698704445
0.5456412289266555
0.19217891121599262
0.8807793078089785
0.5036916139478516
0.7500811283772433
-0.7397065892116997
0.6142361822890738
0.16910269381295762
-0.36321594975929705
0.07248933046073147
-0.2291153569170037
-0.1925226174936303
0.7636420610376126
-0.047410928170975586
0.8454817422596435
0.5829742167348347
0.8007643519093227
0.2147785642249782
0.0695737300340975
0.7399784027280218
0.5797798174957114
0.08743207371918937
-0.15697818769596505
-0.45958894690548435
-0.7737339828211447
-0.5282335380995233
0.5240519903285805
-0.013232993036223398
-0.18367472413205976
-0.3327896447322088
-0.33201663803783843
0.8030992516486961
-0.9084600062596635
0.6841730544850495
-0.013425826926286133
0.6690023902538711
0.03683857087385256
1.046545904525669
-0.879759219616733
-0.3055276776931939
0.9180543060329238
0.32807683376836927
0.8112341906208884
0.3996070682706685
0.1769530053857684
-0.8647662629955248
-1.1264095116006188
0.05983467211691729
0.049065173928991346
-0.4143902961434154
-0.8277482941106941
0.0
0.0
0.0
-0.03143902653459371
0.0
-0.03079971131876362
0.0
0.0
0.0
0.0
-0.8479263838738812
-0.3960467651361683
0.4438719184832802
-0.9004872688742429
-0.2406558430733834
0.6505639305807946
-0.844454197196107
-0.6459067929740312
-0.08911493565310281
0.4579314539278528
-0.4126326857452063
0.7649164052255706
-0.42458429757296945
-0.7221785197238091
-0.4817083458113398
-0.9602353178647006
0.02102334127422406
0.86397513353798
0.6991817467866477
0.38263439305581304
0.45965757465741874
-0.33731335327252565
-0.16698505076533565
0.9765104014204169
-0.8439889037501318
-1.021397174731325
0.1435303891731592
0.5221362730757266
-0.6743138166450244
-0.7311005516026112
-0.3356867567280357
-0.5952825672321529
0.7785112291642453
-0.1919719565211048
-0.9862376894155037
0.24047828447393815
0.11429565776084405
1.0179814337349296
-0.4512785889255635
0.6485705709892875
0.019307414495997488
-0.0826489649688078
0.7155254270067437
0.20548704300981369
0.07569052455883307
0.2156286338871572
-0.35875519068046674
-0.7874651528201133
0.9694496042375257
-0.7168837075969243
0.24014185955769785
0.3947408641000736
0.0003277721316177207
0.7005910952050104
-0.42536444257082184
0.9480716164916623
-0.7423902558236626
0.004770912694842755
0.9568857335496419
0.8796545224395844
0.7940232409530512
0.819841128044035
-0.20867033348662947
-0.8801203493242473
-0.1322508027185516
-0.9022289367936056
0.8098461776615016
-0.6324594714169254
-0.7651416458575115
-0.4794134408854014
0.386017665177278
0.8360318469583641
-0.1283213674751118
-0.7913824762790667
-0.6159630603405924
-0.8574582910993939
0.8212158349628689
-0.3442144960011073
0.6869475166440373
-0.42907531956456246
-0.40378815309465566
-0.3903878552608877
-0.08185737906968063
0.41023293901664326
0.232174516729228
0.8439291505694746
-0.7776240135841073
0.942358122410581
0.20408717066253446
-0.8630859687231947
0.04708573003656509
-0.48511908015896404
-0.5929057401552082
0.15288263387168732
0.2863378974497881
0.7202540275156557
0.9793055173517518
-0.3647527380429858
-0.7387233283838941
0.6234191879978539
0.2840095976237613
0.5178451011862615
0.43472208400335677
-0.9427068923321076
-0.7828044210702609
0.3306366353746122
0.4306732846784589
0.5501568070908827
0.9486435869998342
-0.3996852146376666
0.8183812547556988
0.7188274362964238
0.7408935265130703
-0.6306003311719608
-0.40538694728505
-0.7237112136778467
-0.8386840687619193
-0.4899279145847377
-0.06620648971742416
-0.6377422912323758
0.09837889911750364
0.8788027520408939
0.21574706420121315
0.23928575297685284
0.7854949345840101
0.27922994615127794
-0.07912004536903364
0.7370735437555906
0.5760735920128159
0.04695373817382209
-0.9310842464695308
0.40894280178423026
0.9389175498556728
0.49632888003988396
0.6973891458466381
-0.5475802181543741
0.6942416409902747
0.9989625976148073
-0.8324282966941183
-0.9131632236484502
0.24503842980153556
-0.25617508974848424
-0.08563936651517254
0.7277639197435148
-0.31973413557743346
0.8015230675810527
0.16706742232152783
-0.2034124922900593
0.27008405481078746
-0.6396781848292498
0.12288927881554668
-0.0876918264729114
0.43934477214164613
0.18732143210209012
-0.9834068273419598
0.6139384120045868
0.5974859882873036
0.9846349687337048
-0.533369497067953
0.6099991571470971
0.0
0.0
0.0
0.0
0.0
0.0
0.0
0.0
0.0
0.0
0.3892385898125197
0.3094587832869939
0.9179547341436347
0.5906263153764986
0.9979456444453909
0.47312467850062034
-0.009373035316578293
-0.4778376718670927
0.20913412885940885
0.8836982782724798
0.0
0.0
0.0
0.0
0.0
0.0
0.04758354448462022
0.0
0.0
0.0
0.0
0.0
0.0
0.0
0.0
0.0
0.0
-0.08342661868487693
0.0
0.0
0.0
0.0
0.0
0.027225508105650383
0.0
0.0
0.0895838905942756
0.0
0.0
0.0
-0.42607121416926463
0.46240431011586536
1.0149658753079174
0.056334633658811306
0.6102241798423402
-0.9615937135246588
-0.17302213354128093
0.6851838600691416
-0.17923186570719987
0.3223994684624517
0.7646191955601216
-0.5472674200155753
-0.8375654287464174
-0.8298471490339472
0.4576169988490537
-0.7377006298244507
-0.9178579613773767
-0.5708450769143989
-0.11276041700491346
-0.31464496855019536
0.0
0.0
0.0
0.0
0.0
0.0
0.0
0.0
0.0
0.0
0.0
0.0
0.0
0.0
0.0
0.0
0.0
0.0
0.0
0.0
0.3091753301765944
-0.14767524100642304
-0.3336388876561751
0.7954678485985767
-0.4394801507639955
-0.4790542039967778
0.5003470481032399
-0.18333762949432875
0.5638966420329186
-0.9527941079942359
-0.1485949974473726
0.007936855274339072
0.46097933821439163
-0.2912497347347396
0.8063407155291233
-0.5269058259913781
0.04134179572228258
0.8718090060395465
-0.0803938387214751
-0.8971097265925729
0.7016982509778993
-0.15183236236728392
-0.6315239933325855
0.8155506087391171
0.66297675244955
-0.38374510437931986
-0.9088488333074554
0.14905897832294637
0.127011540278213
-0.7359690783035691
0.7312791363554876
-0.4488207036051519
-0.6166233423349254
0.8782307955775261
-0.7374182632388575
-0.17535230468128704
-0.3650472310493557
-0.7133486978407353
0.136537304725582
0.6893252004667534
-0.2545072814813696
0.7110434226158215
0.8552700006802777
0.2547087301173352
-0.5660235995186909
0.6322923592593819
0.009764390835994119
0.8790779567823536
0.8346439357962725
0.3495052930143314
-0.18932173462531
-0.33036149380652846
-0.8513970116383013
-0.19059426753163278
-0.7350306928036532
-0.97549959930095
0.8646801385201717
0.3393883075163963
0.5389349253865767
-0.9917562195695611
-0.7597506583909759
0.6754924198704759
0.058849623310165064
0.4559195790137389
0.46013404082892273
-0.3452094439721202
-0.17224644459820326
-0.7737664082935958
0.6574736780193575
0.8452883318993825
0.0
0.0
0.07334524125159879
0.0
0.0
0.0
0.0
0.0
0.0
0.0
0.29857394711923857
0.8872502523602185
0.8965681576751674
0.8037022408850458
0.8722117498126408
0.5271640714218464
-0.09722379760133304
-0.18136131339428685
0.208672903775591
-0.6280613273319628
0.019583024983040265
-0.77296707071254
0.5490398326605446
-0.7007840754297237
0.10863464626139396
-0.9806152395506318
0.19063946291555278
0.30729886015341346
0.16936032448198213
-0.6915165366676759
-0.982389105745512
-0.36495970755716933
-0.326872078745432
-0.23657086672887528
0.3792185123355023
0.5873737489265125
-0.5479057327282129
-0.23020229484476373
-0.8268892923588471
0.20292092172546594
0.23969028547598836
0.9921448037599205
-0.3783080586294627
0.9577333871047919
-0.5161527455843977
-0.6794162677465085
-0.782027298267491
0.6040222837465727
-0.49290215073983745
0.6085056116979567
0.9231298147494224
-0.16336250996015478
-0.7654679899403811
-0.964874800771433
-0.9064297384387718
0.9936290500240152
0.04602626232634561
0.32481615427756094
-0.25953350167525424
-0.2390568054307144
-0.006316101149182796
-0.5584200997578919
0.561197545963489
0.8838295778981269
-0.07453476102914691
0.9470206207500051
0.2505721316402319
0.9299791678110001
0.31113212099268783
0.8037933782653711
0.8121957774163602
0.13137736017277324
-0.17395323111112027
-0.13700262474380254
0.1329876839253059
0.6452620693492366
0.9126065622426511
-0.565883442576159
0.8943374667903472
-0.3659378262122075
-0.8553529150421453
-0.6982401543029881
0.8904457943290804
-0.8272248389324137
1.0299455035548948
-0.2938828810192078
0.8262000152926232
0.5166822222043737
-0.308941973887056
-0.2629847535841845
-0.8381503574175198
0.2423668503222769
-0.8890096325446213
0.3822957762680037
0.6994242386354586
0.4806100857141565
-0.8835845373218718
-0.6537224007730892
-0.9007947017576208
-0.2711956651540508
0.3155140990925614
0.019863368449828167
-0.23114014865428023
0.5466238961574332
-0.9407070193156835
-0.5867544183166145
0.4894567982316778
-0.510213390218321
-0.5189013405722991
-0.39021070170760197
-0.3909254325114822
-0.12047784816304152
-0.5353857035876886
0.995526603546384
0.33520978664542755
0.5648818695819784
0.4297142116185506
-0.10794499846272876
-0.7533185141488092
-0.15803105329917455
0.0
0.0
0.0
0.0
0.0
0.055849440008446105
0.012144117172635208
0.0
0.0
-0.02855900004158075
0.0
0.0030070711271411006
-0.1823153191668074
0.020073420294855707
0.0
0.0
-0.14970473777751986
0.0
0.0
0.08671353804257509
0.0
0.0
0.0
0.0
0.0
-0.12289304880897875
0.0
0.0
0.0
0.0
0.18102603432737552
-0.7177620399765274
0.031113122800561114
0.7144414743756782
0.0983193286017241
-0.09825490468279585
0.3275943555566805
0.9665433183183259
0.3893289680046559
0.5795162628327104
0.7211526537671862
0.04215707239634647
-0.2015376683055019
0.9106108959971901
-0.7220377497205255
0.9504575739824161
-0.5783099814010189
-0.42184023911909546
0.8149922167554442
-0.8706317865618436
-0.20079753517741206
0.6839274739102458
-0.9206861212783728
-0.9765857792082286
0.028840170424459854
-0.5902896321320876
0.0992837338262944
0.8065683106233568
-0.5882700208586795
0.19287291053835803
-0.8279311687891522
0.37119825152133945
0.6050904123083463
-0.5151450255648655
0.7635512505173605
-0.20826151743140686
-0.07319445603794805
-0.14132363295937256
-0.14249597623814347
0.5872041048678875
-0.7523428291853362
0.9132692531753903
0.12572349546428496
-0.6731300275729998
-0.27604310748264327
-0.8880516994818857
0.5402518029111834
-0.8665229278169004
0.6065436886506763
0.18940288061009602
0.3278739598853757
0.9594917795134391
-0.21742852553436154
0.9633255625353174
-0.26964560618132793
0.8817967287306245
-0.3901362733008924
0.38403011541424803
0.32997671442629906
0.4721857294515235
-0.9697823799035967
-0.21820513239175177
0.5713931472827314
0.46201901517393984
0.6575778940316961
-0.2715522952783276
-0.7854126610777672
-0.8058377251998707
-0.18625081566672952
0.25469877492335913
0.5149607897565742
-0.11861761855886012
-0.38903039059397826
0.5952375830486561
0.5220682054653092
-0.138590662374152
0.0458038829644456
0.9143531780825973
0.07231908806921927
0.33177354130241166
0.07059619781564247
0.0
0.0
0.0
0.06192103671824881
-0.06382892101282081
0.0
0.0
0.0
0.016086586159352965
-0.9943968571937372
-0.8145942702341908
-0.9446375842678472
-0.9572192349154722
0.07155227188924451
-0.9244215529625401
-0.8002588796164878
0.28491790987541654
0.46522273625164257
0.4897409612730128
-0.28172384989450916
-0.6890085068992469
-0.9742083381562121
-0.8614321153368127
0.7503009428365659
-0.2869538120501032
-0.76902501342043
0.8433450161965723
-0.2872325500141719
-0.11049848884575564
-0.36295395978614775
-0.539049525142979
0.6432872436069201
-0.2818551579485904
0.6249421169803095
-0.9574929102902907
0.8842632738959431
0.5610218643920292
-0.13171949453640414
-0.06413409944948141
0.0
0.0
0.0
0.0
0.035915778129244784
0.0
0.06992331717973152
0.08801345925760665
0.0
-0.12717266104793504
0.2779879751176686
-0.5302762668811563
-0.35765058868282523
-0.8368692762413006
0.6296446243829908
0.8293016347017726
-0.41938352848070637
-0.22277789768724987
-0.22096879372624478
0.8697182859537562
0.7685634334680412
-0.8789524097581751
-0.1865560317816768
-0.4815761144278543
-0.39389678276204965
-0.869063913969167
-0.7060825801772395
0.8534661873025571
-0.5470161237081927
0.7383654181544972
-0.24465201840631678
0.42814375663158355
-0.1870113262528812
-0.3755041908809849
0.45532131775128337
-0.9612012368040601
-0.9489017707400978
-0.004909908186594203
0.12922217295343774
-0.40412116705322787
0.39676159923958254
0.3620274442711997
0.9990587842366065
-0.021933043035090583
0.386644481293307
-0.14749084712349814
-0.13163019075721705
0.28616046248372506
0.8814836422314076
-0.29781837294589497
0.6898488169316115
-0.4322902516252334
-0.8621932244856216
-0.09789373829408365
0.4636126362932995
-0.8697073545934244
-0.01719813373046586
-0.9253885174879888
0.486447953646574
0.7050624962914391
0.0
0.0
0.0
0.0
0.0
0.0
0.0
0.0
0.0
0.0
0.7697592747877855
0.21317652494995998
0.5611616268805066
0.1476732696465044
0.47036851138932834
0.3680225042372831
0.14524166730676424
0.28558827075621684
-0.5522728624977302
0.2142851310493774
-0.4304971126342183
0.07159451551517804
-0.9982557616181778
0.8599988882202232
-0.6467161341815735
0.195763028300191
0.9327903942391671
0.26328020025801124
0.30443898609736153
0.1744146235967794
0.29314630701353184
-0.7896265531501341
-0.6661733020762437
-0.3682988794456459
0.4501077433357932
-0.7260612714387706
-0.21059249133571245
0.12863921861178573
-0.21880181642291263
0.019471494243731957
0.8550452488220655
0.13620552185449752
-0.028985062255719507
-0.07631433974770818
-0.7653215946794587
-0.10900000412166122
-0.8436477437839403
-0.39397745089880143
-0.8293493028946066
0.33829379859078923
0.06219023597735651
0.005665036494362674
0.6753456751798104
-0.5959452499211637
-0.7243160640893958
0.5791912301890847
-0.8740991689633915
-0.799182544779711
0.15742203221327608
0.3347053346375762
-0.7535403439362318
-0.1673473130444346
-0.14663472613728512
-0.012745434985661053
0.2391372881596765
-0.197924310113026
0.6793726084296465
-0.803040342696397
0.8938377468410017
0.3076558775508551
0.3382263697856047
-0.775590958328657
0.9596038406141123
-0.39114032735128723
-0.36183044591300206
0.6087407314682602
0.9003484759232898
0.9556566852895851
-0.23301486643132585
-0.596005500737488
-0.7647804019036648
0.9621316557644781
0.19679913052765285
0.8612636344403382
-0.46656844187566193
-0.22001351691759363
0.9811899752843534
0.3378951850737719
-0.9805048549293424
0.31924303377526164
-0.40659211161943376
-0.9557895162632633
0.36474229056717666
0.3467811558156495
-0.22607441920881688
0.014961628074848798
-0.7109447952489325
0.27473912594548167
-0.5024117918349185
0.8114898941836386
-0.8899772684959524
-0.3523750349076875
0.05644610293721142
0.008483494702254069
0.6263438671270988
0.09430078847533557
0.06958934377912818
0.6503602257630112
0.06862792840657803
-0.500183836098212
-0.8102160816680108
0.4859767995533182
0.5587959455551539
-0.4176317925060721
-0.7306606494575636
0.6129721850973933
0.15226917393310074
0.7885964313078841
0.07094992604754813
-0.1049749442542075
0.20223994817135194
0.849328387878638
-0.21163945486525204
0.5960930573043381
0.22262065089456612
-0.7974607407162038
0.01877353656827485
0.5235084102851757
0.8776900221058582
-0.6636044515694748
-0.052066567197144975
-0.26633849167387935
0.06398155147965912
0.3660799398317416
-0.6410348143052897
-0.7522981593055299
0.664463872057576
0.9085907772036064
-0.3356795572874911
0.30732320682442316
-0.10790584965759176
1.0783488934624001
0.8282343409769206
0.02962066774970684
-0.5757439562620554
-0.016083472278681565
-0.6406246922086691
0.6823994194323122
-0.19518962269998985
0.999827761804835
0.5962241940504436
0.950919259902816
0.6767985674689483
0.2297630000191364
-0.5218247891240471
-0.7780746248850943
0.7958973991678825
0.6240082702130549
-0.05830161350573948
0.909067050444792
-0.48939021664634663
-0.06381422412081528
0.09053023640474483
0.2563638664622525
0.7413083854130231
0.4356767537382156
-0.14635528090907993
-0.01043049461270451
0.9048844452445075
-0.330590983451273
0.004289505670803982
0.0
0.0
-0.1741686655742642
0.07703513887793051
0.0
0.0
0.0
0.0
0.0
-0.1535860322502549
-0.2643494421231498
0.6023714447911233
0.3046550743972688
-0.6298908589416199
-0.9101502680161057
-0.8578004420647636
-0.5772604832596118
-0.22208296962536858
0.5303114315749995
0.35124603635068774
0.24457276742706746
0.6626342554329985
0.7881371411297917
-0.7552943927682845
-0.1502496194083483
0.15765316165743737
0.08709940814188033
0.530931387862047
0.11592178106828263
0.0
0.0
0.1612932981306991
0.09299661938578034
0.0
0.0
0.0
0.0
0.0
-0.01901088395669605
-0.6606861219443421
-0.6083701729430779
0.1107233962192189
-0.7496643792758604
-0.6730891524538407
0.19734241622954163
0.88656557108141
0.9486981474668832
0.14188155666882749
0.3847974068158099
0.17827055974411074
0.1699259268174904
-0.03782383248559218
-0.3125778829697605
0.4428499780277535
0.3447409818447409
0.8995580833896486
-0.9407874153688198
-0.74112420803164
-0.62204595514025
0.309624184195203
0.5749212857189975
-0.21224818308407123
-0.751750306678626
-0.1420333784484482
0.07160926285971292
0.5018048184825392
0.8041099061976251
-0.4486748448524598
0.005453059874135021
0.38669800694806056
-0.7128738766310301
0.6283170652335093
0.1196037552073136
0.6790568632880023
0.31958350241872235
-0.5269002199314219
0.8785315656575804
-0.4195904806341988
-0.07856537742151892
-0.37377284058682747
0.9568925503479353
0.04910691976955528
0.14059488193251446
-0.20653284131711533
-0.1792479404698932
0.4450506736121984
0.14400133630597822
0.29197805748898475
0.9737948560500937
-0.7224227408228068
-0.4168160463077415
-0.9157919477763443
-0.7910224423970753
0.0591333467037225
0.9220308972353158
-0.745343638813085
-0.3621515946673568
0.5588127565127465
-0.087152591929049
0.0
0.0
0.0
-0.07960963079401831
0.00819196013078113
0.0
0.0
0.0
0.15386871460977486
0.0
0.0870983366617748
0.6936632818470221
0.022391371116408015
-0.5266647446890722
-0.8158495560538184
-0.17946697888703378
-0.20846386611729217
0.30434222861027127
-0.990769426638487
-0.35369933967054634
0.44200279409083554
-0.7754761867217881
-0.5798642399086333
0.9194960695815642
0.39382130135755095
-0.19208505709079793
0.9395574663166626
0.2943377472183426
0.8091246945988646
0.24693803504583078
-0.5154018873906147
0.23550524542451967
-0.9584750723964361
-0.5793338145147366
-0.7721241228433207
-0.0707952937135472
-0.41292481366873823
0.9962742578818622
0.4451979226794361
0.8925208574268
0.3673091050924613
0.22245420422530193
-0.8516768961763201
-0.9449953851039652
0.4781347199843171
-0.8769625629875999
-0.9572893572390968
0.542023397007434
-1.0421175278302932
0.4060794557759712
-0.026302349640163158
-0.004259639548599734
0.0
0.0
0.0
0.0
0.06136394378468275
0.12170876143397312
0.0
0.0
0.0
-0.061159308926287854
0.0
0.0
0.0
0.0
0.0
0.0
0.0
-0.0029183465544175688
0.8808217307858595
0.5606234154694012
0.5606671295391958
0.8447536582760307
0.3772361344812667
0.8012084786524694
0.039249230661101725
0.09225840082029557
0.5241068842746512
0.8651140118573037
0.6348268200433034
-0.5719528253163695
0.5340520577069217
0.3789526206621919
0.7340709263774474
-0.8121582472193212
0.4753678314013554
-0.4443917294234286
0.3847514189331924
0.3797217854263093
0.0
0.0
0.0
0.0
0.0
-0.12707166895026023
0.0
0.0
0.0
0.0
-0.5738468908316363
0.6028286458322067
0.02757047269073931
-0.6181988310919716
0.37945658711262503
-0.5346321539490626
0.2276870898703518
0.6364132500620048
0.8120328659725622
0.6480039998962666
-0.2238194753920909
-0.45617237978261954
-0.8643257308610344
0.15952327040097067
0.45765308020414713
-0.30763362623300305
-1.006166100239853
-0.22013673457859517
-0.7603082404822232
-0.30822698475918586
0.0
0.0
-0.11646041182322629
-0.02874489753809449
0.0
0.0
0.0
0.0
0.0
0.0
-0.5856184439300056
-0.556675319743597
-0.44254140949984966
0.6655363559252385
0.659389582757737
0.8295227294880991
-0.8531935077944115
-0.5025534036314117
-0.002107809556042728
-0.3405027886210601
0.45749308721067544
-0.6440325235988194
0.3244626464269996
-0.243012006437741
-0.9528908088598973
-0.3053892718524912
0.7703302341764655
-0.876431674728043
0.7889003119625833
0.36222212774411
0.5847068921878675
-0.9525027487610267
-0.14547647875977576
0.7631943097678484
0.691358705654977
0.6011142294769456
-0.5578312932102869
0.9609487970941983
0.8527812291838059
-0.774450584882594
-0.6700905587547419
0.6066853575594888
-0.7266771527764793
0.7685816994071708
0.46286526919801696
-0.3825276749267387
-0.982659291506687
0.436991416217254
-0.330443767454077
-0.22148518592684496
0.0
-0.027200709740677044
0.0
0.07457025942591951
0.0
0.0
-0.03365361671325201
0.0
0.0
0.0
0.9489968606564945
-0.15369153279468417
0.5704406437472893
-0.6150101696842525
0.21743051837765937
0.6345661517263694
0.792568283726028
-0.7532034077906953
-0.7589475397832237
0.5991418739657456
-0.9472872688445326
-0.765647947671285
0.2321976873221554
-0.4745490591026073
-0.6127418652831544
0.9286306297337827
0.3688018289437155
0.9440022583270766
0.9068757140710941
0.7353562608089107
0.3234143615803402
0.5284884109588136
0.14547717151955797
-0.09298738693560027
-0.35458318147611245
0.979076901758803
-0.44718995282412366
0.7806345831804402
-0.7544967840386865
-0.2420592698203834
0.0
-0.11712856385649117
0.0
0.0
-0.03945212777842879
0.0
-0.05196566180267901
0.0
0.0
0.0
-0.9843688153858436
-0.2873829000251851
0.3273189219507944
-0.4785373877449559
-0.48954966182793647
0.1590573460001768
0.18154514399051883
0.9702450821415036
-0.6842245519832433
-0.2777486598715455
-0.5525483050420934
0.48163583555959577
-0.052275312177657574
-0.24276510752150027
-0.22881234042187115
0.9252498858157716
0.32374008607354265
-0.7683993669027587
0.8418016620917421
-0.6776471164310902
-0.017559332931673378
0.0
0.0
0.0
0.08203473158920799
0.0
0.0
0.0
0.0
-0.062112040005321195
0.6655525880377835
0.3474411911567367
0.6444641674164695
0.518759265148575
0.998499347435454
-0.5677206566881761
-0.6035240891899185
1.0406641263597265
0.24200584524726731
0.32748779751796864
0.31890532202097255
0.06309270149630519
-0.7393039107103951
-0.9306198914114604
-0.253556891931664
-0.14538760120759214
-0.1253952846271491
-0.810951386734982
-0.5466797428249246
0.13040113143534904
-0.5426746877617437
0.11962722470164094
0.4302225270894866
-0.21702787600701168
0.8516030985626493
0.28730839326024915
-0.4058296861445747
0.19152725742950083
-0.5631602639295819
0.9810736067141013
0.034904535350449795
-0.7921688531610218
-0.34220892955712867
-0.4695332246944113
0.7246603243453116
0.4127238550265458
0.6532849142087607
0.7264919840221855
0.48872159864388953
0.8352139564542158
0.0
0.0
-0.06550106738480008
0.0
0.0
0.0
0.0
0.0
0.0
0.0
0.39780954283024317
-0.7903959933838138
0.43576047070751844
-0.14815977296236071
0.5145708138017129
0.5937945497393056
0.7269023607306322
0.30395995473633053
-0.37011121315354245
-0.17485167144513084
0.9899756160740611
-0.7344322737412714
-0.056417492742375286
-0.6617406918674433
0.4135237311371239
0.6350489194638753
0.48322244579662366
0.10277279575039516
-0.8996585087986448
-0.2739535299393827
0.0
0.0
0.0
0.0
0.0
-0.10016253780780143
0.0
0.0
0.0
0.02012877325094471
0.5803049605060291
0.12762109151788414
-0.11653045922459726
0.8632784625180852
-0.9533960455192154
-0.23831678532540246
0.9192111205668325
0.7475351545509286
-0.4043962213048262
0.699644450377512
-0.06727926438859919
-0.27930975220055854
-0.9548601712749063
0.38951968778930257
0.18103082378607058
-0.7959539199165679
0.2670867661707339
0.6803165906130468
0.7494399125010891
-0.7385120285581183
-0.9661315749740398
0.6655238538075412
-0.37173074448396326
-0.27634198135910326
-0.0026325910932443186
0.7008230730487189
0.5137028988176426
-0.3010459756866478
0.5363839334134215
-0.7819101300917858
0.6489956683229257
-0.9245634968382654
-0.931860853208045
0.7818338014057256
-0.48061862340648753
0.07642754066732005
0.3901715670353503
0.8376054244408027
-0.25413700011708684
0.38981649466534307
0.9655013259331371
0.520826077500332
-0.7288092268316742
-0.2927739000270074
-0.9436357900923606
-0.3636028468480872
-0.8936947335169136
0.9653873236738215
0.7565056473604705
-0.35608785825855005
0.5244420231549485
0.543252653172897
0.6055471000971124
0.08249155710448486
0.730824556509013
-0.4686935098981977
0.9649473049032921
0.598832836566191
0.45537716035708464
-0.4163166521817754
0.1605637043134116
-0.5200417871166295
-0.9355975691682132
0.5876141564510393
0.5718867435917834
0.32433714946855474
-0.9535821392385588
-0.5740877189223186
-0.3152510864901561
-0.5836150228740595
0.47801517770125523
-0.588700830816405
0.5039247745709918
-0.3080347112894628
0.25596832484394216
0.3460563837738022
0.8773712100434107
-0.8504996814896955
-0.8527222855841451
0.08899492507331486
-0.7730139746598232
-0.8287425384812603
-0.3589523710230411
-0.150752872673086
0.8512222131461469
0.3418436112394905
0.10388600077329269
0.5354756069792106
0.14290922115122373
0.017128241295331303
-0.884130940482189
-0.0156404261144536
-0.7189633847432124
-0.5053531646983549
-0.4978317224650717
0.15105221209534012
-0.5837214970256224
0.9890596248104444
-0.5178129079692366
0.09132414772008357
0.3842733255851054
0.26298284989920395
-0.5731325540662104
0.9749109174814445
-0.4365987865284999
0.5113470581989399
0.6719127762045176
-0.9556295996127351
-0.47518694983009224
0.4764671542153025
0.0
0.0
0.0
0.0
0.0
0.0
0.07036655679221505
0.0
0.0
0.0
0.4682641172069229
-0.8851436784877991
0.19363976334599564
-0.029856144913455535
-0.09314915890611103
-0.22930303381730677
-0.16377836595329542
0.7511774373064897
-0.8290417852753287
-0.565982645783937
-0.6147976343472639
0.818734734343125
0.06590462068773606
-0.04738952236326632
-0.4449143460329015
0.31632224972808576
0.7298271451425131
-0.4839554061329908
0.3933630246661679
-0.6772628011838071
-0.990185872056815
-0.6194024881831348
0.3185971015492864
0.303994986683376
-0.6790491150692048
0.08941794705524875
-0.3276729934706565
-0.9309643661190012
-0.16137334742441564
0.8164841963074487
0.0
0.0
0.0
0.0
-0.04685886727024731
0.0
-0.03804191026724242
0.0
0.11454701201169837
0.0
-0.6638442032985206
0.2931444586390388
-0.48287077033707104
0.06280235714908611
0.29530468281165456
-0.2558303259439825
0.7567568092956436
-0.3334058579549217
0.6388329204931351
0.4975663357128781
-0.9454528028653986
0.30210644913275964
0.3578015126195737
-0.9874911165602913
0.9820049752443103
-0.765538069551291
0.13875883731243244
-0.7912037186827412
0.7366429925705402
-0.7034076295968248
-0.05139161935437589
0.0
0.0
0.0
0.0
0.0
0.0
0.0
0.0
0.0
0.0
0.0
0.0
0.0
0.09328365512081309
0.0
0.016512638415817925
0.0
0.0
0.0
0.0
0.0
0.0
0.0
0.0
0.0
0.0
0.0
0.0
0.0
0.0
0.0
0.0
0.0
0.0
0.0
0.0
-0.02236939597249716
0.0
0.0
-0.3643764165153842
-0.63400023662264
-0.5556132438959998
0.6987736903351525
0.42582721947936875
-0.6940014887807218
0.08671382700879438
-0.4025321287922101
0.2876779164020977
0.48539140328390684
0.22193515889243742
0.3616686674607228
-0.7224604762810818
-0.3220476828008565
0.2090079216843936
-0.6391902068406384
0.3663270509259679
0.26728074334985563
0.6358298245022247
0.5098801531282684
0.8274897379443766
0.925031285246567
-0.1300786760437882
0.13169196536634176
-0.13853184858069523
0.8078396128858789
-0.6005600558221236
0.10531062381705447
0.5923303526390264
-0.6081642580174532
-0.030913441005739006
0.6303195040037581
-0.7566483647418796
0.32093259004190755
0.42468798161080606
0.573077738134619
0.2831411159351831
-0.20824682427978325
-0.6245954062306144
-0.48858210782253475
0.2461512158268775
0.47665551038634446
-0.21886594932254644
0.29576387038895113
-0.2118886622078784
0.9451989320305403
0.04956099088336942
-0.3373308444172676
-0.7337855096632109
0.34057173068345237
0.16434744038639948
0.9282447178101305
-0.9455686777417756
-0.3047682984199618
0.7803780958763167
-0.8562018213783764
0.3739533359398852
-0.799873536416092
0.9028929153078993
-0.29752627900438644
-0.5498256427897035
0.756143400904538
-0.6733723507368459
0.7439334333573484
0.6384519217896952
-0.8624170254577561
0.36340638552865734
-0.22207684595939536
0.4363886251030713
0.8615210304535221
0.7646262566347533
0.06140874555597908
-0.2939359560147192
-0.02129928254162472
-0.3406312020234301
-0.136476816330537
0.8278177797834219
-1.017555364696401
-0.389875591872497
0.658624501160421
-0.9434852554489512
0.2441322463023654
0.7213226209825501
0.41794675430579314
0.34480169079463585
0.4931434888490758
0.3980342428056125
-0.6372881658554177
0.45683543700707263
-0.26851565581381714
-1.1075139708185557
0.7295533141827069
-0.08462696741556724
-0.18122249239423094
0.612972689521864
-0.49392964930880434
-0.700183114174121
0.8867847959076822
-0.062085584660958516
-0.4410445775568649
0.5488631763099745
0.937821847335196
-0.7823384536776328
-0.31687280588551303
0.6489353866066749
-0.3144242833338535
0.854800020492922
-0.2891355568271108
-0.8866920407430232
-0.024189912293403726
1.0430121644712032
0.7624101754391774
0.6058996306426125
-0.5692820612738732
-0.21018387917104153
-0.12754380344046412
-0.10572937118876174
0.20686965740301866
-0.32162857778933873
-0.9363871983132794
0.08658294423868362
-0.7500070365598422
0.13516180278302198
-0.7065632401787956
-0.2159459200908722
0.9212973727616611
0.7605291351386383
-0.16947171121097337
-0.8839059140489134
-0.6008441819345193
-0.9707689057325131
0.029619635178214587
0.7626235601409801
0.7076667331855324
0.39645234136787844
-0.3937769033777325
0.9974018382613927
-0.3264342867610249
0.12121332791021122
0.7818186374212799
-0.35291166962896536
0.7345542800492906
-0.25655949059345295
0.35640382077725014
-0.8652950523311205
0.017757785925295533
-0.9058440909370193
0.12780852382624475
0.3660002104461897
0.871154275087987
-0.8381388889994819
-0.1647144530704745
0.9171488796113192
0.9577696080960711
0.9130384893439352
-0.2429445217985036
-0.7507231345155909
-0.25049189948008177
0.11278235916083923
0.08876255204742955
0.0
0.0
0.0
0.0
0.0
0.0
0.00368831320207616
0.0
0.0
0.0
-0.8486626125898318
-0.8024513203129653
0.5834864331680991
-0.5825651236807734
0.7375609311488875
0.4875675838326725
0.719872076077526
-0.9448374208689374
-0.10104204059062116
-0.11449305888258832
0.3169689022729635
0.895821612745612
-0.7969987032331034
0.9157922907649889
0.2653726389439617
0.5005011404109954
0.4284016868992313
0.9306986156632433
-0.4493185969010123
-0.9459234763305979
-0.40881640566261335
-0.13351749192541243
-0.015442163568083922
0.5441568520975795
0.8495112129792961
0.28360472508073886
0.07846811495949124
0.6439558540388777
-0.5598542168160252
-0.4303676357637869
0.0
0.0
0.0
0.109098570806829
0.0
0.0
0.0
0.0
-0.03045707500191907
0.0
-0.41932103458701886
0.9995884642902013
-0.06074302225877948
0.7537303033415084
-0.178914096423594
0.9506341263008034
0.4265594048403605
0.5352733234937379
-0.38979480092242147
-0.6407672733415137
-0.8033786206322012
0.8539560874906935
-0.9102372145664963
0.5998125598104178
-0.14983988473353604
-0.5946897723594968
-0.04764910166599763
0.602727358966858
-0.6075409757180943
-0.05840081352933302
-0.7415385709126309
0.8496718036738455
-0.55852787237139
0.24268149054270813
-0.11844174612074454
0.9168671698230522
-0.20470684767619995
0.8212560548093253
0.606988850740372
0.5193298228349452
0.06371357027786498
0.2098185962625336
0.0
0.0
0.0
0.0
0.09531928865000681
0.0
0.0
0.0
-0.4320122045076418
0.4472831798474545
0.38925572927462804
-0.08830114070232953
0.09679087852106116
0.5921978671698473
-0.29708327083386754
-0.9670322836546941
-1.0526989750117033
0.9892551934996684
0.3363797512330198
0.24111111815631092
0.632157194075829
0.5378001475001564
0.15226942874858562
0.4823028957935245
0.7188642626432753
0.5712501150506764
0.8599768887114863
0.5793928917324092
-0.5741259838139714
0.44429780360889515
0.6109549394064646
-0.06767806495148143
-0.639285094362176
0.24844967117858383
0.5032153060772188
-0.7585725524903997
-0.7748724492456499
0.795929625419492
0.5908786828074715
-0.38891234134167374
0.3799729030752719
0.7212961439645553
0.33239881472579935
0.532878125780788
0.3369605847007634
-0.4556787228517942
0.18531483927630865
-0.44639519630313784
0.054018498027201614
0.4526062833503559
-0.16151617862286227
-0.5625742998116742
-0.8719637354992211
0.5211195732083007
-0.7112243445509726
0.8957196985154138
0.455184852247261
0.8237412260717691
0.0
0.0
0.0
0.0
0.0
0.0
0.0
0.0
0.0
-0.11240685905792355
-0.8869030089298882
-0.5483943400495117
0.253513318212193
-0.2717862283156862
-0.9857527423456465
-0.8885525186811022
0.39728207404400195
0.4251658071334157
-0.5340162523976963
0.5103906752787599
0.5145706721428223
-0.04942535693299699
0.7091826670435469
0.7746459150632936
-0.021699717698844045
0.7624546052011048
0.02107588709862318
-0.6633639535310139
0.23842686947613387
-0.8571825074421371
-0.5052945129286452
-0.6007931879669224
0.13225170954728255
0.030481638930699696
0.896737311308401
-0.9562146907944056
0.0436364263361273
-0.04037008487457139
0.1332430330471588
-0.7395659013341935
0.0
0.0
-0.13282122506611566
0.0
0.0
0.0
0.0
0.0
0.0
0.0
0.0
0.0
0.0
0.0
-0.01526022440570143
0.0
0.0
0.0
0.0
0.0
-0.07473664874391361
0.0817897011748776
-0.8637157374707225
-0.14644665680422767
-0.6901351628095227
-0.8155143883248734
-0.04606621622433038
-0.728392962452419
0.6782788261683215
0.8611632591191423
0.0
0.0
0.025477459427910683
0.0
0.0
0.0
0.0
-0.05390816367518594
0.0
0.0
-0.0360500128929524
-0.19684745673412585
0.6206561564821984
0.015773641569605257
-0.14377066244797043
-0.9238167643925235
-0.6154197288166414
-0.10042266618960527
0.1713004667574673
0.28876139352597074
-0.0054379802358044405
0.8541246321484939
0.4663197863882498
-0.9691565161226212
0.6501093925911814
-0.3100430815801294
0.2644083164342885
-0.22025412524485377
-0.9970392282128238
0.3209684964928384
0.31749781523308096
-0.08086187259433975
-0.33881528243925163
-0.36801787283367404
-0.7859594571294928
0.7412189706146974
0.46683587636490675
-0.013688788597531053
-0.9292644014848321
-0.7325981463210482
0.0
0.0
0.0
0.0
0.0
0.0
-0.01502411241425855
0.0
0.0
0.0
0.6009973407118867
-0.26816915034394284
-0.40723961286991384
0.6508569182484694
-0.2025244865623817
0.1486131197408611
-0.3405477066586651
0.3350741943653537
-0.7743307127006192
-0.9473537706877255
0.0424656984768188
0.6947938889025578
-0.22173461999490773
-0.5799316050490843
-0.18683425283418964
0.9100853553016648
-0.9120186919178978
-0.8688496624441379
-0.6074006201924631
-0.9026260743319026
-0.4198217141719118
-0.6813177149396787
-0.7257151402397245
-0.38437552125879715
-0.14806667234582346
-0.4180782926333959
0.10290260275003194
-0.741380635175083
-0.9794537632066636
0.05101492035445254
0.38637623977063473
0.2633675597133967
-0.2934578165808479
0.2097979692473936
-0.6261068780937877
0.7460193910395083
0.3314041316142582
-0.2549448558657955
-0.9582565710406261
0.30451288241150753
-0.785395858411007
0.22267790574149005
-0.041195306886327554
-0.43000906083814305
-0.7375865619935753
-0.30132597611392
0.009014200774534187
0.3502266506311602
0.7279902867362162
-0.27307331423326725
0.7540935069525845
-0.046137109199896775
-0.21050592597755702
0.2399445294764253
0.9441640811135916
0.7048274885952999
0.22607598209557556
0.7718316702364217
-0.8077822568027949
0.1502751945182319
0.5864667366812244
0.6507168443625764
-0.2777294258877985
-0.6317208330186717
0.5240500208842631
-0.2882833218454679
-0.8745086251207463
-0.754249065725223
0.08617737938464545
0.30900484646399073
-0.09454529886614191
0.15204390192679362
-0.08272063238489435
-0.633123279607287
0.30712866898815183
0.7043089743074435
0.7167641603341938
0.931915776461397
0.16710057527348865
-0.9236439541787979
-0.46152498373585704
0.4021622663285014
-0.29363987078410303
-0.7084291476233271
-0.7464493674025352
-0.5274926803770887
-0.2098760139162108
-0.48210319191382606
0.20892499587211488
0.3405078383338138
0.0
0.0
0.0
0.0
0.0
0.0
0.0
0.14669918263393644
0.0
0.0
-0.40815025336141586
0.5522855140537652
-0.3956669927484518
0.9465931533889973
0.6582315310267469
-0.4618544439370378
-0.6863313306986174
-0.7210466727156537
-0.9223971418455001
-0.977442190998713
0.23016817316461635
0.05043074198809139
-0.6765269493958905
0.30438913319671324
0.6012661934355377
0.6157720279064249
-0.3436981861074797
-0.44953045225287647
-0.8162118057978325
-0.6770926073820034
-0.44211853827519043
-0.14885284957272016
-0.0012414470903530095
-0.7708775546427065
-0.8275312520410367
0.3459277201289763
-0.22837803330147177
0.5476906505723287
0.32894542998488374
-0.788227117982903
-0.039577930445411136
-0.22281657214763217
0.5126048084652275
0.885550015978851
-0.9190061229496646
-0.6773070348250407
0.2241144039066041
0.988230355617836
0.24597844453737225
0.8815772935975579
-0.07118460312136854
-0.9264578051884154
0.8849411158066794
0.6382205096889966
0.8269677577933445
0.1794796555009024
-0.8821596389531348
-0.7891676483057053
-0.04120480184529729
0.4360842571288548
0.14502507439264511
0.26552822324723035
0.8849071332085281
0.2660052469024936
-0.00794281124250018
0.23969170206783574
-0.8805538508294151
0.050641498064187385
-0.4132021415716445
0.8708116289223375
0.0
0.0
0.0
0.0
0.0
0.0
0.0
0.0
-0.08803042440462054
0.0
0.42526043165538674
0.9079234269132351
-0.25712542767026103
-0.9342175731107765
0.05488406904732468
0.615334432941955
0.3263228960574447
-0.25199943556811855
-0.23028062022400797
0.9423431143852666
-0.6101247229988513
-0.6109103609165707
-0.36852350653309185
-0.7653569982100464
0.35440622460414595
0.6212133447603204
0.40752008542689977
-0.18521378488493978
0.7365486071600913
-0.09946630722129413
0.0
0.0
0.0
0.0
0.0
0.0
0.0
0.0
0.0
0.0
0.0
0.0
0.0
-0.016648576882468936
0.0
0.0
0.0
0.0
0.04222275131731551
0.0
0.564291823478462
0.5226928857958515
0.4951716458380182
0.44869398448801623
0.6545060661607807
-0.560710768694034
0.0948134541818716
0.532028204975804
-0.7347932735897854
0.3976147111264132
0.0
0.0
0.0
0.0
0.0
0.0
0.0
0.0
0.0
0.0
-0.43565810961320706
0.660678265138922
0.32254865063905114
0.8818544210252239
-0.10388657841999005
-0.8594274844787022
-0.8659094849938871
0.28391411109706843
-0.8863908279506079
0.9896811135256571
-0.8408807149992412
-0.3569703907039712
-0.2559770550090985
0.5572290863237523
0.282466658021721
-0.5909250566218536
-0.02085126177494767
0.19259337870938742
0.26991354606735274
0.010521627718831139
0.8027207540363408
0.5825402358951919
-0.2508006613019109
0.40792510610631316
0.7753472934115111
0.532444077222991
-0.9748414488627439
0.9390344065064927
-0.6031318583022938
-0.29889865664580606
-0.5143487031504759
0.01394013972772501
0.22040573947469788
0.9110730845185815
0.3050350107178421
-0.026655243152939212
-0.38335119826057196
0.20859850989587203
0.1612958329523586
0.5244627365003082
0.9035434463531788
-0.1588721628592172
-0.6597700284890555
-0.4024824024912925
-0.6310719650828953
-0.6089324174901578
0.8473337276836637
-0.9877436741105625
0.9890755847282693
-0.30588086632973077
-0.49366857726038615
-0.5573873377210965
0.8878363134879264
0.559502692358212
-0.7128306184254991
0.9218502057387643
0.84362727610292
0.936114495193492
0.37453627078004814
0.3907414137747982
-0.5784377428874377
0.30147614090525154
-0.16904148482828996
0.5500418177106514
-0.9718091739212473
-0.12277224914562357
0.64727112798525
-0.9177951079632887
-0.5156209422999933
0.6361824584048799
0.0189473915784939
0.20437374254437085
-0.3570480440262205
-0.5731946917359867
-0.1206690896702487
-0.3366414902869326
-0.012571359731229359
-0.09165654142716234
0.3381336974559117
0.9656646408030667
-0.7673285948132158
-0.350681097968492
0.7707450538539333
0.6846426829241998
0.28924496162815805
-0.8276017663333839
-0.8846009219141917
-0.5313552857104045
-0.6456063792883611
0.20395907299985105
0.0
0.0
0.0
-0.08298429784249871
0.0
0.0
0.0
-0.024306122976975382
0.0
0.0
0.5663851883009281
-0.7275624394960318
-0.5521869962552917
0.10776950291298015
0.9532684491015031
0.28097577892518877
-0.16575896803419243
-0.3400626562546083
0.17030129967990115
0.05546821987056494
0.34715693432601324
0.08619809809188954
0.128144363828405
0.32243875299680935
-0.23976643500463934
0.9743650173955767
0.5963899365612952
-0.47489144045149656
-0.14365978125310064
0.9240068226711313
-0.6895342327484233
-0.4208222778441919
0.16671148570511396
0.42082006732162136
0.9656344338486333
0.26408478796288004
-0.6257727114426705
-0.23843535045023545
-0.5305946510079024
0.12063525807531672
-0.34749763836007297
0.5368651755558649
-0.05216555381974897
0.5301758161047381
0.7288352248080812
-0.7044692366384702
-0.7579093978554439
-0.34429131356473813
0.2434324568598032
-0.22943421891101323
0.11968868420105976
-0.3129210123694842
-0.08245456534501971
-0.00016767774624493192
-0.668051261330316
-0.48237753227754165
-0.03815649414069022
0.30001214403301446
-0.3071919153438455
-0.7588525412706739
-0.022249329740397172
0.6833130261109475
-0.6221800412017009
-0.5092458193807694
0.9126924460246975
0.24389556509860272
0.7714702293914368
0.6977280228534575
-0.49760549617661554
-0.06585055867175522
-0.1443757007564384
0.5567708368900461
-0.21917804488640058
-0.01327049508883027
-0.6917708471711883
0.7160343921346479
0.5394582357608708
0.8789179885580101
0.06986980915878482
-0.31567331298651413
0.26017460836405215
0.7745046831371075
-0.08471624124904786
0.3976521197462295
-0.03962332655220995
-0.7554067597390666
0.440696569899403
0.2897139575975529
0.21487736425383464
-0.6856137327275129
-0.018747536138258303
-0.7714758439422704
0.38252534118645287
-0.22514856821844076
0.12481819483406875
0.8020994380732731
0.5286964779722285
0.4999760980071557
-0.878006307782794
0.32396667230233156
0.8747116220256055
0.8566538021006032
0.14166800963577875
0.1551026532217692
-0.7027448772258378
0.1719384022628272
0.48417886529599174
-0.7051259649733594
0.9779343019876963
0.12934133830395034
-0.11084913520897033
-0.0005065732379321911
0.0
0.0
0.008162927364594851
0.0
0.13247643690159758
0.0
0.0
0.0
-0.8077178896275583
0.8219520413815844
0.7249900770987678
-0.07628507560936802
-0.7828536826606016
0.6530588083036872
0.6666305321780464
0.05107711169288476
0.23401238647460496
-0.3130939841646436
0.5583144181510595
-0.7252604907472462
-0.7225878442411839
-0.6142174512834626
-0.5456420426637025
-0.81737912492895
-0.3461358587877814
0.1509128795020762
0.7644208884124082
-0.432515188077476
0.0
0.0
0.0
0.0
0.0
0.0
0.0
-0.08164044317559059
0.0
0.0
-0.3489149674984231
-0.5653247263085016
-0.7328449622419906
-0.7280665087573575
0.2925384529565138
-0.8231440307301439
0.9334811132439216
-0.006232620846057457
-0.565797972893535
0.31221408254220084
0.44806474432474985
0.22151854070887778
0.052543993042222015
-0.5919055434933354
0.08246950206054238
0.5194473357281557
0.29272046725223144
-0.003445378576051414
0.8154988032465613
-0.702305073675149
-0.10432057092486455
0.0
0.0
0.0
0.0
0.0
0.0
0.0
0.0
-0.058359135680007015
-0.3151683969470441
-0.603744699132884
-0.9619494729785782
-0.5652398594736896
0.24708925535219017
0.1486344542007938
0.020503467527223318
0.2089088356119675
0.6242348339548358
-0.8582332032819544
0.24243280049641802
-0.17549334664825345
-0.41841387289856824
-0.9038127662318494
-0.5077101347230026
0.9134662925679282
0.5027573006721402
-0.8213469957880999
0.6647959853753167
-0.2557072120032555
-0.015561255483916911
0.0
0.0
0.0
0.11873290997963451
0.14194289300268312
0.04224451367864094
0.0
0.0
0.04201600981769125
0.0
0.0
0.0
0.0
0.0
-0.1158221401786766
0.0
0.0
0.0
0.033489917706991265
0.0
0.007065295499433605
0.0
0.04463164383472231
0.0
0.0
0.0
-0.05139555908798864
0.0
0.0
0.26212592599303997
0.06459301405017759
-0.9936696541109085
0.6951713684472736
-0.8834918401997269
-0.5578848125850336
-0.8427080830767734
0.06841329464107537
0.9489528325150325
-0.2139766082880059
-0.5117346067319659
0.6053451060434549
-0.7820026733929952
-0.489937731542899
0.5078030995491334
0.06356000527081607
-0.4140886232919698
0.8518156867501454
0.3814675999868027
-0.3027658252414278
0.8700215102486422
0.08732152792084488
0.4845335474048733
0.23836395743238747
0.9688833471581977
-0.8835784921532752
1.0983296764835533
-0.07894983702554437
0.3117224472165818
-0.19625561994543417
0.5847417816964025
-0.20476324101140175
0.20819427249891143
0.10107948728833233
0.8479622033184553
-0.8272546203300177
0.219776498901596
-0.4369951851750904
0.5421282607724593
0.45431776847615146
0.13519052135008613
-0.6236143239981311
0.6292373211579492
0.3115058342078234
0.05182070465263463
-0.23441501043360646
-0.12591757718711838
-0.3759348293862499
-0.05911668075036802
0.818636768796074
0.1124164724725395
0.07180990811946547
-0.6566870724703502
-0.6925840603241298
-0.2653160286728382
0.09564988829040666
0.8677083906976879
0.37892445888309667
0.7719221377842556
0.2486179329106062
-0.4395466850198564
-0.7016520404127033
-0.6455705444614184
-0.36153831022717714
0.9582546051078276
0.4126446996517448
-0.3952986131063634
-0.4956237610397073
0.9117911536684651
0.1147209900127868
0.05267470434143926
-0.3670170215243518
0.8865908601541939
-0.38848685052178755
0.42672542554794046
0.1859710693040737
0.3146134682807147
0.6243201583362001
-0.3650253896449336
-0.9082878206395351
-0.8176985347190829
0.7842772555393236
0.8919290458553661
-0.8411628329978839
-0.39081090017673237
-0.31247927649406826
0.5214540209696585
-0.6852757901755171
-0.462339388228145
0.796836755648991
0.9406643733586233
-0.5594899557530728
0.8766745153076168
-0.7645352150425555
-0.33279563838190906
-0.5977647059356499
-0.40260876741228224
0.9495263496778017
-0.5067503896698784
0.8543646691891199
0.0
0.0
0.0
0.0
0.0
0.0
0.0
0.0
0.0
0.0
0.0
0.0
0.0
0.0
0.0
0.0
0.0
-0.12675734123979387
0.0
0.0
-0.4175629119892763
0.673064420664143
0.40143946731359026
0.01873987697123347
-0.43254185156629976
-0.4044218650467789
-0.2410709641262112
-0.29755357292310136
0.7551112940991758
-0.43656545139187486
0.07627748031637013
-0.4913221544798321
-0.2743338547529112
-0.7553808200085304
0.7374513371762962
-0.06816487017234035
-0.8890757918809518
-0.8544745699863806
0.5571562979080533
0.5319667421359905
-0.6944711254510532
-0.5492056865361541
0.552121907525482
0.3828037342180264
-0.005805157522428939
-0.12162751832048091
0.17557880100813117
0.33460299475891464
-0.11244513426967592
0.6280123145700366
-0.853524308482692
-0.7085123057584182
-0.6818382018733589
0.2550171867908113
-0.22385990928547495
-0.8909096053826646
0.22360381434618914
-0.20837964048889535
-0.059140829216997357
0.5420834076781484
-0.040294818420884226
0.9480206822931377
0.7947894865727172
0.1517475177076455
0.309305932783575
-0.6150359608740501
-0.07730137262070014
-0.29706910791837426
-0.36855287840133233
0.43984092009419795
0.5933820702060109
-0.787702858171901
1.0862645704956517
-0.7899424610335304
-0.8586672351656333
-0.4190186126446115
0.4832147964908563
0.009547891356729732
0.7242090030004245
-0.8939993365255794
-0.9192664943656427
0.5031736264886175
-0.6258641401268841
0.820319565694452
0.6428515981499388
0.33745760726094975
-0.48897812383655714
-0.336963652190295
0.6034467788256104
0.5583925391850895
0.7010126635011313
-0.083630573056378
0.8952238324667672
-0.2056759975334883
-0.3727974730223138
0.4509422306894877
0.9484366001805093
0.6525386144273893
0.8435916916543802
0.34397572718119784
0.0031587229584940785
0.08415446955530217
0.0
0.0
-0.04201855844039592
0.0
0.0
0.0
0.0
0.0
0.0317836968585342
0.0
0.0
0.0
-0.004607602604578427
0.0
0.0
0.0
-0.04634051356253325
0.0
-0.10416001394235103
0.0
0.0
0.05718121155894333
0.0
0.0
0.0
0.0
0.0
0.0
0.0
0.0
0.0
0.018255339129294938
-0.0679304679318803
0.0
0.0
0.0
0.0
0.0
0.9055356999216402
0.501482114869895
-0.9292535071088164
-0.4531145684880531
0.6030339635043047
-0.2570327710069946
0.32332969963738895
-0.13096146479979054
0.14467196061848386
0.01303774182713302
0.15224913598100387
0.0
0.0
0.0
0.0
0.0
0.0
0.0
0.0
0.0
0.1482123862047955
0.531376903709055
-0.4370806337916735
-0.6758957568726387
0.2384357977308038
-0.26800347918777323
0.8149246543191075
-0.7095329925030671
0.20902194771188265
0.2547459110878356
-0.045224864782466456
0.7464745741809449
0.6375924572942068
-0.16642653235091498
-0.8109995743673628
0.9131648163858058
0.20040541762309605
0.08713926865254917
-0.5068232085418252
-0.8037861010727871
-0.5306567338253101
-0.14472357888059162
0.009700280704415531
-0.22153396752383547
0.6140584963305304
-0.373989610604303
-0.18278207918507716
-0.5780832752399607
-0.4023377269092181
0.6653823660018647
0.5868623753872422
0.16516136394020653
0.05560545781937165
-0.19431481034917697
0.020329976752885726
-0.09490581970882572
-0.5629908533599863
-0.1935520421614625
-0.031876988853282606
-0.4366616954604037
0.8668386316525938
0.35738358988036545
0.21966535057235692
0.37348923114303867
-0.8277094151055429
0.3254191337204051
0.9851409254628338
0.7872951724501118
-0.5456439083121171
-0.4525985007037432
-0.9781063730514716
0.48611583419055393
-0.00517726115544595
0.0446173095859614
-0.9668837875067766
-0.8642847062778714
-0.522085910240722
0.1184695660465902
-0.10436252618143627
-0.359776340971091
-0.834089988571711
0.9590344405625353
0.22937320711242282
0.26375509884344994
0.09534504785708409
-0.4355097535303303
0.21895203646296513
0.053235636782147044
0.8921935056829189
0.6935396229703283
0.013416275127559718
0.5852608176205811
0.7660111422997171
-0.23376420912930085
-0.4537847192471187
-0.7145731454697917
0.08782531695359452
0.7638978476602516
0.6459043201040017
-0.623164014221355
0.887538883639545
-0.423473646067855
0.043061653488018825
0.7412026175644626
-0.5331933207313622
0.9543738469938896
-0.4971950369499887
-0.5393647222671547
0.759403837428508
-0.19698334760872172
-0.6302994350328222
-0.6821703570154236
-0.3154665410819375
0.10738892413305395
0.7300770233697695
-0.4703765401504623
0.1579668902326372
-0.17527494325642223
0.09963114792146599
-0.5404985592004561
0.0
0.0
0.0
0.0
0.0
0.0
0.0
0.0
0.0
0.0
0.06637427437569264
0.0
-0.16002297635407398
-0.12444833322151631
0.0
0.02441108889656915
0.0
-0.10092237372506305
0.0
0.0
-0.39929612749451504
-0.20056098263995562
0.19741590771179718
0.24277277975216993
-0.7002475326732147
0.0934092039520289
-0.6053468055468925
-0.968462862666083
-0.632380009736669
-0.8246457460671057
-0.3321111382769262
-0.5259039933590348
-0.9812733217534853
0.7875352120848507
-0.6153781843907022
-0.9584536652069211
0.31416114551233987
0.07179566130096582
-0.27779170924417285
0.851264145606379
0.0
0.0
0.0
0.09892602352091343
0.0
0.0
0.0
0.0
0.0
0.0
-0.015075597635727966
-0.40745434270796377
0.2382752397230088
0.8847389193368729
0.7065199793031064
0.4827500016419166
0.4320217617707089
-0.029632469884916995
-0.6312202563505738
0.4326836769960314
0.9982262172229146
0.8519329276854435
0.9009892415936631
0.9142697246692715
0.922866139237301
-0.7406883442643586
-0.6182477358446157
0.5330643086788633
-0.15216690037173713
0.12360824393401582
0.43368780532386375
-0.7951392077837297
0.8033621881930695
0.8774816554404046
0.9643571431535446
0.9201838415663529
0.3550260476727294
0.890175801629519
0.6769127175572751
-0.1985363757114995
-0.07323615639814274
0.9776277657081973
0.28835864205594164
-0.9983732201517412
0.15386397328848278
0.16313301676758485
-0.12846592832779086
-0.6456232407182747
-0.5484691287913271
0.6229835563106163
0.707065407170003
0.1139565194314888
0.19986039528169441
-0.6286822248522519
-0.963370499222252
-0.44104973008835385
0.6689203350227759
0.6790525312952187
0.5262646947878238
-0.004145131043607142
0.0
0.0
0.0
0.0
0.09850943539207163
0.0
0.0
0.0
0.0
0.10438440053638229
0.14350860944637334
0.1686811678830027
0.8852012079683724
0.03444110860512506
0.9256215252563558
-0.7091310779542668
-0.846908063324217
0.8425538608860663
-0.839325441569365
0.011028598012966892
0.047759773887821266
0.9754987391842656
0.4629114179751177
-0.9046301626461026
-0.684153122049121
-0.9334011435872105
0.6867121238733171
-0.3588793503710006
0.35922843617683786
-0.05410868251400003
0.9394232612507472
0.8000071995721849
0.3559600193756167
0.9975522451274574
-0.49988629783315797
-0.6760476422752515
-0.41043820095054295
-0.24219929540764795
-0.8411210370362205
-0.5362674522539778
-0.8356562836511074
0.0962133010116033
-0.35921858829118497
0.9859848375250766
0.6076568493666572
-0.6872010238113457
0.6488141580560916
0.6987718661076894
0.27003569529920113
-0.22593478896963037
0.2787910205634705
-0.2807300402164874
0.8775214813173043
-0.7891352329187387
0.3384111363835236
-0.26765158230000496
-0.7748368308933995
-0.13851892087407913
0.22947117944567874
-0.7813052706806582
0.6399636426187358
0.6965341084182334
1.0262232024983116
-0.3437196767116162
0.4839982411687432
-0.23319679533450244
-0.3335841596324588
0.7092287574784666
0.8548759754709979
-0.12393540898491273
0.0
0.0
0.0
0.0
0.0
0.0
0.0
0.028656406174612285
0.011001508671154818
0.0
0.16780914646554423
-0.5104410738464435
-0.7781950446644228
-0.08868530401143904
0.025003823134583714
0.4916786849825222
0.634952495039365
-0.7689125861758763
-0.2611634122579205
0.17822979156147034
0.6244057025533101
0.9353678534331661
0.3893855751126174
-0.7556712210169387
0.8553029094493072
0.7583663154933162
-0.48338622085758964
0.897686289398901
-0.45393434944041733
-0.6604901524713089
0.3076952281261931
0.27361676593645434
-0.7943472130110019
-0.47389789706597685
0.25336380454054896
-1.0498334707458017
-0.6357957471098932
-0.5936547935736016
0.721578518110386
0.49181760300880284
0.6164964285515718
0.38458126359177613
-0.8778304824185861
-0.06301571386196758
-0.7080844749087285
0.7877554183525446
-0.5744619189626121
-0.9113969888652649
-0.9795518472327236
0.24987187439985648
0.8919214984129531
-0.3411244419839359
0.6439334593635857
-0.09015272424983789
-0.02593828939865417
0.3511486999017144
-0.11093404339863855
0.2551510074977128
0.1105472080352441
0.5541823776752234
-0.7009621445502605
-0.38382201162199037
-0.756235439265587
-0.24873985373918917
0.03051512292279135
-0.9788483939295749
-0.8654418336269738
0.28536182774067753
-0.12452413746822177
0.8134079260520746
0.3780556785439426
-0.9621030886436224
0.14751347485923527
-0.8417564762238299
-0.19869519119804213
-0.031444481740153185
0.09071779910491062
-0.26818683054758186
0.6976810570984843
0.4721400416191288
0.8898786212193086
-0.4259427067782551
0.1387602188191519
0.5721591032044346
-0.7513702041901851
-0.2604561935080454
0.3228646737231975
-0.9529969062876491
-0.9982497386363662
-0.4783484583604529
0.069102584894559
0.9820419694522871
0.21984060307076822
-0.47017970167114953
0.20999532236167684
-0.15250141578584464
-0.7634334732562267
-0.3344460959534725
0.1829016590737611
-0.14638159944713958
0.9883098622141007
-0.6287390883219814
0.9341452040914207
-0.010034975821268333
-0.3126977557195998
0.6200311821638964
-0.6920457756717935
0.032298313354157226
0.2669033864703134
-0.6722099841025055
0.0
-0.021464736139273972
0.0
0.0
0.0
0.008627941436431094
0.0
0.0
-0.11392326567111877
0.0
-0.17392308746582572
0.9589862816661694
-0.37629756833233574
-0.6286764212472506
0.6635290132325993
-0.9484023766556053
-0.6118326197440751
-0.9460825654834171
-0.15544975465955257
0.7424332307379053
-0.9793350313229219
0.4653926444475436
0.005461210955205057
0.37613557495823124
0.5685166029961698
0.5164442525878934
0.9866114063455231
-0.05403232208274278
0.78094733489479
0.9698143945474764
0.0
-0.06125687966792146
0.0
0.0
0.0
0.0
-0.10174688743506244
0.15022819869254236
0.0
0.08667070437912477
0.0
0.0
0.0
0.0
0.0
0.0
0.0
0.0
0.0
0.0
0.0
0.0
0.0
-0.03574682756285908
0.0
0.0
0.0
0.0
0.0
-0.07272966631165632
0.6053132020468197
0.7808265057771726
0.6443141727020611
-0.4033590216361256
0.45540818738177924
-0.9134715775488731
0.1440379038164016
-0.10785453248688737
-0.1858774395705438
-0.19024402570504054
-0.4284410548087012
0.18179210941208357
0.67122992139917
0.018591331108340103
0.03351111029425957
-0.9963281455004469
0.0764915262872734
-0.5348525036023097
0.7722278674882292
0.8924401724079429
-1.0040336933230505
-0.19784176534096387
-0.8314084818411291
0.7777112199154275
0.9309182328140441
0.39764102697171677
-0.22638011100020639
-0.2491426795611264
-0.8631996602804006
-0.39794962173460063
0.347369433988749
0.7996394031769023
-0.8880456874078155
-0.6912485496953378
-0.10123241239380998
0.7172049049055667
-0.3060801179681454
0.2852927187221065
-0.6145441633640942
0.9275278646524716
-0.8010965882230108
0.28422499026144876
-0.7429096788742096
-0.3176444618510813
-0.4223629073649129
-0.17745406704997557
-0.8852512675393456
0.5538046562238208
0.8473996568211632
0.7898804754262503
0.13992877933707032
0.0778277019641409
-0.6424725537563902
0.007443309592930061
-0.26579905830596995
0.3889861716286831
0.7691683311260329
-0.8299018011113122
-0.013812825465360487
-0.5709352866684947
0.538146661082848
0.13199454532090193
-0.4537668746438621
-0.26945424722413813
-0.3739311314971048
0.11734008742227765
-0.18684274268890477
-0.08689382018575742
0.8519879567689834
-0.4707830938274842
0.8771508853238621
-0.7300167125322132
0.23349623471762215
-0.7998339090698168
-0.06716313789079509
-0.9949653106311436
-0.2232830937098278
0.7762023577941977
-0.9537745585063708
0.020541275567914186
0.0
0.0
0.0
0.0
0.0
0.0
0.0
0.0
-0.16838076404671198
0.002093380346186749
0.6612901675201841
-0.7078160565206333
-0.17041550961872365
0.618149677481501
0.03465402318238442
0.9237966568087228
-0.7245495602248571
0.8481101121956751
-0.26104552262468456
-0.23629700074428395
0.8313653119770239
0.47814018515615775
0.2938596671990694
0.2662336848872821
-0.28130799638896686
0.19576516021451384
-0.3588878297234437
0.24699315985440737
0.5166978895134136
0.46549869161070934
-0.11056445471557284
0.0
0.0
0.0
0.0
0.0
0.0
-0.02005368087899333
0.0
0.0
-0.02785816137059824
-0.6840495602999701
0.1624972899886743
-0.44729724894407524
0.7014114843971475
0.4196766453996914
0.33462168155898275
-0.05782298471170266
0.6868778510569458
0.7051449240435117
-0.022566756717314895
-0.04689622595987974
-0.3425988324430713
-0.31653493867059
-0.9326942654650805
0.42868613747011786
-0.47096751997258285
-0.15301032853592222
0.6142889096473156
0.8184402880461706
0.12216956179446517
-0.006620047009053387
-0.5922921951879002
-0.5239867727077772
0.12044595543372028
-0.4974616336882134
-0.8657497338368096
0.555238377387224
0.8848973915617229
0.5801692123546797
0.08104774787993785
-0.03385329302971196
-0.9309572727318123
0.9588906026675263
-0.39462520169792237
0.02914298538578186
-0.058658064711818
-0.6992863478543716
-0.6866675972427752
-0.032329472370843604
0.1171982784089649
0.5084469554255497
0.3722691363166286
-0.5653097423056519
0.06257611002095764
0.7809216405673951
-0.4963956724627243
0.4935849433834013
0.8304416256566806
-0.8769132729475497
0.5297680615467522
-0.9932652607242629
0.03210701843533681
-0.7502886078381255
-0.8097347379413835
1.0479039939514567
0.9813669768658873
0.9408651970228716
0.39504041394036515
0.873133075368216
-0.6326860731115747
-0.0646973991167954
0.3152761394920307
-0.8185408317911407
0.5717049098459923
0.019412372622308396
-0.8896484244930489
0.3344892282255733
-0.0322520724419868
0.5868456068811727
0.05509432463856401
-0.9666805366694269
0.9160987041265629
-0.7983866054754771
-0.9579281923025815
-0.85628205528215
0.8967219881535882
-0.053501668998311436
-0.186228225210336
0.09165563015605427
-0.5821619102006306
0.3179206492837024
-0.1260041821710769
-0.4264692881429315
-0.3972105875476988
-0.4729448329791299
-1.0131169837575595
-0.5371511730656874
0.7076231238844497
0.9790829013431667
0.003219188633835187
-0.06750758739251575
0.0
0.0
0.05467868456555797
-0.07668278214762053
0.0
-0.0719796523584605
0.13361388154479234
0.12313121979498737
0.1847059555276156
0.8958201391905845
-0.4561379345758856
-0.8983559259424581
0.4641790971819233
0.9624710276182815
-0.55134060594
0.8912520515737072
0.9249756830624345
-0.9645745966617547
0.03867514003776806
0.6954886628121348
0.12738813524319492
0.776140392658168
-0.0009862049767477218
-0.11041638124006936
0.8249626689455323
0.8750362311682054
-0.253397099021194
0.9254749288997208
0.08518580190694716
-0.19616612128858546
-0.588004429986132
0.26519604061129387
0.21863130909355083
0.8527502676311767
0.19331294581662206
0.6149297526874478
0.30958265109798977
0.03319305723164123
-0.4871908708585151
0.10734110272194886
0.895310996070539
-0.32838923814867527
-0.10016389526202728
0.5086115978426671
0.4383201789772554
0.5227083718960708
0.22514107817805112
-0.5328625575221044
-0.8649268654142401
-0.2370531967245011
-0.09475533094592392
-0.3927425563150815
0.32503025956202863
-0.10846255489421619
-0.11938237032964572
0.5647936986629645
0.4911836145759456
-0.08497770254352477
0.0
0.0
0.0
0.0
0.0
0.0
0.0
0.0
0.0
0.0
0.0
0.0
0.0
0.0
0.0
-0.12864387694991405
0.0
0.0
0.0
0.0
0.0
0.0
0.0
0.0
0.01818440659323475
0.0
0.0
0.0
0.0
0.0
0.0
0.0
0.03629163676351328
0.09538723449053833
0.0
-0.009424043014103756
0.0
0.0
0.0
0.0
0.0
0.0
0.0
0.0
0.0
0.0
0.0
0.0
0.0
0.0
0.0
0.0
0.0
0.0
0.0
0.0
0.0
0.0
0.0
0.0
0.9318408322592078
-0.9353916837865062
-0.09139954181561616
0.9296415799182823
0.3528533443717512
-0.7984023496785484
0.5859788449885164
-0.2885051255777837
0.1930032129827174
-0.9924116635880209
-0.3278499762584317
-0.6411378012310016
0.24491417862602138
-0.4730120029395297
-0.14839224569557308
-0.683299825832927
0.6850870658337316
0.7284674562287254
-1.0289086844399444
0.5700028754826658
-0.46786363276464393
0.2289080373376624
-0.1421889892881485
-0.661899865792025
0.5375620343983329
-0.5336055711833315
-0.011877487962151267
-0.7195910383595743
-0.32953685133174404
0.04928339082373734
0.0
-0.01160805744770916
0.0
0.0
0.0
0.0
0.08210719478348526
-0.0381503314041097
0.0
0.0
-0.4729898456019608
0.020797269460801848
-0.40199507884990493
0.956639485301471
0.554760507286757
0.7186249029486098
-0.41409805160618485
0.3929303069554503
0.19666543445813112
-0.9093628836513648
0.0
0.08576296935777994
0.0
0.0
0.0
0.0
0.0
0.0
-0.0502953447135807
0.0
-0.3426829891652483
-0.5876178605613502
0.4247788087870761
0.5376638167766665
0.7369852905621843
0.1690827701862787
0.96747915213382
-0.4345150707810601
-0.9951895687777035
-0.3434496459868408
0.0
-0.12505901030363936
0.0
0.0
0.0
0.0
0.0
0.0
0.0
0.0
0.8410851068467136
0.3542503956492131
0.9531414406087326
0.6622723018998553
-0.5978552256353545
-0.6335007644589042
-0.19341651816033845
0.8689452170135548
-0.39786492668200046
-0.5481186653336769
0.0
0.0
0.03307684611446047
0.0
0.0
0.0
0.0
0.026759716486935106
0.0
0.0
-0.3718394455689791
0.3690363195982016
-0.5527613223609988
-0.7217725310237504
0.1856015536904886
0.058251906952283994
-0.27330988104527565
0.9834652694683547
-0.2786886031881126
-0.7133796065342486
-0.7588267112568257
-0.7224274326606142
0.2591288484269367
0.04010263547984247
-0.16416514114390068
0.07902279390443762
-0.031361733867163455
-0.9214488189042522
0.13301058052017267
0.7880740469891464
0.636923075080386
-0.7424771969383006
-0.07625839903234159
-0.8139655466630642
-0.7802132321983065
0.5912463919902742
0.9235267221579919
0.5936796266509354
0.15599386552389427
-0.23705015232437285
-0.4747897177153706
0.18580090413890193
0.3216581581332043
-0.6672667183015797
0.539812816274879
-0.6336133758750682
-0.10379085213908734
-0.9954858433833926
-0.604237011946581
-0.8092727918236335
0.0
0.0
0.0
0.0
0.006947065573002136
0.0
0.15685323880767907
0.0
0.0
0.0
-0.10357425097823914
0.652606109089366
-0.6547840485363596
1.0448118925653993
0.5977665471925739
-0.3467499747797505
0.864452133162229
-0.8233356175607611
-0.28530625780932617
-0.3164962099407663
-0.3543625024653534
0.6693833351031842
-0.4141967737028993
0.6288348551758061
-0.11769977925106523
-0.02833017139114835
-0.048152461076737874
-0.9792055449718731
-0.18890156348781884
-0.09331074021790497
0.0
0.0
0.0
0.0
0.0
0.0
0.0
0.0
0.0
0.0
0.19520724697444858
0.5879734828625559
0.7300150840927339
0.8221668184565689
0.019761214633793545
0.02788797394460607
0.4529353473462838
-0.17473492532973967
0.46239893724060455
-0.3782527659008401
-0.2961177668601189
-0.018523483875405047
0.7413425962972792
-0.3566998987138126
0.9255686174069999
-0.11333107636788298
-0.4282462611108224
-0.44486943633139303
